7349 32
31724 -1.79774 3.29496 -2.2319 1.33736 -0.578326 -0.392115 -1.28048 -0.246706 5.07778 -0.750345 -0.0940505 0.212458 -0.0939984 -0.413054 0.0802516 -0.451783 -0.392521 0.225665 0.263047 -0.429221 -0.0794036 0.0209794 0.148768 0.0825453 0.0880709 0.192799 0.166248 0.143123 -0.0696719 -0.0467511 0.186728 -0.0648937
32931 -1.69977 3.22422 -2.03373 1.43651 -0.224514 -0.436739 -1.37683 -0.237611 4.95675 -0.776988 -0.157051 0.120859 -0.0497236 -0.466125 -0.170641 -0.284759 -0.367965 0.410558 0.33282 -0.578553 -0.066197 -0.0894304 0.109332 -0.0291227 0.123026 0.158176 0.26212 -0.0174944 -0.0170804 -0.104498 0.104883 0.0040177
35413 -1.85936 3.21149 -2.05084 1.42689 -0.393121 -0.238366 -1.38809 -0.402904 5.1198 -0.655719 -0.0420356 0.0813281 -0.0949051 -0.233933 -0.0379868 -0.465529 -0.393683 0.309926 0.444096 -0.323212 0.20153 0.15769 0.173702 0.00196292 0.173424 0.0470871 0.0697961 -0.0189939 0.066147 -0.00669153 0.0790336 -0.0917438
35559 -1.76634 3.15789 -2.18304 1.24828 -0.321401 -0.24506 -1.55168 -0.401179 4.86601 -0.585445 0.0142281 0.225666 -0.0667131 -0.421061 -0.00530194 -0.355102 -0.243298 0.446395 0.635974 -0.248698 0.196878 -0.0429428 0.126197 -0.139926 0.0736335 0.0797253 0.302444 -0.00685894 0.0968922 -0.0176701 0.0722569 0.235865
32412 -1.80669 3.20289 -1.89121 1.53187 -0.670758 -0.223403 -1.28293 -0.276386 4.96894 -0.810668 0.190996 0.203395 -0.0763631 -0.29433 -0.235893 -0.501202 -0.449045 0.218879 0.206484 -0.337549 0.17475 0.00526399 0.430221 0.0521084 0.0618377 -0.0825206 0.151806 -0.202596 -0.035523 0.0527438 -0.0428418 0.0307999
35596 -1.84715 3.25196 -2.20326 1.40715 -0.434148 -0.329866 -1.33123 -0.348908 5.13849 -0.67168 -0.0116041 0.184761 -0.0425896 -0.302193 -0.0606943 -0.378436 -0.369532 0.479236 0.362815 -0.384355 -0.018176 0.0560629 0.0463167 -0.0211534 0.0218111 0.00888442 0.0957647 -0.00667546 -0.0736291 0.016774 0.0415348 -0.216178
36467 -1.80373 3.26714 -2.02234 1.51025 -0.439851 -0.155959 -1.3679 -0.344741 5.10989 -0.69591 -0.0859804 0.26889 -0.00500715 -0.243396 0.105318 -0.290061 -0.273243 0.363869 0.431395 -0.423837 0.0397943 0.0390895 0.223568 -0.0830869 0.131618 0.00498008 -0.0118853 -0.0323797 -0.00593193 0.017497 0.0993934 0.0136069
33431 -1.76065 3.32937 -1.99848 1.37498 -0.411136 -0.134202 -1.49102 -0.227423 4.99498 -0.745191 -0.123077 0.0185003 -0.220238 -0.213351 -0.21986 -0.470858 -0.416621 0.360787 0.377553 -0.451244 -0.036421 -0.00620429 0.300889 0.0589153 0.095119 -0.053736 0.118411 -0.256171 -0.0026075 -0.0266574 -0.0132377 0.0759576
34568 -1.87588 3.27048 -1.95445 1.6144 -0.427641 -0.221874 -1.34421 -0.253589 5.07851 -0.601305 -0.0606929 0.0801395 0.102451 -0.369729 -0.00483502 -0.357327 -0.342992 0.310511 0.463517 -0.467955 -0.251414 0.0296265 0.0377244 0.189644 0.156314 0.100579 0.00384772 -0.0234644 0.164415 0.0106415 0.143566 -0.021726
35794 -1.59891 2.55924 -1.84634 1.36914 -0.326491 -0.0668441 -1.2065 -0.399685 3.89647 -0.294378 -0.116536 0.433735 0.265106 -0.396127 0.265416 -0.23375 -0.480214 0.63479 0.2755 -0.63714 -0.115527 -0.183478 0.339033 -0.0197136 0.299728 -0.00936729 -0.0208586 -0.125323 0.285796 0.229124 0.0856048 0.225889
36601 -1.90466 3.12846 -2.04066 1.41263 -0.534804 -0.139161 -1.32476 -0.618886 4.99379 -0.501721 0.01917 0.148368 0.131946 -0.273805 0.0103382 -0.353121 -0.307023 0.348294 0.642809 -0.182611 -0.125767 -0.154532 0.287777 0.147561 0.0775257 0.056667 -0.0237696 -0.0617472 0.0462605 0.0367084 -0.102045 0.160837
34400 -1.82025 3.33246 -2.17996 1.51754 -0.49796 -0.319313 -1.27483 -0.338811 5.19216 -0.66945 -0.0968092 0.219909 0.0510875 -0.242356 -0.04292 -0.310725 -0.46265 0.183991 0.47258 -0.31531 -0.0674967 -0.0810188 0.232573 0.203016 0.0795609 -0.0161403 0.114654 -0.00831598 0.0683572 0.145096 0.119248 -0.205507
32060 -1.68236 3.0514 -2.10796 1.25194 -0.473588 -0.369637 -1.29737 -0.317904 4.60296 -0.742399 -0.374412 0.262374 0.007356 -0.498864 -0.173321 -0.11422 -0.490281 0.287684 0.454671 -0.502427 -0.163623 -0.191587 0.0569135 -0.0800342 0.0881433 0.217834 0.466797 -0.0942442 0.241533 -0.0534519 0.0631274 -0.120298
33349 -1.68405 3.36677 -2.13347 1.3109 -0.484418 -0.276987 -1.26635 -0.391203 5.06658 -0.660372 -0.0465827 0.300951 0.213508 -0.211171 -0.268469 -0.205503 -0.332024 0.609718 0.437757 -0.275858 -0.137802 -0.106445 0.0525847 0.0327171 0.196207 0.116849 0.202438 -0.196807 0.197846 0.0560873 0.111119 -0.0940754
32253 -1.55926 3.26694 -1.90161 1.47158 -0.461517 -0.320975 -1.29204 -0.597943 4.7303 -0.866116 -0.307959 0.213858 0.0757397 -0.248296 -0.296069 -0.0673456 -0.570093 0.61675 0.535 -0.408833 0.0061193 -0.014815 -0.0405552 -0.0223631 0.31986 0.300414 0.0645244 -0.0579727 -0.185546 0.0156832 0.0487145 0.0810487
31360 -1.65878 3.29724 -2.08682 1.45455 -0.333636 -0.310665 -1.25262 -0.500939 5.07549 -0.690908 -0.174089 0.137747 0.0772245 -0.0967929 0.0386989 -0.360167 -0.545624 0.294404 0.386492 -0.358977 -0.125257 0.028435 0.0199147 0.0324201 0.0689224 -0.0166319 0.129562 0.0139414 -0.00963649 0.265983 -0.0139761 -0.0615298
35607 -1.33192 3.18158 -1.79759 1.08347 -0.552253 -0.418062 -1.13363 -0.449342 4.07144 -0.583746 -0.2703 0.586355 -0.0820418 -0.319076 0.25285 -0.478908 -0.719659 0.716734 0.323085 -0.506988 -0.0993985 0.0383861 0.111377 0.176865 -0.104263 -0.0682096 0.392375 -0.0785026 0.132705 -0.0662863 -0.0498556 -0.215085
36210 -1.74724 3.2656 -2.15903 1.53755 -0.463201 -0.391879 -1.20626 -0.455261 5.10923 -0.715126 -0.17908 0.161609 0.0747149 -0.20997 0.0784036 -0.305125 -0.470483 0.291026 0.294825 -0.320526 -0.138948 -0.0329505 0.224288 0.0801366 0.240983 0.229475 0.105211 0.0643871 0.102029 0.0597734 0.168782 -0.0939837
35620 -1.92459 3.25678 -2.22184 1.44973 -0.387391 -0.0764585 -1.319 -0.37741 5.08008 -0.649562 -0.136574 0.235585 0.0567061 -0.259673 -0.153095 -0.253139 -0.419583 0.470678 0.555717 -0.443129 -0.0236399 -0.0743656 0.140994 0.0887916 0.0775251 -0.0127246 0.14983 -0.0452736 0.095271 0.0144355 0.0195808 -0.10409
31279 -1.87417 3.05721 -1.75692 1.40361 -0.650147 -0.341184 -1.30378 -0.185002 4.65889 -0.581488 -0.107416 0.163476 0.0784698 -0.0256099 -0.124865 -0.518465 -0.712491 0.392355 0.602973 -0.297084 0.0555764 -0.101713 -0.015328 0.226898 0.15978 0.30775 0.251052 0.113448 -0.00415954 0.0933496 -0.0102067 -0.202284
36247 -1.4251 3.40565 -2.07775 1.47377 -0.456532 -0.268715 -1.10233 -0.246975 4.83228 -0.600112 -0.424532 0.201663 0.13644 -0.260385 0.00862857 -0.553956 -0.35655 0.216763 0.590422 -0.414379 -0.142648 -0.0587443 -0.087923 0.00425547 0.200829 0.0840787 0.411109 -0.141811 0.0582836 -0.0888903 -0.102867 -0.0223547
31130 -1.64338 3.33096 -2.17449 1.47819 -0.364974 -0.436398 -1.25423 -0.200194 5.01433 -0.644651 -0.20712 0.206975 -0.0940059 -0.43852 -0.00152203 -0.521723 -0.470562 0.168122 0.374874 -0.404229 -0.0285037 0.179634 0.244422 -0.00716618 0.0921886 0.224234 0.229951 0.16024 0.18291 0.0197376 0.169859 0.0174465
36639 -1.67872 3.40236 -2.08399 1.43694 -0.428341 -0.248931 -1.38922 -0.180568 5.1018 -0.555554 -0.174499 0.315626 0.234242 -0.20905 -0.0955403 -0.377509 -0.319769 0.405414 0.402066 -0.355817 -0.0146428 -0.152397 0.108578 0.0363103 -0.129975 0.169797 0.173865 0.0274526 0.236673 0.0293066 0.0427195 -0.091134
36214 -1.69196 3.36684 -2.20588 1.41832 -0.523646 -0.184036 -1.29121 -0.310571 5.14431 -0.78423 -0.17759 0.25725 0.0916026 -0.292179 -0.233117 -0.288153 -0.263301 0.55817 0.372693 -0.234859 -0.134302 -0.0189505 0.0437081 0.0762528 0.16712 0.204714 0.0468104 -0.165902 0.114929 -0.0204692 -0.0418808 -0.343049
34501 -1.65311 3.15983 -1.97627 1.23005 -0.37179 -0.0738379 -1.31921 -0.503263 4.54547 -0.448178 -0.138847 0.266504 0.189494 -0.383873 -0.156679 -0.391248 -0.44055 0.353361 0.463779 -0.522559 -0.292763 -0.193501 0.327832 0.113971 0.231492 0.175749 0.12786 0.133172 -0.0645695 -0.0286117 0.203271 -0.149703
33224 -1.79325 3.2777 -2.16349 1.41073 -0.462259 -0.222419 -1.37485 -0.366017 5.11447 -0.792735 -0.0345217 0.124706 0.0529086 -0.207548 0.0727764 -0.443097 -0.469362 0.355483 0.217948 -0.421844 0.0385441 0.176379 0.0871092 0.00756841 0.280919 0.118263 0.0450981 0.212211 0.221993 0.0243033 -0.0639894 -0.118846
37091 -1.34117 2.8224 -1.71299 1.21316 -0.0771767 -0.350691 -1.2307 -0.305683 3.96954 -0.628689 0.231973 0.275085 -0.225793 -0.618585 0.366255 -0.559957 -0.181663 0.26534 0.435645 -0.605852 -0.0888776 -0.0812003 0.177033 0.223025 0.0121048 0.577882 0.0134847 -0.0206153 -0.206915 -0.00117897 0.151239 -0.132716
36014 -1.96061 3.0851 -2.03706 1.44465 -0.330846 -0.224091 -1.49665 -0.608912 4.94735 -0.496489 -0.0613793 0.0873368 0.131224 -0.376736 0.0782909 -0.380894 -0.17533 0.324697 0.51949 -0.326842 0.16586 0.117848 0.42474 0.0372908 0.105059 0.154968 0.16518 -0.0537182 -0.160273 0.204756 0.0301773 0.00148065
35104 -1.85677 3.16443 -1.80361 1.57511 -0.377389 -0.305056 -1.28836 -0.53021 4.89932 -0.475461 0.0412365 0.100993 0.246425 -0.240074 0.26626 -0.485321 -0.2528 0.412853 0.613207 -0.197205 -0.169239 -0.181686 0.335632 0.277293 -0.11433 0.0424041 0.251185 -0.0896484 0.0111363 0.154779 0.00592164 0.00362996
32342 -1.8172 3.24253 -1.97 1.61548 -0.404572 -0.340579 -1.30054 -0.374228 4.97365 -0.702941 -0.142852 0.0349974 -0.037143 -0.291043 -0.00616062 -0.430938 -0.484378 0.235784 0.517475 -0.385042 -0.0942162 -0.0119847 0.199781 0.183053 0.181558 0.0582774 0.0874747 0.0057081 0.0591693 0.178006 -0.108153 0.265508
33105 -1.70579 3.30424 -1.91123 1.42488 -0.441981 -0.601395 -1.31972 -0.491045 4.79022 -0.825764 0.174129 0.367719 0.147918 -0.335483 0.123529 -0.413355 -0.528415 0.202906 0.620118 -0.400684 0.00717114 0.0649669 0.160299 0.0766264 0.128394 0.169115 0.0171634 0.109692 0.124621 -0.282488 -0.0663328 -0.0377593
36193 -1.65401 3.39512 -2.19632 1.39174 -0.187235 -0.286528 -1.33979 -0.384319 5.10279 -0.761775 0.0410178 0.282968 0.108765 -0.401333 0.0601352 -0.481788 -0.389652 0.194999 0.381368 -0.314821 0.0332463 -0.060501 0.136762 0.194318 0.0468387 0.161779 -0.0431317 0.202042 -0.00532745 -0.0356373 0.0692908 -0.157706
33040 -1.77652 3.2613 -2.08208 1.56215 -0.42711 -0.233902 -1.23158 -0.49369 5.0597 -0.583308 -0.124857 0.568606 -0.147928 -0.223427 0.0313479 -0.166654 -0.469592 0.411694 0.355956 -0.413662 0.076993 -0.105932 0.1632 -0.0413418 0.0412444 -0.000759406 -0.00429272 -0.00272434 -0.138549 -0.0204353 0.121779 -0.139592
32136 -1.59054 3.41264 -2.22402 1.48284 -0.305047 -0.41517 -1.17523 -0.329101 5.18003 -0.714061 -0.21858 0.229944 -0.0177559 -0.370589 -0.00617465 -0.217907 -0.521735 0.309487 0.400551 -0.249056 -0.117853 -0.0691901 0.152368 0.16831 0.105034 0.255713 -0.0664372 0.00895724 0.0623548 0.132323 -0.0198754 -0.0883706
36096 -1.79387 3.14836 -2.04585 1.47733 -0.397676 -0.204373 -1.19653 -0.477608 4.9364 -0.498803 -0.0388684 0.222364 0.0435426 -0.184587 0.150371 -0.585204 -0.218406 0.364053 0.435547 -0.402444 0.0184922 -0.0300917 0.12866 -0.0336281 0.167105 -0.0309909 -0.157972 0.111564 0.16627 0.070065 0.0625372 -0.121558
33320 -1.68789 3.3012 -2.02927 1.47068 -0.596603 -0.241062 -1.37078 -0.329904 5.07803 -0.815402 -0.0216293 0.220817 0.0359261 -0.195548 -0.086145 -0.40019 -0.368272 0.154792 0.225643 -0.4102 -0.124312 -0.153635 0.177764 0.164155 0.00696009 -0.0665553 0.0879616 -0.189557 -0.173703 0.115389 -0.025703 -0.00613365
36284 -1.66012 3.31067 -1.85462 1.63665 -0.469521 -0.0911384 -1.17683 -0.388967 4.95484 -0.547371 -0.034815 0.257693 0.016278 -0.597872 -0.20211 -0.248645 -0.428093 0.590027 0.185739 -0.333111 0.225001 -0.240489 0.246614 0.192094 -0.0781077 0.221976 0.0580792 -0.229868 0.178124 0.125368 -0.0119941 -0.277995
31681 -1.77884 3.24307 -2.03672 1.51186 -0.43313 -0.504009 -1.41502 -0.022672 4.86626 -0.730944 -0.29173 0.441296 0.049155 -0.281222 -0.171224 -0.402177 -0.383527 0.401112 0.540783 -0.409761 -0.0182279 -0.329666 0.174819 -0.056576 -0.0794076 0.308238 0.0579133 0.0932805 0.288345 0.0953426 0.0444709 -0.174438
32840 -1.70582 2.99637 -1.76327 1.29057 -0.68232 -0.449687 -1.36438 -0.0805925 4.35386 -0.503267 -0.217281 0.608571 -0.0845164 -0.0209196 0.0753026 -0.679631 -0.608248 0.279547 0.578301 -0.446488 -0.155841 -0.433026 0.31386 0.146187 -0.163015 0.357003 0.0789554 0.122996 0.426626 0.129223 0.0658992 -0.115508
33440 -1.75246 3.35826 -2.04097 1.52726 -0.346804 -0.237757 -1.38978 -0.1727 5.08146 -0.840155 -0.059116 0.149457 -0.070182 -0.0911918 0.0127114 -0.505692 -0.471342 0.227706 0.451671 -0.414669 -0.128579 -0.131099 0.243393 0.191621 -0.0790893 0.0225796 0.0373671 -0.0276861 0.204098 -0.0110445 -0.0248205 -0.0710412
35408 -1.63203 3.28708 -1.97575 1.47817 -0.584422 -0.247958 -1.29059 -0.163133 4.84925 -0.82427 -0.121216 0.464432 0.123739 -0.205278 -0.320942 -0.589597 -0.454375 0.231088 0.524341 -0.187323 -0.292242 -0.121727 0.1551 -0.0631435 0.0525916 0.141458 -0.0356591 0.252535 0.353768 -0.187763 -0.0508419 0.235769
33342 -1.80593 3.37303 -2.15881 1.33269 -0.331994 -0.176752 -1.42786 -0.252628 5.08405 -0.625013 -0.175023 0.338306 0.00221172 -0.361146 -0.0114792 -0.380115 -0.308689 0.355243 0.369936 -0.482951 -0.118819 -0.0255834 0.180967 0.142299 0.174148 0.123522 0.0384182 -0.00500998 0.128316 -0.01977 -0.110051 -0.0661455
31788 -1.52674 3.42708 -2.09812 1.39834 -0.461135 -0.349881 -1.26188 -0.41736 5.0592 -0.664617 -0.0592514 0.137236 0.0959396 -0.214273 -0.131196 -0.217649 -0.443112 0.428158 0.429194 -0.382262 -0.0487807 -0.0663676 0.0482378 0.0626231 0.0769119 0.0453331 0.0807185 -0.0112808 0.00118808 0.197774 -0.0740777 -0.156285
32310 -1.65981 3.23707 -2.00567 1.3798 -0.497538 -0.401741 -1.31312 -0.20061 4.68327 -0.738882 0.0450789 0.212888 0.0425557 -0.190565 -0.157923 -0.44804 -0.393678 0.276575 0.667203 -0.7856 0.172797 -0.105172 0.49883 -0.0756153 0.030554 -0.0845862 0.0240656 -0.0416814 -0.110942 -0.0407193 -0.285777 -0.17085
33447 -1.74207 3.16226 -1.98249 1.12151 -0.618994 -0.121735 -1.16729 -0.187914 4.60726 -0.614017 -0.256607 0.378557 0.144046 -0.416532 -0.394102 -0.404685 -0.330749 0.311621 0.494551 -0.466185 -0.0350192 -0.0167056 0.257434 0.195352 0.369212 0.0668843 0.134698 0.0646541 0.0835201 -0.035546 -0.164812 -0.195601
36110 -1.7746 3.35709 -2.16021 1.39227 -0.499345 -0.304315 -1.18478 -0.390115 5.17172 -0.807678 -0.137088 0.315257 -0.000146292 -0.265347 -0.0821139 -0.322236 -0.393109 0.269624 0.440933 -0.298168 -0.0535035 -0.0401607 0.00643818 -0.0118367 0.159589 0.0549074 -0.0130374 0.0465274 0.0938924 0.0357021 0.0010024 -0.0654987
33099 -1.78254 3.08338 -2.09983 1.37198 -0.403284 -0.349638 -1.34724 -0.40217 4.98109 -0.498592 -0.0854716 0.201449 -0.111485 -0.322729 -0.081643 -0.311033 -0.244273 0.221177 0.118421 -0.565047 -0.15325 -0.0198228 0.0628655 -0.179949 0.0439022 0.124977 0.250273 0.0394833 -0.284125 -0.0039559 0.106323 -0.119683
31581 -1.8361 3.281 -2.20667 1.5197 -0.353482 -0.304367 -1.34591 -0.337641 5.08135 -0.791919 -0.143916 0.199918 -0.0952249 -0.526704 0.0354044 -0.528748 -0.27498 0.30724 0.45121 -0.406513 -0.170899 0.0496593 0.0346729 0.0875295 0.080475 0.0451995 0.124027 0.0462578 0.0308999 0.0672675 -0.0133096 -0.00213859
36532 -1.56646 3.2366 -1.98952 1.49944 -0.400086 -0.163888 -1.34512 -0.415193 4.74181 -0.783717 -0.0808676 0.152244 0.117665 -0.176369 -0.000704332 -0.243718 -0.377455 0.593176 0.679897 -0.360832 -0.243605 -0.0143346 -0.0192851 0.0396748 -0.117681 0.0563693 0.139082 -0.0594356 0.203048 -0.174445 0.172505 -0.109446
36003 -1.5674 3.22741 -2.07612 1.29482 -0.422323 -0.431966 -1.28276 -0.246475 4.58665 -0.791096 -0.048947 0.382456 0.0279896 -0.389768 -0.00997489 -0.569528 -0.641093 0.182575 0.478324 -0.383811 0.12347 -0.267544 0.182639 0.0350697 0.0731047 0.209759 0.242487 0.181832 0.132266 0.157352 0.0257509 -0.0775243
35791 -1.72722 3.01141 -1.88221 1.25317 -0.765261 -0.240271 -1.2205 -0.287116 4.44969 -0.609885 -0.324949 0.181662 0.0974197 -0.48326 0.120521 -0.398672 -0.751786 0.047051 0.537507 -0.288864 -0.0917256 -0.0417725 0.30464 0.0357679 0.28281 0.331869 0.0267766 0.195691 0.0798159 0.06206 0.0280757 -0.302714
36520 -1.74927 3.24991 -2.09165 1.33581 -0.222078 -0.26614 -1.19801 -0.320583 4.92846 -0.735126 -0.0602823 0.221051 0.009784 -0.475256 0.0136333 -0.35784 -0.527018 0.322678 0.343839 -0.294995 0.107262 -0.0394666 0.185873 0.18383 0.154636 0.304835 0.0947303 0.239171 0.190581 -0.0857377 0.112457 -0.00356107
32119 -1.95538 3.34941 -2.19426 1.40618 -0.212037 -0.660541 -1.34749 -0.296573 5.26337 -0.60511 -0.286746 0.256632 0.325473 -0.396823 -0.191607 -0.411218 -0.34421 0.34159 0.348101 -0.301962 0.0181757 0.0633202 0.140401 0.261686 -0.0177582 0.172018 0.020446 -0.12991 -0.0509524 -0.0139269 -0.236926 -0.00128192
34649 -1.71138 3.33131 -2.06991 1.48946 -0.543965 -0.244015 -1.27252 -0.291976 5.05893 -0.732733 -0.143819 0.128089 0.105537 -0.234675 0.0331076 -0.415792 -0.300556 0.34906 0.430751 -0.413803 0.254331 -0.0288313 0.291189 0.0359909 0.114965 0.000962564 0.0420724 -0.0064307 -0.0407243 -0.0493739 -0.0158299 -0.0526574
31016 -1.77673 3.2509 -2.06311 1.54874 -0.450201 -0.177902 -1.2593 -0.424722 5.14403 -0.607357 -0.0835319 0.0677761 0.0411178 -0.214261 -0.0166206 -0.277725 -0.45346 0.205363 0.436095 -0.322195 -0.0293667 -0.127517 0.0639707 0.171159 0.161729 0.0762976 0.10827 -0.0753911 0.00304703 0.0397599 0.0165689 -0.0261664
36476 -1.64405 3.03036 -1.89752 1.31572 -0.333552 -0.222455 -1.23432 -0.377004 4.30895 -0.921321 -0.223751 0.354952 0.00989104 -0.429316 -0.117106 -0.383641 -0.508679 0.271266 0.48008 -0.430284 -0.0457526 -0.185262 0.331863 0.123387 0.375642 0.256156 0.161004 -0.086377 0.134277 -0.110826 0.0584181 -0.107889
34280 -1.94067 3.34481 -2.20601 1.35334 -0.135801 -0.638807 -1.36508 -0.348164 5.29152 -0.580997 -0.237024 0.261737 0.380858 -0.285344 -0.224861 -0.380961 -0.384408 0.354849 0.352049 -0.271072 -0.0310945 0.0900391 0.184094 0.250474 0.088554 0.106368 0.00597946 -0.139956 0.062096 -0.0391371 -0.174767 0.0120772
31647 -1.70335 3.19203 -1.96015 1.42998 -0.476461 -0.404474 -1.28687 -0.47261 4.79994 -0.759359 -0.228599 0.156526 0.0262271 -0.444227 -0.212095 -0.420518 -0.288838 0.236001 0.65074 -0.2655 -0.0742958 -0.0014465 0.128364 0.0774605 0.185034 0.0518785 -0.232523 0.208078 -0.0261666 -0.0747093 -0.285565 -0.0835413
33520 -1.77232 3.09617 -2.06064 1.21088 -0.41312 -0.398615 -1.15197 -0.523937 4.69824 -0.483107 -0.129676 0.134675 0.0796802 -0.4794 -0.0184959 -0.47679 -0.451987 0.199286 0.55394 -0.571531 -0.138387 -0.0273689 0.221138 0.10659 0.141238 0.0827882 -0.118054 0.0246016 -0.109079 -0.295279 0.0152141 -0.209975
31745 -1.98189 3.48595 -2.2489 1.62083 -0.532022 -0.270322 -1.4023 -0.309329 5.40933 -0.659431 -0.203007 0.30754 -0.05814 -0.432755 0.0135487 -0.338603 -0.427724 0.373932 0.41448 -0.355079 -0.0608353 -0.0521516 0.192965 0.165941 -0.00145349 0.135746 0.0488603 -0.0253343 0.142001 0.11881 -0.0638059 -0.174569
33845 -1.79567 3.0679 -2.00545 1.44351 -0.55515 -0.201743 -1.11571 -0.528295 4.644 -0.613818 -0.12446 0.259215 0.105703 -0.553965 0.14263 -0.42069 -0.305581 0.542578 0.455089 -0.478863 0.0609262 -0.240541 0.125496 0.0609877 -0.0744613 0.186139 0.110122 -0.136008 -0.0661923 0.116765 -0.0151908 -0.133857
34683 -1.70129 3.10225 -2.05312 1.35313 -0.444268 -0.308604 -1.30782 -0.367936 4.66645 -0.628282 0.0338411 0.305546 0.161702 -0.428798 0.17868 -0.36984 -0.36715 0.452995 0.527809 -0.438738 0.378985 -0.005655 0.272975 0.0147915 -0.255575 0.111172 0.222817 0.000228073 0.0410775 0.170829 -0.114606 0.19013
33159 -1.91098 3.07243 -2.03691 1.55356 -0.510491 0.132842 -1.49098 -0.521035 4.97309 -0.357998 0.203419 0.244989 0.0125645 -0.371085 0.223268 -0.375676 -0.235569 0.379542 0.590132 -0.223762 0.0235141 0.191054 0.258979 0.0330287 0.0729054 0.322868 0.0132707 -0.251044 -0.127513 0.288824 -0.0420799 0.250076
36157 -1.85635 3.33068 -2.14803 1.52225 -0.405985 -0.0885004 -1.22139 -0.263442 5.11977 -0.573114 0.0653023 0.402312 -0.134698 -0.37172 -0.0537046 -0.338189 -0.329389 0.429684 0.436021 -0.353481 0.071656 0.126582 0.16262 0.292081 0.066906 0.222043 0.223345 -0.118759 0.0482797 -0.0282694 -0.248754 -0.00605896
34053 -1.67128 3.24451 -1.9342 1.59062 -0.648545 -0.368475 -1.20509 -0.454208 4.87399 -0.597191 0.169775 0.0840191 -0.266083 -0.521697 -0.212747 -0.507974 -0.620832 0.490678 0.0999662 -0.380359 0.0804916 -0.168161 0.227677 0.348729 -0.125725 0.258426 0.186905 -0.0408475 -0.0787165 -0.0321103 0.0464826 -0.316475
31574 -1.68543 3.08037 -1.85117 1.45813 -0.446738 -0.397695 -0.920397 -0.760001 4.67262 -0.799106 -0.00806615 0.351858 -0.201616 -0.202322 -0.337998 -0.37389 -0.539197 0.518488 0.427118 -0.163393 0.120305 -0.076917 0.133992 0.125525 -0.127475 0.345195 -0.244226 0.0854046 -0.181551 0.157246 0.287418 -0.239307
31219 -1.61226 3.07453 -2.07971 1.48957 -0.163174 -0.436577 -1.2776 -0.497775 4.64167 -0.983103 0.148254 0.352326 0.272119 -0.354272 0.153431 -0.379298 -0.542658 0.183624 0.530761 -0.144826 0.0814786 0.0779665 0.312599 0.0488912 -0.24794 0.237823 -0.0647855 0.0991598 0.193978 -0.300519 -0.00697871 -0.426735
35796 -1.94308 3.27767 -2.27741 1.44845 -0.457379 -0.176365 -1.17579 -0.433393 5.17851 -0.712996 -0.314246 0.121685 0.0890124 -0.233509 0.196097 -0.320423 -0.576173 0.320545 0.342488 -0.436346 -0.0841113 0.152708 0.118283 0.238873 -0.256984 0.0741625 0.0780362 -0.262585 0.181812 -0.0718316 -0.0533502 -0.242956
32813 -1.82004 3.33057 -2.10428 1.5094 -0.537325 -0.272989 -1.30188 -0.270303 5.15282 -0.703144 0.0281282 0.217523 -0.0901009 -0.337571 -0.0463162 -0.488205 -0.416664 0.349941 0.368142 -0.297958 0.0588658 0.0406955 0.0927783 -0.0276606 0.0792642 0.112819 0.0993392 0.128278 0.0109402 0.0506317 0.0288224 -0.155581
34022 -1.78166 3.27031 -2.01896 1.45458 -0.348282 -0.159034 -1.3767 -0.201751 4.86723 -0.741943 0.0157588 0.301899 0.0813653 -0.407339 0.327166 -0.446973 -0.471189 0.333433 0.497436 -0.392052 0.0173326 0.110796 0.0495989 -0.0291108 0.0435001 0.130861 0.114394 0.0294084 -0.0618767 -0.064509 0.119609 0.0458977
35819 -1.68187 3.31541 -2.17382 1.40828 -0.512834 -0.216933 -1.36516 -0.259499 5.16162 -0.653462 -0.29807 0.241731 -0.100287 -0.32647 0.0633106 -0.304181 -0.273124 0.273604 0.312826 -0.336841 0.0463146 0.051958 -0.0215115 0.0230063 0.109737 0.0131325 0.213575 0.0379768 0.0374935 -0.027976 0.0671085 -0.0458829
31652 -1.77322 3.29731 -2.00514 1.77602 -0.444722 -0.183182 -1.30946 -0.266034 5.13566 -0.691268 -0.166889 0.456687 -0.00980003 -0.388375 -0.0813625 -0.165736 -0.482719 0.221287 0.379252 -0.252818 0.158893 0.015035 0.0413721 0.186769 0.169826 0.091931 0.0475218 0.099542 -0.041471 0.0604109 -0.0129885 -0.297344
35637 -1.52207 3.03408 -1.78447 1.44878 -0.423784 -0.196659 -1.65695 -0.316463 4.20621 -0.503633 -0.0848949 0.385417 -0.228349 -0.326513 -0.0964849 -0.298438 -0.753136 0.650474 0.684659 -0.34525 0.159948 -0.25519 0.102135 0.572374 0.307577 -0.339436 0.294689 0.0498197 -0.308138 -0.120227 -0.130523 -0.0285589
36240 -1.4985 3.15073 -1.97767 1.25453 -0.524679 -0.237164 -1.58678 -0.414076 4.51762 -0.665831 -0.182831 0.168737 0.00135571 -0.229651 -0.152839 -0.513584 -0.598025 0.247929 0.511739 -0.423815 -0.211812 -0.0155411 0.273229 0.238839 0.0410263 -0.127091 0.0472009 -0.308271 0.151507 0.0933663 -0.0487037 -0.155719
35681 -1.76822 3.27309 -2.19936 1.52133 -0.508762 -0.265529 -1.25656 -0.469474 5.13725 -0.647985 -0.0874759 0.242811 -0.0182352 -0.380863 -0.0900413 -0.324889 -0.229544 0.126035 0.526558 -0.363346 -0.0678759 -0.037543 0.100846 0.150832 -0.062435 -0.0314096 0.0356646 -0.0186822 0.075027 0.151552 -0.0747725 -0.00329863
31244 -1.35035 3.29493 -1.8231 1.28675 -0.339024 -0.256219 -1.33173 -0.188775 4.34128 -0.784033 -0.0544895 0.559307 0.256974 -0.419904 -0.137099 -0.354086 -0.367913 0.670585 0.651182 -0.749753 -0.032783 -0.209755 0.110943 0.049838 -0.15978 0.0289447 0.138842 -0.031604 -0.145296 0.0484907 -0.103815 -0.0402317
34441 -1.85382 3.21193 -1.99229 1.63232 -0.332273 -0.268791 -1.22728 -0.441399 4.98806 -0.754035 -0.150999 0.242992 -0.0631625 -0.195264 -0.0792044 -0.164275 -0.502402 0.322005 0.671826 -0.327272 -0.000991255 -0.0118596 0.0519164 0.0212482 -0.0356796 0.202554 0.0961014 0.00460162 0.0593504 0.198136 -0.0323111 0.0199809
35041 -1.85036 3.09865 -2.23151 1.25174 -0.310324 -0.141483 -1.159 -0.247082 4.75288 -0.766191 -0.00113128 0.244124 0.0127871 -0.158957 0.0764878 -0.276937 -0.461423 0.313271 0.691343 -0.609209 -0.0456666 0.0307974 0.264589 0.0480999 -0.18012 -0.010254 0.00454286 -0.0591385 0.0952555 0.111025 -0.260609 -0.177593
34460 -1.84219 3.17772 -2.07573 1.47358 -0.361295 -0.320493 -1.33278 -0.290087 4.91639 -0.747632 -0.0857004 0.324072 0.0651811 -0.0922409 0.00354867 -0.405403 -0.595684 0.323881 0.543895 -0.179583 0.0529917 -0.0791061 0.220622 0.153039 -0.159662 0.085339 0.0592112 -0.0265436 0.0569924 0.16989 -0.0855239 -0.240865
34664 -1.65639 3.28979 -2.1927 1.44458 -0.505833 -0.283405 -1.26588 -0.326655 4.97502 -0.895011 -0.054392 0.327783 0.17877 -0.379796 -0.130361 -0.184995 -0.452263 0.336274 0.47633 -0.477194 -0.00266543 0.0212574 -0.0778495 0.144519 0.0256009 0.10205 0.147614 -0.102037 -0.163264 0.137147 0.0179908 -0.102403
33697 -1.79151 3.11114 -1.86181 1.46945 -0.402105 -0.257861 -1.36756 -0.0698568 4.6575 -0.543519 -0.175977 0.266978 0.194664 -0.412771 -0.256635 -0.477107 -0.465977 0.541916 0.383923 -0.427273 0.205481 0.0182122 0.138597 0.382535 0.38031 0.0720683 0.00711522 -0.115415 0.0741229 0.0668171 -0.0056884 -0.152168
32327 -1.7622 2.99779 -1.69596 1.48755 -0.480983 -0.427303 -1.00867 -0.115452 4.11436 -0.722253 -0.181976 0.326177 0.189771 -0.460289 -0.415058 -0.633653 -0.679265 0.291256 0.772247 -0.592558 0.115385 -0.0111968 0.213873 0.313725 0.39032 0.277386 0.0146124 -0.242833 0.0418633 0.204962 -0.0246848 -0.426189
35207 -1.76365 3.22964 -2.23808 1.37897 -0.486311 -0.258763 -1.47548 -0.291171 4.96762 -0.544747 -0.326633 0.492577 -0.0812477 -0.362333 -0.0171958 -0.16654 -0.335624 0.283456 0.605147 -0.40539 -0.00451736 0.104994 0.0160292 0.185456 0.137521 0.078419 0.0801163 -0.0966889 0.121952 -0.017574 0.0484992 -0.132468
32794 -1.66356 3.3696 -2.26575 1.40272 -0.374303 -0.0678988 -1.09886 -0.174288 5.11271 -0.543528 -0.0352218 0.197727 -0.0304023 -0.228169 -0.165464 -0.137467 -0.365975 0.421361 0.550692 -0.32082 -0.292281 0.0962567 0.500473 0.132532 0.0183213 0.0495525 0.0674506 0.157928 -0.00173161 0.0901838 -0.0699064 -0.188449
35046 -1.64639 3.31604 -2.13654 1.44362 -0.512699 -0.363934 -1.30622 -0.485325 5.0789 -0.76846 -0.263096 0.164379 -0.00209406 -0.218031 -0.125424 -0.167676 -0.471468 0.449117 0.303321 -0.418506 -0.000936519 0.0725243 -0.0148245 0.0895672 0.198807 0.11943 0.0237688 -0.0564948 0.0447849 0.119966 -0.0703153 -0.0768101
34826 -1.65918 3.10912 -1.98309 1.24807 -0.280877 0.0292244 -1.2012 -0.539834 4.65373 -0.572686 -0.440101 0.206606 0.0162996 -0.291473 -0.00208122 -0.464328 -0.306773 0.284976 0.54464 -0.229718 -0.151558 -0.10898 0.159748 0.214655 0.478334 0.237733 0.0266789 -0.094124 0.133012 -0.178072 0.146607 -0.254012
34363 -1.46312 3.23724 -2.01432 1.67188 -0.331104 -0.191898 -1.13106 -0.457165 4.69142 -0.603176 0.109714 0.357761 0.301883 -0.412781 -0.0388826 -0.314082 -0.656982 0.057007 0.511374 -0.494977 -0.0799683 0.0662403 0.0839384 -0.0369411 0.150413 0.119724 0.00688687 -0.1736 -0.0243429 -0.403325 -0.0107448 -0.18796
36267 -1.89234 3.12074 -2.27306 1.33944 -0.488114 -0.059601 -1.3357 -0.594095 5.00767 -0.428523 -0.0063644 0.246405 0.043564 -0.400935 -0.0997908 -0.64567 0.0411116 0.36819 0.540119 -0.369795 -0.0910999 -0.187263 -0.120602 0.154598 -0.179914 -0.239149 -0.0423784 -0.0222182 0.107398 0.17918 -0.0586532 0.105658
32345 -1.86439 3.28403 -2.20948 1.5883 -0.394643 -0.364562 -1.33586 -0.317099 5.12414 -0.601024 -0.0703289 0.229436 -0.0858249 -0.303814 -0.129921 -0.37048 -0.391234 0.412801 0.437015 -0.404648 -0.0268902 -0.0994099 0.101461 0.089247 0.000575808 0.0349735 0.0700661 0.032673 0.0841928 -0.0271753 0.0158558 -0.188109
35161 -1.62842 3.37387 -2.05861 1.61276 -0.513656 -0.357409 -1.19433 -0.389025 5.07568 -0.71333 -0.151098 0.290281 0.0427282 -0.260415 0.0489529 -0.327618 -0.389841 0.336012 0.394629 -0.363046 -0.131045 0.0029767 -0.00844409 0.00316219 0.284507 0.0970425 0.247628 -0.0435823 0.116785 0.0697866 -0.123439 -0.0421583
34502 -1.50429 3.35815 -2.11987 1.54713 -0.28922 -0.368438 -1.36951 -0.53854 5.04606 -0.718195 -0.109822 0.23431 0.0557659 -0.333811 0.0140748 -0.20242 -0.349212 0.37206 0.395248 -0.434099 0.0114988 -0.0612895 0.0851747 0.0945385 0.0807333 0.193268 -0.0536988 -0.0540995 0.0972555 0.0886047 -0.0230728 -0.0253607
36123 -1.77385 3.35127 -2.0995 1.42631 -0.390916 -0.228478 -1.32082 -0.433373 5.12878 -0.748486 -0.168892 0.400402 0.102121 -0.267894 -0.067491 -0.291118 -0.407821 0.385687 0.395915 -0.20772 0.00969907 -0.0900982 -0.0574018 -0.0243001 0.139513 0.121505 0.0895615 0.161355 0.0015135 0.0686461 -0.0425914 -0.0405038
34035 -1.64582 3.27442 -2.01339 1.21832 -0.488543 -0.332587 -1.2399 -0.391104 4.66056 -0.883405 -0.270183 0.345856 0.195476 -0.456225 -0.0521651 -0.391801 -0.424712 0.510757 0.564847 -0.466308 -0.154107 -0.0985809 -0.0303001 -0.0725482 0.113316 0.215821 0.209856 0.146884 -0.0395091 -0.0146003 0.0601251 -0.0756304
33776 -1.84629 3.22005 -2.22902 1.46667 -0.335394 -0.20299 -1.35617 -0.333118 4.99904 -0.606498 -0.0975978 0.197259 0.094721 -0.420356 0.10812 -0.437903 -0.146422 0.454065 0.55212 -0.471945 0.0124043 -0.0242476 0.00421307 0.0651464 0.076127 -0.113063 -0.0282481 0.127321 0.0480079 -0.0223336 0.159079 0.000804119
31921 -1.97106 3.33963 -2.00507 1.679 -0.418074 -0.314313 -1.14946 -0.326268 5.17162 -0.56332 -0.09406 0.166156 0.105851 -0.334521 0.0727035 -0.477428 -0.341789 0.426738 0.457211 -0.447789 -0.226387 0.0664324 0.0671889 0.203498 0.0460926 0.189482 0.149189 -0.0975986 0.173185 -0.0514829 0.0473692 -0.0315514
31585 -1.78659 3.08702 -1.97793 1.39631 0.0444466 0.0753534 -1.33837 -0.574822 4.59765 -0.712863 -0.322331 0.445703 0.0175247 -0.234162 0.0837133 -0.295967 -0.422873 0.452809 0.506159 -0.617969 0.150951 0.0468589 0.218106 0.0680895 -0.146559 -0.00528134 0.126292 -0.169262 -0.0855248 -0.0580809 0.291614 -0.146099
35797 -2.01101 3.25932 -2.22381 1.3954 -0.381185 -0.0694617 -1.15958 -0.375526 5.062 -0.839969 -0.350134 0.239291 -0.03564 -0.148496 0.0359471 -0.352146 -0.72042 0.267732 0.460863 -0.429134 0.00814014 0.175247 0.144737 0.331302 -0.260322 0.0391651 0.0802918 -0.28143 0.159056 -0.0456765 -0.104248 -0.221988
33741 -1.68289 3.16954 -2.23845 1.5158 -0.389203 -0.230467 -1.2484 -0.43429 5.02743 -0.543067 -0.140441 0.169083 0.236882 -0.131418 -0.106622 -0.627904 -0.325709 0.185593 0.304977 -0.182265 0.0172948 0.304563 0.315849 0.129173 -0.00392271 0.139313 0.108671 0.0378632 -0.266442 -0.0634685 0.18945 -0.231364
33424 -1.81316 3.2006 -2.13327 1.45014 -0.366083 -0.257098 -1.3209 -0.526252 5.05506 -0.729576 -0.198031 0.132605 -0.124959 -0.106979 0.0499396 -0.359413 -0.314613 0.481062 0.3485 -0.245456 -0.0586197 0.132731 0.236768 0.0441098 0.215685 0.115979 -0.0146429 0.162477 0.199329 0.17824 0.0477116 -0.0135321
31406 -1.55902 2.94095 -2.00854 0.950938 -0.437996 -0.241504 -1.10473 -0.774573 3.94294 -0.650555 -0.301232 0.281032 -0.0293041 -0.630854 0.0700688 -0.383085 -0.690843 0.102104 0.639381 -0.790715 -0.185497 0.152717 0.491473 -0.066755 -0.0296121 0.37292 -0.0167114 -0.113323 0.33313 -0.134562 0.227103 -0.157428
35824 -1.85217 3.23532 -2.06095 1.19934 -0.407052 -0.276796 -1.43076 -0.278909 4.99477 -0.721162 -0.129845 0.438726 0.259978 -0.575888 -0.245806 -0.350334 -0.463666 0.192301 0.449185 -0.15755 0.0399627 -0.203609 -0.071036 -0.118542 0.0376168 0.171703 -0.127804 0.0542468 0.111341 -0.0753303 -0.215385 0.251063
34858 -1.7687 3.34915 -2.05319 1.49869 -0.266901 -0.360089 -1.28815 -0.428345 5.14317 -0.488969 0.0824555 0.388528 0.241266 -0.41527 -0.108087 -0.350826 -0.528566 0.144186 0.351169 -0.311081 0.0247624 -0.00399406 0.0945839 0.0396312 0.109497 0.270246 -0.24405 -0.0442043 0.142835 -0.286176 -0.191311 -0.097766
34110 -1.71304 3.38638 -2.30667 1.39009 -0.360791 -0.190676 -1.37546 -0.400403 5.12873 -0.683066 -0.074018 0.366824 0.16472 -0.582684 0.0234503 -0.278953 -0.491836 0.351994 0.350784 -0.25488 -0.0135904 -0.138601 0.110685 -0.066987 -0.0357122 0.158104 0.116095 0.134012 0.13251 -0.00553349 0.0378902 -0.0294854
35777 -1.89485 2.9728 -2.11547 1.31391 -0.535283 -0.477273 -1.43176 -0.118749 4.71077 -0.691183 -0.274102 0.101074 -0.195189 -0.44551 0.0904547 -0.591205 -0.524486 0.233422 0.180016 -0.53073 -0.0150955 0.00803748 0.262065 0.0596281 -0.0122456 0.0399915 0.133134 -0.0109112 0.0930516 0.120294 0.0562611 -0.103931
36121 -1.59718 3.13545 -1.82943 1.54118 -0.930719 -0.314956 -1.20617 -0.31544 4.22041 -0.717979 -0.28431 0.7246 0.328412 -0.411493 -0.254012 -0.650889 -0.502671 0.547798 0.478511 -0.694463 -0.0988411 0.013508 0.475752 0.19895 -0.168244 -0.165814 0.371085 0.156577 0.277865 0.295095 -0.261951 -0.313418
32204 -1.78407 3.01315 -1.83714 1.32966 -0.639509 -0.378328 -1.19035 -0.274198 4.38993 -0.55718 -0.298811 0.233039 -0.0350017 -0.540761 0.185156 -0.41133 -0.616326 0.311751 0.584221 -0.689556 -0.162549 -0.388277 0.0993869 0.00155257 0.0950519 0.317362 0.260232 0.0101541 0.108911 -0.133437 0.0353266 -0.0603598
33129 -1.97683 3.42436 -2.24032 1.63127 -0.501454 -0.297986 -1.38403 -0.368995 5.35503 -0.712611 -0.106483 0.357973 0.0511774 -0.475528 -0.0659998 -0.338389 -0.355074 0.391959 0.388723 -0.372626 -0.0748626 0.0604038 0.179 0.151849 0.0649216 0.107479 0.0591396 -0.0642721 0.138476 0.0408755 -0.116242 -0.200606
33802 -1.39273 3.15777 -1.9085 1.43981 -0.417837 0.0994985 -1.32692 -0.202803 4.66498 -0.540059 -0.27525 0.481477 0.0531438 -0.352649 -0.192584 -0.285325 -0.236763 0.276255 0.641925 -0.236872 0.0267686 -0.23135 -0.123168 0.110605 0.051521 5.15666e-05 0.480605 0.0579431 0.138276 -0.0321441 0.0262583 -0.295244
33895 -1.63817 3.40612 -2.32394 1.30381 -0.568701 -0.378442 -1.11008 -0.263709 5.1437 -0.716681 -0.228087 0.353371 -0.00811594 -0.27528 -0.0628312 -0.300395 -0.15599 0.212487 0.621332 -0.43541 -0.0152351 0.00669147 0.0319308 0.068749 0.192363 0.217735 0.376223 -0.0498981 0.107602 -0.0937261 0.06293 -0.0306293
36233 -1.54427 3.30395 -2.01832 1.50742 -0.382394 -0.449006 -1.3193 -0.372222 4.94401 -0.58456 -0.294377 0.253422 -0.134186 -0.230217 -0.0420565 -0.356019 -0.247487 0.259114 0.696926 -0.328875 0.024121 0.0259184 -0.103213 0.0792215 0.204909 0.129332 0.403442 0.073467 0.199403 0.100408 -0.02835 -0.0589295
33238 -1.77581 3.37543 -2.10863 1.55523 -0.471053 -0.248491 -1.22657 -0.456914 5.24751 -0.631314 -0.175691 0.368752 0.0633744 -0.31731 -0.0718655 -0.260959 -0.31713 0.447277 0.372212 -0.187625 -0.0696064 -0.0993931 0.154786 0.0373427 0.0287902 0.0674977 0.212942 0.0362618 0.10817 -0.0060592 -0.0757779 -0.240409
33790 -1.67639 3.27233 -1.81824 1.42846 -0.422746 -0.0666966 -1.23066 -0.547585 4.6642 -0.819612 -0.130158 0.439062 -0.161605 -0.404678 -0.0833043 -0.298947 -0.544826 0.359433 0.527509 -0.256352 0.156129 -0.228419 0.165252 0.420669 0.218568 0.064636 0.0758388 -0.210269 0.0241149 0.0667767 -0.0748897 -0.266754
31958 -1.672 3.29339 -1.91977 1.33615 -0.705359 -0.352382 -1.30308 -0.256737 4.893 -0.621873 -0.421585 0.459591 -0.168758 -0.3666 0.130241 -0.241375 -0.488533 0.1598 0.358862 -0.435422 0.0113757 0.0586589 0.122165 0.281735 0.108374 -0.156255 0.0792171 0.161457 -0.0415253 0.0135335 -0.0984515 -0.162085
35623 -1.54722 3.28574 -2.0677 1.33265 -0.291072 -0.236566 -1.31071 -0.209153 4.79494 -0.32775 -0.349346 0.427125 -0.0178506 -0.394417 -0.163863 -0.371832 -0.38157 0.423417 0.367228 -0.349978 -0.0737182 0.173548 0.512677 0.262532 0.0328602 0.0385156 -0.0283844 0.170409 0.0392888 0.249955 0.180633 -0.128739
32358 -1.4288 3.08604 -2.04112 1.29431 -0.355382 -0.26434 -1.2617 -0.189647 4.28309 -0.768334 -0.245123 0.431998 0.121036 -0.556013 0.0348693 -0.519183 -0.313152 0.542349 0.411648 -0.490196 0.0898001 0.0081247 0.247331 0.150325 0.0325345 0.349533 0.125596 0.0275084 0.0790322 -0.00560806 0.187973 -0.177392
35025 -1.68351 3.00156 -1.75181 1.29211 -0.515017 -0.590393 -1.20237 -0.292926 3.91497 -0.108679 -0.301586 0.618494 -0.200314 -0.539429 0.117374 -0.995526 -0.547471 0.840596 0.950286 -0.502306 -0.0258682 -0.0284402 0.00637699 0.0241678 -0.23797 -0.0454831 0.429891 -0.251347 0.83506 0.264894 -0.396571 -0.194279
34018 -1.80871 3.30683 -2.19718 1.37605 -0.425018 -0.258811 -1.32206 -0.299979 5.08984 -0.621511 -0.105173 0.235516 0.110131 -0.259555 -0.166152 -0.34072 -0.428163 0.39646 0.481146 -0.289897 -0.0822383 -0.0240956 0.121839 0.0357977 0.0622464 0.0967113 0.137008 -0.160157 0.156627 0.0199514 -0.131097 -0.176478
32220 -1.76481 2.91269 -1.94864 1.51114 -0.367785 -0.197165 -1.34085 -0.188551 4.40499 -0.498647 -0.149784 0.292157 0.288218 -0.395682 0.0840595 -0.548192 -0.461478 0.415402 0.571536 -0.405236 0.00137925 -0.335349 0.287169 -0.0393895 0.0972688 0.109751 0.248079 -0.233774 0.116142 -0.00175311 0.194477 -0.348033
31741 -1.65074 3.24868 -2.08001 1.29006 -0.359554 -0.235897 -1.29695 -0.397989 4.96268 -0.959884 0.0233018 0.218159 0.172045 -0.434024 0.0879946 -0.227785 -0.436363 0.267338 0.388843 -0.148585 0.1425 -0.125179 0.201732 -0.0403644 0.04562 0.152367 0.0988066 0.112038 0.0158254 -0.119739 -0.00517944 -0.0350872
36263 -1.55969 3.07617 -2.09165 1.45561 -0.381197 -0.487042 -1.23384 -0.508803 4.66487 -0.433667 0.00659391 0.143742 -0.119647 -0.240884 0.215771 -0.532634 -0.712614 0.176691 0.433385 -0.488922 -0.282575 -0.0625492 0.0433568 -0.190124 0.193845 -0.0621863 0.10259 0.163615 -0.114412 -0.00661806 0.0218211 -0.135722
31374 -1.73901 3.24293 -2.12269 1.33315 -0.544215 -0.353111 -1.04564 -0.268528 5.00211 -0.831691 -0.138501 0.209286 -0.00140216 -0.360077 0.0530902 -0.368205 -0.363834 0.269959 0.361058 -0.350158 0.0231712 0.128999 0.0360878 -0.0958793 0.177798 -0.00437513 0.163225 0.284519 0.0140632 0.0316017 0.0243753 -0.0964186
33728 -1.77808 3.28866 -2.10321 1.45185 -0.336125 -0.281972 -1.36424 -0.365515 5.05324 -0.778709 -0.0994845 0.237499 -0.018883 -0.359373 -0.0829528 -0.402767 -0.198231 0.491279 0.404874 -0.357076 -0.0318343 -0.0409583 0.00811087 0.0513136 0.0926046 -0.0286522 -0.0655953 0.155792 0.054788 -0.0276425 0.175577 -0.0705149
35490 -1.68424 3.18155 -1.96802 1.1443 -0.395437 -0.111702 -1.4682 -0.372216 4.46123 -0.709968 -0.28248 0.286226 0.170268 -0.565819 -0.117368 -0.449041 -0.601703 0.427156 0.519282 -0.343085 -0.0352491 -0.104018 0.285529 0.0804972 0.160993 0.0899868 -0.185499 0.058663 0.00790496 0.0319005 -0.161769 -0.0868127
33327 -1.59723 3.22404 -2.19742 1.48623 -0.472027 -0.284069 -1.33092 -0.265649 4.83859 -0.741036 -0.124565 0.331243 0.200542 -0.317682 -0.110284 -0.355879 -0.478966 0.180696 0.406375 -0.459279 -0.0232052 -0.164936 0.250502 0.0795928 0.260709 0.0695839 -0.132783 0.110695 0.306696 -0.243603 0.00137478 0.0350751
31152 -1.81364 3.42663 -2.17258 1.4788 -0.566786 -0.356114 -1.17473 -0.202623 5.2143 -0.680837 -0.0760924 0.433161 0.234548 -0.287044 -0.0301943 -0.542676 -0.242916 0.349002 0.351255 -0.462984 0.139268 0.0749906 0.248771 0.0515272 0.20833 0.0865306 0.0961466 -0.134352 0.154624 -0.0814753 -0.0459973 -0.0779288
34419 -1.56248 3.29009 -2.07831 1.52834 -0.42399 -0.303632 -1.35213 -0.240331 4.98106 -0.817043 -0.203857 0.187086 0.0410942 -0.0209057 -0.228431 -0.453186 -0.440082 0.0919837 0.377463 -0.480792 0.0868293 -0.258167 0.185521 -0.000701125 -0.0641527 0.198022 0.116635 -0.0703499 -0.0615152 -0.0175402 -0.117919 0.0247405
30973 -1.57913 3.38526 -2.09193 1.4063 -0.3968 -0.266223 -1.25221 -0.27044 5.04759 -0.806382 -0.0713895 0.151107 0.0850303 -0.419459 -0.128614 -0.0960663 -0.320566 0.549652 0.43815 -0.427073 0.0816951 0.0496946 0.0306299 -0.112672 -0.241293 0.171092 0.172956 -0.083391 0.032369 0.0750631 0.0658679 -0.21257
33726 -1.84007 3.29479 -2.13732 1.45942 -0.301813 -0.259017 -1.282 -0.461063 5.15733 -0.714806 0.0947245 0.255466 -0.0718542 -0.0913926 -0.0752739 -0.438594 -0.473577 0.33193 0.361844 -0.20477 -0.0284898 0.0899674 0.0809455 -0.0222809 0.194355 -0.105866 0.119948 -0.00340009 0.219247 0.0602042 -0.126315 -0.354136
33467 -1.92349 3.32405 -2.20761 1.36666 -0.175344 -0.63809 -1.35299 -0.347316 5.25707 -0.57926 -0.259518 0.280246 0.283726 -0.315625 -0.211189 -0.412063 -0.342218 0.211218 0.303018 -0.303649 -0.0183169 -0.00687401 0.175975 0.196771 0.0519613 0.142151 -0.0583897 -0.0930376 -0.0211936 -0.0139702 -0.210107 0.00655058
37002 -1.6735 2.96373 -2.12762 0.912027 -0.184017 -0.772862 -1.49019 -0.453242 4.48255 -0.741479 -0.0197905 0.397372 0.199667 -0.343649 -0.136308 -0.37224 -0.400324 0.108821 0.588723 -0.199331 0.0347128 0.144531 0.319705 0.129102 0.0540447 -0.125488 0.121419 0.317221 0.00153116 -0.133688 0.170824 -0.307465
36907 -1.87394 3.28935 -2.19686 1.41953 -0.428863 -0.26074 -1.32286 -0.417562 5.19253 -0.71141 -0.110361 0.261637 -0.0314136 -0.218151 -0.0294129 -0.272383 -0.32422 0.383041 0.420746 -0.441668 0.0328367 0.0200059 0.044589 -0.0158916 0.118602 0.0686137 -0.0415671 0.019949 0.115263 0.0284291 0.0764103 -0.0750557
35035 -1.4842 3.28859 -2.09998 1.47271 -0.444868 -0.256514 -1.22332 -0.410172 4.689 -0.555278 -0.118552 0.0815721 0.134535 -0.564957 -0.134753 -0.471995 -0.378379 0.312261 0.473647 -0.438874 0.0496997 -0.155847 0.488382 0.140162 0.301228 0.118212 -0.0765767 0.0980577 0.27981 0.0445926 0.146403 -0.0956615
33633 -1.86159 3.20082 -2.20897 1.224 -0.481772 -0.311074 -1.25012 -0.698622 4.95548 -0.747283 -0.025226 0.326036 -0.052928 -0.12477 -0.135802 -0.347428 -0.429879 0.314181 0.499735 -0.353517 -0.073474 0.0830918 0.145304 -0.0483905 0.0731447 0.00100473 -0.00169194 0.0675808 0.000912139 0.14036 0.190548 -0.243631
32801 -1.68875 3.25566 -2.03234 1.5655 -0.552998 -0.344789 -1.2583 -0.455881 5.03056 -0.632435 -0.0349196 0.121845 0.11774 -0.18366 0.0534571 -0.268607 -0.458588 0.206833 0.54533 -0.37702 -0.0230187 -0.0904922 0.216149 0.290799 0.0550437 -0.0749942 0.139076 0.0612597 0.076823 0.11394 0.29385 -0.0720686
31755 -1.7022 3.27538 -2.02621 1.67357 -0.180549 -0.232287 -1.35448 -0.591605 4.97681 -0.870586 -0.119902 0.188327 0.0150155 -0.156227 -0.0574035 -0.429184 -0.419817 0.216605 0.458855 -0.405052 -0.204766 -0.0792199 0.100379 0.21493 -0.0281229 -0.13485 0.122083 -0.0640605 0.072577 0.249927 0.0911258 0.0877332
31863 -1.54314 3.11508 -2.05223 1.4221 -0.502598 -0.164702 -1.3579 -0.453994 4.56033 -0.658 0.0311089 0.58664 -0.0106362 -0.551386 -0.309451 -0.538699 -0.214403 0.172177 0.210674 -0.5423 0.0920433 0.0564105 0.220482 0.385507 -0.0064699 0.136355 0.286377 0.081456 0.395825 0.143174 -0.0148542 -0.135493
32343 -1.90657 3.43998 -2.29741 1.47761 -0.399776 -0.185946 -1.39754 -0.256472 5.28631 -0.639306 -0.134278 0.336768 -0.0459002 -0.425943 -0.0333983 -0.333702 -0.345504 0.401054 0.428944 -0.374119 0.0258177 -0.0606533 0.160687 0.0485109 0.133847 0.088424 0.0181364 -0.0184213 0.0876987 0.0451927 -0.0748342 -0.14799
33773 -1.95027 3.2997 -2.10582 1.58021 -0.434321 -0.275735 -1.34575 -0.342952 5.17783 -0.65035 -0.221924 0.135585 -0.113866 -0.400209 -0.108405 -0.358123 -0.351546 0.388531 0.548078 -0.309132 -0.0716096 0.0538166 0.135437 0.0165157 0.0846419 0.116696 0.110644 -0.062294 0.169396 0.0330236 0.0855083 0.0273649
33185 -1.66107 3.14852 -2.20238 1.29686 -0.264009 -0.344794 -1.25237 -0.218751 4.5474 -0.566327 -0.0476302 0.364182 -0.0812492 -0.535616 -0.0363199 -0.655752 -0.340639 0.19502 0.548128 -0.572684 0.0464933 -0.0488957 0.299671 0.00342244 0.0780225 0.289456 0.316538 -0.158026 0.00855412 0.104094 0.0706413 -0.226976
35709 -1.75943 2.79658 -1.88232 1.59984 -0.372218 -0.351778 -1.18769 -0.2481 4.08723 -0.434435 -0.0851465 0.485299 -0.0408737 -0.368206 -0.123915 -0.892058 -0.375461 0.480964 0.853594 -0.199769 -0.260378 -0.200755 -0.153451 0.0831757 0.020967 0.538993 0.654479 -0.181654 0.30069 0.187803 -0.0846883 -0.261317
34955 -1.85775 3.20381 -2.12005 1.47486 -0.237181 -0.28476 -1.26402 -0.162617 4.99897 -0.680109 -0.155441 0.253096 -0.0118719 -0.258875 0.0469001 -0.415693 -0.671659 0.275761 0.556365 -0.0905671 0.0830672 -0.0665329 0.1085 0.118601 -0.156395 0.148114 0.176468 -0.143169 0.128752 0.149776 -0.0205145 -0.0945365
35350 -1.8971 2.94331 -1.79139 1.48652 -0.436326 -0.0669002 -1.43979 -0.250135 4.53294 -0.179503 -0.0695674 0.336804 0.201931 -0.326529 0.0297123 -0.277425 -0.504251 0.500294 0.740468 -0.33385 0.059329 -0.0140717 -0.155604 0.126336 -0.080679 0.266316 -0.00606403 -0.341082 0.297664 0.159334 0.0125385 0.0602383
32006 -1.8245 3.10776 -2.07738 1.2818 -0.300957 -0.280027 -1.39558 -0.60647 4.62383 -0.547681 -0.335461 0.311231 0.0183492 -0.398304 -0.0023008 -0.56337 -0.576254 0.250968 0.649614 -0.469662 -0.0871346 -0.128518 0.300565 0.115088 0.0608387 0.0575042 -0.0502069 -0.0434227 0.0247632 -0.136107 -0.0172682 -0.366565
36568 -1.96926 3.19562 -2.3151 1.67612 -0.49893 -0.520898 -1.32704 -0.158083 5.12889 -0.748343 -0.0312563 0.360865 0.0236288 -0.365474 0.0104917 -0.480464 -0.40009 0.420023 0.525974 -0.0276435 -0.062828 -0.190785 0.191515 0.0996211 0.0784365 0.321422 -0.00697527 -0.191326 0.194779 0.316529 0.0412764 -0.23125
33662 -1.72901 3.30422 -2.25938 1.44955 -0.588712 -0.417322 -1.3842 -0.321383 5.15433 -0.616171 -0.0494264 0.113982 0.0836755 -0.239586 0.0288759 -0.41193 -0.575318 0.307274 0.280594 -0.305748 -0.0411129 0.000471563 0.0330019 -0.0580328 0.00510751 0.150772 0.12431 0.0836118 0.0640686 0.163759 -0.00225637 -0.167121
34010 -1.86356 3.16078 -2.02332 1.51441 -0.577123 -0.484153 -1.20992 -0.0187443 4.92151 -0.485526 -0.234826 0.123466 0.097934 -0.202158 0.183225 -0.595115 -0.513816 0.401674 0.299614 -0.218886 -0.240048 -0.0333305 0.140295 0.0604982 -0.0358378 0.117271 0.294656 -0.0665728 0.0489391 -0.139403 -0.0175452 -0.559279
32009 -1.17203 3.03063 -2.05462 1.17064 -0.34901 -0.547225 -1.53719 -0.197141 4.31766 -0.364589 0.102199 0.235058 0.0453117 -0.452808 -0.107247 -0.234196 -0.525103 0.485307 0.395632 -0.44469 -0.104662 0.16779 0.0715453 0.0942514 0.0226929 -0.0960397 0.106561 -0.130475 0.367815 -0.0876108 0.109041 0.0242312
32024 -1.83804 3.35653 -2.15219 1.58889 -0.480908 -0.223439 -1.36929 -0.336756 5.17972 -0.683829 -0.128858 0.315925 -0.022605 -0.355277 0.0319196 -0.124532 -0.447547 0.273786 0.487414 -0.362217 0.00891496 -0.12484 0.0450371 0.284511 0.199194 -0.110274 -0.00651868 -0.0318933 0.0324761 -0.0916685 -0.0742087 -0.251353
33047 -1.67252 3.15379 -1.90776 1.38372 -0.224067 -0.202053 -1.50487 -0.135421 4.46299 -0.476551 -0.287773 0.37043 0.304451 -0.315365 -0.100582 -0.654705 -0.596144 0.641238 0.482934 -0.45491 0.0407352 0.0170413 0.264843 0.221924 0.200881 0.339214 0.011514 0.0169108 0.0976827 0.209811 0.401217 -0.11689
33989 -1.5488 3.17871 -2.01237 1.27164 -0.407556 -0.192456 -1.31326 -0.425843 4.7212 -0.563083 -0.342889 0.375869 -0.0731824 -0.354244 -0.0444842 -0.369582 -0.36536 0.0306923 0.457153 -0.301739 -0.150522 -0.0501457 0.268512 0.0988852 0.201418 0.0266799 0.235718 0.2121 0.253735 -0.0185388 -0.0111107 -0.106242
36166 -1.74011 3.30641 -2.09325 1.40378 -0.208078 -0.171463 -1.37108 -0.186481 4.89161 -0.696681 0.131927 0.265333 -0.163992 -0.519415 -0.0423228 -0.284604 -0.404763 0.204464 0.56184 -0.406494 -0.49768 0.140092 0.355798 -0.011019 -0.0333522 -0.0354922 0.0131299 0.112666 0.0858146 -0.023252 0.37826 -0.194975
34361 -1.73721 3.30888 -2.24748 1.3119 -0.379651 -0.347392 -1.28747 -0.436848 5.06161 -0.806478 0.092126 0.267133 0.191232 -0.468303 -0.0890409 -0.295851 -0.633556 0.0650896 0.523578 -0.130705 0.0557646 0.00535045 0.170596 0.185781 0.167191 0.196023 0.0904912 0.114118 0.162007 0.0454665 -0.132193 0.0781053
33436 -1.59501 3.2958 -1.93624 1.43127 -0.3592 -0.217069 -1.26075 -0.256007 4.93478 -0.74601 -0.0995619 0.311013 0.091173 -0.270626 -0.100043 -0.35008 -0.36535 0.10278 0.379152 -0.419541 -0.0144309 -0.116201 0.361308 0.0264434 0.112358 -0.020205 0.0449199 -0.172459 0.0268002 0.0108048 -0.192169 -0.199076
34391 -1.74474 3.43131 -1.92749 1.45435 -0.0647075 -0.327505 -1.00644 -0.536208 4.91368 -0.55128 0.316186 0.342822 0.147545 -0.226871 -0.0208271 -0.656591 -0.339155 0.361794 0.635917 -0.576026 -0.00198268 -0.0594207 0.112971 -0.214738 0.30659 -0.152132 0.11602 -0.264458 0.158974 0.218672 -0.237143 -0.583302
35817 -1.74643 3.25353 -1.81314 1.52558 -0.234247 -0.274605 -1.16456 -0.415902 4.71087 -0.664099 0.0481467 0.316885 0.00562036 -0.666252 0.175365 -0.319374 -0.476024 0.291367 0.623046 -0.562254 -0.0856826 0.0300698 0.0435664 -0.0777061 0.210034 0.116383 0.113735 -0.0662418 0.110992 0.197427 -0.194981 -0.30783
35080 -1.90048 3.17435 -2.0926 1.56061 -0.263676 -0.297458 -1.20015 -0.287326 5.00125 -0.684474 0.142611 0.248784 -0.0114027 -0.333483 -0.0616782 -0.361624 -0.407214 0.403584 0.494105 -0.285407 -0.048758 -0.218215 0.149077 -0.213919 0.267368 -0.164471 0.231023 0.0708717 0.0103262 0.138673 -0.111141 -0.261264
34444 -1.6198 3.32666 -2.01093 1.59879 -0.5038 -0.188171 -1.16424 -0.323848 5.03729 -0.642215 -0.0624692 0.225375 0.117988 -0.273254 -0.125999 -0.167573 -0.404846 0.352941 0.575473 -0.359706 -0.0056693 -0.166712 -0.125181 0.211708 0.105594 0.110723 0.00318669 -0.0739755 -0.13182 -0.0731595 -0.0464649 -0.327942
31160 -1.67611 3.36561 -2.0255 1.57503 -0.481629 -0.291306 -1.08409 -0.321764 5.11117 -0.644542 -0.00653114 0.155042 0.384903 -0.274778 -0.0178967 -0.133503 -0.432679 0.170492 0.553588 -0.41183 -0.060798 -0.119513 0.122535 0.182344 0.160222 -0.00283152 0.0293201 0.00522858 0.102193 -0.0198684 -0.0323881 -0.0149676
33843 -1.85248 3.41711 -2.30194 1.38936 -0.497935 -0.204845 -1.40947 -0.258823 5.30234 -0.662113 -0.12724 0.322287 -0.00320158 -0.340917 -0.20793 -0.233847 -0.464529 0.343382 0.301441 -0.311869 -0.0600281 -0.169603 0.240491 0.0954081 0.110593 -0.00842733 0.0786549 -0.162232 0.106415 0.0452111 -0.0347579 -0.178797
35725 -1.77455 3.26544 -1.99064 1.59982 -0.621439 -0.28455 -1.46749 -0.123676 5.038 -0.579564 -0.191351 0.267275 0.019067 -0.178731 -0.0624554 -0.418135 -0.529646 0.31317 0.452255 -0.311302 -0.178869 -0.236625 0.0734447 0.0183305 0.0568981 0.138493 0.157664 -0.068099 0.124476 0.00710274 -0.0165347 -0.185996
33386 -1.90466 3.29149 -1.88855 1.51866 -0.259621 -0.104495 -1.43944 -0.112423 4.89763 -0.848281 0.0161583 0.234052 -0.216293 -0.3771 -0.0435679 -0.496175 -0.553346 0.328236 0.441608 -0.405703 -0.0477905 0.181227 0.300564 0.070662 0.0883254 -0.0132912 0.0822962 -0.28542 -0.00830411 -0.0186006 0.0561501 0.0100516
32023 -1.87294 3.36061 -2.17266 1.45969 -0.469964 -0.257164 -1.3048 -0.276471 5.20773 -0.667617 -0.162703 0.273831 -0.0496335 -0.436347 -0.0319748 -0.435238 -0.437115 0.160221 0.401503 -0.346808 0.00174837 -0.0746742 0.179635 0.0686903 0.174716 0.180081 0.0737459 0.0272034 0.158895 0.0958875 -0.0171443 -0.224458
32762 -1.68214 3.23601 -2.08525 1.45352 -0.243349 -0.419801 -1.23379 -0.157155 4.93077 -0.617143 -0.0404611 0.341618 0.0977589 -0.307301 0.0186049 -0.282089 -0.352344 0.368505 0.426261 -0.399286 -0.0809765 0.108012 0.256225 -0.0994477 0.23132 0.0460977 0.0110986 -0.0294076 -0.0544725 0.163162 0.134069 0.0175548
32580 -1.59162 3.2989 -2.09931 1.41311 -0.27969 -0.323067 -1.10801 -0.29162 4.9168 -0.617589 -0.322358 0.0526211 -0.0909782 -0.187196 -0.0332945 -0.507318 -0.319196 0.419589 0.5298 -0.331288 0.125474 0.0943459 0.0927752 0.0667661 0.309976 0.125139 0.250806 0.161754 0.0986157 0.0532502 0.086284 -0.10172
31271 -1.36023 3.26994 -1.88909 1.59166 -0.380165 -0.305038 -1.28068 -0.241863 4.67879 -0.668881 -0.339946 0.328413 -0.0995984 -0.542749 0.174017 -0.368197 -0.16565 0.437344 0.525234 -0.268644 0.182938 -0.0590758 0.175099 0.107964 0.146607 0.43667 -0.255163 -0.102667 -0.109156 0.0851458 0.111368 -0.149357
31110 -1.65856 3.34371 -2.04916 1.41687 -0.207852 -0.220832 -1.36521 -0.433171 5.0869 -0.369741 -0.343378 0.178601 -0.0251875 -0.305053 -0.0269128 -0.255221 -0.445559 0.34835 0.288494 -0.360554 -0.0115218 -0.151022 0.134085 0.116108 0.0400434 0.0747799 0.104239 0.0974404 -0.0530284 0.0225602 -0.0833353 -0.401125
32126 -1.68164 3.22177 -1.99697 1.58436 -0.575795 0.00839632 -1.21043 -0.315101 4.97938 -0.765819 -0.142115 0.332836 0.204131 -0.231314 0.0315496 -0.29327 -0.510553 0.247654 0.535494 -0.226759 0.120909 0.00141303 -0.102366 0.0771692 0.186929 0.0714772 0.0938963 -0.0210816 0.00792046 -0.084457 0.0441202 -0.267947
33826 -1.37425 3.29717 -1.86245 1.18737 -0.170162 -0.286248 -1.07637 -0.201011 4.4228 -0.333431 -0.0268567 0.351113 0.1939 -0.681549 -0.223874 -0.547676 -0.387929 0.341418 0.753692 -0.352703 -0.320246 0.131165 0.235861 -0.121063 0.0689335 -0.060257 0.240428 -0.0936787 0.238727 0.128073 -0.0107613 -0.402445
36951 -1.70136 3.03869 -1.86185 1.18476 -0.353101 -0.0951154 -1.04751 0.142931 4.33224 -0.618699 -0.0865049 0.138592 0.214271 -0.549957 -0.401552 -0.425344 -0.313354 0.526179 0.715463 -0.345127 -0.363029 0.267437 0.499881 0.300402 0.417177 -0.0371963 -0.00615992 0.122256 0.147552 0.0983639 0.284378 -0.420865
33951 -1.79499 3.2135 -2.08053 1.50433 -0.358392 -0.256961 -1.35972 -0.568346 4.96341 -0.669786 -0.242596 0.158574 -0.0507634 -0.507914 0.0469996 -0.386596 -0.292852 0.302767 0.556685 -0.295513 0.0647352 -0.0868803 0.377932 0.119452 0.165741 0.0841388 -0.0472603 0.0782668 -0.104398 -0.0120928 -0.0560202 -0.233553
34330 -1.34549 3.16863 -2.0538 1.26111 -0.364781 -0.516042 -1.2673 -0.311036 4.5483 -0.504748 -0.495227 0.310699 -0.095388 -0.447445 -0.164067 -0.0364337 -0.338289 0.120659 0.771651 -0.553197 0.0825964 -0.0424792 0.14009 0.048503 0.365461 -0.0698951 -0.0235038 -0.0639077 0.264789 0.0112165 -0.165183 -0.0468831
33462 -1.60365 3.22198 -1.93036 1.56242 -0.279564 -0.367969 -1.1664 -0.606083 4.77541 -0.673687 -0.124916 0.354099 0.0318498 -0.310523 -0.139448 -0.505824 -0.155576 0.336729 0.523506 -0.42839 -0.0495261 -0.10002 0.288848 -0.00341231 -0.0263199 0.0888931 0.174765 -0.164096 0.0432845 -0.251238 0.0357989 -0.375769
35137 -1.77786 3.38643 -2.15542 1.43569 -0.540548 -0.203577 -1.18075 -0.211925 5.09038 -0.626851 -0.104543 0.329392 0.177845 -0.0997385 0.082655 -0.28963 -0.327753 0.366439 0.59229 -0.593818 -0.0964756 -0.19714 0.368181 0.12233 -0.173863 0.215473 0.153984 0.0949156 0.0179349 0.103056 -0.175713 -0.131867
35567 -1.74331 3.20746 -2.25069 1.38717 -0.374708 -0.0810708 -1.50696 -0.116088 4.93051 -0.78879 -0.0238667 0.408466 0.0475899 -0.0452282 -0.197923 -0.18397 -0.171535 0.400083 0.628206 -0.592019 -0.17898 0.00570335 0.418989 0.0371864 -0.240112 0.0971569 0.0636322 -0.0198679 -0.036194 0.0514422 -0.304348 -0.180385
32561 -1.93713 3.23994 -2.14453 1.45917 -0.333644 -0.198776 -1.22187 -0.262784 5.14127 -0.654373 0.0237855 0.287618 0.0218545 -0.340686 -0.0377946 -0.279795 -0.281979 0.390147 0.4643 -0.395017 -0.0322139 0.0507495 0.259525 0.0768627 0.0263361 0.296264 0.141273 -0.0429992 -0.0274976 0.00637136 -0.198593 -0.00744284
34354 -1.46517 3.39911 -1.96465 1.19202 -0.458428 -0.190714 -1.18813 -0.240686 4.76565 -0.612356 -0.166878 0.334785 -0.0759997 -0.437839 -0.105847 -0.277691 -0.445377 0.425623 0.554767 -0.500281 0.0635228 0.0776037 -0.118175 0.189394 0.206554 0.142119 0.410276 -0.0194298 -0.0275484 0.0542624 -0.161907 -0.218823
36622 -1.77955 3.31548 -2.0859 1.31978 -0.405258 -0.137631 -1.37582 -0.295 5.12702 -0.589742 -0.0567877 0.0262191 0.0356844 -0.144096 -0.100776 -0.402171 -0.463799 0.481219 0.299191 -0.362044 0.101794 0.1324 0.0209858 -0.0942116 0.225029 -0.154302 0.0804028 0.134447 -0.0395406 0.101404 -0.117744 -0.241889
36387 -1.91138 2.49867 -1.89463 1.32466 -0.354322 -0.11075 -1.12902 -0.484339 3.81284 -0.787886 -0.15865 0.456773 0.23705 -0.312791 0.117436 -0.5654 -0.844442 0.485321 0.644543 -0.266855 -0.146593 0.160767 0.109829 0.0782372 0.10428 -0.164645 0.293507 -0.31065 -0.278272 0.136218 0.0645308 -0.518475
35204 -1.90601 3.22063 -2.2764 1.50075 -0.506615 -0.349066 -1.31507 -0.257082 5.09036 -0.48555 0.0636647 0.412027 -0.0953602 -0.221442 -0.0115149 -0.468065 -0.480139 0.34158 0.228625 -0.378189 -0.0963998 -0.161915 0.0940226 0.0691766 0.0120593 -0.0499223 0.25017 0.051255 -0.0456735 0.100312 0.0531583 -0.269003
33220 -1.65495 3.25135 -2.17997 1.3623 -0.342343 -0.179833 -1.40913 -0.655555 4.9342 -0.469796 -0.0946291 -0.00415701 0.187518 -0.0813434 0.0408719 -0.441482 -0.651339 0.416514 0.313803 -0.463104 -0.0487197 0.121158 0.0199528 -0.174811 0.372534 -0.109119 0.0557039 0.108293 0.247258 0.257108 -0.336919 -0.362962
35460 -1.84523 3.2456 -1.98243 1.51705 -0.29695 -0.345554 -1.27876 -0.232464 5.11164 -0.568821 -0.0930834 -0.0226078 -0.147606 -0.228908 0.0822784 -0.403781 -0.460675 0.407846 0.367635 -0.313874 0.0468291 0.0930897 -0.011045 0.108382 0.279742 0.0987397 0.104292 0.12253 0.105914 0.0355385 -0.149734 -0.0467406
37060 -1.60493 2.93989 -1.28061 1.98456 -0.518847 -0.311815 -1.25017 -0.0237438 4.31702 -0.496436 -0.233122 0.485592 0.294609 -0.487421 -0.165866 -0.0416238 -0.393515 0.833108 0.500388 -0.408615 0.167712 0.107878 -0.196461 0.158465 -0.116089 -0.00727358 0.225507 0.418772 0.0931085 -0.0443745 -0.159308 -0.128054
35876 -1.7958 3.34187 -2.1077 1.49357 -0.281094 -0.339446 -1.24983 -0.397498 5.21892 -0.573128 -0.0882423 0.287701 0.143706 -0.154608 -0.0688791 -0.353048 -0.39928 0.314396 0.40092 -0.280672 -0.0881055 -0.0404149 0.0172373 0.0447917 0.0470754 0.140289 -0.00947132 -0.0699406 0.161283 6.67645e-05 -0.0339917 -0.0325257
31588 -1.50637 3.1652 -2.03695 1.5787 -0.242043 -0.531764 -1.47151 -0.554975 4.73285 -0.627392 -0.0768243 0.21421 0.0488088 -0.382909 -0.0739687 -0.318675 -0.542219 0.138347 0.473265 -0.433208 -0.0340112 0.103964 0.265512 -0.00160279 -0.0672491 0.203895 -0.0239653 0.0626391 0.03752 -0.387645 0.063174 -0.0212837
32566 -1.88604 3.38478 -2.11639 1.50806 -0.433764 -0.306769 -1.28942 -0.441807 5.18103 -0.86082 -0.133959 0.438857 0.088621 -0.443863 -0.281195 -0.340681 -0.444394 0.330008 0.275015 -0.361789 -0.0976695 0.0575856 0.238232 0.0224379 0.108199 -0.0535425 -0.0253759 -0.0143892 0.232347 -0.104003 -0.124169 -0.0627771
36412 -1.35164 3.15262 -1.87164 1.60356 -0.429405 -0.264165 -1.03011 -0.519183 4.33064 -0.640151 -0.300758 0.456282 0.454713 -0.141201 -0.179034 -0.833213 -0.326743 0.547692 0.370644 -0.454832 -0.0786385 0.30087 0.313197 0.269514 -0.397197 0.0477766 0.361051 0.0480356 0.435902 0.0369191 -0.0831487 -0.321038
31226 -1.86351 3.27431 -2.20273 1.58008 -0.355863 -0.492733 -1.14628 -0.377596 5.09327 -0.677841 -0.129001 0.525362 0.233441 -0.189693 -0.0391399 -0.571163 -0.260212 0.493321 0.348441 -0.400226 0.00978332 0.244266 0.0652661 0.0876447 0.069378 0.110805 0.109135 -0.344817 -0.00594224 0.0144397 -0.0642457 -0.276254
35609 -1.50438 3.36474 -2.16731 1.39007 -0.486655 -0.267046 -1.31987 -0.453668 4.98043 -0.58212 -0.116366 0.439598 0.0277299 -0.0662557 -0.137319 -0.329779 -0.354885 0.371457 0.478591 -0.292159 -0.0864715 -0.203606 0.0160463 0.177906 -0.0730865 0.00459276 0.257859 -0.0455004 0.18942 -0.0937398 0.212005 -0.0518521
33606 -1.50931 3.32987 -2.0863 1.41451 -0.418483 -0.466466 -1.28686 -0.52926 4.97062 -0.791737 -0.140262 0.219809 0.0172901 -0.230215 -0.197507 -0.248782 -0.463053 0.46797 0.392147 -0.358901 -0.0380687 -0.0676111 -0.0828727 -0.0709308 -0.0142324 0.436935 -0.000928415 -0.0526003 0.0379969 0.141336 -0.0158131 0.0555506
33240 -1.74879 3.27695 -2.03903 1.44903 -0.453213 -0.298795 -1.27942 -0.618444 4.96235 -0.825938 -0.182637 0.338025 -0.0909637 -0.0240392 -0.208547 -0.364845 -0.532191 0.529853 0.445491 -0.285614 -0.140951 0.137996 0.00777801 -0.113392 0.208771 0.18476 -0.12335 0.0265097 -0.0288128 0.222882 0.117635 -0.0614174
33512 -1.45824 3.31366 -2.03069 1.32218 -0.342814 -0.357096 -1.3537 -0.720157 4.82862 -0.586595 -0.253923 0.133537 -0.0494769 -0.274503 -0.0763967 -0.258788 -0.468744 0.481679 0.453023 -0.352279 -0.211214 0.0471341 0.0620691 0.00614045 0.121406 0.177768 -0.110004 -0.192529 0.0105514 0.185641 0.0420221 -0.169029
31529 -1.79628 3.30262 -2.10309 1.52342 -0.417195 -0.325641 -1.23685 -0.496143 5.16377 -0.636616 -0.0490878 0.30493 0.0630314 -0.0953596 -0.0592606 -0.291396 -0.317887 0.47257 0.4214 -0.309096 -0.0861645 -0.155543 0.106021 0.0430304 0.0525577 0.0599523 -0.0201676 -0.10579 0.133275 0.171406 0.0609344 -0.036565
32521 -1.6785 3.20758 -2.11373 1.36544 -0.578523 -0.350317 -1.23785 -0.556442 4.9697 -0.821692 -0.0806326 0.320248 0.0633053 -0.171316 -0.403663 -0.332699 -0.119529 0.624982 0.394049 -0.263613 0.0179362 0.0267999 0.0947841 0.0627398 0.078128 0.0879557 -0.186083 0.247966 0.169004 0.183423 0.348439 -0.116861
36053 -1.92451 3.19515 -1.98964 1.51223 -0.368292 -0.231256 -1.14189 -0.498992 4.89891 -0.873881 -0.243294 0.271202 -0.138885 -0.275786 -0.0394212 -0.456708 -0.315749 0.329868 0.715434 -0.466059 -0.0201629 0.0629015 -0.00272917 0.01223 -0.0580646 0.128791 -0.0445428 0.176388 -0.119042 0.143029 0.0860354 -0.0880502
31003 -1.70281 3.13084 -2.00111 1.53291 -0.158774 -0.29434 -1.43369 -0.468838 4.59321 -0.753359 -0.186629 0.131709 0.0302707 -0.247967 0.346189 -0.545614 -0.394121 0.263982 0.560145 -0.770592 0.0169805 0.289458 0.103268 0.345757 -0.304371 0.0906431 0.158044 -0.0417431 -0.0723185 0.0508648 0.259604 -0.292001
33235 -1.56223 3.39108 -2.08465 1.43823 -0.495894 -0.354114 -1.23455 -0.161658 4.98254 -0.500598 -0.175041 0.393243 0.310082 -0.221724 0.201582 -0.401575 -0.303327 0.322223 0.376267 -0.639478 0.22163 -0.0497136 0.514597 -0.0788955 0.266522 -0.130133 -0.126151 0.163438 0.0767614 -0.146642 -0.0144404 0.031815
34152 -1.74561 3.26757 -2.12594 1.40641 -0.499502 -0.413183 -1.18055 -0.580629 5.05897 -0.76978 0.0397607 0.263056 -0.0589258 -0.142573 -0.104643 -0.230275 -0.505821 0.375875 0.364432 -0.351566 -0.0386378 0.0480783 0.0673503 -0.0524517 0.185083 0.18238 -0.0468726 0.00824893 0.032163 0.127644 0.058314 -0.119798
31065 -1.49719 3.41225 -1.96524 1.35386 -0.551087 -0.197726 -1.22438 -0.365551 4.944 -0.579971 -0.145118 0.196 -0.0199672 -0.380491 0.167493 -0.425624 -0.284017 0.582709 0.466994 -0.327669 -0.132467 -0.0417593 0.133896 0.0159586 0.00683202 0.232903 0.0511965 -0.0396919 0.224914 -0.256059 0.0254374 0.0204559
33962 -1.53701 3.18463 -2.24081 1.3577 -0.46752 -0.465631 -1.43614 -0.393381 4.96811 -0.64848 -0.227685 0.0901769 -0.0974126 -0.0748578 0.0160276 -0.151468 -0.322946 0.112148 0.676522 -0.312017 0.0387166 -0.04996 -0.0844149 -0.113271 0.18236 0.086179 0.242685 -0.131772 0.0711312 -0.021689 -0.0237669 0.0811334
31984 -1.80381 3.37929 -2.20211 1.41331 -0.325258 -0.461921 -1.30841 -0.395675 5.27199 -0.643025 -0.171721 0.271735 0.0760118 -0.319304 -0.055798 -0.256672 -0.42934 0.307741 0.339555 -0.362689 0.0704766 -0.0764206 0.0118865 0.0424711 0.00604282 0.195034 -0.028528 -0.0366504 0.0438807 0.00625993 -0.0900887 -0.139878
32053 -1.75014 3.1225 -2.00482 1.2823 -0.570964 -0.226756 -1.41559 -0.364745 4.74768 -0.670301 -0.18172 0.303611 0.346697 -0.447458 -0.410178 -0.138592 -0.303385 0.375578 0.572342 -0.301899 0.0122603 -0.274186 -0.137648 0.189628 0.226058 -0.0942243 0.10535 0.0170475 -0.127514 0.0349748 -0.0755391 -0.0156795
31601 -1.70819 3.29145 -2.24665 1.39241 -0.585199 -0.306822 -1.25211 -0.434822 5.1297 -0.728364 -0.0505843 0.174721 0.0614202 -0.363015 -0.0629283 -0.336515 -0.35548 0.307525 0.330386 -0.304399 -0.141085 -0.0698491 0.00411489 0.00986625 0.11109 -0.0662059 0.184235 -0.116048 -0.136306 0.0693429 0.0323236 -0.173518
33529 -1.4624 3.07658 -2.06301 1.23698 -0.607033 -0.645006 -1.13615 -0.570701 4.58535 -0.589901 -0.181024 0.237793 -0.114939 -0.618073 -0.0835761 -0.253137 -0.505993 0.176047 0.276118 -0.490556 -0.281769 0.191617 0.19868 -0.0787507 0.036189 0.197052 0.056317 -0.0654045 0.0171651 0.063778 -0.00340494 -0.307832
36519 -1.77283 3.06818 -2.07848 1.42101 -0.717345 -0.404131 -1.37654 -0.209702 4.69718 -0.296843 0.197123 0.240598 0.262995 -0.290605 0.0458369 -0.71532 -0.593077 0.288946 0.482731 -0.226907 -0.0352547 0.0981978 -0.00175321 0.0667947 -0.181439 0.249988 0.037046 -0.141137 0.311966 -0.0139876 0.205125 -0.471254
32267 -1.93955 3.11764 -2.07169 1.49502 -0.329002 -0.220299 -1.22186 -0.211956 4.77154 -0.563193 -0.238425 0.320688 0.0608172 -0.139641 -0.0201587 -0.637036 -0.616085 0.330181 0.544428 -0.362302 0.00924769 -0.326663 0.132871 -0.104375 -0.0562619 0.0490321 0.338828 -0.0539549 0.220671 0.125681 0.2393 -0.427042
31546 -1.5252 3.29722 -2.08532 1.27913 -0.27736 -0.394289 -1.11495 -0.212144 4.82417 -0.554558 -0.196563 0.236491 -0.0226767 -0.386615 0.0353705 -0.394048 -0.663333 -0.063454 0.598788 -0.341763 -0.210439 -0.0161263 0.19454 0.0428835 0.0941336 -0.0253903 0.0845952 -0.0663662 -0.0588528 0.198845 0.103812 -0.322017
36759 -1.86843 3.25059 -2.18027 1.28391 -0.411395 -0.340291 -1.28704 -0.308825 4.98465 -0.606692 -0.0173934 0.317269 0.0740142 -0.253432 -0.181534 -0.473005 -0.308854 0.398103 0.584585 -0.159388 -0.000954608 0.0181076 0.413417 0.152562 0.115848 0.0601787 0.152963 0.0419345 0.0851196 -0.0520218 0.142151 -0.0621358
35462 -1.94984 2.83801 -2.22654 1.22688 -0.547863 -0.42987 -1.13122 -0.470701 4.5384 -0.530211 0.0918252 0.238978 0.10833 -0.498782 -0.323078 -0.366763 -0.365143 0.360536 0.560511 -0.363874 0.402181 0.0901902 0.0818864 0.457215 0.23849 -0.0729446 0.4599 0.103361 0.114883 0.219713 0.130251 0.138138
35202 -1.65767 3.13554 -2.03294 1.41544 -0.408048 -0.255704 -1.03102 -0.545858 4.68823 -0.493228 0.0444076 0.310901 0.0134383 -0.334795 -0.192108 -0.327332 -0.403103 0.452456 0.540258 -0.580022 0.126037 -0.0576674 0.158587 0.182077 0.355068 0.17032 0.0561721 0.0144567 -0.141746 0.0530213 0.179323 -0.163089
35867 -1.77394 3.27176 -2.11599 1.52049 -0.377168 -0.00373283 -1.29707 -0.412088 5.03592 -0.659098 -0.220763 0.360312 -0.131309 -0.276748 0.055631 -0.440167 -0.35246 0.228346 0.46048 -0.245798 0.0369495 -0.0210413 0.102204 0.229548 0.217473 0.188819 0.273861 -0.0340413 -0.0867507 0.0655547 -0.110302 -0.177757
34521 -1.37478 3.35305 -1.87421 1.42535 -0.552912 -0.09994 -1.51046 -0.341538 4.52551 -0.778411 -0.366915 0.497306 0.243568 -0.385449 -0.330118 -0.602392 -0.197775 0.496764 0.591691 -0.329629 -0.0484811 -0.0381951 0.27367 0.0625413 0.265041 0.362275 0.727926 0.26764 0.0253271 0.027709 -0.211237 -0.150761
35976 -1.82125 3.32972 -1.97654 1.42595 -0.38866 -0.230595 -1.42557 -0.121525 5.05269 -0.915639 -0.212541 0.259304 -0.136407 -0.271731 -0.161119 -0.593706 -0.433657 0.284992 0.300217 -0.211357 -0.0246593 -0.0685357 0.257458 0.0143456 -0.0569879 -0.0432697 0.104526 -0.197394 -0.0394044 -0.0497422 -0.00420183 0.09603
31446 -1.84012 3.27467 -2.22405 1.35666 -0.197768 -0.339836 -1.28109 -0.352324 5.02759 -0.55672 -0.0962305 0.371461 0.276337 -0.511911 -0.0740759 -0.395276 -0.604882 0.352255 0.442567 -0.104999 -0.0880992 -0.018906 0.114279 0.0813499 -0.168246 0.107151 -0.0996693 0.0685074 0.0513744 -0.0747077 -0.063741 -0.0283172
33966 -1.56505 3.37176 -2.17659 1.5192 -0.180229 -0.273274 -1.24564 -0.575763 4.97565 -0.792933 0.152104 0.167924 0.135179 -0.600914 0.0462479 -0.285908 -0.66927 0.311831 0.430781 -0.0876052 0.259177 -0.05321 0.224731 -0.0363637 -0.380284 0.162001 0.165226 0.266469 0.190352 -0.11655 -0.181673 -0.13338
36869 -1.74468 3.40744 -2.17772 1.48662 -0.403081 -0.375758 -1.34321 -0.254834 5.15241 -0.735753 -0.102938 0.242602 0.12322 -0.41045 0.0779159 -0.364945 -0.3334 0.460666 0.382046 -0.456354 0.0208021 0.0414363 0.10071 0.139478 0.0898128 0.162743 0.0989929 -0.0587856 0.081408 0.00440317 0.0536601 -0.12183
35622 -1.17731 3.27051 -2.18247 1.0752 -0.426633 -0.360909 -1.58437 -0.306577 4.73741 -0.41375 -0.0580156 0.203765 -0.394333 -0.383881 0.109887 -0.176047 -0.094431 0.622094 0.52249 -0.222828 -0.112924 0.121487 -0.0311065 0.0561072 0.0573385 -0.348621 0.251151 -0.270616 0.228877 -0.152029 -0.16342 -0.122602
36440 -1.56711 3.33176 -2.08574 1.27201 -0.472233 -0.335279 -1.26791 -0.540997 5.04176 -0.54373 -0.0163881 0.295092 0.172319 -0.100069 -0.156737 -0.226082 -0.33188 0.341785 0.526616 -0.319285 -0.131574 -0.0871246 0.213522 0.22608 -0.313544 -0.218134 0.180875 0.0276865 -0.0455686 0.0764345 -0.114623 -0.139759
34933 -1.77952 2.94185 -1.91356 1.30873 -0.109513 -0.270673 -1.31328 -0.152667 4.39773 -0.729399 -0.301799 0.373677 -0.0399678 -0.40727 -0.238487 -0.432309 -0.41489 0.386273 0.480371 -0.613197 0.121681 -0.236632 0.136598 -0.149564 0.0925101 0.197431 0.00477138 -0.130425 0.0773091 0.0334689 0.0354336 -0.174651
34481 -1.85211 3.21317 -2.25923 1.42272 -0.412638 -0.269924 -1.25341 -0.249993 5.10454 -0.635504 -0.14954 0.291957 0.0625272 -0.291229 -0.150484 -0.243287 -0.418077 0.141964 0.615638 -0.258467 -0.0789824 -0.0725168 0.256284 0.118578 0.185794 0.20701 -0.0324193 -0.0159464 -0.0504659 0.185623 0.112166 -0.181829
33894 -1.72376 3.09394 -2.32765 1.2768 -0.45621 -0.284525 -1.62498 -0.107844 4.8532 -0.348692 -0.129272 0.470413 -0.131575 -0.134462 -0.11143 -0.180927 -0.178046 0.548849 0.719198 -0.393255 0.0608525 0.224316 -0.0595902 0.0699632 0.0588904 -0.0225274 -0.0485896 -0.0910069 0.0175952 -0.00911808 0.0680644 -0.13252
36555 -1.61457 3.36612 -1.84784 1.2441 -0.409505 -0.169775 -1.07734 -0.10786 4.91185 -0.985565 -0.146294 0.289381 -0.0837774 -0.295217 0.00605099 -0.366941 -0.244436 0.255428 0.604236 -0.406866 -0.260357 0.216812 0.0943171 0.149769 -0.0640077 0.194011 0.141479 0.0999825 -0.175255 0.100866 -0.143637 0.0668033
31422 -1.5484 3.30716 -2.07493 1.52825 -0.375453 -0.238242 -1.09716 -0.523802 4.9508 -0.567133 -0.136298 0.241607 0.25282 -0.222072 -0.183563 -0.467033 -0.267874 0.32073 0.456307 -0.309362 -0.221314 0.17532 0.305688 0.0851689 -0.0114987 -0.0651647 0.114322 -0.0275521 -0.0481727 -0.086643 0.203551 -0.208212
31216 -1.92308 3.17511 -1.88345 1.50614 -0.410976 -0.225326 -1.09721 -0.633813 4.78269 -0.760391 -0.227254 0.396853 0.0370046 -0.0104012 -0.299947 -0.507693 -0.397302 0.470028 0.661139 -0.427392 0.0772241 -0.161443 -0.0478585 -0.0269166 0.214163 0.264278 -0.257232 0.0894643 0.0270805 0.235202 0.245986 -0.0200832
33048 -1.7374 3.18729 -2.08108 1.55486 -0.479861 -0.449784 -1.26055 -0.149802 4.70696 -0.567746 -0.171721 0.430984 0.0657023 -0.41079 -0.185951 -0.672724 -0.254168 0.441316 0.60004 -0.480609 0.110441 -0.248412 0.0182682 0.0773135 0.0071948 0.314827 -0.0445151 0.011275 0.0433717 -0.0251954 0.150785 -0.237481
35676 -1.64391 3.36854 -2.06548 1.36837 -0.494996 -0.246979 -1.27978 -0.295987 5.08083 -0.797554 0.0111837 0.173629 0.0397649 -0.246699 -0.124323 -0.445282 -0.376745 0.249782 0.289379 -0.411801 -0.0661446 -0.0764396 0.15537 0.048346 -0.0610872 -0.0181652 0.144235 -0.0944075 -0.134859 0.075446 0.0506911 0.0483685
33847 -1.90823 3.24839 -2.05158 1.4999 -0.390767 -0.29127 -1.21613 -0.290369 4.98134 -0.869754 -0.18242 0.147501 -0.0305676 -0.302942 0.034768 -0.387681 -0.322144 0.373072 0.516484 -0.410526 0.0302231 0.0797552 0.277539 0.127847 0.233798 0.120903 0.162748 0.0584665 -0.0381638 0.0383805 0.122819 0.0875903
33032 -1.71548 3.24785 -1.97715 1.4583 -0.32956 -0.261408 -1.22631 -0.291442 5.04192 -0.624868 -0.111021 0.136845 -0.156286 -0.248498 0.0756448 -0.33799 -0.146778 0.35825 0.622543 -0.311457 0.0820815 -0.0224709 0.222104 -0.130701 0.172954 -0.106965 0.11155 -0.0660437 0.0836294 0.0510764 -0.0202385 -0.0207264
36125 -1.72419 3.26335 -2.08002 1.58897 -0.482786 -0.420662 -1.15884 -0.423718 5.1339 -0.669808 -0.152539 0.0805164 0.0282584 -0.176623 -0.0356501 -0.172245 -0.382389 0.254953 0.541959 -0.405948 0.0550552 -0.0334805 0.196278 0.13145 -0.0048352 -0.0479797 0.0820818 0.0155221 -0.0103143 0.0469271 0.0294651 -0.0605385
35049 -1.65208 3.27271 -2.13662 1.42104 -0.436847 -0.29845 -1.41288 -0.337409 5.03778 -0.804431 0.132674 0.288685 0.0657526 -0.189159 -0.110698 -0.410926 -0.324752 0.315886 0.285396 -0.37482 -0.127962 -0.286316 0.203839 0.0809933 -0.0344036 -0.119183 0.228407 -0.119935 -0.129199 0.089846 -0.0224186 0.0403291
32491 -1.53471 3.16653 -2.13279 1.32422 -0.299414 -0.445229 -1.44589 -0.249243 4.72022 -0.750125 -0.290398 0.0100607 -0.00739183 -0.269701 -0.295606 -0.101496 -0.481158 0.31255 0.505458 -0.613321 -0.182146 -0.25965 0.251486 -0.0905598 0.0771816 0.266725 0.185282 -0.109053 0.0449078 -0.0322739 -0.0508722 0.0164763
33585 -1.7201 3.28716 -2.02801 1.44341 -0.389719 -0.381539 -1.37053 -0.333481 5.07026 -0.495385 -0.316331 0.0836347 0.102212 -0.114633 -0.0393471 -0.160188 -0.377937 0.384397 0.489445 -0.300742 -0.234499 -0.0012341 0.236569 0.21499 -0.13313 -0.0583017 0.101544 -0.100215 0.253152 -0.0839726 0.0850077 -0.317548
35000 -1.91188 3.13065 -2.11048 1.43913 -0.430874 -0.218733 -1.15878 -0.274735 4.99317 -0.907764 -0.10864 0.192851 0.0743422 -0.181719 0.0271856 -0.130674 -0.233591 0.263413 0.543711 -0.541062 -0.255557 -0.0179201 0.197197 0.198227 -0.0679583 0.185382 0.0732156 0.110623 -0.100656 0.0551298 -0.069831 0.0142986
35707 -1.83859 3.17053 -2.07356 1.2243 -0.790816 -0.523999 -1.22186 -0.446181 4.89275 -0.915422 0.0541369 0.373361 0.104551 -0.304091 -0.109067 -0.328804 -0.477884 0.0106874 0.626504 -0.459845 0.141679 0.102224 0.0402361 0.0874523 0.106615 0.1196 0.286051 0.102815 -0.156381 0.129035 0.136567 -0.0622032
35391 -1.6861 3.2949 -2.12833 1.33922 -0.373001 -0.0931954 -1.38283 -0.541055 4.91502 -0.764288 -0.177478 0.205537 -0.00775055 -0.425879 0.0183935 -0.875447 -0.119338 0.326243 0.339814 -0.357204 -0.205383 -0.265419 0.0194987 0.373556 -0.0110807 -0.120498 -0.184685 0.16842 0.00700982 0.118896 0.0185965 0.0996377
32028 -1.84758 3.28651 -2.04722 1.42888 -0.284981 -0.144613 -1.51251 -0.243351 5.0287 -0.884698 -0.108928 0.267682 -0.0525309 -0.29919 -0.156709 -0.575391 -0.333488 0.317717 0.318142 -0.39369 0.0590845 -0.0970814 0.28069 0.0908855 0.137396 -0.021693 0.0650766 -0.0189646 0.00203383 0.0140723 0.0318632 -0.0051228
31485 -1.86345 3.19062 -2.03294 1.69889 -0.596484 -0.257324 -1.29114 -0.226848 4.97814 -0.781734 -0.234892 0.282899 0.0315941 -0.51905 -0.158103 -0.165344 -0.543185 0.314476 0.430213 -0.324216 0.0380324 0.170456 0.126254 0.159569 0.27929 0.044725 -0.000395413 -0.136507 -0.0533695 -0.0263073 -0.157465 -0.151203
33362 -1.66402 3.13017 -1.47119 1.31603 -0.34556 -0.654678 -1.41642 -0.556733 3.92454 -0.428344 -0.0185739 0.312969 0.151934 -0.691848 -0.24336 -0.445508 -0.6266 0.532324 0.955349 -1.07217 0.222668 0.16294 0.0407914 0.175804 0.0819779 0.529792 -0.063152 -0.11411 -0.112761 0.291381 0.26907 -0.126992
32228 -2.00974 3.22337 -1.89905 1.24427 -0.40873 -0.298391 -1.52323 -0.720645 4.94968 -0.650703 -0.133863 0.422497 -0.0152337 -0.465031 -0.115791 -0.257913 -0.510174 0.341649 0.367104 -0.304202 0.107518 -0.0585036 0.331641 0.090432 -0.0549378 0.0112487 0.0263815 0.1576 0.0969688 0.136322 -0.0867439 -0.488638
36092 -1.59716 3.18921 -1.95099 1.23949 -0.563997 -0.354105 -1.47643 -0.296065 4.78961 -0.450054 -0.287972 -0.224294 0.26499 0.000438797 0.052133 -0.645432 -0.734678 0.0891677 0.409742 -0.400848 -0.00776736 0.095617 0.00578159 -0.196122 0.17977 0.0547563 0.17039 0.111525 0.0849011 0.186247 -0.0485471 -0.402082
31586 -1.81127 3.23866 -2.27378 1.35123 -0.185807 -0.252823 -1.33778 -0.27166 4.91651 -0.805408 -0.126918 0.317759 0.0967124 -0.511012 -0.0719508 -0.484796 -0.203936 0.345264 0.504974 -0.344486 -0.369601 -0.0590898 0.285133 0.180316 0.0140953 -0.107562 -0.198324 0.116301 -0.0532142 0.201 0.259096 -0.160409
32041 -1.72764 3.38737 -2.16599 1.5601 -0.414642 -0.287719 -1.23153 -0.358488 5.21729 -0.630325 -0.093991 0.247576 -0.0801078 -0.322898 -0.0335378 -0.278273 -0.34149 0.257536 0.444663 -0.441905 -0.0560659 -0.14875 0.229651 0.161571 -0.0596234 0.0755796 0.0839742 -0.0613735 0.0369159 0.107849 -0.103547 -0.0884392
36116 -1.58825 3.17454 -2.094 1.54769 -0.494044 -0.271306 -1.45198 -0.342492 4.89384 -0.57848 -0.257727 0.581984 -0.0179715 -0.393555 0.198865 -0.116263 -0.286895 0.172171 0.222045 -0.528511 0.217212 0.111366 0.327462 0.149849 0.0941551 -0.180009 0.176461 0.191756 0.127635 0.0152898 0.0891761 0.106541
33926 -1.73749 3.13424 -1.95154 1.76167 -0.257073 -0.459572 -1.36576 -0.0993093 4.73775 -0.80633 -0.173434 0.480432 0.092728 -0.389402 -0.00176173 -0.408145 -0.149269 0.514349 0.247447 -0.546591 0.050956 0.195527 0.183552 0.154164 0.0799462 0.0879065 0.25252 0.219778 -0.0868875 0.0870239 0.0449173 0.00281916
31281 -1.62816 3.2692 -2.01811 1.50528 -0.54138 -0.285533 -1.3525 -0.235103 4.82974 -0.553621 -0.362801 0.615953 -0.0973611 -0.506431 0.110087 -0.234768 -0.343335 0.311804 0.185645 -0.580679 0.213348 0.139318 0.380219 0.145796 0.022593 -0.350048 0.00776394 -0.0431559 0.0619975 -0.109 -0.00956422 -0.0299929
33200 -1.70259 3.37206 -2.00321 1.54104 -0.484678 -0.263621 -1.1868 -0.326253 5.15003 -0.833338 -0.115461 0.146227 0.178516 -0.295566 0.153275 -0.432394 -0.328741 0.303431 0.229179 -0.483132 0.172198 0.0445537 0.348644 0.0660155 0.116588 0.0323869 -0.073058 0.046582 -0.00198157 -0.0926982 -0.00240077 -0.0901719
34447 -1.80552 3.20373 -2.0685 1.52493 -0.428523 -0.168596 -1.31664 -0.460912 5.04207 -0.539408 0.0494664 0.282155 0.195606 -0.301157 -0.130015 -0.335524 -0.259019 0.315291 0.578002 -0.260973 0.0810948 -0.0239622 0.245286 0.0308982 -0.0512539 0.0829039 0.227399 -0.0424977 0.00793999 0.101473 0.152265 -0.0256529
35078 -1.82612 3.14252 -2.17653 1.41653 -0.197403 -0.142556 -1.40248 -0.517383 4.92896 -0.933395 -0.198289 0.161381 0.00938032 -0.185469 0.139546 -0.463812 -0.255881 0.19402 0.474962 -0.451978 -0.074661 0.0933958 0.0720057 0.235375 -0.0702545 -0.119532 0.0920784 0.0278116 -0.157026 0.111629 0.131521 -0.16266
35266 -1.64571 3.1913 -1.97974 1.36673 -0.0594892 -0.124743 -1.33425 -0.810632 4.77515 -0.861917 -0.296369 0.219925 0.202828 0.0626559 0.0867759 -0.398259 -0.467882 0.259961 0.55434 -0.354257 -0.176082 0.131913 0.294665 0.293933 -0.278671 -0.212532 0.325505 -0.154285 -0.04012 -0.0438048 0.145082 -0.267859
35077 -1.77063 3.21959 -2.06432 1.51926 -0.474396 -0.155446 -1.27187 -0.441872 5.10322 -0.773078 -0.0771081 0.247987 0.0827727 -0.196307 -0.0384156 -0.195524 -0.355538 0.322331 0.450656 -0.342644 -0.00109879 -0.0271803 0.0078127 0.0606194 0.0451868 0.00552842 0.105092 -0.141192 -0.0222717 0.0677158 0.0944698 -0.138784
33656 -1.70335 3.48326 -2.12132 1.5213 -0.479129 -0.321643 -1.31376 -0.31057 5.1032 -0.74582 -0.191319 0.430283 -0.00331386 -0.384574 -0.160016 -0.250472 -0.427056 0.388562 0.542228 -0.396146 -0.0319299 -0.0411054 -0.0209289 0.130398 0.256342 0.142682 0.319143 -0.0446464 -0.00154245 -0.0407679 -0.101663 -0.148429
33376 -1.74772 3.2252 -2.30204 1.17424 -0.483961 -0.14519 -1.37213 -0.386224 4.98121 -0.727139 -0.128503 0.304751 0.100898 -0.311004 -0.146708 -0.255317 -0.381419 0.444212 0.602634 -0.0696974 0.0548792 0.136595 0.180735 -0.0941048 -0.0990497 0.00708137 0.170342 0.109098 -0.000199007 -0.035833 0.0154351 0.0616491
31362 -1.59929 3.32266 -2.10012 1.34786 -0.407931 -0.363586 -1.19755 -0.396207 5.00128 -0.655464 -0.303468 0.186805 -0.0561479 -0.255224 -0.0081032 -0.420178 -0.455865 0.101253 0.413385 -0.456325 -0.0391195 0.116228 0.111759 0.011227 0.13519 0.0167077 0.110642 -0.114212 0.105491 0.0829537 0.0796129 -0.00988607
36299 -1.67855 3.27843 -1.94561 1.42223 -0.310081 -0.213118 -1.33814 -0.465511 4.97415 -0.728733 -0.0662667 0.0674376 -0.0917821 -0.223568 0.119934 -0.261483 -0.288566 0.504478 0.552206 -0.352907 -0.127628 0.0706527 0.110328 0.169062 0.0682683 0.136074 0.0521731 0.00151522 -0.0289407 -0.197693 0.0280844 -0.0647441
32489 -1.96737 3.39283 -2.20548 1.47823 -0.529516 -0.272715 -1.21544 -0.39677 5.2952 -0.518874 -0.0994636 0.250867 0.0569983 -0.373921 -0.0696745 -0.389181 -0.41953 0.466836 0.436684 -0.329534 -0.132787 -0.0824799 0.233753 0.15917 0.0917008 0.0578586 0.109788 -0.0908649 0.0580867 0.095807 -0.0922842 -0.177857
35847 -1.56766 3.27781 -1.81616 1.33705 -0.661396 -0.448804 -1.51806 -0.312136 4.58598 -0.514652 -0.0927345 0.358064 0.0210529 -0.542935 -0.359952 -0.0331743 -0.566238 0.637336 0.677141 -0.402877 0.188451 -0.0834438 0.137874 0.365571 0.194752 -0.179043 -0.0144351 0.211293 0.17137 -0.183419 -0.161956 -0.221598
35198 -1.50468 3.40729 -2.20326 1.11406 -0.548933 -0.337443 -1.39186 -0.318801 4.97458 -0.475165 -0.233345 0.485386 -0.231182 -0.233381 -0.125632 -0.0276386 -0.419389 0.150628 0.671004 -0.551119 0.128963 0.102497 -0.171096 0.174913 0.21792 -0.0828405 0.138723 -0.134467 0.0499366 -0.162266 -0.0288884 -0.0624555
35524 -1.63085 3.36791 -2.09192 1.37312 -0.566028 -0.0439246 -1.46313 -0.295946 4.99419 -0.606391 -0.1061 0.476855 -0.0192082 -0.417779 -0.166667 -0.181975 -0.346736 0.290577 0.424081 -0.383748 -0.0451961 0.0914795 0.0468987 0.274922 0.268844 -0.088774 0.131972 0.21186 0.139104 -0.122558 -0.00180593 -0.144265
34358 -1.46882 3.37452 -2.17854 1.05311 -0.561229 -0.437689 -1.3997 -0.286683 4.87955 -0.510564 -0.269858 0.442278 -0.349356 -0.311461 0.199207 -0.0985717 -0.377075 0.169909 0.758271 -0.416847 0.0155402 0.0129683 0.0402906 0.14218 0.253143 -0.0676484 0.0618866 -0.18049 0.185454 -0.0156771 -0.0903932 -0.0913064
31218 -1.68348 3.25628 -2.04989 1.36866 -0.426612 -0.268606 -1.26911 -0.248099 4.8584 -0.631739 -0.26111 0.281087 -0.0236761 -0.484353 -0.00894454 -0.305255 -0.328648 0.472046 0.45119 -0.274655 -0.189971 -0.0803631 0.168828 -0.105406 0.253252 0.238616 0.12408 -0.060948 0.0180453 -0.191386 0.0978878 0.0263008
35040 -1.84786 3.14732 -2.08961 1.46479 -0.480601 -0.187153 -1.4301 -0.445047 5.05021 -0.454439 0.170846 0.202397 0.00628459 -0.22172 -0.0931382 -0.367242 -0.324493 0.187854 0.602076 -0.290666 0.174766 0.0421691 0.190518 0.0213713 0.0988431 0.0254925 -0.0136558 -0.226931 -0.027619 0.200481 -0.0294689 0.0731666
32382 -1.65415 3.41176 -2.21061 1.20195 -0.474544 -0.280274 -1.23865 -0.114184 4.93633 -0.425183 -0.243819 0.192366 -0.000425264 -0.627888 0.121364 -0.497209 -0.611453 0.590152 0.740628 0.181311 -0.183461 0.14078 0.463437 -0.0937468 -0.0634688 -0.122286 0.0303686 0.106998 0.010526 0.139777 0.0195837 0.0145716
36169 -1.67712 3.37082 -2.01751 1.46939 -0.258003 -0.350964 -1.37696 -0.031224 5.06638 -1.00377 -0.0653402 0.226835 -0.111901 -0.226792 -0.153777 -0.37004 -0.410291 0.16785 0.531659 -0.38577 -0.0725504 0.0768016 0.298828 -0.0298589 0.0529385 0.107929 -0.00700485 -0.100379 -0.0532659 0.0968634 -0.205447 -0.0184774
31542 -1.85407 3.14366 -2.09741 1.4122 -0.392433 -0.0791615 -1.43241 -0.0572486 4.88434 -0.951546 0.0503682 0.375452 0.00131423 -0.156355 0.0819968 -0.360169 -0.313039 0.12866 0.507187 -0.555351 -0.241109 0.261079 0.0343266 -0.109139 -0.210884 0.304076 -0.0353725 0.0347003 -0.0336141 -0.0423521 -0.0750601 -0.295751
36697 -1.86806 3.21091 -2.28077 1.31549 -0.38992 -0.165767 -1.5641 -0.211177 4.95611 -0.729298 0.0509821 0.401155 -0.0184534 -0.273252 0.0152063 -0.273482 -0.209876 0.391592 0.634246 -0.544496 -0.115662 0.109616 0.197545 0.0237071 0.074971 0.231973 0.0601617 -0.10841 0.146719 -0.0776704 0.0322694 -0.199532
35222 -1.80413 3.15489 -2.25679 1.42319 -0.33622 -0.209046 -1.29217 -0.22213 4.98637 -0.789938 0.0169729 0.296268 -0.0545772 -0.0173 -0.139511 -0.188331 -0.242835 0.17504 0.595764 -0.61761 -0.101204 -0.129438 0.498312 0.0023626 -0.15187 0.214806 0.0553577 -0.103465 -0.113595 0.0750611 -0.338038 -0.0742066
33688 -1.6301 3.1484 -1.91868 1.42978 -0.385729 -0.309467 -1.16205 -0.644904 4.49191 -0.494384 -0.430328 0.539047 -0.165771 -0.157681 -0.10552 -0.600571 -0.489434 0.209138 0.558604 -0.392915 -0.0369571 0.022189 0.291656 0.206816 0.181318 0.263828 0.397096 0.0632183 -0.257118 -0.048692 -0.122486 -0.198386
32799 -1.7335 2.95202 -1.95058 1.40962 -0.639734 -0.24423 -1.40349 0.183773 4.54936 -0.463123 -0.0817829 0.355744 0.225427 -0.123784 -0.122545 -0.496933 -0.422396 0.164468 0.503073 -0.402298 -0.266821 -0.135587 -0.00584961 -0.0503087 0.138435 0.308738 0.353386 0.195019 0.367261 0.0139774 -0.100273 -0.0773195
33532 -1.59955 3.14739 -2.03528 1.52412 -0.631062 -0.379494 -1.13849 -0.448503 4.73063 -0.460562 -0.279567 0.14886 -0.111931 -0.400634 -0.217202 -0.480956 -0.557159 0.116568 0.500508 -0.468885 -0.0346487 0.133915 0.0366082 -0.185948 -0.0527264 0.25638 0.305944 -0.101049 0.0402835 -0.0674214 -0.109652 -0.156955
36999 -1.37858 2.86476 -1.51095 1.25981 -0.376258 -0.113565 -1.47777 -0.0506741 4.01508 -0.38109 -0.532654 0.231863 0.0288859 -0.471042 -0.0275293 -0.359501 -0.270386 0.443098 0.644811 -0.301938 -0.256728 0.253854 0.472713 0.094627 0.263716 0.0585206 0.0316098 0.282719 0.187139 0.159347 0.275593 0.0839575
33639 -1.77029 3.25528 -2.20603 1.53174 -0.538368 -0.170362 -1.21832 -0.307902 5.11243 -0.702603 -0.0657377 0.196001 0.0802416 -0.189421 -0.106901 -0.123546 -0.362163 0.206822 0.639441 -0.450783 -0.148327 0.0921124 0.208194 0.169014 -0.137355 0.0762026 0.123213 -0.083546 -0.0386711 0.0942994 -0.112649 -0.123059
35244 -1.65185 3.07415 -1.93665 1.22153 -0.232566 -0.35796 -1.33968 -0.476475 4.44077 -0.501202 -0.109641 0.433651 0.00805273 -0.289353 6.61502e-05 -0.21244 -0.377773 0.644745 0.647355 -0.68575 -0.102744 -0.152768 0.28028 0.0362043 0.160428 0.135024 0.163065 -0.126383 0.0662465 -0.21304 0.0711219 -0.195499
34063 -1.91418 3.07564 -2.10598 1.5049 -0.512253 -0.0508576 -1.33729 -0.49673 5.02641 -0.548718 0.0584637 0.211139 0.00169852 -0.223311 -0.0396943 -0.27422 -0.233906 0.247459 0.592138 -0.281842 -0.0322385 -0.0210998 0.228536 -0.0432467 0.275802 0.277841 0.00472514 -0.268338 -0.0076867 0.281335 -0.0912983 0.154623
35516 -1.24802 3.19417 -1.96407 1.40594 -0.532776 -0.303197 -1.43513 -0.115248 4.63309 -0.381372 -0.246583 0.325827 0.294301 -0.238425 -0.0529574 -0.521113 -0.150066 0.42728 0.520328 -0.25658 -0.292036 -0.157106 0.340484 -0.180212 -0.0612547 -0.00897295 -0.191331 -0.0187293 -0.030528 0.15263 0.172151 -0.054838
31040 -1.72037 3.32669 -2.14858 1.47146 -0.488225 -0.190564 -1.24744 -0.36406 5.13387 -0.730811 -0.128672 0.198058 -0.0189834 -0.364823 -0.0409352 -0.429501 -0.282017 0.195828 0.372225 -0.33608 -0.0683999 -0.0583482 -0.0403777 0.139759 0.0591101 0.0842451 -0.0848637 -0.0469047 -0.0364301 0.155285 -0.0610099 -0.0359522
32687 -1.73256 3.22314 -2.09297 1.43118 -0.340059 -0.227268 -1.28531 -0.360852 4.91352 -0.390234 -0.239587 0.373047 -0.122777 -0.400412 -0.186655 -0.127256 -0.363218 0.41023 0.624583 -0.374709 0.195147 -0.111539 -0.0221607 0.185728 0.0397484 -0.1216 0.141362 -0.08456 0.00516736 -0.0703236 -0.00572221 -0.136619
35346 -1.877 3.3401 -2.03745 1.56476 -0.278521 -0.189192 -1.35308 -0.309475 5.09806 -0.780986 -0.114704 0.258289 -0.222373 -0.407255 -0.119001 -0.365364 -0.432574 0.305116 0.393148 -0.281644 -0.108439 -0.0930942 0.26648 0.127092 0.125897 0.086773 0.0446604 -0.137482 0.164024 0.0617406 0.126745 -0.00280604
32311 -1.56359 2.95043 -1.99898 1.14913 -0.267727 -0.462166 -1.50948 -0.21023 4.06657 -0.593012 0.175234 0.544266 -0.121685 -0.613508 0.0467311 -0.553416 -0.313802 0.48736 0.6494 -0.704586 -0.221828 0.0769593 0.370436 0.0409948 0.343947 -0.148555 0.25924 0.124198 0.108364 0.166221 -0.00903059 -0.103814
36839 -1.81654 3.26822 -2.08952 1.67083 -0.15888 -0.328016 -1.21618 -0.32213 5.10904 -0.588392 -0.225037 0.335686 -0.100518 -0.532007 -0.106194 -0.256177 -0.571485 -0.0672276 0.317859 -0.301092 -0.0042021 0.0988277 0.306022 0.167703 0.151777 0.187453 0.0469084 0.0775397 -0.103081 0.265985 0.177225 -0.0616203
31658 -1.64092 3.26479 -2.03019 1.62141 -0.294774 -0.180491 -1.27226 -0.406579 4.87472 -0.76098 -0.0727799 0.0971318 -0.11767 -0.279141 -0.110743 -0.443299 -0.446904 0.43499 0.438703 -0.379369 0.0498307 -0.10615 0.153624 0.235305 -0.240411 -0.00518999 0.162454 0.0569935 0.172383 -0.0279594 0.159529 -0.124768
36901 -1.88974 3.30909 -2.158 1.50322 -0.332664 -0.291039 -1.27398 -0.31627 5.21567 -0.620437 0.0254839 0.271175 0.160487 -0.1548 -0.1193 -0.362805 -0.384236 0.322647 0.417855 -0.303231 -0.0816556 -0.0950844 0.00949636 0.109955 0.0929416 0.126955 -0.0207741 -0.106867 0.163908 -0.125871 -0.0222812 -0.0633147
34930 -1.68532 3.26073 -2.13366 1.37429 -0.638921 -0.289679 -1.28036 -0.260691 5.04963 -0.71641 -0.0318541 0.0852329 0.182517 -0.38122 0.0330542 -0.424041 -0.379918 0.259526 0.228189 -0.446582 0.00907501 0.207392 0.0470025 0.0551413 0.120493 -0.0967736 0.154097 0.318243 -0.228477 0.106555 0.0503574 -0.149614
35145 -1.95121 3.33964 -2.17959 1.36032 -0.0596208 -0.659193 -1.31064 -0.309497 5.28372 -0.556695 -0.310201 0.269735 0.360047 -0.302805 -0.1985 -0.460105 -0.409401 0.365263 0.321975 -0.303862 -0.0117656 0.0554801 0.084043 0.243853 -0.0592334 0.119264 -0.082157 -0.137301 -0.0468636 -0.00763889 -0.13837 -0.00990786
36277 -1.78448 3.17612 -2.09945 1.50699 -0.422546 -0.267947 -1.01674 -0.382036 4.98683 -0.768082 -0.2791 0.171777 0.101401 0.117483 -0.052888 -0.433409 -0.381096 0.37513 0.489694 -0.163393 -0.0177961 -0.124053 0.215906 0.234189 -0.13519 0.076684 0.184852 -0.00143934 0.110627 -0.254434 -0.209122 -0.13829
32508 -1.43984 3.05328 -1.98515 1.33483 -0.419982 -0.208691 -1.1691 -0.228494 4.30356 -0.420297 0.12375 0.401988 0.44509 -0.471533 -0.420791 -0.39522 -0.24253 0.55154 0.652523 -0.48912 -0.22505 0.029085 0.089268 0.113259 -0.085476 0.0694297 0.243146 -0.00598102 -0.0192218 0.118588 -0.238618 -0.261601
33330 -1.40157 3.31653 -2.07594 1.0133 -0.605096 -0.309203 -1.11503 -0.262445 4.38755 -0.496694 -0.18222 0.438036 0.221856 -0.456958 -0.10382 -0.678926 -0.241544 0.588605 0.509225 -0.607242 -0.078612 0.0492888 0.197966 0.509087 0.214655 0.199042 0.508543 -0.196918 0.0672594 0.290527 -0.218093 -0.246829
33414 -1.94218 3.20754 -2.23436 1.38244 -0.525489 -0.499666 -1.20102 -0.409707 5.02473 -0.562493 -0.188132 0.46957 0.251751 -0.319884 -0.0817995 -0.60253 -0.268236 0.369345 0.42076 -0.365886 -0.131516 0.153924 0.162059 0.201543 0.0136926 0.0984086 0.0198493 -0.110885 0.00452824 -0.0320013 -0.0714607 -0.068877
36548 -1.79687 2.9888 -2.2251 1.39666 -0.7808 -0.336764 -1.32658 -0.143556 4.60228 -0.462968 0.0362999 0.143545 0.219977 -0.18425 -0.412977 -0.860752 -0.590428 0.208209 0.388968 -0.535571 0.0382406 -0.121989 0.341462 0.144318 -0.197329 0.202598 0.179506 0.158419 -0.0935894 0.0321624 0.071954 -0.432535
35208 -1.70759 3.07297 -2.15853 1.38461 -0.436366 -0.425456 -1.36289 0.0225869 4.70196 -0.60143 -0.070374 0.11482 -0.0540898 -0.261601 -0.307436 -0.551742 -0.452444 0.313851 0.480517 -0.438781 0.0242564 -0.125323 0.270126 -0.0049689 1.62116e-05 0.219604 -0.0578909 0.00675184 -0.104026 0.135013 0.0168026 -0.327795
36551 -1.77751 3.34617 -2.17195 1.39635 -0.314665 -0.194564 -1.33772 -0.114859 5.033 -0.816086 -0.172018 0.236467 -0.176933 -0.344545 -0.0660896 -0.271718 -0.386517 0.367957 0.588349 -0.36826 -0.151247 0.108831 0.266261 0.0151377 -0.0866129 0.209613 -0.140594 -0.0623547 0.0365395 -0.0524152 -0.0637936 -0.211524
33278 -1.78004 3.24253 -2.05301 1.53067 -0.533777 -0.00779275 -1.31368 -0.366252 4.86122 -0.579471 -0.275447 0.663587 0.0403584 -0.357206 -0.156844 -0.249524 -0.559696 0.37026 0.265662 -0.400301 -0.0788799 -0.108632 0.185625 0.260336 0.116898 -0.048516 0.00050351 0.149099 0.0449639 0.00060397 -0.040491 -0.136187
34872 -1.57739 3.13904 -1.86684 1.38551 -0.650586 -0.0830634 -1.26563 -0.314481 4.30251 -0.54781 -0.243584 0.354765 0.22487 -0.568391 0.190383 -0.457118 -0.846005 0.319032 0.546387 -0.600416 0.0330465 -0.347967 -0.000884281 0.240669 -0.0587336 0.150174 0.136566 0.0300861 0.139753 0.0107375 0.139185 -0.293213
35209 -1.84331 3.16919 -1.97899 1.51791 -0.412574 -0.12273 -1.24284 -0.169724 4.73146 -0.700208 -0.40123 0.276014 0.207078 -0.251683 0.254818 -0.298269 -0.438172 0.537529 0.541495 -0.479278 -0.00133992 -0.411045 -0.0493072 0.198449 -0.00658518 0.120263 0.154521 -0.11852 0.0926628 -0.208082 0.138501 -0.345171
32772 -1.69766 3.07403 -1.93236 1.54128 -0.539281 -0.573305 -1.21019 -0.103708 4.59262 -0.944359 -0.280572 0.440825 0.192915 -0.523587 0.108145 -0.471182 -0.19606 0.526518 0.378961 -0.30813 -0.462117 -0.0444031 0.163418 0.057887 0.127092 -0.091377 0.419991 -0.258366 0.243345 0.189095 -0.155114 -0.227381
32774 -1.76209 3.1232 -1.93959 1.44897 -0.30759 -0.644668 -1.27311 -0.132756 4.42791 -0.656943 -0.127104 0.314583 0.0145193 -0.443683 0.133938 -0.629811 -0.69807 0.448047 0.520926 -0.742959 0.153908 0.133374 0.130867 0.030734 0.116142 0.139798 0.0541666 0.348365 0.194286 0.19116 -0.0634935 -0.0909306
34500 -1.66895 3.25078 -2.07555 1.32848 -0.519896 -0.32271 -1.34407 -0.370303 5.00334 -0.743374 -0.110393 0.105668 0.0173334 -0.258703 0.0865445 -0.39105 -0.49359 0.336367 0.170353 -0.377726 -0.0463553 0.130068 0.111715 -0.0218439 0.240098 0.124095 0.163114 0.179292 0.0960326 0.107417 -0.0659972 -0.0628456
33896 -1.71541 3.20544 -2.03382 1.48179 -0.387097 -0.232239 -1.40402 -0.470237 4.84411 -0.704485 -0.133149 0.110198 0.0891015 -0.266375 0.0107134 -0.217135 -0.405678 0.129945 0.659883 -0.560362 -0.230545 0.0322705 0.180371 0.0807011 0.0258719 0.0311032 0.0284788 -0.0309363 0.137145 -0.0069496 0.071774 0.00600934
34429 -1.79829 3.36806 -2.0722 1.41665 -0.342473 -0.0881434 -1.4321 -0.275635 5.13261 -0.777417 -0.0320671 0.190572 0.00150015 -0.15977 -0.0654914 -0.436712 -0.438738 0.143033 0.393014 -0.463262 -0.0752626 -0.105419 0.266359 0.0926619 -0.0377267 -0.0862663 0.0193626 -0.246914 0.00593148 0.146883 -0.0786498 -0.0459722
32349 -1.58436 3.23313 -2.1543 1.55665 -0.273247 -0.353627 -1.22582 -0.453262 4.82786 -0.886491 -0.154313 0.411417 -0.0136099 -0.288101 -0.000870948 -0.299364 -0.491962 0.3277 0.380565 -0.432819 -0.241242 -0.162638 0.17775 -0.149283 0.232111 -0.0355215 0.396433 -0.00683488 0.0633989 0.272914 -0.259927 -0.145311
35998 -1.79638 3.10066 -2.17357 1.42068 -0.295151 -0.175941 -1.44092 -0.507878 4.73194 -0.535877 -0.175089 0.281001 -0.00842158 -0.520516 0.0198013 -0.412156 -0.374797 0.115889 0.594005 -0.613025 -0.141681 -0.201664 0.204879 0.0743078 0.178454 0.104248 -0.045374 -0.112704 -0.00195109 0.0137307 0.00843965 -0.101991
35577 -1.82129 3.22359 -2.16853 1.31873 -0.341582 -0.10521 -1.46595 -0.323748 5.07234 -0.667157 -0.0315862 0.276718 0.117005 -0.163595 -0.0290816 -0.183988 -0.23181 0.375471 0.450336 -0.438497 -0.17919 0.0576292 0.283951 -0.0361097 -0.057612 0.205968 0.0774028 0.0115885 0.0147315 -0.045278 -0.0518026 -0.145759
32608 -1.80229 3.24081 -2.09284 1.49385 -0.370493 -0.148331 -1.33471 -0.32659 5.02535 -0.699452 -0.0454004 0.245525 -0.0402092 -0.307267 0.185684 -0.393247 -0.408388 0.328391 0.246757 -0.517363 0.0853134 -0.0219888 0.326971 0.118971 0.231235 0.0417457 -0.00342562 -0.137902 0.0111322 -0.0455915 -0.0527428 0.121829
31987 -1.85257 3.22151 -2.147 1.58194 -0.452882 -0.436703 -1.20668 -0.423679 5.10524 -0.690419 -0.141696 0.140217 0.102307 -0.0965011 -0.115132 -0.175761 -0.314497 0.268169 0.562755 -0.485553 -0.0705418 -0.0304564 0.25486 0.0898428 0.0392951 -0.00241481 0.12243 0.00745006 0.059597 0.0566823 0.0170454 -0.0604062
35776 -1.9404 2.83362 -2.23746 1.38984 0.0126511 -0.232016 -1.38099 -0.629686 4.57358 -0.783115 -0.234857 0.426848 -0.0816728 -0.0644532 0.00397618 -0.480092 -0.130771 0.588229 0.510674 -0.521262 -0.0176088 0.0757871 0.309535 0.0195248 0.142276 -0.158814 0.348488 0.319799 0.0742435 0.294177 0.114981 -0.118218
36201 -1.88518 3.31048 -2.10076 1.60476 -0.31503 -0.380017 -1.24831 -0.34778 5.25195 -0.530318 -0.21022 0.526818 -0.123002 -0.183201 -0.0310697 -0.38707 -0.405007 0.297927 0.29841 -0.367894 -0.0103681 -0.144322 0.147497 0.112291 0.0890755 -0.0605591 0.105201 0.109331 -0.0271011 0.071626 -0.0957595 -0.0714831
35968 -1.77234 3.32683 -2.2246 1.20785 -0.464949 -0.145993 -1.38242 -0.344426 5.07696 -0.728737 -0.130838 0.281849 0.212423 -0.364434 0.0100378 -0.219555 -0.546042 0.468034 0.584057 -0.0102888 0.0904668 -0.085578 0.192531 0.0769288 0.108484 -0.110499 0.0357239 -0.12551 -0.0732879 -0.0797482 0.0551978 -0.152934
36592 -1.77771 3.13265 -2.08183 1.51614 -0.601378 -0.289362 -1.32862 -0.423766 4.86792 -0.58898 0.0152714 -0.0590662 -0.186141 -0.500882 -0.316668 -0.373063 -0.620279 0.258113 0.286287 -0.447522 0.178461 -0.0642628 0.252333 0.0876304 -0.00650035 0.207685 0.0737105 -0.193751 0.0812038 -0.0429863 -0.00908363 -0.330985
31502 -1.61584 3.37942 -2.2726 1.2232 -0.497133 -0.211539 -1.37368 -0.248586 5.08667 -0.600485 -0.102812 0.388403 0.130559 -0.337695 -0.0525358 -0.155703 -0.253932 0.410099 0.449045 -0.41833 0.0157487 -0.13844 0.207766 0.155983 0.122934 -0.0732356 0.012876 -0.0216336 0.0951365 -0.120987 -0.0495014 -0.121826
32883 -1.86217 3.19042 -1.92544 1.66685 -0.538245 -0.0965197 -1.471 -0.421414 5.02303 -0.766489 -0.211079 0.556928 -0.0281747 -0.384724 -0.110667 -0.0975238 -0.423572 0.232084 0.414659 -0.315501 -0.00237763 -0.0980821 0.0433985 0.170891 0.233027 0.0184309 0.00769735 0.0754317 -0.169043 -0.0694042 -0.207159 -0.142849
33071 -1.61949 3.10091 -1.84544 1.3672 -0.0841758 -0.15674 -1.58932 0.00579412 4.31992 -0.636008 -0.0531868 0.532482 0.0491906 -0.6295 -0.0902735 -0.568254 -0.217344 0.693598 0.695494 -0.29348 0.12473 -0.189666 -0.272855 0.585231 0.502153 0.149908 0.466503 0.0519474 -0.155586 -0.0133951 -0.0682297 -0.226082
30988 -1.74965 3.34112 -2.1611 1.49551 -0.613316 -0.330514 -1.26222 -0.37225 5.20973 -0.674803 -0.111736 0.238331 0.124096 -0.31915 -0.0776719 -0.24008 -0.418489 0.266661 0.344748 -0.356595 -0.0549668 -0.0421015 0.104098 0.147821 0.166296 0.0569993 0.107256 -0.0334593 -0.0794952 0.0188452 -0.00634048 -0.206171
32777 -1.41081 3.0965 -2.1278 1.25898 -0.298593 -0.396412 -1.3783 -0.467062 4.45166 -0.78532 -0.0796031 0.1701 0.391438 -0.483963 0.00970847 -0.334916 -0.647444 0.0620611 0.365056 -0.539833 0.242083 0.0264262 0.367987 0.304924 0.332458 0.437884 0.0380727 -0.245393 0.127554 0.162778 0.0660041 -0.297284
34605 -1.88392 3.16765 -2.19029 1.51659 -0.357704 -0.130688 -1.3233 -0.239292 4.92934 -0.738032 -0.280047 0.220383 0.104559 -0.284445 -0.211625 -0.345431 -0.300744 0.49547 0.521241 -0.447156 0.084341 0.0329272 0.110918 0.0296183 0.0233211 -0.0817132 0.0395358 0.0728644 0.191208 -0.0601217 0.037361 0.0088735
34897 -1.62438 3.13912 -2.2059 1.38805 -0.740799 -0.455531 -1.39543 -0.165211 4.77807 -0.717868 -0.0686173 0.26746 0.31882 -0.274649 0.0424805 -0.683438 -0.349442 0.244152 0.410584 -0.263781 -0.0481019 -0.113182 -0.00214318 0.165239 -0.14833 0.239692 0.0711498 -0.0879317 -0.285827 0.2969 0.240439 -0.304599
32962 -1.81471 3.21366 -2.16823 1.59593 -0.303436 -0.28076 -1.24014 -0.372365 5.09773 -0.625708 -0.0887527 0.28254 0.139069 -0.315524 -0.0285911 -0.270881 -0.462532 0.119405 0.420328 -0.394025 0.0758183 -0.40278 0.157709 0.0550399 0.0100039 0.145538 0.0271174 -0.00324108 0.123362 0.0220022 0.0682197 -0.124193
33068 -1.75273 3.29691 -1.85703 1.94696 -0.596679 -0.118427 -1.4892 -0.354788 5.19627 -0.5242 -0.303671 0.583752 -0.00623846 -0.362668 -0.0939424 -0.133674 -0.353419 0.287912 0.327671 -0.256691 0.0424808 0.261023 -0.00565421 0.209799 0.0258083 0.0658712 0.18087 0.331141 0.0346031 -0.084192 0.0946856 -0.271996
32138 -1.87468 3.08153 -2.13193 1.49801 -0.41966 -0.0780665 -1.24415 -0.1036 4.94007 -0.75258 -0.242306 0.240103 -0.128752 -0.246794 0.0409436 -0.255094 -0.324353 0.276831 0.480527 -0.435727 -0.0584074 0.114849 0.361886 0.0101333 0.0207181 0.145891 0.112463 0.256586 -0.0591626 0.048076 -0.251663 0.0025427
36840 -1.74018 3.29506 -1.95988 1.51782 -0.591146 -0.272459 -1.0855 -0.176345 4.98231 -0.777662 -0.0746962 0.271107 0.27235 -0.399147 0.0421206 -0.433478 -0.294297 0.235914 0.31743 -0.584491 0.289574 -0.035474 0.247308 0.0599157 0.278791 0.0493342 -0.00526391 0.14775 0.0265251 -0.0692695 0.0166169 0.0934235
36866 -1.70611 3.3315 -2.12162 1.40316 -0.387207 -0.312689 -1.32518 -0.440074 5.04363 -0.859492 -0.0784389 0.283994 0.0587747 -0.193732 -0.128181 -0.428315 -0.295879 0.653246 0.368078 -0.343095 -0.0867669 -0.0810615 0.149508 -0.159582 0.0538817 -0.0111646 -0.127929 0.0397992 0.178001 0.150208 0.112537 -0.273459
34949 -1.51093 3.15214 -1.9537 1.45877 -0.662291 -0.102133 -1.06487 -0.413172 4.61967 -0.82199 -0.152255 0.274604 0.287496 -0.276335 -0.022378 -0.382638 -0.253932 0.586059 0.652583 -0.174691 -0.0808247 0.0451459 0.132691 0.0614069 0.334151 0.152939 -0.251028 -0.178686 -0.257391 -0.0624316 0.0706841 -0.397159
36138 -1.80595 3.24311 -2.00992 1.36445 -0.45523 -0.14623 -0.978449 -0.396983 4.81455 -0.603914 -0.150836 0.25216 0.0674624 -0.293532 -0.120576 -0.451967 -0.587695 0.214835 0.615568 -0.450838 0.128926 -0.16741 0.0399639 -0.159694 0.166322 0.0019585 0.160969 0.00605685 -0.180532 0.0523275 0.0740481 -0.283951
32529 -1.76102 3.37543 -2.10672 1.63421 -0.384173 -0.30979 -1.31661 -0.246588 5.15021 -0.623727 0.0299342 0.395172 0.0527291 -0.181302 0.143385 -0.438795 -0.480634 0.281568 0.476709 -0.225126 0.0505263 -0.261484 0.026474 0.175291 0.163778 0.198138 0.0319373 -0.0227469 0.164558 0.0512972 0.0881643 -0.232632
