7349 32
35357 0.355978 -0.672154 -0.576443 -1.67847 3.44151 1.55984 -1.28239 1.53419 -0.0951504 0.25563 -0.271784 -0.323617 -0.0120992 -0.178958 0.737483 0.478759 0.228496 0.0448107 0.0754104 -0.0591735 0.1775 0.109642 0.237235 0.0767445 -0.00324371 -0.0183563 0.211147 -0.0344261 -0.231979 -0.267586 0.283352 -0.194294
33233 0.523094 -0.746667 -0.627298 -1.67981 3.36997 1.40911 -1.21349 1.4767 -0.0616641 0.5179 -0.360117 -0.14813 0.12364 0.132574 0.633345 0.702658 0.174113 0.00471124 0.0205497 -0.138538 -0.0299732 0.347234 0.290717 -0.128986 0.214415 -0.228456 0.221665 -0.111813 -0.081793 -0.207601 0.197279 -0.188299
32469 0.541795 -0.557937 -0.319028 -1.60882 3.35551 1.42991 -1.23033 1.48625 0.0552468 0.292346 -0.348663 -0.642554 0.00890776 -0.123427 0.493534 0.607842 0.308026 0.135004 0.254805 -0.0500907 0.080571 -0.0336938 0.116854 0.13718 0.196489 -0.0178 0.461198 -0.345537 -0.109557 -0.508005 0.0678517 -0.241266
33161 0.530496 -0.645901 -0.41611 -1.5731 3.05087 1.36353 -1.03577 1.24593 -0.110248 0.346375 -0.443362 -0.751454 0.094826 -0.120654 0.768762 0.517843 0.0730883 0.1375 0.00219781 -0.0310579 0.00144939 0.116618 0.159648 0.0750023 0.326498 0.0445978 0.137982 -0.356773 -0.0180163 -0.519812 0.0724643 -0.280886
32179 0.366075 -0.488165 -0.524936 -1.73464 3.41258 1.53119 -1.51686 1.64825 -0.181784 0.400281 -0.390757 -0.556362 0.135101 -0.0628293 0.47644 0.435163 0.248908 -0.00338701 -0.214473 0.0414443 -0.0179153 -0.0648869 0.292243 0.0155596 0.308135 -0.199037 0.0604789 -0.147317 0.0484922 -0.0712468 -0.109485 -0.0137608
35489 0.575659 -0.747446 -0.531048 -1.67576 3.35914 1.48398 -1.27409 1.39887 -0.010618 0.278045 -0.497464 -0.280115 0.235304 -0.114022 0.816254 0.43885 0.138813 -0.13223 0.00536287 -0.178557 -0.143717 0.0472522 0.294338 -0.0234461 0.39909 -0.00234887 0.0614709 -0.249862 -0.0158577 -0.164355 0.0769323 -0.236158
36478 0.40544 -0.720671 -0.40463 -1.58114 3.33165 1.43116 -1.24623 1.27889 0.0419142 0.406941 -0.649504 -0.549397 0.129211 0.0388442 0.540773 0.432395 0.192015 0.0574699 0.0511301 -0.0858136 -0.0399423 0.0238071 0.297333 0.000411136 0.418607 -0.0159401 0.0967502 -0.228868 0.0513778 -0.164614 -0.0988832 -0.239798
35923 0.278861 -0.750575 -0.401135 -1.68947 3.73786 1.6029 -1.55599 1.69805 -0.0229303 0.168783 -0.61077 -0.254132 -0.0105333 -0.152887 0.459549 0.655517 0.201068 0.031655 0.227815 0.11887 -0.0573199 0.0935671 0.146443 -0.204679 0.391735 -0.245109 0.0705732 -0.0471954 -0.0148971 -0.0802685 0.195096 -0.0258303
31343 0.404002 -0.582 -0.525203 -1.69409 3.02618 1.28587 -0.950897 1.07503 0.157713 0.153619 -0.38057 -0.448746 0.0639984 -0.0852883 0.804265 0.65649 0.283216 -0.0765732 -0.0572048 -0.0389123 -0.121765 -0.00658253 0.306157 -0.061913 0.375257 0.221269 0.0853265 -0.422317 -0.0388591 -0.261061 0.0939817 -0.305612
36269 0.237285 -0.615487 -0.218136 -1.76439 3.59945 1.53387 -1.42739 1.64884 -0.0997819 -0.0245979 -0.466565 -0.496133 -0.0194568 -0.113495 0.567315 0.537373 0.1483 0.109586 -0.350943 -0.0146915 -0.23581 -0.108872 0.285781 0.031437 0.301833 0.0092553 -0.0169664 -0.208562 0.0327719 -0.116949 -0.0232723 -0.252981
35599 0.359964 -0.514291 -0.502147 -1.78492 3.4335 1.3032 -1.36715 1.52538 -0.0412521 0.134716 -0.618226 -0.512151 0.243587 -0.0324216 0.577014 0.428779 0.0640874 0.176913 -0.0983176 0.00500627 -0.0815913 0.0781933 0.133711 0.0961156 0.113576 0.0871332 0.0115013 -0.277451 0.156513 -0.335042 0.0966804 -0.310255
35627 0.405053 -0.669619 -0.336363 -1.79336 3.83237 1.53468 -1.50402 1.74168 0.0385782 0.137623 -0.539984 -0.381576 -0.0861286 -0.0521552 0.505958 0.507577 0.419338 0.016039 0.0787224 0.0224712 0.0112185 -0.101904 0.155326 -0.173511 0.423203 -0.148196 0.0964796 -0.1354 -0.0203631 -0.163441 0.0882056 0.0635447
32577 0.404011 -0.645181 -0.552698 -1.90744 2.88659 1.26279 -0.81734 0.9794 -0.0377481 0.388197 -0.542234 -0.601979 -0.0639581 -0.0140114 0.637172 0.638378 0.290846 0.00453554 0.0729941 -0.0543467 -0.0449797 0.0548815 0.414095 -0.191241 0.587893 -0.0636667 0.027361 -0.43882 -0.0881608 -0.307499 0.109213 -0.249402
34487 0.434386 -0.468782 -0.271247 -1.74287 3.57253 1.40194 -1.42083 1.53739 0.0249919 0.3855 -0.330753 -0.404824 -0.0746474 0.0435787 0.614396 0.6298 0.0462231 -0.115381 0.241043 -0.118545 0.12603 -0.0467136 0.0870586 -0.148307 0.179637 -0.112268 -0.201042 -0.0756926 -0.106893 -0.190618 0.307066 -0.235501
33003 0.576234 -0.607441 -0.380609 -1.77036 3.50727 1.31354 -1.42039 1.7239 0.0373961 0.4103 -0.474915 -0.525939 0.291036 0.239026 0.269337 0.654844 0.0697427 0.0744038 -0.0118617 -0.266772 0.0219834 0.132319 0.465438 0.0130226 0.290056 0.0634237 0.0054359 -0.129677 -0.0499054 -0.108411 0.143881 0.17883
36064 0.51884 -0.649326 -0.156957 -1.73196 3.32556 1.16311 -1.21795 1.30839 -0.0417215 0.384453 -0.732368 -0.513103 0.297557 0.145057 0.519053 0.521221 0.237835 0.00959446 0.0820756 0.0138217 -0.0187012 -0.0900744 0.27086 0.0106553 0.443441 0.028415 -0.0972095 -0.376752 -0.11101 -0.446918 -0.010307 -0.171913
31474 0.450506 -0.601872 -0.275589 -1.51379 3.3124 1.56826 -1.19312 1.55905 -0.132193 0.543038 -0.638024 -0.750921 -0.126375 -0.100846 0.504054 0.408299 0.310253 0.0271332 0.173461 -0.0837726 -0.112368 -0.0537042 0.165672 0.177568 0.50731 -0.072775 -0.0646591 -0.194241 -0.0157853 -0.279821 -0.0902933 -0.249741
35706 0.467717 -0.723011 -0.31029 -1.82254 3.54882 1.36476 -1.56677 1.37084 -0.0906043 0.314043 -0.691734 -0.478776 0.277579 0.073656 0.540174 0.473376 0.0881382 -0.0349291 -0.317377 0.0156342 0.051839 0.140469 0.202354 0.1434 0.412696 -0.104713 0.251001 -0.191404 0.197727 -0.295443 0.0318654 0.113155
31825 0.548047 -0.615557 -0.241537 -1.70227 3.42627 1.59889 -1.4116 1.88497 0.0783641 0.278225 -0.439219 -0.383776 0.0724231 0.0145598 0.445117 0.463028 0.174749 0.0998766 0.166749 0.0473866 -0.0323445 0.130284 0.199385 -0.0206056 0.288021 -0.0161491 0.14703 -0.0471107 -0.0589663 -0.335788 0.0626293 0.00564829
32682 0.539534 -0.617526 -0.600746 -1.67598 3.33604 1.81074 -1.36079 1.80239 -0.0575259 0.303615 -0.418944 -0.355743 -0.21585 -0.120678 0.531549 0.472301 0.245669 0.193878 0.138115 -0.252072 0.040968 0.341801 0.192309 -0.182939 0.444781 -0.0854326 0.186865 -0.113346 -0.200043 0.060906 0.103541 -0.135784
33428 0.664831 -0.798849 -0.350019 -1.62392 3.04417 1.38648 -1.12882 1.06628 -0.0908751 0.337593 -0.342558 -0.428224 0.0578355 -0.11076 0.779091 0.721577 0.0715475 -0.134401 -0.0992872 0.276552 -0.0333632 0.136391 0.232177 -0.205839 0.548627 -0.261466 -0.00170656 -0.158516 0.0188383 -0.332946 0.0950514 -0.405749
33128 0.536578 -0.508134 -0.490512 -1.55742 3.85895 1.48047 -1.36336 1.55775 0.0502573 0.126816 -0.435104 -0.191848 0.186157 -0.122855 0.615737 0.52934 0.470883 0.0322504 0.213247 0.154573 -0.00492447 0.0215897 0.381592 0.0599589 0.182919 -0.310806 -0.111114 -0.0758842 0.121967 -0.236613 -0.0482632 -0.119647
36554 0.563093 -0.603373 -0.482252 -1.74323 3.42833 1.39109 -1.06218 1.32932 0.0208564 0.387148 -0.405592 -0.228234 0.194064 -0.128579 0.743024 0.563161 0.311052 -0.122648 0.0851007 -0.0359049 -0.0196928 0.13019 0.448871 0.0343378 0.398144 0.163357 -0.0189432 -0.339376 -0.0565223 -0.197754 0.102655 -0.211413
32006 0.64502 -0.726097 -0.521567 -1.88379 3.34557 1.27858 -1.13993 1.28318 0.142279 0.329997 -0.459934 -0.389064 0.0305449 0.0419446 0.739999 0.655734 0.168435 0.0327384 0.0271031 0.00832147 -0.116338 0.0916756 0.315338 -0.064799 0.428648 -0.00540853 0.0530411 -0.327471 -0.0475098 -0.3165 0.0683042 -0.229691
36682 0.586894 -0.672555 -0.429108 -1.75623 3.13545 1.31302 -0.946346 1.05132 -0.0825213 0.441456 -0.58681 -0.47604 0.0689453 0.0691594 0.598926 0.523796 0.11461 -0.0409577 0.19189 0.0262176 -0.0221274 0.0354354 0.295491 -0.195984 0.393659 -0.0726366 -0.0913277 -0.258192 0.0467525 -0.334573 0.116582 -0.209897
31016 0.362452 -0.491297 -0.597671 -1.84424 3.50224 1.22327 -1.48556 1.72402 -0.189252 0.232828 -0.370344 -0.553306 0.0275153 0.142173 0.560079 0.534375 0.084167 0.107292 0.0729399 -0.090597 -0.0601744 0.102786 0.265613 0.166067 0.323737 0.0420877 0.0406608 -0.220629 -0.0555885 0.0401468 0.0938542 -0.201371
34091 0.441585 -0.499731 -0.395249 -1.56549 3.64047 1.50234 -1.5097 1.61384 0.0457563 0.257726 -0.331897 -0.563965 -0.0535053 -0.0927014 0.440404 0.566486 0.0214437 0.0210483 -0.0540396 0.126696 -0.0485848 -0.0847692 0.168106 -0.1224 0.254455 -0.14655 -0.0575217 -0.0153814 -0.0999613 -0.301102 0.274309 -0.00587057
33858 0.589152 -0.599616 -0.612965 -2.01568 2.91416 1.37385 -1.21246 1.54701 0.0157506 0.350202 -0.195263 -0.434951 -0.00181613 -0.115541 0.737785 0.563451 0.017322 0.0886631 0.193182 0.0333505 0.372268 -0.0371845 0.1812 -0.257013 0.012209 -0.131404 0.100744 -0.000232417 -0.0842155 -0.2255 0.239455 -0.163445
33042 0.336444 -0.419237 -0.426905 -1.79549 3.33175 1.35066 -1.54675 1.26031 -0.0849162 0.227721 -0.411554 -0.487244 0.0472607 0.143487 0.741965 0.460357 0.155832 0.172276 -0.0468804 -0.0934982 -0.0723556 0.055113 0.215201 -0.0415612 0.328399 -0.0431708 0.129033 -0.201518 0.011256 -0.237663 0.224611 -0.185211
35250 0.394281 -0.611798 -0.71537 -1.74082 3.42455 1.2955 -1.58745 1.40912 -0.140727 0.506516 -0.257142 -0.291519 0.20496 0.11861 0.701312 0.465831 0.111008 0.110101 -0.031654 -0.183692 0.0128833 0.0997795 0.108753 0.120857 0.212237 -0.00024558 0.38449 -0.12357 -0.0203695 -0.210125 0.321369 -0.140255
34455 0.302372 -0.507105 -0.424777 -1.72537 3.58629 1.53697 -1.35881 1.63567 -0.076759 0.15183 -0.404346 -0.487687 0.169241 0.00776052 0.624737 0.365079 0.124782 0.0281991 0.103554 -0.26246 -0.0415097 0.129791 0.180321 0.0916514 0.27191 -0.0230283 -0.0763258 -0.161311 -0.128923 -0.211303 0.152081 0.0807334
32016 0.335396 -0.230363 -0.609565 -1.81629 3.48008 1.52642 -1.4766 1.39422 0.171613 0.118855 -0.541379 -0.294538 -0.0648562 0.294133 0.678927 0.467282 0.384267 -0.182502 0.0840232 -0.21852 -0.280564 0.000310854 0.0121277 0.0292061 0.288187 0.414032 -0.0828119 -0.364568 -0.160713 -0.107048 0.0417517 -0.393285
32712 0.406858 -0.699246 -0.391977 -1.68057 3.41375 1.38377 -1.39392 1.49543 -0.0658326 0.345618 -0.491197 -0.351329 0.117509 0.14569 0.620259 0.458409 0.117564 -0.0919342 -0.107567 -0.125491 -0.130743 -0.0487896 0.257327 -0.0526955 0.187967 -0.0139637 0.0255362 -0.0791056 0.0906331 -0.387682 0.0307388 -0.288201
36828 0.372987 -0.485691 -0.248958 -1.87659 3.41291 1.51556 -1.55644 1.79037 -0.130414 0.211615 -0.361377 -0.364041 -0.00741893 -0.0943467 0.719549 0.586976 -0.0361966 0.0978233 0.0596815 0.244908 0.153731 0.0969616 0.0292835 -0.0301185 0.21197 -0.0777969 -0.0526342 -0.131489 0.0857272 -0.136973 0.138253 -0.220556
35830 0.338586 -0.382028 -0.623395 -1.8247 3.34115 1.33107 -1.35599 1.27549 0.241572 0.390576 -0.625998 -0.506574 0.0976534 0.201028 0.698891 0.430664 0.176436 -0.060306 0.084096 -0.116409 -0.131647 -0.0575916 -0.0447193 -0.102109 0.339909 0.31352 -0.0760904 -0.34292 -0.187586 -0.0729588 0.0226162 -0.36436
33181 0.238815 -0.570292 -0.650037 -1.64108 3.42909 1.47942 -1.55101 1.58286 0.0647664 0.332686 -0.298583 -0.45447 -0.0133603 0.0412389 0.540836 0.524808 0.080859 0.0258059 -0.127149 -0.174617 -0.00545321 -0.0271107 0.3543 0.142918 0.098919 -0.261575 0.0745884 -0.247874 -0.226402 -0.107329 0.231758 -0.172639
33129 0.459263 -0.577034 -0.360138 -1.92757 3.67442 1.57527 -1.59706 1.80051 0.0906459 0.188484 -0.561875 -0.41364 -0.211673 0.0317127 0.509183 0.629889 0.279493 -0.072366 0.0200746 0.0296168 -0.170974 -0.0580956 0.0961706 0.0108039 0.380203 -0.0959794 0.171815 -0.271314 0.171782 -0.168299 0.0884885 -0.0168071
33252 0.557921 -0.769331 -0.340666 -1.66775 3.20079 1.24893 -1.08682 1.13916 -0.0278584 0.52458 -0.547123 -0.54588 0.0876257 0.0173983 0.593926 0.447652 0.162026 0.00625182 0.129709 -0.139771 0.0295942 -0.0842536 0.144403 -0.0121341 0.501729 -0.115682 -0.0395366 -0.367479 -0.116144 -0.387166 0.119908 -0.20593
31631 0.321624 -0.605012 -0.591385 -1.62315 3.56947 1.51155 -1.38753 1.77506 0.0220151 0.333565 -0.386458 -0.397469 -0.104684 0.204191 0.580646 0.543029 0.0356508 -0.00988132 0.128794 -0.0254341 0.00969232 0.0952202 0.1428 -0.0622151 0.44491 -0.0486052 -0.107748 -0.0280869 -0.172145 -0.0763372 -0.0571223 -0.183355
36544 0.173549 -0.469936 -0.461225 -1.90452 3.37269 1.52845 -1.05497 1.57765 -0.196351 0.176357 -0.362807 -0.361557 0.0693901 0.147068 0.881753 0.549927 0.161053 -0.0952557 -0.13068 -0.223357 0.0226494 -0.0485341 0.106309 -0.151733 0.344299 -0.213039 0.00811446 -0.00186317 0.0489266 -0.137497 0.0299479 -0.314325
36428 0.215357 -0.503716 -0.446886 -1.86704 3.01521 1.37977 -1.06756 1.36085 -0.0972702 0.383319 -0.315756 -0.438865 0.0214223 0.10367 0.653913 0.558832 0.0782759 -0.10593 -0.0174004 -0.115022 -0.0237846 0.0855187 0.166669 -0.102488 0.224465 -0.0629994 -0.00554911 -0.0703735 -0.0706329 -0.132499 0.145748 -0.191374
35465 0.5493 -0.777297 -0.485169 -1.71255 3.44374 1.21159 -1.19609 1.35371 0.145832 0.577847 -0.676878 -0.533631 0.149308 0.210208 0.472822 0.549811 0.182652 0.0810243 0.00673207 -0.0271494 0.0439044 0.0859405 0.412751 0.0552822 0.233877 -0.0602882 0.0232441 -0.105108 -0.118575 -0.136797 0.0549683 -0.0634023
33980 0.653718 -0.77084 -0.298489 -1.8365 3.44044 1.34668 -1.10136 1.27496 0.21603 0.352875 -0.733089 -0.624152 0.104383 0.223667 0.511373 0.678138 0.0554383 -0.00242985 0.0384392 -0.183945 -0.0280427 -0.0628003 0.226047 -0.0764155 0.194478 -0.101094 -0.0517365 -0.16901 -0.0304763 -0.219084 0.0850857 -0.0820216
33632 0.322653 -0.396422 -0.447177 -1.76589 3.58288 1.38132 -1.51498 1.66328 0.105116 0.210411 -0.390167 -0.373909 -0.0325922 0.0859698 0.496264 0.503164 0.304387 -0.114133 -0.136058 -0.0987994 0.054555 0.135818 0.204253 -0.0809457 0.0885857 -0.0470647 0.0950402 -0.374976 -0.0572921 -0.00562612 0.0181661 -0.148394
35319 0.56823 -0.678829 -0.451658 -1.77851 3.57376 1.39639 -1.33931 1.44466 0.209364 0.314757 -0.450451 -0.323278 0.210929 0.0119759 0.481546 0.682495 0.260215 -0.0642428 -0.0576353 -0.0203254 -0.0381562 0.145778 0.460036 -0.00540612 0.23239 0.0801219 -0.146153 -0.288269 0.00985877 -0.0746028 0.0430883 -0.0407914
34858 0.691198 -0.795199 -0.403898 -1.65854 3.62619 1.32808 -1.28165 1.531 0.24091 0.240425 -0.233562 -0.392255 -0.00233651 -0.0291042 0.590094 0.60237 0.437235 -0.0513204 -0.079049 0.089798 0.0897694 -0.10157 0.460234 0.0296297 0.297658 -0.0738282 -0.224746 -0.312675 -0.08863 0.0324353 0.0445561 0.0718378
33103 0.470735 -0.790768 -0.552392 -1.63097 3.33205 1.3502 -1.30959 1.49283 -0.108192 0.213487 -0.247569 -0.456446 0.0276898 -0.179867 0.744834 0.548334 0.101905 0.201733 0.0448446 -0.0787185 -0.0167477 -0.0583843 0.053285 -0.0991883 -0.0435915 0.0925959 0.299444 -0.102345 -0.216057 -0.551716 0.177433 -0.283
32808 0.489655 -0.635309 -0.398135 -1.73068 3.06438 1.24578 -1.11768 1.3024 -0.0363442 0.530799 -0.651792 -0.711911 0.194752 -0.00849293 0.591522 0.478624 0.310859 0.106225 -0.065227 -0.145629 -0.0205094 0.0541521 0.267495 0.0886555 0.365784 0.0275701 0.0516614 -0.21576 -0.0378457 -0.403088 0.0554226 -0.131886
35752 0.508519 -0.746064 -0.44728 -1.73486 3.61883 1.29523 -1.46402 1.4284 -0.0151933 0.435476 -0.543278 -0.421499 0.185113 0.182843 0.366157 0.591295 0.178064 -0.0502308 -0.296421 0.0206785 -0.0494532 0.044268 0.223818 -0.0160572 0.204025 -0.187346 0.117176 -0.151547 -0.0862677 -0.204127 -0.0639964 0.193629
35101 0.452653 -0.671816 -0.40973 -1.49528 3.69733 1.60093 -1.52172 1.66279 0.0658413 0.177216 -0.202322 -0.359995 0.00885384 -0.159315 0.618067 0.374257 0.506583 0.0998225 0.0436229 -0.160907 0.188028 -0.0372753 0.127165 0.230529 0.324186 -0.184561 -0.106276 -0.233077 0.0157462 -0.225608 -0.127247 -0.00390187
32795 0.285984 -0.778626 -0.542286 -1.49709 3.36617 1.45226 -1.30726 1.27407 -0.0648822 0.267821 -0.0530512 -0.508545 0.0179407 -0.061728 0.906424 0.355337 0.194613 0.171999 0.074228 -0.200281 -0.00486939 -0.0975776 0.0109415 0.0304903 0.0755186 -0.006594 0.298886 -0.301338 -0.238982 -0.38605 0.107573 -0.162027
33361 0.508134 -0.720664 -0.440078 -1.53388 3.23167 1.38795 -1.34694 1.30903 -0.110061 0.269482 -0.112112 -0.449201 -0.0069755 -0.13481 0.968246 0.423942 0.115141 0.0536207 0.125775 -0.0473093 -0.0545774 -0.0970317 0.280196 0.0952421 0.100973 -0.05346 0.207759 -0.398023 -0.033761 -0.283586 0.157556 -0.0759254
32215 0.295426 -0.475784 -0.506414 -1.5571 3.55392 1.44211 -1.32377 1.36316 -0.286368 0.44075 -0.335524 -0.300513 -0.0461328 -0.0107531 0.849134 0.31196 0.187601 -0.251243 0.159731 -0.137521 -0.137216 0.0841463 0.112333 0.128607 0.22803 -0.123397 0.0873773 -0.098119 -0.0813077 -0.486682 0.0503961 -0.126609
34707 0.302897 -0.522606 -0.29375 -1.68428 3.33559 1.51635 -1.16066 1.27323 0.104733 0.261231 -0.580105 -0.547701 -0.0247174 -0.134678 0.569625 0.464148 0.162332 -0.0943079 0.0314114 -0.0801149 -0.0415963 -0.13634 0.227138 0.055686 0.469984 -0.0123206 -0.161171 -0.303968 0.0229431 -0.122153 -0.175917 -0.225802
30973 0.478481 -0.537942 -0.258653 -1.71771 3.39615 1.47447 -1.36612 1.68175 0.0527212 0.185325 -0.367345 -0.543848 0.0463484 -0.261795 0.749308 0.369418 -0.0604355 -0.116607 0.0423164 -0.00372271 0.0279995 -0.1612 0.176815 -0.029718 0.222136 -0.114899 -0.0938893 -0.0974576 -0.106004 -0.40422 0.131451 0.113951
31712 0.47361 -0.676606 -0.443258 -1.8132 2.95422 1.33311 -0.933983 1.21143 -0.190904 0.505056 -0.522434 -0.599741 0.0190858 -0.0441506 0.537985 0.492823 0.170257 0.0020671 0.0258307 -0.0437093 0.0738479 0.0544032 0.161492 -0.170893 0.323485 -0.164941 0.0272046 -0.202624 -0.122857 -0.402737 0.23774 -0.235656
36214 0.667058 -0.529965 -0.249502 -1.83004 3.49345 1.53576 -1.44404 1.80342 -0.03528 0.367942 -0.567096 -0.362394 0.115259 0.0984937 0.416549 0.707207 0.059801 -0.111894 0.186479 -0.113924 0.056038 -0.0895544 0.244363 -0.216637 0.308341 0.00118051 0.0488158 -0.0750351 -0.15824 -0.154097 0.197617 0.00508608
33074 0.340026 -0.564914 -0.259035 -1.72926 3.53581 1.72934 -1.50477 1.76123 0.0713034 0.387568 -0.585675 -0.442923 -0.266522 -0.076693 0.496576 0.522963 0.320586 0.125464 0.183555 -0.0928077 -0.202174 0.0025275 0.0783251 -0.097632 0.603089 -0.0551443 0.0122533 -0.0499349 -0.155952 -0.101937 0.105713 -0.040962
34989 0.545625 -0.438177 -0.424288 -1.88223 3.29592 1.37938 -1.28383 1.37793 -0.0675293 0.311271 -0.553007 -0.518361 0.0418892 -0.0833888 0.612586 0.664023 0.0401962 -0.13998 0.258963 0.00614425 -0.190304 -0.040516 0.0707735 -0.0830777 0.177897 -0.06037 -0.163542 -0.446163 0.0873719 -0.304397 0.0399809 -0.14936
36907 0.343982 -0.456806 -0.157523 -1.87276 3.53136 1.58271 -1.51903 1.63424 -0.0804142 0.160638 -0.501864 -0.389457 0.0694003 0.207331 0.639758 0.462003 0.150226 0.085359 -0.0400722 0.0128078 -0.0787664 -0.219394 0.226846 -0.107619 0.111404 0.0737287 -0.0874376 -0.128968 0.0534051 -0.222433 0.232828 -0.133442
35770 0.387997 -0.435227 -0.422874 -1.66978 3.42171 1.50725 -1.1315 1.7077 -0.180232 0.227921 -0.387971 -0.430965 -0.0775609 -0.217377 0.563055 0.568704 0.0494199 -0.216836 0.10261 -0.108453 0.00804271 -0.0780921 0.0449517 -0.0585714 0.121684 0.00690496 -0.225767 -0.387423 0.0674601 -0.375018 -0.069774 -0.275082
34747 0.244478 -0.650927 -0.236438 -1.51327 3.65296 1.37436 -1.29631 1.65533 -0.00916788 -0.0784825 -0.307441 -0.62768 0.0637181 -0.0431275 0.482071 0.593091 0.123793 0.262078 -0.408278 0.118134 -0.274396 0.0495659 0.21263 -0.0356504 0.138501 -0.101249 0.0653407 -0.254635 -0.141502 -0.311271 0.196465 -0.235263
30951 0.275292 -0.525979 -0.546644 -1.70379 3.4455 1.61747 -1.5825 1.84038 -0.0584604 0.315633 -0.37089 -0.400219 0.0157004 0.0921407 0.493304 0.537496 0.281043 0.0314208 0.00975303 -0.185106 0.0469239 -0.0141923 0.216837 0.0379851 0.472648 -0.0485918 0.00855731 0.0396045 0.0537644 0.143318 -0.0416156 -0.133275
31901 0.619302 -0.611456 -0.11443 -1.69747 3.36822 1.53097 -1.51471 1.72283 0.0499635 0.346963 -0.368516 -0.530106 0.37115 -0.0276349 0.500769 0.501295 0.0224812 0.0364942 0.0393277 -0.154876 0.0477455 -0.0125218 0.146829 0.0059302 0.26259 -0.0216759 0.161253 -0.365085 -0.032412 -0.546939 -0.105753 0.10421
31626 0.450689 -0.692483 -0.405091 -1.66447 2.98844 1.25097 -0.966734 1.01681 -0.0623672 0.320612 -0.573346 -0.780864 0.144763 -0.0568041 0.649597 0.482592 0.052908 0.0259152 0.0507026 -0.0504898 -0.0419677 -0.0651318 0.244479 0.0178801 0.493343 -0.013764 -0.0766111 -0.357413 0.00852193 -0.444219 0.102662 -0.367225
34743 0.342398 -0.577438 -0.507256 -1.71091 3.63648 1.39417 -1.45052 1.41506 -0.00958134 0.315723 -0.539724 -0.573578 0.17288 0.137608 0.503257 0.451463 0.15927 0.154588 -0.0193567 -0.0475846 -0.0658664 -0.125156 0.313448 -0.0150813 0.301893 0.0326283 0.0979827 0.0187058 -0.184765 0.0391756 0.0932644 -0.0915922
35014 0.485704 -0.685291 -0.380989 -1.71305 3.56576 1.57343 -1.415 1.51503 0.118726 0.196293 -0.541735 -0.423339 -0.000451235 0.137079 0.511035 0.611719 0.0106947 0.119387 2.40501e-05 -0.217634 -0.155438 0.0507843 0.148638 -0.0833616 0.26221 -0.0434327 -0.0723187 0.034586 -0.183044 -0.211792 -0.0181278 -0.236371
35630 0.555725 -0.689226 -0.57306 -1.63377 3.22174 1.48385 -1.24519 1.54435 -0.0164681 0.498543 -0.216419 -0.577034 -0.0603397 -0.109436 0.63894 0.567232 0.246406 0.311949 0.0230294 0.135189 0.326168 0.183445 0.0907398 -0.00511782 0.255388 0.00175481 0.405588 -0.35995 0.0270212 -0.328269 0.0472727 -0.220786
34440 0.361222 -0.501087 -0.607943 -1.68546 3.39896 1.51818 -1.5145 1.51507 -0.0324489 0.267697 -0.349951 -0.425752 -0.0700547 -0.0497045 0.565825 0.593127 0.0506398 0.116973 -0.126662 -0.204169 0.153349 0.148811 0.313666 0.20579 0.248973 0.155805 0.129515 -0.228907 -0.0866063 -0.188647 0.138646 -0.0840736
35364 0.165748 -0.810874 -0.326091 -1.71239 3.6951 1.62644 -1.54749 1.79283 -0.0338139 0.0474192 -0.518586 -0.292543 -0.0371221 -0.165039 0.479377 0.618876 0.240288 0.0512396 0.20239 0.131207 0.0475703 0.0511447 0.111568 -0.219485 0.286533 -0.156926 -0.0475973 -0.209777 -0.0266367 -0.0551552 0.188625 -0.0259763
34446 0.507083 -0.611522 -0.438297 -1.7709 3.39522 1.16468 -1.36924 1.21555 0.136334 0.303259 -0.733974 -0.695037 0.222734 0.211234 0.566844 0.638606 0.0140351 0.184253 -0.160103 0.0168824 0.00927903 -0.0108987 0.199611 -0.0248292 0.317967 0.0483833 0.078323 -0.251676 0.13291 -0.407238 -0.0137753 0.00150822
36043 0.38027 -0.621313 -0.582287 -1.6392 3.47903 1.23518 -1.36672 1.55074 -0.164881 0.526526 -0.350876 -0.255818 0.131035 0.205475 0.739996 0.400235 0.139179 0.124657 0.0286871 -0.0207252 -0.0350741 -0.0562077 0.125767 -0.0248866 0.23039 0.00385756 0.163064 -0.0738389 0.0989934 -0.460949 0.218588 -0.297379
33593 0.536417 -0.626973 -0.339359 -1.98746 3.45921 1.22201 -1.44154 1.55783 -0.106095 0.379379 -0.622735 -0.428679 0.31485 0.152323 0.566436 0.503592 0.190621 0.0376338 0.0381919 -0.0633614 0.165646 -0.153963 0.343409 -0.174825 0.209968 -0.0522944 0.0853627 0.0574636 0.0260503 -0.198264 0.083024 0.0767555
34983 0.520838 -0.773673 -0.454271 -1.59531 2.90655 1.30389 -1.06195 1.05606 -0.0413744 0.246279 -0.561177 -0.574372 -0.018812 -0.0353842 0.771638 0.555791 0.163904 0.00509177 -0.0637569 -0.037674 -0.0317677 -0.0217072 0.208576 -0.0886604 0.443721 -0.108163 0.0827278 -0.465754 0.0645091 -0.408973 0.0882794 -0.213129
36323 0.580741 -0.749272 -0.397802 -1.79843 3.22595 1.39918 -1.1207 1.02155 -0.0191952 0.350374 -0.568338 -0.70579 -0.0559652 -0.0226259 0.710098 0.652421 0.0427477 -0.0503933 0.00167344 0.185099 -0.0103077 -0.0530542 0.0942989 -0.238174 0.433777 -0.192051 -0.0977849 -0.19308 -0.0675927 -0.283712 0.00813384 -0.170435
34862 0.374239 -0.526025 -0.331202 -1.74773 3.59197 1.44609 -1.3669 1.64937 -0.0845031 0.300379 -0.581432 -0.486947 0.0637254 -0.00211998 0.507522 0.657876 0.0699254 0.142451 0.100553 -0.20271 -0.0825465 -0.0214124 0.280439 -0.11107 0.317357 -0.0275692 -0.07433 -0.126224 -0.0291125 -0.348935 -0.068291 -0.133528
36039 0.173134 -0.575484 -0.487087 -1.7885 3.41175 1.4393 -1.2764 1.44541 -0.00877359 0.170481 -0.413013 -0.607754 0.135489 -0.100541 0.52086 0.639732 0.12431 0.116418 -0.395462 -0.104369 -0.0944467 -0.063707 0.208571 0.0101818 0.367331 -0.0588137 -0.0672885 -0.155109 -0.140675 -0.245017 0.0408057 -0.322747
32075 0.672187 -0.729638 -0.489714 -1.58867 3.36392 1.32612 -1.36921 1.57539 0.0797152 0.405355 -0.199528 -0.129231 0.0979975 0.0202415 0.74726 0.56096 0.257434 -0.115531 0.0427234 -0.0458069 -0.0889067 0.0800488 0.362025 -0.103977 0.571612 0.0916623 0.047024 -0.410888 -0.0159673 -0.0451829 0.0612998 -0.24877
34531 0.48029 -0.731361 -0.332262 -1.75637 3.50082 1.189 -1.3483 1.51942 0.0981224 0.401092 -0.677994 -0.346023 0.219528 -0.0202497 0.628193 0.430862 0.189598 -0.0743529 -0.122882 -0.045475 0.0120563 0.170612 0.264347 -0.117243 0.24797 -0.282543 0.179142 -0.113921 0.0123639 -0.142533 0.151243 -0.0807997
159044 0.195648 -0.264344 -0.178653 -0.699788 1.21554 0.594015 -0.342184 0.496675 -0.0301788 0.0893252 -0.218658 -0.259914 -0.00572665 -0.0979216 0.322287 0.274382 0.090307 -0.00506705 0.0229584 -0.0334569 0.0152666 0.0485773 0.0918862 -0.010389 0.0941211 -0.00927612 0.0615116 -0.111801 -0.043153 -0.148264 0.0572258 -0.12287
35171 0.474327 -0.729328 -0.456006 -1.6018 3.27116 1.74388 -1.06171 1.92014 -0.104077 0.170263 -0.479611 -0.655057 -0.105758 -0.365808 0.490985 0.389338 0.527672 -0.0469813 -0.0389381 -0.0702434 0.0212556 0.134628 0.169815 -0.0482778 0.166943 -0.0572495 0.0598541 -0.278632 -0.0790493 -0.29906 0.0273429 -0.20303
31780 0.371619 -0.509976 -0.602121 -1.82615 3.08248 1.74868 -0.892705 1.57663 -0.120314 0.383002 -0.502605 -0.629876 -0.0112069 -0.315829 0.487456 0.524092 0.428723 -0.177057 0.0391266 0.0169408 0.0158136 0.0780256 0.26013 -0.207726 0.252817 -0.0262956 -0.023099 -0.261819 -0.0486034 -0.0658405 -0.0301454 -0.270657
33304 0.402638 -0.482752 -0.51794 -2.0248 3.15748 1.35563 -1.08604 1.45959 0.00340828 0.472793 -0.546077 -0.703352 0.140908 -0.0926763 0.409059 0.545285 0.279776 -0.0460185 0.0619716 -0.234225 -0.00356325 0.102755 0.240626 -0.0508091 0.179293 0.0369147 -0.0766884 -0.223929 -0.129704 -0.195439 0.0964522 -0.233291
32203 0.303362 -0.27135 -0.41074 -1.76545 3.49317 1.57622 -1.18005 1.59622 -0.0943118 0.419422 -0.461291 -0.373701 0.0963429 -0.26678 0.375016 0.729403 0.385125 -0.274507 -0.0137001 -0.0783582 0.274149 -0.100784 0.195929 -0.158348 0.223499 0.0427707 -0.138433 -0.363077 -0.0657685 -0.124206 -0.103029 -0.152744
35832 0.336213 -0.452311 -0.219211 -1.82596 3.47298 1.49239 -1.28744 1.54392 0.129406 0.352076 -0.494738 -0.605365 -0.116415 -0.0807546 0.441629 0.582541 0.293529 0.0620275 0.100806 -0.0165961 -0.0330302 -0.106381 0.0562634 -0.00110246 0.279209 -0.117341 -0.0961739 -0.0555865 -0.289715 -0.0973467 0.0962341 -0.286685
36739 0.510583 -0.567886 -0.349818 -1.68307 3.35953 1.43427 -0.992917 1.34227 -0.352409 0.587616 -0.663154 -0.536396 -0.0381308 0.0817512 0.617325 0.45999 0.326378 -0.174133 0.0367288 -0.0670157 -0.150845 0.136887 0.0653267 -0.118157 0.274297 -0.0123277 -0.0131858 0.143647 -0.124536 -0.42416 0.134154 -0.187301
33892 0.451926 -0.457169 -0.412248 -1.57132 3.51811 1.55737 -1.27488 1.32283 0.0437015 0.232548 -0.589251 -0.337773 -0.293933 -0.0403135 0.75569 0.384956 0.180578 -0.187094 -0.0325742 -0.217861 -0.150229 -0.00138383 0.366085 -0.0348562 -0.0260579 0.0230852 -0.00647095 -0.165291 -0.00270944 -0.365947 0.0498478 -0.179942
31937 0.353423 -0.666993 -0.280867 -1.71566 3.50469 1.5344 -1.37803 1.70654 0.0229545 0.132615 -0.359034 -0.408717 0.117816 -0.116877 0.615739 0.589326 0.167553 0.0214252 -0.225629 0.0347299 -0.246956 0.0536747 0.112238 0.00972445 0.219132 0.00368927 0.00826857 -0.132315 -0.142197 -0.256288 0.105831 -0.180774
32417 0.251338 -0.740482 -0.404768 -1.66336 3.64331 1.33761 -1.42634 1.3785 0.0931377 0.0555272 -0.391519 -0.128908 0.235578 -0.0395254 0.664519 0.479837 0.483507 0.16271 -0.0161959 -0.0496757 0.0966544 -0.256583 -0.0050534 -0.0757908 0.218282 -0.223707 0.0947681 -0.0021843 -0.0420565 -0.339302 0.10735 -0.233686
36393 0.332109 -0.371945 -0.439625 -1.67703 3.50893 1.29456 -1.42733 1.70633 -0.0900874 0.380626 -0.365231 -0.49095 0.0831569 -0.0188345 0.514853 0.461956 0.189148 -0.0693852 -0.0386151 -0.334276 -0.0421433 0.047325 0.0594169 -0.123235 0.362143 -0.345866 -0.0473864 -0.198239 -0.200757 -0.272562 0.130362 -0.0912202
33832 0.364241 -0.467928 -0.386719 -1.70309 3.63266 1.4607 -1.38088 1.754 -0.0525717 0.122871 -0.346473 -0.472032 -0.077407 -0.0377641 0.540925 0.547733 0.174151 -0.0636811 0.0243953 -0.0903456 -0.203342 0.00868318 0.0521996 0.0330939 0.262608 0.0488168 -0.0791334 -0.0905889 0.102413 -0.301673 0.0568728 -0.0184083
37028 0.284316 -0.423718 -0.384805 -1.23459 2.44815 1.11758 -0.794007 0.875961 -0.0701068 0.201651 -0.343285 -0.651608 0.0506633 -0.218964 0.596145 0.269777 0.112954 -0.0395316 0.0038684 -0.14165 -0.142664 -0.0693924 0.10923 0.115935 0.252273 0.106429 0.0471567 -0.419037 -0.0846675 -0.465199 0.0964643 -0.354075
34381 0.343617 -0.669763 -0.404981 -1.63655 3.49958 1.27221 -1.30035 1.46507 0.0743419 0.1635 -0.376996 -0.569084 0.193149 -0.144284 0.658961 0.347772 0.296096 -0.119395 0.19441 -0.0522587 -0.103925 -0.0790023 0.275814 0.189896 0.491458 -0.0034574 -0.0540573 -0.0852366 0.0417798 -0.231144 0.0752135 -0.069389
35451 0.313337 -0.463759 -0.294588 -1.66529 3.49711 1.5613 -1.81466 1.69833 -0.00804874 0.174988 -0.331451 -0.351677 0.137876 0.103434 0.592526 0.412004 0.267798 0.0809716 0.131954 0.129752 0.114689 0.113833 0.01959 0.0200101 0.430393 0.0178034 -0.0946818 0.0491109 -0.066867 0.0259958 0.112952 -0.169944
32890 0.335919 -0.574568 -0.580303 -1.70312 3.49201 1.46554 -1.48038 1.60989 -0.0291455 0.341856 -0.435889 -0.487552 0.0457671 0.0506207 0.7076 0.356147 0.0933136 0.180995 0.112716 -0.139109 -0.221733 -0.0581039 0.150379 0.0507006 0.105822 0.0562095 0.0268544 -0.147919 0.0352891 -0.255242 0.12455 0.0454216
34196 0.284499 -0.680538 -0.484112 -1.56274 3.52971 1.33519 -1.53427 1.46553 -0.0283097 0.270751 -0.682473 -0.443462 0.226095 0.0413556 0.491286 0.460058 -0.0153092 0.0337084 -0.146859 -0.0126916 -0.0281872 0.0513874 0.185059 0.196321 0.34403 -0.0463808 0.164308 -0.164213 0.226694 -0.213171 -0.122942 -0.00109472
36038 0.455921 -0.600613 -0.464104 -1.78335 3.37135 1.49627 -1.19178 1.44317 -0.158041 0.358986 -0.421324 -0.552379 0.00298208 0.0731732 0.626227 0.529459 0.118463 -0.0700089 0.195924 -0.107353 0.0638337 -0.180032 0.209038 -0.151495 0.428662 -0.217839 -0.114852 -0.0902106 -0.127601 -0.246343 0.0787351 -0.179725
31334 0.418052 -0.432143 -0.368083 -1.78325 3.08509 1.09377 -1.10226 1.25599 0.129974 0.4599 -0.619847 -0.599097 0.161602 0.0690444 0.625205 0.627458 0.189292 -0.0335245 0.00572915 -0.0435998 0.0329755 -0.0235791 0.265058 -0.077503 0.398244 0.132137 0.05796 -0.405914 0.0433373 -0.323557 0.0963175 -0.179985
34479 0.561186 -0.434348 -0.265847 -1.70003 3.38773 1.75515 -1.33146 1.81345 0.191185 0.317285 -0.40211 -0.476958 0.0655365 -0.206235 0.606543 0.428798 0.108275 0.206286 0.118602 -0.0397076 0.223177 -0.133119 0.250794 0.0863639 0.208025 -9.15461e-05 0.0793811 -0.267019 -0.0775812 -0.27408 -0.0402356 -0.166674
35739 0.423928 -0.509393 -0.418881 -2.02834 3.22376 1.60588 -1.04177 1.8659 -0.0774922 0.413531 -0.353703 -0.45679 0.0396139 -0.219047 0.471369 0.684939 0.111745 -0.181657 0.0535042 0.0481561 0.126621 0.090065 0.237585 -0.061309 0.159549 -0.0604427 -0.056716 -0.187838 0.0504416 -0.270378 -0.0162509 -0.246867
32418 0.602244 -0.231156 -0.296567 -1.70562 3.30452 1.48101 -1.33358 1.62081 0.302729 0.17716 -0.199078 -0.577923 0.11868 -0.207011 0.594805 0.550067 0.138885 0.171986 -8.14462e-05 -0.10173 0.116003 0.0807674 0.154089 0.13319 0.208175 0.0705492 0.193766 -0.400168 -0.0250249 -0.432934 -0.0564482 -0.00777058
32057 0.596736 -0.408227 -0.226546 -1.68319 3.32051 1.45889 -1.29678 1.70412 0.228188 0.255273 -0.197166 -0.815098 0.0662493 -0.0371505 0.551914 0.564996 0.0459109 0.142864 0.00287853 -0.0511508 0.358022 0.100184 0.287202 -0.0515359 0.0889307 -0.14953 0.358518 -0.421666 -0.0596886 -0.630824 0.0298168 -0.125602
36741 0.575127 -0.663648 -0.37007 -1.68634 3.20704 1.21548 -0.95351 1.08887 0.0985519 0.371775 -0.428408 -0.288159 0.0902626 -0.106047 0.938206 0.513332 0.189772 -0.175544 0.025462 -0.103477 -0.159696 -0.0382238 0.175853 -0.0551911 0.43967 -0.0641449 -0.0321483 -0.485458 0.0659998 -0.377753 0.0883989 -0.300133
36408 0.445649 -0.558839 -0.492937 -1.56698 3.94344 1.48833 -1.28167 1.58641 0.156316 0.176987 -0.423211 -0.0527285 0.156767 -0.156139 0.607731 0.525435 0.626622 -0.00560666 0.171685 0.149908 0.209507 0.000405377 0.345736 0.108364 0.101948 -0.278391 0.0141317 -0.0766882 0.227585 -0.109569 0.0162358 -0.0793223
31854 0.552115 -0.657734 -0.320162 -1.55597 3.51891 1.33075 -1.18087 1.48575 -0.0558436 0.397939 -0.354901 -0.354487 0.0329345 0.0180007 0.631945 0.56161 0.399936 -0.0480445 -0.0179619 0.105975 0.0892152 0.079535 0.377149 0.0648137 0.342271 -0.00423599 -0.0676952 -0.210565 0.0876184 -0.0182256 0.168067 -0.137783
34280 0.570409 -0.526636 -0.430751 -1.60697 3.84532 1.33729 -1.35094 1.69966 0.0590844 0.0400828 -0.360762 -0.129252 0.0296048 -0.102061 0.652226 0.458166 0.653721 0.00401667 0.166475 0.0937276 0.144184 -0.0424638 0.336255 -0.00301888 0.323071 -0.445288 0.0493387 0.0385966 -0.00537014 -0.0672345 0.0991377 -0.109006
35079 0.327496 -0.517484 -0.331844 -1.60402 3.48905 1.4634 -1.36596 1.26663 -0.138609 0.0467165 -0.294758 -0.488293 0.0637513 -0.175907 0.753117 0.497176 -0.0442876 -0.0923546 0.0398765 -0.00476704 -0.161944 -0.0463817 0.0642286 -0.135626 0.243191 -0.281753 -0.171428 -0.241075 -0.0532823 -0.266582 0.201783 -0.158639
36258 0.552476 -0.733566 -0.571912 -1.78405 3.42513 1.47781 -1.35906 1.50227 0.13007 0.141646 -0.487344 -0.487808 0.204405 -0.143973 0.736986 0.486477 0.0441159 -0.0152242 -0.241603 -0.0871015 -0.241693 -0.100449 0.0512279 0.032169 0.384584 -0.112446 -0.0499988 -0.160061 0.0613797 -0.105673 0.0646424 -0.0791601
32171 0.44428 -0.753864 -0.364606 -1.84431 3.25925 1.33669 -1.16391 1.42942 -0.0897785 0.31242 -0.676611 -0.645427 0.0175553 0.112779 0.499548 0.567581 0.18272 0.0936839 -0.0593224 -0.0987232 0.107283 0.0200129 0.365608 -0.0629077 0.415453 -0.163746 0.0175789 -0.141289 0.0327524 -0.353078 0.122686 -0.104153
32385 0.494353 -0.822383 -0.34842 -1.8639 3.28424 1.51196 -1.09603 1.23316 -0.130134 0.166941 -0.552584 -0.436971 0.0336718 -0.125091 0.563797 0.543159 0.410558 -0.08209 -0.04897 -0.0157697 -0.00155126 0.16036 -0.0169761 0.112921 0.353835 -0.118818 0.0281639 -0.319782 -0.000204448 -0.202111 0.271856 -0.009939
36849 0.670243 -0.87276 -0.415426 -1.64673 3.23874 1.25643 -1.11203 1.18055 0.0305133 0.264165 -0.439658 -0.209501 0.211624 -0.1383 0.799272 0.650495 0.198129 -0.10053 -0.101966 0.0860959 -0.0547508 0.114733 0.340893 -0.0314055 0.367046 -0.217815 0.0827187 -0.314329 0.0804565 -0.237769 0.169396 -0.158509
34148 0.399582 -0.67879 -0.445047 -1.76956 3.74584 1.33995 -1.71438 1.4863 -0.0632296 0.309529 -0.939806 -0.512056 0.262048 0.0741915 0.422186 0.361843 0.267165 0.0908302 -0.210991 0.0511818 -0.047881 0.111673 0.138922 -0.00594433 0.316365 -0.247662 0.329848 -0.00569233 0.245914 -0.383129 -0.209531 0.169598
32652 0.520265 -0.998317 -0.379519 -1.77577 3.62019 1.16823 -1.43263 1.30309 0.0173435 0.323156 -0.995145 -0.537631 0.297483 0.280423 0.497451 0.454935 0.260192 -0.03642 -0.248336 0.0752175 -0.0652437 -0.0754723 0.188389 -0.0771147 0.280553 -0.189547 0.179847 -0.140283 0.283678 -0.522272 0.0157428 0.0717449
32396 0.257106 -0.590857 -0.25348 -1.54444 3.50949 1.41181 -1.37668 1.44305 -0.236668 0.263428 -0.257149 -0.411751 0.196165 -0.224431 0.634192 0.485848 0.286496 -0.162841 0.198177 -0.133715 -0.246608 0.105904 0.270253 0.310663 0.373642 0.104431 -0.0908875 -0.160011 -0.0844573 -0.238518 0.0757968 -0.152952
31107 0.320819 -0.55698 -0.397691 -1.64539 3.70828 1.51406 -1.50192 1.80945 -0.145884 0.174635 -0.413478 -0.423382 -0.00541402 -0.015264 0.493918 0.546899 0.0999776 -0.198801 0.0960721 -0.096082 -0.129088 -0.115034 0.140352 0.0162616 0.248448 -0.0950453 0.145392 -0.193052 0.133394 -0.192461 -0.0756967 -0.126555
31535 0.270123 -0.373714 -0.294637 -1.61553 3.20858 1.44229 -1.2678 1.01633 -0.17976 0.28253 -0.454638 -0.658483 0.0365844 0.0780916 1.04872 0.534111 -0.0297496 -0.0759563 0.058954 0.0102029 -0.11918 -0.146333 -0.138715 -0.113527 0.255442 0.0571932 -0.19303 -0.365576 0.017471 -0.400957 0.243129 -0.452718
34924 0.534246 -0.5153 -0.502246 -1.74991 3.27382 1.44693 -0.922347 1.23409 -0.198297 0.447488 -0.620475 -0.573069 -0.102626 0.0131556 0.773356 0.468211 0.260353 -0.183948 0.0952493 -0.118838 -0.0856679 0.0713879 0.0100952 -0.067905 0.324907 -0.155368 -0.0796186 -0.0970039 0.0582134 -0.288494 0.0820218 -0.254094
34438 0.507788 -0.355273 -0.339742 -1.9751 3.17828 1.54941 -1.13663 1.4088 -0.321307 0.478469 -0.396168 -0.387237 -0.130455 -0.0248958 0.651865 0.744201 0.033822 -0.118144 0.239521 0.152403 0.110378 -0.119444 0.0610628 -0.406538 0.237859 -0.0531152 -0.153511 0.0167943 -0.030155 -0.235296 0.0846234 -0.488982
33692 0.403586 -0.514657 -0.38599 -1.67136 3.39459 1.51092 -1.47985 1.50992 -0.189737 0.512934 -0.205862 -0.563866 0.154358 0.187896 0.640326 0.634726 -0.249002 -0.00775139 -0.0452027 0.0137375 -0.0166963 0.0478071 0.316649 -0.134115 0.275161 0.0120332 -0.264212 0.129632 0.0566917 -0.289853 -0.0160925 -0.237462
34123 0.246928 -0.760217 -0.277853 -1.70777 3.60676 1.33991 -1.37765 1.6794 0.188019 0.13995 -0.292342 -0.353945 0.179548 -0.191824 0.629168 0.463567 0.163346 0.00750729 0.0383568 -0.0128787 -0.119894 0.0729389 0.153119 0.322018 0.516191 -0.0817038 -0.240958 -0.137626 -0.0619045 -0.120273 0.0661915 -0.0140198
33223 0.347567 -0.355256 -0.46281 -1.80271 3.46251 1.28935 -1.21481 1.58299 -0.0601191 0.412899 -0.354933 -0.448564 0.126628 0.124664 0.58415 0.48395 0.133045 -0.0117338 0.0775562 -0.0660138 0.190374 -0.0293725 0.223751 -0.121288 0.281419 -0.230634 -0.00141048 -0.131822 -0.312504 -0.223157 0.0231976 -0.106624
31813 0.552359 -0.624595 -0.406886 -1.67341 3.00091 1.23864 -0.943598 1.07708 -0.0181797 0.464295 -0.49614 -0.773333 0.0326243 0.0672587 0.589648 0.457026 0.161337 -0.0279046 -0.00312695 -0.098848 -0.00725986 -0.0232818 0.164232 -0.0248722 0.484321 -0.0779892 -0.0730931 -0.178881 -0.106 -0.381186 0.0678114 -0.383079
33544 0.440146 -0.480635 -0.378121 -1.82443 3.22643 1.17729 -1.1146 1.03441 -0.0883781 0.303519 -0.521713 -0.680123 0.0328333 -0.0925522 0.79734 0.316834 0.122841 -0.0513382 -0.0391143 -0.274879 -0.352142 -0.180285 0.0284511 0.0929607 0.329173 0.10374 -0.14874 -0.227192 -0.011505 -0.508341 0.0658396 -0.253767
31217 0.267808 -0.38753 -0.548684 -1.64336 3.63153 1.41763 -1.45609 1.64491 0.17357 0.183029 -0.548991 -0.311609 0.0877893 0.0089864 0.637519 0.415934 0.285723 -0.117972 0.205297 -0.0609076 -0.228446 -0.0412371 0.16693 -0.0793361 0.337213 0.29676 0.0525762 -0.374405 -0.00684928 -0.195899 -0.275736 -0.201018
36764 0.193795 -0.252652 -0.605251 -1.92473 3.46643 1.35291 -1.08091 1.17548 0.425457 0.188374 -0.6704 -0.200797 0.0327917 0.232781 0.759901 0.602981 0.428342 -0.152586 0.144367 -0.0778801 -0.171102 0.0276677 0.320063 -0.0370098 0.449925 0.677433 -0.00503324 -0.449944 -0.0752898 -0.0523796 -0.0525964 -0.444753
33965 0.200086 -0.297403 -0.515891 -1.63789 3.55954 1.50805 -1.39809 1.43595 0.201407 0.289553 -0.674623 -0.213184 0.131281 0.256763 0.659075 0.554696 0.331515 -0.172436 0.175006 0.014337 -0.157758 -0.0222083 0.0579831 -0.0915924 0.407798 0.371623 0.0634792 -0.306819 -0.131194 -0.240547 -0.0415033 -0.389043
34941 0.535472 -0.62382 -0.594076 -1.79597 3.09405 1.42893 -1.00244 1.41719 -0.175574 0.355008 -0.666179 -0.651953 0.0820366 -0.0571743 0.537476 0.545299 0.0455276 0.0916467 -0.000997161 -0.130033 0.0609067 0.137813 0.26376 -0.0794538 0.327164 -0.0422805 0.151532 -0.276451 -0.0956706 -0.220407 0.130232 -0.276366
31980 0.203527 -0.86641 -0.266349 -1.70566 3.57671 1.41151 -1.41538 1.52026 0.0219559 0.170361 -0.433003 -0.418289 -0.0915836 0.0104969 0.567987 0.551313 0.233715 0.126743 -0.101814 -0.130724 -0.033261 -0.0223409 0.12527 -0.10412 0.405149 -0.0913349 0.0623878 -0.10208 -0.0120269 0.0224483 -0.0138498 -0.0868955
35597 0.438947 -0.723345 -0.396072 -1.71982 3.28779 1.4497 -1.29567 1.30219 -0.136304 0.127384 -0.691133 -0.580212 0.16564 0.0317725 0.660488 0.524834 0.0625363 -0.0176669 -0.0820481 -0.0806038 -0.217544 -0.0659467 0.0406304 -0.0714273 0.359869 0.0224087 -0.0532276 -0.239289 -0.045895 -0.38429 0.054308 -0.33402
33612 0.340109 -0.841813 -0.316679 -1.48875 3.33608 1.4816 -1.06946 1.04574 -0.0479642 0.218363 -0.634867 -0.743158 0.0575961 -0.169377 0.642573 0.264083 -0.032789 -0.198279 0.0563369 -0.0987548 -0.298297 -0.0861163 -0.128643 -0.0189408 0.318761 -0.0103888 0.00334749 -0.427899 -0.146142 -0.388272 0.16793 -0.400525
32530 0.432216 -0.389118 -0.364965 -1.57523 3.65332 1.50862 -1.33142 1.45001 -0.0453002 0.174869 -0.28253 -0.647369 0.127808 -0.00697396 0.505512 0.490547 0.243552 -0.119805 0.0574462 -0.114577 -0.367271 -0.0469247 0.254657 0.0647064 0.13209 -0.0262659 0.0298332 -0.132473 -0.150354 -0.254333 0.00791796 -0.00974372
34230 0.30218 -0.65433 -0.493092 -1.75367 3.36403 1.31585 -1.31296 1.58122 0.0441634 0.425496 -0.491811 -0.671305 0.0604867 0.00821526 0.588313 0.308503 0.217563 0.106789 -0.0210956 -0.231465 0.0391195 0.135158 0.321092 -0.0476373 0.144039 -0.175759 0.0784843 -0.211238 -0.240596 -0.154111 0.00529234 0.0824169
31799 0.514295 -0.745004 -0.320793 -1.73424 3.04813 1.12434 -1.04868 1.00763 0.0192807 0.464628 -0.643328 -0.624065 0.153055 0.0206038 0.658127 0.608751 0.130875 -0.0369287 -0.029294 -0.0270321 0.0164214 -0.0367115 0.253916 -0.143559 0.392692 -0.222372 0.0776957 -0.302238 -0.0507203 -0.359719 -0.0189667 -0.130492
32460 0.530019 -0.651142 -0.478617 -1.80734 3.38797 1.19849 -1.39164 1.37814 0.0566795 0.317936 -0.607418 -0.582563 0.352511 0.190471 0.596669 0.472129 0.0723077 0.0351032 0.0563323 -0.183724 -0.0557418 0.0785609 0.182544 0.00325004 0.257676 0.0461905 0.0189178 -0.105 -0.138381 -0.207996 0.0254646 -0.0643224
35487 0.359247 -0.522981 -0.358785 -1.70936 3.49862 1.54725 -1.57993 1.64315 -0.182686 0.332589 -0.392026 -0.45302 -0.0459533 0.119716 0.561626 0.562967 0.0461267 -0.116801 0.0257692 0.056053 0.181047 -0.0503397 0.0788392 -0.180937 0.222862 -0.147551 -0.153609 -0.197351 0.0979204 -0.141094 -0.0770471 -0.138764
31331 0.390455 -0.524448 -0.343994 -1.71557 3.5779 1.43748 -1.65633 1.57218 -0.168258 0.305137 -0.32611 -0.466394 -0.0320622 0.0249108 0.590994 0.41609 0.238666 -0.116807 -0.0605906 -0.103057 0.0294112 -0.154268 0.148319 -0.0897002 0.40774 -0.0414478 0.00176421 0.00623313 -0.0348043 -0.115325 0.00355344 -0.0499985
35617 0.611106 -0.577638 -0.398576 -1.85384 3.33774 1.49093 -1.36642 1.51983 -0.145336 0.475352 -0.385275 -0.400066 0.229392 -0.00855176 0.495236 0.820122 -0.00569172 0.121108 0.0332347 0.0975904 0.00548212 0.111688 0.189312 0.0239385 0.386395 -0.06545 -0.0967538 0.129897 0.0410362 -0.412903 0.119536 -0.103048
33873 0.421269 -0.537739 -0.358495 -1.67382 3.47976 1.60598 -1.61808 1.26896 -0.164653 0.31852 -0.3437 -0.48122 0.117282 -0.101524 0.606403 0.677879 -0.0809828 -0.0994362 -0.239339 0.178412 0.0719882 0.10947 0.0866398 -0.101077 0.41379 -0.0190051 -0.138008 0.0680133 -0.00971348 -0.365773 0.0306043 -0.348159
35375 0.409149 -0.312121 -0.201151 -1.67372 3.52534 1.50688 -1.36237 1.73328 0.0119783 0.290447 -0.395219 -0.372424 0.0160582 0.00497827 0.693436 0.420533 -0.0357167 -0.00841464 0.202588 0.169034 -0.1455 -0.0984955 -0.00940989 -0.0516162 0.18888 0.0750078 -0.189114 -0.0974694 0.0438441 -0.24087 0.104128 -0.185196
31652 0.540492 -0.713303 -0.323411 -1.76149 3.69942 1.29651 -1.48724 1.49745 -0.178073 0.398091 -0.60844 -0.558464 0.211756 0.241509 0.413082 0.641121 0.108169 0.232297 -0.151933 -0.107584 -0.0160699 0.0755712 0.271418 0.082277 0.297674 -0.0840169 0.0391316 -0.137055 0.148355 -0.151747 -0.0322274 0.135432
37069 0.395952 -0.56397 -0.456745 -1.82987 3.10068 1.16003 -1.01406 1.10004 -0.00208495 0.415176 -0.644928 -0.614787 0.180075 0.026997 0.638661 0.618783 0.246938 0.0267447 -0.0499137 -0.0100298 -0.0595523 0.0593906 0.192815 -0.020542 0.39727 0.0161164 0.00323845 -0.387228 0.0144562 -0.365729 0.00459199 -0.208856
35816 0.239154 -0.760728 -0.482383 -1.74808 3.2544 1.25036 -1.13049 1.16615 0.00809205 0.34764 -0.689419 -0.591673 0.109687 0.0442677 0.658287 0.524487 0.182832 -0.038685 0.0351639 -0.0469194 -0.175785 -0.0353877 0.0629833 0.00910059 0.503749 -0.0336238 0.0325824 -0.236823 -0.0597673 -0.379643 0.0688568 -0.244977
31575 0.406824 -0.63123 -0.446354 -1.73808 3.50417 1.53381 -1.44188 1.69083 -0.0174148 0.328122 -0.661391 -0.432888 0.161237 -0.017107 0.429587 0.60738 0.121753 -0.0292944 0.0676354 -0.120291 -0.0853666 0.320911 0.30714 0.0126165 0.489294 0.0366231 -0.0771834 -0.0151776 -0.18319 -0.253443 0.245479 0.028643
35022 0.630235 -0.814158 -0.459978 -1.44643 2.98382 1.16083 -0.83622 1.08731 0.056224 0.455543 -0.39599 -0.442843 0.115633 -0.169037 0.808447 0.530701 0.216943 -0.152162 0.022928 -0.0808627 -0.122769 -0.0263961 0.345393 0.00462882 0.544381 -0.114995 0.00561911 -0.466093 -0.012308 -0.440498 0.181697 -0.3333
35189 0.457001 -0.58525 -0.39388 -1.71105 3.2024 1.22029 -1.22091 1.22785 0.0541946 0.514239 -0.567499 -0.518212 0.14705 0.135048 0.541382 0.653226 0.07758 0.0663509 0.131227 -0.158469 0.010479 -0.00877949 0.264794 -0.0412557 0.483065 -0.148411 0.0763446 -0.163063 -0.0890547 -0.251104 0.118411 -0.14078
33951 0.64269 -0.545305 -0.382546 -1.69724 3.63246 1.22459 -1.36664 1.44805 0.154533 0.391641 -0.609631 -0.329388 0.162908 -0.0711958 0.559783 0.483323 0.115851 -0.0349307 -0.131869 -0.0968129 -0.158906 0.0740595 0.459098 0.0392782 0.279289 -0.102682 -0.0288055 -0.151335 -0.0309113 -0.271651 -0.0290073 -0.23416
35721 0.366528 -0.447348 -0.260621 -1.5986 3.5773 1.60268 -1.38258 1.69793 0.204385 0.110764 -0.301712 -0.500478 0.0864058 -0.0383541 0.615575 0.448741 0.0786502 0.0632841 0.147167 -0.2047 -0.0690995 0.044093 0.0298224 0.0511372 0.246371 -0.101256 0.186717 -0.18147 -0.148869 -0.431857 -0.00959107 0.0547943
36116 0.399958 -0.660754 -0.423887 -1.58674 3.55912 1.28252 -1.4215 1.40779 0.0167864 0.177011 -0.73924 -0.721497 0.235596 0.187362 0.57626 0.355242 0.0799325 -0.0165925 -0.348692 0.0366536 -0.110895 -0.145085 0.112288 0.0717354 0.145526 -0.0792164 0.11632 -0.115004 0.08555 -0.591296 -0.124501 0.0398419
33652 0.294482 -0.614517 -0.459588 -1.7476 3.56446 1.49743 -1.55738 1.43114 -0.0482681 -0.000453174 -0.778412 -0.572015 0.187803 0.121405 0.525825 0.474267 0.0757022 0.14942 -0.199358 -0.125502 -0.154347 -0.14611 0.234139 0.00632136 0.269177 -0.0565311 0.074808 0.0356834 0.217473 -0.286376 -0.00840784 0.0054853
35742 0.465744 -0.533546 -0.421662 -1.77938 3.62545 1.48711 -1.43522 1.69703 0.211163 0.302475 -0.667782 -0.574193 0.171097 0.12894 0.435 0.448377 0.0358887 0.0704096 0.0795554 0.0196472 0.110776 -0.0560148 0.298458 -0.00086937 0.457293 -0.0297319 0.141063 -0.0363633 0.0861848 -0.150482 -0.0193094 0.0325956
33797 0.498987 -0.648015 -0.310073 -1.80841 3.73022 1.56733 -1.57347 1.6345 0.0819403 0.245971 -0.844968 -0.252055 0.0741755 0.0901482 0.558647 0.413612 0.203028 -0.0301332 -0.159162 -0.0231802 -0.0310639 0.0659005 0.278109 -0.0733846 0.333955 -0.150624 0.130421 -0.143795 0.236061 -0.426611 0.0401848 0.182242
32036 0.552376 -0.761837 -0.382725 -1.59258 3.02895 1.41046 -0.932552 1.03925 -0.221076 0.346911 -0.593631 -0.641509 -0.0234957 -0.0851862 0.793238 0.691429 0.219051 -0.0766687 0.108973 0.00397884 -0.0915752 0.0390132 0.14539 -0.113793 0.500737 -0.122787 0.00802825 -0.255801 0.0114803 -0.44109 0.180945 -0.302397
35930 0.422792 -0.564906 -0.336841 -1.64591 3.2125 1.51613 -0.970388 1.40632 -0.269417 0.360045 -0.529942 -0.65472 -0.175493 -0.222479 0.516907 0.521682 0.276698 -0.245007 0.114063 -0.0166345 -0.120358 0.0780191 0.0058902 -0.154471 0.350651 -0.198401 -0.104857 0.0205447 -0.0647543 -0.195126 0.210797 -0.339439
36905 0.23743 -0.517369 -0.532492 -1.62417 3.51675 1.56789 -1.23769 1.66908 -0.136732 0.315599 -0.217142 -0.569358 -0.176162 -0.116439 0.521421 0.574701 0.260516 -0.251229 -0.0089664 -0.033067 0.0682475 -0.0906758 0.145446 -0.166787 0.1322 -0.0299259 -0.0220934 0.0859435 0.0226719 -0.167532 0.0347082 -0.412877
32561 0.428183 -0.521622 -0.292569 -1.63514 3.647 1.42287 -1.43212 1.69318 0.242336 0.102531 -0.231986 -0.559745 -0.0166093 -0.0748725 0.485028 0.515271 0.362404 -0.115499 0.0232921 0.0690144 -0.0754404 -0.0531586 0.103787 0.0123269 0.10359 -0.136928 0.154246 -0.352622 -0.00204926 -0.262319 0.161666 0.0159982
35998 0.437091 -0.674896 -0.569579 -1.79961 3.30335 1.39272 -1.24307 1.37955 0.0968649 0.444928 -0.607934 -0.63132 0.0312897 0.0630907 0.550444 0.471658 0.271249 0.1067 -0.0194227 -0.133115 -0.0459838 0.0323799 0.341661 -0.0995745 0.357199 0.0849308 -0.015758 -0.247753 -0.117621 -0.139601 0.0822745 -0.33097
566604 0.398672 -0.480157 -0.357548 -1.29475 2.0957 0.984797 -0.677846 0.887399 0.0263023 0.273332 -0.356072 -0.51672 0.0508959 -0.0690506 0.480707 0.407509 0.0783916 0.12579 0.035655 -0.051445 0.080087 0.0423426 0.144906 -0.0171463 0.249029 -0.0113888 0.134825 -0.303942 -0.0458164 -0.331599 0.0516622 -0.20576
33090 0.698834 -0.537408 -0.314523 -1.42569 3.32324 1.5228 -1.40721 1.97757 0.173571 0.219245 -0.233594 -0.625519 0.149359 -0.0960961 0.551347 0.479201 0.0852721 0.235912 0.145539 0.0889227 0.27214 0.0137906 0.0987922 0.14362 0.232613 0.0173546 0.31574 -0.3567 -0.0348769 -0.615718 0.0890133 -0.286955
36440 0.652093 -0.554056 -0.508085 -1.83375 3.37851 1.28198 -1.19995 1.75808 0.135296 0.315016 -0.224916 -0.285535 0.202276 -0.0324299 0.686724 0.63257 0.119854 0.10569 0.0524644 0.166291 0.362061 0.154569 0.283617 -0.0383215 0.0685936 0.0649643 0.244035 -0.183071 0.162094 -0.332743 0.0768683 -0.389328
31675 0.367938 -0.528762 -0.519842 -1.80164 3.0821 1.40704 -1.21618 1.73759 -0.0399302 0.288685 -0.329946 -0.549923 -0.0177248 -0.205121 0.664369 0.517511 -0.0188207 -0.0384408 0.232662 -0.0183011 0.141294 0.00794908 0.15208 -0.0993488 -0.0307889 -0.247694 -0.0601037 -0.00347185 -0.102569 -0.289033 0.12919 -0.268674
36095 0.132435 -0.520669 -0.719101 -1.84228 3.38247 1.43687 -1.32035 1.90348 -0.0483914 0.486986 -0.184448 -0.207339 0.00166113 0.0196635 0.940571 0.115656 0.251639 0.0720256 -0.0896639 -0.203043 0.04761 -0.0216475 0.122221 -0.194327 0.325429 -0.168174 0.0974854 0.0141468 -0.135362 -0.158821 0.0858546 -0.194018
34269 0.285511 -0.682127 -0.692453 -1.94866 3.15919 1.33712 -1.09418 1.15844 -0.0512142 0.483559 -0.0483468 -0.297521 -0.0205413 -0.113359 0.848498 0.515623 0.174795 0.206067 0.141402 -0.15767 0.193552 0.0649944 0.220192 0.216375 0.034415 -0.0866397 0.420643 -0.142708 -0.201609 -0.240497 0.319492 -0.0949202
31229 0.598208 -0.792358 -0.281883 -1.53257 3.57703 1.71456 -1.55141 1.324 -0.0463829 0.243576 -0.520659 -0.305134 -0.0511867 0.0626585 0.562203 0.663944 0.249887 -0.201844 -0.0937711 0.0462755 -0.0238033 0.193406 0.159459 -0.0509682 0.256752 -0.136004 0.0485422 -0.190673 -0.0704146 -0.252735 0.223653 -0.117258
35838 0.623506 -0.709876 -0.46351 -1.82589 3.40973 1.3613 -1.32792 1.20156 -0.0331837 0.344374 -0.604327 -0.68253 0.238677 -0.0702257 0.578662 0.778891 0.188039 0.0678977 0.12821 -0.116074 -0.0253319 0.0886684 0.262456 0.113528 0.35838 -0.0713633 0.0276227 -0.283591 -0.0276163 -0.203064 0.151917 -0.11677
35193 0.447911 -0.531218 -0.39472 -1.91327 3.23098 1.44915 -1.49323 1.3983 -0.0879105 0.271013 -0.374999 -0.627591 0.0809798 -0.233934 0.643304 0.5689 -0.051708 0.0462393 -0.224697 0.25174 0.0304232 0.0430295 0.191661 -0.00349275 0.197266 -0.138237 -0.238329 -0.106949 0.161653 -0.271663 -0.0576375 -0.202972
36114 0.567931 -0.607351 -0.469121 -1.81812 3.13332 1.37525 -1.20248 1.37095 -0.135728 0.387307 -0.236221 -0.542762 0.0458586 -0.0191999 0.825035 0.648674 -0.118389 -0.0844736 0.132238 0.0859544 0.144809 -0.0281381 0.170453 -0.231056 0.0925159 -0.138002 -0.166246 -0.0385779 -0.148187 -0.38853 0.222101 -0.32269
34528 0.487842 -0.373739 -0.418272 -1.64972 3.42636 1.48768 -1.5221 1.61037 -0.181206 0.323623 -0.254148 -0.474798 -0.0442227 -0.061586 0.673049 0.456141 0.0160502 -0.126316 0.179696 -0.108519 0.150982 -0.17934 0.142975 -0.143574 0.333226 -0.118582 -0.102422 -0.157315 -0.0609133 -0.178066 -0.0955672 -0.125823
31610 0.409529 -0.316497 -0.425293 -1.66526 3.52083 1.53004 -1.48472 1.5971 0.0459919 -0.0890484 -0.436501 -0.55573 0.0523008 -0.25777 0.589306 0.53039 0.235976 -0.244897 -0.0509994 0.140285 -0.100247 0.128457 0.215767 0.103263 0.163208 0.18874 0.130786 -0.401878 -0.249218 -0.272692 0.121744 -0.124566
36930 0.61901 -0.585496 -0.478335 -1.68113 3.6685 1.9907 -1.64095 1.75856 -0.432964 0.425672 -0.499529 -0.154119 0.0101177 -0.2542 0.516348 0.523565 0.544244 -0.198788 -0.191896 -0.178771 0.109642 0.452118 -0.235472 0.407153 0.526788 0.183588 0.154093 -0.0894037 -0.330068 -0.241388 0.271334 -0.0944875
34321 0.528014 -0.566271 -0.456232 -1.81766 3.649 1.31143 -1.61521 1.54729 -0.0967804 0.276956 -0.522106 -0.61267 0.0448563 0.168079 0.460792 0.454528 0.281367 0.13317 -0.0336994 -0.191776 0.0265809 0.305002 0.252528 -0.171053 0.160612 -0.00459863 -0.025594 -0.0438375 0.112154 -0.178586 0.0996733 -0.0678604
30937 0.539511 -0.697723 -0.404927 -1.62327 2.70494 1.21283 -0.917258 1.12118 -0.131084 0.424323 -0.515859 -0.668826 0.0332141 -0.00398661 0.604601 0.630115 0.0779304 -0.0206808 0.0537905 -0.0822968 -0.020012 0.0494514 0.242283 -0.063482 0.473135 -0.112052 -0.0253509 -0.272976 -0.0486399 -0.351973 0.125519 -0.270648
31336 0.520195 -0.644526 -0.438601 -1.64487 3.66668 1.30004 -1.41206 1.5786 0.144833 0.464972 -0.364237 -0.386701 0.206525 -0.102726 0.560436 0.565464 0.149492 -0.0739787 -0.0372057 -0.0711146 -0.0645143 -0.0709943 0.241231 0.0174277 0.41497 -0.0455166 -0.0134557 -0.176105 -0.00242213 -0.159211 0.111985 -0.0276776
31964 0.0683823 -0.36085 -0.557087 -1.86518 3.42525 1.20608 -1.31588 1.31952 0.218469 0.352416 -0.566933 -0.344489 0.120751 0.222763 0.716036 0.526644 0.164422 0.0221402 0.146556 -0.109115 -0.133428 -0.0790933 0.112216 0.138293 0.319005 0.301982 0.143076 -0.364855 -0.154874 -0.187716 0.115587 -0.464431
35119 0.183698 -0.207871 -0.53084 -1.7161 3.53094 1.41249 -1.20089 1.30544 0.199309 0.208259 -0.614476 -0.148 0.130457 0.280781 0.889475 0.447032 0.193615 -0.156715 0.00734947 -0.0304887 -0.264088 -0.102822 0.13781 -0.149728 0.445791 0.282866 0.0972691 -0.303377 -0.0202091 -0.124923 -0.0969907 -0.312874
31846 0.427852 -0.54662 -0.354351 -1.67987 3.34628 1.48006 -1.20473 1.26626 0.0294309 0.280946 -0.601589 -0.662299 0.121796 0.0814548 0.584451 0.513957 0.200801 0.022819 -0.0248245 -0.209086 -0.13651 -0.0426807 -0.003535 -0.0268255 0.405175 0.0427305 0.21884 -0.229474 -0.0992307 -0.410711 0.051906 -0.203586
32162 0.53789 -0.646298 -0.495266 -1.87978 3.3494 1.3425 -1.2383 1.24686 -0.0280963 0.531844 -0.720553 -0.531992 0.23538 0.188341 0.642919 0.628454 0.181511 0.0920577 0.172056 -0.114184 -0.0637952 0.0192522 0.245236 -0.0581679 0.480192 0.0553981 0.0219907 -0.0651215 0.0997835 -0.0540909 0.0661953 -0.0696953
33171 0.58898 -0.497352 -0.449366 -1.83668 3.21269 1.42651 -0.803067 1.21603 0.040623 0.438456 -0.562942 -0.674938 -0.0484237 -0.184106 0.570111 0.603953 0.115378 -0.0674571 0.103225 -0.101662 -0.0442396 -0.0465453 0.253806 -0.0526337 0.323761 -0.0497345 -0.133765 -0.174981 0.0354086 -0.344965 -0.00792469 -0.255006
33136 0.45098 -0.587265 -0.388213 -1.87429 3.44305 1.37434 -1.47044 1.5966 -0.197352 0.412852 -0.454459 -0.280428 0.203732 0.0234846 0.708315 0.50619 0.0849199 0.226334 -0.152759 -0.135785 -0.10268 0.255429 0.205996 -0.135762 0.331209 -0.0624304 -0.126792 -0.0691531 -0.168934 -0.167895 0.0157987 0.0743246
32024 0.38473 -0.483503 -0.320723 -1.8234 3.65073 1.38696 -1.47683 1.69521 -0.0070122 0.353796 -0.497686 -0.433065 0.14672 0.197881 0.385586 0.608165 0.230797 0.323258 -0.0152943 -0.113139 -0.118494 0.00983072 0.295229 0.103022 0.300796 0.0126677 0.120521 0.0129272 -0.165688 -0.2463 0.14927 0.0166709
31289 0.305507 -0.513429 -0.443121 -1.84778 3.43568 1.39165 -1.42207 1.52579 -0.0542057 0.334447 -0.337546 -0.561375 0.140878 0.172838 0.726035 0.411709 0.143369 0.214665 -0.0406285 -0.160544 0.0864414 0.0711166 0.174678 0.0386639 0.111783 0.0566996 0.150145 -0.131787 -0.192766 -0.252345 0.230724 -0.244144
35717 0.264445 -0.424129 -0.73918 -1.95374 3.28106 1.46792 -1.31645 1.79455 -0.148623 0.32817 -0.261876 -0.414331 0.183398 -0.0898707 0.615946 0.496794 0.285577 0.0749686 0.100831 0.00201576 0.250012 0.210039 0.070084 0.0589588 0.214854 0.253946 0.170021 -0.260336 -0.0358842 -0.101066 0.195014 -0.223122
35222 0.579513 -0.371261 -0.322821 -1.67066 3.37154 1.64003 -1.2963 1.72745 0.126889 0.214259 -0.396339 -0.646059 0.0599838 -0.271123 0.562327 0.348792 0.174716 0.262492 -0.0631172 0.01955 0.373824 0.0559273 0.077495 0.130799 -0.0332864 0.0225392 0.259184 -0.534269 -0.0593373 -0.539138 0.075925 -0.197477
36237 0.416327 -0.448827 -0.56492 -1.80728 3.3036 1.33998 -1.20416 1.41256 -0.141432 0.422871 -0.206547 -0.508554 0.051799 0.0482705 0.73549 0.543804 0.0012083 0.169449 0.0177542 -0.0192878 0.128382 0.0768365 0.290026 0.036529 0.278087 0.122746 0.092741 -0.205659 -0.139842 -0.203234 0.133172 -0.0506943
32225 0.28363 -0.553004 -0.524528 -1.65983 3.62006 1.37681 -1.31511 1.73958 0.036446 -0.0437559 -0.448541 -0.313092 -0.103355 0.00905622 0.627274 0.579521 0.193446 -0.0377208 0.0174283 0.0294903 -0.15197 -0.0391412 0.221765 0.115233 0.220666 -0.156859 0.0675885 -0.29741 -0.103723 -0.0396817 0.0329118 -0.180734
31859 0.64791 -0.539687 -0.353685 -1.71412 3.52942 1.41853 -1.37971 1.68479 -0.102095 0.329871 -0.408858 -0.139993 0.0404057 0.0520424 0.57248 0.670293 -0.019423 -0.0951756 0.234416 -0.0280359 0.122404 0.0653257 0.218235 -0.362624 0.312671 -0.154815 -0.0941604 -0.21728 -0.102108 -0.220897 0.119904 -0.0672923
32185 0.231406 -0.59208 -0.324234 -1.81699 3.28343 1.62979 -1.22675 1.60224 -0.0482605 0.0730195 -0.45323 -0.27892 -0.0199744 0.0598352 0.455694 0.708327 0.152588 -0.285564 0.0104707 0.0216254 -0.0362523 0.00307367 0.221966 -0.149563 0.132418 -0.147031 0.0152153 0.100262 0.0889302 -0.33456 0.207167 -0.307009
36894 0.497599 -0.718554 -0.447332 -1.74232 3.13184 1.34693 -1.13739 1.30615 -0.132478 0.452835 -0.458452 -0.740798 -0.0211218 0.0141659 0.585532 0.512067 0.0910135 -0.0125462 0.0563795 0.0534982 0.120846 0.0148507 0.23793 0.0289319 0.562898 -0.161365 -0.0987948 -0.213622 -0.00465025 -0.392409 0.124315 -0.18153
33665 0.499868 -0.477829 -0.203716 -1.76216 3.47634 1.51399 -1.43069 1.80128 0.148208 0.169458 -0.312848 -0.514138 0.00679884 -0.187938 0.618734 0.398297 0.105905 0.0652696 0.184971 0.159999 0.314084 0.111103 0.0258115 0.0258513 0.15415 -0.0818645 0.137507 -0.383245 0.0402743 -0.441479 -0.0268996 0.00858442
31139 0.340745 -0.490974 -0.440988 -1.78482 3.38512 1.54831 -1.25271 1.78319 0.0203651 0.0237349 -0.465732 -0.500689 0.420066 -0.405633 0.556633 0.347137 0.190957 -0.120095 -0.284584 -0.167008 0.00210227 0.0849068 0.292935 -0.0589022 0.0252875 -0.087478 0.0913028 -0.295812 0.196377 -0.282359 -0.0694611 -0.114707
33049 0.386828 -0.799265 -0.458501 -1.53836 3.45682 1.66125 -1.40374 1.51655 0.0276798 0.410121 -0.18207 -0.403292 -0.0122997 -0.0825186 0.734177 0.432545 0.175135 0.13166 0.107484 0.0750491 -0.0602449 -0.0466815 0.179506 0.0139384 0.152603 -0.128051 0.32387 -0.22559 -0.00514378 -0.284879 0.141982 -0.0851234
33662 0.203093 -0.535344 -0.354445 -1.65937 3.54193 1.79303 -1.27355 1.86684 -0.107089 0.403343 -0.22495 -0.452136 -0.185033 -0.000737298 0.636775 0.420133 0.151217 -0.249484 0.211535 0.157626 0.04842 -0.0824137 0.227565 -0.0495496 0.248838 -0.260655 -0.0940815 0.0338716 0.214003 -0.141899 0.107813 -0.231772
32643 0.646438 -0.692573 -0.503447 -1.69978 3.41571 1.53554 -1.07557 1.27924 0.0107768 0.354441 -0.472029 -0.510865 -0.0232827 0.0984635 0.598917 0.616131 0.145976 -0.0379882 0.0601459 -0.0448004 -0.0519319 0.106269 0.377133 -0.188393 0.507718 -0.0631864 0.012594 -0.311438 -0.0174989 -0.302429 0.00139743 -0.286634
32126 0.587851 -0.592867 -0.402285 -1.89208 3.46899 1.25319 -1.40653 1.34567 -0.0274485 0.58626 -0.460082 -0.394997 0.136219 0.179805 0.502117 0.639409 0.145477 0.178471 0.0568561 -0.0297334 0.0767445 0.0743247 0.260772 -0.101619 0.360902 -0.106401 0.191624 -0.125244 -0.098373 -0.20032 0.148311 -0.142358
36110 0.261703 -0.500618 -0.250587 -1.71586 3.64062 1.47044 -1.563 1.71977 -0.0675268 0.194363 -0.340817 -0.275004 -0.0118714 0.143081 0.468179 0.604732 0.00942165 0.0964889 0.102159 0.0230152 -0.0508176 -0.0490794 0.0601443 -0.0497531 0.302362 -0.0888224 -0.0597859 -0.225958 -0.110807 0.0461407 -0.0547603 -0.0174031
34340 0.364499 -0.513113 -0.421999 -1.76592 3.30535 1.43555 -1.17202 1.22047 -0.0856418 0.423898 -0.516031 -0.521336 0.0793999 0.0480757 0.648484 0.547328 0.216381 -0.0618186 -0.0473092 -0.192517 -0.141078 -0.00238111 0.332598 -0.14539 0.493417 -0.154084 -0.0191907 -0.280813 -0.0914014 -0.278845 0.0356524 -0.185362
34329 0.377434 -0.566636 -0.689779 -2.04683 3.20738 1.24645 -1.30528 1.57841 0.092231 0.248694 -0.0619013 -0.403876 0.0574146 -0.100195 0.761693 0.615014 0.0805658 0.193988 0.118781 -0.0340375 0.115104 0.132172 0.0662771 0.0509676 0.0075108 0.32626 0.354075 -0.366619 -0.0830931 -0.13614 0.125663 -0.280238
33102 0.286661 -0.544065 -0.474422 -1.86471 3.38059 1.54048 -1.55737 1.59822 0.252636 0.411908 -0.443256 -0.47506 -0.0749475 -0.0334656 0.687468 0.367971 0.102773 0.0670099 0.0754521 -0.277972 0.015948 0.0280141 0.214275 0.125404 0.331179 -0.143284 0.0164141 -0.0803911 -0.257962 -0.110162 0.347467 -0.0677609
35013 0.535184 -0.516682 -0.32731 -1.67746 3.39072 1.55952 -1.21714 1.34013 -0.182735 0.312248 -0.371951 -0.627954 0.0874685 -0.208329 0.735808 0.568683 -0.0359276 -0.225979 -0.039235 0.198301 -0.0573774 -0.0765043 -0.0723473 -0.19617 0.264493 -0.108915 -0.308973 -0.150328 0.114124 -0.390675 -0.0563503 -0.379109
37056 0.456333 -0.656429 -0.46655 -1.55695 2.83564 1.1919 -0.834453 1.04389 -0.143065 0.318437 -0.415554 -0.656488 0.104044 -0.138206 0.721898 0.477644 0.145402 -0.0523501 -0.0542345 -0.0288878 -0.0551797 0.0561054 0.217467 -0.0240568 0.396949 -0.0319121 -0.0398853 -0.415676 -0.0784036 -0.384215 0.223145 -0.400941
31160 0.207646 -0.583991 -0.494572 -1.75877 3.56098 1.15792 -1.33337 1.73252 -0.187686 0.309152 -0.156569 -0.375944 0.15236 -0.0186642 0.544753 0.537863 0.157914 0.239382 -0.0522614 0.105939 0.0507417 0.132571 0.253775 0.0831404 0.126224 0.0496517 -0.0205144 -0.322989 -0.0254766 -0.191934 0.0696616 -0.130098
35288 0.221805 -0.499373 -0.577903 -1.61682 3.55747 1.30672 -1.52815 1.58192 -0.052335 0.202757 -0.138483 -0.438129 0.00540444 -0.0411859 0.685255 0.379619 0.0164991 -0.0417189 -0.107725 -0.214581 -0.0778798 0.12749 0.0637564 0.145513 0.319468 0.120182 0.137493 -0.209988 0.124015 -0.256251 0.147468 0.0761747
31187 0.599786 -0.629076 -0.380512 -1.80072 3.53234 1.2904 -1.34186 1.43463 0.00401917 0.321366 -0.413963 -0.490191 0.13852 -0.0743249 0.62515 0.42349 0.373822 -0.158731 0.0686013 0.043953 -0.0910559 0.130598 0.350802 0.0217844 0.240299 -0.057743 -0.284073 -0.483706 -0.177222 -0.075436 0.230591 0.100934
31921 0.296715 -0.528295 -0.442395 -1.79008 3.61556 1.51555 -1.49013 1.54355 0.0571436 0.219066 -0.367937 -0.274105 -0.0245685 0.0969515 0.696046 0.44136 0.33612 -0.0983572 0.073227 0.123277 -0.0118291 0.167276 -0.0505077 -0.00695177 0.214933 0.0368815 0.257734 -0.264096 -0.108074 -0.206656 0.21262 -0.0602214
32868 0.193549 -0.348816 -0.483934 -1.7094 3.48887 1.16661 -1.19077 1.219 0.102591 0.485654 -0.435219 -0.425984 0.159653 0.20579 0.836679 0.38951 0.107488 0.068942 -0.0256662 -0.152389 -0.0922526 -0.0614024 0.0296864 0.00399356 0.283699 0.0868913 0.0645056 -0.118703 -0.130804 -0.328964 0.2069 -0.375105
31789 0.197694 -0.416202 -0.465387 -1.91729 3.40762 1.43057 -1.21385 1.21598 0.30682 0.148021 -0.539271 -0.373751 0.18864 0.117283 0.923919 0.332847 0.364697 -0.23623 -0.0928842 -0.0226816 -0.196633 -0.105631 0.0650505 0.0702891 0.144198 0.133951 0.0360482 -0.277422 -0.13893 -0.27412 0.0661863 -0.293678
35066 0.570709 -0.670439 -0.307807 -1.80868 3.37686 1.42082 -1.40035 1.21043 -0.0542536 0.396972 -0.516054 -0.489107 0.114978 -0.0665259 0.648086 0.674134 0.122412 -0.058259 0.0180083 0.214458 0.0368304 0.100375 0.134591 -0.0117959 0.443818 -0.0844111 -0.044457 -0.206878 0.141174 -0.202246 0.0850013 -0.1504
33099 0.23118 -0.441512 -0.475237 -1.7207 3.46988 1.44683 -1.08546 1.52306 -0.0713592 0.11794 -0.560444 -0.595319 -0.046913 -0.0119491 0.587057 0.530241 0.0340168 -0.137549 -0.0658036 -0.113099 -0.0462039 -0.0466711 0.169266 -0.217717 -0.031657 -0.24233 -0.131962 -0.0388666 0.0329586 -0.226217 -0.0569338 -0.068833
31266 0.33825 -0.313439 -0.480618 -1.70976 3.43556 1.51659 -1.31183 1.73108 0.0646144 0.2186 -0.443293 -0.389203 0.122779 -0.144842 0.380127 0.632948 0.290471 -0.0754023 -0.0494756 -0.234591 -0.00341367 -0.0381629 0.125799 -0.242446 0.306361 0.179241 -0.284847 -0.266347 -0.0106915 -0.228508 0.0313174 -0.12677
35931 0.631783 -0.837714 -0.258502 -1.54384 3.5298 1.46935 -1.27554 1.46952 0.0388831 0.187612 -0.451443 -0.503702 0.172354 0.0985834 0.602203 0.620764 0.121147 -0.0701944 -0.190121 0.0127661 -0.190701 0.262185 0.213622 0.0101234 0.25867 0.0371153 -0.123039 -0.0854363 -0.0499503 -0.337349 0.0619619 -0.20469
35777 0.328728 -0.523995 -0.346465 -1.43142 3.33322 1.61814 -1.06517 1.36695 -0.172899 0.191065 -0.658946 -0.703627 -0.0143729 -0.111964 0.538583 0.460552 0.343756 -0.0971959 0.0366909 -0.165518 -0.203309 0.025941 0.0299216 -0.0368136 0.225322 0.0655069 -0.030244 -0.143509 -0.0153018 -0.288295 -0.0268216 -0.201986
31247 0.36501 -0.616409 -0.412402 -1.40012 3.37792 1.83806 -1.20795 1.44165 0.0441195 0.0971664 -0.651408 -0.700711 0.0180576 -0.316924 0.592266 0.299673 -0.0172305 0.00339478 0.127014 -0.177369 0.18283 0.129241 0.047985 0.106837 0.108795 0.0629974 0.112723 -0.34378 -0.00232858 -0.459712 -0.163238 -0.256099
31554 0.566681 -0.568664 -0.246675 -1.38977 3.39725 1.57058 -1.23969 1.46249 0.0070571 0.186544 -0.300425 -0.648723 0.116272 -0.225765 0.689327 0.335292 0.0505708 0.233801 0.0503871 -0.288946 0.140549 0.0693841 -0.00796112 0.185206 0.19308 0.115717 0.202995 -0.557904 -0.0443968 -0.639156 -0.0235737 -0.234852
31531 0.604969 -0.615685 -0.460265 -1.7277 2.85781 1.4794 -0.93673 1.45605 -0.0772066 0.370461 -0.510036 -0.744753 0.0519094 -0.188407 0.601539 0.555665 0.113933 0.139944 0.0941278 -0.227123 0.0694891 0.127668 0.19552 0.0903461 0.34338 0.0224705 0.164352 -0.484268 -0.132902 -0.443812 0.154522 -0.290795
31747 0.58351 -0.444194 -0.298093 -1.77237 3.20429 1.40773 -1.37316 1.29579 0.0502523 0.34849 -0.17636 -0.501613 0.15684 -0.014963 0.678895 0.686166 -0.0249968 -0.0221998 0.0628318 -0.0173431 0.220046 0.12751 0.0376969 -0.0054464 0.227819 -0.0584314 0.167518 -0.335495 -0.0997435 -0.384458 0.0499281 -0.28245
31529 0.451072 -0.357369 -0.4618 -1.70917 3.49464 1.52519 -1.6272 1.73846 -0.282355 0.234605 -0.37546 -0.216621 -0.0891931 0.0662744 0.570628 0.546232 0.127398 0.0284397 0.0406977 0.164021 0.129731 -0.156964 0.161181 -0.163361 0.200893 0.0117109 0.174629 -0.0545884 -0.130425 -0.0223295 0.0941896 -0.186369
35140 0.572277 -0.720679 -0.358127 -1.83436 3.26211 1.4458 -1.42835 1.19672 -0.116987 0.458823 -0.368311 -0.58264 0.0491334 0.0519015 0.795249 0.719503 -0.0104589 0.00227062 -0.0123952 0.100293 0.119858 0.0197768 0.148833 -0.0493322 0.389746 -0.128009 -0.109369 -0.0964723 0.0250951 -0.402296 0.167865 -0.305131
35831 0.511242 -0.597256 -0.389926 -1.73698 3.55673 1.48437 -1.51571 1.64168 -0.00616801 0.333989 -0.430304 -0.573213 0.139337 0.0164095 0.428247 0.514841 0.0226739 0.0466525 0.0153468 0.0281044 -0.020871 -0.0289205 0.252339 -0.0295412 0.256909 0.00191826 -0.110995 0.173654 -0.106979 -0.372863 0.0952837 -0.0170963
34110 0.248373 -0.732502 -0.37581 -1.73804 3.7041 1.27341 -1.34019 1.85998 0.194246 0.405974 -0.342972 -0.67826 0.0305984 -0.08445 0.530636 0.433472 0.224073 -0.109193 0.285256 -0.106081 0.0372185 -0.136436 0.415009 0.274855 0.380128 -0.0528729 -0.361705 0.00857632 0.0103799 -0.1517 0.101686 -0.0405146
32345 0.319046 -0.618776 -0.463526 -1.70202 3.53849 1.44212 -1.37005 1.82395 -0.0839105 0.270998 -0.531504 -0.216016 -0.0393637 -0.0329355 0.655932 0.534468 0.0573555 0.0551072 0.071905 -0.0202046 -0.18899 0.0432409 0.0625238 -0.151145 0.382164 0.00656506 0.0770012 -0.0852529 -0.0560869 -0.280544 -0.0423512 -0.106372
36143 0.356535 -0.454633 -0.346657 -1.84398 3.47125 1.53109 -1.30336 1.57302 0.086395 0.436706 -0.701139 -0.48668 0.0150195 -0.109193 0.564788 0.516295 0.314326 -0.0695562 -0.0279507 0.046944 -0.0809915 -0.0606456 0.0980275 0.043615 0.423657 -0.201108 -0.0967305 -0.185347 -0.0528106 -0.363228 0.0747867 -0.160888
35469 0.464539 -0.651725 -0.361663 -1.80898 3.37021 1.3247 -1.19274 1.28425 0.0677998 0.284968 -0.656277 -0.710823 0.0623652 0.0516595 0.57933 0.673156 0.136235 -0.0252663 0.0802257 -0.0641029 -0.127572 0.00540336 0.218173 -0.00433667 0.470261 -0.0911281 0.00556119 -0.262045 -0.0614524 -0.306958 0.108051 -0.227161
30967 0.353453 -0.680397 -0.413662 -1.67478 3.53521 1.40678 -1.37428 1.50911 0.115618 0.0869326 -0.604538 -0.555594 0.197456 -0.0575678 0.560941 0.417305 -0.0537409 0.0124939 0.0644857 -0.0268584 -0.0803905 -0.00747053 0.160901 0.0679214 0.247216 -0.0417247 0.0769025 -0.132559 0.0286599 -0.171796 0.083466 0.0122675
32671 0.342815 -0.666534 -0.340619 -1.74922 3.45749 1.54804 -1.28599 1.47437 -0.11966 0.312431 -0.31342 -0.442935 0.038322 -0.0329035 0.591979 0.637319 0.387697 -0.0611045 -0.00603753 -0.156023 0.0857617 -0.0325859 0.360146 0.0208674 0.266498 -0.0340745 0.00475982 -0.171631 -0.0451159 -0.173573 0.0541679 -0.0633946
34914 0.257685 -0.651014 -0.351815 -1.77628 3.39623 1.49215 -1.12522 1.50393 0.0801837 0.168872 -0.474331 -0.328585 0.206759 0.0200691 0.694802 0.594866 0.263177 -0.189727 -0.140751 -0.0868996 -0.161135 0.103149 0.165968 -0.276241 0.309827 -0.0184872 -0.00170952 -0.23473 -0.107276 -0.202899 0.236135 -0.356069
33007 0.42886 -0.484834 -0.365117 -1.79648 3.22212 1.17795 -1.07492 1.27286 0.0952385 0.426027 -0.465162 -0.495494 0.163416 -0.0830034 0.621532 0.5389 0.273775 0.038124 0.0183175 -0.171702 -0.054836 -0.0304066 0.174908 0.0601164 0.359442 -0.0275025 0.120008 -0.22177 -0.0541261 -0.271516 0.085274 -0.189395
36587 0.349295 -0.655662 -0.438994 -1.64814 3.08183 1.29753 -0.946196 1.08468 -0.174233 0.317307 -0.548912 -0.766317 0.0699232 -0.0387121 0.685754 0.486976 0.149936 -0.133286 -0.0344637 -0.218828 -0.163898 -0.0515845 0.252057 0.0390497 0.306211 -0.0612587 -0.0146528 -0.329551 -0.134578 -0.369215 0.105006 -0.330576
34682 0.526207 -0.805863 -0.34839 -1.62688 3.49462 1.42614 -1.10779 1.59044 0.0234615 0.217557 -0.192765 -0.461204 0.153361 -0.22807 0.739821 0.433419 0.182684 -0.188537 0.00914386 0.00662068 -0.160954 -0.0440146 0.500336 0.180762 0.314144 -0.0219546 -0.144872 -0.233459 -0.0194476 -0.249937 0.209496 -0.227664
37006 0.343325 -0.681419 -0.397661 -1.39627 3.41731 1.43715 -1.17985 1.08445 -0.200673 0.115689 -0.403455 -0.693376 0.00240615 -0.214059 0.833151 0.264126 0.0366237 -0.32098 -0.104039 -0.136257 -0.456782 -0.119704 -0.0760169 0.179169 0.116645 0.131647 -0.163511 -0.385326 0.0222653 -0.430358 0.0744234 -0.276365
37021 0.222441 -0.478409 -0.424621 -1.33522 2.71864 1.18264 -0.852954 0.905455 -0.148946 0.181344 -0.508718 -0.814879 0.0386136 -0.102679 0.82497 0.490022 0.037114 -0.131796 -0.0194773 -0.109058 -0.1993 -0.106566 0.01665 0.0101757 0.229138 0.0577835 -0.0656007 -0.311354 -0.0703711 -0.351545 0.107865 -0.356959
31130 0.252113 -0.536621 -0.41308 -1.57254 3.62703 1.52799 -1.34507 1.48143 -0.12018 0.0927348 -0.464188 -0.628676 -0.0205211 -0.0179457 0.656339 0.372493 0.233512 -0.185861 0.0943212 -0.124264 -0.104196 -0.213345 0.0439737 0.132841 0.433192 -0.267421 -0.13778 -0.33554 0.0979834 -0.143824 -0.125532 -0.143973
32033 0.381932 -0.85313 -0.414889 -1.89975 3.23205 1.36239 -1.20284 1.25127 0.0750548 0.259325 -0.615726 -0.497447 0.0452995 0.115186 0.615018 0.733849 0.238809 -0.0466569 -0.0521943 0.127327 0.0393016 0.0904095 0.175333 -0.311711 0.275071 -0.160411 0.168653 -0.311713 -0.0263138 -0.356341 0.150187 -0.286878
33080 0.497113 -0.475689 -0.429076 -1.75164 3.60112 1.34831 -1.30902 1.67372 0.117649 0.328364 -0.2299 -0.495361 0.0460043 0.048163 0.597638 0.498563 0.356165 -0.0227049 -0.150687 0.0366605 -0.029905 0.133792 0.31179 -0.132201 0.290912 0.0720433 -0.123799 -0.230777 -0.0469306 -0.165538 -0.0865495 -0.0818912
32888 0.705557 -0.925291 -0.362888 -1.75247 3.20258 1.22818 -1.10787 1.22791 0.0814824 0.395417 -0.396772 -0.268157 0.200886 -0.0807137 0.821434 0.69882 0.179646 -0.197727 -0.0850402 0.157088 0.0127938 -0.0217444 0.386573 -0.118749 0.374886 -0.0201204 -0.0492479 -0.49468 -0.0114764 -0.305216 0.1972 -0.302025
31919 0.304965 -0.614062 -0.31554 -1.87705 3.53764 1.45755 -1.54402 1.5074 -0.117443 0.40981 -0.638282 -0.381574 0.19865 0.204999 0.544809 0.511875 0.142203 0.042631 -0.0726665 -0.0596929 0.00689373 0.227127 0.0736132 0.0687572 0.354863 -0.0592121 0.144139 -0.211372 0.195775 -0.176568 0.0124321 0.0213067
32898 0.588835 -0.534212 -0.519927 -1.8904 3.21871 1.26485 -1.33087 1.54327 -0.0835818 0.427454 -0.454352 -0.524965 0.218595 0.0536532 0.533094 0.632798 -0.00610923 0.05229 0.0196712 0.0585491 0.0531768 0.0183751 0.159475 -0.147288 0.262599 0.027407 -0.0900487 -0.0702516 0.0195827 -0.303447 0.0172429 -0.175091
33335 0.30832 -0.508909 -0.401554 -1.59624 3.55204 1.56276 -1.40324 1.68794 -0.102837 0.124977 -0.390966 -0.555372 -0.10257 -0.0500518 0.453269 0.499611 0.187201 -0.00739882 -0.0672687 -0.231128 -0.155494 0.0669635 0.201836 -0.036203 0.240353 -0.0367513 0.0491668 -0.272701 -0.196893 -0.143854 0.0530585 -0.100533
34055 0.697588 -0.606822 -0.318716 -1.61584 3.41047 1.49561 -1.27525 1.27315 -0.0181227 0.369494 -0.444704 -0.463811 0.0482492 -0.149883 0.64604 0.550161 0.00407119 -0.163131 -0.0181755 0.213699 0.0938044 0.0965942 0.115075 -0.163811 0.235144 -0.150692 -0.0798965 -0.148068 0.0727528 -0.173828 0.19532 -0.171908
36030 0.596392 -0.600985 -0.380492 -1.51038 3.38167 1.75912 -1.48192 1.74303 0.0466785 0.299256 -0.306878 -0.385995 -0.034485 -0.170027 0.539657 0.490534 0.224493 0.26183 0.280704 -0.0456403 0.0502298 0.106095 0.17257 0.0129103 0.180929 0.156999 0.347166 -0.208838 -0.0196683 -0.398688 -0.0519496 -0.247513
34232 0.525596 -0.813012 -0.490804 -1.80856 2.94033 1.42677 -1.06396 1.35893 0.0624529 0.426057 -0.203431 -0.546744 -0.0480778 -0.119884 0.706428 0.563516 0.121579 0.286175 0.119268 -0.156218 0.325929 0.0510527 0.193625 0.115302 0.190037 0.0410101 0.564416 -0.489794 -0.0718602 -0.497796 0.16367 -0.302241
32279 0.427472 -0.622518 -0.476795 -1.71614 3.12104 1.52815 -1.11504 1.48573 0.0939068 0.303584 -0.22509 -0.638075 -0.0945019 -0.214759 0.699978 0.439935 0.318444 0.174668 0.16091 -0.00376607 0.202523 0.0525355 0.14784 0.0635283 0.222323 0.0741531 0.348868 -0.510629 -0.123544 -0.311871 0.0424514 -0.35146
32051 0.347358 -0.530981 -0.45557 -1.55564 3.46441 1.70587 -1.23791 1.64598 -0.233985 0.019078 -0.335354 -0.723876 0.1533 -0.435025 0.522928 0.405025 0.171188 -0.206711 -0.15537 0.0397184 -0.0122121 -0.0494917 0.182786 0.0409931 0.212295 -0.0938605 0.232329 -0.515921 0.0057255 -0.188914 -0.294817 -0.132035
33065 0.476074 -0.79683 -0.455502 -1.67779 2.96183 1.1104 -1.10458 0.984209 -0.0300588 0.477812 -0.883711 -0.798884 0.153771 0.145501 0.564704 0.397971 0.0545259 0.03998 -0.0558785 -0.103431 -0.133128 -0.0535796 0.140502 -0.0386348 0.376725 -0.00185593 0.182203 -0.27746 0.106353 -0.509401 0.0490611 -0.0431117
31278 0.31043 -0.490862 -0.638816 -1.72482 3.52426 1.39958 -1.49274 1.48114 -0.167318 0.234754 -0.559804 -0.488645 -0.0753977 0.0425069 0.626229 0.37346 0.17876 0.0165896 0.01404 -0.0965471 -0.144583 -0.116285 0.165104 0.299319 0.112006 0.0204 0.0569595 -0.149574 -0.0460287 -0.144348 0.157099 -0.0345565
35810 0.528394 -0.547128 -0.452077 -1.71119 3.589 1.58795 -1.3942 1.65621 0.176968 0.360077 -0.629899 -0.367214 -0.113654 0.181539 0.495729 0.58828 0.451042 0.139283 0.101213 0.0611444 -0.0821919 -0.182688 0.12905 -0.10499 0.190566 0.0622525 0.18253 -0.11671 0.00278586 -0.29064 0.186054 -0.201076
32253 0.610183 -0.379719 -0.473392 -1.86001 3.25969 1.29411 -1.40126 1.39475 -0.0460161 0.471303 -0.39799 -0.589747 0.131629 0.0752561 0.693459 0.516286 0.133373 -0.0934984 0.17442 0.0288149 0.104755 -0.12065 0.189865 -0.13756 0.170015 -0.0211802 -0.237108 -0.172128 0.00790424 -0.39619 0.214238 -0.197747
33843 0.419323 -0.652651 -0.376512 -1.91194 3.43682 1.62261 -1.56158 1.96409 -0.042112 0.346858 -0.43609 -0.482163 0.177644 -0.11149 0.331385 0.610561 0.331641 0.118133 0.156231 -0.099805 -0.0438398 0.0181971 0.185336 -0.0687484 0.338273 -0.0843403 -0.0197189 -0.123616 0.0205027 -0.149221 0.140973 0.129595
33637 0.598906 -0.502212 -0.239423 -1.73376 3.37292 1.48092 -1.6022 1.27497 -0.110082 0.436999 -0.418405 -0.369387 -0.00431182 -0.07778 0.624479 0.576299 -0.0463211 -0.0663305 -0.0515842 0.164088 0.0511708 -0.0210896 -0.0552866 -0.0710365 0.350769 -0.154368 -0.104481 -0.141441 0.0175825 -0.134686 0.128848 -0.18893
36980 0.3533 -0.645525 -0.516539 -1.62998 3.2641 1.43698 -1.19543 1.34607 -0.17215 0.392498 -0.435522 -0.74134 0.0534243 0.0236529 0.637888 0.571866 0.0247922 -0.22397 -0.00801519 0.116731 -0.24537 -0.0762611 0.0756176 -0.0441267 0.258511 -0.113114 -0.291762 -0.0719072 0.0641034 -0.342676 0.0714172 -0.226831
36087 0.291521 -0.633636 -0.390994 -1.66559 3.4478 1.59265 -1.54851 1.4825 -0.178094 0.0834053 -0.4222 -0.48174 -0.000444379 -0.106274 0.698368 0.508149 -0.0478914 -0.0973176 -0.220968 0.106751 -0.174664 -0.0784402 0.176193 0.0845345 0.302441 -0.187699 -0.128244 0.0544444 0.148524 -0.348807 0.130415 -0.268712
34437 0.360276 -0.542743 -0.564327 -1.76325 3.47249 1.42584 -1.18849 1.60568 -0.171381 0.318505 -0.412624 -0.537787 0.047151 0.0295721 0.421179 0.680434 -0.0695267 -0.159105 0.111655 -0.097212 0.145982 -0.118529 0.376727 -0.215376 0.0787841 -0.0778111 -0.0830215 0.202782 0.0380495 -0.170123 -0.000187551 -0.190401
32496 0.430455 -0.571691 -0.26154 -1.60605 3.34622 1.64582 -1.37809 1.50961 0.116936 0.535223 -0.33577 -0.528076 -0.102815 0.0746507 0.671701 0.483179 -0.027275 0.154838 0.198396 0.0056792 0.278674 0.0506596 0.281435 -0.0613833 0.121536 -0.0354643 0.217121 -0.267796 0.0759841 -0.285419 0.02243 -0.347652
31306 0.588873 -0.455862 -0.265572 -1.59668 3.36423 1.66848 -1.40532 1.6979 0.156811 0.291723 -0.318989 -0.68814 0.0536308 -0.206503 0.496442 0.438808 0.124017 0.190268 0.133663 -0.081642 0.211483 0.0975524 0.107775 0.0747359 0.258435 -0.131475 0.46793 -0.434785 -0.0864538 -0.358708 0.0189402 -0.0873989
36926 0.623987 -0.574858 -0.204397 -1.48214 3.31151 1.68502 -1.44176 1.67965 0.225996 0.258088 -0.239992 -0.717808 0.00554285 -0.262411 0.575537 0.392014 0.103952 0.258798 0.148741 -0.0619216 0.353973 0.123553 -0.0573006 0.0844034 0.0928977 0.0512628 0.379319 -0.593128 -0.0275399 -0.520228 -0.0724772 -0.0942866
32711 0.234158 -0.734808 -0.452646 -1.65483 3.55583 1.59227 -1.44622 1.80685 -0.110138 0.271307 -0.237462 -0.247396 -0.170378 0.0420614 0.811311 0.330072 0.389657 0.026908 0.245142 -0.0494132 0.241551 -0.144946 0.257 0.0685455 0.199781 -0.143285 0.455827 -0.202971 0.0170918 -0.103116 -0.0823025 -0.11374
32114 0.402406 -0.782486 -0.452908 -1.82446 2.98899 1.43673 -0.955613 1.25071 -0.0203113 0.285156 -0.469784 -0.57123 0.00230228 -0.0340159 0.581887 0.581104 0.15319 0.129248 0.0252219 -0.158854 0.0564531 0.0251719 0.194458 -0.151902 0.379279 0.0184225 0.126224 -0.333934 -0.147112 -0.317792 -0.0306518 -0.282685
36844 0.385853 -0.432176 -0.466644 -1.76004 3.17934 1.56378 -0.94826 1.41169 -0.1287 0.364409 -0.661694 -0.624763 -0.0431455 -0.194125 0.454731 0.529877 0.20514 0.0772962 0.154177 -0.0393503 0.00388631 0.0342102 0.203725 -0.100737 0.449456 -0.00106469 -0.000470365 -0.33762 -0.0757784 -0.191335 0.0828115 -0.186327
32540 0.361809 -0.273677 -0.492472 -1.79769 3.38749 1.45398 -1.11532 1.71302 -0.0428963 0.271927 -0.417519 -0.538455 0.156776 -0.167961 0.285321 0.803478 0.344672 -0.215286 0.0193144 -0.0862311 0.11401 0.124855 0.351767 -0.306623 0.130486 -0.0730088 -0.0215311 -0.368773 0.0218155 -0.134436 0.102957 -0.22519
36250 0.531915 -0.494369 -0.464562 -1.69706 3.31006 1.41808 -1.33977 1.35123 -0.0855234 0.610513 -0.231062 -0.532001 -0.0297714 -0.0357873 0.667094 0.515787 -0.0438419 -0.0731306 0.115227 0.18525 0.0394093 -0.159649 0.128181 -0.117145 0.290891 -0.139807 -0.188145 -0.164871 0.0334555 -0.368947 0.163605 -0.251909
34857 0.466904 -0.517967 -0.393902 -1.80818 3.53781 1.36537 -1.34343 1.47912 8.16812e-05 0.303345 -0.594346 -0.615066 0.234468 0.129352 0.542447 0.536028 0.259644 -0.0172635 0.0481301 -0.247222 0.0756127 -0.0730366 0.183182 0.00736986 0.227735 -0.0944323 0.0900519 -0.259049 -0.128893 -0.236213 -0.0684713 0.0580188
35538 0.431895 -0.695827 -0.533648 -1.88349 3.00849 1.19423 -0.965737 0.946808 -0.0277936 0.421935 -0.594183 -0.797498 0.0598243 -0.0611401 0.734104 0.500322 0.101511 -0.000915332 -0.0481138 0.0289595 -0.122148 0.0672375 0.199494 -0.0752071 0.513046 -0.0246012 0.0122748 -0.367039 -0.019479 -0.484194 0.115983 -0.318463
32895 0.420191 -0.635673 -0.406094 -1.70709 3.60581 1.63205 -1.43505 1.54192 -0.0441382 0.251822 -0.440935 -0.244745 -0.117158 -0.225161 0.525832 0.536185 0.0267932 0.0104439 -0.0371457 -0.332565 -0.10857 0.0475886 0.191906 0.154738 0.116449 -0.148423 0.12888 -0.0983721 -0.127383 -0.209296 0.0221161 0.00111447
32197 0.441304 -0.599509 -0.43627 -1.662 3.39626 1.50045 -1.15163 1.37993 0.00707439 0.186166 -0.391078 -0.534042 -0.0267434 -0.00323113 0.619134 0.442143 0.224136 0.0825042 0.205688 0.0995794 0.0186145 -0.0626282 0.202428 -0.0708718 0.216287 -0.0660825 0.0934538 -0.297831 -0.0911042 -0.0779104 0.0589696 -0.146097
34054 0.586228 -0.613974 -0.376973 -1.77237 3.4511 1.42945 -1.34457 1.61003 0.0687444 0.451287 -0.374099 -0.447062 0.273104 -0.120387 0.367464 0.616723 0.0735176 -0.0167542 0.268777 -0.12541 -0.0400284 0.0547256 0.485536 0.0167468 0.264499 0.137499 -0.175155 -0.211942 -0.0714887 -0.167308 -0.0136529 -0.102103
32221 0.471189 -0.433149 -0.199954 -1.71056 3.50211 1.45017 -1.35108 1.40619 -0.221269 0.0720474 -0.398283 -0.254939 0.116347 -0.135061 0.727362 0.483873 0.156029 -0.242086 0.185407 0.115412 -0.00676514 -0.0285028 0.0811249 -0.0747752 0.16689 -0.139808 -0.11144 -0.122555 0.0254829 -0.0252526 0.026987 -0.269792
35329 0.401501 -0.544238 -0.539477 -1.73111 3.51156 1.273 -1.31991 1.52781 -0.17593 0.437818 -0.508639 -0.598942 0.0887813 0.0551505 0.491095 0.519085 0.030094 0.100777 0.20302 -0.174034 0.065058 -0.0282684 0.216661 -0.00418905 0.138185 -0.216065 0.0426088 -0.102399 0.0337794 -0.131295 0.279559 -0.156698
33925 0.373006 -0.430718 -0.317434 -1.6857 3.47961 1.52448 -1.5429 1.47992 -0.0357258 0.285927 -0.539471 -0.123352 0.00954878 0.0708056 0.888555 0.439131 0.0194435 0.110807 0.11513 0.0175306 -0.272086 -0.0599623 -0.0579571 -0.320374 0.437611 0.234796 0.00741212 -0.181979 0.0891415 -0.206315 0.13131 -0.163554
31377 0.557338 -0.585203 -0.397615 -1.69646 2.95077 1.3008 -1.02858 1.01464 -0.0510667 0.44568 -0.534055 -0.68085 0.0432139 -0.126486 0.678962 0.610343 -0.0807263 -0.0747351 0.123509 0.154566 -0.0715695 -0.00294009 0.156613 -0.0871161 0.444572 0.0192276 -0.245176 -0.257599 0.0454266 -0.316809 0.162267 -0.448668
35024 0.591461 -0.412081 -0.329877 -1.58033 3.5188 1.51179 -1.55302 1.4119 -0.196891 0.329133 -0.329334 -0.515062 0.016167 -0.155761 0.581759 0.533471 0.0595977 0.00809781 -0.12068 0.0922103 -0.0762525 0.0620609 0.221795 0.0932751 0.311792 0.0342776 -0.0168368 -0.0149844 -0.144176 -0.298575 0.137194 -0.205311
34391 0.510759 -0.49538 -0.19624 -1.68236 3.31026 1.5659 -1.32448 1.32515 -0.152248 0.201611 -0.413454 -0.399984 0.0258917 -0.13648 0.522364 0.909603 -0.0170235 -0.0880467 -0.0560631 0.402974 0.065863 0.130375 0.0938939 -0.0329156 0.340951 -0.215547 -0.0748856 -0.0860771 0.0140641 -0.232661 0.231607 -0.388414
36350 0.0889695 -0.456026 -0.515398 -1.90104 3.52737 1.28707 -1.3691 1.54722 0.291203 0.112075 -0.447749 -0.267509 0.21791 0.10327 0.656114 0.580753 0.246671 -0.0105805 -0.0483033 -0.279718 -0.151145 0.0478079 0.127666 0.016124 0.339377 0.183777 -0.0187404 -0.0685259 -0.0772131 -0.230318 0.0220812 -0.335037
35596 0.360347 -0.492022 -0.315316 -1.70386 3.55417 1.62762 -1.34503 1.75939 -0.121704 0.245152 -0.471824 -0.316617 -0.131784 0.0775418 0.61246 0.604 -0.0456626 -0.226519 0.126791 -0.0628817 -0.0723493 -0.0203175 0.228697 -0.130122 0.27402 -0.114366 -0.00865549 -0.0884323 0.0379182 -0.208496 -0.0348417 -0.123935
31544 0.577266 -0.601964 -0.305431 -1.52648 3.60847 1.22382 -1.31076 1.58427 0.0165896 0.388375 -0.223158 -0.40695 0.0569512 -0.185448 0.737745 0.312329 0.164925 -0.212733 0.187614 -0.0333755 -0.280245 -0.118818 0.289382 0.223612 0.47333 0.0135021 -0.0354123 -0.181786 -0.141148 -0.157306 0.12047 -0.128067
35454 0.23133 -0.539374 -0.397185 -1.60867 3.46135 1.46595 -1.13919 1.49962 -0.0702926 0.311033 -0.373946 -0.551063 -0.0277096 -0.0230504 0.508449 0.610798 0.198482 -0.0485644 -0.0449797 -0.0882504 -0.170407 0.0503653 0.169056 -0.0585373 0.137576 -0.041995 -0.134934 -0.05569 -0.234629 -0.374152 0.138314 -0.252748
35895 0.354708 -0.593056 -0.374712 -1.45487 2.52687 1.12809 -0.793506 0.939612 -0.0431241 0.470093 -0.578178 -0.636695 0.0179908 -0.041184 0.599999 0.516345 0.0846291 0.00487749 0.140647 -0.0716963 -0.0126493 0.0158702 0.194982 -0.0600329 0.456701 -0.0187007 0.0860847 -0.246871 -0.0469688 -0.368788 0.100179 -0.258443
30946 0.445228 -0.75517 -0.427428 -1.92664 3.69201 1.3412 -1.55452 1.66834 0.0665814 0.295239 -0.362927 -0.265256 -0.0178761 -0.0189341 0.666788 0.55842 0.287158 -0.0441212 -0.0993836 -0.0635196 0.0527905 -0.0915709 -0.0759861 -0.0848918 0.424464 -0.277314 0.0734037 -0.405018 0.270392 -0.121654 -0.0302507 -0.0722312
32010 0.522204 -0.743953 -0.447764 -1.64366 2.8211 1.1227 -0.894384 0.938437 0.024958 0.420558 -0.566525 -0.587979 -0.00204591 -0.0132635 0.673399 0.440024 0.21249 -0.0703263 0.195897 -0.00123457 -0.0932666 0.0147431 0.281987 -0.0463829 0.569887 -0.0337518 -0.00225734 -0.39481 -0.0326126 -0.308794 0.149565 -0.23357
31149 0.48738 -0.720659 -0.427595 -1.70948 3.61046 1.18048 -1.18278 1.45572 0.256703 0.348331 -0.139611 -0.228419 0.0455877 -0.358599 0.818351 0.502194 0.477283 -0.145396 0.225113 0.0688535 -0.0196417 -0.0214976 0.678327 0.3012 0.596221 -0.0343061 -0.23965 -0.20355 0.0482117 0.000699621 0.247046 -0.31734
36037 0.491215 -0.633402 -0.48368 -1.81515 3.48259 1.22471 -1.26657 1.75861 0.117996 0.356583 -0.292667 -0.429795 0.200883 -0.413556 0.62361 0.385476 0.358778 -0.0956667 -0.00918226 0.0362742 -0.0736621 0.0187172 0.298231 0.130504 0.503886 -0.0488929 -0.118398 -0.0627543 0.10269 0.119936 0.238564 -0.129135
32842 0.406124 -0.622496 -0.37165 -1.47867 3.7495 1.35699 -1.33345 1.64006 0.174641 0.172103 -0.277081 -0.491869 0.131663 -0.0313935 0.766863 0.340257 0.321775 -0.265707 0.0795926 0.0554216 -0.126024 0.0218443 0.308594 0.338306 0.46375 -0.0690714 -0.170506 -0.014582 -0.0552276 -0.158764 0.243801 -0.0895503
36679 0.474867 -0.503054 -0.402986 -1.76076 3.54739 1.36965 -1.45169 1.66196 0.0632308 0.351642 -0.492801 -0.257659 0.0838998 -0.213306 0.735055 0.394138 0.0380025 0.0595007 -0.108391 -0.230265 -0.0482519 -0.0284407 0.213214 0.0280246 0.326112 0.0436146 0.23354 -0.091965 0.152417 -0.477868 -0.0329306 0.19446
33392 0.486861 -0.690015 -0.399359 -1.81522 3.12697 1.27943 -1.06741 1.14572 0.0606531 0.409744 -0.547462 -0.78759 0.101527 -0.165117 0.693523 0.499861 0.0874139 0.0276562 0.137457 -0.103952 -0.130226 -0.1411 0.282711 0.0250232 0.449277 -0.100663 0.0184659 -0.380782 -0.00661635 -0.3755 -0.0129194 -0.348836
32092 0.30093 -0.743422 -0.388123 -1.80268 3.219 1.27283 -1.00831 1.31937 0.00802218 0.272747 -0.545055 -0.350678 0.330304 0.0136229 0.705653 0.642844 0.16553 -0.120085 -0.12115 -0.0377116 -0.224044 0.0130715 0.225371 -0.120298 0.325954 0.256355 -0.181117 -0.32708 -0.0795751 -0.224864 0.00752296 -0.365374
113164 0.380502 -0.691257 -0.153265 -1.67424 3.74241 1.57614 -1.28868 1.67993 -0.031071 -0.185818 -0.600278 -0.297577 0.171751 0.0104773 0.433399 0.669729 0.477902 0.0529115 -0.186148 0.396952 0.164685 0.0430482 0.128771 -0.281963 0.222644 -0.51983 0.0264446 0.019774 -0.0941745 -0.208217 0.0699557 -0.0806253
36218 0.568915 -0.791278 -0.375752 -1.80613 3.36065 1.3522 -0.944932 1.27198 0.0103415 0.365209 -0.374551 -0.140592 0.030938 -0.152462 0.830515 0.590372 0.486018 -0.190882 -0.0281964 0.0105672 -0.0776724 0.123776 0.407643 -0.104826 0.5277 -0.129659 -0.0298841 -0.321325 -0.0545152 -0.160103 0.0989644 -0.252074
36948 0.487907 -0.543044 -0.374298 -1.73962 3.36294 1.20631 -1.22893 1.38017 0.110225 0.348746 -0.411188 -0.528647 0.161596 -0.0812332 0.521098 0.565807 0.105128 -0.00292306 0.128522 -0.167294 -0.0130625 -0.0314494 0.354434 0.0661067 0.44718 -0.0365959 -0.103908 -0.166109 -0.102848 -0.233921 0.159099 -0.17301
31230 0.369466 -0.3702 -0.249271 -1.84866 3.4253 1.44388 -1.42537 1.40132 -0.0180436 0.166843 -0.504116 -0.515444 0.0327746 -0.188048 0.338583 0.773953 0.262611 -0.102156 -0.113372 -0.00681098 -0.155639 0.0946806 0.176429 -0.0284882 0.417701 -0.056397 -0.0949037 -0.349214 0.0233044 -0.104932 -0.00454166 -0.162854
31007 0.224724 -0.78198 -0.379981 -1.73021 3.40485 1.49012 -1.20832 1.26849 0.0243046 -0.0815279 -0.46279 -0.370947 0.105684 -0.00406103 0.662571 0.709863 0.180996 -0.137893 -0.0967635 0.190313 0.148516 0.254546 0.202732 -0.223888 0.137001 -0.438639 0.0912092 -0.353733 -0.0728855 -0.125472 0.140787 -0.293508
35587 0.548091 -0.598326 -0.480745 -1.58626 3.67584 1.24764 -1.36584 1.63921 -0.0771706 0.405332 -0.540531 -0.330999 -0.0131838 0.181425 0.604296 0.458867 0.137002 -0.044171 -0.00712155 -0.0585836 -0.0442325 -0.0594254 0.179762 0.0165614 0.15504 -0.0427491 0.0661817 -0.0415389 0.149572 -0.493507 0.129012 0.0343577
34415 0.458118 -0.673176 -0.420163 -1.82957 2.89919 1.16361 -1.02725 1.02648 0.0277735 0.43472 -0.711749 -0.749634 0.119177 0.0551367 0.718527 0.555491 0.117337 0.0846973 0.00558014 -0.0800204 -0.0158034 -0.0187302 0.135144 -0.0351728 0.335503 -0.0117087 0.0703242 -0.306738 -0.0808335 -0.36782 0.0908882 -0.263834
31291 0.270411 -0.743749 -0.432292 -1.73746 3.21059 1.33259 -1.02444 1.13124 -0.0012462 0.284916 -0.583952 -0.679286 0.0602714 -0.136032 0.733484 0.501361 0.148278 -0.0120327 0.0672269 -0.0725288 -0.0947174 -0.109261 0.293224 -0.0365562 0.472454 0.0779862 0.0780306 -0.413212 -0.0681112 -0.435762 0.101964 -0.365945
33232 0.306238 -0.571133 -0.45782 -1.57194 3.70267 1.5586 -1.47835 1.63522 0.0866401 0.130628 -0.317308 -0.31644 0.0745799 -0.0894131 0.564502 0.457291 0.407249 -0.0713884 0.129291 0.145042 0.073722 -0.224532 0.298857 0.0464642 0.409674 -0.128294 0.104561 -0.273066 0.0747408 0.025398 0.0297047 -0.162309
31269 0.546608 -0.763352 -0.19769 -1.66303 3.51171 1.35347 -1.3644 1.47685 0.0426397 0.246337 -0.262868 -0.586356 0.0724788 -0.133327 0.665553 0.584209 0.195241 -0.104857 0.140152 0.0126717 0.0639036 -0.0695567 0.187945 0.259026 0.501173 -0.112413 -0.152514 -0.377293 -0.142749 -0.0339693 0.11158 -0.0959222
32390 0.619485 -0.785456 -0.369408 -1.55723 3.40423 1.34705 -0.995755 1.10383 0.11178 0.209634 -0.344034 -0.544512 0.0521045 -0.262801 0.624284 0.478197 0.371802 -0.12347 -0.0735145 0.0419303 -0.0240159 -0.0621164 0.318903 0.158452 0.448118 -0.161908 -0.195534 -0.33028 -0.0540048 -0.160776 0.154855 -0.228728
36675 0.68723 -0.906756 -0.285737 -1.72549 3.37213 1.40092 -1.0676 1.4153 -0.0343646 0.154805 -0.135034 -0.304948 0.0724396 -0.207323 0.761939 0.610823 0.227318 -0.237921 -0.0431467 0.0123715 -0.136783 -0.0889998 0.446443 -0.00715158 0.353286 0.0112364 -0.200356 -0.456338 -0.12666 -0.119335 0.198189 -0.203409
32282 0.539134 -0.714848 -0.423774 -1.6005 3.68294 1.37092 -1.62256 1.48367 -0.0384717 0.131436 -0.832844 -0.445884 0.17028 0.217858 0.554734 0.428605 0.217051 -0.0993605 -0.127722 -0.0180751 -0.0881745 0.102694 0.131507 0.0193176 0.370781 -0.131083 0.198582 -0.0643831 0.24369 -0.402055 0.0599564 -0.0181256
35190 0.458123 -0.647852 -0.498844 -1.78452 3.23398 1.52706 -1.03324 1.27886 0.138423 0.369889 -0.59501 -0.58993 0.141991 0.00138169 0.681609 0.569233 0.143684 0.226503 0.0629915 -0.141924 0.0996635 -0.00226566 0.358531 0.0464782 0.356906 0.0436951 0.214998 -0.436162 0.0307935 -0.220562 -0.128049 -0.228482
32195 0.502671 -0.509526 -0.340741 -1.74462 3.47847 1.46961 -1.18238 1.27845 -0.063433 0.236028 -0.6898 -0.635839 0.0814425 0.0716173 0.485801 0.641847 0.202731 -0.0553513 0.0635581 -0.0422008 -0.100375 0.121305 0.123405 -0.0164902 0.287601 -0.0503629 -0.169598 -0.0608536 0.0382096 -0.241154 -0.0415325 -0.18714
36201 0.395938 -0.519255 -0.375032 -1.6857 3.72492 1.61467 -1.49044 1.49099 -0.233994 0.312215 -0.612274 -0.384341 0.224722 -0.0263645 0.490146 0.534515 0.144286 0.0237384 -0.323016 0.142866 -0.040332 0.0801901 0.173225 -0.0866362 0.324834 -0.113562 0.373481 -0.0599035 0.225504 -0.147009 -0.284749 -0.0278636
35446 0.233328 -0.416458 -0.489213 -1.6703 3.55181 1.63899 -1.3526 1.61033 0.139554 0.239635 -0.534174 -0.406534 0.0809216 0.304287 0.550603 0.516255 0.330174 -0.0119524 0.147979 -0.219386 -0.0308704 0.0125714 0.186503 0.145689 0.379121 0.190564 -0.145969 -0.192587 -0.0942601 -0.120462 -0.000769857 -0.0862433
33935 0.485606 -0.593701 -0.354734 -1.52189 2.51645 1.12721 -0.76874 0.825881 -0.0687458 0.386553 -0.601056 -0.637955 0.0688196 -0.044128 0.575724 0.586855 0.0725479 -0.0698192 0.0906445 -0.059852 -0.027498 0.0655755 0.18138 -0.125569 0.488077 -0.0847538 -0.0230067 -0.217218 -0.0236973 -0.378577 0.104311 -0.279534
35490 0.562683 -0.755939 -0.41591 -1.70402 3.32671 1.33433 -0.994628 1.1704 0.0530112 0.446387 -0.568891 -0.629818 0.096302 -0.0795023 0.661874 0.384952 0.199125 -0.0347158 0.0816486 -0.0897272 -0.0119641 -0.027499 0.328459 0.131155 0.492936 0.0759289 -0.086325 -0.427108 -0.0702891 -0.248622 0.0757386 -0.215086
33468 0.605054 -0.691856 -0.327487 -1.89614 3.31552 1.36204 -1.06427 1.23432 -0.0205479 0.479071 -0.795745 -0.516847 0.101298 0.0822721 0.536791 0.532124 0.220833 -0.018922 -0.0102585 -0.028903 0.117191 0.0584194 0.230544 -0.0208446 0.399524 -0.12737 0.0309698 -0.253963 0.025528 -0.425592 0.1082 -0.0200198
32157 0.448854 -0.760308 -0.150673 -1.74918 3.8643 2.16036 -1.56707 1.89502 -0.566447 0.435882 -0.593605 -0.0637551 -0.0485762 -0.0682114 0.584265 0.527494 0.510197 -0.239307 -0.0252741 0.0440971 0.136205 0.31358 -0.102244 0.203783 0.717008 0.113881 0.299844 -0.0302802 -0.435876 -0.160871 0.31793 0.0728083
108488 0.367239 -0.580946 -0.257371 -0.979913 1.84608 1.01292 -0.345893 0.726395 -0.367899 0.369966 -0.402858 -0.248144 -0.0147008 -0.0737626 0.476269 0.51977 0.488643 -0.0227908 0.0124197 -0.21925 0.0465952 0.314304 0.109655 0.17581 0.327182 -0.0689095 0.137782 -0.118734 -0.164865 -0.364572 0.204922 -0.0293144
110120 0.356859 -0.492067 -0.192738 -0.869664 1.66517 0.919628 -0.383306 0.685544 -0.324375 0.257974 -0.255559 -0.0863292 -0.0481342 -0.0610766 0.281032 0.351589 0.376543 0.00564263 -0.0105668 -0.179525 0.0944341 0.278531 0.0810664 0.159835 0.240581 -0.0764576 0.114173 -0.0208463 -0.0962418 -0.271302 0.180577 0.0171951
109316 0.364805 -0.497817 -0.228975 -1.00367 1.67399 1.00822 -0.30352 0.699004 -0.378575 0.330749 -0.25174 -0.169357 -0.0651301 -0.115698 0.28897 0.350323 0.378544 0.0142619 -0.00569525 -0.20915 0.0874455 0.322745 0.0867359 0.124575 0.253241 -0.0955617 0.151661 -0.0824078 -0.166829 -0.335094 0.203166 -0.0259408
117939 0.306277 -0.478912 -0.253559 -0.887889 1.56243 0.933923 -0.253022 0.625166 -0.320827 0.278616 -0.302916 -0.192297 -0.0456142 -0.138267 0.364378 0.345132 0.393123 0.025661 0.00710082 -0.210513 0.0596816 0.291539 0.0536625 0.180012 0.234106 -0.0408564 0.173373 -0.0953335 -0.157976 -0.295043 0.18132 -0.037369
31537 0.321523 -0.604207 -0.392858 -1.71141 3.10892 1.40744 -0.972305 1.04714 -0.167782 0.221651 -0.454632 -0.365725 0.162167 -0.112837 0.760313 0.602336 0.264528 -0.154679 -0.0118815 -0.15382 -0.11958 -0.00616616 0.179397 -0.00607679 0.309461 -0.0333529 -0.0399258 -0.329528 -0.134038 -0.461595 0.0520374 -0.221422
33816 0.49598 -0.599965 -0.367412 -1.79269 3.57792 1.57667 -1.40747 1.70005 -0.0385955 0.37923 -0.549693 -0.450708 0.00565399 0.216902 0.584411 0.42538 0.2446 0.177406 0.0581724 -0.147353 -0.0246475 0.0417562 0.155184 -0.0698697 0.389744 -0.00700852 -0.0433579 0.00299086 -0.133224 -0.105697 0.149977 -0.0724914
35278 0.393768 -0.714526 -0.500651 -1.61631 2.95293 1.46219 -0.83035 1.03657 -0.0504661 0.411313 -0.635946 -0.80447 0.0470563 -0.0767876 0.681407 0.476687 0.179445 0.0625781 0.117488 -0.145823 -0.124853 -0.0135348 0.121228 -0.0193334 0.49268 0.0086109 0.0436283 -0.409467 -0.11079 -0.510081 0.183211 -0.360664
36893 0.432926 -0.752611 -0.460731 -1.78576 3.02277 1.37765 -0.988219 1.09784 -0.0855213 0.397082 -0.616298 -0.792506 -0.0205014 -0.100304 0.58457 0.628475 0.226909 0.0210986 0.0667604 -0.102746 -0.1033 0.116218 0.161599 -0.00750679 0.391857 -0.0939056 0.0711091 -0.21399 -0.11116 -0.303015 0.120486 -0.150719
31511 0.686474 -0.98783 -0.491069 -1.71416 2.98873 1.2561 -0.906311 1.10541 0.0322295 0.39733 -0.423761 -0.329603 0.0831789 -0.223269 0.787998 0.680393 0.313789 -0.092891 0.0495641 -0.0075544 -0.00951161 0.114201 0.350154 -0.140921 0.505282 -0.108354 0.0157336 -0.3371 -0.0527651 -0.108394 0.11839 -0.211662
31903 0.343981 -0.671711 -0.485033 -1.87539 3.63028 1.65486 -1.57501 1.81551 0.0862725 0.311325 -0.501634 -0.444797 -0.0974302 -0.0167932 0.461063 0.57508 0.299941 -0.0111449 0.150751 0.101072 -0.113418 -0.0084373 0.0767901 0.0684352 0.374551 -0.188455 0.0380034 -0.215856 0.0427408 -0.137389 -0.021116 -0.00484595
33031 0.599355 -0.741561 -0.374507 -1.93911 3.22604 1.24207 -1.08175 1.21056 -0.0781544 0.443053 -0.55328 -0.652437 0.0722554 0.0552103 0.607164 0.56168 0.167939 0.104133 0.0437553 -0.109502 0.0323301 -0.017084 0.254324 -0.0149903 0.434976 -0.0415702 0.07604 -0.227389 -0.0357034 -0.322748 0.0925963 -0.128254
35316 0.534178 -0.760027 -0.478771 -1.78551 3.29726 1.42153 -1.10899 1.48752 -0.108963 0.564996 -0.501764 -0.604519 0.0148873 -0.0358494 0.47874 0.557378 0.230117 0.136145 0.0691776 -0.147426 0.0646371 0.143664 0.366797 -0.0259209 0.383116 -0.0307643 0.109147 -0.098173 -0.149803 -0.290017 0.104125 -0.1903
30939 0.563332 -0.664721 -0.423722 -1.63804 3.18914 1.39171 -1.25173 1.25793 -0.190108 0.379359 -0.343317 -0.676624 0.0118531 -0.10563 0.630936 0.621889 -0.0581718 0.0110164 0.00110702 0.0561918 -0.138078 -0.00940174 -0.0152762 -0.108064 0.408969 0.00914008 -0.0760444 -0.244616 -0.0886713 -0.420024 0.094109 -0.316663
35338 0.559141 -0.546262 -0.290754 -1.77037 3.17882 1.44179 -1.38989 1.18905 -0.18724 0.512608 -0.206978 -0.536705 0.0812663 -0.0919389 0.630514 0.714064 -0.199789 -0.00528061 0.0526339 0.0992497 -0.020472 0.0428342 0.230245 -0.134015 0.3768 0.0362722 -0.0931188 -0.0704848 0.0137241 -0.184373 0.205535 -0.304034
31745 0.4038 -0.648975 -0.32155 -1.89842 3.67947 1.67376 -1.60087 1.8187 0.0198704 0.317985 -0.497348 -0.495582 -0.173443 -0.0153904 0.53707 0.498707 0.238015 -0.0600187 0.203423 -0.0957505 -0.0640339 -0.0373192 0.209197 0.056384 0.439232 0.0659812 0.198539 -0.162755 0.0859934 -0.167252 -0.0658449 0.0102472
34143 0.570408 -0.699332 -0.548857 -1.7154 3.21796 1.37924 -1.18965 1.50676 0.00442393 0.399042 -0.629203 -0.634028 0.115659 -0.0207682 0.488208 0.564075 0.240185 0.180249 0.0270825 0.0314197 0.0931876 0.153485 0.172705 0.0233657 0.206168 -0.00728474 0.280347 -0.379047 -0.0954377 -0.477359 0.0307032 0.00606032
36028 0.373806 -0.279267 -0.505599 -1.88115 3.03992 1.58349 -0.918168 1.52574 0.00253071 0.374253 -0.559902 -0.60264 0.184433 -0.275458 0.388176 0.5919 0.230488 -0.172291 -0.0921053 -0.276972 0.0543398 0.0856981 0.232059 -0.165928 0.38852 -0.0405705 -0.00492501 -0.331332 -0.0101446 -0.201448 -0.0856613 -0.281614
34711 0.36762 -0.592663 -0.564451 -1.50537 3.6832 1.53673 -1.14377 1.77799 -0.25561 0.215343 -0.557385 -0.284976 -0.0507179 -0.221432 0.560138 0.46577 0.114793 -0.329047 -0.151605 -0.215251 0.0030291 0.144283 0.0812441 -0.164984 0.166493 -0.0121959 0.184205 0.00171281 0.218279 -0.206164 0.079091 -0.181874
