7349 32
31045 -0.596111 0.858958 0.308609 -0.172288 -0.556101 2.59554 -3.33064 -0.985296 0.946833 -0.415957 -0.159533 0.193709 -0.176093 -1.06346 0.041611 -1.4173 0.412757 -0.583751 -0.0372595 0.0222679 0.0672014 -0.200868 -0.513577 -0.514313 0.668801 -0.366476 -0.578506 -0.27854 0.588526 -0.196217 0.0170046 -1.08611
31610 -0.240625 0.45012 0.198247 -0.0136702 -0.574318 2.35944 -4.9548 -1.41783 0.453393 -0.176829 -0.0112679 0.218414 -0.0658022 -0.758071 0.282432 -0.755157 0.335487 -0.390396 -0.0442847 0.0418822 0.112385 -0.13698 -0.275719 -0.335512 0.195458 -0.053291 -0.186798 0.0144024 0.101914 -0.13624 0.112265 -0.662786
34711 -0.422025 0.447862 0.171426 0.0642691 -0.540428 2.52702 -4.82467 -1.27867 0.641305 -0.0217889 -0.0438276 0.0931461 0.0808215 -0.692599 0.327078 -0.816769 0.439063 -0.3232 -0.357769 0.0426947 -0.117672 -0.10521 -0.175411 -0.58648 0.314979 -0.0766298 -0.187423 -0.302128 0.140885 -0.176537 0.0136892 -0.423481
31587 -0.476328 0.755397 0.075231 0.173235 -0.539871 2.53522 -4.13584 -1.30437 0.394986 -0.341728 0.132627 0.273099 -0.185776 -0.655046 0.245637 -1.10121 0.53098 -0.493206 -0.414056 0.337725 0.13233 -0.314345 -0.52911 -0.61381 0.367132 -0.278193 -0.592376 -0.224883 -0.105281 -0.23627 0.076744 -0.605603
34120 -0.0360269 0.714634 0.258828 -0.0456452 -0.132538 2.69771 -4.48572 -1.36454 0.74572 -0.247124 -0.238977 0.198939 -0.0786672 -0.859539 0.219309 -1.04757 0.297574 -0.146046 -0.16085 0.447492 0.178211 -0.273415 -0.473822 -0.649853 0.533637 -0.166577 -0.0855839 0.41317 0.139984 -0.22084 0.0557664 -0.577808
33987 -0.354746 0.569599 0.394638 0.243822 -0.299179 2.4519 -4.2474 -1.58068 0.893156 -0.297555 -0.465891 0.230071 0.0543558 -0.697072 0.227653 -1.11076 0.300805 -0.524562 -0.109542 0.123965 0.475131 -0.321867 -0.37511 -0.699103 0.605954 -0.271348 -0.325969 -0.293423 0.0998638 -0.306483 -0.0119409 -0.66396
32023 -0.37184 0.594034 0.304015 0.123004 -0.467149 2.60524 -4.87074 -1.61665 0.597795 -0.288146 -0.18829 0.256683 -0.10789 -0.664324 0.0428641 -1.11513 0.300229 -0.17468 -0.120048 0.155117 -0.00802911 -0.0147117 -0.24091 -0.527887 0.420095 0.0455932 -0.208624 -0.203426 0.203001 -0.131583 0.0629826 -0.620274
37051 -0.598278 0.864815 0.311113 0.361328 -0.335275 2.09244 -3.20165 -1.0055 0.815947 0.0926221 -0.297209 0.546461 -0.126454 -1.02967 0.267301 -1.08915 0.5137 -0.361233 0.124706 0.000655105 0.00268878 -0.2178 -0.463026 -0.812957 0.789326 -0.150884 -0.365187 0.0608617 0.298261 -0.276775 -0.174406 -0.886236
33378 -0.513434 0.81661 0.109665 0.158226 -0.64489 2.44605 -4.42724 -1.33867 0.773297 -0.0622476 -0.553537 0.174676 -0.343181 -0.758633 0.312509 -0.987935 0.486433 -0.334537 -0.135346 0.0805814 -0.216389 -0.309774 -0.399423 -0.4839 0.709918 -0.164763 -0.072838 0.139998 0.291487 -0.189239 0.226011 -0.573584
31159 -0.367944 0.58763 0.291401 -0.00554425 -0.503972 2.38177 -4.76551 -1.11427 0.578838 -0.384465 0.0764598 0.232587 -0.056742 -0.503403 0.184718 -0.987523 0.423371 -0.282876 -0.0585227 0.153931 -0.353989 -0.0725917 -0.494894 -0.378902 0.472988 0.0525688 -0.178167 -0.0972209 0.237565 -0.0802514 0.0711731 -0.55081
35104 -0.146204 0.386783 0.0655003 0.00144729 -0.414852 2.50427 -4.39409 -1.36427 0.61328 -0.192018 0.0376132 0.575557 0.117092 -0.837292 0.279336 -0.844298 0.295407 -0.347196 -0.171858 0.0044209 0.118991 0.042268 -0.353088 -0.524344 0.38615 -0.425111 -0.225285 0.20712 0.522392 -0.222545 -0.219704 -0.506145
34724 -0.226083 0.406735 0.278387 0.0838016 -0.309398 2.59805 -4.65989 -1.3261 0.61791 -0.00985112 -0.159058 0.319574 -0.0959894 -0.681941 0.287208 -0.934518 0.425952 -0.407681 -0.0334094 -0.0488842 0.0179993 -0.137043 -0.31013 -0.510505 0.385705 -0.257692 -0.146343 0.103796 0.354192 -0.0933911 -0.333811 -0.566995
32024 -0.230347 0.705995 0.244927 -0.0168829 -0.316277 2.48762 -4.90978 -1.61349 0.566987 -0.220867 -0.143564 0.419853 -0.144248 -0.465786 0.0146323 -1.07183 0.271187 -0.33662 -0.235071 -0.0708452 -0.109844 0.0189766 -0.486896 -0.430014 0.459224 -0.215141 -0.142822 -0.238403 0.134634 -0.186169 -0.157565 -0.514012
36827 -0.435309 0.7094 0.428776 0.4684 -0.469352 2.36405 -4.59274 -1.32345 0.771287 -0.313289 -0.0304619 0.0268878 0.112675 -0.840944 0.222563 -1.02437 0.294881 -0.522868 -0.265166 0.0489288 -0.380183 0.174133 -0.397863 -0.447346 0.327948 -0.140501 -0.30043 0.0511897 0.213271 -0.243794 -0.227959 -0.806013
33793 -0.288536 0.490484 0.0478976 0.0179532 -0.498117 2.48989 -4.56048 -1.2905 0.648066 -0.089856 0.142124 0.339551 0.00161624 -1.04263 0.349431 -0.85679 0.225289 -0.360207 0.0995136 0.110119 0.328297 -0.0830643 -0.189461 -0.480946 0.115911 -0.319994 -0.375444 -0.0742415 0.0904545 -0.200993 -0.0487261 -0.695013
31109 -0.240414 0.464827 0.194623 -0.0932917 -0.325895 2.51366 -4.69417 -1.21266 0.536939 -0.0281385 -0.135606 0.380261 0.0619947 -0.709694 0.328853 -0.938299 0.398619 -0.218825 -0.133637 -0.017157 -0.313604 -0.209082 -0.276733 -0.332632 0.325848 -0.190044 -0.113804 -0.0679517 0.256504 -0.035217 -0.00964333 -0.706027
33129 -0.356294 0.534367 0.331684 0.00445823 -0.50385 2.68941 -4.97621 -1.65445 0.738063 -0.128425 -0.208657 0.346597 -0.126036 -0.722672 0.0775821 -1.06679 0.458941 -0.343837 -0.311538 0.168817 0.0572022 -0.0870512 -0.373055 -0.596667 0.458131 -0.223258 -0.305542 -0.0882493 0.173812 -0.0748412 -0.0298629 -0.652608
35234 -0.367059 0.428 0.0879578 0.0726066 -0.130248 2.64187 -4.03317 -1.15858 1.013 -0.263904 -0.0942187 0.274175 -0.191342 -0.640952 0.173598 -1.05954 0.803539 -0.228498 -0.0853667 0.139905 -0.0218051 -0.33584 -0.129314 -0.585131 0.798253 -0.266623 -0.200349 0.23681 0.234053 0.18313 0.0649863 -0.846866
32756 -0.210466 0.640358 0.357078 0.074675 -0.0826131 2.5615 -4.63026 -1.50963 0.785101 -0.107199 -0.221563 0.221673 0.0169324 -0.522148 0.119169 -1.08339 0.582333 -0.328309 -0.09697 0.383442 0.0210173 -0.160254 -0.418999 -0.498416 0.639471 -0.0453482 -0.0352085 -0.0390737 0.0985018 -0.236851 -0.0517263 -0.772008
31903 -0.324022 0.523631 0.311632 0.0631557 -0.520215 2.66153 -5.08399 -1.63527 0.637758 -0.170637 -0.24088 0.36305 -0.105719 -0.692716 0.0612395 -1.0405 0.334517 -0.352113 -0.171547 0.138263 -0.103632 -0.098945 -0.258852 -0.471793 0.426535 -0.196886 -0.197412 -0.0837131 0.24787 -0.0303009 0.00353051 -0.609185
32026 -0.17044 0.584766 0.374508 -0.171621 -0.473005 2.46945 -4.79035 -1.51247 0.635226 -0.0668814 -0.0883613 -0.0105458 0.0722883 -0.706849 0.0983836 -1.02598 0.193027 -0.233898 -0.0395213 0.215754 0.028007 -0.127457 -0.394494 -0.333649 0.318594 0.0740586 -0.163304 0.188355 0.284221 -0.175388 -0.119743 -0.738727
30938 -0.325381 0.788209 0.484212 0.12206 -0.351402 2.50677 -3.59592 -1.08275 0.86975 -0.184906 0.123407 0.337804 0.180034 -0.89355 0.167183 -1.24708 0.711688 -0.227379 -0.472911 -0.181258 0.17646 -0.411278 -0.30319 -0.52173 0.582863 -0.108827 -0.324087 -0.108706 0.296553 0.00227012 -0.262441 -1.18426
36337 -0.138331 0.338766 0.306879 0.353747 -0.524348 2.62209 -4.55168 -1.31172 0.486784 -0.193391 0.0238923 0.371818 -0.0540761 -0.986279 0.0586669 -0.915983 0.651657 -0.094253 -0.298033 -0.0400042 -0.224752 -0.167589 -0.434279 -0.216276 0.184065 0.00243248 -0.2882 -0.162917 0.830163 0.0414708 -0.204891 -0.68097
31642 -0.138004 0.458078 0.327544 0.0901562 -0.337281 2.54158 -4.69048 -1.43603 0.603818 -0.37888 -0.157972 0.375827 -0.17228 -0.886231 -0.067751 -0.794881 0.524132 -0.271991 -0.208951 -0.0668207 -0.0213086 -0.205973 -0.437407 -0.291543 0.193771 -0.0706288 -0.375652 0.0683247 0.253048 0.297659 0.0191998 -0.575056
35735 -0.221315 0.489164 0.276783 -0.0158443 -0.317623 2.53376 -4.51901 -1.03395 0.511096 -0.14144 -0.0858214 0.529158 -0.405741 -0.868384 0.426367 -0.854469 0.566092 -0.235838 -0.213674 0.0514424 -0.178008 0.114054 -0.231603 -0.228568 0.322929 -0.0408587 -0.342818 -0.168035 0.44627 -0.031218 -0.180514 -0.765685
36133 -0.469928 0.612789 0.450407 0.0041761 -0.530821 2.48065 -4.59272 -1.39418 0.559256 -0.169934 0.0953698 0.277747 0.0594626 -0.570618 0.206923 -1.0698 0.450249 -0.223349 -0.148446 0.0139503 0.0491331 -0.157086 -0.683189 -0.296475 0.451044 -0.208074 -0.27051 -0.104551 0.211238 -0.352127 0.0129974 -0.37042
31930 -0.383909 0.487398 0.395156 0.100166 -0.497717 2.32918 -4.93635 -1.39332 0.374572 -0.0514847 -0.312933 0.278698 -0.0124609 -0.554821 -0.100709 -0.914028 0.483896 -0.323978 -0.107231 -0.160886 -0.057666 -0.0739274 -0.309942 -0.30211 0.423314 -0.0367573 -0.141855 -0.133227 0.0740566 -0.0675132 -0.0951777 -0.515479
32710 -0.0700396 0.493589 0.411117 0.181134 -0.705035 2.51259 -4.92732 -1.39926 0.60297 -0.229307 -0.273375 0.362339 -0.0353192 -0.503917 0.185968 -0.947103 0.421201 -0.275431 -0.0749251 -0.177683 -0.0718823 0.102752 -0.244133 -0.463303 0.519907 -0.0938928 -0.174487 -0.0177369 0.188844 -0.0809957 -0.0931193 -0.44292
35744 -0.291828 0.232917 0.465168 0.0764366 -0.406816 2.59341 -4.95371 -1.38683 0.550051 -0.0037267 -0.274525 0.377233 -0.106019 -0.504697 0.025991 -0.949105 0.257002 -0.240865 -0.359202 0.27579 -0.238729 -0.1334 -0.28096 -0.450188 0.265965 -0.280475 -0.109934 -0.176362 0.25429 -0.266267 0.116301 -0.333975
34596 -0.423203 0.573686 0.480372 0.0961287 -0.429044 2.5799 -5.06564 -1.55154 0.525478 -0.175388 -0.279292 0.499217 -0.0966325 -0.463696 0.118728 -1.16526 0.383099 -0.177645 -0.250443 0.217491 -0.0155236 -0.181646 -0.195612 -0.495129 0.336175 -0.324553 -0.406928 0.0280722 0.150875 0.0738621 0.0626898 -0.671905
33255 -0.421634 0.797106 0.30966 0.0200452 -0.247171 2.41971 -4.20624 -1.27808 0.824332 -0.258192 -0.265984 0.340004 -0.364206 -0.747163 0.148936 -1.06577 0.271329 -0.313583 -0.175307 0.0857305 -0.144722 -0.228898 -0.493608 -0.432764 0.648896 -0.282102 -0.333373 -0.0809568 0.13543 -0.125728 -0.0287939 -0.557851
32380 -0.536326 0.791202 0.306287 -0.0450408 -0.296745 2.52657 -3.90622 -1.63092 1.06353 -0.0745104 -0.346033 0.683848 -0.582957 -0.819054 0.434323 -1.19378 0.341408 -0.0066354 -0.189227 0.0214752 -0.307228 -0.413372 -0.257433 -0.578261 0.666048 -0.355827 -0.512638 -0.269341 0.119035 -0.0461849 -0.232449 -1.02058
34673 -0.397707 0.940517 0.46203 -0.112985 -0.416412 2.54109 -3.72365 -1.21776 1.02609 -0.113958 -0.211331 0.490041 0.0333662 -0.791685 0.0566905 -1.19818 0.547613 -0.247659 -0.322542 0.087318 0.0133926 -0.129129 -0.499304 -0.489621 0.698159 -0.276006 -0.459261 -0.385732 0.223216 0.0312844 -0.245423 -0.705843
32768 -0.327243 0.666571 0.388928 -0.171727 -0.126717 2.4306 -4.57352 -1.3351 0.723052 -0.232036 -0.114661 0.130795 0.00179281 -0.714217 0.153976 -0.973563 0.361573 -0.0695531 -0.522443 0.358261 0.181232 0.10791 -0.504743 -0.322597 0.77931 -0.172887 0.104341 -0.00441725 0.114136 0.00847404 0.189257 -0.702127
35708 -0.423983 0.42044 0.308795 -0.0742881 -0.322906 2.60747 -4.75991 -1.45689 0.564371 0.100558 -0.062301 0.36641 0.0103797 -0.634 0.0470121 -1.02475 0.580013 -0.171632 -0.0601887 0.0813248 -0.0593924 -0.211528 -0.267956 -0.362758 0.285898 0.06751 -0.121795 -0.106979 0.225614 -0.0937488 -0.0115033 -0.727858
34484 -0.508594 0.659848 0.319273 0.0237139 -0.512721 2.47617 -4.06426 -1.40037 0.9755 -0.0920142 -0.393792 0.538011 -0.0449896 -0.577367 0.522478 -1.11937 0.489464 -0.288196 -0.101448 0.146262 0.175336 -0.0605683 -0.398315 -0.489097 0.396426 -0.237859 -0.453841 -0.115171 0.476131 0.0424168 -0.224063 -0.85329
32940 -0.29248 0.625538 0.243212 0.139692 -0.491604 2.69489 -4.98843 -1.42218 0.681625 -0.107002 -0.21806 0.305217 -0.121406 -0.689414 0.0837892 -1.07085 0.495063 -0.355469 -0.26908 0.133009 -0.112248 0.0344811 -0.263214 -0.522743 0.53657 -0.134938 -0.274174 -0.0879344 0.376415 -0.120753 -0.000748309 -0.529069
33212 -0.449365 0.334125 0.370548 0.169056 -0.339331 2.5504 -4.5866 -1.37183 0.763856 -0.0957652 0.00583905 0.673941 -0.324077 -0.492965 0.234287 -0.99313 0.352722 -0.311298 -0.155316 -0.0547574 0.0430988 0.119716 -0.307197 -0.590189 0.612638 -0.258172 -0.24431 0.00369619 0.389264 -0.0722177 0.0824271 -0.358334
31863 -0.431403 0.603637 0.536897 0.104643 -0.429061 2.68471 -3.94489 -1.15144 0.872924 -0.0567712 -0.276794 0.643711 -0.27966 -0.92057 0.00222181 -1.29666 0.715996 -0.260335 -0.276345 -0.0979124 0.0183159 -0.23303 -0.47852 -0.600114 0.742863 -0.272177 -0.315015 -0.34225 0.122086 -0.195224 0.125658 -1.01585
35705 -0.537207 0.808064 0.368203 0.102885 -0.238588 2.68905 -3.94066 -1.14094 0.884244 -0.210051 -0.0389561 0.550008 -0.187779 -0.808382 0.225051 -1.10032 0.55259 -0.459539 -0.116254 0.32163 0.0636321 0.00269195 -0.353832 -0.713309 0.75827 -0.228065 -0.116369 -0.159243 0.298667 -0.0661061 -0.011358 -0.695253
35142 -0.462966 0.753624 0.487408 -0.257563 -0.573543 2.54252 -3.82195 -1.03131 0.839393 -0.306933 -0.0999486 0.675728 -0.279202 -0.734344 0.0830202 -1.21096 0.568598 -0.543833 -0.0934203 0.0455561 -0.24041 -0.123752 -0.274586 -0.556556 0.739323 -0.0234969 -0.263608 -0.134443 0.634842 -0.452716 0.115213 -0.844024
31745 -0.321833 0.550348 0.254125 0.179962 -0.525625 2.73888 -4.95659 -1.65068 0.707179 -0.128654 -0.193218 0.300739 -0.162332 -0.766779 0.111454 -1.09973 0.379057 -0.362803 -0.225266 0.166554 0.00991931 -0.0278891 -0.328443 -0.475583 0.536264 -0.206896 -0.185451 -0.173342 0.318535 -0.188352 0.0203407 -0.624196
32413 -0.650322 0.831989 0.244125 0.0566671 -0.373755 2.53987 -3.76821 -1.21681 0.942549 -0.023321 -0.250724 0.586491 0.0642208 -0.745138 0.201232 -1.15766 0.503295 -0.547226 0.201741 0.145492 0.0260965 -0.333443 -0.469461 -0.248616 0.450594 -0.404563 -0.5226 -0.292717 0.646653 -0.274595 -0.115546 -0.680303
34556 -0.303755 0.369018 0.25591 0.29242 -0.282452 2.56552 -4.57878 -1.39494 0.800184 -0.213096 0.00416113 0.493536 -0.170384 -0.731557 0.494058 -0.886834 0.360864 -0.458807 -0.197866 0.371126 -0.0205073 -0.083177 -0.461591 -0.343399 0.327681 -0.385136 -0.205612 -0.180608 0.24048 -0.375755 0.122932 -0.689804
31166 -0.412893 0.503906 0.27162 -0.167875 -0.362635 2.47038 -4.60405 -1.53656 0.698238 -0.162994 -0.147184 0.481961 -0.0727477 -0.712344 0.146579 -0.865716 0.484858 -0.372182 -0.167755 0.1548 -0.0214342 0.195776 -0.123967 -0.703572 0.530645 -0.311128 -0.23781 -0.0418291 0.33274 -0.175368 0.00706231 -0.434895
33899 -0.240914 0.787421 0.634983 0.254523 -0.299909 2.47841 -4.28575 -1.26504 0.632904 0.220766 -0.140962 0.423869 -0.100541 -0.492929 0.284798 -1.16176 0.435073 -0.384464 -0.408879 0.357351 -0.33402 -0.205863 -0.516067 -0.529273 0.111655 -0.341514 -0.227579 0.0234216 0.49342 -0.0339634 -0.091225 -0.847705
34368 -0.669287 1.07605 0.567295 0.0977618 -0.53381 2.46903 -3.3957 -0.945454 0.743049 -0.237664 -0.400465 0.377298 0.0874302 -0.968389 -0.164045 -1.45766 0.409134 -0.435117 -0.324422 0.237888 0.0139844 -0.190647 -0.660344 -0.511472 0.737051 -0.428383 -0.219283 -0.178661 0.507017 -0.195157 -0.111282 -0.816665
32212 -0.302959 0.792082 0.370535 0.212943 -0.342022 2.42443 -4.54468 -1.35113 0.504885 -0.136438 -0.489949 0.212101 0.0718667 -0.728008 0.219837 -1.03612 0.556578 -0.429732 -0.104709 0.0177435 0.05356 -0.23997 -0.327737 -0.430539 0.488733 -0.122879 -0.302183 -0.305238 0.0595219 -0.21804 -0.0389145 -0.779235
34649 -0.306455 0.600028 0.272521 -0.117458 -0.576047 2.43236 -4.78074 -1.46344 0.440621 0.00647769 -0.013945 0.339893 -0.0569122 -0.782178 0.304745 -0.893388 0.424961 -0.364802 -0.209365 -0.021927 -0.0610654 -0.269327 -0.419927 -0.440705 0.374139 -0.0612378 -0.190096 -0.183861 0.124682 -0.170498 -0.0461284 -0.562522
36439 -0.322911 0.520968 0.269613 0.00964297 -0.286013 2.54588 -4.53862 -1.35353 0.424999 0.3182 -0.0304347 0.350317 -0.0865393 -0.769828 0.192094 -0.963881 0.512893 -0.32022 0.0562042 0.0250306 -0.128821 -0.102822 -0.37544 -0.418472 0.433225 -0.0827925 -0.464822 -0.0780842 0.266212 -0.0668713 0.0403772 -0.386714
31724 -0.530681 0.380917 0.473459 0.0920668 -0.490677 2.45675 -4.78626 -1.52511 0.650243 0.0441809 -0.121299 0.109918 0.128364 -0.729347 0.0436371 -0.942914 0.352283 -0.169498 -0.297858 0.0930499 0.0309135 -0.255358 -0.235885 -0.516488 0.312462 -0.0685253 -0.110406 -0.168865 0.222607 -0.146077 0.0455423 -0.527066
34528 -0.335219 0.334696 0.397855 0.171472 -0.405983 2.58638 -4.62322 -1.4922 0.546766 0.306887 -0.162617 0.279044 -0.0860048 -0.635547 0.115699 -1.0444 0.599841 -0.216992 0.138454 0.0390566 -0.0247349 -0.145914 -0.313858 -0.483997 0.367082 -0.117504 -0.242926 -0.0584173 0.261713 0.0428609 0.0492324 -0.534863
36114 -0.301109 0.455292 0.617316 0.0905996 -0.222347 2.55898 -4.0657 -1.26891 0.852949 0.429974 -0.242116 0.483241 -0.381207 -0.749608 0.224021 -1.11101 0.594345 -0.604509 -0.0176611 -0.0443046 -0.142281 -0.0587467 -0.686322 -0.638469 0.568399 -0.408073 -0.503565 0.117674 0.241305 0.29336 0.159592 -0.65227
36512 -0.416277 1.0174 0.30776 -0.16665 -0.330093 2.66437 -3.92301 -1.21294 0.361312 0.136193 -0.129312 0.090689 -0.0659332 -0.90162 0.19961 -1.38979 0.480903 -0.11754 -0.432459 0.0825318 -0.0452039 0.119608 -0.548633 -0.373317 0.554653 -0.531482 -0.750149 0.0107015 0.246585 -0.22939 -0.13719 -0.537867
33455 -0.272131 1.01798 0.422959 0.106716 -0.549785 2.55075 -4.10109 -1.09814 0.710661 -0.0331976 -0.0444927 0.56544 -0.0357086 -0.833878 0.321055 -1.27541 0.599059 0.0341265 0.0319248 0.287465 -0.0729285 -0.065002 -0.283149 -0.463119 0.58715 -0.257509 -0.470604 -0.31063 0.350658 0.0328208 0.175349 -0.851983
35364 -0.334238 0.538038 0.368182 -0.000951621 -0.489381 2.61216 -5.01326 -1.49271 0.604643 -0.226189 -0.214665 0.232608 -0.173356 -0.721842 0.0798711 -0.972813 0.430568 -0.292564 -0.209609 0.138258 -0.107095 -0.225947 -0.196679 -0.490657 0.537611 -0.146266 -0.349919 -0.0532744 0.243123 0.0736756 0.109582 -0.491972
30946 -0.35543 0.576564 0.264813 -0.0085024 -0.48191 2.61145 -4.88775 -1.47339 0.578828 -0.206179 -0.310518 0.511576 -0.0363661 -0.629853 -0.00658481 -1.07076 0.47483 -0.19564 -0.309672 0.119951 0.00898184 -0.0492711 -0.454028 -0.500721 0.449563 -0.343806 -0.246302 0.0105351 0.198604 -0.130224 -0.0693277 -0.548317
32538 -0.502557 0.509858 0.343911 0.117272 -0.42216 2.75347 -4.28732 -1.10457 0.456416 0.187348 -0.146749 0.446384 -0.467026 -0.742046 0.236566 -1.20056 0.591348 -0.311543 0.203702 -0.0603457 -0.272561 -0.0380521 -0.375927 -0.468949 0.529031 -0.309963 -0.405631 0.048546 0.209791 0.167835 0.109769 -0.606974
34053 -0.519375 0.527158 -0.056625 0.276393 -0.662222 2.82839 -4.36716 -1.27158 0.934494 0.248413 -0.293542 0.171319 -0.0377365 -0.638813 0.494066 -1.1073 0.317901 -0.518584 -0.341503 0.0337648 -0.184949 -0.0903711 -0.35045 -0.579099 0.339995 -0.268683 -0.14632 -0.278493 0.359821 -0.0997816 0.164081 -0.636788
32636 -0.573311 0.829758 0.104026 -0.0690794 -0.709032 2.79235 -3.585 -1.16717 0.81748 -0.076639 -0.444111 0.655755 -0.339199 -0.979497 0.786867 -1.24975 0.533893 -0.431301 -0.100484 0.00219786 -0.273769 0.121466 -0.322073 -0.473063 0.703562 -0.602764 -0.078955 -0.25387 0.480777 -0.280387 0.216808 -1.00747
32037 -0.556443 0.486388 0.144718 0.163338 -0.608768 2.70008 -4.19097 -1.53177 0.792238 -0.239273 -0.354653 0.127003 -0.193368 -0.711627 0.235697 -1.27585 0.49139 -0.353061 -0.0975443 0.391841 -0.11809 -0.118043 -0.43611 -0.350849 0.518153 -0.69463 -0.555989 -0.0345079 0.340915 -0.508021 0.256783 -0.82333
31626 -0.732132 0.844066 0.41218 0.317687 -0.529615 2.42547 -3.68522 -1.22833 1.03687 -0.000389174 -0.311303 0.625364 0.0556179 -0.937883 0.341874 -1.20096 0.52985 -0.428953 -0.4663 0.167126 -0.090193 -0.203396 -0.715372 -0.417286 0.600362 0.0688795 -0.499561 -0.152045 0.441196 -0.468804 0.114971 -1.15531
33242 -0.201144 0.371933 0.455134 -0.215081 -0.51174 2.65822 -4.62719 -1.46573 0.509967 -0.251587 -0.225047 0.418206 -0.138504 -0.966768 0.213359 -0.875681 0.353684 -0.211741 -0.32215 -0.00386431 -0.430041 -0.137041 -0.230765 -0.532694 0.242384 0.0851452 -0.241309 -0.141483 0.46028 -0.221029 0.212161 -0.575914
32838 -0.61901 0.773022 0.646917 -0.0481192 -0.369336 2.58427 -3.20778 -0.946445 0.84676 -0.36101 -0.264567 0.340425 -0.26347 -0.865269 0.180708 -1.3842 0.594321 -0.423841 0.0239378 0.239696 -0.195336 -0.144468 -0.641677 -0.584342 0.725338 -0.114666 -0.379289 -0.213765 0.577531 -0.373046 -0.0618098 -1.01698
31017 -0.28615 0.662779 0.505502 0.12761 -0.422292 2.54322 -4.76006 -1.65968 0.62569 -0.19598 -0.210701 0.222066 -0.129547 -0.452744 0.170943 -1.17342 0.355698 -0.167272 0.0724504 0.165615 0.0259191 -0.276154 -0.227084 -0.441509 0.249475 -0.263039 -0.382393 -0.149405 0.19761 0.000487103 0.148641 -0.644911
35951 -0.269501 0.613596 0.300253 -0.00403452 -0.351381 2.48682 -4.724 -1.59173 0.584009 -0.226032 -0.0468601 0.350912 -0.159044 -0.54608 0.120555 -1.00116 0.399636 -0.140886 -0.0889697 0.263893 -0.218651 -0.313717 -0.378099 -0.445922 0.370439 -0.101275 -0.125022 -0.185443 0.135399 -0.105234 -0.0631982 -0.515542
31841 -0.606558 0.926535 0.673816 -0.00202144 -0.470195 2.27915 -2.75052 -1.0456 0.756121 -0.240812 -0.214626 0.855943 -0.261575 -0.815164 0.261467 -1.46553 0.455075 -0.26261 -0.192778 0.346562 -0.217442 -0.229132 -0.271281 -0.52626 0.600439 -0.302507 -0.637449 -0.116369 0.342907 0.150665 -0.0591702 -1.17445
33206 -0.351635 0.800664 0.737684 0.202724 -0.0944033 2.65459 -3.72349 -1.16638 0.939613 -0.454471 0.189556 0.665994 -0.338002 -0.839452 0.195178 -1.27848 0.689569 -0.24799 0.102087 0.124505 -0.475115 -0.729091 -0.453402 -0.683477 0.623633 0.0355318 -0.622335 -0.0800099 0.225089 -0.178916 0.152058 -0.776695
32102 -0.406725 0.593355 0.593139 -0.0469144 -0.119613 2.47228 -4.25284 -1.29437 0.728904 -0.144178 0.0564526 0.414477 -0.185447 -0.980826 0.117243 -0.939923 0.475694 -0.356744 -0.390634 -0.100436 -0.227473 -0.014763 -0.438318 -0.448267 0.459928 -0.182861 -0.301054 -0.0605382 0.0323456 0.0215448 -0.00203731 -0.836295
36232 -0.592195 0.792476 0.474065 -0.0463612 -0.262543 2.39922 -3.64207 -1.05246 0.884416 -0.121485 -0.165244 0.741379 -0.135933 -0.850708 0.324255 -1.24956 0.401541 -0.100323 -0.313899 -0.0711209 -0.138256 -0.335576 -0.385262 -0.720123 0.728129 -0.183695 -0.218655 -0.352942 0.654044 0.0952028 0.0630736 -0.852732
31519 -0.949745 0.715459 0.483911 -0.0236878 -0.124398 2.5312 -3.69088 -1.188 0.899746 -0.230413 -0.381103 0.532083 -0.0498741 -0.781668 0.0968109 -1.29019 0.63953 -0.189003 0.0288743 0.0757523 0.0391598 0.127808 -0.623515 -0.744845 0.690245 -0.284173 -0.127436 -0.298936 0.313878 0.0349504 -0.374061 -0.720132
35876 -0.360287 0.28902 0.31434 -0.0203342 -0.371682 2.53572 -4.97443 -1.41762 0.417866 -0.13298 -0.099225 0.448924 -0.0498751 -0.488705 0.0759401 -0.947209 0.445524 -0.146962 -0.103542 0.0822638 -0.0226609 -0.0877982 -0.387337 -0.440388 0.297953 -0.113225 -0.310055 0.0582596 0.181442 0.0453338 0.09508 -0.39592
36095 -0.384142 0.374808 0.443074 0.317085 -0.534489 2.57529 -4.67146 -1.2904 0.588524 -0.0391438 0.16887 0.36238 0.0492325 -0.771151 0.114585 -1.01567 0.25887 -0.409249 -0.318335 -0.078389 0.099335 -0.318712 -0.664034 -0.457767 0.547657 -0.138632 -0.313479 -0.174348 0.209282 -0.23419 0.0964084 -0.312008
33472 -0.442388 0.38736 0.257305 0.188634 -0.520245 2.53514 -4.92189 -1.53566 0.483441 -0.0986549 -0.178632 0.370907 0.019821 -0.80329 0.0961565 -0.912489 0.293504 -0.306904 -0.161875 0.159398 0.019817 -0.111509 -0.268926 -0.465301 0.492465 -0.0951455 -0.103804 0.102105 0.269922 -0.0740698 0.00443616 -0.512077
32962 -0.433635 0.328448 0.266663 0.0179007 -0.216897 2.40709 -4.74966 -1.5587 0.408533 -0.216005 -0.212825 0.558206 0.0960681 -0.581929 0.182939 -0.96889 0.369507 -0.389668 -0.109173 0.0540325 -0.0509243 -0.128978 -0.323566 -0.568291 0.510552 -0.160267 -0.0606999 -0.177101 0.445004 -0.239442 -0.128919 -0.360043
36948 -0.782091 0.505011 0.503622 0.352639 -0.0867253 2.40356 -4.42716 -1.5096 0.818428 -0.135935 -0.355323 0.427776 -0.0508512 -0.693964 0.471985 -1.06223 0.444278 -0.159185 -0.0527512 -0.0572402 -0.134479 -0.195474 -0.651952 -0.317627 0.488173 -0.199132 -0.273326 0.0283736 0.243834 -0.131845 0.206745 -0.734083
33496 -0.511083 0.377313 0.263587 0.107649 -0.538204 2.5251 -4.52999 -1.3863 0.549807 -0.0759629 -0.187306 0.437614 0.145812 -0.899889 0.279105 -0.868101 0.512682 -0.203409 0.135714 0.0909531 -0.00666961 -0.100225 -0.388914 -0.602654 0.37351 -0.14503 -0.149299 -0.0564706 0.182639 0.155612 -0.263897 -0.497667
34001 -0.437387 0.353989 0.297423 0.180328 -0.537981 2.53875 -4.28586 -1.19338 0.682154 0.282413 -0.334714 0.387955 0.197169 -0.855195 0.159771 -0.890103 0.467742 -0.0285307 -0.427111 0.289292 -0.415971 -0.338507 -0.585506 -0.466595 0.40589 0.166614 -0.574998 -0.147476 0.307887 -0.0354905 -0.214804 -0.303438
33024 -0.445136 0.547891 0.318965 -0.0970882 -0.44716 2.56236 -4.34837 -1.55819 0.626707 -0.119014 0.0204262 0.257545 -0.122491 -0.656585 -0.141409 -1.03459 0.831815 -0.35698 -0.202718 0.120367 -0.207418 -0.160689 -0.521769 -0.547183 0.498978 -0.286851 -0.149417 0.00461909 0.39922 -0.112639 -0.0158563 -0.472423
33418 -0.455281 0.477362 0.351941 0.030849 -0.388944 2.64475 -4.5513 -1.39045 0.478544 0.308565 -0.0817268 0.383065 -0.0645832 -0.587211 0.00894783 -1.11103 0.404196 -0.207372 -0.257246 0.231033 -0.164118 0.131585 -0.378603 -0.473713 0.14583 0.0233633 -0.451659 -0.00870817 0.198203 -0.160439 -0.000434894 -0.540741
34232 -0.159172 0.832871 0.405125 0.230072 -0.83564 2.65626 -3.74616 -1.33891 0.813329 -0.179029 -0.0716212 0.694395 -0.210668 -0.817168 0.361206 -1.02453 0.718583 -0.662274 -0.583905 -0.298969 0.0772309 -0.0280538 -0.455473 -0.371648 0.628978 -0.0289999 -0.458551 -0.17442 0.523671 -0.414019 -0.157228 -0.767702
36302 -0.109819 0.529961 0.324575 0.067662 -0.401631 2.56363 -4.77139 -1.36161 0.485819 -0.205211 -0.241366 0.308055 -0.131307 -0.834908 0.248899 -0.838924 0.475013 -0.359503 -0.141453 -0.236478 0.0451562 -0.0889569 -0.453256 -0.310596 0.186403 0.0135727 -0.170691 -0.154187 0.450471 -0.046474 0.204555 -0.600839
33431 -0.211171 0.512128 0.233094 -0.168972 -0.50483 2.45174 -4.76061 -1.22379 0.644382 -0.00767927 -0.188437 0.162863 -0.276226 -0.832269 0.221676 -0.948862 0.345882 -0.203439 0.0687148 -0.139583 -0.0949081 0.0243507 -0.365814 -0.348447 0.202784 -0.344863 -0.115046 -0.13612 0.0922671 -0.41702 0.0272649 -0.693314
31559 -0.30174 0.564067 0.143307 -0.162164 -0.562495 2.34455 -4.81963 -1.12711 0.53022 -0.181993 0.0190477 0.383301 -0.075555 -0.916515 0.251585 -0.916962 0.046108 -0.417561 -0.0648626 0.097564 0.21422 -0.201003 -0.221991 -0.493984 0.372819 -0.264888 -0.317663 -0.101446 0.156035 -0.236712 -0.0357579 -0.567221
36702 -0.427493 0.585878 0.340864 0.131903 -0.242689 2.54967 -4.61868 -1.44839 0.411279 0.136278 -0.252195 0.43736 -0.196819 -0.767326 0.113769 -1.06535 0.476608 -0.0672843 -0.0870322 0.0105878 -0.238169 -0.0820673 -0.325866 -0.502754 0.364738 -0.121733 -0.240607 -0.00279931 0.276023 -0.0502503 -0.0518016 -0.573911
33714 -0.661395 0.700157 0.463688 -0.0679262 -0.397613 2.55484 -4.06745 -1.46098 0.742471 0.0795415 -0.314992 0.578674 -0.444419 -0.972459 0.174478 -1.09716 0.287861 -0.280979 -0.202594 0.0207076 -0.10851 0.108458 -0.580928 -0.397828 0.605564 -0.167628 -0.569888 -0.0923865 0.476734 -0.0307529 0.0532587 -0.652688
32728 -0.597061 0.615506 0.434073 -0.104796 -0.611614 2.36963 -4.4231 -1.02092 0.800763 -0.0776153 -0.299217 0.462114 -0.0295985 -0.644467 0.313147 -1.09753 0.366317 -0.204917 -0.0360715 0.156166 0.141684 -0.238675 -0.646176 -0.283547 0.4352 -0.1486 -0.474295 -0.0469935 0.45866 0.078844 -0.00849858 -0.595333
32505 -0.345622 0.401853 0.29852 0.237751 -0.40902 2.62457 -4.91771 -1.51775 0.486693 -0.2913 -0.165776 0.28734 0.141067 -0.672501 0.335383 -0.99913 0.120519 -0.454913 -0.313585 0.0262632 -0.180481 -0.199738 -0.379005 -0.582074 0.413302 -0.0617137 -0.235612 0.133443 0.0101126 0.355998 -0.0793692 -0.576431
1258603 -0.465923 0.50325 0.433334 0.451879 -0.804988 2.0993 -2.99692 -0.751903 0.633947 -0.165609 -0.241878 0.670855 -0.35842 -0.734177 0.476269 -1.24474 0.324583 -0.332211 -0.364587 0.0125544 -0.057891 -0.0614631 -0.244843 -0.832714 0.89119 -0.151689 -0.345466 0.0816306 0.349139 0.0751654 -0.507212 -0.921973
32276 -0.036744 0.483908 0.662135 0.217626 -0.691205 2.54789 -4.74828 -1.45508 0.572404 -0.209568 -0.222832 0.461862 -0.410244 -0.637387 0.31671 -0.929314 0.419844 -0.327642 -0.246264 -0.203994 -0.0393348 0.148493 -0.395163 -0.51058 0.413525 -0.153042 -0.242539 0.232094 0.162358 -0.00618385 -0.087814 -0.529037
36236 -0.651735 0.975502 0.332281 0.24511 -0.157176 2.45819 -3.60949 -1.19286 0.767841 -0.039103 -0.370876 0.551331 -0.225427 -0.723837 0.249275 -1.21144 0.575667 -0.37642 -0.360949 0.216829 0.0460596 -0.0423387 -0.392998 -0.392384 1.0204 -0.280018 -0.299994 -0.0358626 0.537942 -0.310111 -0.441921 -0.740464
31296 -0.574384 0.355177 0.411842 -0.128382 -0.185578 2.48531 -4.45623 -1.54934 0.443375 0.0159974 -0.0429219 0.524237 -0.00643021 -0.708565 0.159744 -1.05951 0.741515 -0.414691 -0.109147 0.0516125 -0.109294 -0.171231 -0.225414 -0.56867 0.609238 -0.349978 0.0406273 0.0628208 0.326376 -0.0728258 -0.218055 -0.847839
36604 -0.534832 0.453296 0.395032 -0.169786 -0.496467 2.57351 -4.36495 -1.47379 0.530919 -0.0296666 -0.366324 0.672918 0.299748 -0.874596 0.550079 -0.792184 0.599864 -0.431498 -0.0720182 0.378279 -0.0328528 0.0173547 -0.260609 -0.377392 0.395924 -0.340717 -0.268368 0.0129202 0.294825 -0.0132091 -0.313112 -0.747166
31229 -0.349756 0.57779 0.23641 -0.151969 -0.477483 2.47447 -4.86558 -1.3667 0.672985 -0.195588 -0.295242 0.364312 0.0383121 -0.649106 0.0539609 -0.93381 0.482766 -0.390786 -0.261594 0.16279 -0.10933 -0.238586 -0.220066 -0.462875 0.291786 -0.273961 -0.609439 -0.132337 0.207775 -0.0926069 -0.0914858 -0.549313
31026 -0.318155 0.570693 0.419657 -0.0219387 -0.275918 2.57568 -4.68347 -1.2272 0.363949 0.250702 -0.243684 0.420549 -0.000358467 -0.585447 0.0969816 -1.19044 0.327585 -0.101209 -0.041864 0.0844466 0.0568661 0.0734001 -0.280108 -0.466565 0.252306 -0.404887 -0.372838 -0.0947493 0.47609 0.0896209 -0.2292 -0.415129
35423 -0.635295 0.648289 0.203769 0.305055 -0.291266 2.86564 -3.59028 -1.13392 1.03682 -0.0796541 -0.427645 0.602433 -0.0151458 -0.85006 -0.0330776 -1.35494 0.378983 -0.461225 -0.131685 -0.0565232 -0.0530506 0.07663 -0.537931 -0.594338 0.73581 -0.473515 -0.156948 -0.316841 0.235238 -0.193234 0.0130636 -0.702922
34635 -0.204633 0.453431 0.264984 0.171357 -0.496461 2.55862 -4.81829 -1.48994 0.500792 -0.0308243 -0.0760296 0.343724 0.014473 -0.598951 0.148573 -0.93294 0.456061 -0.263888 -0.121814 -0.0320027 -0.0950014 -0.0850569 -0.285224 -0.319913 0.45906 -0.0379298 -0.317703 -0.0291888 0.248725 -0.104881 0.193067 -0.484464
32949 -0.265832 0.532815 0.384092 0.000279314 -0.567248 2.52325 -4.85009 -1.56496 0.282146 0.239465 -0.154529 0.186675 -0.0211148 -0.742717 0.0793489 -0.936164 0.410262 -0.10289 -0.207335 0.200364 -0.0193456 0.121474 -0.266893 -0.532898 0.343956 -0.0073657 -0.401034 -0.0807794 0.0518264 -0.333684 0.0571481 -0.320998
31963 -0.117608 0.611146 0.385818 -0.142699 -0.431478 2.53546 -4.47408 -1.44375 0.415859 0.149512 -0.0409183 0.321096 -0.0530832 -0.804065 0.202301 -1.13109 0.284997 0.0251738 -0.0562539 0.16215 -0.154 0.137575 -0.343662 -0.359832 0.507691 -0.238512 -0.523947 -0.00538337 0.139046 -0.304251 -0.0735058 -0.491766
36568 -0.213576 0.610669 0.237975 0.259441 -0.408517 2.54803 -4.87762 -1.51095 0.603461 -0.133317 -0.300517 0.301743 0.0629662 -0.715618 0.205861 -0.989167 0.334806 -0.58655 -0.100035 0.339378 0.0495277 -0.0128086 -0.0426166 -0.732879 0.60705 -0.307551 -0.174914 -0.14237 0.358898 -0.219456 0.0499268 -0.423566
32625 -0.267728 0.625136 0.0309133 0.21034 -0.456168 2.54543 -4.76795 -1.45429 0.402924 -0.00565168 -0.157792 0.335098 -0.100933 -0.909506 0.195955 -0.71289 0.552395 -0.366744 0.148121 0.591401 0.15056 -0.272216 -0.0859132 -0.646295 0.229087 -0.497884 -0.242953 -0.179072 0.221668 -0.296777 0.0915902 -0.355164
36867 -0.291634 0.34284 0.23133 0.0730498 -0.169026 2.63899 -4.3939 -1.25273 0.464332 0.00737738 -0.230185 0.542277 -0.197848 -0.917885 0.434773 -0.90484 0.417472 -0.293424 -0.10377 0.103067 0.00185629 -0.109421 0.0107683 -0.551258 0.778584 -0.31549 -0.245773 -0.408229 0.17655 -0.22237 -0.177713 -0.262765
35540 -0.26335 0.515001 0.459702 0.167942 -0.468468 2.60159 -4.85956 -1.43105 0.389227 -0.0323766 -0.0380288 0.288447 -0.016727 -0.672153 0.205819 -0.921539 0.375636 -0.529879 -0.357564 0.0800276 -0.286791 -0.160257 -0.222077 -0.343014 0.409017 -0.0316287 -0.0224585 -0.154615 0.409182 -0.125572 0.118612 -0.511836
32783 -0.267535 0.294065 0.576239 0.0239986 -0.640762 2.49648 -4.45028 -1.4409 0.5826 -0.187511 -0.0790857 0.35861 0.0523846 -0.369104 0.467333 -0.996196 0.367648 -0.431452 -0.533332 -0.180824 0.0645138 -0.230952 -0.531573 -0.214591 0.703678 -0.0824165 -0.402733 0.187739 0.21579 -0.19313 -0.0622762 -0.388494
35141 -0.277283 0.509743 0.326008 0.0632344 -0.495781 2.60612 -4.69815 -1.54743 0.513628 -0.214483 -0.138345 0.423795 -0.105709 -0.750666 0.164466 -0.896743 0.542695 -0.285401 -0.337054 0.0766536 -0.0590542 -0.229275 -0.420922 -0.262335 0.399881 -0.119895 -0.375158 -0.289322 0.388764 0.0369784 -0.123797 -0.473722
31921 -0.234098 0.392656 0.275256 0.00355629 -0.460349 2.57238 -4.96258 -1.436 0.634046 -0.152891 -0.121329 0.357423 -0.10106 -0.623526 0.00986592 -0.871893 0.343438 -0.313187 -0.27085 -0.0743161 0.162618 -0.242415 -0.285341 -0.542636 0.389802 -0.0982204 -0.240485 0.202891 0.213571 -0.209495 0.00425801 -0.396877
33494 -0.401031 0.864196 0.32601 0.054114 -0.193065 2.67583 -3.70115 -1.27858 1.00509 -0.117024 -0.201655 0.523396 -0.00100237 -0.876344 0.221794 -1.37232 0.589448 -0.379947 -0.104486 0.107532 0.18492 -0.213758 -0.494918 -0.281649 0.901062 -0.118845 -0.258137 -0.255873 0.391992 -0.465598 -0.391127 -0.93689
31352 -0.225663 0.425809 0.417114 -0.111329 -0.402929 2.51013 -4.90697 -1.41263 0.313316 -0.23126 -0.253756 0.30561 -0.0498285 -0.776771 0.0713734 -0.935516 0.269849 -0.179251 -0.0783223 0.00792301 -0.157706 -0.0271194 -0.296627 -0.385633 0.273175 -0.182895 -0.162921 -0.0999722 0.385367 -0.122883 -0.0576117 -0.319341
31122 0.0322174 0.454409 0.226992 0.25824 -0.810921 2.6387 -4.41775 -1.49627 0.40183 0.0498883 -0.051661 0.296301 -0.0624246 -0.556748 0.392639 -0.976078 0.379844 -0.367514 -0.360322 -0.28079 -0.208148 -0.00457028 -0.597314 -0.193082 0.582181 -0.21222 -0.280128 -0.00111286 0.228906 -0.284169 0.158773 -0.212398
32229 -0.127552 0.446842 0.532981 0.0530803 -0.793829 2.74079 -4.16567 -1.43763 0.788113 0.0357028 0.0457422 0.334596 0.0906443 -0.485697 0.556418 -1.05073 0.515214 -0.271226 -0.469023 -0.196965 -0.0484086 -0.176323 -0.680233 -0.332077 0.598492 -0.0321693 -0.354259 0.0720556 0.120308 -0.568576 0.154211 -0.438309
33420 -0.424749 0.759157 0.351087 0.102734 -0.592824 2.49886 -3.63642 -1.42143 1.00997 -0.010076 0.154773 0.673765 0.399685 -0.919009 0.120831 -1.25718 0.47272 -0.0804413 -0.417297 -0.181536 -0.297636 -0.266878 -0.55638 -0.706924 0.562419 -0.136536 -0.262587 -0.219432 0.451522 -0.20006 -0.291759 -0.712019
34032 -0.209536 0.47797 0.414984 0.0134688 -0.395689 2.65145 -4.66295 -1.21922 0.452374 0.0215103 -0.112929 0.41075 -0.116779 -0.580937 0.20454 -1.11614 0.229746 -0.372433 -0.15356 0.0573673 -0.253368 -0.118472 -0.0721807 -0.405977 0.345377 -0.037455 -0.197399 -0.164323 0.537143 -0.344963 -0.179757 -0.563032
35746 -0.310072 0.537009 0.41135 0.254566 -0.667926 2.49952 -4.75109 -1.59596 0.477762 -0.175742 -0.178626 0.388552 -0.00348828 -0.679067 0.222301 -1.02717 0.355684 -0.334667 -0.184916 -0.0439332 -0.0205063 -0.0312048 -0.327274 -0.527468 0.567691 -0.0540436 -0.183546 0.0836508 0.151124 0.00183957 -0.128788 -0.599595
32006 -0.183697 0.575933 0.450874 -0.306479 -0.604872 2.6614 -4.15241 -1.29747 0.750094 -0.216685 -0.518765 0.495763 0.102132 -0.6527 -0.00850623 -1.22964 0.282258 -0.486888 -0.159678 0.290765 -0.0883998 -0.0668389 -0.587801 -0.473791 0.48144 0.176533 -0.409718 -0.0210721 0.417395 -0.226622 -0.209549 -0.769651
34267 -0.697121 0.832243 0.53214 -0.111648 -0.390331 2.60095 -3.63274 -0.997689 1.09513 -0.05304 -0.255247 0.586725 -0.253744 -0.873722 0.101503 -1.29057 0.646337 -0.310169 -0.133498 0.230276 -0.0605966 -0.0680323 -0.657262 -0.380578 0.83179 -0.171494 -0.486823 -0.131009 0.461335 0.193388 -0.0322403 -0.874449
32633 -0.524663 0.62419 0.260494 -0.0954079 -0.452496 2.48149 -4.39046 -1.40433 0.703795 -0.126169 -0.220875 0.653915 -0.222699 -0.666903 0.148592 -1.06595 0.588664 0.0528156 -0.104935 0.273954 -0.134351 -0.0305516 -0.644007 -0.557128 0.600466 0.0749851 -0.24478 0.227144 0.286203 -0.134364 0.202861 -0.626602
36408 -0.239486 0.415961 0.34429 0.291913 -0.429496 2.57711 -4.97686 -1.53771 0.482383 -0.340236 -0.16273 0.357192 0.159405 -0.699715 0.149644 -0.924131 0.142652 -0.496913 -0.282699 0.0913146 -0.113855 -0.216595 -0.444658 -0.530942 0.398142 -0.114597 -0.188586 0.123847 -0.0577654 0.428729 -0.0848087 -0.592812
36841 -0.147745 0.529703 0.248281 0.12511 -0.370019 2.64293 -4.73052 -1.45258 0.422665 -0.36703 -0.101728 0.366562 -0.231151 -0.806629 0.0423529 -0.841768 0.657465 -0.27185 -0.274526 -0.0353559 0.0263663 -0.192067 -0.284356 -0.444683 0.334112 0.0513954 -0.209318 -0.0141049 0.615694 0.112851 0.0694225 -0.523164
31467 -0.43198 0.300803 0.390346 0.190694 -0.406885 2.46327 -4.79566 -1.41184 0.369208 -0.179927 -0.111006 0.373917 0.143193 -0.867595 0.261637 -0.970897 0.277403 -0.20749 0.0232559 0.0565464 -0.232131 -0.0533416 -0.221576 -0.416105 0.381975 -0.201519 -0.246423 0.0529165 0.161993 -0.153766 -0.248883 -0.586535
31549 -0.521759 0.978949 0.208133 0.0449143 -0.428848 2.17531 -2.94497 -0.924988 0.920811 -0.126768 -0.18511 0.622763 0.0108651 -1.08582 0.225281 -1.2489 0.674538 -0.389837 -0.545421 0.299804 -0.150648 -0.0528484 -0.376442 -0.725684 0.822571 -0.242796 -0.471428 -0.169843 0.6309 -0.138543 0.0432185 -1.26611
34154 -0.256184 0.647716 0.254552 0.138327 -0.473309 2.61579 -4.34732 -1.27034 0.762766 -0.0134995 -0.387041 0.432928 0.0856185 -0.792749 0.182983 -1.15429 0.225879 -0.264004 0.0573972 0.43633 0.22942 -0.261948 -0.314498 -0.306001 0.696195 -0.0629755 0.0625217 0.00444678 0.574759 -0.177115 0.0830621 -0.88894
35666 -0.410998 0.989573 0.576176 0.193477 -0.517569 2.10623 -2.87965 -0.825581 0.77681 0.015898 -0.120843 0.369797 -0.246297 -1.10319 0.220614 -1.21708 0.56738 -0.327234 -0.222784 -0.0878854 0.197401 -0.22348 -0.212604 -0.56241 0.484999 -0.206639 -0.342843 0.152155 0.624679 -0.326252 -0.286413 -1.29897
36104 -0.236389 0.701469 0.480251 -0.0369174 -0.370643 2.50526 -4.82831 -1.60351 0.405153 0.151576 -0.119486 0.311473 -0.111383 -0.517833 0.228709 -1.07994 0.307363 -0.0881075 -0.124797 0.229625 0.0872578 -0.194645 -0.0875386 -0.346583 0.253387 -0.107612 -0.179168 0.0166627 0.273463 -0.0608955 -0.0555607 -0.637927
34076 -0.389093 0.474514 0.0806626 -0.0834663 -0.555693 2.49963 -4.53921 -1.47373 0.611197 -0.0990948 0.248013 0.343699 0.0137258 -0.737276 0.417328 -0.841418 0.530004 -0.527021 -0.230325 0.238709 0.0554316 -0.0951149 -0.394912 -0.331586 0.10309 -0.42902 -0.12196 0.0187582 0.327161 -0.365116 -0.0777626 -0.817778
31972 -0.435892 0.653189 -0.0338707 -0.220219 -0.489742 2.44459 -4.32944 -1.20852 0.699052 -0.0302206 0.194947 0.502012 -0.0715961 -1.04697 0.434356 -0.837982 0.496547 -0.384018 -0.000334745 0.402336 0.213724 0.102476 -0.14902 -0.315181 0.371706 -0.319533 -0.356056 -0.265959 0.386632 -0.183047 -0.0873523 -0.80463
33169 -0.432125 0.767392 0.437569 0.162913 -0.382057 2.4668 -4.16727 -1.52618 0.385311 -0.0273367 -0.154205 0.477321 -0.0612212 -0.820473 0.120017 -1.0518 0.497103 -0.208423 -0.295193 0.212392 -0.124763 -0.170261 -0.369443 -0.340577 0.570502 -0.0512151 -0.3292 -0.113707 0.330008 0.107489 0.375658 -0.651701
32240 -0.414414 0.612948 0.296048 0.204311 -0.376349 2.38257 -4.59337 -1.40385 0.333727 -0.167073 -0.064889 0.535722 -0.308199 -0.647718 0.251139 -1.00881 0.491101 0.141812 -0.196721 0.272943 -0.0786288 0.0222906 -0.281605 -0.352573 0.537749 -0.112541 -0.26223 -0.212668 0.0621918 -0.256089 0.0775309 -0.500182
36875 -0.531283 0.562589 0.172851 -0.224241 -0.455297 2.53194 -4.42239 -1.11477 0.712395 -0.290607 -0.309844 0.669939 -0.0648177 -0.753447 0.17946 -1.01774 0.265132 -0.25911 -0.00283006 0.186813 0.0165885 -0.211008 -0.339593 -0.509645 0.417565 -0.316924 -0.262115 -0.234381 0.342279 -0.22851 -0.231833 -0.489209
33171 -0.571799 0.907953 0.173518 0.0230878 -0.284975 2.55878 -3.956 -1.14946 0.948051 0.0782624 -0.395026 0.511973 -0.111747 -0.989492 -0.118523 -1.08562 0.573816 -0.640094 -0.0878524 0.192911 -0.145025 -0.181696 -0.555883 -0.643932 0.391602 -0.359092 -0.171118 -0.292597 0.288471 -0.307371 0.00835841 -0.847378
35053 -0.445042 0.758315 0.249124 -0.233035 -0.382671 2.5957 -4.34712 -1.10862 0.81302 -0.0232565 -0.358838 0.479621 -0.0998669 -0.799871 0.0636368 -1.06571 0.557309 -0.384363 -0.384504 0.00954507 -0.244288 -0.0469289 -0.68347 -0.546801 0.719992 -0.0880985 -0.340667 0.0124905 0.118628 -0.0955453 0.0614928 -0.696093
35014 -0.263685 0.537311 0.259927 0.00457448 -0.299255 2.51569 -4.83753 -1.48264 0.610147 -0.00411607 -0.207473 0.368988 -0.0198284 -0.422975 0.125586 -1.016 0.319322 -0.410204 -0.0392499 0.101828 -0.166186 -0.104516 -0.317453 -0.503726 0.446536 0.0289725 -0.149135 -0.141424 0.229462 0.0991628 0.0941843 -0.585788
34386 -0.384123 0.594896 0.113379 0.167636 -0.350167 2.72362 -4.17576 -1.29139 0.680957 -0.109012 -0.269653 0.344546 -0.135572 -0.723948 0.0869912 -1.0789 0.499865 -0.410838 -0.325999 0.0507109 -0.0396174 0.120742 -0.490415 -0.282598 0.815888 -0.247653 -0.491014 -0.121804 0.402665 -0.229797 -0.166172 -0.416025
33211 -0.493143 0.483304 0.491526 -0.0905489 -0.366408 2.5876 -4.32137 -1.327 0.750854 -0.197038 -0.276353 0.590904 -0.0188037 -0.749525 0.184069 -1.15656 0.293712 -0.38735 -0.248246 0.317212 0.2433 0.175807 -0.41317 -0.455368 0.602981 -0.0907455 -0.268743 -0.213926 0.384574 -0.166401 0.0111604 -0.674636
34736 -0.388293 0.560142 0.427581 0.296657 -0.350623 2.6829 -4.41412 -1.42093 0.656753 -0.199455 -0.0316316 0.495103 -0.128641 -0.777144 0.412571 -0.992625 0.567902 -0.470433 -0.233763 0.173504 -0.0689241 0.0926182 -0.225586 -0.477143 0.639265 -0.362901 -0.383376 -0.262525 0.415981 -0.16686 0.201499 -0.564617
32884 -0.468916 1.02837 0.371818 0.262535 -0.48758 2.47938 -3.87321 -0.830793 0.820612 -0.260261 -0.32242 0.76912 0.00222503 -1.01994 -0.147902 -1.1081 0.511549 -0.431369 -0.210274 0.150778 -0.115234 0.25468 -0.593457 -0.56185 0.568059 -0.0949465 -0.349611 -0.0234357 0.684775 -0.0367835 0.159952 -0.784634
32338 -0.369918 0.90402 0.096239 0.104572 -0.684715 2.62172 -4.0644 -1.12918 0.741651 -0.173243 -0.350399 0.253545 -0.326473 -0.83538 0.33169 -1.09881 0.31912 -0.47551 -0.359929 -0.110565 -0.102302 0.261831 -0.410214 -0.426308 0.56489 -0.350658 -0.240296 -0.102854 0.56282 -0.0265488 0.247164 -0.689115
34853 -0.483999 0.766502 0.684688 0.215973 -0.557974 2.59883 -3.73306 -1.05327 0.784923 -0.175062 -0.277616 0.555563 -0.0920853 -0.881327 0.0770898 -1.28077 0.484712 -0.279702 -0.309995 0.082711 -0.261002 -0.144389 -0.497563 -0.563038 0.559616 -0.336892 -0.18376 -0.346558 0.424508 -0.133295 0.109534 -0.813355
34402 -0.55301 0.479464 0.308858 0.156179 -0.590464 2.4591 -4.63757 -1.61617 0.86723 -0.0370673 -0.351128 0.448439 -0.136242 -0.581917 0.137211 -1.11793 0.51686 -0.162142 -0.0430281 0.0590419 -0.15183 0.167222 -0.487754 -0.42937 0.407617 -0.236543 -0.225727 -0.129561 0.240244 -0.230049 0.160294 -0.706339
32933 -0.287743 0.565555 0.0564725 0.23611 -0.339523 2.63621 -4.59955 -1.58287 0.703399 -0.218841 -0.164062 0.347252 -0.0610338 -0.595687 0.174753 -1.1175 0.27418 -0.120361 -0.190768 -0.162935 0.152942 -0.233342 -0.195712 -0.528707 0.508453 -0.0913521 -0.267061 -0.326959 0.0262808 -0.233721 -0.0766263 -0.621633
35637 -0.318576 0.748132 -0.00422416 0.0615938 0.196667 2.63173 -3.64619 -1.26265 1.08903 0.150826 -0.0420203 0.711544 -0.384209 -1.09643 0.476707 -0.958517 0.137931 -0.584151 -0.404464 -0.224054 -0.305892 -0.063576 -0.4245 -0.467953 0.902954 -0.198047 -0.486447 -0.616569 0.305785 -0.0604222 -0.433591 -0.823098
32677 -0.3061 0.422319 0.478687 -0.187807 -0.301729 2.55746 -4.65022 -1.61016 0.593457 -0.0295542 -0.0492159 0.602771 -0.175643 -0.645777 0.173362 -0.923118 0.289655 -0.337984 -0.075826 0.0340351 -0.142801 -0.00332588 -0.416718 -0.320403 0.405885 -0.0803682 -0.298154 -0.262164 0.149497 -0.0960519 -0.0392108 -0.500355
32207 -0.230057 0.833098 0.510874 -0.0124053 -0.404114 2.57532 -4.22736 -0.957339 0.761249 -0.349951 -0.241589 0.556136 -0.229822 -0.762059 0.166166 -1.08794 0.381016 -0.348654 -0.205768 0.00983321 -0.276213 -0.175295 -0.564415 -0.313186 0.698102 -0.136684 -0.259396 -0.00453294 0.207308 -0.18591 -0.0791088 -0.639735
31014 -0.301029 0.333143 0.313191 0.147729 -0.372638 2.66 -4.98399 -1.49593 0.508169 -0.413152 -0.206877 0.35554 0.129041 -0.698019 0.141566 -0.920386 0.131808 -0.365994 -0.181366 0.0902578 -0.0403799 -0.171617 -0.364717 -0.495987 0.461476 -0.197302 -0.185322 0.148412 0.0529259 0.332477 -0.072753 -0.474492
32786 -0.299455 0.474633 0.135155 0.0914852 -0.401455 2.59592 -4.69782 -1.27787 0.370087 -0.169462 -0.144833 0.383976 0.114766 -0.329004 0.143756 -0.989507 0.596761 -0.449935 -0.296658 -0.0745179 0.0408183 -0.0281265 -0.445167 -0.14513 0.361986 -0.226546 -0.117653 -0.114151 0.234766 -0.0596766 0.109936 -0.618726
35375 -0.212468 0.498083 0.394715 0.203231 -0.342951 2.57705 -4.86181 -1.40961 0.348353 0.0255248 -0.0790439 0.151958 -0.281174 -0.744918 0.0877578 -0.969523 0.470561 -0.174796 -0.0987523 0.236426 0.0555239 -0.0791672 -0.270371 -0.519248 0.348618 -0.0497013 -0.230517 -0.0048373 0.0375443 -0.136251 0.108715 -0.485147
31667 -0.109769 0.494182 0.290351 0.0444551 -0.420578 2.56573 -4.58086 -1.33407 0.599519 -0.0954351 0.0938273 0.318818 0.0566996 -0.712858 0.295729 -1.03817 0.418174 -0.187935 0.110814 -0.00372657 -0.187537 -0.0114702 -0.322048 -0.450554 0.501099 -0.119252 -0.185223 -0.231591 0.32993 -0.136559 -0.211492 -0.515679
36099 -0.269802 0.490944 0.437707 0.0265493 -0.572975 2.45791 -4.70398 -1.41449 0.614015 0.0814278 -0.10329 0.230821 -0.0275972 -0.491413 0.103069 -1.0074 0.663399 -0.227515 -0.107278 -0.293029 0.283081 -0.072951 -0.337396 -0.39773 0.453886 -0.13897 -0.267251 0.15036 0.0829261 -0.103317 -0.10552 -0.471041
34595 -0.365232 0.600363 0.273682 -0.0150727 -0.530826 2.47587 -4.6324 -1.44059 0.661382 -0.182062 -0.207943 0.320468 0.11421 -0.596786 0.167763 -0.948669 0.573008 -0.200587 -0.228341 0.0739447 -0.0430078 -0.615695 -0.242011 -0.536556 0.469772 -0.268885 -0.294094 0.0510128 0.310058 0.225865 0.097759 -0.497409
36050 -0.52936 0.36705 0.414111 0.0309067 -0.462745 2.49713 -4.6333 -1.42268 0.397185 -0.264576 -0.589491 0.716796 0.120865 -0.896519 0.386059 -0.803935 0.416825 -0.316892 -0.175431 0.121559 -0.212015 -0.0184542 -0.548684 -0.611046 0.340723 -0.222363 -0.353716 0.0871166 0.186351 -0.190026 -0.368389 -0.474238
35653 -0.2658 0.413813 0.274508 0.237447 -0.391701 2.57713 -5.00783 -1.57298 0.51535 -0.301478 -0.178805 0.35817 0.154845 -0.652899 0.122329 -0.901454 0.293442 -0.424215 -0.189097 0.0148137 -0.14669 -0.147529 -0.305746 -0.446565 0.324333 -0.0901793 -0.247131 0.033836 -0.0554306 0.267236 -0.109609 -0.539688
33626 -0.242395 0.341384 0.297765 -0.0280735 -0.671329 2.51432 -4.69933 -1.20436 0.55427 -0.283633 -0.229233 0.481437 -0.0969397 -0.658039 0.0472099 -1.01149 0.365403 -0.241627 -0.168576 0.370279 -0.22658 -0.587366 -0.131528 -0.363628 0.459691 0.0285447 -0.547069 -0.0856039 0.0339366 -0.0141302 -0.00255193 -0.743959
35738 -0.32515 0.580279 0.266129 0.0347382 -0.346781 2.5465 -4.58538 -1.44073 0.671616 -0.135972 -0.319101 0.341439 0.278233 -0.505269 0.165011 -1.01753 0.358321 -0.488727 -0.105918 0.0818933 -0.0264376 -0.288173 -0.448666 -0.370408 0.34673 -0.0971598 -0.31268 -0.130681 0.416247 -0.0425209 -0.270212 -0.588409
34997 -0.345112 0.51957 0.52115 -0.00321747 -0.442432 2.44492 -4.79986 -1.45254 0.427601 0.176385 0.0171496 0.146044 0.00663232 -0.719957 -0.055619 -0.982769 0.372846 -0.277903 -0.299927 0.101341 -0.0223589 -0.0314273 -0.338279 -0.366006 0.284063 -0.180522 -0.174266 -0.090222 0.162278 -0.00030492 -0.0475244 -0.568094
33467 -0.185648 0.391566 0.272114 0.0917672 -0.381089 2.63928 -4.97012 -1.50035 0.436966 -0.332676 -0.130259 0.42993 0.229084 -0.624862 0.196879 -0.930688 0.219199 -0.395146 -0.207485 0.116602 -0.188683 -0.190615 -0.41548 -0.50397 0.378111 -0.0970981 -0.0732566 0.0336993 0.0371507 0.409127 -0.0863778 -0.570836
32485 -0.227004 0.718796 0.216533 -0.336766 -0.673321 2.36541 -4.16266 -1.23159 0.423503 -0.0852214 -0.196806 0.764692 0.261086 -0.634375 0.21023 -0.934529 0.841269 -0.385064 -0.5593 0.0796442 -0.119416 -0.794675 -0.533344 -0.263952 0.67661 -0.169235 -0.501175 -0.0763173 0.206874 -0.195997 -0.0596029 -0.745465
31914 -0.278833 0.628022 0.394251 -0.0855073 -0.464117 2.31711 -4.89904 -1.48929 0.270528 -0.0496672 -0.0717156 0.344176 0.0391689 -0.683424 0.125697 -0.851149 0.520686 -0.388333 -0.262331 -0.00380654 0.0937361 -0.30321 -0.366228 -0.549714 0.266419 -0.0880488 0.0110034 -0.189494 -0.0305892 -0.244979 -0.00435634 -0.514686
33086 -0.240014 0.257156 0.431534 0.157659 -0.345743 2.56034 -4.78301 -1.45034 0.496076 0.11082 -0.10196 0.325527 -0.0530504 -0.539713 0.0987038 -0.932056 0.488134 -0.23488 0.0174766 0.0931197 0.000552265 -0.0584546 -0.369038 -0.467959 0.126088 -0.0840956 -0.159975 -0.250647 0.363742 0.0391323 0.0622353 -0.467815
36159 -0.387954 0.514843 -0.084109 0.0193827 -0.606707 2.56319 -4.67662 -1.1465 0.743083 -0.168066 -0.295683 0.0659294 -0.262217 -0.635244 0.506615 -1.07609 0.474913 -0.218696 0.0846253 -0.291555 -0.0918621 -0.0577146 -0.325533 -0.231377 0.225055 -0.259177 -0.245088 -0.149077 0.372482 -0.167128 0.356591 -0.73523
31460 -0.311124 0.524684 0.0997794 -0.105659 -0.40905 2.54839 -4.66477 -1.55224 0.577247 0.165385 -0.19165 0.447223 0.146563 -0.44959 0.334421 -0.976161 0.439033 -0.424813 -0.243077 -0.0663772 0.182244 -0.187478 -0.44415 -0.337546 0.270386 -0.14027 -0.133723 -0.348033 0.286359 -0.16304 0.180201 -0.454984
32967 -0.110615 1.11456 0.143022 -0.212941 -0.464887 2.27346 -4.16386 -1.116 0.518482 -0.103275 -0.0611807 0.728251 -0.0418373 -0.73128 0.391728 -0.930448 0.726361 -0.561025 -0.389664 -0.0867903 -0.0709564 -0.184697 -0.527867 -0.380004 0.609845 -0.108356 -0.33295 -0.15772 0.217451 -0.104017 0.0514714 -0.811202
32720 -0.364367 0.685243 0.465377 -0.0290576 -0.555721 2.31471 -4.64366 -1.38817 0.752223 0.0466565 -0.122277 0.29063 -0.212261 -0.812485 0.363162 -0.959063 0.268305 -0.414458 -0.188218 0.219934 -0.0321706 -0.289801 -0.270162 -0.267639 0.525266 -0.213895 -0.313572 -0.0894646 0.179933 -0.110827 -0.273162 -0.744003
34015 -0.428157 0.840804 0.321052 -0.140403 -0.53354 2.53119 -4.00168 -1.23449 0.755494 -0.123286 -0.336402 0.539176 -0.189197 -0.813847 0.177988 -1.10336 0.826395 -0.246794 -0.42092 0.0574185 -0.0580441 -0.110853 -0.193265 -0.450741 0.608989 -0.426649 -0.586746 -0.353274 0.230433 -0.16046 -0.13525 -0.746208
36467 -0.299974 0.473803 0.21878 0.00423333 -0.278993 2.4798 -4.7875 -1.5258 0.546927 0.0840772 -0.0388301 0.416538 -0.14751 -0.755972 0.267782 -0.867195 0.424144 -0.326823 -0.0427013 0.0132966 0.0756497 -0.191441 -0.24777 -0.411526 0.256274 -0.13477 -0.27347 -0.132454 0.116797 -0.164985 -0.081999 -0.6435
32257 -0.13314 0.500376 0.328928 0.122583 -0.491455 2.55262 -4.83172 -1.49236 0.542726 -0.00355862 0.0642327 0.434043 -0.10235 -0.505892 0.144383 -1.08798 0.34019 -0.215591 0.0155568 0.0520863 -0.141507 0.0192924 -0.399396 -0.381797 0.390534 -0.0652095 -0.175511 -0.149901 0.181763 -0.16008 0.113448 -0.630334
35659 -0.255402 0.323146 0.304744 0.170442 -0.25937 2.62751 -4.77539 -1.7004 0.499353 0.084487 -0.0469033 0.469898 -0.26571 -0.425289 0.312525 -1.00527 0.48207 -0.0360977 -0.185958 0.00517098 -0.257634 0.0703317 -0.318759 -0.260673 0.449759 -0.356301 -0.280822 -0.389273 0.0810715 0.0166157 -0.0257106 -0.508925
36123 -0.445887 0.416398 0.2985 0.0111283 -0.320568 2.56749 -4.80503 -1.54939 0.404257 -0.071178 -0.0301065 0.423529 -0.136264 -0.629328 0.165006 -0.972862 0.342827 -0.285263 -0.0623128 0.128136 -0.0989458 0.0786366 -0.340344 -0.501449 0.405321 -0.112787 -0.321043 -0.10897 0.141485 -0.00162089 -0.107105 -0.397525
31342 -0.760175 0.725578 0.354902 0.106582 -0.549111 2.68648 -3.47735 -1.16943 0.830501 -0.414117 0.0823326 0.469492 0.164121 -1.1989 0.420196 -1.32735 0.294474 -0.141178 -0.137391 0.0228879 -0.443017 -0.00219205 -0.619927 -0.634707 0.223102 -0.501922 -0.320538 0.254566 0.337615 -0.275067 -0.430165 -1.12494
32044 -0.276278 0.599162 0.245985 0.058364 -0.676823 2.46391 -4.85003 -1.56531 0.444372 -0.196799 -0.0431406 0.192191 0.0558218 -0.844096 0.202235 -0.99763 0.411291 -0.258178 -0.13988 -0.0843657 -0.0172966 -0.0935488 -0.325439 -0.464084 0.292108 -0.0119246 -0.0831161 -0.187881 0.212264 -0.179121 -0.0327555 -0.652071
36562 -0.276233 0.409874 0.291965 -0.0945523 -0.27985 2.57345 -4.70661 -1.49364 0.606131 -0.102203 -0.191776 0.278094 0.214834 -0.590073 0.431149 -1.02122 0.543597 -0.00285234 0.0435877 -0.0466263 -0.114194 -0.0886364 -0.370146 -0.449996 0.402811 -0.303692 0.0879755 -0.336302 0.338665 -0.103911 0.105908 -0.495034
31717 -0.389299 0.611502 0.367199 0.154233 -0.421924 2.5519 -4.68319 -1.36236 0.446573 0.206953 0.0812384 0.404095 -0.125125 -0.535909 0.266513 -1.1605 0.392986 -0.210275 -0.210369 0.0495764 -0.00451741 -0.0771802 -0.341692 -0.436702 0.199203 0.000678295 -0.139995 -0.10639 0.155177 -0.107486 -0.102143 -0.732241
33176 -0.350582 0.671367 0.283378 -0.28696 -0.398154 2.49391 -4.73942 -1.37028 0.41473 -0.187202 0.0546738 0.0610534 -0.121382 -0.630073 0.105612 -1.03658 0.385178 -0.30342 -0.238575 -0.0495869 0.0418883 -0.134673 -0.144262 -0.454399 0.341171 -0.262136 -0.21813 0.0318842 0.24065 -0.0981707 -0.160537 -0.537485
33852 -0.481749 0.639118 0.281127 -0.0401423 -0.110534 2.76674 -4.06959 -0.788044 0.660038 -0.0452469 -0.202912 0.629459 -0.0639457 -0.756456 0.130921 -1.18449 0.475559 -0.510344 -0.0318025 0.186484 -0.0865731 0.126005 -0.468762 -0.660967 0.516013 -0.0946102 -0.19529 -0.0268983 0.264911 -0.044311 -0.0747416 -0.858865
35268 -0.395438 0.530756 0.365042 0.16975 -0.48728 2.50171 -4.67462 -1.35516 0.612961 -0.052033 0.0970587 0.323123 0.0581837 -0.945013 0.152496 -1.06383 0.38019 -0.226012 0.13638 0.0731589 -0.0560363 0.0509898 -0.277919 -0.390403 0.266191 -0.0976739 -0.193176 0.0725123 0.294254 0.17503 -0.236158 -0.8445
36578 -0.297675 0.63077 0.421749 -0.00645855 -0.184226 2.31853 -4.3627 -1.55077 0.764109 -0.0977262 -0.103148 0.295705 -0.164547 -0.486137 0.0639728 -1.04825 0.749797 -0.050328 -0.146225 -0.0176437 -0.113872 -0.205119 -0.53478 -0.445239 0.383347 -0.0472208 0.146294 -0.0233791 0.26429 -0.164265 -0.115739 -0.779085
34301 -0.237358 0.892296 0.513157 -0.00124313 -0.352656 2.28365 -4.6046 -1.35506 0.534855 0.168616 0.191742 0.421718 0.214202 -0.673103 0.179718 -1.22678 0.0316924 -0.213051 -0.00924744 0.0229311 -0.128029 -0.0230947 -0.368367 -0.350151 0.210896 -0.13503 -0.209047 -0.258483 0.183534 0.0227546 -0.361952 -0.786955
35958 -0.384516 0.834839 0.561587 0.230445 -0.171048 2.54322 -4.55987 -1.31243 0.464791 0.121181 -0.159049 0.490471 -0.0932088 -0.494457 0.185824 -1.29212 0.320356 -0.0500022 -0.0456057 0.112277 -0.167115 0.0141049 -0.404712 -0.430232 0.144538 -0.203214 -0.297647 -0.00102896 0.646074 0.153065 -0.291502 -0.625762
32512 -0.589739 1.00398 0.0316406 0.153365 -0.846323 2.35534 -3.69067 -1.02495 0.74116 0.0356966 0.114439 0.68244 -0.301726 -1.13589 0.249652 -1.17177 0.576782 -0.524457 -0.00806681 0.32744 0.468984 -0.132748 -0.625286 -0.0966834 0.838218 -0.572819 -0.341725 -0.23126 0.41914 -0.191336 -0.0820018 -1.0369
35328 -0.29785 0.779667 -0.123885 -0.00729288 -0.409905 2.60706 -4.37175 -0.942214 0.647422 -0.233229 0.237367 0.59019 -0.18118 -1.05237 0.423551 -1.01915 0.278997 -0.449633 -0.123965 0.0918022 0.240117 0.0180168 -0.0417705 -0.594555 0.498071 -0.476419 -0.280377 -0.205024 0.303588 -0.209218 -0.0785549 -0.722275
35980 -0.312673 0.3882 0.284493 0.219661 -0.387019 2.48768 -4.83898 -1.35245 0.655548 -0.0606767 -0.0375801 0.277093 -0.0155338 -0.718722 0.306514 -0.951737 0.348215 -0.0604289 -0.0792605 0.0363759 -0.0172112 -0.175466 -0.225356 -0.623425 0.362599 -0.0679836 -0.177669 -0.153655 0.189124 -0.0797355 -0.0461341 -0.429909
33959 -0.676571 0.417627 0.210154 0.112867 -0.38682 2.37082 -4.57509 -1.30833 0.440451 -0.0184311 -0.535712 0.503482 -0.0129339 -0.792662 0.290458 -0.91403 0.542101 -0.303812 -0.0948449 -0.0178582 -0.313018 -0.197268 -0.514177 -0.655254 0.488567 -0.265397 -0.103535 0.142742 0.00868926 -0.0702759 -0.315254 -0.652953
32566 -0.583461 0.591538 0.268488 -0.0129728 -0.612569 2.57988 -4.84226 -1.39341 0.611822 -0.13419 -0.424517 0.409975 -0.0672186 -0.686197 -0.0810025 -1.09225 0.427048 -0.168901 -0.3146 0.0986177 0.0228813 0.0249269 -0.563933 -0.443257 0.378426 -0.252245 -0.303431 -0.0164452 0.00119698 -0.00199054 -0.0799033 -0.656387
32640 -0.573004 0.59229 -0.0397257 0.0445901 -0.356946 2.56844 -4.1434 -1.17298 0.593932 -0.110166 -0.28283 0.238669 -0.305669 -0.64066 0.08004 -1.31136 0.473142 -0.192407 -0.155297 -0.185011 0.0405158 -0.00954949 -0.306716 -0.362635 0.58491 -0.48324 -0.345245 -0.347802 0.219585 -0.179042 -0.356682 -0.630305
32062 -0.490011 1.10362 0.468193 0.157802 -0.477922 2.43351 -4.07802 -1.40336 1.01307 -0.0931769 -0.218097 0.544752 -0.171913 -0.831035 0.312346 -1.03933 0.545598 -0.500718 -0.0535968 0.24812 0.0535458 -0.104781 -0.537408 -0.577604 0.590438 -0.419223 -0.363431 0.0357389 0.493124 -0.0980547 -0.0504442 -0.591932
36461 -0.309299 0.522502 0.430623 0.155285 -0.526188 2.61586 -4.92925 -1.50683 0.502043 -0.0419517 -0.0811383 0.219892 -0.104306 -0.545534 0.0585009 -1.04612 0.27776 -0.342537 -0.25567 0.217206 -0.193149 -0.129058 -0.224521 -0.585259 0.209505 -0.12069 -0.132325 -0.0696742 0.39834 -0.136752 0.034693 -0.466268
34856 -0.526177 0.674 0.284188 0.053979 -0.24591 2.67468 -4.0909 -1.02412 0.785207 -0.179186 -0.256908 0.529368 -0.121068 -0.859662 -0.0577769 -1.18695 0.42038 -0.281679 -0.114884 -0.0128381 -0.159637 -0.22314 0.175357 -0.478237 0.857437 -0.0458795 -0.137759 -0.240174 0.689613 -0.163848 0.113906 -0.698757
36907 -0.259568 0.351051 0.346423 0.0282443 -0.308664 2.50849 -5.05729 -1.50914 0.3455 0.0873583 -0.0867076 0.269484 -0.181463 -0.659669 -0.0498192 -0.844311 0.434452 -0.222238 -0.162201 0.144997 -0.0235215 -0.0619461 -0.184416 -0.359741 0.35299 -0.0561258 -0.233426 -0.100238 0.00484408 -0.226809 -0.0475519 -0.42899
34734 -0.242935 0.447591 0.403262 -0.0530675 -0.360044 2.537 -4.5349 -1.14068 0.707769 -0.183938 -0.158354 0.188831 0.0826576 -0.743521 0.299408 -1.11076 0.397943 -0.197067 0.0572553 -0.388316 -0.0893327 -0.0746067 -0.485543 -0.204521 0.389908 -0.640953 -0.0959499 -0.257026 0.333705 -0.140045 0.347384 -0.721183
36403 -0.242828 0.543653 0.148758 0.315741 -0.425616 2.55446 -4.64491 -1.64219 0.504301 0.0508441 -0.177236 0.377665 0.155875 -0.507623 0.159454 -1.03982 0.503164 -0.246587 0.00463146 0.143286 0.0249166 -0.0727273 -0.347248 -0.337082 0.431001 -0.109016 -0.404358 -0.136501 0.221161 -0.408586 -0.0350327 -0.471088
33822 -0.539613 0.4398 0.459091 0.0324855 -0.352718 2.5673 -4.9493 -1.40728 0.550482 -0.0150071 -0.257299 0.409642 -0.116186 -0.545377 -0.00705333 -1.05248 0.505314 -0.392401 -0.282279 0.00249502 -0.0309711 -0.0265767 -0.205643 -0.298164 0.468255 -0.111765 -0.262672 -0.197467 0.202993 -0.10024 0.061779 -0.659399
32957 -0.334783 0.759227 0.772063 0.260855 -0.714253 2.66629 -5.07763 -1.25436 0.701573 -0.0681089 -0.286893 0.885929 0.29266 -0.927774 -0.365714 -1.18906 0.42397 -0.168123 -0.030001 -0.101342 -0.0653418 0.156987 -0.2888 -0.500067 0.722184 -0.319157 -0.245384 -0.189124 -0.0827496 0.0646599 0.278996 -0.653336
125486 -0.261517 0.586736 0.382141 0.0442924 -0.380471 1.76315 -2.28027 -0.552138 0.716076 -0.0256724 -0.305948 0.771804 0.0749983 -0.912385 -0.101301 -0.881247 0.482599 -0.23003 -0.119042 0.152381 -0.00765 0.00201424 -0.445476 -0.471377 0.575449 -0.189474 -0.464011 -0.14432 0.443747 -0.116987 0.0364999 -0.956901
36157 -0.24929 0.293333 0.300367 0.00303402 -0.50794 2.61005 -4.8738 -1.39795 0.541088 -0.326374 -0.179932 0.414943 -0.260565 -0.676978 -0.0361718 -0.894548 0.515955 -0.255371 -0.217038 0.0485014 0.0306111 -0.181966 -0.104091 -0.283324 0.196851 -0.0915901 -0.283417 -0.0897666 0.231504 0.000704856 0.036334 -0.756897
32245 -0.386989 0.54882 0.166597 -0.229201 -0.646152 2.40419 -4.38564 -1.25181 0.901114 -0.185328 0.0577911 0.471063 -0.234125 -1.07272 0.35295 -0.75896 0.371058 -0.706653 0.0243626 0.474926 0.478839 -0.309508 -0.160409 -0.320653 0.275156 -0.643177 -0.412477 -0.0918118 0.373888 -0.466057 -0.0834334 -0.740828
37053 -0.40389 0.697182 0.282509 -0.068078 0.0290636 2.38842 -3.42738 -0.941656 0.81287 0.150818 -0.114616 0.554271 -0.157582 -0.921562 0.180211 -1.05272 0.692474 -0.437805 -0.19298 0.43558 -0.126688 0.0507591 -0.808947 -0.290813 0.771872 -0.345129 -0.243114 -0.0641135 0.375984 -0.10123 -0.00942981 -0.901985
31631 -0.436553 0.370469 0.512536 0.130264 -0.33869 2.52859 -4.95639 -1.44363 0.553629 -0.0376892 -0.126622 0.417836 -0.177696 -0.44294 0.144843 -0.98079 0.309314 -0.251585 -0.292724 0.249667 0.0368778 0.00755685 -0.217751 -0.445521 0.324524 -0.0371385 -0.103964 -0.16161 0.302314 -0.122307 0.0210282 -0.47859
35361 -0.393595 0.6723 0.381198 0.166752 -0.410358 2.52534 -4.69523 -1.35064 0.538163 0.0473283 -0.0984762 0.499663 -0.0593077 -0.609534 0.00834617 -0.953392 0.600744 -0.313699 -0.137599 0.0932495 -0.0505708 -0.0910193 -0.443197 -0.551887 0.3976 -0.316949 -0.223446 -0.429373 0.223965 -0.172424 0.0117472 -0.323847
31157 -0.451696 1.04668 0.336294 -0.102059 -0.457777 2.41732 -4.24206 -1.48395 0.434111 0.00668649 -0.056668 0.608505 -0.111806 -0.872385 0.351861 -1.05346 0.51159 -0.448139 -0.0760476 -0.00439173 -0.183864 -0.190374 -0.540027 -0.613161 0.391016 -0.000765384 -0.395943 -0.228139 0.159108 -0.248813 -0.0261264 -0.610022
36298 -0.527698 0.761494 0.415035 -0.00295057 -0.516868 2.64136 -3.93788 -0.776018 0.799394 -0.250793 -0.563814 0.533882 -0.17381 -0.893824 0.0429956 -1.18624 0.507117 -0.431793 -0.243991 -0.0646489 0.00605268 -0.108987 -0.587707 -0.467409 0.282513 -0.412809 -0.295157 -0.0771714 0.164308 -0.38866 -0.34653 -0.737435
32215 -0.28157 0.648904 0.231416 0.446888 -0.358068 2.52747 -4.55061 -1.29694 0.646395 0.083516 0.00470286 0.254356 0.309325 -0.798984 0.119074 -0.892297 0.303096 -0.352489 -0.425433 0.0537553 -0.179124 -0.163505 -0.2481 -0.506329 0.405886 -0.135162 -0.389725 -0.0217222 0.00295592 -0.155247 -0.0918789 -0.437184
31792 -0.136408 0.674483 0.10986 0.178677 -0.353821 2.50183 -4.7239 -1.46653 0.468656 -0.0319219 0.0450925 0.339061 0.119324 -0.673783 0.115283 -0.969392 0.391472 -0.284503 -0.0291835 -0.162737 -0.0489674 -0.160777 -0.582667 -0.249232 0.560041 -0.170824 -0.207768 -0.135272 0.289564 -0.282771 -0.0158102 -0.35796
35752 -0.0712326 0.58791 0.296279 -0.0877438 -0.410568 2.58775 -4.70092 -1.45176 0.801354 -0.261087 -0.131122 0.405408 0.0105079 -0.640953 -0.117872 -1.06978 0.342535 -0.188673 0.11365 0.0892496 -0.457076 -0.33746 -0.445682 -0.445506 0.388584 -0.0564967 -0.377239 -0.422598 -0.0140159 -0.06358 -0.197008 -0.470513
34505 -0.369569 0.50806 0.251091 0.131457 -0.427112 2.606 -4.50545 -1.49248 0.389108 0.0990554 -0.0258046 0.441696 -0.0495367 -0.65932 0.20002 -1.05277 0.444569 -0.144252 -0.134235 0.322076 -0.283941 -0.0251256 -0.297497 -0.452421 0.520483 0.043819 -0.46008 -0.0513475 0.30717 -0.12868 0.207818 -0.387029
31927 -0.171815 0.631926 0.402298 -0.0652744 -0.281719 2.46954 -4.62022 -1.32232 0.654337 -0.115179 -0.175122 0.416786 0.0914836 -0.704433 0.426832 -0.805061 0.257754 -0.316409 -0.228414 -0.0992825 -0.379638 0.055653 -0.217428 -0.651729 0.38005 -0.0928529 -0.127227 -0.378817 0.520344 -0.0540565 -0.0643717 -0.212288
32629 -0.339793 0.341761 0.302087 0.115402 -0.460487 2.60518 -4.97447 -1.53198 0.526807 -0.275321 -0.105087 0.420201 0.157487 -0.596325 0.218141 -0.972387 0.289175 -0.443538 -0.177073 0.0127952 -0.146819 -0.0401715 -0.262502 -0.561865 0.497599 -0.146131 -0.220949 0.0165015 0.109531 0.210269 -0.146189 -0.468839
32598 -0.285892 0.44466 0.451295 0.171719 -0.469438 2.55319 -4.91499 -1.47472 0.618984 0.101132 -0.157743 0.316727 -0.0214329 -0.672204 0.0330722 -1.05662 0.342475 -0.202591 -0.219511 0.165309 -0.0830367 -0.140077 -0.350967 -0.490505 0.216133 0.0348931 -0.0558974 -0.208145 0.299425 -0.168342 0.0640662 -0.623742
33968 -0.327678 0.898817 0.168112 0.0712782 -0.689972 2.47684 -3.7787 -1.31067 0.886045 0.0723856 0.0202648 0.509384 -0.0258139 -0.890626 -0.0222501 -1.32879 0.525072 -0.237421 -0.41982 -0.144224 0.0961033 -0.590758 -0.225505 -0.667675 0.527201 -0.241278 -0.028266 -0.411478 0.348503 -0.224604 -0.397254 -1.13321
31632 -0.147025 0.739914 0.377346 0.154153 -0.354167 2.57648 -4.71013 -1.61668 0.563234 -0.0761118 -0.156031 0.523866 -0.106661 -0.439768 0.082406 -1.13257 0.525795 -0.183603 -0.0947345 0.209309 -0.154423 -0.203063 -0.323958 -0.492625 0.164953 -0.374816 -0.47681 -0.111109 0.311406 -0.0423945 -0.0172995 -0.580449
34408 -0.429941 0.699947 0.228851 0.280165 -0.258647 2.43802 -4.33852 -1.65287 0.575614 -0.0218903 -0.242813 0.565696 -0.224506 -0.832533 0.120894 -0.887621 0.36804 -0.440713 -0.275379 -0.067697 -0.101914 -0.166848 -0.61015 -0.187541 0.434463 -0.118705 -0.288981 -0.0541211 0.234007 -0.17296 -0.152506 -0.685605
31384 -0.217201 0.425546 0.303894 0.0846351 -0.453639 2.57625 -4.83439 -1.48371 0.634381 -0.129597 -0.154633 0.41907 -0.277074 -0.57347 0.0636236 -0.963596 0.302558 -0.378366 -0.115905 0.111189 -0.0677841 -0.203699 -0.178499 -0.643156 0.357956 -0.172667 -0.213322 0.0520444 0.352133 0.0656621 -0.044289 -0.476102
36642 -0.518821 0.654681 0.346628 0.100343 -0.195433 2.59538 -4.20292 -1.12275 0.653877 -0.387437 -0.0402006 0.617859 -0.242423 -0.697806 -0.0797226 -1.0927 0.63193 -0.205194 -0.272253 0.324306 -0.206072 -0.441096 -0.538824 -0.64007 0.637138 -0.139832 -0.0475051 -0.114354 -0.0325897 -0.275099 0.0596912 -0.619556
32691 -0.157266 0.446608 0.437925 0.0312571 -0.464486 2.55287 -4.64543 -1.5914 0.640372 -0.087292 -0.210819 0.269922 -0.0346141 -0.619497 0.158233 -1.06851 0.369557 -0.267783 -0.118921 -0.128219 0.267517 -0.169642 -0.365975 -0.403792 0.329429 -0.19777 -0.311349 0.0661202 0.344912 -0.340104 -0.0630951 -0.470984
35974 -0.726695 0.49927 0.531334 -0.0336372 -0.464378 2.47592 -4.57735 -1.51151 0.447917 -0.0217099 -0.233119 0.44698 0.138741 -0.938411 0.0989661 -0.971027 0.606811 -0.24723 0.0104544 -0.0249038 -0.00477507 -0.118775 -0.289834 -0.56204 0.557091 -0.247105 -0.194118 0.07832 0.0854145 -0.113474 -0.223754 -0.469653
33953 -0.383579 0.413882 0.254777 0.327553 -0.353731 2.63228 -4.94774 -1.53091 0.584797 -0.0879151 -0.120889 0.370241 -0.00650013 -0.501274 0.148285 -1.02784 0.452497 -0.216885 -0.0927169 0.120845 -0.0420838 -0.141392 -0.186086 -0.472294 0.296138 -0.114609 -0.317546 -0.140568 0.231456 -0.0750936 0.139738 -0.472761
31422 -0.204994 0.504698 0.316317 0.210572 -0.287081 2.48491 -4.71312 -1.28489 0.444911 -0.271597 -0.285223 0.160126 0.022211 -0.46977 0.333422 -0.886532 0.605601 -0.336476 -0.389501 -0.0254324 -0.179685 -0.304873 -0.428734 -0.152442 0.599276 -0.19558 -0.34987 -0.0810576 0.0711096 -0.233964 0.033255 -0.34796
31882 -0.243589 0.530176 0.3319 0.0499207 -0.490801 2.58547 -4.91607 -1.51285 0.623375 -0.185264 -0.242688 0.362169 0.0424466 -0.542279 0.0906104 -0.978176 0.552126 -0.311575 -0.199348 0.032132 -0.0602632 -0.177689 -0.23137 -0.491611 0.383254 -0.231196 -0.366508 0.0152377 0.128782 0.0451504 -0.0499037 -0.572912
32195 -0.143415 0.796177 0.354436 0.0716811 -0.212397 2.55684 -4.42522 -1.40712 0.862275 0.00160407 -0.353588 0.103215 -0.106326 -0.619533 0.178073 -1.06875 0.460188 -0.430701 -0.232012 0.292176 -0.130978 -0.0901989 -0.334366 -0.561296 0.31111 -0.298787 -0.399877 -0.134719 0.18734 -0.251995 -0.115406 -0.637536
36201 -0.0761449 0.523627 0.20586 0.0870959 -0.293632 2.55591 -4.9767 -1.57662 0.354959 -0.285567 -0.0522735 0.32973 -0.0102972 -0.378214 0.0687556 -1.01353 0.420646 -0.206069 -0.271942 0.0347635 -0.108754 -0.0173057 -0.1232 -0.381151 0.405429 -0.294882 -0.231256 -0.35399 0.0737487 0.032353 -0.215477 -0.45441
31638 -0.31539 0.672884 0.415809 -0.02472 -0.393932 2.47944 -4.89249 -1.50107 0.492634 0.0809059 -0.0953995 0.493257 -0.0672271 -0.504243 0.291404 -0.985063 0.379793 -0.399593 -0.141817 0.172243 0.0680855 -0.130949 -0.283099 -0.701547 0.103802 -0.167437 -0.229081 -0.126053 0.163643 -0.0481877 -0.0730954 -0.580771
34166 -0.477942 0.48949 0.181382 -0.00475437 -0.440599 2.4749 -4.45491 -1.5786 0.578471 0.162395 -0.0147355 0.34268 -0.298815 -0.870316 0.237119 -0.900861 0.335534 -0.420745 0.251401 0.0866873 -0.0774346 -0.1686 -0.487971 -0.566625 0.509057 -0.284113 -0.136023 -0.00861779 0.249251 0.0130745 0.222591 -0.479041
35420 -0.230201 0.611777 0.294391 -0.172108 -0.567313 2.74077 -4.25874 -1.32491 0.786894 -0.330779 -0.344814 0.483114 -0.170292 -0.675705 -0.079974 -1.14901 0.407803 -0.105093 -0.0830277 0.121816 0.0651381 -0.15408 -0.56558 -0.697978 0.368124 -0.362602 -0.244923 -0.568641 0.00663974 -0.266336 -0.24871 -0.461009
35651 -0.462535 0.581331 0.295561 0.288742 -0.343957 2.45731 -4.93415 -1.57971 0.498911 0.0392399 -0.103971 0.300173 -0.0664168 -0.578493 0.164801 -1.01001 0.459246 -0.269944 -0.289448 0.0489953 -0.129107 -0.0553608 -0.407635 -0.416344 0.234072 -0.186375 -0.214019 -0.122233 0.0596127 -0.160562 0.05695 -0.673482
34873 -0.41609 0.819794 0.242969 0.121474 -0.5246 2.62615 -4.47392 -1.33268 0.600916 0.266522 -0.0529394 0.222248 0.159074 -0.659865 0.201895 -1.00234 0.440796 -0.227242 -0.39524 0.11239 0.00732282 -0.333527 -0.215448 -0.541225 0.397481 -0.0653641 -0.21817 -0.200187 0.207948 -0.105975 -0.0600357 -0.345207
31601 -0.326304 0.501677 0.566128 -0.0225082 -0.451583 2.43265 -4.88314 -1.43143 0.48784 -0.0466118 -0.0481138 0.136602 -0.165029 -0.559421 0.163118 -0.95223 0.34021 -0.379213 -0.149851 0.204438 -0.107547 -0.0479222 -0.464223 -0.304379 0.370667 -0.297506 -0.132324 -0.217908 0.234144 -0.143069 0.00433822 -0.325591
35539 -0.491004 0.545665 0.469321 0.153863 -0.199601 2.53213 -4.33595 -1.21384 0.62764 -0.0418453 0.19669 0.222068 -0.039911 -0.825586 0.205565 -1.01518 0.431554 -0.342033 -0.181639 -0.031392 0.0619695 -0.0758483 -0.533371 -0.544005 0.492877 -0.289697 -0.0538748 0.359672 0.282435 0.164319 -0.264702 -0.596236
31476 -0.174573 0.529776 0.504533 -0.128831 -0.473503 2.4265 -4.65616 -1.4066 0.442113 0.188108 -0.0217068 0.258919 -0.0572969 -0.770161 0.229276 -0.844291 0.481503 -0.315318 0.0474989 0.48102 0.229801 -0.370426 -0.242183 -0.52134 0.337502 -0.169857 -0.338359 -0.098717 0.0699836 -0.127044 0.00322307 -0.430256
35170 -0.288418 0.526658 0.270226 -0.0686806 -0.248255 2.67602 -4.62284 -1.594 0.536773 0.00170818 -0.179938 0.336457 0.0176768 -0.69616 0.200837 -0.942881 0.595217 -0.440532 0.123253 0.179847 -0.0964391 -0.0972966 -0.246227 -0.569695 0.500953 -0.352639 -0.242254 -0.233863 0.195184 0.158406 0.00612157 -0.370604
36391 -0.294694 0.370441 0.306229 0.0618054 -0.358169 2.69169 -4.76182 -1.46753 0.359437 0.288565 -0.16184 0.327247 -0.131032 -0.596384 0.0794706 -1.08403 0.294902 -0.215456 -0.0139048 0.23379 0.122306 -0.104783 -0.388967 -0.351751 0.482876 -0.108292 -0.483457 -0.174148 0.0922259 -0.0606352 0.121479 -0.357677
34321 -0.242432 0.501409 0.205124 -0.0357481 -0.276254 2.51229 -4.89788 -1.66759 0.535355 -0.180411 -0.0252293 0.39195 -0.245526 -0.600537 0.133396 -0.912712 0.3798 -0.172149 -0.119351 -0.0785655 -0.217716 -0.112781 -0.324794 -0.452026 0.52403 -0.233529 -0.0860783 -0.228978 0.116223 -0.0820526 -0.0703743 -0.305841
34894 -0.301332 0.657507 0.232448 -0.328736 -0.374406 2.64155 -4.44161 -1.36044 0.615386 -0.0483085 0.0191349 0.485728 -0.196571 -0.800491 -0.0413811 -1.18282 0.152518 -0.191468 0.152494 0.201224 -0.097155 -0.111453 -0.537315 -0.281214 0.652497 0.0261791 -0.368721 -0.380201 0.175618 -0.0822556 -0.23789 -0.559879
33840 -0.440535 0.547 0.427869 -0.0100938 -0.32609 2.53154 -4.5629 -1.63265 0.758723 -0.0228434 -0.381718 0.488913 -0.196655 -0.624308 0.0203257 -1.02934 0.344508 -0.358221 -0.172655 0.226743 -0.163055 0.00520552 -0.382316 -0.441706 0.229209 -0.337328 -0.243263 -0.218716 0.293196 -0.319631 -0.0356903 -0.739566
31611 -0.467421 0.710199 0.015786 -0.0850168 -0.107808 2.58006 -3.96797 -1.37001 0.880745 -0.227588 -0.176169 0.689966 -0.112153 -0.830616 0.228403 -1.12834 0.612004 0.113173 -0.325919 0.0920831 -0.21819 -0.232333 -0.631103 -0.556213 0.462937 -0.164949 -0.293965 -0.244098 0.200844 -0.192596 -0.109214 -0.797112
32387 -0.666608 0.703274 0.372281 0.0450648 -0.50797 2.51289 -3.72327 -1.19686 0.76496 -0.11478 -0.211942 0.429414 0.205229 -0.884493 0.0934305 -1.1538 0.851241 -0.695475 -0.346899 0.0815013 -0.0933781 0.0874269 -0.305843 -0.525706 0.674941 -0.140401 -0.373995 -0.133998 0.38619 -0.452016 -0.0891084 -0.92211
33843 -0.41003 0.49465 0.35556 0.157 -0.470675 2.58796 -4.98264 -1.45819 0.641607 -0.184924 -0.273889 0.328658 -0.148494 -0.712126 0.13215 -1.03339 0.428676 -0.223809 -0.273985 0.0622063 -0.187262 0.0810159 -0.386092 -0.42987 0.499302 -0.138943 -0.210823 -0.297085 0.11909 -0.169026 0.225089 -0.576829
33041 -0.432898 0.459166 0.309832 -0.247655 -0.473527 2.61346 -4.4493 -1.32418 0.734349 -0.0566016 -0.234317 0.435975 -0.183415 -0.918396 0.227475 -1.05646 0.392811 -0.0642269 -0.0549007 -0.0401768 -0.484415 -0.134535 -0.189969 -0.115742 0.537381 -0.508125 0.0247866 -0.289266 0.267403 -0.162667 0.354498 -1.00652
33675 -0.276898 0.475935 0.335539 0.0762066 -0.539028 2.4834 -4.80647 -1.53754 0.491204 0.0200402 -0.0363399 0.207723 -0.0627264 -0.58946 0.0395225 -0.966224 0.510132 -0.0911582 -0.183484 -0.162203 0.000718885 -0.0259658 -0.454134 -0.407695 0.399056 -0.0216228 -0.328308 0.0414053 0.160925 -0.0896588 0.134528 -0.340383
34579 -0.347719 0.72047 0.276251 -0.13002 -0.351562 2.44119 -4.4975 -1.32368 0.615797 -0.152657 0.0920853 0.557464 0.167932 -0.626415 -0.0988652 -1.06549 0.476429 -0.372972 0.0738948 0.0326232 -0.2321 -0.229673 -0.412385 -0.513879 0.526404 -0.144215 -0.315584 -0.0645984 0.248006 -0.222449 0.0615469 -0.480157
33044 -0.422329 0.523315 0.250882 0.240631 -0.530765 2.55505 -4.75407 -1.63054 0.573566 0.024818 -0.34939 0.235619 -0.123321 -0.647707 0.181667 -1.00233 0.516768 -0.272818 0.0288569 0.151737 -0.0172662 -0.135015 -0.50632 -0.464809 0.445922 -0.154085 -0.223124 -0.0773066 0.129751 -0.11712 0.0510437 -0.470355
32847 -0.745114 1.14716 0.0163708 0.043654 -0.743348 2.55063 -3.28136 -1.0801 0.83079 0.0544612 -0.497249 0.491414 -0.0123668 -0.648064 0.513623 -1.42623 0.749526 -0.479614 -0.229915 -0.145834 -0.159883 -0.467051 -0.587356 -0.513398 0.786614 -0.116225 -0.363683 -0.0180947 0.491957 -0.214637 0.346464 -0.926346
36554 -0.184894 0.44865 0.149102 -0.120924 -0.485766 2.55887 -4.40946 -1.20842 0.686241 -0.128928 -0.201883 0.463833 0.173555 -0.784106 0.476547 -1.10548 0.236873 -0.139749 -0.31021 0.122379 -0.0256908 0.0481947 -0.46914 -0.400073 0.488898 -0.0936434 -0.387893 -0.1072 0.337232 0.0630005 -0.218301 -0.71778
32471 -0.426486 1.13096 0.266357 0.0962916 -0.14596 2.6315 -3.97713 -0.984641 0.642903 -0.254411 -0.465142 0.674796 0.163658 -0.570918 0.11108 -1.30514 0.624301 -0.385615 -0.317864 0.0217592 0.17306 -0.100508 -0.394714 -0.60695 0.502635 -0.396643 -0.703655 -0.245272 0.363803 -0.12006 -0.105283 -0.64385
32810 -0.268274 0.908175 0.459331 0.0868035 -0.409778 2.52362 -4.75234 -1.55706 0.400203 -0.169158 -0.252403 0.522657 -0.0635529 -0.416735 0.370183 -1.13124 0.579155 -0.289711 -0.281984 0.280907 -0.0169858 -0.260755 -0.246099 -0.460924 0.298183 -0.424033 -0.483275 0.0769354 0.182669 0.181744 0.134548 -0.727753
35489 -0.400374 0.451031 0.455121 0.0559307 -0.484174 2.40621 -4.57618 -1.03459 0.886359 -0.101999 -0.176194 0.295564 0.133763 -0.481259 0.265638 -1.07645 0.491932 -0.134931 -0.364261 0.0171135 -0.0810615 -0.150529 -0.456429 -0.366222 0.457232 -0.0417013 -0.299307 0.0404971 0.150074 -0.194425 -0.0390726 -0.763424
34473 -0.407912 0.482316 0.302878 -0.133074 -0.447217 2.57407 -4.72623 -1.46702 0.561955 0.0431722 -0.248359 0.259579 -0.0134323 -0.742618 0.0356646 -1.08813 0.467444 -0.276068 0.026155 -0.108121 0.190235 -0.0453502 -0.0707163 -0.372714 0.424498 0.103634 -0.313716 -0.149939 0.134231 -0.182296 -0.151734 -0.699821
33797 -0.251522 0.521099 0.191527 -0.131571 -0.606015 2.61278 -4.98397 -1.6253 0.766007 -0.115527 -0.203349 0.369403 -0.212518 -0.673935 0.0117609 -1.04788 0.276646 -0.286879 -0.326348 0.153482 -0.0152948 -0.184079 -0.254391 -0.643601 0.47246 -0.193266 -0.267976 -0.217434 0.0697028 0.0127946 -0.254786 -0.535703
36830 -0.0781126 0.458015 0.310888 0.0455839 -0.563899 2.55088 -5.02042 -1.57935 0.712505 -0.179125 -0.0291644 0.497036 -0.275424 -0.586098 -0.0454538 -0.983512 0.360231 -0.198249 -0.0405636 0.180862 -0.337327 -0.0878801 -0.254083 -0.540973 0.430439 -0.213333 -0.166055 -0.141445 0.182869 -0.0333991 -0.0828414 -0.486634
35963 -0.548765 0.686142 0.301725 0.446342 -0.285198 2.73389 -3.38298 -1.12059 0.885631 -0.0389925 -0.340107 0.438995 0.0437825 -1.0462 0.17456 -1.21616 0.658571 -0.444622 -0.182236 0.234974 0.27416 -0.192211 -0.46079 -0.797476 0.764399 -0.325267 -0.544464 0.0104793 0.527788 -0.0654474 -0.117239 -0.69214
34959 -0.284719 0.919412 0.423201 -0.0119894 -0.319041 2.4949 -4.48572 -1.2825 0.529285 -0.106717 -0.0967474 0.648468 -0.0658361 -0.669167 0.321545 -1.03237 0.543846 -0.318174 -0.1708 0.192902 0.00404161 -0.0338743 -0.500895 -0.686695 0.388668 -0.188759 -0.506822 -0.131112 0.26524 -0.0279136 0.121642 -0.614092
35811 -0.498266 0.887237 0.428743 0.214696 -0.355176 2.78568 -3.70379 -1.11351 0.922622 -0.200814 -0.145482 0.535536 0.0412896 -0.940591 -0.062352 -1.31371 0.320984 -0.369891 -0.439049 0.220194 -0.213724 -0.209775 -0.548372 -0.420509 0.815038 -0.311161 -0.6002 -0.365953 0.325829 -0.127972 -0.107344 -0.817423
33816 -0.359512 0.500448 0.288652 -0.148941 -0.23728 2.58324 -4.86411 -1.5006 0.693696 -0.0658701 -0.203863 0.455023 -0.162551 -0.710836 0.0573357 -0.973056 0.366573 -0.417764 0.00348376 0.190415 -0.0889029 -0.0047045 -0.218107 -0.563532 0.549739 -0.0819738 -0.207146 -0.154202 0.244196 -0.141008 0.0239318 -0.485893
34288 -0.462047 0.610472 0.303818 0.0494562 -0.496662 2.52517 -4.34305 -1.38953 0.910385 -0.0151949 -0.203676 0.146748 0.170589 -0.651476 0.0555105 -1.07783 0.482229 -0.452206 -0.105728 0.208712 0.126514 -0.112175 -0.26705 -0.397199 0.514064 -0.183664 -0.32373 -0.313615 0.339972 -0.269899 0.0195922 -0.683216
31747 0.0488653 0.715796 0.557848 0.274759 -0.461356 2.55914 -4.39543 -1.27345 0.445559 -0.193305 -0.120105 0.310101 -0.239528 -0.584818 0.0742389 -1.102 0.635748 -0.300259 0.0558475 0.10948 0.0727247 0.19323 -0.485346 -0.252982 0.349063 -0.202975 -0.40542 -0.0695444 0.166171 -0.235444 -0.0750939 -0.667616
32052 -0.326081 0.496937 0.517225 0.177074 -0.430082 2.55089 -4.74416 -1.56949 0.578062 -0.163028 -0.0901313 0.301056 -0.0917908 -0.571229 0.101442 -1.00904 0.371879 -0.354727 -0.024835 0.00844265 0.138047 0.014939 -0.512859 -0.520848 0.412688 -0.0616762 -0.223766 -0.109865 0.32741 -0.13003 -0.0281303 -0.359527
35567 0.0172669 0.6433 0.37565 0.0978064 -0.509325 2.58233 -4.62527 -1.52298 0.530519 -0.314586 -0.114077 0.213724 -0.273363 -0.83759 0.327246 -0.852225 0.714654 -0.159115 -0.250962 -0.0920576 -0.1798 -0.00536657 -0.260082 -0.203603 0.372394 -0.0438389 -0.165771 -0.177695 0.599265 -0.163713 -0.144849 -0.613755
35338 -0.551963 1.01812 0.383337 -0.0598406 -0.374141 2.47087 -4.21709 -1.32548 0.54395 0.122276 -0.175376 0.826669 -0.218865 -0.684405 0.295976 -1.1939 0.464928 -0.271894 -0.0349345 0.104967 -0.143967 0.275008 -0.690665 -0.722731 0.22253 -0.320833 -0.47752 0.00188922 0.482321 0.0327189 0.00541526 -0.606192
31570 -0.272614 0.398334 0.408479 0.0247309 -0.404815 2.54266 -4.53688 -1.35443 0.422902 0.165195 -0.272551 0.414524 0.0356468 -0.45351 0.0549986 -1.08736 0.560698 -0.0991325 -0.189158 0.0471378 -0.18559 0.00840398 -0.255663 -0.374832 0.222795 0.0182351 -0.410141 -0.118968 0.154413 -0.248216 -0.148176 -0.580113
31187 -0.630024 0.387593 0.116072 -0.179335 -0.323435 2.63009 -4.55761 -1.47977 0.359196 -0.186787 -0.376512 0.396889 0.079405 -0.821019 0.227338 -1.05521 0.467338 -0.216675 -0.185602 0.14163 -0.178666 -0.188314 -0.466672 -0.344279 0.524267 -0.0856661 -0.356656 0.0025099 0.264665 -0.0872657 -0.301056 -0.504631
35584 -0.360355 0.484181 0.30326 0.0592366 -0.521036 2.6025 -4.97359 -1.54842 0.589093 -0.245522 -0.196774 0.520784 -0.0330963 -0.66909 0.1099 -1.04732 0.356363 -0.319093 -0.217443 0.0651568 -0.0619371 -0.019376 -0.441531 -0.4726 0.441022 -0.290537 -0.210409 0.0199898 0.0682599 -0.144137 -0.0782621 -0.669271
32225 -0.336177 0.274837 0.304009 -0.0587352 -0.474522 2.49758 -5.00421 -1.38456 0.512195 -0.074661 -0.0271337 0.347607 -0.00681848 -0.573714 0.129047 -0.904209 0.401079 -0.265015 -0.105939 0.178585 0.104742 -0.218169 -0.286065 -0.433698 0.296932 -0.0264251 -0.172301 0.0878698 0.149103 -0.0945184 -0.0155248 -0.523463
31208 -0.256433 0.780345 0.309082 -0.0309339 -0.496327 2.25664 -4.83497 -1.57644 0.258363 -0.000151995 0.0797662 0.432217 0.166859 -0.660588 0.36892 -0.768544 0.638349 -0.381884 -0.219425 -0.189525 0.141218 -0.228705 -0.307995 -0.502392 0.422676 -0.0544561 -0.00239496 -0.322376 0.102364 -0.0574247 -0.0288513 -0.44659
35256 -0.26994 0.650575 0.0944214 0.0303443 -0.487767 2.73831 -4.75385 -1.40797 0.759334 -0.170077 -0.0488403 0.438039 -0.0130326 -0.734329 0.127048 -1.11415 0.483103 -0.351057 -0.204332 0.193402 -0.0372284 -0.00104026 -0.389852 -0.498925 0.518298 -0.109719 -0.321691 -0.18669 0.328116 -0.080873 -0.0988993 -0.716476
33036 -0.472617 0.944446 0.376905 -0.0118379 -0.504471 2.83893 -3.36632 -0.956891 0.686133 0.23516 -0.104727 0.519962 -0.273886 -1.22677 0.24444 -1.22695 0.727769 -0.256555 -0.462048 0.509441 0.120915 -0.216555 -0.697675 -0.675621 0.965101 -0.364591 -0.632084 0.0904695 0.0721643 -0.497774 0.123687 -0.354908
35668 -0.460666 0.714836 0.200547 0.0847642 -0.600308 2.79442 -4.08651 -0.949395 0.950839 0.252051 -0.390481 0.451569 -0.0681481 -0.832582 0.311179 -1.08643 0.411594 -0.570838 -0.477383 0.219004 -0.119391 0.0272864 -0.320218 -0.617709 0.668464 -0.349416 -0.196937 -0.194278 0.350541 -0.210082 0.0274123 -0.566909
36767 -0.588725 0.577219 0.671963 -0.0576563 -0.418344 2.51327 -3.83228 -1.07917 0.775888 -0.0390987 -0.0965781 0.439062 -0.111201 -1.00365 0.22756 -1.01504 0.420435 -0.353499 -0.540823 0.0912073 -0.404348 -0.148464 -0.40767 -0.471572 0.667876 -0.175744 -0.0406631 -0.496229 0.408792 -0.210614 0.0953387 -0.737641
33080 -0.338726 0.383833 0.257393 0.0359262 -0.405475 2.50781 -4.86776 -1.34554 0.577562 -0.182906 -0.0433335 0.448226 0.0826432 -0.545569 0.25565 -0.969612 0.448956 -0.267536 -0.0999377 0.0944155 0.00426472 -0.0348475 -0.375935 -0.390595 0.41194 -0.124795 -0.135983 -0.0645307 0.311699 0.0157802 0.0331609 -0.577844
33428 -0.505075 1.12585 0.127305 0.0930263 -0.739262 2.52275 -3.94465 -0.825415 0.831299 -0.0476988 -0.106967 0.502686 -0.210016 -0.607981 0.385498 -1.27847 0.745793 -0.498668 -0.262643 0.20696 -0.46621 -0.622166 -0.40324 -0.661067 0.408374 -0.305667 -0.754264 0.122239 0.353416 -0.0775745 -0.0862393 -0.738568
36438 -0.559049 0.810948 0.0833496 0.192444 -0.689944 2.63298 -4.03505 -1.67402 0.657732 -0.186219 -0.284702 0.302224 -0.440063 -0.580744 0.174806 -1.28658 0.62294 -0.452503 0.13108 0.0403356 -0.117642 -0.561932 -0.17594 -0.389646 0.618735 0.0398024 0.0609514 0.06326 0.237476 -0.0425213 0.223868 -1.10376
34944 -0.352003 0.501232 0.38861 0.0162826 -0.389823 2.47149 -4.7566 -1.47572 0.482597 0.0441658 0.00762443 0.307497 -0.0171197 -0.640985 -0.0417764 -0.980381 0.479693 -0.256057 -0.0044713 -0.0361886 0.0381077 -0.199294 -0.425037 -0.594947 0.277448 0.0141798 -0.0195706 -0.22926 -0.0245741 -0.00879499 -0.129256 -0.605645
35101 -0.206453 0.29484 0.66411 0.156169 -0.610721 2.51914 -4.8655 -1.52527 0.510042 -0.211507 -0.337004 0.203713 -0.119799 -0.68761 0.232844 -0.950451 0.501421 -0.297623 0.102421 -0.09801 0.0342895 -0.127603 -0.247476 -0.38058 0.423485 -0.100897 -0.229195 -0.068807 0.160993 -0.0346803 -0.232156 -0.532535
36057 -0.312513 0.647541 0.0940667 -0.0994082 -0.299542 2.51756 -4.40513 -1.18785 0.567509 0.00661649 -0.115269 0.384071 -0.0924748 -1.03185 0.195033 -0.997224 0.228225 -0.199026 -0.31147 -0.202467 -0.369623 -0.0952337 -0.478575 -0.359646 0.336543 -0.224747 -0.0441085 -0.236593 0.100078 -0.416677 -0.0390697 -0.789198
36606 -0.483918 0.846789 0.179994 -0.2794 -0.648154 2.5216 -4.32037 -1.33461 0.69008 -0.00832525 -0.237793 0.110462 0.0762869 -1.16866 0.123592 -1.01189 0.198501 -0.324519 -0.208837 -0.0895429 -0.193505 -0.198732 -0.197353 -0.510189 0.446097 -0.286991 -0.0974749 -0.290563 0.286436 -0.0384912 0.0950259 -0.626831
35056 0.0127922 0.635303 -0.0647961 -0.183215 -0.599053 2.64065 -4.39189 -1.1936 0.692679 -0.0865376 -0.261353 0.38504 0.204657 -0.899535 0.426866 -1.06019 0.308015 -0.230803 0.011902 -0.101161 -0.440188 -0.349398 -0.173375 -0.234668 0.553926 -0.142183 -0.346975 -0.0702873 0.358667 0.184943 0.0832931 -0.8562
34487 -0.390233 0.304687 0.361472 0.118051 -0.369522 2.71748 -4.68834 -1.50338 0.40688 0.128195 -0.137292 0.328854 -0.0694331 -0.779919 -0.0294287 -0.958207 0.439846 -0.432812 -0.0718504 0.250233 -0.150801 -0.159113 -0.3005 -0.400284 0.375456 -0.305598 -0.341238 0.00548629 0.224769 -0.0429913 0.00747933 -0.410667
36079 -0.511531 0.51189 0.558199 0.199218 -0.451788 2.56408 -4.60451 -1.15621 0.552745 -0.10176 0.321797 0.217774 0.012794 -0.808582 0.15315 -1.08704 0.330416 -0.403365 -0.234303 -0.0688054 0.155348 -0.168312 -0.645045 -0.495404 0.615114 -0.450743 -0.224863 -0.151527 0.0977451 -0.144718 0.106371 -0.242751
31951 -0.57037 0.461337 0.178008 0.348666 -0.295469 2.44396 -4.44985 -1.3333 0.440955 -0.241982 0.358901 0.273818 0.0533673 -1.0659 0.361216 -0.880921 0.519698 -0.434469 -0.163904 0.0528281 0.130188 -0.0187802 -0.152661 -0.46231 0.549325 -0.210246 -0.375719 0.0380084 0.260913 -0.104691 -0.169969 -0.605288
31315 -0.165021 0.491452 0.283725 0.124651 -0.314427 2.62911 -4.92656 -1.49989 0.40727 0.0377488 -0.115308 0.395249 -0.118127 -0.466178 0.232018 -0.981474 0.450871 -0.214525 -0.226902 0.248569 -0.0949129 -0.0351579 -0.263616 -0.344065 0.419615 -0.207902 -0.325225 -0.00826092 0.114703 -0.0483392 0.0836912 -0.39542
32897 -0.3345 0.331471 0.461753 0.0946928 -0.456593 2.61784 -4.77968 -1.34477 0.612078 0.070736 -0.157723 0.277191 -0.100845 -0.558138 0.148102 -0.916481 0.362504 -0.319313 -0.304522 0.311916 -0.178475 -0.0840363 -0.456835 -0.648764 0.204385 -0.262602 0.0297705 -0.213148 0.287912 -0.240852 0.103845 -0.277448
32437 -0.153181 0.40741 0.196499 -0.0425226 -0.2907 2.53985 -4.94614 -1.36714 0.542658 -0.249133 -0.0853065 0.275727 -0.0579122 -0.50409 0.0468907 -0.943109 0.340326 -0.306017 -0.0378637 0.0833664 0.139721 0.137916 -0.549528 -0.437937 0.264464 -0.216935 -0.0499134 -0.122987 0.165572 -0.166191 -0.0653088 -0.393452
34179 -0.264224 0.303494 0.378873 -0.107074 -0.413743 2.74015 -4.59476 -1.14348 0.572947 -0.0640019 -0.179589 0.355395 -0.123318 -0.682179 0.156389 -0.959123 0.398282 -0.605451 -0.152374 0.0876551 -0.325974 -0.184819 -0.334146 -0.44458 0.369588 -0.193355 -0.227841 -0.092783 0.261912 -0.309487 -0.202952 -0.430623
34513 -0.35501 0.53316 0.158618 -0.0928675 -0.479332 2.38118 -5.00651 -1.36755 0.419827 -0.0501596 -0.16743 0.441828 -0.0258189 -0.579394 0.155386 -0.761565 0.548158 -0.350611 -0.153567 -0.0743863 -0.141608 -0.441373 -0.248398 -0.538564 0.264039 -0.117997 -0.221159 0.137 0.0152126 0.0264045 0.255638 -0.563345
31682 -0.423882 0.369742 0.314328 0.205732 -0.703139 2.64162 -4.37379 -1.52244 0.868246 0.161349 -0.0731427 0.253263 -0.139231 -1.03353 0.356189 -0.959643 0.333879 -0.453687 -0.166294 0.241715 0.0486445 -0.320916 -0.411222 -0.69717 0.591316 -0.116472 -0.183597 -0.0661645 0.139058 -0.228629 0.291427 -0.574686
36271 -0.400318 0.483288 0.367511 0.191707 -0.336031 2.55874 -4.71726 -1.42295 0.375766 0.0122319 -0.0727301 0.371613 -0.209107 -0.695439 0.142065 -0.995683 0.538895 -0.21169 -0.171451 0.170769 -0.248747 -0.0789378 -0.343594 -0.359685 0.421576 -0.166006 -0.380277 0.0331029 0.0371349 -0.307354 -0.0748539 -0.530071
31689 -0.197 0.442036 0.413536 0.117181 -0.41546 2.50399 -4.78493 -1.30084 0.359679 -0.0613919 0.0479794 0.216653 -0.0727397 -0.725172 0.137682 -0.919223 0.453058 -0.107582 -0.0813299 0.0725845 0.19248 0.115651 -0.105504 -0.295829 0.335641 0.0127443 -0.370715 0.00335548 0.147629 0.000623891 -0.117235 -0.572861
31209 -0.225631 0.480742 0.411404 0.0720753 -0.443144 2.57906 -4.73989 -1.35843 0.298971 0.197109 -0.190221 0.377089 -0.139325 -0.776157 0.0913304 -1.06104 0.382172 -0.0635166 -0.183702 0.239727 -0.0400571 -0.0360599 -0.233041 -0.316567 0.425474 -0.128817 -0.47446 0.0387775 0.030051 -0.225781 -0.0187967 -0.475015
35120 -0.313035 0.83613 0.545392 0.129082 -0.442656 2.41408 -4.50898 -1.48877 0.686416 -0.0190588 -0.0267561 0.490362 -0.112459 -0.562771 0.293303 -1.05663 0.582044 -0.245808 -0.0847746 0.192976 -0.0510975 -0.282094 -0.223416 -0.553571 0.358882 -0.342359 -0.361692 -0.0595748 0.317487 -0.00544949 -0.000111718 -0.627774
33188 -0.275731 0.70031 0.192162 -0.138734 -0.344611 2.60107 -4.27038 -1.5017 1.04448 -0.0649835 -0.34246 0.569049 0.0917012 -0.734651 -0.0489511 -1.04248 0.512032 -0.54484 -0.181467 0.0320063 -0.182873 0.23645 -0.143063 -0.672982 0.595582 -0.0802086 -0.286095 -0.146745 0.368834 -0.253481 0.079747 -0.65881
33672 -0.476089 0.591113 0.346275 0.00420481 -0.613487 2.48433 -4.02561 -1.36984 1.13141 0.0257386 0.0643501 0.682939 -0.0516431 -0.984968 -0.139178 -0.992258 0.353739 -0.532083 -0.158988 0.266217 -0.485215 -0.0781404 -0.062777 -0.800887 0.510086 -0.251772 -0.3349 0.01323 0.594179 -0.0477672 0.159437 -0.69451
36581 -0.313206 0.594845 0.250825 0.131792 -0.3782 2.60253 -4.53125 -1.62278 0.75305 -0.133038 -0.245272 0.345016 0.0393837 -0.770371 0.0570558 -0.954222 0.497425 -0.227204 -0.447677 0.172954 -0.360365 0.0149723 -0.53137 -0.507443 0.405414 0.083299 -0.31453 -0.339906 0.132142 -0.181669 -0.0882202 -0.556826
33319 -0.210827 0.781348 0.224954 0.167319 -0.219855 2.7909 -4.29066 -1.22815 0.85521 -0.20623 -0.0917525 0.400189 0.166808 -0.669253 -0.420789 -1.24588 0.542755 -0.447541 0.0288925 -0.0314314 -0.180023 -0.251608 -0.650283 -0.609855 0.518957 -0.103366 -0.171503 -0.471196 0.018459 -0.251328 -0.074781 -0.66908
35819 -0.271806 0.585288 0.297248 0.0822259 -0.397652 2.48013 -4.8669 -1.56992 0.620097 -0.015795 0.069643 0.182862 -0.102289 -0.618994 -0.0850888 -0.941891 0.440613 -0.348494 -0.127489 0.138049 -0.177564 -0.192244 -0.276436 -0.599337 0.316297 -0.0386308 -0.107081 -0.201731 0.132937 -0.153494 -0.104893 -0.528302
31300 -0.263146 0.585738 0.215232 0.130117 -0.431149 2.56676 -4.82671 -1.41256 0.277623 0.155167 -0.186594 0.186926 -0.0644753 -0.665755 0.125825 -1.03545 0.51605 -0.0814303 -0.143406 0.235507 0.183915 -0.0688931 -0.214464 -0.611401 0.455437 -0.00897211 -0.242345 0.111137 0.0253088 -0.335826 0.0156423 -0.43
33991 -0.175397 0.702037 0.420214 -0.148154 -0.595392 2.37827 -4.89385 -1.44035 0.246181 -0.0215323 -0.200505 0.393766 0.0919338 -0.604829 0.398972 -0.843012 0.547839 -0.371176 -0.179763 0.0177711 0.0573649 -0.345677 -0.428529 -0.411404 0.334879 -0.0530367 -0.142733 -0.222501 0.14471 -0.133165 -0.0445162 -0.527406
32183 -0.224285 0.663085 0.378594 0.0948666 -0.469281 2.41252 -4.8476 -1.50643 0.588123 -0.217996 0.0547692 0.424651 -0.120843 -0.489529 0.0371238 -1.02704 0.452799 -0.147041 0.116055 0.208737 -0.26801 -0.319769 -0.225281 -0.371651 0.477568 0.0762352 -0.13637 -0.0209081 0.366532 -0.102767 -0.08912 -0.488882
32861 -0.743837 0.927428 0.421902 0.128192 -0.341197 2.56341 -3.72285 -1.01478 0.568969 0.112776 -0.222985 0.413305 -0.142062 -0.750455 0.160539 -1.31646 0.414444 -0.378228 -0.619158 0.241335 -0.218544 -0.1223 -0.362363 -0.320468 0.563361 -0.609099 -0.277702 -0.0956449 0.731955 -0.191573 -0.204642 -0.596614
33287 -0.379157 0.652985 0.372902 0.0709425 -0.489709 2.60339 -4.59859 -1.19702 0.7773 -0.0114727 -0.137537 0.400899 -0.279718 -0.474804 0.30028 -1.06846 0.226131 -0.664875 -0.273975 0.046137 -0.25962 -0.0413838 -0.0568536 -0.820756 0.488278 0.00517348 -0.325101 0.0625384 0.418281 -0.2365 -0.0120571 -0.529553
32130 -0.101396 0.544003 0.36609 0.206006 -0.321061 2.62073 -4.56978 -1.49018 0.549336 -0.294942 -0.122349 0.615792 -0.196719 -0.924774 0.129352 -0.877618 0.471737 -0.333391 -0.16651 -0.0710377 -0.152137 -0.0512382 -0.2289 -0.622749 0.425283 -0.20398 -0.235367 -0.330327 0.573406 -0.0930921 -0.0638051 -0.354752
31463 -0.134153 0.631564 0.132121 0.165406 -0.365793 2.51397 -4.86839 -1.66501 0.463742 -0.197193 -0.0548008 0.455244 -0.209982 -0.520451 0.125291 -1.06861 0.304573 -0.0493147 -0.0418584 0.0313799 -0.0794073 -0.123318 -0.118734 -0.451645 0.399073 -0.273208 -0.200252 -0.446886 0.10578 -0.0459428 -0.189557 -0.455999
35597 -0.235167 0.769595 0.0221078 0.164657 -0.356768 2.57311 -4.20289 -1.65352 0.658744 0.173922 -0.0795089 0.418018 -0.261223 -1.08375 0.259487 -0.843083 0.519371 -0.321541 -0.375266 0.0941376 -0.252642 -0.154399 -0.320108 -0.585158 0.538572 -0.297837 -0.158092 0.0653468 0.121081 -0.048761 -0.192356 -0.777225
35930 -0.769398 0.766058 0.0531477 0.28345 -0.822385 2.6014 -4.16415 -1.57627 0.811192 0.250637 -0.128138 0.0974844 -0.121525 -1.18077 0.172684 -0.829852 0.644428 -0.382832 -0.27626 0.543968 0.0185108 -0.468274 -0.444774 -0.844 0.728931 -0.373419 -0.00271857 -0.0115369 0.409146 -0.261739 0.236544 -0.432625
33315 -0.183541 0.411432 0.172455 0.0196644 -0.433193 2.75326 -4.40001 -1.29874 0.486162 -0.141617 0.0660833 0.375545 0.233079 -0.702927 -0.0108873 -1.18162 0.504913 -0.219164 -0.130867 0.244049 -0.0973885 -0.0837998 -0.470547 -0.30781 0.45129 -0.134364 -0.3198 -0.260828 0.144227 -0.15405 -0.181073 -0.649825
35070 -0.329466 0.394124 0.111318 0.146231 -0.473612 2.76744 -4.63379 -1.47572 0.235907 0.2948 -0.0833238 0.390049 0.00986119 -0.646521 0.218447 -1.10578 0.53516 0.0290046 -0.104327 0.141385 -0.0398908 0.0762975 -0.272266 -0.346941 0.418242 -0.0667692 -0.592077 -0.0847004 0.24603 -0.241191 -0.0341134 -0.297713
31066 -0.375559 0.279495 0.389621 0.0484191 -0.416086 2.55703 -4.83125 -1.57007 0.412634 0.129022 -0.209683 0.421007 -0.126279 -0.572963 0.121858 -0.923935 0.554123 -0.12792 -0.31007 0.256442 -0.284757 0.199239 -0.301897 -0.499166 0.429653 -0.0309855 -0.378519 -0.120976 0.0820613 -0.141918 0.186261 -0.427769
36061 -0.276001 0.416301 0.289829 0.254765 -0.409598 2.68689 -4.65256 -1.66263 0.333638 0.138686 -0.0875944 0.269492 -0.18328 -0.84427 0.177594 -0.950756 0.470397 -0.122645 0.0617225 0.337663 -0.0611101 -0.222817 -0.306935 -0.576941 0.495101 -0.328534 -0.275111 -0.00436626 0.360558 0.111687 -0.0308289 -0.221166
33730 -0.354768 0.484489 0.256231 0.133526 -0.463448 2.59371 -4.85577 -1.65551 0.397121 0.0904934 -0.243383 0.294817 0.0127967 -0.572854 0.0818072 -0.983268 0.32019 -0.198756 -0.0672706 0.158171 -0.0321058 -0.134064 -0.226328 -0.546271 0.311115 0.0326663 -0.269887 0.00600441 0.218051 -0.0901633 0.0302349 -0.39694
33128 -0.262034 0.381417 0.240289 0.285932 -0.278048 2.57769 -5.01545 -1.43452 0.447173 -0.326518 -0.20474 0.375683 0.141237 -0.629441 0.242117 -0.909706 0.304691 -0.454546 -0.240792 0.0556182 -0.183628 -0.170042 -0.304833 -0.526213 0.443122 -0.0152598 -0.209146 0.0221131 -0.115665 0.163847 -0.0241697 -0.625077
35329 -0.531702 0.521678 0.448169 0.0856816 -0.475514 2.49444 -4.51415 -1.56525 0.597033 0.0708658 0.0413538 0.25286 -0.0889185 -0.575042 0.0836101 -1.08817 0.428131 -0.519259 -0.0212641 -0.136347 -0.120313 -0.151179 -0.634348 -0.468543 0.570483 -0.254304 -0.250492 -0.147309 0.219225 0.00778213 0.104891 -0.410927
35079 -0.474316 0.590539 0.502405 0.203274 -0.39793 2.51806 -4.44179 -1.24165 0.41901 -0.0180578 0.10753 0.354298 -0.138222 -0.880662 0.233716 -1.00434 0.364041 -0.0737457 -0.353886 0.00685337 0.0411143 -0.534946 -0.321562 -0.553855 0.335904 0.0822643 -0.382126 0.127414 0.157916 -0.0333998 0.0643923 -0.538927
33925 -0.216058 0.470328 0.191629 0.0559662 -0.24651 2.56744 -4.86456 -1.36618 0.494633 0.174408 -0.296684 0.194488 -0.0479179 -0.657031 -0.00896392 -1.01054 0.433019 0.0118019 -0.294749 0.299089 0.0688754 0.0168567 -0.302751 -0.331809 0.516883 -0.035807 -0.36895 0.120762 0.137348 -0.195291 -0.100588 -0.483252
120861 -0.257208 0.425988 0.207049 -0.031356 -0.0317915 1.20999 -1.64401 -0.682479 0.494144 0.0102619 -0.0220077 0.32145 -0.347665 -0.440926 -0.042183 -0.647552 0.380272 -0.154384 0.0639457 0.0783181 -0.0896317 0.102186 -0.291387 -0.113702 0.486321 -0.114864 -0.304251 -0.275413 0.0580422 -0.126007 -0.107579 -0.357578
32149 -0.233853 0.492346 0.433311 -0.182205 -0.470657 2.51512 -4.56241 -1.38144 0.669771 -0.0678057 -0.14239 0.470247 -0.288454 -0.727447 -0.0445096 -0.982252 0.587979 -0.366514 0.117442 0.069851 -0.175081 0.300541 -0.436922 -0.0842667 0.652411 -0.0456215 -0.564672 -0.322172 0.295084 -0.0506061 -0.195263 -0.496057
35037 -0.434813 0.599945 0.338478 0.196739 -0.441332 2.61147 -4.25336 -0.996184 0.615878 -0.223214 0.165105 0.521279 -0.123066 -0.806753 0.00272803 -1.10227 0.548346 -0.387876 0.130033 0.150449 0.126038 -0.18352 -0.256185 -0.430868 0.450262 -0.143976 -0.317124 -0.0919956 0.352121 -0.384003 -0.0169501 -0.696714
31362 -0.334274 0.517229 0.557793 -0.0510141 -0.468349 2.54375 -4.62226 -1.47513 0.585118 -0.0832313 -0.152214 0.229891 0.0223589 -0.594113 0.0517095 -1.11074 0.35768 -0.194437 0.120296 0.138798 0.0436532 -0.163964 -0.339042 -0.283189 0.28867 0.0320489 -0.240967 -0.222334 0.272382 -0.221583 0.0623292 -0.621855
35348 -0.35526 0.854772 0.688772 0.0410142 -0.468687 2.59882 -3.48082 -1.0641 1.18815 -0.0689699 -0.0913032 0.324774 0.0990936 -1.10461 0.18608 -1.08647 0.602387 -0.355943 -0.135929 0.253299 0.0202789 -0.334793 -0.405691 -0.597452 0.704259 -0.258055 -0.451034 -0.37894 0.204529 -0.169869 0.0567826 -0.819205
33921 -0.482487 0.795408 0.287953 0.127874 -0.500078 2.49082 -3.54617 -0.934799 0.866643 0.115811 -0.227287 0.526858 -0.22451 -0.701692 0.384895 -1.30008 0.534948 -0.259426 -0.191274 0.347674 -0.077153 -0.0378597 -0.395486 -0.777482 0.575854 -0.531325 -0.515311 0.0364719 0.264557 0.00769274 0.0931591 -0.900088
36513 -0.33143 0.80676 0.376337 0.00124959 -0.332043 2.51383 -4.80136 -1.44655 0.511426 0.0385455 -0.0373371 0.438504 -0.133981 -0.377069 0.187263 -1.19254 0.347311 -0.264768 -0.162281 0.0808297 -0.179782 0.0475939 -0.204313 -0.46485 0.287873 -0.26741 -0.450002 0.0950762 0.440156 -0.0349576 -0.0489354 -0.524249
35296 -0.590358 1.13302 0.484116 0.0624197 -0.3431 2.52284 -3.84304 -1.28513 0.628252 0.10121 -0.164941 0.6755 -0.0591273 -0.862142 0.175482 -1.29356 0.502583 -0.412918 -0.140667 0.053574 -0.197431 -0.256623 -0.672484 -0.496315 0.475136 0.103399 -0.29095 0.218825 0.406663 -0.0158837 -0.11183 -1.1747
36729 -0.373986 0.587362 0.538818 0.233363 -0.205354 2.60684 -4.68411 -1.42467 0.463345 0.260448 -0.118654 0.328142 -0.0722567 -0.589327 0.0923494 -1.07782 0.481831 -0.354218 -0.201517 0.252421 -0.226445 -0.0957248 -0.388078 -0.38087 0.0729297 -0.304674 -0.422589 -0.033079 0.180406 -0.117868 -0.0898007 -0.609422
35112 -0.311561 1.05187 0.523085 0.110103 -0.324741 2.51198 -4.20419 -1.02402 0.534073 -0.132306 -0.0877816 0.59402 -0.136373 -0.317265 0.41838 -1.45802 0.431352 -0.262414 -0.184223 0.062697 -0.112579 -0.0105475 -0.57345 -0.710683 0.0174092 -0.254867 -0.55897 -0.148666 0.378138 -0.0218233 -0.156392 -0.732912
36803 -0.222259 0.401357 0.34139 -0.0485949 -0.344409 2.55518 -4.73154 -1.59515 0.711037 -0.252318 -0.0558474 0.200049 -0.193209 -0.5581 -0.0396999 -1.1572 0.398758 -0.085705 0.136889 0.273396 -0.282627 -0.290099 -0.418047 -0.39753 0.297395 0.128614 -0.315288 -0.142548 0.196131 -0.308692 0.00407476 -0.65445
31110 -0.425992 0.645734 0.354335 0.182788 -0.34047 2.56748 -4.60389 -1.34375 0.703301 -0.156546 -0.312792 0.534821 -0.338781 -0.680221 0.0878626 -1.10969 0.350563 -0.142209 -0.119116 0.0513768 -0.200029 0.0960658 -0.328511 -0.495175 0.373103 -0.305485 -0.433461 -0.260786 0.403651 0.0256253 -0.170343 -0.653482
33673 -0.540177 0.301158 0.226126 0.0309868 -0.131406 2.59086 -4.23572 -1.22218 0.879992 -0.0960013 -0.24317 0.301774 0.0207358 -0.903092 0.011138 -1.06223 0.522186 -0.563309 0.00424901 0.27877 0.00474334 0.0131103 -0.374966 -0.527261 0.560857 -0.306368 -0.223222 -0.487006 0.410905 -0.113663 -0.123264 -0.732419
