7349 32
112858 -0.105688 -0.509643 0.863827 0.0720468 0.605563 -0.0733049 -1.38666 -0.66263 0.0783221 0.34601 0.266546 0.382128 -0.301856 -0.0769364 0.345495 -0.106731 -0.0583067 0.406823 -0.184209 0.253593 0.113571 -0.16134 -0.0287217 -0.337189 0.426258 0.12834 -0.138918 0.0391646 0.0296682 -0.333947 -0.255315 0.392882
32957 -0.120451 -0.75276 1.63543 -0.207488 1.23292 -0.51232 -3.44324 -1.83747 -0.356614 0.14444 0.987495 0.55153 -0.223197 -0.192663 0.894371 0.0554503 -0.0246795 0.719094 -0.652512 0.398169 0.0520467 -0.0463408 -0.525286 -0.558991 0.187667 0.224317 -0.619541 -0.464816 -0.130439 -0.489259 -0.4537 0.676706
32001 -0.24026 -0.835911 1.55044 0.00505144 1.00167 -0.109483 -2.3892 -1.09648 0.0616578 0.583648 0.395376 0.777991 -0.73034 -0.162281 0.439956 -0.26985 -0.220822 0.678098 -0.350888 0.425416 0.521219 -0.215316 0.0305753 -0.712299 0.74583 0.129747 -0.205314 0.0807596 -0.0540711 -0.344842 -0.327104 0.509512
33832 -0.306432 -0.852032 1.33146 0.0510465 0.891071 -0.095494 -3.24218 -1.47896 0.136874 0.424268 -0.117817 0.513085 -0.522014 -0.126634 0.675759 -0.346238 -0.233537 0.580376 -0.290873 0.28765 0.316356 -0.209994 -0.121471 -0.709254 0.466326 -0.0741167 0.00983538 0.207715 -0.0274305 -0.0550351 -0.434811 0.291005
32821 -0.157054 -0.864183 1.62811 0.502174 1.02173 0.162239 -2.85735 -1.20677 0.180821 0.699906 0.419721 0.815624 -0.306207 -0.129138 0.657467 -0.240883 -0.218861 0.681162 -0.35614 0.365527 0.531207 -0.20796 0.167414 -0.720604 0.490197 0.363593 -0.0667474 -0.0650769 0.211872 -0.121907 -0.227429 0.324761
36914 -0.117058 -1.01588 1.41266 0.296756 0.962169 0.104721 -3.01758 -1.24414 0.164705 0.280645 0.172108 0.619439 -0.53848 -0.139654 0.498201 -0.293771 -0.233253 0.805062 -0.426964 0.367745 0.309026 -0.135873 0.416771 -0.743696 0.45206 0.00989286 -0.0720169 0.0679819 -0.211436 -0.379175 -0.129325 0.427804
31231 -0.272104 -1.03079 1.32543 0.202235 0.939808 0.157076 -2.4148 -1.08979 0.107672 0.463214 0.237907 0.768112 -0.625169 -0.0805559 0.500555 -0.435186 -0.130144 0.690732 -0.24782 0.250531 0.480882 -0.369534 0.311461 -0.810742 0.642968 0.138323 -0.0164556 0.117916 0.0661227 -0.32971 -0.160271 0.420293
33010 -0.281861 -1.16222 1.43662 0.244385 1.01478 0.11227 -2.57097 -1.18899 0.195419 0.693542 0.352192 0.656357 -0.615235 -0.123859 0.614042 -0.425579 -0.2152 0.624523 -0.377249 0.341148 0.414006 -0.28963 0.206601 -0.908358 0.615436 0.128282 0.00382988 0.0631704 0.0997891 -0.374128 -0.221855 0.334566
33248 -0.277968 -1.2089 1.4168 0.281665 0.808657 0.055816 -2.61768 -1.23879 0.0901889 0.658901 0.316345 0.612131 -0.529137 -0.0756861 0.857197 -0.443588 -0.371278 0.710015 -0.383835 0.362703 0.364176 -0.174098 0.0217658 -0.841915 0.584125 0.0763919 -0.0740277 0.0760382 0.0218671 -0.38086 -0.298061 0.299925
34321 -0.373236 -0.933016 1.3202 0.267383 1.12041 0.0197221 -3.1097 -1.52737 0.0987576 0.308396 0.535523 0.341714 -0.537859 -0.157766 0.831877 -0.639582 -0.417623 0.545723 -0.253061 0.0933282 0.384251 -0.109696 -0.0220566 -0.574186 0.452296 0.112897 0.178863 -0.0119465 0.172524 -0.215115 -0.237599 0.305768
31050 -0.275862 -1.14161 1.44852 0.275399 0.855045 0.100813 -2.75524 -1.27449 0.0498673 0.633183 0.428879 0.673526 -0.499451 -0.0623247 0.876375 -0.269202 -0.416507 0.797736 -0.453286 0.398508 0.394815 -0.170047 0.0433025 -0.874596 0.710022 0.148593 -0.113572 0.163539 0.128004 -0.36248 -0.399305 0.234204
31174 -0.215018 -0.809397 1.65125 0.207891 0.893908 -0.0532286 -2.8191 -1.33798 0.21448 0.717275 0.32394 0.588561 -0.627 -0.166521 0.787705 -0.455855 -0.269468 0.6949 -0.446069 0.450755 0.325281 -0.172841 0.0244418 -0.746077 0.437902 0.0509722 -0.091225 0.140668 0.0492653 -0.370092 -0.223067 0.263731
32051 -0.322944 -0.678438 1.46779 -0.0655792 1.08014 -0.243889 -3.04966 -1.39292 0.0046675 0.359462 0.163167 0.374701 -0.674755 -0.182389 0.409294 -0.490831 -0.104207 0.741075 -0.262764 0.215601 0.482237 -0.273218 0.0974396 -0.608733 0.603301 0.049349 -0.105523 0.145357 0.076069 -0.269026 -0.172253 0.493522
32608 -0.189111 -0.692874 1.45492 0.076564 1.00135 -0.0961641 -3.16689 -1.30332 -0.0841605 0.255637 0.252609 0.530797 -0.600362 -0.160056 0.612632 -0.407506 -0.254444 0.577181 -0.229414 0.0632333 0.495223 -0.13956 -0.00380745 -0.676782 0.375621 -0.047537 -0.0527165 0.311025 0.108126 -0.260477 -0.305346 0.425063
36358 -0.21415 -0.834178 1.39064 0.227414 0.935445 0.173874 -2.71489 -1.15851 0.167308 0.517135 0.325098 0.548016 -0.600805 -0.234003 0.408283 -0.37656 -0.344221 0.776864 -0.174827 0.343105 0.359066 -0.27436 0.224773 -0.750294 0.742022 0.182277 -0.0574142 0.113976 -0.0576882 -0.45463 -0.24282 0.369388
36123 -0.406933 -0.836964 1.30129 0.274998 0.878535 0.138889 -3.17759 -1.41745 0.21579 0.483314 0.535156 0.337625 -0.300764 0.0131605 0.879392 -0.108662 -0.405284 0.668951 -0.379559 0.235807 0.218582 -0.221161 0.0161594 -0.617982 0.387244 0.206316 -0.16601 0.339201 0.157833 -0.320945 -0.422787 0.00791547
35094 -0.265118 -0.907524 1.61667 0.31005 1.06695 0.00827874 -2.85974 -1.32732 0.0308371 0.593661 0.308108 0.554158 -0.584737 -0.157847 0.761352 -0.353756 -0.437733 0.732963 -0.383795 0.331028 0.601189 -0.276454 0.00298835 -0.827838 0.712747 0.0405845 -0.0927439 -0.0430167 0.00597968 -0.215914 -0.28618 0.267462
35399 -0.208769 -1.10866 1.47175 0.276213 0.853988 0.131832 -2.48309 -1.18697 0.146362 0.739876 0.408987 0.496081 -0.680104 -0.162796 0.771287 -0.5586 -0.292089 0.603746 -0.608089 0.453584 0.482769 -0.356284 0.0271887 -0.875275 0.681991 0.0393713 0.083775 -0.00625574 0.0447469 -0.366417 -0.256142 0.421926
31897 -0.197685 -1.01128 1.33901 0.307442 0.922292 0.0541613 -2.83443 -1.34121 0.146921 0.480173 0.337773 0.497048 -0.452761 0.0149479 0.797146 -0.391712 -0.308512 0.861175 -0.408319 0.372024 0.273056 -0.222149 -0.0705396 -0.653999 0.585713 0.00724998 -0.0244348 0.228668 0.0938643 -0.485675 -0.335352 0.287103
32941 -0.19814 -0.93372 1.56054 0.307297 0.875914 0.135383 -2.57683 -1.25453 0.239388 0.645043 0.359639 0.533957 -0.458134 -0.0551102 0.768658 -0.420339 -0.223813 0.653758 -0.601921 0.453271 0.451439 -0.201049 -0.00552882 -0.726985 0.659268 0.132796 -0.0997208 0.0270333 0.155928 -0.415717 -0.244989 0.288742
35024 -0.17362 -0.927886 1.35735 0.276009 0.995156 0.217918 -3.04749 -1.30935 0.321863 0.684504 0.258078 0.536512 -0.542028 -0.0897177 0.77491 -0.424887 -0.32069 0.644512 -0.260806 0.170012 0.382181 -0.140632 -0.127023 -0.72216 0.602258 -0.0486549 0.0148343 0.165303 -0.035899 -0.273409 -0.139635 0.229027
31412 -0.208993 -0.760933 1.39881 0.242745 0.913868 0.137279 -2.56161 -1.14024 0.216672 0.599875 0.237538 0.678904 -0.52243 -0.0602393 0.68017 -0.407617 -0.208501 0.717178 -0.382713 0.368301 0.50868 -0.229917 0.234385 -0.898542 0.675764 0.152729 -0.027782 0.151086 0.0741311 -0.408183 -0.237548 0.31825
33349 -0.199948 -0.905042 1.25955 0.329377 1.10942 0.1139 -3.12414 -1.40506 0.162809 0.477704 0.522212 0.379379 -0.362496 0.0492229 0.873946 -0.274857 -0.2804 0.615852 -0.479483 0.396745 -0.000251361 -0.00323828 0.11551 -0.613481 0.350187 0.0558588 -0.0825523 -0.186712 -0.0202645 -0.712971 -0.200591 0.148767
31249 -0.0794744 -0.852991 1.45424 0.116868 1.23836 0.204977 -2.98141 -1.51666 0.0669609 0.428287 0.282101 0.402943 -0.549776 -0.251411 0.529969 -0.51036 -0.171231 0.582227 -0.473748 0.369565 0.437726 -0.397073 0.225046 -0.696727 0.456445 0.041103 0.0778837 0.103163 0.000500629 -0.290673 -0.0598233 0.381919
35152 -0.270062 -0.968012 1.4098 0.229913 0.998799 0.0762395 -2.94189 -1.47877 0.138594 0.487899 0.228141 0.680186 -0.274737 0.0612131 0.854107 -0.337364 -0.208822 0.571764 -0.484408 0.320202 0.222292 -0.245221 0.227878 -0.652491 0.537502 0.0593371 -0.103242 0.115441 0.0107345 -0.254696 -0.316362 0.12777
31266 -0.358109 -0.714189 1.39528 0.176854 0.871574 0.0304627 -3.12818 -1.29638 0.106684 0.468254 0.148368 0.41475 -0.390605 -0.238413 0.597871 -0.393681 -0.0715696 0.691453 -0.473151 0.320592 0.490912 -0.143142 -0.0536564 -0.635337 0.24871 0.109605 -0.0424298 0.185119 0.227063 -0.298159 -0.330274 0.369868
33928 -0.299241 -1.0477 1.46065 0.197173 1.10475 0.0143262 -2.81897 -1.20363 0.191441 0.597063 0.108117 0.471905 -0.695744 -0.11723 0.575196 -0.422263 -0.207888 0.657927 -0.402116 0.327147 0.405383 -0.231726 0.191043 -0.826143 0.650451 0.134219 -0.157745 0.157394 -0.00734317 -0.369496 -0.207437 0.302658
31984 -0.246918 -0.917197 1.31746 0.257768 1.02312 -0.0675441 -3.28368 -1.39633 0.216645 0.237176 0.197555 0.476166 -0.18567 -0.168874 0.929139 -0.529145 -0.237875 0.596252 -0.366061 0.0795973 0.134491 -0.386259 -0.185783 -0.625128 0.497659 0.049841 -0.0512401 0.312537 0.0386305 -0.252552 -0.366338 0.107368
30951 -0.30531 -0.955826 1.28421 0.26914 0.950472 0.0412714 -3.15187 -1.50419 0.205985 0.430461 0.429713 0.306454 -0.380536 -0.210884 0.804194 -0.493366 -0.317379 0.620716 -0.395385 0.235344 0.204479 -0.170994 0.0753302 -0.654463 0.32039 0.250017 0.0535128 0.147709 -0.00911984 -0.391013 -0.23931 0.346794
33886 -0.200179 -1.05375 1.40986 0.263164 0.894952 0.0924403 -2.74092 -1.24859 0.138443 0.681236 0.350185 0.806062 -0.582155 -0.079631 0.74073 -0.458525 -0.293459 0.790492 -0.427323 0.397513 0.457195 -0.250915 0.0565391 -0.953793 0.666948 0.0869279 -0.079574 0.0612421 0.100178 -0.26879 -0.404712 0.283787
34596 0.132929 -0.949543 1.30176 0.403949 1.00982 -0.132035 -3.34822 -1.57723 0.0662819 0.377888 0.0337214 0.334807 -0.489072 -0.127822 1.11753 -0.254687 0.0845645 0.648027 -0.384978 0.113622 0.311437 -0.153753 -0.181987 -0.524193 0.616253 -0.192311 -0.173211 -0.214039 0.212091 -0.0845637 -0.377488 0.339851
32165 -0.12331 -0.921704 1.40277 0.301837 0.796326 0.240433 -2.32991 -1.07818 0.441404 0.765983 0.237623 0.552367 -0.649808 -0.00264973 0.990174 -0.419523 -0.41739 0.700386 -0.588022 0.534172 0.418757 -0.187926 0.0957835 -0.889664 0.744656 0.125954 -0.129176 0.0659 -0.00576828 -0.52871 -0.295849 0.312578
36907 -0.197712 -0.83862 1.47419 0.410138 0.851347 -0.0586948 -3.14093 -1.43692 0.0572213 0.585971 0.178596 0.462197 -0.615755 -0.13706 0.779547 -0.186568 -0.43208 0.567162 -0.309301 0.287387 0.27385 -0.259855 0.00579942 -0.712436 0.421465 0.0968809 -0.189319 0.0472965 -0.00543771 -0.200743 -0.366559 0.181443
33251 -0.206863 -1.01922 1.52897 0.35276 0.834564 0.0626708 -2.39176 -1.13332 0.358747 0.757418 0.266178 0.692706 -0.631179 -0.0971196 0.925213 -0.405983 -0.297137 0.609347 -0.525081 0.37874 0.482587 -0.230444 0.0964175 -0.953718 0.693679 0.0189739 -0.11284 0.169251 0.0472114 -0.487975 -0.197501 0.149791
36355 -0.081081 -0.722391 1.54839 0.359569 1.11606 0.148619 -3.01392 -1.3807 0.457491 0.432637 0.279572 0.632708 -0.729247 -0.0664536 0.969069 -0.470004 -0.250349 0.46634 -0.378225 0.191379 0.423122 -0.0742421 0.0344727 -0.685755 0.594236 -0.0150095 -0.166929 0.0947332 0.0410147 -0.296236 -0.0928289 0.219343
32183 -0.180701 -1.06434 1.43529 0.380661 1.04533 -0.0254353 -3.05942 -1.43861 0.0483545 0.486848 0.376144 0.40225 -0.50945 -0.109038 0.778887 -0.373258 -0.252531 0.801476 -0.352422 0.212332 0.306453 -0.32829 -0.0169703 -0.674095 0.540963 -0.111371 0.00109299 0.117708 0.0703278 -0.263916 0.135589 0.34493
34018 -0.0607593 -1.05312 1.52299 0.288434 1.04187 -0.0064863 -2.96616 -1.61106 0.203957 0.381869 0.296194 0.372639 -0.302289 0.00769205 0.815823 -0.535809 -0.115579 0.791509 -0.45444 0.323723 0.219382 -0.266949 0.087192 -0.657404 0.439413 0.0523457 -0.0102816 -0.0565662 0.10728 -0.192131 -0.188587 0.200098
33713 -0.187427 -1.21816 1.59098 0.312793 0.87695 0.125214 -2.96214 -1.32993 0.0309839 0.531159 0.384386 0.442437 -0.36603 -0.0426259 0.86168 -0.417699 -0.356567 0.686414 -0.664739 0.464138 0.513276 -0.235324 -0.0969501 -0.549539 0.543732 -0.017063 0.0209474 0.079339 0.189912 -0.34018 -0.201396 0.395325
36847 -0.243126 -1.21442 1.48328 0.336586 0.956488 0.117437 -2.643 -1.33685 0.213175 0.737911 0.34832 0.704969 -0.629728 -0.0798611 0.823774 -0.337299 -0.273394 0.610593 -0.455539 0.382933 0.480196 -0.339916 -0.0378995 -0.832196 0.743782 0.0776352 -0.044631 0.134462 0.139049 -0.538869 -0.360116 0.372808
35726 -0.208432 -1.02682 1.41794 0.330436 0.889729 0.252807 -3.02352 -1.54799 0.00774666 0.433977 0.296243 0.429872 -0.615749 0.153211 0.695012 -0.430656 -0.343433 0.699862 -0.333173 0.317775 0.398487 -0.11389 0.138568 -0.643584 0.389105 0.364538 0.0683114 -0.0215062 0.0447627 -0.30489 -0.275866 0.48052
33388 -0.186898 -0.927117 1.55251 0.265442 0.947153 -0.0331354 -2.68764 -1.2173 0.168687 0.554383 0.292314 0.553139 -0.48084 -0.0207198 0.914657 -0.380158 -0.0881069 0.71643 -0.3693 0.355931 0.413821 -0.21877 -0.0546369 -0.662261 0.592073 0.114227 -0.152159 0.0918956 0.208027 -0.514263 -0.305733 0.360669
33606 -0.203735 -0.878048 1.40443 0.191342 0.893591 0.127334 -3.03181 -1.42428 0.587587 0.655689 0.157371 0.549708 -0.32391 -0.107607 0.942059 -0.246283 -0.295137 0.680788 -0.331039 0.214544 0.425741 -0.104779 0.0364187 -0.729457 0.422378 0.181989 -0.341673 0.0723736 -0.0194047 -0.468439 -0.193658 -0.102334
32066 -0.264386 -0.802268 1.37023 0.208199 1.14986 0.0201236 -3.01607 -1.27535 0.215849 0.484615 0.0254676 0.688146 -0.577304 -0.0965773 0.551163 -0.257192 -0.445838 0.77941 -0.117823 0.222897 0.313556 -0.0993294 0.311382 -0.692201 0.528779 0.0822122 -0.163931 0.153802 0.0678721 -0.255007 -0.455471 0.35073
36896 -0.156639 -0.68 1.48253 -0.0505246 1.04717 0.0147622 -3.02873 -1.24943 0.0839027 0.49108 0.177186 0.557717 -0.543264 -0.257408 0.664194 -0.415559 -0.289502 0.555589 -0.401196 0.297728 0.581267 -0.286517 0.200068 -0.756434 0.740592 0.10522 -0.179591 0.198695 -0.00992401 -0.313556 -0.182361 0.326533
35957 -0.0375906 -0.733302 1.42538 0.352016 0.976777 0.158922 -3.01359 -1.4164 0.0446715 0.525904 0.152857 0.508151 -0.547824 -0.0937455 0.718856 -0.39831 -0.333318 0.652603 -0.213494 0.0785657 0.556489 -0.18123 0.0785462 -0.682682 0.606711 -0.0848646 -0.0271401 0.040203 0.00277794 -0.0916751 -0.29161 0.424136
35653 -0.074575 -0.870584 1.45095 0.226717 1.34823 -0.0797247 -3.15235 -1.39018 -0.0455491 0.294812 0.462504 0.619876 -0.347877 0.0853456 0.838447 -0.253568 -0.114918 0.68346 -0.20637 0.142161 0.109222 -0.380681 -0.0335964 -0.584128 0.585088 0.0732841 -0.153962 0.353938 0.199075 -0.192028 -0.139098 0.289584
34052 -0.201025 -1.19654 1.49209 0.36245 0.993447 0.123328 -2.81872 -1.27892 0.593911 0.60202 0.214749 0.753247 -0.583286 0.019659 1.08898 -0.279343 -0.0590086 0.759302 -0.393356 0.24225 0.0830664 -0.201029 0.156279 -0.598877 0.464216 0.100002 -0.245461 0.143461 0.215336 -0.585331 -0.229 0.115342
32125 -0.28997 -1.29001 1.60509 0.353436 0.92915 0.0548848 -2.29898 -1.07941 0.216649 0.678505 0.389155 0.778612 -0.548973 -0.0888383 0.826613 -0.404048 -0.376747 0.718012 -0.555988 0.342866 0.57228 -0.29597 0.0847617 -0.731658 0.749166 0.00505121 0.0238409 0.119156 0.113533 -0.239743 -0.288078 0.268768
33129 -0.0663531 -0.973347 1.34279 0.260231 1.11107 -0.0381883 -3.35975 -1.49919 0.294705 0.244505 0.295505 0.570553 -0.493727 -0.237112 0.751734 -0.586967 -0.244625 0.670515 -0.295142 0.162679 0.331923 -0.102873 -0.0453111 -0.603075 0.483497 -0.0562929 -0.0470389 -0.178594 0.613236 -0.158688 -0.287906 0.262009
32868 -0.216237 -0.920957 1.60149 0.430475 0.965645 0.261881 -2.83519 -1.3224 0.0440777 0.526024 0.415711 0.520515 -0.507891 -0.141494 0.549639 -0.487829 -0.391833 0.88042 -0.345546 0.445081 0.423158 -0.376266 0.167147 -0.84053 0.5073 0.222714 -0.0619417 -0.073412 0.0392767 -0.281147 -0.176644 0.463427
35620 -0.260588 -1.07232 1.35174 0.354224 0.90356 0.24173 -3.13287 -1.46159 0.0907143 0.474129 0.416093 0.426048 -0.431089 -0.19165 0.781368 -0.357826 -0.458032 0.654166 -0.203459 0.304216 0.205644 -0.225296 0.181246 -0.675119 0.492781 -0.0588241 0.0790217 0.113108 0.0793875 -0.236546 -0.214778 0.171211
35868 -0.205971 -0.686082 1.57122 0.230794 1.0609 0.0828166 -2.94392 -1.32971 0.0763632 0.533979 0.212042 0.642227 -0.727928 -0.0208826 0.744691 -0.246683 -0.52092 0.653239 -0.184662 0.25158 0.584197 -0.0322422 0.0925728 -0.801625 0.621107 -0.0307652 -0.0479432 0.269805 -0.10841 -0.149086 -0.324481 0.271229
33925 -0.24818 -0.68275 1.51724 0.364905 0.796405 0.346003 -3.13614 -1.28817 0.24346 0.629208 0.242677 0.537734 -0.622086 -0.202995 0.806591 -0.273733 -0.476827 0.527968 -0.0789091 0.363887 0.429719 -0.0630665 0.0897387 -0.623223 0.547306 0.0262179 -0.226597 0.0517326 0.207239 -0.300384 -0.170085 0.364132
33246 -0.181655 -0.766113 1.28719 0.364396 1.02255 0.0125822 -3.03068 -1.48153 0.208059 0.547448 0.229949 0.379597 -0.412781 -0.0226387 0.595043 -0.334495 -0.223554 0.777975 -0.143325 0.515662 0.388709 -0.238213 0.203613 -0.632085 0.502831 -0.0256579 -0.0869032 0.0494208 0.0995344 -0.202683 -0.361813 0.332687
36555 -0.24871 -0.811491 1.45457 -0.0142199 1.01915 0.0374022 -2.92805 -1.1526 -0.0500755 0.486744 0.389011 0.444605 -0.513374 -0.156586 0.392665 -0.264915 -0.166196 0.668918 -0.417221 0.506393 0.518299 -0.368901 0.122678 -0.65064 0.567472 0.111876 -0.0256904 0.149818 -0.131223 -0.142878 -0.162265 0.367897
34993 -0.251491 -1.04147 1.35113 -0.117999 1.0338 0.0312684 -3.04932 -1.23913 0.0764864 0.602718 0.261436 0.481974 -0.476847 -0.391781 0.700733 -0.437156 -0.170352 0.558148 -0.529779 0.280157 0.385586 -0.382732 0.105291 -0.647333 0.888064 -0.0247633 0.0763807 0.0371705 -0.198742 -0.0931931 -0.10662 0.245493
32181 -0.251189 -1.05352 1.34857 0.199561 0.854212 0.0487255 -2.12839 -0.943618 0.219514 0.603396 0.275144 0.636551 -0.627491 -0.133495 0.747172 -0.471412 -0.266995 0.751455 -0.522258 0.428303 0.610153 -0.291762 0.114266 -0.900282 0.655808 0.089316 -0.0285968 0.147161 0.0714094 -0.332824 -0.318397 0.406249
34334 -0.267753 -1.01346 1.46321 0.436744 0.986438 -0.0094926 -3.04624 -1.34789 -0.00625587 0.321724 0.431624 0.357838 -0.543652 -0.0284128 0.786302 -0.489769 -0.301071 0.767038 -0.32485 0.357019 0.272237 -0.228909 0.0987232 -0.667651 0.432622 -0.00995725 0.129217 0.134596 -0.0367394 -0.294655 -0.0358298 0.418323
35536 -0.242126 -1.33049 1.29586 0.41688 1.1465 0.103682 -2.87427 -1.24597 0.267578 0.400368 0.466535 0.654647 -0.424805 0.0433716 0.687384 -0.454092 -0.219359 0.882831 -0.513158 0.43163 0.346867 -0.304349 0.246182 -0.733762 0.538966 0.175706 0.0315862 0.0981854 0.173271 -0.195658 -0.316232 0.251756
34516 -0.202579 -1.20133 1.55404 0.334356 0.946739 0.042038 -2.35691 -1.11575 0.331592 0.756541 0.328604 0.54396 -0.575447 -0.083088 0.635076 -0.412694 -0.212517 0.645339 -0.433516 0.500582 0.412853 -0.33127 0.0958802 -0.797893 0.817445 0.19246 -0.0304641 0.170138 0.0878735 -0.529507 -0.289942 0.382592
31480 -0.265862 -1.03406 1.34159 0.280308 1.00401 0.0096339 -3.18535 -1.62855 -0.0195725 0.291868 0.282675 0.298521 -0.383755 -0.0975361 0.855931 -0.561086 -0.349113 0.611782 -0.688229 0.200931 0.177706 -0.0474643 -0.00279684 -0.676381 0.469675 0.0989919 0.0565339 0.143444 0.169036 -0.299752 -0.222953 0.415246
33490 -0.278355 -1.05141 1.76196 0.278134 0.965399 0.0738729 -2.71756 -1.22937 0.192565 0.75388 0.366611 0.628534 -0.577897 -0.217469 0.654566 -0.576475 -0.378852 0.644201 -0.495692 0.322342 0.466047 -0.271503 0.0922909 -0.790317 0.585112 0.139407 0.00697764 0.062683 0.100147 -0.278065 -0.312906 0.266498
34833 -0.206303 -1.12108 1.28066 0.0796723 1.04821 -0.0120263 -2.77469 -1.3603 0.253621 0.668347 0.351243 0.638629 -0.701242 -0.129366 0.687958 -0.575802 -0.233221 0.646242 -0.488031 0.402198 0.19076 -0.248896 0.0197612 -0.829394 0.612857 0.092401 -0.0305416 0.128399 0.158358 -0.5288 -0.330285 0.430863
35688 -0.168006 -0.714323 1.45704 0.0731229 1.04333 0.00479504 -3.07819 -1.56682 0.25907 0.506168 0.153176 0.66791 -0.446699 0.0781107 0.872304 -0.517923 -0.157048 0.567771 -0.308465 0.152077 0.234453 -0.0233437 0.0791496 -0.688774 0.335612 -0.205754 -0.0549386 0.16087 0.185482 -0.337079 -0.253854 0.486435
36423 -0.149792 -0.979349 1.41982 0.00632824 0.935091 0.248854 -2.97793 -1.45549 0.488423 0.586231 0.206717 0.515331 -0.374777 -0.0244121 0.797799 -0.533444 -0.304459 0.606687 -0.539791 0.325086 0.164856 -0.137925 0.0851736 -0.724138 0.4124 0.16927 -0.103121 0.116055 0.0757297 -0.537371 -0.328726 0.165904
36905 -0.105452 -0.882382 1.47902 0.139515 1.00919 -0.199257 -2.99863 -1.50645 0.376744 0.494358 0.228846 0.605585 -0.522169 0.0236649 0.703741 -0.496864 -0.189413 0.665094 -0.545199 0.302945 0.219339 -0.116343 0.137639 -0.827959 0.414052 -0.0272085 -0.133161 0.00929696 0.0370637 -0.452742 -0.20757 0.239805
32813 -0.144644 -0.840191 1.39054 0.106061 0.950007 -0.226374 -3.07375 -1.63806 0.0863532 0.611772 0.0841062 0.421082 -0.533387 -0.0835255 0.719702 -0.361181 -0.348629 0.776359 -0.393778 0.172903 0.246037 -0.104277 -0.0589899 -0.704304 0.534109 -0.0137115 -0.0251514 0.0659939 -0.0562329 -0.364489 -0.360157 0.136635
36350 -0.258123 -0.843983 1.57006 0.439548 0.893954 0.149112 -3.06307 -1.24235 0.00206827 0.612571 0.261422 0.601854 -0.358594 0.017508 0.620107 -0.297147 -0.160207 0.796118 -0.238952 0.341741 0.506463 -0.0700854 0.0698118 -0.752179 0.342772 0.303684 -0.096036 -0.0961018 0.0140218 -0.174777 -0.199538 0.448867
34698 -0.0548408 -0.956578 1.42699 0.288031 1.14258 -0.11959 -3.08412 -1.3523 0.0739984 0.3558 0.330912 0.792991 -0.173667 0.145989 0.809142 -0.0238106 -0.253811 1.06984 -0.134641 0.290391 0.100886 -0.366824 0.138909 -0.560412 0.705183 0.189181 0.0959707 0.353759 0.0870832 -0.352794 -0.401247 0.182092
33174 -0.147561 -1.29185 1.5788 0.31619 1.22741 -0.0876614 -2.78545 -1.19821 0.127844 0.387198 0.323906 0.814476 -0.307285 0.0455701 0.857166 -0.124812 -0.0886297 0.915865 -0.232984 0.100514 0.1887 -0.311584 0.127652 -0.61579 0.802921 0.111777 -0.0309133 0.290315 0.329933 -0.351703 -0.434912 0.282259
31786 0.0476901 -1.03366 1.36155 0.267288 0.986669 -0.157915 -3.24987 -1.45855 0.115646 0.449734 0.198238 0.344227 -0.241738 0.00712952 0.963242 -0.245214 -0.153897 0.654016 -0.437768 0.180014 0.387825 -0.242025 -0.191406 -0.453472 0.613706 0.0554407 -0.0227888 0.0456708 0.358365 -0.416613 -0.196857 0.311249
35160 -0.161246 -1.01969 1.51683 0.322344 0.881737 0.0565886 -2.70471 -1.28508 -0.0472811 0.586139 0.390765 0.463733 -0.403848 -0.188475 0.605259 -0.451673 -0.360695 0.738711 -0.397243 0.374544 0.416391 -0.295593 -0.0136831 -0.726912 0.498446 -0.00272779 0.180192 0.00691995 0.0771596 -0.196396 -0.323446 0.307654
33473 -0.263733 -1.41885 1.61631 0.346771 1.1471 0.0504187 -2.83179 -1.25704 0.0653561 0.554213 0.383985 0.626309 -0.355174 -0.217963 0.847804 -0.347224 -0.274267 0.78005 -0.497445 0.26198 0.408011 -0.396652 0.0153149 -0.61234 0.680694 0.0210654 0.128955 0.0720567 0.244632 -0.286143 -0.380185 0.340206
32129 -0.276161 -0.882644 1.33944 0.347161 0.992876 -0.160204 -3.15211 -1.43519 0.0380083 0.56031 0.30093 0.33451 -0.430641 -0.213562 0.902221 -0.401683 -0.235436 0.591584 -0.430914 0.23439 0.368385 -0.175735 -0.15271 -0.613411 0.43609 0.0896711 0.128099 0.0338859 0.230288 -0.358704 -0.267998 0.31089
33177 -0.330226 -1.01199 1.37265 0.180894 0.889835 0.0770887 -3.00153 -1.37814 0.0977779 0.47397 0.378994 0.457757 -0.531266 -0.0554927 0.65703 -0.461627 -0.202053 0.65678 -0.420234 0.434833 0.409313 -0.368993 0.231121 -0.79581 0.383246 -0.0243576 0.0325768 -0.0482082 0.141569 -0.364801 -0.225798 0.262545
32236 -0.331689 -0.79714 1.43902 -0.00662657 0.859926 -0.00229855 -3.1694 -1.46539 0.0959825 0.568854 0.238499 0.477693 -0.298545 -0.016384 0.918361 -0.265002 -0.349993 0.582957 -0.154632 0.381876 0.323431 -0.316231 -0.0345906 -0.68346 0.487076 -0.124423 -0.0953715 0.129132 -0.0680045 -0.182822 -0.471207 0.22818
35804 -0.278032 -1.25663 1.5273 0.341883 0.954254 0.160849 -2.63615 -1.18902 0.0359295 0.558087 0.303423 0.72052 -0.330097 -0.0790539 0.7058 -0.360338 -0.244265 0.841397 -0.300835 0.308241 0.467287 -0.34528 0.257131 -0.617951 0.546721 0.137516 0.0322304 0.124594 0.255925 -0.369772 -0.335741 0.314473
36100 -0.0367268 -1.00355 1.41809 0.41133 1.26658 -0.151804 -3.11136 -1.50518 0.0820123 0.336967 0.266669 0.697538 -0.232918 -0.0734348 0.866353 -0.164822 0.112512 0.856277 -0.332741 0.195286 0.00215389 -0.158206 0.181713 -0.543239 0.622502 0.0313462 0.0961586 0.191214 0.298522 -0.11218 -0.134805 0.290687
31041 -0.285165 -0.902362 1.43947 0.211736 0.872814 -0.0317594 -2.922 -1.24415 0.243878 0.654007 0.189533 0.504653 -0.704134 -0.243874 0.49503 -0.540788 -0.118156 0.796299 -0.201911 0.411449 0.396253 -0.122316 0.311119 -0.786829 0.506574 0.266897 -0.0224085 0.05674 0.0873559 -0.400544 -0.226339 0.231802
35471 -0.223367 -1.20925 1.42372 0.211156 0.920638 -0.0180983 -2.86636 -1.20626 0.105522 0.489781 0.252708 0.418865 -0.557905 -0.132568 0.688158 -0.461763 -0.241212 0.754632 -0.426389 0.385569 0.39803 -0.204698 0.0262705 -0.675783 0.467577 0.0434353 -0.00199311 0.171304 0.040559 -0.366485 -0.309405 0.41462
36775 -0.164027 -0.92452 1.47612 0.242586 0.895 0.152368 -2.43001 -1.12259 0.129793 0.609768 0.31352 0.747388 -0.403942 -0.0674056 0.83715 -0.309865 -0.322806 0.858998 -0.341246 0.255099 0.352674 -0.268101 0.149205 -0.891974 0.934592 0.170724 -0.0305994 0.194088 0.0805616 -0.422934 -0.401286 0.421016
36334 -0.256205 -0.95677 1.46112 0.236617 0.990962 0.187142 -3.10534 -1.48173 0.046335 0.616165 0.110031 0.640327 -0.283072 -0.0970753 0.753252 -0.348496 -0.43348 0.778049 -0.249412 0.300334 0.313613 -0.170991 0.0514062 -0.636386 0.669941 0.0758336 -0.164647 -0.0455711 -0.0477388 -0.0977439 -0.271021 0.383574
36026 -0.141966 -0.783026 1.51918 0.379933 0.85767 0.25009 -3.14798 -1.21919 0.0843908 0.550034 0.184638 0.571745 -0.368059 -0.179011 0.546251 -0.424516 -0.172487 0.866841 -0.223779 0.323593 0.359788 -0.0478777 -0.0516727 -0.83049 0.404383 0.352967 -0.0910433 -0.0889196 0.273461 -0.251918 -0.294321 0.288446
33974 -0.235233 -1.08072 1.47636 0.187464 0.965687 0.120135 -2.33749 -1.08436 0.325013 0.821137 0.252466 0.72835 -0.687125 -0.0604191 0.776093 -0.40218 -0.225065 0.638627 -0.530945 0.431917 0.4604 -0.224119 0.282213 -0.991417 0.640702 0.104111 -0.0314976 0.128339 0.00375456 -0.38692 -0.291979 0.333697
32598 -0.168605 -0.851266 1.41418 0.178775 0.826688 0.00749069 -3.11155 -1.61219 0.196146 0.579246 -0.023792 0.485592 -0.574754 -0.140272 0.679939 -0.3602 -0.250834 0.607292 -0.299497 0.200513 0.3268 -0.304206 -0.250745 -0.7381 0.275929 -0.0382857 -0.23437 0.309615 0.0243274 -0.169004 -0.383075 0.324874
35061 -0.273623 -1.14925 1.52753 0.183012 0.884118 0.02109 -2.33661 -1.05752 0.25972 0.657828 0.296629 0.660718 -0.610009 -0.126874 0.655917 -0.390489 -0.324455 0.727644 -0.41657 0.374285 0.468607 -0.243735 0.132722 -0.822007 0.680776 0.0654548 -0.019159 0.131993 -0.00479477 -0.420626 -0.296387 0.34425
31464 -0.129296 -0.924765 1.47489 0.239878 0.99355 0.0027308 -2.46113 -1.06632 0.0580228 0.574151 0.243187 0.773848 -0.473223 -0.0350095 0.649446 -0.326662 -0.30696 0.865088 -0.462367 0.37429 0.629109 -0.328175 0.167942 -0.817149 0.801857 0.135127 -0.0840025 0.167821 0.127696 -0.322797 -0.308344 0.342087
33991 -0.165334 -0.779586 1.50767 0.0661123 1.13975 0.181912 -3.15234 -1.31031 0.0266576 0.302993 -0.250905 0.658529 -0.576641 0.0836193 0.695732 -0.561733 0.00669604 0.585177 -0.389728 0.197827 0.405341 -0.240697 0.00878997 -0.490725 0.617595 0.0337973 0.068076 0.28597 0.10247 -0.0488038 -0.134569 0.325427
31810 -0.268078 -0.952542 1.36782 0.277692 0.919999 0.100013 -2.40122 -1.11248 0.257537 0.736475 0.355465 0.926085 -0.629498 -0.0326747 0.70095 -0.33273 -0.235246 0.831415 -0.466995 0.394609 0.503808 -0.298161 0.15625 -0.707338 0.741251 0.133509 -0.03805 0.134377 0.155286 -0.395034 -0.268753 0.243703
36104 -0.156286 -0.697088 1.36562 0.191343 1.02018 0.0574286 -3.10333 -1.48423 0.137594 0.68289 0.241371 0.524986 -0.661875 -0.00570243 0.844533 -0.322713 -0.319382 0.498056 -0.247103 0.182585 0.357666 0.0730328 -0.0463203 -0.75889 0.679395 -0.157616 -0.0867193 0.0407395 0.0793201 -0.0418236 -0.326599 0.163923
32952 -0.2005 -0.809322 1.48488 0.252773 0.90917 0.0491059 -2.79636 -1.22138 0.14383 0.536367 0.249141 0.708195 -0.732987 -0.0226356 0.676979 -0.315713 -0.402534 0.826987 -0.351915 0.318965 0.620341 -0.153586 0.175293 -0.813042 0.770787 0.024679 -0.138481 0.130337 -0.0329788 -0.2017 -0.333437 0.361982
34827 -0.22889 -1.07024 1.33272 0.246071 0.864128 0.0628851 -2.21019 -1.01629 0.130985 0.566877 0.337622 0.708189 -0.444185 -0.134146 0.654119 -0.292387 -0.225061 0.783432 -0.425326 0.356683 0.45952 -0.33863 0.179379 -0.753469 0.76763 0.110001 -0.00250707 0.134131 0.157825 -0.359158 -0.317923 0.381142
36256 -0.0649545 -1.01836 1.28618 0.0975665 1.02304 -0.122811 -3.07851 -1.50705 0.235315 0.388489 0.214851 0.597643 -0.564096 -0.0107348 0.657488 -0.324805 -0.212063 0.691932 -0.240887 0.229427 0.475152 -0.174501 -0.0542967 -0.751318 0.541192 -0.0449582 -0.103277 -0.0159833 -0.122463 0.0365972 -0.1791 0.405157
34576 -0.14945 -0.713646 1.48397 0.0206407 0.99085 -0.166261 -3.12618 -1.47166 0.143824 0.578338 0.178847 0.566678 -0.508665 -0.0182467 0.819985 -0.533412 -0.218143 0.483354 -0.268076 0.279458 0.377969 -0.143687 -0.0617841 -0.808729 0.269736 -0.0877324 0.0581199 0.147758 -0.0197677 -0.342363 -0.201636 0.513301
32844 -0.233913 -1.07034 1.44438 0.123829 0.918952 -0.0477973 -2.71089 -1.29157 0.153138 0.699147 0.349869 0.55111 -0.448915 -0.0377604 0.877253 -0.360142 -0.306114 0.733345 -0.511776 0.354682 0.385595 -0.225385 -0.0788251 -0.833532 0.624926 -0.00971778 0.00815261 0.151844 0.0800791 -0.375652 -0.437035 0.447295
31302 -0.235649 -1.02225 1.50709 0.21548 0.949156 0.0733439 -2.79572 -1.27074 0.0565742 0.726807 0.360862 0.522473 -0.559038 -0.114689 0.672475 -0.362984 -0.35603 0.742506 -0.27793 0.405557 0.514761 -0.26817 -0.148745 -0.649233 0.726716 0.00512219 0.137815 0.138698 0.104888 -0.244007 -0.369822 0.391806
34963 -0.18508 -0.878624 1.35886 0.117849 1.1195 0.00256871 -2.62729 -1.06978 0.198051 0.578706 0.115097 0.622277 -0.665392 -0.228839 0.615479 -0.343993 -0.180069 0.775914 -0.536325 0.350997 0.515146 -0.325296 0.217246 -0.654356 0.891072 0.201699 -0.174653 0.138868 0.182711 -0.426652 -0.326741 0.454987
32946 -0.202522 -1.43296 1.48165 0.427378 1.06613 0.014224 -2.88145 -1.32553 -0.0216922 0.553214 0.28302 0.690595 -0.108344 -0.158461 0.822946 -0.48911 -0.340478 0.798884 -0.52934 0.208256 0.425081 -0.48972 -0.11371 -0.570254 0.661579 -0.0435314 0.160557 0.145984 0.435827 -0.292408 -0.419787 0.474841
34435 -0.125266 -1.10555 1.41349 0.0834833 1.01068 0.156325 -3.02092 -1.3717 0.0986397 0.375154 0.298603 0.184072 -0.466704 -0.497016 0.515365 -0.501717 -0.152982 0.58899 -0.430598 0.266299 0.327513 -0.634596 0.141336 -0.567953 0.69526 0.156021 0.116449 0.074897 0.110429 -0.191314 0.0188654 0.31913
32138 -0.200739 -0.891348 1.4664 0.0605459 1.08017 0.0665121 -2.89789 -1.32951 -0.054362 0.578089 0.235219 0.566926 -0.566256 -0.218626 0.500974 -0.528069 -0.190966 0.567471 -0.362594 0.22714 0.546579 -0.377825 0.19679 -0.842347 0.615775 0.115769 0.0662155 0.264402 0.0787796 -0.176791 -0.0357036 0.459965
33748 -0.254645 -0.829041 1.46047 0.164252 0.891793 -0.100976 -2.97162 -1.39808 0.10381 0.417508 0.189474 0.619616 -0.393708 0.0206294 0.7054 -0.425167 0.00897239 0.736424 -0.212745 0.474167 0.33483 -0.195466 0.228119 -0.713303 0.495822 -0.0112087 0.0302913 0.199871 0.0618486 -0.169887 -0.215743 0.415231
31918 -0.167785 -0.830063 1.60027 0.309569 1.05496 -0.0983252 -2.9628 -1.27375 0.093341 0.6546 0.192834 0.653443 -0.498586 0.00150202 0.729066 -0.320742 -0.0893482 0.893076 -0.135123 0.311649 0.328255 -0.183073 0.346674 -0.62712 0.425425 0.111045 -0.104629 0.260612 0.112212 -0.218702 -0.1796 0.398438
32199 -0.163457 -0.815484 1.33689 0.240249 1.08985 0.19899 -3.06157 -1.50808 0.196036 0.289411 0.256899 0.632167 -0.470185 -0.184263 0.647131 -0.375081 -0.143289 0.726321 0.0337033 0.460625 0.447304 -0.232688 0.230462 -0.607465 0.47212 -0.0803967 -0.0880216 0.0426661 0.0457644 -0.17575 -0.237415 0.465586
33503 -0.221898 -0.948589 1.26211 0.560509 1.32289 0.108434 -3.06362 -1.4938 0.0437556 0.151764 0.289638 0.443215 -0.469365 -0.0925741 0.647099 -0.504093 -0.0268569 0.690318 -0.304053 0.372106 -0.00717503 -0.333813 0.167043 -0.624589 0.345675 -0.110353 -0.0196943 0.0333097 0.166711 -0.314284 0.0480077 0.398444
34450 -0.240005 -1.09347 1.34617 0.423771 0.921737 0.131163 -2.64217 -1.13905 0.221709 0.677654 0.324294 0.558968 -0.534187 -0.136714 0.910223 -0.49893 -0.231809 0.644825 -0.553655 0.4751 0.44749 -0.303175 0.0504661 -0.859296 0.544185 0.0707433 0.0101419 -0.00465695 0.0742933 -0.318128 -0.229878 0.284876
34392 -0.015221 -0.890357 1.29602 0.414558 0.980701 0.435126 -3.15433 -1.3835 0.239586 0.420535 0.258391 0.444795 -0.400867 0.130625 0.709296 -0.334667 -0.156221 0.699695 -0.354476 0.224781 0.197501 -0.326031 0.549702 -0.683129 0.537773 0.214787 0.160162 -0.0926986 0.0948761 -0.550224 0.00828653 0.349234
32909 -0.235443 -1.05492 1.49297 0.275404 1.03841 0.0220601 -2.85481 -1.25786 0.252285 0.598653 0.296057 0.643466 -0.585869 -0.142159 0.662598 -0.430803 -0.15468 0.756281 -0.478252 0.457387 0.405548 -0.261989 0.0920731 -0.803011 0.45379 0.267234 -0.128081 -0.0412229 0.100922 -0.534816 -0.29572 0.407995
36863 -0.211755 -0.866944 1.32806 0.254759 1.04834 -0.117181 -2.93168 -1.53532 0.202419 0.705772 0.195585 0.460267 -0.628412 0.0470937 0.923648 -0.475938 -0.174012 0.601723 -0.292813 0.393317 0.240745 -0.0509855 -0.165305 -0.636612 0.464815 0.0669147 -0.158596 0.195188 -0.00585014 -0.525682 -0.20664 0.422185
35120 -0.18398 -1.12369 1.45065 0.183489 0.903207 -0.0156083 -2.84879 -1.53451 0.236474 0.676098 0.345591 0.470782 -0.767696 0.0567269 0.898047 -0.305773 -0.184801 0.657426 -0.437834 0.371391 0.344363 -0.126197 -0.223981 -0.774988 0.527041 -0.115764 -0.0737236 0.235952 0.155146 -0.273305 -0.319863 0.0911955
35587 -0.250366 -1.01629 1.5494 0.407124 1.07825 0.0911413 -2.9655 -1.51577 -0.00781415 0.48867 0.413301 0.614578 -0.254128 -0.0410078 0.917608 -0.651605 -0.46678 0.489637 -0.322528 0.0151562 0.380271 -0.160706 -0.0463561 -0.52627 0.515079 -0.0357653 0.204044 0.0528693 0.225287 -0.421248 -0.248211 0.237806
31100 -0.29573 -1.12649 1.54313 0.396688 1.01011 -0.010105 -2.44249 -1.2264 0.239591 0.718441 0.327864 0.539194 -0.58391 -0.121714 0.704548 -0.519923 -0.225454 0.618821 -0.475365 0.323929 0.338494 -0.189984 0.0138496 -0.74296 0.597268 0.0869291 -0.0213435 0.0456729 0.0791924 -0.389482 -0.198158 0.384887
35796 -0.0138577 -1.01369 1.30402 0.250217 1.21051 -0.0320759 -3.18672 -1.32873 0.0838723 0.367823 0.187688 0.568363 -0.454691 -0.216305 0.699927 -0.348909 0.0555543 0.654444 -0.258694 0.345806 0.136672 -0.299016 0.163328 -0.836459 0.307656 0.231477 -0.00256349 0.142712 -0.000431587 -0.181013 -0.00848221 0.497899
35668 -0.23975 -1.32121 1.51142 0.340821 1.00717 -0.0159342 -2.73889 -1.23744 0.353321 0.640055 0.126026 0.533398 -0.65383 -0.144858 0.859975 -0.498226 -0.101087 0.588091 -0.454327 0.378162 0.345228 -0.189654 0.0766481 -0.680504 0.462865 0.0379297 -0.13579 0.169328 0.0531298 -0.360169 -0.136425 0.276789
34885 -0.239578 -0.833688 1.63587 0.0357788 1.10587 -0.129736 -2.94836 -1.43631 -0.0168708 0.460404 0.115594 0.507301 -0.671856 -0.128445 0.617504 -0.608856 -0.153722 0.776465 -0.355635 0.206381 0.371715 -0.339658 0.0322442 -0.771539 0.350289 -0.0198302 0.0431732 0.249641 0.107397 -0.188125 -0.294482 0.226797
34032 -0.208165 -0.809492 1.4811 0.12213 0.904217 -0.267023 -3.10686 -1.25589 0.303027 0.554957 0.215434 0.643993 -0.757598 -0.22058 0.557996 -0.575846 -0.227706 0.637602 -0.521084 0.0459667 0.292466 -0.429262 0.207687 -0.783828 0.463179 -0.0518578 -0.0966835 0.0806865 0.0939077 -0.296222 -0.169872 0.239795
35456 -0.375241 -0.814707 1.471 0.27499 1.0005 0.113562 -3.11567 -1.32833 0.162799 0.360861 0.270907 0.539813 -0.454166 -0.154632 0.750896 -0.543227 -0.444026 0.689786 -0.120182 0.191216 0.532254 -0.23566 0.0314755 -0.631291 0.38193 0.124853 -0.0417177 0.0443771 0.0349365 -0.187286 -0.432915 0.561068
1218871 -0.0740544 -0.237583 0.335358 0.0524506 0.238175 0.01605 -0.703365 -0.329318 0.0631112 0.143862 0.0548141 0.111446 -0.17114 -0.0273689 0.213978 -0.137064 -0.0841148 0.183704 -0.10861 0.0671729 0.0952943 -0.0535613 0.0332841 -0.227198 0.102677 -0.00607577 0.00171691 0.0139967 -0.00370268 -0.0726219 -0.026827 0.0495336
32179 -0.155332 -0.904483 1.27349 0.367871 0.946447 -0.0542793 -3.13016 -1.38351 0.0846789 0.538879 0.347236 0.368642 -0.302922 -0.205453 0.777997 -0.527141 -0.156462 0.607052 -0.390789 0.199569 0.360991 -0.184381 -0.00648105 -0.845777 0.244709 -0.0595555 0.282873 0.0252078 0.118635 -0.2712 -0.342417 0.147444
31237 -0.160685 -0.971932 1.67427 0.401403 1.01156 0.0812591 -2.74265 -1.28521 0.157403 0.796477 0.2927 0.564479 -0.521307 -0.0234032 0.942799 -0.335334 -0.402452 0.664596 -0.451695 0.317936 0.512551 0.0350814 0.0153293 -0.946117 0.695106 -0.0829042 -0.0186836 0.153295 -0.0378734 -0.305135 -0.2643 0.225561
33671 -0.203447 -0.81987 1.44072 0.165399 1.00955 0.0353881 -3.00509 -1.39189 0.128405 0.62507 0.299907 0.572196 -0.519936 -0.0269143 0.669407 -0.32393 -0.376157 0.689829 -0.266172 0.24828 0.247734 -0.322796 -0.000603265 -0.815549 0.427758 -0.0217923 0.00619275 0.152322 0.0570405 -0.408635 -0.318168 0.242485
36910 -0.199753 -0.710969 1.39593 0.241955 0.929531 0.190263 -2.91028 -1.4495 0.1286 0.615608 0.321661 0.63425 -0.500837 -0.033018 0.658879 -0.170892 -0.324651 0.681505 -0.366583 0.229861 0.559178 -0.0736977 0.141413 -0.870907 0.535976 0.108759 -0.024418 -0.0223391 0.128641 -0.393526 -0.175937 0.370203
31224 -0.212108 -1.13085 1.46534 0.368459 0.950626 0.0202887 -2.80288 -1.30313 0.268043 0.731096 0.309248 0.461589 -0.61821 -0.0232556 0.93977 -0.386296 -0.343993 0.617444 -0.516824 0.240182 0.47696 -0.11547 -0.0943872 -0.860422 0.610467 -0.102205 -0.0182428 0.0928604 0.0832389 -0.4018 -0.419721 0.404306
32668 -0.245733 -1.02104 1.36819 0.282173 0.808278 0.0431133 -2.15747 -0.977512 0.20047 0.665296 0.320075 0.692377 -0.550137 -0.0795274 0.690754 -0.3022 -0.252926 0.585103 -0.377044 0.350859 0.515733 -0.238918 0.0413983 -0.852652 0.928604 0.0909915 -0.0895202 0.17442 0.114579 -0.453911 -0.374897 0.455397
33300 -0.169781 -1.04299 1.52713 0.243986 1.01282 -0.0223633 -2.92706 -1.26971 0.254695 0.620452 0.297409 0.484894 -0.446423 -0.112811 0.806603 -0.356469 -0.362776 0.764852 -0.619657 0.318123 0.604759 -0.169658 -0.0360952 -0.735673 0.758816 -0.0525103 -0.0129916 0.072121 0.0439901 -0.203827 -0.315492 0.151353
32037 -0.278301 -1.12063 1.52586 0.317965 0.841078 0.153979 -2.76084 -1.21743 0.350713 0.724212 0.24671 0.652941 -0.470436 -0.0932788 0.774406 -0.443409 -0.401685 0.613175 -0.381959 0.227641 0.406375 -0.191673 -0.0247272 -0.834498 0.57741 0.0582729 -0.0564763 0.03074 0.11677 -0.395711 -0.319369 0.287623
31469 -0.127344 -0.846147 1.38676 0.0200616 0.726855 -0.107966 -3.15608 -1.35644 0.0232172 0.633767 0.205566 0.49972 -0.424627 -0.0738351 0.524136 -0.377054 -0.0873127 0.63769 -0.292503 0.232499 0.467673 -0.406883 0.275361 -0.672754 0.40768 0.201932 0.000279133 -0.0555758 0.097402 -0.465943 -0.157374 0.163385
31756 -0.17199 -0.987431 1.231 0.382077 1.0323 0.0871975 -3.09722 -1.28766 0.0577529 0.547023 0.318757 0.244854 -0.337539 -0.182796 0.907953 -0.408652 -0.274324 0.593345 -0.346317 0.306636 0.497609 -0.243716 -0.110842 -0.692363 0.527735 0.0438473 0.109468 0.128412 0.0931853 -0.251151 -0.125863 0.216354
34486 -0.216191 -1.14345 1.47403 0.293787 0.942181 0.122405 -2.77281 -1.3192 0.136165 0.585145 0.265768 0.544 -0.446309 -0.0686634 0.918794 -0.459106 -0.292573 0.598103 -0.387787 0.261274 0.501094 -0.217989 -0.0816122 -0.706268 0.548971 0.0283413 -0.017211 0.106464 0.120689 -0.384258 -0.308595 0.309256
37070 -0.288528 -1.11583 1.53427 0.248489 1.02524 -0.0238948 -3.0124 -1.44829 0.0374166 0.678639 0.447881 0.460013 -0.624608 -0.273043 0.631291 -0.558979 -0.344836 0.701871 -0.5451 0.324107 0.313892 -0.383362 -0.197354 -0.730099 0.506091 0.0838085 0.0180849 0.0390987 0.224148 -0.310021 -0.433575 0.233771
33243 -0.276083 -1.0335 1.52581 0.168028 0.847879 0.0269677 -2.36525 -1.02089 0.248555 0.693125 0.273175 0.683821 -0.658743 -0.161424 0.658134 -0.396634 -0.218747 0.724577 -0.330339 0.348172 0.48202 -0.301318 0.172389 -0.919289 0.709102 0.105381 -0.129912 0.0933008 0.0155818 -0.490157 -0.300162 0.438253
35835 -0.302609 -0.914836 1.1639 0.494216 0.945486 0.210931 -3.09598 -1.48976 0.233308 0.524195 0.20304 0.523915 -0.44331 -0.0740382 0.449623 -0.41338 -0.263389 0.764615 -0.196488 0.383986 0.41658 -0.2711 0.246829 -0.766055 0.258297 0.106162 0.148758 -0.0772381 0.179905 -0.342949 -0.215841 0.514978
32851 -0.260853 -0.791833 1.70321 0.374613 0.930723 0.268219 -2.76936 -1.19057 0.238966 0.732942 0.240353 0.645977 -0.495175 -0.181408 0.55126 -0.357825 -0.321187 0.88041 -0.253457 0.312613 0.530146 -0.0798074 0.0919802 -0.793697 0.390668 0.2877 -0.118457 -0.145139 0.103996 -0.0430161 -0.339401 0.301223
32493 -0.114816 -0.663926 1.57304 0.341231 0.999697 0.0129928 -3.08344 -1.41082 0.20323 0.50976 0.065945 0.542256 -0.629718 -0.0525639 0.839849 -0.20923 -0.27043 0.71611 -0.222311 0.229238 0.407364 -0.0184019 0.0746492 -0.676576 0.402028 -0.0759707 -0.187139 0.0438563 0.0631657 -0.138964 -0.253189 0.175206
35743 -0.279169 -0.89882 1.30416 0.421695 1.05226 0.132522 -3.17684 -1.46852 0.021951 0.400389 0.310577 0.463553 -0.430472 -0.134881 0.868748 -0.180266 -0.39936 0.59451 -0.421255 0.183992 0.469909 -0.2748 -0.0926495 -0.545591 0.433481 -0.00629829 -0.180429 0.0448879 0.136201 -0.311015 -0.333868 0.180656
33128 0.0223389 -0.87849 1.40095 0.376048 1.22129 -0.0843534 -3.1897 -1.44163 -0.00637213 0.227738 0.42529 0.572523 -0.277838 0.0568925 0.879858 -0.1181 -0.0281213 0.846776 -0.197811 0.173058 0.208664 -0.37019 -0.0549224 -0.577787 0.514736 0.0887044 0.00987038 0.189521 0.315914 -0.173118 -0.183456 0.252998
32044 -0.289563 -0.759084 1.36532 -0.117901 1.19638 -0.00480821 -3.21657 -1.31323 0.0753945 0.415491 0.0652736 0.46122 -0.595553 -0.157969 0.50648 -0.37028 -0.32626 0.674631 -0.247129 0.256224 0.364237 -0.336487 -0.0151166 -0.649454 0.410476 -0.0234912 -0.0898116 0.254308 0.304193 -0.248854 -0.429787 0.289201
36136 -0.128696 -0.949561 1.51508 0.131831 1.17391 -0.0143151 -2.9914 -1.2035 0.267556 0.581232 0.251967 0.972809 -0.326304 -0.0229862 0.806567 0.00205165 -0.20585 1.02094 -0.176444 0.165501 0.00376244 -0.373879 0.320762 -0.646571 0.746842 0.165389 -0.000777762 0.289459 0.112285 -0.43299 -0.495253 0.217406
33662 -0.193801 -0.844572 1.43166 0.255891 0.981526 -0.21393 -3.1127 -1.57833 0.29069 0.56252 0.180072 0.481515 -0.467231 -0.144215 0.891724 -0.415159 0.00162718 0.645041 -0.371883 0.238991 0.124862 -0.14374 0.0162149 -0.876759 0.416829 0.102598 -0.0617788 0.0896049 -0.0442093 -0.421022 -0.325296 0.119356
34467 -0.221889 -0.894919 1.37738 0.246247 0.789001 0.188897 -2.96475 -1.26384 0.411485 0.773171 0.165158 0.642199 -0.543558 -0.0531378 0.915942 -0.330246 -0.248205 0.564547 -0.370593 0.294723 0.368014 -0.18984 0.0576341 -0.47096 0.614001 0.226047 -0.255286 -0.0148246 -0.0111814 -0.605459 -0.179738 0.114812
36869 -0.447124 -0.706318 1.39808 0.106051 1.11285 0.105806 -3.2128 -1.43894 0.0687848 0.419549 0.211182 0.61708 -0.561533 -0.249004 0.878177 -0.459979 -0.184967 0.354065 -0.216541 0.375763 0.39376 -0.345889 -0.268481 -0.686693 0.492825 0.0940222 -0.114275 0.173232 0.243408 -0.111291 -0.415949 0.163526
32761 -0.248609 -1.03392 1.43891 0.151758 0.924272 0.241619 -2.80196 -1.37151 0.305867 0.612356 0.174949 0.463139 -0.527006 -0.263216 0.753225 -0.452322 -0.0857186 0.553315 -0.630275 0.417996 0.218969 -0.372606 0.128435 -0.64205 0.52369 0.269225 -0.103358 0.0149869 0.0936308 -0.454858 -0.175857 0.248751
35832 -0.252587 -0.971441 1.50182 0.156756 0.971557 -0.0107009 -2.95459 -1.34088 0.165186 0.67331 0.299754 0.409437 -0.385577 -0.143345 0.659333 -0.458945 -0.405997 0.784143 -0.277056 0.317977 0.407971 -0.153252 -0.16052 -0.681403 0.52079 0.0529707 -0.145841 0.132849 0.0805909 -0.297091 -0.250703 0.272664
31946 -0.125279 -0.715148 1.35785 0.138795 1.20329 0.252894 -2.94017 -1.34954 0.176668 0.38227 0.133022 0.421685 -0.635619 -0.155344 0.53753 -0.508371 -0.107828 0.699753 -0.499623 0.24817 0.430493 -0.216141 0.380731 -0.602879 0.607677 0.215567 -0.00343128 0.00526156 -0.0576769 -0.347476 -0.150492 0.163607
31195 -0.225578 -0.886379 1.31379 0.358988 1.01883 0.33386 -3.03777 -1.32571 0.0200465 0.301133 0.247915 0.644874 -0.53497 -0.226623 0.673646 -0.50183 -0.251246 0.654577 -0.169108 0.321918 0.434493 -0.25107 0.299113 -0.620112 0.451316 0.029163 -0.0769941 0.0736111 0.0808303 -0.410502 -0.103297 0.474731
33435 -0.262232 -1.10742 1.73093 0.314343 0.929595 0.0186278 -2.93739 -1.41447 0.0129506 0.618939 0.443862 0.540262 -0.560551 -0.167935 0.74076 -0.466896 -0.490712 0.766228 -0.332863 0.385998 0.325408 -0.22843 -0.137188 -0.631995 0.440965 0.0694186 0.216712 -0.0471112 0.053166 -0.139617 -0.339726 0.291532
32734 -0.255604 -1.25688 1.38898 0.160324 0.995563 0.108839 -2.68111 -1.2915 0.165691 0.61836 0.315871 0.634436 -0.651782 -0.233793 0.559812 -0.488761 -0.231264 0.662275 -0.562731 0.344044 0.357032 -0.378834 0.116054 -0.83528 0.696589 0.142339 0.0261977 0.0149772 0.0113326 -0.399565 -0.224035 0.411089
32041 -0.106151 -1.08884 1.24106 0.164335 0.978556 0.278209 -3.33408 -1.26508 -0.043188 0.299118 0.224223 0.451281 -0.406856 -0.284756 0.74893 -0.386348 -0.199278 0.644952 -0.54072 0.0931029 0.279298 -0.46517 -0.0362986 -0.714609 0.370299 0.176923 0.0501263 0.105984 -0.072536 -0.236747 -0.147514 0.354514
35364 -0.134623 -0.908952 1.35196 0.233468 1.14699 -0.018863 -3.34553 -1.38045 0.0524207 0.500281 0.084323 0.393002 -0.299405 0.202366 0.852403 -0.569715 0.0014834 0.588031 -0.48113 0.20581 0.338273 -0.0995573 -0.225263 -0.619689 0.556905 0.152306 -0.00748412 0.230645 0.284711 -0.121971 0.0328158 0.458483
31659 -0.251781 -1.0853 1.57823 0.353789 1.01538 0.118088 -2.69914 -1.22764 0.226395 0.632813 0.217602 0.638174 -0.503774 -0.0298783 0.937414 -0.349862 -0.324989 0.807827 -0.501681 0.460165 0.348823 -0.15402 0.0120109 -0.763396 0.601845 0.0428826 -0.0708225 0.27186 0.0438611 -0.400075 -0.337759 0.340642
32174 -0.248041 -0.840681 1.3677 0.0496159 1.0067 0.0132153 -2.40136 -0.999368 0.0675491 0.515057 0.172985 0.536828 -0.66293 -0.266945 0.323303 -0.431007 -0.21464 0.780637 -0.36276 0.333292 0.619951 -0.347358 0.319374 -0.958581 0.766706 0.213324 -0.0621416 0.140557 0.011803 -0.313519 -0.181494 0.444247
31793 -0.240904 -0.896533 1.34574 -0.0458345 1.08677 0.128074 -3.04253 -1.36613 0.124762 0.384359 0.161776 0.400789 -0.737848 -0.335661 0.489731 -0.310949 -0.0469711 0.61856 -0.349147 0.318702 0.50631 -0.440058 0.308538 -0.578351 0.823443 0.0351551 -0.17849 0.292551 -0.0609255 -0.166929 0.195211 0.34039
31133 -0.43355 -1.13635 1.27159 0.297454 1.06824 0.284109 -3.03798 -1.48262 0.31144 0.569349 0.270731 0.448083 -0.366364 -0.0527581 0.735939 -0.66136 -0.0936273 0.700821 -0.283656 0.431713 0.393755 -0.240861 0.304557 -0.619564 0.516676 0.122786 -0.0140877 -0.14779 0.00132693 -0.24512 -0.343641 0.358192
35805 -0.189309 -0.940558 1.25894 0.286599 1.17527 0.219601 -3.07722 -1.4628 0.434077 0.535066 0.0636287 0.299417 -0.565443 -0.0173827 0.689211 -0.451635 -0.216056 0.752382 -0.309892 0.442138 0.178621 -0.536721 0.108593 -0.744056 0.543661 -0.00432532 0.173519 -0.0608826 0.00172949 -0.178612 -0.225095 0.24743
33385 -0.240965 -1.21812 1.30488 0.237695 0.95186 0.032786 -2.45629 -1.14006 0.209806 0.600946 0.305137 0.634143 -0.579638 -0.101961 0.773112 -0.3724 -0.224222 0.61121 -0.551643 0.38468 0.466178 -0.327161 0.157032 -0.823088 0.633602 -0.0154971 -0.0407998 0.205682 0.165691 -0.349408 -0.21471 0.274158
34704 -0.223399 -1.17358 1.53859 0.318748 0.908244 0.0985283 -2.65873 -1.28025 0.0963588 0.63574 0.364211 0.641732 -0.549073 -0.0874993 0.851994 -0.347991 -0.243397 0.743027 -0.632233 0.409831 0.534752 -0.261908 0.0158557 -0.756951 0.695946 -0.0693618 -0.0619227 0.2096 0.203597 -0.384042 -0.321049 0.362286
34378 -0.265249 -1.26028 1.25215 0.490054 1.15071 -0.00205929 -2.98886 -1.40945 -0.0143497 0.544181 0.463708 0.480035 -0.622286 -0.198253 0.654923 -0.494816 -0.328285 0.753443 -0.23438 0.237866 0.299418 -0.439633 0.0181817 -0.63628 0.492811 0.0473698 0.242884 0.0719964 0.208188 -0.134424 -0.136783 0.39417
33734 -0.280906 -0.834387 1.49426 0.0848009 0.973289 0.0891019 -2.80005 -1.24569 0.105063 0.503121 0.213219 0.619085 -0.488205 -0.25384 0.532102 -0.26996 -0.325535 0.756424 -0.295259 0.486444 0.469018 -0.241785 0.110773 -0.663524 0.651424 0.232914 -0.0770962 0.137344 0.103665 -0.301959 -0.39609 0.345284
36695 -0.130548 -0.905335 1.4591 0.434411 0.97278 -0.220349 -3.14748 -1.51442 0.000303521 0.391601 0.201868 0.460412 -0.463489 0.0571913 0.753167 -0.437678 -0.467819 0.750026 -0.21383 0.587366 0.285172 -0.0495682 0.00710673 -0.527483 0.618497 -0.135875 -0.0686983 -0.0674957 0.118229 -0.27778 -0.357558 0.564563
32058 -0.176718 -0.892625 1.45043 0.205852 1.00145 -0.0923669 -3.04433 -1.3637 -0.040673 0.506495 0.366568 0.60626 -0.242477 -0.000369864 0.756179 -0.0751417 -0.32163 0.918059 -0.236324 0.372433 0.153643 -0.19667 0.130516 -0.773034 0.448061 0.129239 -0.0803572 0.106898 -0.0110445 -0.327888 -0.332642 0.30056
34123 -0.113926 -0.945342 1.61509 0.0220843 1.0829 -0.0042841 -3.05656 -1.35604 -0.0364939 0.467018 0.335102 0.701095 -0.257241 -0.0703227 0.7786 -0.109235 -0.326968 0.906955 -0.245276 0.16883 0.306451 -0.320275 -0.0136369 -0.48868 0.622591 0.191233 -0.0442107 0.213795 0.0437222 -0.280427 -0.38502 0.180348
33528 -0.217588 -0.702825 1.59404 0.303821 0.923112 0.200218 -2.83074 -1.22042 0.193474 0.765656 0.252182 0.822284 -0.386954 -0.0238839 0.480413 -0.209204 -0.350354 0.877524 -0.212886 0.239448 0.721623 -0.176904 0.0879521 -0.800012 0.535094 0.277291 -0.199511 0.0113796 0.138674 -0.180195 -0.603571 0.357265
34517 -0.218563 -0.660776 1.50969 0.0976194 1.01718 -0.199027 -3.10929 -1.49231 0.218324 0.580123 0.179418 0.534355 -0.6324 -0.0362745 0.696624 -0.489994 -0.129551 0.564823 -0.267002 0.0911052 0.254475 -0.383311 -0.228256 -0.717054 0.183673 -0.107062 -0.00578299 -0.0382219 0.0638947 -0.24365 -0.347927 0.401962
36686 -0.158023 -1.1612 1.53022 0.320287 1.06614 0.171304 -2.85745 -1.27347 0.466411 0.75163 0.223054 0.522045 -0.513824 -0.0541456 0.906144 -0.606143 -0.236517 0.531388 -0.51834 0.368452 0.202252 -0.296524 0.161426 -0.862096 0.541749 0.109057 -0.0238002 -0.0305733 0.0951444 -0.353555 -0.15203 0.0474534
33516 -0.225707 -1.17326 1.36207 0.205676 0.853405 0.124596 -2.40991 -1.05376 0.235788 0.725095 0.303112 0.632037 -0.7131 -0.143395 0.757172 -0.501331 -0.314349 0.781353 -0.630378 0.433143 0.53304 -0.324619 0.119456 -0.848215 0.647236 0.0984576 -0.0149846 0.0408764 0.0825646 -0.396599 -0.300623 0.357033
34304 -0.230024 -1.3596 1.452 0.303808 1.06699 0.0344433 -2.63567 -1.16823 0.120483 0.562558 0.278545 0.705894 -0.474486 -0.0669891 0.846308 -0.384213 -0.135553 0.852953 -0.422212 0.347364 0.315526 -0.383197 0.113034 -0.789412 0.806782 0.0882887 0.0437871 0.176903 0.23305 -0.420417 -0.397764 0.367463
36688 -0.230053 -1.09738 1.52217 0.226561 0.970331 0.0464862 -2.57107 -1.12532 0.129722 0.735169 0.381842 0.815248 -0.63731 -0.135861 0.802734 -0.33263 -0.253078 0.767 -0.370381 0.341387 0.494445 -0.350979 0.126228 -0.775211 0.73829 0.0933039 0.00720612 0.130052 0.162931 -0.283895 -0.414161 0.450079
35995 -0.246143 -1.21929 1.59243 0.333411 1.00364 0.0933058 -2.59866 -1.19096 0.201996 0.606378 0.33348 0.723216 -0.701045 -0.118868 0.898187 -0.463748 -0.184005 0.827467 -0.60495 0.381569 0.482164 -0.374257 0.125827 -0.796409 0.735035 0.0728667 -0.0306025 0.157411 0.173578 -0.331844 -0.230287 0.387241
36816 -0.265336 -1.18599 1.65298 0.296111 1.10765 0.0777519 -2.64523 -1.19926 -0.0148473 0.443991 0.347744 0.739546 -0.42577 -0.0844122 0.856049 -0.413567 -0.270881 0.891509 -0.490377 0.314031 0.556074 -0.435685 0.0703514 -0.868154 0.808729 0.00800522 0.0511601 0.177773 0.19142 -0.115183 -0.287908 0.30339
36455 -0.215866 -0.67886 1.52246 0.133921 1.1088 -0.0954631 -2.95241 -1.32683 -0.0745845 0.370171 0.249129 0.518048 -0.540244 -0.159557 0.715241 -0.441216 -0.331927 0.778635 -0.21552 0.202839 0.69007 -0.350942 -0.00494598 -0.850364 0.581231 -0.230989 0.220134 0.279216 0.180357 -0.14975 -0.350604 0.342363
31832 -0.182409 -1.00888 1.43813 0.154573 1.10378 0.0140009 -3.03848 -1.24814 0.164769 0.687446 0.326637 0.952196 -0.266341 0.111443 0.816961 0.0449079 -0.192034 1.03329 -0.17961 0.205131 0.143882 -0.273467 0.311949 -0.594923 0.723741 0.1514 -0.136613 0.36211 0.141979 -0.369374 -0.443163 0.231484
36490 -0.272701 -0.856708 1.44932 0.430442 1.05361 0.104451 -3.04271 -1.54164 0.0328624 0.410007 0.350749 0.394018 -0.493399 0.0207606 0.654023 -0.323633 -0.522714 0.770337 -0.164092 0.289991 0.637014 -0.329436 0.00735451 -0.578049 0.498837 0.0337455 0.0812212 -0.144654 0.1817 -0.0925801 -0.391421 0.534275
31858 -0.297333 -1.00532 1.23025 0.194119 0.866579 0.133227 -2.52373 -1.1649 0.197436 0.703118 0.297271 0.580058 -0.69803 -0.147904 0.548562 -0.558966 -0.248239 0.695978 -0.407926 0.455591 0.44834 -0.296993 0.177296 -0.736016 0.709706 0.20759 -0.0524321 0.0687145 0.0339093 -0.448833 -0.188292 0.434375
35171 -0.20505 -1.00741 1.42966 0.0720661 1.12941 -0.322798 -2.96705 -1.23956 0.134282 0.423775 0.124193 0.494936 -0.819277 -0.302468 0.465624 -0.639802 -0.122859 0.735193 -0.446557 0.145126 0.317212 -0.412358 0.125772 -0.768581 0.494942 0.165883 0.00351519 0.264916 0.187139 -0.368108 -0.201136 0.379011
31298 -0.216461 -0.797275 1.26513 0.310338 0.933567 0.180072 -2.9619 -1.49366 0.289853 0.674605 0.404921 0.801553 -0.476942 -0.136581 0.588801 -0.45863 -0.202448 0.701108 -0.353108 0.259889 0.480279 -0.200615 0.136367 -0.8254 0.620787 0.00752913 -0.0348029 0.0241351 0.0473389 -0.270807 -0.335573 0.356432
34581 -0.33826 -1.21761 1.44205 0.268187 0.981038 0.059319 -2.7704 -1.3178 0.143857 0.763181 0.410791 0.648796 -0.537083 -0.16436 0.754354 -0.412962 -0.364435 0.75777 -0.640873 0.530857 0.501769 -0.288867 -0.0346547 -0.585036 0.776864 0.188057 -0.0286725 0.0928857 0.154301 -0.396455 -0.455321 0.357466
33992 -0.290593 -1.00328 1.5028 0.309812 0.993103 0.0961815 -3.08346 -1.42782 0.0287133 0.444 0.263529 0.395969 -0.43185 -0.0534689 0.698485 -0.335226 -0.475644 0.815391 -0.517002 0.254206 0.428295 -0.0757726 -0.0772455 -0.523381 0.598297 0.0829401 -0.0885653 0.100455 0.148435 -0.173444 -0.159718 0.282147
35922 -0.29969 -0.752861 1.2801 0.196617 0.851434 -0.00190101 -3.04022 -1.32813 0.193571 0.717683 0.0885816 0.447731 -0.591462 -0.179317 0.484888 -0.523412 -0.0754045 0.679101 -0.173119 0.46184 0.446159 -0.175539 0.375129 -0.876792 0.496347 0.305097 -0.0658766 0.0570955 0.0543262 -0.312215 -0.218233 0.253262
32287 -0.192237 -0.738619 1.63408 0.151494 1.03764 0.20428 -2.90284 -1.29464 0.186302 0.442248 0.163677 0.750768 -0.794651 0.0538359 0.796567 -0.366941 -0.398372 0.524881 -0.285004 0.104362 0.589686 0.0266131 0.00763818 -0.851566 0.653275 -0.0496861 -0.164356 0.230228 0.134974 -0.184444 -0.274695 0.103807
34945 -0.229602 -1.13667 1.3502 0.167829 0.933056 -0.00783247 -2.44091 -1.09729 0.267486 0.800367 0.326286 0.833427 -0.639735 -0.201297 0.706157 -0.440454 -0.192963 0.765219 -0.584475 0.403582 0.439968 -0.330536 0.0967521 -0.764912 0.682843 0.14075 -0.0406056 0.129659 0.125906 -0.489477 -0.29085 0.399147
31824 -0.22699 -1.18597 1.46468 0.194496 0.954619 0.036508 -2.67185 -1.26836 0.27726 0.877599 0.350109 0.632547 -0.58923 -0.208551 0.800861 -0.466488 -0.217113 0.785655 -0.60349 0.424245 0.369556 -0.352484 0.0149689 -0.691611 0.787142 0.139115 -0.0131049 0.106352 0.229733 -0.590157 -0.364007 0.457528
31473 -0.281152 -1.24888 1.31021 0.172273 0.907407 0.0771145 -2.54518 -1.20919 0.223387 0.712341 0.326725 0.547828 -0.51703 -0.166474 0.643455 -0.411367 -0.375743 0.660993 -0.454228 0.426402 0.503181 -0.273524 0.0374602 -0.77229 0.695512 0.163385 -0.0806009 0.0332356 0.0519434 -0.390272 -0.306736 0.364187
34512 -0.233389 -0.857369 1.50657 0.404988 0.960449 0.126012 -2.93508 -1.25029 0.000996886 0.527945 0.329183 0.555855 -0.522338 -0.0873385 0.471212 -0.350604 -0.330477 0.88548 -0.165283 0.335089 0.585635 -0.128464 0.118067 -0.86295 0.463639 0.3022 -0.145042 0.063869 0.192376 0.0161762 -0.251569 0.385767
32806 -0.111909 -0.890071 1.51321 0.210682 1.16615 0.0128652 -2.91009 -1.31471 0.120988 0.353349 0.276164 0.6583 -0.779328 -0.150229 0.637218 -0.37984 -0.361695 0.799508 -0.271939 0.457988 0.546517 0.010078 0.0740068 -0.782005 0.576212 -0.0770591 -0.0941027 0.21427 -0.100137 -0.238656 -0.483488 0.407933
33839 -0.235788 -0.942327 1.37286 0.161857 0.894531 0.213997 -3.1585 -1.47503 0.0812271 0.565329 0.4155 0.299178 -0.32037 -0.351664 0.848801 -0.409978 -0.281906 0.709298 -0.164779 0.397489 0.279674 -0.135207 -0.057887 -0.567045 0.660102 -0.0104728 -0.000560965 0.258928 0.287966 -0.103971 -0.270618 0.265515
34623 -0.27284 -1.09012 1.49082 0.25599 0.940231 0.11624 -2.51646 -1.19173 0.161907 0.588112 0.258096 0.538059 -0.483323 -0.115562 0.640011 -0.434514 -0.207538 0.68938 -0.450634 0.40388 0.496943 -0.274964 0.0713168 -0.664766 0.744544 0.141899 -0.0491944 0.0791437 0.160825 -0.271741 -0.135215 0.292963
36834 -0.196263 -1.01778 1.44212 0.285522 0.931446 0.0881178 -2.84214 -1.29853 0.0159575 0.536716 0.28678 0.488661 -0.562263 -0.0743562 0.706294 -0.445941 -0.24864 0.693708 -0.603545 0.398475 0.406523 -0.205606 0.0871517 -0.671511 0.670189 -0.0286452 0.137514 0.189502 -0.0979599 -0.338472 -0.184727 0.261939
32678 -0.310441 -0.871421 1.47619 0.076047 0.980979 0.026384 -3.10979 -1.52204 0.0596887 0.551246 0.22269 0.270211 -0.515585 -0.029108 0.985836 -0.492209 -0.505874 0.486137 -0.455845 0.2369 0.179371 -0.225519 -0.168952 -0.686702 0.433039 0.0100152 -0.174546 -0.11893 -0.0654107 -0.366552 -0.300055 0.249057
36229 -0.198106 -0.901714 1.48514 0.143255 0.968581 -0.00350665 -2.85234 -1.27104 0.263308 0.590611 0.178049 0.752156 -0.679533 -0.157105 0.636557 -0.3783 -0.21279 0.652186 -0.385094 0.305387 0.423694 -0.0486768 0.0530642 -0.779809 0.467817 0.0634402 -0.080442 0.132925 0.0523051 -0.333099 -0.379037 0.403501
31280 -0.164184 -0.984304 1.30935 -0.0448522 1.11351 0.139874 -3.00546 -1.27499 -0.141201 0.391127 0.162161 0.510966 -0.558831 -0.239716 0.518573 -0.328524 -0.2868 0.800442 -0.369223 0.307718 0.621118 -0.203019 0.230044 -0.611478 0.844913 0.130769 -0.0570605 0.156924 -0.121188 -0.131067 -0.0967799 0.361595
33847 -0.309182 -0.682589 1.43753 0.184559 1.13388 0.196354 -2.97891 -1.49389 0.0505756 0.438203 0.16965 0.683936 -0.652565 -0.161796 0.553848 -0.240263 -0.302277 0.653369 -0.190265 0.260028 0.50353 -0.190378 0.247994 -0.756204 0.499356 -0.116163 -0.0619515 0.114177 0.017802 -0.0709543 -0.217503 0.443265
35870 -0.290482 -0.869542 1.70393 0.280832 1.01508 0.211466 -2.70667 -1.2829 -0.00132947 0.560749 0.337717 0.719479 -0.583117 -0.0738461 0.565137 -0.391419 -0.484539 0.711186 -0.367553 0.383279 0.602164 -0.211552 0.0244762 -0.758329 0.681629 0.0452154 0.0692043 0.0592648 0.0172704 -0.169151 -0.340158 0.350813
36231 -0.198311 -0.818005 1.493 0.63646 0.904602 0.276315 -3.08865 -1.36083 0.210825 0.570169 0.157655 0.403672 -0.221053 -0.0329426 0.669048 -0.331507 -0.406863 0.864685 -0.0940982 0.302647 0.456813 -0.117969 0.0862073 -0.670343 0.39524 0.369644 0.0680799 0.0791973 0.234449 0.0387355 -0.300244 0.23131
31327 -0.370028 -1.02623 1.32633 0.312593 1.00722 0.314478 -2.99046 -1.49429 0.0977006 0.423187 0.292075 0.382845 -0.518192 -0.0424005 0.63965 -0.568483 -0.206017 0.657436 -0.286701 0.427644 0.214155 -0.295287 0.29857 -0.746398 0.406566 0.27963 0.0662256 0.00893064 0.00960741 -0.411848 -0.196556 0.244835
31954 -0.352842 -0.714232 1.49601 0.229154 0.96654 0.100492 -3.11711 -1.41671 0.103847 0.475803 0.197039 0.510254 -0.699542 0.0279316 0.501684 -0.441252 -0.366113 0.715045 -0.269953 0.269351 0.424959 -0.189203 0.136866 -0.680475 0.302087 -0.000308788 0.100235 -0.0417344 0.0640268 -0.132698 -0.284005 0.525205
35089 -0.142937 -0.803369 1.42638 0.10748 0.900136 -0.16758 -2.99263 -1.45884 0.501611 0.679435 0.150096 0.560142 -0.508889 0.0733832 0.943589 -0.324772 -0.257937 0.462308 -0.285732 0.16742 0.214634 0.000238439 -0.0154276 -0.67718 0.348602 -0.0864676 -0.191765 0.0580919 -0.229795 -0.506641 -0.272011 0.150766
32219 -0.263346 -0.74975 1.44073 0.0374588 1.0904 -0.161396 -3.09691 -1.45375 -0.0239144 0.500559 0.150757 0.437838 -0.451714 -0.230814 0.820688 -0.419912 -0.311231 0.567673 -0.221213 0.407404 0.61477 -0.270469 0.129395 -0.603535 0.492625 -0.102549 0.115983 0.0810637 -0.031527 -0.343404 -0.188952 0.421276
32540 -0.19972 -0.851894 1.42748 0.148459 1.02192 0.0300283 -2.95415 -1.26944 0.216748 0.61504 0.288207 0.622075 -0.347832 -0.244816 0.715727 -0.526354 -0.159577 0.555821 -0.544703 0.322834 0.340461 -0.281769 0.0665536 -0.705697 0.500479 0.272887 -0.0106042 -0.0599498 0.267844 -0.335832 -0.0974323 0.242764
36318 -0.14449 -1.18016 1.43112 0.325401 0.952357 0.0794806 -2.62716 -1.35431 -0.00186944 0.496088 0.363531 0.634845 -0.46563 -0.0894678 0.778083 -0.426576 -0.276882 0.701266 -0.435946 0.27831 0.353968 -0.293884 -0.00306791 -0.735746 0.626044 0.0243308 0.0547961 0.0517344 0.144407 -0.139777 -0.274284 0.294548
31626 -0.195466 -1.04312 1.59946 0.255075 0.945063 0.0331266 -2.49377 -1.17769 0.179799 0.675012 0.352937 0.791317 -0.61462 -0.130931 0.624856 -0.303371 -0.200646 0.707605 -0.505642 0.359637 0.452677 -0.381756 0.177075 -0.88934 0.861757 0.109903 0.0517184 0.167003 0.0612569 -0.348129 -0.332023 0.357981
37066 -0.216598 -0.84627 1.34391 0.160606 0.860564 0.043335 -2.30411 -1.00548 0.190647 0.6464 0.268735 0.915494 -0.517308 -0.0947691 0.602864 -0.252215 -0.27887 0.752692 -0.357436 0.389985 0.526067 -0.25228 0.113762 -0.840972 0.813932 0.120273 -0.0999616 0.211071 0.0605374 -0.349001 -0.429451 0.423752
31369 -0.239321 -1.10699 1.35041 0.293879 1.03548 0.138996 -2.82245 -1.29724 0.243339 0.617106 0.235123 0.686129 -0.523915 -0.0750462 0.717516 -0.351122 -0.116363 0.705092 -0.400182 0.295094 0.201219 -0.290844 0.158026 -0.37318 0.469895 0.0278281 -0.0700139 0.138759 0.109645 -0.487193 -0.309483 0.414512
33628 -0.257511 -0.938083 1.50212 0.300315 1.10385 0.00127078 -3.00289 -1.47675 0.107334 0.430466 0.314886 0.381308 -0.553171 -0.0446134 0.741253 -0.343099 -0.22494 0.704977 -0.379266 0.40859 0.274525 -0.205836 0.0351532 -0.720171 0.345296 0.0194175 0.188547 0.0926153 0.0164561 -0.25398 -0.164836 0.270718
37054 -0.230749 -0.778231 1.32349 0.0992635 0.738697 0.0917315 -1.9904 -0.856364 0.085936 0.566098 0.2494 0.771859 -0.555184 -0.0517607 0.568043 -0.274312 -0.260128 0.706722 -0.350563 0.330681 0.578676 -0.213039 0.185926 -0.841591 0.775235 0.0803277 -0.0968949 0.171098 0.0175734 -0.322549 -0.341942 0.416347
36467 -0.35175 -0.781963 1.44188 0.241018 0.860514 0.0916632 -3.14174 -1.35214 -0.0351328 0.348319 0.196137 0.671103 -0.547177 0.016235 0.756728 -0.495676 -0.263669 0.53587 -0.215775 0.308098 0.606121 -0.0889298 -0.00739319 -0.734176 0.530661 0.0622328 0.0508869 0.0520359 0.000514738 -0.214719 -0.308084 0.263434
30973 -0.284969 -0.887589 1.31512 0.136703 1.10236 0.141439 -3.05052 -1.41375 0.363578 0.488313 0.386184 0.502576 -0.587407 -0.177937 0.677919 -0.357647 -0.245356 0.64908 -0.469973 0.191696 0.392832 -0.330479 0.161993 -0.809361 0.426414 0.0765011 -0.12957 0.152374 0.0280959 -0.335888 -0.224409 0.0461395
34616 -0.204572 -1.07636 1.27472 0.335259 0.910018 0.0248569 -2.6251 -1.28664 0.128701 0.504091 0.386821 0.623007 -0.466625 -0.0945242 0.887756 -0.405667 -0.377351 0.774583 -0.384424 0.304168 0.370496 -0.270371 -0.00880417 -0.899582 0.734623 0.15902 -0.103223 0.150563 0.142005 -0.408177 -0.294896 0.303337
36047 -0.328861 -1.47792 1.49324 0.419788 0.893842 0.08739 -2.57434 -1.28022 0.114804 0.55077 0.381548 0.545872 -0.447381 -0.0223127 0.932994 -0.544582 -0.347382 0.70423 -0.532383 0.37668 0.459267 -0.298083 -0.0697573 -0.790283 0.702281 0.0651854 0.0716461 0.0681081 0.182863 -0.415935 -0.265963 0.390492
36198 -0.300857 -0.987192 1.55468 0.1347 1.03488 -0.0299996 -2.61506 -1.14277 0.0853439 0.652165 0.220598 0.793032 -0.582431 -0.229777 0.706956 -0.381951 -0.225958 0.712389 -0.367174 0.308583 0.45152 -0.20642 -0.0158105 -0.784493 0.797134 0.0566225 -0.0924584 0.272809 0.109337 -0.238746 -0.342811 0.397503
32027 -0.185652 -0.916304 1.52924 0.179977 0.85605 -0.0294128 -2.98386 -1.4987 0.157177 0.47264 0.175565 0.647933 -0.576765 -0.0471794 0.902088 -0.574255 -0.151924 0.520339 -0.283786 0.277108 0.377324 -0.235768 -0.0772892 -0.755619 0.37654 -0.102582 -0.18331 0.127504 0.0741035 -0.470446 -0.348213 0.531982
33638 -0.144089 -0.878931 1.49366 0.211458 0.955691 0.107647 -2.67983 -1.27167 0.227565 0.782749 0.42961 0.748829 -0.487423 -0.0732981 0.740274 -0.397018 -0.286478 0.630631 -0.393007 0.437936 0.379582 -0.2413 0.0342839 -0.793017 0.639167 0.0389518 -0.00958471 0.114968 0.0133051 -0.319251 -0.320479 0.29781
36065 -0.230317 -1.16351 1.35923 0.319359 0.964944 0.120343 -2.60853 -1.11522 0.20643 0.497338 0.229818 0.57509 -0.55818 -0.0957877 0.542905 -0.381073 -0.140737 0.683478 -0.329353 0.375088 0.383351 -0.365129 0.305575 -0.746468 0.569756 0.189944 -0.0391349 0.0924305 0.0583963 -0.456079 -0.128033 0.421324
35972 -0.26324 -0.833492 1.49055 0.462203 0.708072 0.219617 -3.18868 -1.37406 0.0549252 0.478329 0.106509 0.440073 -0.305405 -0.171196 0.817406 -0.370119 -0.0360791 0.795328 -0.0853735 0.397198 0.442206 -0.215303 0.0363256 -0.5945 0.409548 0.367301 -0.0963348 -0.0991329 0.116333 -0.156488 -0.38274 0.410261
34079 -0.205363 -0.857116 1.40895 0.201348 1.08839 0.0273531 -2.96423 -1.31549 0.142912 0.495472 0.0569256 0.506236 -0.577251 0.0471601 0.717338 -0.324366 -0.338049 0.775789 -0.281236 0.169427 0.340682 -0.337971 0.159554 -0.550802 0.654107 0.232301 -0.0716315 0.0754239 0.112198 -0.346053 -0.403234 0.247551
33903 -0.310345 -1.30229 1.67011 0.243518 0.989668 0.0474912 -2.68156 -1.23791 0.113035 0.679198 0.309819 0.425318 -0.478638 -0.147872 0.803356 -0.518389 -0.346658 0.706912 -0.438564 0.387934 0.484572 -0.323402 -0.0498413 -0.835219 0.812566 0.0694702 0.0753793 0.151102 0.114142 -0.300167 -0.334935 0.330439
33483 -0.123088 -1.0394 1.2989 0.221677 1.13222 -0.0543129 -3.15553 -1.46472 0.11853 0.410632 0.400065 0.172001 -0.324292 -0.0084267 0.893789 -0.596426 -0.486581 0.530905 -0.216555 0.277432 0.460188 -0.295807 -0.176456 -0.536711 0.359853 -0.0201331 0.273434 0.144804 0.178372 -0.216245 -0.223908 0.454222
35040 -0.399208 -0.789532 1.43633 0.0887487 1.0228 -0.0448246 -3.02826 -1.33801 -0.00880202 0.599976 -0.0201909 0.608962 -0.518864 -0.170923 0.530436 -0.576747 -0.426852 0.74512 -0.426732 0.0423079 0.316827 0.128579 0.23153 -0.758719 0.514872 0.268075 0.114643 0.197919 0.15108 -0.291916 -0.224837 0.338885
31771 -0.145965 -0.9459 1.30151 0.173645 1.07061 0.0518489 -2.83368 -1.24164 0.0206798 0.501259 0.191789 0.780866 -0.153049 -0.0656319 0.668347 -0.219982 -0.298014 0.972964 -0.284795 0.244715 0.279715 -0.284416 0.147961 -0.595925 0.684749 0.246725 -0.037316 0.222636 0.268263 -0.416553 -0.410592 0.295183
34950 -0.19226 -1.02573 1.12503 0.404709 1.11698 0.169182 -3.08779 -1.38051 -0.163643 0.545229 -0.00158894 0.503971 -0.53615 -0.0586326 0.583069 -0.570066 -0.289921 0.843895 -0.177028 0.229583 0.42066 -0.194819 0.0536822 -0.719434 0.521152 0.259825 0.236207 0.136784 0.0903949 -0.337399 -0.232493 0.23922
36679 -0.264775 -1.0128 1.27213 0.319852 1.02407 0.0643755 -3.09146 -1.3681 0.0631275 0.457804 0.344944 0.634492 -0.534683 -0.228051 0.659551 -0.416833 -0.329482 0.678815 -0.273977 0.0856283 0.438319 -0.270022 -0.104943 -0.717419 0.537271 -0.230576 0.202437 0.0211172 0.25537 -0.394074 -0.183482 0.44725
33755 -0.139241 -0.755943 1.40306 0.225543 0.951734 -0.00531762 -3.05661 -1.31047 0.403278 0.756853 0.0695273 0.705977 -0.714728 -0.0281187 0.995315 -0.243142 -0.247255 0.556819 -0.326527 0.122962 0.304194 0.132734 0.0319983 -0.765228 0.442837 -0.0684887 -0.196558 0.12548 -0.178564 -0.52786 -0.289413 0.303327
31443 -0.163253 -0.853059 1.51895 0.316383 1.10103 0.0102804 -2.86547 -1.28507 0.0654274 0.379158 0.298045 0.53265 -0.57093 -0.104432 0.812747 -0.301609 -0.263072 0.730492 -0.412505 0.377718 0.432503 -0.165212 0.0903212 -0.865289 0.572381 0.0905889 -0.0246138 0.116774 0.0604567 -0.351852 -0.189661 0.217419
36930 -0.294378 -0.702182 1.24178 0.323652 1.41146 -0.448434 -3.4242 -1.82991 0.251863 0.525935 0.381625 0.0664698 -0.350696 -0.252804 0.716557 -0.527895 0.136098 0.666958 0.273742 0.855863 0.291299 -0.456733 -0.29123 -0.265308 0.429133 0.233347 -0.0717635 0.173016 0.174277 -0.413582 -0.137571 0.395109
35128 -0.13771 -0.737974 1.41389 0.654586 0.879021 0.323889 -3.10915 -1.37672 0.181202 0.456926 0.12695 0.36346 -0.604344 0.018616 0.476166 -0.277917 -0.287588 0.833655 -0.184231 0.507835 0.354594 -0.237605 0.303085 -0.698678 0.503457 0.363749 -0.0105743 0.0248797 0.134536 -0.23827 -0.223876 0.143375
33240 -0.162119 -0.92008 1.64799 0.395533 0.995668 0.307464 -3.03309 -1.36229 0.480646 0.706366 0.178928 0.421045 -0.660188 -0.0285295 1.06679 -0.280571 -0.460599 0.609248 -0.316235 0.200458 0.121577 0.0740624 0.0296582 -0.737361 0.529144 0.0563372 -0.217333 0.00236939 -0.0470585 -0.5183 -0.108841 0.0678143
31509 -0.0283585 -0.852021 1.39609 0.512523 0.858272 -0.00123854 -3.17611 -1.33731 0.26004 0.712253 0.228301 0.226234 -0.537217 0.050984 1.02509 -0.401007 -0.452199 0.59371 -0.330363 0.353673 0.255558 -0.137635 0.0345526 -0.828067 0.583311 0.0490068 0.00252549 -0.0185674 0.0191011 -0.302128 -0.181521 0.107144
31307 -0.250877 -0.984803 1.48926 0.272639 1.12042 0.227684 -2.87121 -1.22986 0.154291 0.453789 0.239232 0.750247 -0.434858 -0.219199 0.686442 -0.440361 -0.177496 0.661577 -0.34687 0.304319 0.322814 -0.325642 0.394703 -0.66249 0.599529 0.0820889 -0.00485399 0.0692343 0.168243 -0.372269 -0.167734 0.418993
34431 -0.332868 -1.16765 1.33315 0.372823 0.948446 0.193026 -2.7235 -1.21123 0.164638 0.55441 0.371044 0.593802 -0.498729 -0.171546 0.748585 -0.455225 -0.299229 0.854489 -0.523726 0.431871 0.451503 -0.246259 0.143402 -0.778896 0.687219 0.178039 0.0578761 0.0456839 0.152787 -0.372537 -0.284369 0.330899
35968 -0.263911 -1.04111 1.37302 0.211451 1.23068 0.1299 -2.96709 -1.38944 0.111766 0.62153 0.441543 0.567684 -0.416366 -0.0688915 0.994216 -0.188688 -0.264479 0.758084 -0.206289 0.284386 0.0360548 -0.304577 0.0342768 -0.650972 0.585905 0.193571 0.103608 0.00487855 0.0229807 -0.474586 -0.292325 0.213903
35879 -0.141717 -0.944581 1.43345 0.262169 1.01261 0.00447029 -2.86622 -1.23386 0.050666 0.584996 0.407941 0.679871 -0.153259 -0.0286293 0.877772 -0.152977 -0.392288 0.937287 -0.406615 0.33392 0.309269 -0.236703 0.0878734 -0.744551 0.970711 0.192209 0.102792 0.205171 0.180236 -0.386586 -0.470858 0.275005
36362 -0.116183 -0.911235 1.34324 0.38663 1.12202 0.112817 -3.18505 -1.2928 -0.1126 0.350264 0.151075 0.561456 -0.234948 0.0280081 0.621998 -0.140627 -0.166086 0.908981 -0.205963 0.237612 0.151968 -0.194472 0.120116 -0.598188 0.589997 0.0839547 -0.027005 0.157176 -0.0400133 -0.101384 -0.122479 0.346015
31974 -0.243437 -1.20644 1.43873 0.2159 0.907384 0.0855463 -2.39304 -1.0108 0.241379 0.558869 0.167372 0.72149 -0.422594 -0.128844 0.647473 -0.377062 -0.233492 0.703337 -0.488249 0.331081 0.457216 -0.288754 0.242927 -0.887452 0.755403 0.124379 -0.0614729 0.14265 0.0545244 -0.405925 -0.281487 0.326631
34835 -0.247124 -1.11408 1.52348 0.248977 0.912097 0.121058 -2.55136 -1.0997 0.146289 0.513581 0.295288 0.621223 -0.615943 -0.136147 0.65989 -0.30867 -0.396293 0.71304 -0.386568 0.338353 0.497437 -0.222375 -0.0283851 -0.650813 0.569681 0.0435641 -0.0437466 0.144106 0.161925 -0.214747 -0.341048 0.334502
35845 -0.335604 -1.127 1.42076 0.308924 1.07075 0.069791 -3.11464 -1.61832 -0.256509 0.461046 0.466049 0.307591 -0.299475 -0.305857 1.00218 -0.484415 -0.451842 0.578786 -0.341125 0.254877 0.466362 -0.286184 -0.267571 -0.711517 0.654722 -0.155257 0.244401 0.0474474 0.234337 0.0535186 -0.231624 0.257902
35332 -0.273311 -1.19708 1.61637 0.351889 0.895525 0.205832 -2.62495 -1.24359 0.193099 0.708134 0.371282 0.544078 -0.514103 -0.0815818 0.84445 -0.517243 -0.381897 0.602565 -0.585329 0.450342 0.538986 -0.245434 -0.0189986 -0.852948 0.638527 -0.00339963 0.0889346 0.0532702 0.126912 -0.294833 -0.249893 0.323114
33524 -0.262833 -0.896327 1.35274 0.191097 0.999245 -0.0559541 -3.13941 -1.58831 0.255349 0.337217 0.306934 0.535284 -0.288947 -0.303949 0.730346 -0.341885 -0.280447 0.692021 -0.377433 0.395175 0.287398 -0.335335 0.256459 -0.733169 0.411422 -0.166264 0.0162112 -0.0958885 0.15155 -0.169658 -0.308649 0.411619
32822 -0.372708 -1.10535 1.57702 0.223476 0.990473 0.0996923 -2.43259 -1.07015 0.176692 0.67463 0.373291 0.797386 -0.615769 -0.176405 0.680294 -0.380688 -0.319585 0.742875 -0.353158 0.282351 0.630329 -0.348779 0.194116 -1.00413 0.677575 0.0896741 0.00128664 0.0799624 0.103124 -0.272478 -0.282941 0.400119
34747 -0.21512 -0.662128 1.51014 0.0798754 1.1615 0.124952 -3.00332 -1.43665 -0.0362739 0.25636 0.0488148 0.655641 -0.604671 0.105455 0.805844 -0.592277 -0.0485831 0.420438 -0.183963 0.191674 0.485821 -0.250248 -0.0626297 -0.767077 0.664105 0.0387983 0.0138077 0.283536 0.0981104 -0.0615418 -0.224031 0.032596
36382 -0.241108 -0.784172 1.39846 0.2353 0.83848 -0.000971764 -2.79939 -1.30024 0.196966 0.816181 0.298819 0.818635 -0.723744 -0.0419885 0.739965 -0.281009 -0.251526 0.529045 -0.239933 0.16801 0.601106 -0.070916 -0.0711315 -0.860442 0.680129 -0.100745 -0.082905 0.19489 0.160475 -0.259574 -0.212748 0.310115
34972 -0.122904 -0.927098 1.47765 0.284366 0.968908 0.00220766 -2.85237 -1.37633 0.16712 0.61177 0.334325 0.790835 -0.456551 -0.0563098 0.891648 -0.188054 -0.355691 0.900347 -0.335415 0.180441 0.394671 -0.189698 0.140077 -0.723585 0.81997 -0.042378 -0.0212507 0.216172 0.216349 -0.398819 -0.371674 0.279903
34715 -0.255748 -1.37235 1.21866 0.375403 1.01297 0.151154 -2.84687 -1.29524 0.235081 0.536651 0.356962 0.425291 -0.574781 -0.0987968 0.825763 -0.499546 -0.153627 0.667486 -0.371916 0.349431 0.391039 -0.457984 0.177484 -0.85374 0.54805 0.014033 0.13596 0.0301566 0.13961 -0.345957 0.00143837 0.236013
36461 -0.100691 -0.909565 1.18944 0.307368 0.938835 -0.250213 -3.08199 -1.78374 0.33928 0.44011 0.291179 0.64002 -0.571135 -0.121886 0.71154 -0.625306 -0.192894 0.535251 -0.445547 0.231246 0.205852 -0.194879 0.0126564 -0.863544 0.288015 -0.10057 -0.130434 0.0291869 0.0825734 -0.332427 -0.402517 0.344651
34898 -0.170565 -1.143 1.72736 0.351738 1.15724 0.00903064 -2.64955 -1.19533 0.194107 0.496897 0.255816 0.797034 -0.521155 -0.00619442 1.00346 -0.359495 -0.0225065 0.887966 -0.358696 0.4177 0.159564 -0.352967 0.123465 -0.481591 0.717228 0.159057 -0.00676227 0.262141 0.224171 -0.471925 -0.243427 0.305262
31185 -0.127528 -0.810265 1.62665 0.304362 0.989328 0.0371804 -2.57042 -1.23585 0.228402 0.636392 0.298045 0.871767 -0.327937 -0.00890147 0.567827 -0.245924 -0.261347 0.805714 -0.440405 0.384639 0.383577 -0.264165 0.109177 -0.614188 0.794856 0.0807429 -0.05706 0.127531 0.0964416 -0.36413 -0.35702 0.345949
33149 -0.387431 -0.994289 1.52324 0.516265 1.05776 0.331341 -2.99431 -1.30693 0.143786 0.475041 0.276796 0.51837 -0.391232 -0.101719 0.821754 -0.407168 -0.30452 0.767832 -0.37957 0.272084 0.226267 -0.312863 0.200485 -0.592495 0.506134 0.173988 -0.0489702 0.0340721 0.11915 -0.314677 -0.283984 0.194704
31921 -0.378369 -0.81699 1.37744 0.504385 1.09319 0.0938255 -3.06465 -1.53311 0.127349 0.497434 0.193304 0.386085 -0.439323 0.0553558 0.644003 -0.31345 -0.107874 0.894687 -0.173195 0.282949 0.519343 -0.278728 0.03397 -0.66317 0.454529 0.263179 0.118228 0.0106204 0.206968 -0.247781 -0.215664 0.322404
33584 -0.113892 -1.09338 1.53171 0.315426 1.12145 0.0657973 -2.92085 -1.26896 0.141163 0.29723 0.372508 0.706458 -0.526913 0.0354238 0.878757 -0.341365 -0.135442 0.737861 -0.465124 0.213503 0.427925 -0.296779 -0.0158936 -0.598738 0.688908 0.0755711 -0.0088744 0.111461 0.220425 -0.290866 -0.315261 0.172195
36181 -0.214912 -1.24691 1.43306 0.263344 0.901326 0.092663 -2.46029 -1.12461 0.180056 0.672799 0.2961 0.718897 -0.450759 -0.0817872 0.735353 -0.388639 -0.266529 0.679391 -0.542066 0.337026 0.427468 -0.343687 0.159002 -0.756208 0.856603 0.0951979 0.000649916 0.135019 0.146227 -0.282974 -0.313462 0.272321
36903 -0.251252 -1.11296 1.42629 0.166913 1.0598 0.0280295 -2.92304 -1.38818 0.166867 0.564555 0.344782 0.660697 -0.538504 -0.112608 0.791118 -0.588914 -0.338081 0.477275 -0.52504 0.249435 0.437513 -0.344727 0.0433242 -0.825155 0.62266 -0.0611378 0.0637215 -0.0668043 0.0249685 -0.162479 -0.175323 0.256597
33553 -0.281322 -1.29118 1.41545 0.25094 0.933387 0.118063 -2.6547 -1.29165 -0.00521556 0.690615 0.38744 0.610365 -0.507658 -0.0680612 0.680341 -0.417001 -0.36952 0.636506 -0.510877 0.291471 0.51516 -0.192177 -0.0205177 -0.850865 0.691794 0.00518855 0.00620358 0.047853 -0.0482074 -0.367646 -0.399551 0.367407
31172 -0.154585 -0.824518 1.34669 0.200842 1.05042 0.0439921 -3.01193 -1.35421 0.361252 0.757558 0.320193 0.58549 -0.507115 -0.156175 0.682272 -0.517489 0.083614 0.510314 -0.376188 0.354941 0.466323 -0.274949 0.132505 -0.881833 0.337373 0.33944 -0.233137 -0.0409304 0.0650068 -0.2829 -0.04055 0.116169
36061 -0.252811 -0.933798 1.55941 0.246753 1.01952 0.266086 -3.05893 -1.34338 0.530464 0.568101 0.23645 0.386525 -0.428019 0.0518439 0.966971 -0.447001 -0.333593 0.530149 -0.289346 0.405705 0.314463 -0.128334 0.0325139 -0.635797 0.538011 0.127969 -0.125671 0.210904 0.117211 -0.305389 0.0111127 0.161735
36702 -0.257272 -0.765404 1.38593 0.196278 0.942881 0.0470978 -2.97899 -1.50177 0.376795 0.579893 0.363453 0.674885 -0.571746 -0.175134 0.817136 -0.413673 -0.247938 0.653487 -0.413554 0.256129 0.343551 -0.149846 0.131234 -0.869559 0.560667 0.106037 0.02906 -0.0700648 0.0806853 -0.227307 -0.164988 0.213709
34038 -0.169422 -0.451605 1.85671 0.315774 0.992519 0.147915 -2.99569 -1.41627 -0.0382883 0.632821 0.220959 0.697522 -0.406474 -0.054281 0.631437 -0.177136 -0.333588 0.807557 -0.0971796 0.326212 0.804299 -0.0578232 -0.0236901 -0.732072 0.614302 0.111873 0.0193309 -0.0447665 0.28977 -0.087146 -0.329275 0.366571
31783 -0.232881 -1.03323 1.58342 0.34933 1.0119 0.0915638 -2.60221 -1.22944 0.106429 0.622759 0.349391 0.630121 -0.417759 0.0137394 0.858158 -0.263164 -0.283119 0.786868 -0.429656 0.331911 0.584082 -0.253778 0.0429896 -0.944898 0.698123 0.0439941 -0.136988 0.114844 0.209388 -0.308023 -0.311899 0.337376
36099 -0.243805 -0.735674 1.24878 0.3633 1.16932 0.12652 -2.98728 -1.51964 0.160208 0.489194 0.152311 0.634935 -0.594394 -0.182388 0.563879 -0.262538 -0.241331 0.740711 -0.156156 0.265988 0.310776 -0.0224054 0.213261 -0.808483 0.384519 0.0445924 -0.045764 -0.00916914 0.0890979 -0.122637 -0.175478 0.412622
33587 -0.222362 -0.956988 1.41144 0.0561255 1.1664 0.0207782 -2.75488 -1.20127 0.170384 0.482651 0.345896 0.668585 -0.783844 -0.171889 0.557872 -0.371528 -0.012132 0.660478 -0.412219 0.280219 0.526026 -0.473676 0.199128 -0.711017 0.693896 -0.0468501 -0.0694136 0.21705 -0.0451029 -0.305037 -0.0702745 0.309103
32399 -0.198866 -1.10804 1.34754 0.280802 0.923414 -0.00192649 -2.40006 -1.14058 0.143672 0.511284 0.297361 0.530506 -0.526036 0.0134999 0.855679 -0.370369 -0.147754 0.643484 -0.407555 0.230081 0.379126 -0.287115 0.0210599 -0.834813 0.682899 -0.0203904 -0.0906324 0.169165 0.146837 -0.380992 -0.258849 0.404776
36700 -0.183001 -0.843496 1.41329 0.128691 0.958481 -0.0826875 -2.44349 -1.07633 0.212428 0.548712 0.178521 0.792442 -0.6218 0.00367671 0.727892 -0.350642 -0.214162 0.861069 -0.327815 0.321399 0.538531 -0.242098 0.165007 -0.85655 0.714422 0.0583307 -0.147323 0.232755 0.0280331 -0.26786 -0.347272 0.381941
34340 -0.218794 -0.91653 1.38042 0.34514 1.00598 0.0282247 -2.70013 -1.3308 0.0897165 0.59693 0.33266 0.682054 -0.400766 0.0110377 0.711212 -0.287686 -0.218975 0.744897 -0.463856 0.391748 0.5329 -0.227415 0.0160608 -0.604221 0.71409 0.055855 -0.0575618 0.12917 0.167105 -0.257916 -0.288105 0.227687
33127 -0.284758 -0.906278 1.46788 0.00282085 0.912667 0.036668 -3.04058 -1.45711 0.379624 0.504706 0.152163 0.509855 -0.379367 -0.0489263 0.710933 -0.4023 -0.174531 0.66698 -0.43353 0.350343 0.216224 -0.186077 -0.000466228 -0.790101 0.426282 0.0245953 -0.169211 0.0910451 0.0440799 -0.31676 -0.22099 0.0182959
31460 -0.216343 -0.873322 1.34551 0.217289 1.09052 -0.00571957 -3.00389 -1.40042 0.219141 0.565309 0.296688 0.407886 -0.621935 -0.0910262 0.888103 -0.435138 -0.16263 0.539941 -0.270872 0.288108 0.218662 -0.118997 -0.0841514 -0.740869 0.574227 0.0392317 0.0626893 -0.0249399 -0.0114988 -0.246116 -0.185721 0.319278
32489 -0.163847 -1.03651 1.27238 0.32539 1.00258 0.165691 -3.26538 -1.42193 0.237023 0.544174 0.180873 0.542962 -0.211017 -0.192394 0.809159 -0.299359 -0.318693 0.560983 -0.371666 0.199545 0.289985 -0.526045 -0.0683536 -0.523682 0.383029 0.220833 -0.256344 -0.0165394 0.228903 -0.355461 -0.178303 0.396315
34249 -0.177861 -0.671871 1.68446 0.296485 1.04829 0.142705 -2.77717 -1.13307 0.0955369 0.569936 0.232685 0.783897 -0.556812 -0.1863 0.595923 -0.168257 -0.463025 0.902342 -0.188898 0.348614 0.672545 -0.102798 0.0610579 -0.7864 0.510489 0.143109 -0.221113 0.0632281 0.00963351 -0.233181 -0.415251 0.339556
34612 -0.107737 -0.88849 1.4456 -0.110583 1.13834 -0.00877129 -3.01665 -1.27365 0.155645 0.348471 0.0308626 0.498643 -0.555031 -0.311501 0.508007 -0.216135 -0.123717 0.608742 -0.334374 0.0754015 0.50334 -0.569591 0.361448 -0.62016 0.831378 -0.0537434 -0.170252 0.207979 -0.0495703 -0.315172 -0.0808574 0.25241
35216 -0.226305 -0.895758 1.58 0.119449 1.03926 -0.0802109 -3.04251 -1.42644 0.12227 0.434781 0.313674 0.806529 -0.441384 -0.0258112 0.594954 -0.464203 -0.404598 0.749775 -0.451446 0.295504 0.568258 -0.197133 0.0532537 -0.772965 0.542073 -0.0594435 -0.119874 0.220266 0.0661589 -0.295548 -0.328988 0.506849
36255 -0.181919 -0.900569 1.58559 0.331653 0.903567 0.19535 -2.70211 -1.19559 0.121774 0.675208 0.221623 0.767941 -0.610548 -0.138938 0.469088 -0.395261 -0.369524 0.646889 -0.426857 0.328794 0.517242 -0.204747 0.126284 -0.754445 0.668398 0.182776 0.0184297 0.0501299 -0.0487218 -0.166264 -0.213718 0.335815
32996 -0.082698 -0.940674 1.39748 0.129138 1.13409 0.267956 -3.00353 -1.60086 0.164007 0.389999 0.305005 0.460466 -0.475021 0.0893085 0.691806 -0.60196 -0.324695 0.584926 -0.260247 0.320106 0.332518 -0.144113 0.268681 -0.698482 0.569042 0.0155604 0.0665027 -0.019411 -0.137197 -0.118542 -0.240035 0.372816
35778 -0.25787 -1.1233 1.48132 0.23275 0.880337 0.114143 -2.56225 -1.18013 0.248751 0.839138 0.305268 0.845374 -0.496351 -0.0807508 0.65121 -0.338834 -0.285968 0.810864 -0.34928 0.290935 0.477877 -0.326418 0.183307 -0.860689 0.739482 0.0831045 0.0774212 0.159124 0.0210371 -0.270053 -0.325485 0.391567
35636 -0.16224 -1.07386 1.39872 0.397242 1.03821 -0.0685696 -3.11204 -1.45746 0.120228 0.477523 0.150376 0.464745 -0.460665 -0.0713671 0.821569 -0.561623 -0.110223 0.566576 -0.594589 0.386876 0.293043 -0.313531 0.0875866 -0.670252 0.318578 -0.00829301 0.0219409 0.0278716 0.0814816 -0.485334 -0.321969 0.274243
34397 -0.229164 -0.931169 1.47411 0.153005 0.800322 0.0661985 -2.34955 -1.01794 0.218454 0.659788 0.191658 0.794581 -0.648723 -0.0659026 0.573468 -0.360131 -0.270335 0.681904 -0.405263 0.283131 0.610428 -0.147123 0.193906 -1.00057 0.702661 0.0233068 -0.121744 0.186205 -0.0115466 -0.320021 -0.304094 0.374737
33060 -0.243054 -1.16083 1.31811 0.260099 1.12579 0.0512405 -2.81253 -1.21297 0.211449 0.653524 0.36549 0.432839 -0.712904 -0.236577 0.611836 -0.538294 -0.257179 0.767909 -0.496146 0.404246 0.364283 -0.323054 0.0507134 -0.67315 0.708498 0.164781 0.0444655 0.0982421 0.144317 -0.46344 -0.253292 0.366716
34531 -0.119091 -0.971182 1.69241 0.524995 0.946554 0.212242 -2.85732 -1.46864 -0.0446115 0.440471 0.315298 0.370489 -0.303807 0.0622753 0.864487 -0.495238 -0.228711 0.765322 -0.473174 0.375636 0.376574 -0.270212 0.103811 -0.482841 0.516376 0.000629991 0.10774 0.128048 0.216668 -0.305479 -0.166026 0.427725
36278 -0.300793 -1.3567 1.39674 0.198569 0.959039 -0.0047148 -2.46993 -1.1073 0.237001 0.662021 0.302649 0.694791 -0.612822 -0.131503 0.640313 -0.441348 -0.216983 0.703018 -0.624433 0.455702 0.464277 -0.370079 0.125887 -0.70073 0.654216 0.135297 -0.0563414 0.133607 0.100287 -0.393663 -0.281122 0.426667
36539 -0.291896 -1.2863 1.34378 0.292284 0.877859 0.0474335 -2.34656 -1.0632 0.194802 0.499859 0.244514 0.712796 -0.603292 -0.0918615 0.773877 -0.393938 -0.222155 0.887897 -0.548967 0.460464 0.492883 -0.326037 0.166452 -0.722671 0.583171 0.161975 -0.0636653 0.130344 0.094443 -0.359749 -0.266503 0.380583
32410 -0.252453 -1.46895 1.25513 0.281625 0.998946 -0.0311614 -2.39704 -1.10237 0.200988 0.503671 0.257806 0.636328 -0.593799 -0.0658005 0.89144 -0.343366 -0.20847 0.875352 -0.544926 0.418693 0.451124 -0.304535 0.112118 -0.823153 0.840169 0.119187 -0.0829962 0.219995 0.207699 -0.401445 -0.31458 0.416981
31152 0.043372 -0.792878 1.44324 0.187966 1.06559 -0.0202833 -3.20162 -1.65063 -0.181917 0.226968 0.13227 0.58302 -0.529455 0.000365956 0.706415 -0.599548 0.148413 0.651512 -0.448689 0.264875 0.184825 -0.0817662 -0.250853 -0.562847 0.462053 -0.0183388 -0.162736 0.233921 0.374897 -0.157982 -0.138752 0.330866
34635 -0.180669 -0.879014 1.13865 0.326157 1.10655 0.249721 -3.10724 -1.54819 0.195988 0.393147 0.126013 0.442942 -0.664162 -0.17472 0.557975 -0.461088 -0.304866 0.607799 -0.159081 0.412688 0.129634 -0.236737 0.161499 -0.661138 0.534599 0.0198319 -0.0908108 0.155826 0.10006 -0.311639 -0.207556 0.102955
35077 -0.20868 -0.938666 1.36007 0.460161 0.907961 0.277174 -3.12828 -1.39126 0.169249 0.432899 0.172996 0.320723 -0.520744 -0.0127275 0.687322 -0.562828 -0.301718 0.653353 -0.385885 0.1674 0.305721 -0.110895 0.131252 -0.591993 0.239723 0.181783 -0.0303715 -0.0332564 0.149151 -0.304195 -0.240335 0.293049
34862 -0.20089 -0.943042 1.36376 0.31797 0.997388 0.0273341 -3.04809 -1.52681 0.0869669 0.536426 0.4868 0.547687 -0.477067 -0.225645 0.722803 -0.445937 -0.474835 0.515138 -0.311955 0.343159 0.300317 -0.150525 0.0673635 -0.707582 0.58706 0.102556 -0.0149877 -0.0259614 0.277364 -0.100576 -0.293391 0.371653
34481 -0.152681 -1.06946 1.25674 0.401282 0.920177 0.0969463 -3.0927 -1.48175 0.136708 0.471894 0.351082 0.345415 -0.565869 -0.325436 0.671095 -0.439746 -0.310023 0.740917 -0.32443 0.196954 0.325052 -0.400772 -0.0587 -0.582414 0.596215 0.149711 0.121087 0.0580268 0.166238 -0.36562 -0.343042 0.403424
33438 -0.311318 -1.12556 1.37104 0.305674 0.929641 0.186726 -2.74949 -1.18012 0.120802 0.657437 0.235265 0.74876 -0.575332 -0.137655 0.497467 -0.308472 -0.245345 0.956125 -0.357467 0.325537 0.429874 -0.407313 0.349983 -0.56414 0.519165 0.161849 -0.0610866 0.107248 0.049971 -0.392555 -0.332661 0.431109
31289 -0.268611 -1.0256 1.54807 0.48508 1.01151 0.371479 -2.95932 -1.39935 0.0865896 0.404531 0.340536 0.379785 -0.706933 -0.199994 0.519188 -0.42995 -0.150124 0.86677 -0.298763 0.250612 0.306283 -0.23308 0.138121 -0.721542 0.363138 0.0422053 0.047645 0.0754347 -0.118576 -0.342801 -0.119789 0.225932
31914 -0.244167 -0.777234 1.65557 0.121714 1.22699 0.161376 -3.0205 -1.47725 0.00284877 0.147516 0.190819 0.652204 -0.6385 0.187687 0.64141 -0.523801 -0.102855 0.722171 -0.389861 0.102889 0.376373 -0.242482 -0.0840637 -0.711646 0.465826 -0.126844 -0.113051 0.337603 0.106726 -0.0512986 -0.20523 0.232001
34400 -0.161007 -1.01987 1.2589 0.334301 1.04868 0.150705 -3.16507 -1.49951 0.294191 0.478352 0.386357 0.344619 -0.490744 -0.154442 0.634544 -0.56193 -0.263487 0.638972 -0.417251 0.284679 0.129415 -0.145168 0.251061 -0.674251 0.424576 -0.0130219 0.0625574 0.19868 0.190552 -0.17781 -0.240997 0.424466
35146 -0.113307 -0.717905 1.39388 0.150826 1.05309 0.193235 -2.98254 -1.39089 0.21851 0.705251 0.0995214 0.618058 -0.546858 -0.159869 0.769392 -0.327604 -0.419816 0.614723 -0.36799 0.150149 0.504042 -0.244613 0.0692544 -0.737791 0.667417 0.0660095 -0.0565629 0.143203 -0.185092 -0.202583 -0.230915 0.353832
31630 -0.179492 -0.911487 1.40935 0.0402919 1.01265 0.018588 -2.95985 -1.4592 0.182605 0.495207 0.298812 0.527786 -0.72239 0.00235754 0.9061 -0.455947 -0.19196 0.612319 -0.35192 0.245809 0.317981 -0.27086 -0.0210068 -0.88224 0.293557 -0.0898909 -0.0184126 0.221688 0.00121146 -0.30531 -0.196839 0.465825
34746 -0.0589966 -1.01125 1.77574 0.387088 1.0111 -0.11475 -2.85768 -1.26391 -0.0141864 0.412654 0.182663 0.690114 -0.241683 0.0982297 0.818041 -0.176479 -0.0830846 0.979313 -0.300614 0.336325 0.327635 -0.301736 0.162814 -0.568752 0.665866 0.201024 -0.0350501 0.305125 0.241247 -0.34721 -0.352586 0.292938
35802 -0.204894 -1.10551 1.35356 0.19155 0.948963 0.0857051 -2.43255 -1.16425 0.198183 0.657264 0.232465 0.730091 -0.48807 -0.0743528 0.892981 -0.436208 -0.228371 0.818959 -0.599651 0.425539 0.526064 -0.315452 0.170849 -0.824609 0.77623 0.166668 -0.0365557 0.170409 0.156907 -0.435013 -0.323644 0.464015
34110 -0.331172 -1.01776 1.31255 0.278339 0.897648 -0.0799142 -3.06694 -1.56117 0.13161 0.47866 0.37845 0.667146 -0.455504 -0.0982536 0.788975 -0.170855 -0.381334 0.694451 -0.361414 0.342846 0.286286 -0.37191 0.0791667 -0.584894 0.656865 -0.0253247 0.00378542 0.20645 -0.138784 -0.288395 -0.56606 0.205808
32613 -0.175568 -1.02404 1.624 0.249215 1.06873 0.0738229 -2.40073 -0.974488 0.20629 0.66416 0.233932 0.858031 -0.606571 -0.113052 0.672732 -0.29344 -0.118094 0.842474 -0.395547 0.37318 0.54646 -0.320482 0.186294 -0.73287 0.751162 0.226901 -0.0609422 0.195694 0.12616 -0.34314 -0.338264 0.382266
33953 -0.258939 -0.924583 1.26912 0.337579 0.909381 -0.0515815 -3.14518 -1.58115 0.132755 0.52521 0.239607 0.343253 -0.415963 -0.272404 0.898564 -0.18292 -0.104119 0.871446 -0.144997 0.0676539 0.485212 -0.190519 -0.221944 -0.584991 0.304031 0.206367 0.0215401 0.0578604 -0.0526474 -0.43321 -0.308795 0.243973
36507 -0.146092 -1.24894 1.39853 0.180085 0.964936 0.0226668 -2.67917 -1.32714 0.374313 0.705897 0.330498 0.4899 -0.518552 -0.2518 0.849339 -0.468764 -0.250825 0.580505 -0.447304 0.287274 0.309015 -0.261274 -0.136551 -0.833216 0.670839 0.157531 -0.0737975 0.140067 0.132771 -0.440725 -0.296323 0.321122
36710 -0.334271 -1.13847 1.57974 0.374931 0.820372 0.17035 -2.71329 -1.29125 0.273935 0.656641 0.333178 0.501398 -0.547495 -0.0575664 0.645456 -0.355946 -0.357722 0.786473 -0.264997 0.350353 0.541126 -0.161224 0.182981 -0.663578 0.471957 0.137483 -0.0836468 0.0596445 0.0119999 -0.342257 -0.318866 0.356548
33079 -0.372145 -0.84555 1.62364 0.455037 0.933688 0.431581 -3.06826 -1.31109 0.261579 0.684816 0.166075 0.590617 -0.285564 -0.211368 0.591564 -0.17253 -0.34591 0.978334 -0.235147 0.35816 0.495992 -0.0706883 0.214924 -0.818969 0.143219 0.482153 0.0149393 -0.172866 0.183832 -0.231179 -0.534758 0.314181
31543 -0.254259 -0.891082 1.37808 0.266801 0.896461 0.129303 -3.08612 -1.49779 0.245828 0.582232 0.338199 0.593937 -0.257664 -0.231535 0.678802 -0.543433 -0.391655 0.566163 -0.121968 0.156116 0.554672 -0.197676 -0.0405957 -0.704541 0.42742 0.323651 -0.160233 -0.143201 0.450169 -0.0996664 -0.470547 0.280692
33223 -0.250063 -0.961339 1.40544 0.26787 0.982476 0.204426 -2.88854 -1.44603 0.12441 0.661088 0.307329 0.372016 -0.321133 -0.174552 0.814982 -0.421633 -0.407895 0.655825 -0.489854 0.439014 0.361373 -0.16681 -0.112367 -0.732987 0.460011 0.266952 -0.0114219 -0.121916 0.074767 -0.284317 -0.303727 0.266292
36945 -0.267533 -0.876225 1.41198 0.223743 0.887608 0.136311 -2.462 -1.11927 0.124965 0.679527 0.374918 0.794009 -0.625808 -0.0874193 0.599853 -0.37616 -0.414926 0.818174 -0.351587 0.384048 0.521968 -0.255531 0.156509 -0.93699 0.604006 0.0637757 -0.0367645 0.138551 0.0476373 -0.315089 -0.276382 0.306273
31166 -0.138573 -1.21455 1.38414 0.163214 1.03426 0.0317045 -2.92653 -1.49745 0.110449 0.754789 0.360112 0.532466 -0.468931 -0.19024 0.743171 -0.613792 -0.197057 0.711442 -0.263801 0.362704 0.265349 -0.329897 -0.0485589 -0.728114 0.532805 0.231816 0.0569073 -0.0192735 0.132278 -0.163657 -0.196536 0.336033
36892 -0.243863 -1.15011 1.46618 0.171878 0.988819 0.000769173 -2.63686 -1.33197 0.0200888 0.501392 0.165774 0.69171 -0.726101 -0.0439688 0.738236 -0.479381 -0.244507 0.764501 -0.481354 0.395429 0.505493 -0.319721 -0.0251372 -0.762954 0.764389 -0.0038507 -0.0863096 0.28495 0.156889 -0.405711 -0.332435 0.507605
35455 -0.0664831 -0.958563 1.40388 0.135579 0.97751 0.0434632 -2.73907 -1.277 0.015181 0.467216 0.0510792 0.752096 -0.679405 -0.0499761 0.776627 -0.484297 -0.167045 0.725238 -0.323536 0.158302 0.437177 -0.333168 0.0824168 -0.793766 0.682679 0.0366698 0.0228419 0.22717 -0.00737641 -0.191654 -0.345798 0.279714
35707 -0.181929 -0.809985 1.61389 0.152206 1.144 0.0323856 -2.8467 -1.50006 0.197174 0.425092 0.27402 0.615379 -0.57161 0.0650868 0.6923 -0.394567 -0.223282 0.765916 -0.332205 0.241901 0.469295 -0.0720341 0.0917035 -0.588423 0.389769 -0.0215878 -0.138218 0.189481 -0.053495 -0.356023 -0.296842 0.297848
36110 -0.223826 -0.808572 1.29847 0.383061 1.11738 0.193424 -3.07913 -1.60454 0.224714 0.514295 0.317505 0.375562 -0.490526 0.0636277 0.764523 -0.324475 -0.232552 0.667415 -0.436018 0.102373 0.391505 -0.105463 -0.0405173 -0.708356 0.452984 0.0363492 -0.0560705 0.0825953 -0.0201185 -0.29525 -0.265695 0.170832
32379 -0.379604 -0.984191 1.7315 0.296929 1.08946 0.152822 -2.83107 -1.23288 -0.0875759 0.581993 0.321172 0.71373 -0.517859 -0.1407 0.908089 -0.424972 -0.293503 0.782534 -0.197297 0.236324 0.432873 -0.312887 0.224857 -0.694168 0.702945 -0.0525016 0.143207 0.202274 0.0608027 -0.252608 -0.273371 0.34953
33675 -0.242747 -0.843712 1.30079 0.180467 1.08381 0.110626 -3.14208 -1.41169 0.372374 0.31694 0.136136 0.462658 -0.563616 -0.0629829 0.629079 -0.271647 -0.253032 0.570416 -0.171598 0.347311 0.440317 -0.286821 0.313878 -0.687601 0.377078 -0.109063 -0.0731917 0.078946 -0.168877 -0.296337 -0.104511 0.198543
35368 -0.00458152 -0.97185 1.29826 0.181609 1.02468 -0.0868568 -3.31104 -1.4952 0.264221 0.124985 0.232697 0.46589 -0.452131 -0.240034 0.806521 -0.438615 -0.415202 0.552952 -0.396105 0.143638 0.426467 -0.269788 -0.242337 -0.512568 0.635043 0.375988 0.0309484 -0.0754451 -0.0431805 -0.0713423 -0.358461 0.294244
35158 -0.197657 -1.07193 1.2781 0.123516 0.860094 0.122081 -2.22625 -1.01212 0.207229 0.616123 0.273476 0.679256 -0.629709 -0.129774 0.744377 -0.452779 -0.171288 0.696813 -0.615364 0.447143 0.504994 -0.418055 0.219802 -0.851308 0.72763 0.189297 -0.0266944 0.133327 0.0723561 -0.448262 -0.221293 0.379539
36440 -0.175182 -1.10832 1.28042 0.289255 1.08186 0.447512 -2.9334 -1.34497 0.168891 0.393209 0.263346 0.584521 -0.387131 -0.0855805 0.741669 -0.539177 -0.110561 0.782394 -0.396548 0.241523 0.200383 -0.483618 0.465772 -0.717842 0.475226 0.195681 -0.0659948 -0.030499 0.0136639 -0.364055 -0.106725 0.269949
32735 -0.0857174 -1.15427 1.24677 0.320211 1.02985 0.17036 -3.12507 -1.2436 0.132927 0.388832 0.316576 0.586566 -0.488988 -0.256852 0.844093 -0.27714 -0.177054 0.695182 -0.371417 0.313779 0.262644 -0.183242 0.0088281 -0.766248 0.586079 0.0913106 0.104097 0.0586772 -0.0935908 -0.150944 -0.279856 0.375633
32363 -0.235425 -0.754847 1.4411 0.392462 0.913404 0.134917 -3.03133 -1.34991 0.391391 0.377392 0.411831 0.585812 -0.601031 -0.0559352 0.775243 -0.542615 -0.288305 0.570937 -0.434559 0.450362 0.113837 -0.213858 0.214284 -0.765332 0.503469 0.117434 -0.0256646 0.113385 0.115654 -0.521906 -0.063647 0.290943
34151 -0.197779 -0.828258 1.53747 0.210516 0.890048 0.0894247 -3.02592 -1.37113 0.505291 0.678913 0.328501 0.471964 -0.574577 -0.035172 0.897779 -0.379106 -0.438506 0.729067 -0.254242 0.364975 0.183742 0.0187243 -0.0469034 -0.662407 0.365663 0.185675 -0.133139 0.0452859 0.0486483 -0.4723 -0.164583 0.203579
34708 -0.240424 -0.904719 1.47088 0.292219 0.927944 0.0913431 -2.81649 -1.30329 0.437167 0.691525 0.327587 0.413777 -0.639518 -0.173001 0.757432 -0.4382 -0.249658 0.750165 -0.339988 0.384196 0.307826 -0.270401 -0.0770757 -0.767068 0.616181 0.210665 -0.190152 0.127505 0.23237 -0.343774 -0.0888186 0.319798
32341 -0.151476 -0.934898 1.43186 0.0821847 1.07766 0.286275 -2.98508 -1.32939 0.0881097 0.444255 0.118298 0.586378 -0.52909 -0.230041 0.63008 -0.387445 -0.405861 0.736396 -0.292427 0.218767 0.582367 -0.193786 0.0316864 -0.654817 0.73522 0.0637709 0.0199653 0.219333 -0.0206205 -0.174175 -0.106412 0.316457
34029 -0.158928 -0.964709 1.43001 0.162169 0.869327 0.214311 -2.79298 -1.28269 0.140134 0.552904 0.173973 0.666107 -0.589915 -0.0379059 0.560572 -0.391444 -0.36239 0.686416 -0.463244 0.40992 0.585961 -0.178687 0.150044 -0.786247 0.767327 0.0594449 -0.0240442 0.223865 -0.0134019 -0.336757 -0.329773 0.346654
34139 -0.121038 -1.02071 1.49126 0.329786 0.910287 0.232369 -2.92658 -1.48946 0.290605 0.622539 0.259891 0.523935 -0.549361 -0.102914 0.812474 -0.311157 -0.337177 0.528806 -0.423526 0.345072 0.379117 -0.224486 -0.041733 -0.82892 0.442445 0.0989673 -0.109186 0.018485 0.0371327 -0.219915 -0.319093 0.15431
31534 -0.245313 -1.17013 1.48066 0.35008 0.901838 0.187049 -2.62925 -1.29091 0.196565 0.619554 0.310334 0.663509 -0.605436 -0.0324305 0.673009 -0.43549 -0.270874 0.709626 -0.585425 0.413366 0.462728 -0.171863 0.180681 -0.865657 0.494127 0.122707 -0.00794803 -0.0311427 -0.000675408 -0.324943 -0.340204 0.279711
34408 -0.344345 -1.15005 1.36561 0.193609 0.93359 0.267623 -2.86626 -1.37393 0.17507 0.601528 0.411254 0.708936 -0.519051 -0.0186966 0.729407 -0.468022 -0.32042 0.690829 -0.402828 0.131167 0.403445 -0.388359 0.133358 -0.609909 0.743103 0.114836 0.0385303 0.0967098 0.148876 -0.239065 -0.24427 0.190168
35741 -0.172931 -1.01807 1.30759 0.0738137 0.927263 0.0574517 -2.95793 -1.29076 0.0106806 0.586518 0.337262 0.6222 -0.428293 -0.229156 0.682904 -0.247342 -0.254549 0.725822 -0.194121 0.270799 0.475278 -0.479151 0.0340568 -0.733622 0.628964 -0.0033469 0.0929519 0.247001 0.0216528 -0.107686 -0.286707 0.410364
34152 -0.0889232 -0.774286 1.4818 0.297182 0.947535 0.0234512 -3.12494 -1.40861 0.499059 0.593247 0.0992524 0.441034 -0.620458 -0.0446225 0.908419 -0.339835 -0.402407 0.567896 -0.389798 0.199854 0.317854 -0.158791 -0.0163253 -0.748783 0.437203 0.0796665 -0.209149 0.200103 0.0884077 -0.483849 -0.121097 0.177729
36095 -0.153111 -0.836791 1.45612 0.410085 1.16894 0.150377 -2.96314 -1.46842 0.163315 0.29965 0.166828 0.621617 -0.532778 -0.13443 0.707843 -0.48876 -0.137448 0.66446 -0.358687 0.389809 0.193275 -0.189447 0.344737 -0.640524 0.209818 -0.0522796 -0.0563664 0.0837419 -0.0494424 -0.439119 -0.211464 0.474353
36576 -0.28711 -1.2874 1.44584 0.375096 0.913414 -0.0086656 -2.7138 -1.19765 0.187388 0.625767 0.374169 0.703907 -0.472416 -0.0791409 0.962335 -0.381535 -0.3791 0.583691 -0.513453 0.370675 0.52643 -0.132483 0.0155208 -0.864101 0.604192 -0.0814203 -0.0699736 0.0984281 0.13545 -0.34087 -0.31765 0.308724
36219 -0.554164 -0.919724 1.04728 0.825033 1.4023 -0.329837 -3.58698 -1.14256 0.0446581 0.350916 0.209561 0.277063 -0.2444 -0.527815 0.927677 -0.27119 -0.154304 0.409728 -0.610195 0.0899224 0.57136 -0.275546 -0.179554 -0.380729 0.426005 -0.274612 0.0755959 0.442669 0.313735 -0.331466 -0.359651 0.173669
34685 -0.224958 -1.19154 1.44807 0.442439 0.8777 0.143876 -3.03689 -1.37193 -0.0238711 0.445666 0.461918 0.326634 -0.523526 -0.0914866 0.730908 -0.584332 -0.442101 0.754677 -0.355281 0.265065 0.43582 -0.445987 0.0814896 -0.897476 0.159305 -0.143162 0.277146 -0.111343 0.0903855 -0.291666 -0.161204 0.358767
33632 -0.171314 -0.907339 1.33504 0.149595 0.949792 -0.0465488 -3.17377 -1.30597 0.0988721 0.607821 0.158617 0.456144 -0.277443 -0.0275582 0.667198 -0.276096 -0.125646 0.823766 -0.314997 0.289013 0.403516 -0.206339 -0.00569801 -0.770668 0.443733 0.350633 0.0296296 0.0364701 0.262423 -0.141607 -0.0612957 0.259509
36166 -0.344564 -0.873079 1.24999 0.170864 0.922512 0.12716 -2.90018 -1.34623 0.111315 0.56855 0.46556 0.523888 -0.608535 -0.303904 0.500469 -0.439484 -0.217007 0.744122 -0.0927778 0.40367 0.586308 -0.320963 0.141661 -0.719 0.647881 0.237518 0.0641628 0.00573047 0.0704486 -0.43788 -0.290397 0.601972
33519 -0.203396 -0.792366 1.37652 0.24751 1.18045 0.268936 -2.98251 -1.48915 0.101013 0.453709 0.287924 0.327625 -0.25485 -0.203878 0.517361 -0.480852 -0.362873 0.78397 -0.225603 0.440302 0.500617 -0.338365 0.256396 -0.670269 0.629577 0.2084 -0.0435886 -0.0527675 0.149589 -0.362043 -0.0324021 0.27008
35391 -0.20127 -0.464181 1.62051 0.366281 0.910681 0.118253 -3.00321 -1.27912 0.0811211 0.810489 0.346111 0.786251 -0.421849 -0.113077 0.530147 -0.350095 -0.275785 0.728382 -0.0673401 0.325969 0.642718 -0.179994 0.0768125 -0.700557 0.349855 0.473089 -0.23503 -0.0996261 0.237122 -0.202741 -0.444232 0.418342
