7349 32
31832 -1.48357 -1.10966 1.0184 1.11029 -1.10645 0.187768 2.57102 -3.39699 -1.4714 0.666294 -0.472098 0.725653 0.282063 0.329276 0.367219 0.367452 -0.325515 -0.110079 0.113036 -0.603146 -0.0394047 0.0686749 0.927671 -0.260312 -0.397311 0.272417 -0.043968 -0.138932 -0.383771 0.0758892 -0.199803 -0.153753
36630 -1.54533 -0.852873 1.20732 1.19458 -1.18261 0.275601 2.57802 -3.41329 -1.6198 0.552723 -0.398411 0.665451 0.211323 0.317148 0.18567 0.400584 -0.47058 -0.228352 -0.0742051 -0.735333 -0.154348 -0.0548525 0.511352 -0.281396 -0.608793 0.300913 -0.157712 -0.110041 -0.412765 -0.104444 0.161912 -0.175525
32760 -1.68827 -0.898687 1.22754 1.00527 -1.04837 -0.0711655 2.38247 -3.34472 -1.78015 0.603106 -0.529491 0.368211 0.454757 0.0141439 0.0979716 0.10768 -0.257815 -0.182519 -0.165033 -0.562043 0.198113 0.022924 0.720308 -0.303913 -0.480246 0.181685 0.0574342 -0.195532 -0.403884 0.490214 0.117934 -0.204774
35464 -1.57101 -0.89492 1.07154 1.05446 -1.19663 0.167711 2.51376 -3.38478 -1.53464 0.875948 -0.522589 0.401115 0.257083 -0.0562546 -0.0544558 0.187325 -0.230883 -0.167673 0.0509736 -0.817037 0.200583 0.274105 0.373549 0.053281 -0.440122 0.254119 -0.0454183 -0.563502 -0.427281 -0.0994587 0.105003 -0.41113
32279 -1.57599 -0.951974 1.11775 0.835291 -1.18487 0.024387 2.62297 -2.96869 -1.45425 0.45695 -0.619891 0.473597 0.263562 -0.270476 0.0269097 0.0479353 -0.337569 -0.374744 -0.049391 -0.842862 0.353972 0.212298 0.496445 -0.197114 -0.462702 0.577165 0.126802 -0.617517 -0.387242 -0.204477 0.272676 -0.57889
32665 -1.56933 -1.09966 1.13871 1.17845 -1.41533 0.149461 2.54548 -3.70974 -1.83397 0.532712 -0.483102 0.647321 0.205584 0.0778768 0.200613 -0.0819386 -0.289039 -0.257316 0.0118668 -0.842681 0.387082 0.0643606 0.629261 -0.0842065 -0.663582 0.192596 -0.160798 -0.596249 -0.440841 0.160187 -0.0350572 -0.346632
35142 -1.50675 -0.785606 1.01527 0.745958 -1.2583 0.122623 2.29338 -2.90573 -1.22695 0.267396 -0.677854 0.517922 0.423584 0.0926349 -0.0324705 -0.0886765 -0.508289 -0.285491 -0.115453 -0.918772 0.561243 0.170841 0.843958 -0.142057 -0.602033 0.207872 -0.230142 -0.606577 -0.755223 0.12848 -0.0821944 -0.494191
36920 -1.48025 -0.969339 1.13774 0.963484 -1.33873 0.417765 2.48509 -3.192 -1.56561 0.413126 -0.4136 0.470316 0.286984 0.00411042 -0.0955435 0.268201 -0.48197 -0.253757 0.159583 -0.741269 0.424271 0.114563 0.613425 -0.0891508 -0.593074 0.0206469 -0.235781 -0.473766 -0.315654 0.236401 -0.0569384 -0.486578
31453 -1.61145 -1.09935 1.10516 1.16057 -1.2593 0.187863 2.67462 -3.36756 -1.75798 0.64997 -0.404708 0.391984 0.374496 -0.122865 0.227284 0.011861 -0.287001 -0.114968 0.0365253 -0.769126 0.211556 0.0811854 0.497708 0.0193695 -0.557842 0.15714 0.016632 -0.349377 -0.265728 0.163167 -0.0362169 -0.325248
33203 -1.68266 -0.812732 1.18402 1.09521 -1.22386 0.2665 2.4943 -3.43814 -1.66864 0.709371 -0.631691 0.337916 0.223935 -0.14385 0.291751 0.19384 -0.371615 -0.0489721 0.32492 -0.684846 0.222436 0.146098 0.639194 -0.145069 -0.417389 0.146553 -0.207753 -0.285933 -0.573376 0.461881 -0.0576433 -0.077411
36545 -1.53418 -0.876172 0.984585 1.16443 -1.18944 0.385117 2.27438 -2.89221 -1.2617 0.530834 -0.747225 0.675237 0.414003 -0.166115 0.16385 0.0489034 -0.357525 -0.0775594 0.199267 -0.697064 0.314203 0.153583 0.926873 -0.000562547 -0.711321 0.23787 -0.25337 -0.623905 -0.606772 0.129084 -0.0986746 -0.41216
31166 -1.57524 -0.904692 1.1265 1.25297 -1.06163 0.265973 2.40053 -3.4492 -1.6261 0.478482 -0.585713 0.542982 0.273452 -0.0326598 0.174792 -0.104647 -0.296113 -0.45019 0.216209 -0.60537 0.399942 0.278261 0.518718 -0.0481018 -0.686232 0.274594 -0.105633 -0.473939 -0.583315 0.185867 -0.031479 -0.314369
34009 -1.64004 -0.913144 1.02917 0.980411 -1.10455 0.243849 2.54909 -3.01487 -1.51042 0.217956 -0.680806 0.401883 0.260537 -0.194902 0.0845745 0.296977 -0.261864 0.130837 0.195668 -0.92236 0.0526387 0.197993 0.736723 -0.216425 -0.74298 0.396546 -0.040881 -0.595443 -0.291543 0.337432 -0.396406 -0.146375
36003 -1.80968 -0.978271 1.1179 1.06947 -0.868387 0.161469 2.20823 -3.16784 -1.4669 0.337246 -0.670715 0.639412 0.373822 0.1732 0.0487365 0.087715 -0.308422 -0.194172 -0.117336 -0.782168 0.241802 0.117837 0.806659 -0.22492 -0.454587 0.14147 -0.150653 -0.451485 -0.502411 0.192682 -0.0422039 -0.363846
36625 -1.68215 -0.873886 1.33125 1.02627 -1.2115 0.0445333 2.76803 -3.19093 -1.752 0.673656 -0.440027 0.268591 0.380198 0.119363 0.12921 0.243556 -0.0869541 -0.126625 -0.0806031 -0.881659 0.236282 0.0804802 0.521553 0.121755 -0.396606 0.243881 -0.0465322 -0.419352 -0.325965 -0.0351799 0.153614 -0.202609
33937 -1.61792 -0.882856 1.11188 1.16663 -1.1034 0.093385 2.41068 -3.03376 -1.4425 0.511048 -0.551006 0.616668 0.523528 0.151836 0.108547 -0.0623815 -0.332539 -0.128427 0.124676 -0.600351 0.358127 0.0260907 0.848719 0.0517174 -0.417891 0.0276093 0.0892654 -0.40098 -0.277437 0.204131 -0.095944 -0.466162
32257 -1.69177 -0.921755 1.26213 1.08469 -1.27459 0.269479 2.5162 -3.38193 -1.72556 0.732291 -0.345726 0.517791 0.313966 0.0158252 0.09955 0.06723 -0.414256 -0.170634 0.0190935 -0.73059 0.334164 0.0784369 0.541833 -0.0105448 -0.495641 0.110639 -0.149968 -0.245984 -0.257383 0.174263 0.122194 -0.41757
35831 -1.69089 -0.94113 1.17555 1.09982 -1.15345 0.319805 2.51886 -3.46308 -1.78634 0.726864 -0.40811 0.466583 0.109489 -0.117155 0.061869 0.111604 -0.228242 -0.144638 0.176967 -0.681336 0.282386 0.249088 0.588246 -0.0251842 -0.511124 0.254928 -0.077606 -0.312405 -0.428582 0.294051 -0.0473705 -0.189001
31825 -1.62521 -0.922162 1.26817 1.16047 -1.10754 0.314982 2.61375 -3.3337 -1.71448 0.894928 -0.435233 0.413805 0.228133 0.0723462 0.0549104 0.210752 -0.147157 -0.245614 0.144088 -0.784011 0.183418 0.207225 0.543326 -0.0738742 -0.669199 0.210093 -0.144975 -0.479154 -0.303821 0.08211 0.0910482 -0.222607
34908 -1.65185 -0.878057 1.29555 1.26982 -1.19984 0.213572 2.66175 -3.29043 -1.77885 0.750168 -0.508346 0.323038 0.28388 0.0667369 0.028267 0.0324847 -0.29212 -0.182738 0.0669171 -0.587411 0.377814 0.0809237 0.554764 0.0103928 -0.515354 0.280817 0.0817858 -0.192876 -0.113151 0.230109 -0.155306 -0.25331
31122 -1.8142 -0.740862 1.13746 0.850819 -1.23211 0.0153662 2.3652 -3.36116 -1.54555 0.712419 -0.560972 0.352811 0.377148 -0.0658351 0.408421 0.0793082 -0.192787 -0.264058 0.0859871 -0.727262 0.331667 0.275035 0.652024 0.160607 -0.0596364 0.430141 0.0718112 -0.570271 0.145963 0.214683 0.222022 -0.69018
32874 -1.75667 -0.811519 1.08182 0.966406 -1.3351 0.0569691 2.59047 -3.21426 -1.40492 0.946296 -0.707157 0.248019 0.302199 -0.016493 0.0717911 -0.0618374 -0.308178 -0.233297 0.249324 -0.78949 0.174943 -0.126108 0.736768 -0.0126607 -0.328325 0.145961 0.0332551 -0.505693 -0.204776 0.0754106 0.166678 -0.496665
35589 -1.76814 -0.900178 1.28362 0.924326 -1.24403 -0.0230953 2.58643 -3.3619 -1.59781 0.911717 -0.483099 0.342625 0.190136 -0.0821055 0.0645665 0.189871 0.00791362 -0.152828 -0.115656 -1.07017 0.247809 0.224337 0.434227 -0.0725094 -0.513517 0.218627 0.106279 -0.603012 -0.40086 -0.287892 0.0348798 -0.445024
33794 -1.76128 -0.896904 1.16728 0.9622 -1.16039 0.0764825 2.70613 -3.16658 -1.63946 0.885418 -0.591492 0.173531 0.373887 0.107126 0.0136494 0.152817 -0.129586 -0.0898526 0.0638074 -0.857272 0.358312 0.245496 0.50942 -0.00366814 -0.4691 0.264558 0.124344 -0.451157 -0.503777 -0.198536 0.0251392 -0.234832
31653 -1.65792 -0.738931 1.1891 0.961064 -1.17933 0.235889 2.51251 -3.15173 -1.56904 0.753768 -0.463743 0.357105 0.392594 0.263309 -0.0019789 0.112711 -0.297798 -0.188603 0.193421 -0.701598 0.480367 0.176583 0.669226 0.103483 -0.496704 0.257282 -0.159576 -0.366924 -0.47585 0.0999448 -0.131977 -0.381055
30925 -1.49831 -0.722736 1.00939 0.961533 -0.984435 0.366293 2.38771 -3.09996 -1.1649 0.389979 -0.633976 0.394065 0.390994 -0.062805 0.0344832 0.443802 -0.291781 -0.198441 0.0561594 -0.886148 0.241028 0.273724 0.782923 0.00701191 -0.510766 0.154559 -0.249656 -0.433703 -0.675667 0.269687 0.0520804 -0.231299
35675 -1.52443 -1.11983 0.94989 1.12518 -1.16894 0.172037 2.47018 -3.58479 -1.77169 0.423634 -0.594238 0.614762 0.244116 -0.0440038 0.117625 -0.00506222 -0.260279 -0.378115 0.0066536 -0.670335 0.299795 0.324069 0.565912 -0.0187941 -0.685683 0.147432 -0.243163 -0.43838 -0.434138 0.161003 -0.0371663 -0.188047
31885 -1.72715 -0.719788 0.882898 1.22967 -0.993017 0.0651697 2.3988 -3.38091 -1.70326 0.430624 -0.324667 0.396222 0.50788 0.302108 0.0100331 0.153884 -0.109554 -0.215913 0.276666 -0.742017 0.283226 0.208956 0.56457 -0.341008 -0.794675 0.0923819 -0.0487219 -0.577511 -0.269276 0.191654 -0.139082 -0.168667
35733 -1.6858 -0.804243 1.22975 1.06227 -1.10145 0.239732 2.50967 -3.32042 -1.57704 0.61914 -0.566366 0.203704 0.343119 0.167738 -0.149485 0.174329 -0.340005 -0.26877 -0.029611 -0.767532 0.278862 0.188498 0.628228 -0.260812 -0.428017 0.0814419 -0.189801 -0.466428 -0.442377 0.135805 -0.300515 -0.153694
31210 -1.62983 -0.906864 1.48999 1.18537 -1.0772 0.265945 2.73266 -3.18758 -1.68834 0.588097 -0.655487 0.171539 0.200378 0.0443471 -0.0967024 0.101499 -0.189931 -0.0914497 0.0246532 -0.896317 0.247622 -0.0929516 0.420913 -0.143492 -0.479148 0.390396 -0.134106 -0.486371 -0.205226 0.225151 0.0657957 -0.00174769
35287 -1.56217 -0.741106 1.05643 0.990406 -1.3246 0.0443724 2.25947 -2.87503 -1.31765 0.73621 -0.573289 0.528963 0.434919 0.20117 0.14599 0.143018 -0.390067 -0.162571 0.078739 -0.907027 0.281637 0.0183988 0.837615 -0.103916 -0.68197 0.150207 -0.0458427 -0.370124 -0.325775 0.181607 -0.000825451 -0.57256
36845 -1.31649 -0.763936 1.18632 1.04846 -0.954119 0.172373 2.38922 -2.74869 -1.23967 0.371146 -0.646183 0.464338 0.486247 0.124429 0.129227 0.0991503 -0.12464 -0.281995 0.309642 -0.535607 0.298042 0.095031 0.835599 -0.0835173 -0.651226 0.316374 -0.292088 -0.656661 -0.403373 0.0681811 -0.1648 -0.425156
34332 -1.72744 -0.912718 1.49351 1.10933 -1.00975 0.0491347 2.45291 -3.32251 -1.64556 0.347457 -0.64428 0.522926 0.43142 0.191742 0.0708792 0.110351 -0.103908 -0.350812 -0.159938 -0.727879 0.22081 0.0721849 0.680548 -0.156955 -0.435694 0.234134 -0.330434 -0.266318 -0.349932 0.576269 0.0518882 -0.375582
33424 -1.72972 -0.579564 1.28126 1.14695 -1.31096 0.464241 2.50933 -3.32568 -1.69073 0.511729 -0.616363 0.500866 0.337989 0.0363055 -0.027636 0.0102786 0.00813937 -0.384825 0.245672 -0.682524 0.1795 -0.0325961 0.711383 0.183138 -0.580406 0.486371 -0.136763 -0.256656 -0.255314 0.0445319 0.0314502 -0.270541
33741 -1.44225 -0.851228 1.06695 1.11054 -1.11789 0.0133382 2.67133 -3.30492 -1.5342 0.455062 -0.373336 0.417162 0.465792 0.190828 0.190843 0.087427 -0.329596 0.0708979 0.0784151 -0.792818 0.134604 0.0902199 0.765438 -0.214447 -0.539398 0.418755 -0.522835 -0.399716 -0.293132 -0.0243279 0.0255385 0.0154379
34517 -1.83263 -0.755638 1.08888 1.34168 -0.960925 0.246993 2.62582 -3.44814 -1.79759 0.48022 -0.531886 0.264392 0.421635 -0.0235983 0.154693 -0.0755877 -0.0594335 -0.115963 0.171857 -0.79346 0.222089 0.19347 0.592754 -0.116574 -0.627813 0.274688 -0.126863 -0.29079 -0.278518 0.322316 -0.0129243 -0.184499
36391 -1.78767 -0.691418 1.04655 1.18635 -1.15638 0.294159 2.40263 -3.56001 -1.79948 0.59644 -0.463569 0.48822 0.422325 -0.205124 0.0664745 -0.00120492 -0.285828 -0.068689 0.0387184 -0.628725 -0.0629446 0.339366 0.557881 0.228853 -0.528727 0.367689 -0.115096 -0.152067 -0.368609 0.134628 0.207314 0.0326413
35540 -1.70427 -0.910696 1.05633 1.21843 -1.05228 0.0400403 2.70166 -3.49833 -1.64684 0.668645 -0.564531 0.25514 0.392612 -0.00924815 0.0354426 0.153749 -0.113499 -0.0626489 0.0400896 -0.799272 0.338136 0.039491 0.663523 -0.293565 -0.589797 0.139677 -0.00916779 -0.582328 -0.189056 0.0995897 -0.0294081 -0.210862
35755 -1.47563 -1.13519 1.04175 0.93209 -1.16573 0.12882 2.52434 -3.19409 -1.51448 0.479375 -0.529017 0.277246 0.278648 0.0572578 0.0482646 0.210282 -0.266177 -0.246989 -0.127575 -0.781133 0.5514 0.32032 0.662402 -0.0448297 -0.457633 0.0489887 0.0801978 -0.567129 -0.274386 0.0266324 -0.185529 -0.259724
31107 -1.73858 -0.904117 1.22265 1.2522 -1.15576 0.194227 2.62375 -3.52586 -1.85544 0.732321 -0.458485 0.445674 0.370746 0.0396522 0.0886605 0.0485698 -0.188896 -0.165803 0.230932 -0.725343 0.241748 -0.0194511 0.582265 -0.0961465 -0.591143 0.248633 -0.154976 -0.345936 -0.375595 0.13627 0.0374694 -0.169912
34217 -1.72101 -0.98285 0.99958 1.14973 -1.13467 0.324028 2.55938 -3.13089 -1.60973 0.52823 -0.469674 0.803329 0.313624 0.146821 0.0231553 -0.0121805 -0.177912 -0.479763 0.215492 -0.732677 0.0527789 -0.0873953 0.539137 0.0443347 -0.502465 0.429067 -0.0283851 -0.328406 -0.477858 0.111866 -0.131571 -0.236342
32620 -1.61011 -0.81979 1.1824 1.18238 -0.978526 0.0508471 2.64236 -3.25297 -1.70486 0.45458 -0.558254 0.474061 0.309732 0.380819 0.18891 0.225686 -0.0289957 -0.0641658 -0.0288176 -0.732223 0.374816 -0.0871663 0.596811 -0.158223 -0.602214 0.280661 -0.0642227 -0.322176 -0.312296 -0.0138732 -0.00462675 -0.130325
35658 -1.7342 -0.745394 1.19891 1.08861 -1.05817 0.34296 2.54099 -3.35707 -1.73212 0.676369 -0.48088 0.445765 0.369658 0.281866 0.0903617 -0.0320648 -0.195615 -0.353778 0.0853126 -0.681339 0.378035 -0.0941626 0.485748 -0.04275 -0.67728 0.124001 -0.145248 -0.668533 -0.215051 0.0686768 -0.259049 -0.261895
32940 -1.67448 -1.04784 1.21175 1.20261 -1.28502 0.185271 2.55948 -3.7053 -1.74356 0.66475 -0.526867 0.565679 0.320436 0.0119235 0.0477165 0.036311 -0.217743 -0.25859 -0.0688167 -0.809352 0.403362 0.104688 0.540764 -0.0807766 -0.576048 0.244165 -0.173165 -0.511681 -0.436832 0.107907 0.0154628 -0.286722
31153 -1.69195 -0.792188 1.05076 1.32939 -1.43455 0.415331 2.54177 -3.26629 -1.64083 0.652185 -0.478745 0.54016 0.627591 0.239224 0.111755 -0.152758 -0.248313 -0.373758 0.150579 -0.863373 -0.011081 0.127065 0.370457 -0.020123 -0.499702 0.403063 -0.114103 -0.251926 -0.353448 0.14805 -0.0175247 -0.191571
34452 -1.43573 -0.714174 1.17866 1.04203 -1.45861 0.16297 2.03345 -2.84634 -1.38557 0.1619 -0.76592 0.637524 0.527003 0.275345 0.006595 0.101923 -0.230041 -0.22204 -0.0111648 -0.842039 0.355952 0.0756536 0.788594 -0.045999 -0.656585 0.430483 -0.158075 -0.40244 -0.673804 0.24434 -0.195811 -0.270602
33076 -1.64629 -0.925015 1.23268 1.29611 -1.18256 0.188281 2.59498 -3.69716 -1.71273 0.751525 -0.563248 0.507325 0.159596 0.0569336 0.185537 -0.0142263 -0.217834 -0.295581 0.0542782 -0.725077 0.322618 0.0457592 0.655184 -0.0590402 -0.631069 0.406459 -0.0360756 -0.420509 -0.408165 0.109459 -0.0757532 -0.348121
34554 -1.44133 -0.726706 1.19626 0.926335 -1.23855 0.0267419 2.01126 -3.22264 -1.08927 0.664548 -0.361019 0.563476 0.434324 0.241048 0.482335 0.205209 -0.214409 -0.185578 0.287499 -0.790796 0.610854 0.240207 1.04462 -0.0391934 -0.681071 0.661793 -0.210244 -0.373918 -0.618415 0.240315 0.0244898 -0.473402
35863 -1.49615 -0.778561 0.889472 1.03755 -1.12083 0.101203 2.48449 -3.35163 -1.55785 0.66184 -0.610346 0.542925 0.284935 0.0549005 0.142052 0.0361039 -0.285111 -0.122682 0.19868 -0.823645 0.304633 0.232322 0.657835 -0.067277 -0.749737 0.42073 -0.315821 -0.760126 -0.419553 0.310117 -0.0581542 -0.500735
32023 -1.56637 -1.00212 1.28395 1.25363 -1.15263 0.177469 2.62172 -3.51915 -1.8007 0.637272 -0.427383 0.65938 0.270581 -0.0451837 0.179643 -0.0700206 -0.376316 -0.0382283 -0.0341665 -0.743219 0.310013 0.0207488 0.617049 -0.133246 -0.680665 0.0892087 -0.278502 -0.309257 -0.500333 0.119264 -0.0528833 -0.317789
33952 -1.73081 -0.968222 1.1914 1.11027 -1.26302 0.00942214 2.66432 -3.25454 -1.69273 0.988149 -0.476765 0.307862 0.268858 -0.162142 0.192335 0.134273 -0.414115 -0.183519 0.118879 -0.733698 0.248979 -0.0124046 0.589098 -0.0337252 -0.364538 0.157956 0.120385 -0.288329 -0.241573 0.184194 -0.217876 -0.220074
33639 -1.68266 -1.00801 1.15823 0.978445 -1.32342 0.0128795 2.69817 -3.34174 -1.72359 0.720856 -0.449659 0.271753 0.333903 0.10824 0.12754 0.0790536 -0.25012 -0.091411 0.0323075 -0.847945 0.291666 0.054396 0.496389 0.00555416 -0.388435 0.228404 0.0504248 -0.322212 -0.348795 0.0312334 0.166428 -0.348136
35493 -1.52482 -0.850274 1.08314 0.857934 -1.19594 0.381127 2.16446 -3.00632 -1.28996 0.613717 -0.567981 0.392405 0.315806 0.103454 0.075711 0.0769285 -0.164593 -0.0315001 0.0462923 -0.893132 0.325445 0.188737 0.936169 -0.0974896 -0.806833 0.321289 -0.236478 -0.53961 -0.63941 0.33263 -0.191718 -0.161534
34651 -1.6674 -0.803076 1.37154 0.971065 -0.976497 0.14437 2.73756 -3.10715 -1.65196 0.649096 -0.449969 0.381051 0.242572 0.0865068 -0.139844 0.282383 -0.284779 -0.174463 0.345085 -0.7557 0.296013 0.0323521 0.687413 -0.138483 -0.562197 0.506398 -0.166675 -0.664118 -0.16444 0.27047 -0.175477 -0.0262708
34081 -1.68493 -0.703756 1.33553 1.16013 -0.980328 0.0187422 2.73836 -3.00478 -1.64107 0.340511 -0.58388 0.480402 0.364236 0.278557 0.0926812 0.451465 -0.0723822 -0.322154 -0.0148792 -0.718489 0.260764 -0.18778 0.592727 0.0920242 -0.409307 0.362408 -0.374693 -0.2707 -0.238104 0.235276 -0.0608375 -0.225661
35368 -1.67385 -0.990826 1.31005 1.2382 -1.19014 0.199557 2.69021 -3.50026 -1.80869 0.747222 -0.586296 0.523158 0.132355 0.0965243 0.0611154 0.0260293 -0.160362 -0.272207 0.142665 -0.785111 0.228798 0.158481 0.583856 -0.0757245 -0.686405 0.170192 -0.19393 -0.44078 -0.459397 0.0619046 -0.0556683 -0.288853
34337 -1.78483 -0.74313 1.14265 1.13299 -1.29437 0.233321 2.4916 -3.30119 -1.72585 0.619904 -0.457562 0.340429 0.361346 0.140211 -0.132092 -0.0657459 -0.459137 -0.081831 -0.0224268 -0.777586 0.0380102 0.21191 0.686201 -0.0424857 -0.532679 0.179955 -0.175936 -0.12884 -0.344066 0.0449523 -0.0206278 -0.285986
33238 -1.69314 -0.904063 1.22062 1.16308 -1.12083 0.357774 2.53985 -3.54639 -1.68187 0.783228 -0.296076 0.678428 0.137701 -0.144926 0.141473 -0.0157066 -0.284449 -0.164253 0.171624 -0.814741 0.282546 0.222698 0.594206 0.00104881 -0.584269 0.380097 -0.217684 -0.485264 -0.420302 0.167626 0.0695941 -0.253536
35394 -1.60449 -0.962299 0.976486 1.07988 -1.26674 0.331649 2.46586 -3.30538 -1.76915 0.593946 -0.503068 0.425665 0.0431281 0.00317574 0.0146669 0.0728783 -0.354781 -0.353839 0.0891857 -0.782497 0.194316 -0.00648794 0.600398 0.106988 -0.505785 0.197212 0.0687978 -0.31561 -0.403522 0.142058 -0.0443975 -0.202029
31681 -1.47144 -0.884466 1.06097 1.12542 -1.27695 0.118348 2.50427 -3.32131 -1.5345 0.448628 -0.469045 0.448924 0.300833 0.0345222 0.184674 0.0197202 -0.31405 -0.212155 0.0460628 -0.720914 0.366497 0.143958 0.626641 -0.0426406 -0.625274 0.0266209 -0.287119 -0.43511 -0.305547 -0.0401384 -0.190424 -0.624388
34224 -1.4614 -0.85426 1.18891 0.983635 -1.23268 0.387203 2.35266 -3.16897 -1.26806 0.525926 -0.648117 0.347232 0.401272 -0.0645114 0.134659 -0.000920697 -0.445389 -0.162759 0.0797512 -0.919606 0.279501 0.0943323 0.854948 0.162114 -0.627856 0.231148 -0.180478 -0.456071 -0.5945 0.171642 -0.312757 -0.276049
32737 -1.71154 -0.922799 1.13988 1.12193 -1.19869 0.35823 2.60699 -3.55044 -1.73985 0.808945 -0.488861 0.321099 0.185325 0.0366038 0.190182 0.0337572 -0.288164 -0.256527 0.0883714 -0.807352 0.0374247 0.0759449 0.667561 0.140583 -0.589892 0.212649 -0.18291 -0.294263 -0.433523 0.048842 -0.0884747 -0.187433
36525 -1.91364 -0.81507 0.98433 1.16225 -1.06034 0.157456 2.61591 -3.43964 -1.59393 0.915233 -0.519259 0.332533 0.261431 -0.0511498 0.185025 0.0581481 -0.211699 -0.298107 0.152188 -0.746966 0.222207 -0.0305043 0.568616 0.0788651 -0.495364 0.175107 -0.100365 -0.443299 -0.138563 0.100792 0.242862 -0.458722
32450 -1.63442 -1.03956 1.17223 1.13342 -1.31408 0.34382 2.37736 -3.44039 -1.86956 0.380716 -0.346184 0.315955 0.208798 -0.26823 0.0265053 0.35097 -0.0849152 -0.217647 -0.0373382 -0.784165 0.177013 0.0620737 0.650612 0.150385 -0.411621 0.203643 -0.164778 -0.20771 -0.410328 0.0778311 -0.047636 -0.0860366
33141 -1.49979 -0.785542 1.02853 0.810477 -1.22825 0.270762 2.36318 -3.20948 -1.2101 0.372555 -0.654665 0.425398 0.321601 -0.0395369 0.0292482 0.031349 -0.225739 -0.172606 0.215174 -0.899503 0.248825 0.270348 0.88462 0.0295856 -0.435189 0.316206 0.0120257 -0.360318 -0.514931 0.292266 -0.105603 -0.209528
34091 -1.66976 -0.859558 1.3061 1.00353 -1.12011 0.317288 2.61021 -3.49535 -1.72114 0.576654 -0.449418 0.383894 0.206142 -0.0530683 0.147357 0.238597 -0.207018 -0.100309 -0.0129587 -0.790938 0.17245 0.173117 0.671512 0.129365 -0.626982 0.273334 -0.0392882 -0.321272 -0.406305 0.294684 -0.0377351 -0.0543942
34962 -1.69785 -0.889645 1.16642 0.914815 -1.21219 0.546784 2.46 -3.2453 -1.63556 0.579184 -0.484443 0.396458 0.0405309 -0.000538495 0.129615 -0.134687 -0.175395 -0.101009 -0.0260786 -0.804133 0.219664 0.0715446 0.846614 0.0759577 -0.574144 0.109986 -0.167711 -0.47964 -0.461247 0.0336977 -0.109674 -0.0882356
33171 -1.65032 -0.853371 0.986538 1.14589 -1.0004 0.110619 2.1604 -3.04505 -1.43352 0.269531 -0.653604 0.486367 0.46377 0.0601499 0.137035 0.311486 -0.148346 -0.233784 0.113464 -0.777654 0.275974 0.151621 0.664629 -0.0717449 -0.699348 0.25634 -0.427382 -0.427332 -0.669572 0.348383 -0.00814968 -0.263736
34040 -1.48078 -1.00075 0.971734 0.945334 -1.10618 0.226737 2.51541 -2.99832 -1.39177 0.649308 -0.509109 0.489423 0.280447 -0.000304929 0.0270231 0.118947 -0.39541 -0.272839 -0.0546469 -0.698048 0.419891 0.41263 0.704172 0.00938546 -0.698034 0.232645 -0.122344 -0.292218 -0.598716 0.189401 -0.134731 -0.172079
33001 -1.60726 -0.791294 1.16127 1.1262 -0.921486 0.340307 2.61113 -3.14848 -1.51456 0.737325 -0.418766 0.647426 0.580333 0.310162 -0.0423959 0.25139 -0.265196 -0.447529 0.0278931 -0.405856 0.124338 -0.104487 0.754102 0.157551 -0.522106 0.340709 -0.148849 -0.59605 -0.346424 0.0838778 0.15173 -0.208156
34127 -1.62493 -1.03221 1.1616 0.972701 -1.15384 0.263018 2.54531 -3.35501 -1.71766 0.575669 -0.479956 0.3246 0.472926 0.0680904 0.240794 -0.0064784 -0.198513 -0.158213 0.170656 -0.793846 0.264048 0.140747 0.577449 -0.0507869 -0.459689 0.374784 -0.0691996 -0.450305 -0.534623 0.213497 -0.358697 0.0575034
31954 -1.61732 -0.684407 1.33001 1.04298 -1.36319 0.239271 2.58381 -3.36335 -1.9142 0.489674 -0.417696 0.347108 0.311823 0.293237 0.300581 0.0123763 -0.354053 -0.223734 0.219984 -0.552846 0.211734 0.0992946 0.515187 -0.169327 -0.532644 0.134923 -0.197827 -0.341893 -0.25585 0.172177 -0.0938743 -0.283559
33091 -1.65341 -0.821377 0.890787 0.928477 -1.32653 0.276554 2.30211 -2.98945 -1.30152 0.592588 -0.697245 0.547497 0.421221 0.117424 0.200674 -0.022301 -0.282993 -0.0271676 -0.0452778 -0.712812 0.456119 0.184606 0.768319 -0.0986801 -0.750912 0.155179 -0.120032 -0.575038 -0.374309 0.0468776 -0.146944 -0.360802
32283 -1.42843 -0.754006 1.28418 0.903378 -1.12206 0.343557 2.51071 -3.27739 -1.34361 0.807194 -0.629725 0.716778 0.28573 0.218006 0.195831 -0.0635221 -0.0812424 0.0586982 0.343449 -0.637862 0.345829 0.170572 0.826962 -0.0591345 -0.478754 0.230335 -0.544226 -0.596043 -0.507799 0.121064 -0.138073 -0.477956
35291 -1.46682 -0.769998 1.46794 1.11512 -1.23377 0.117521 2.52535 -3.1425 -1.43569 0.769043 -0.404025 0.564205 0.375131 0.193064 0.241765 -0.303755 -0.224891 0.0515943 -0.0228341 -0.655527 0.378074 0.321983 0.865428 0.142534 -0.563662 0.184734 -0.0821186 -0.208981 -0.617012 0.370761 -0.0661582 -0.157706
36679 -1.56172 -0.812295 1.38516 1.08408 -1.19642 0.261118 2.56664 -3.38285 -1.59022 0.771085 -0.448232 0.495928 0.292797 0.184413 0.203319 0.069179 -0.158045 -0.0915554 0.259045 -0.678912 0.39814 0.102526 0.785598 -0.000252026 -0.606571 0.299205 -0.273839 -0.440802 -0.256531 0.128545 0.097002 -0.285051
33797 -1.6467 -0.857189 1.35022 1.14907 -1.06503 0.118753 2.59921 -3.69566 -1.69186 0.803254 -0.406562 0.486816 0.314198 0.00264936 0.239745 -0.173644 -0.195474 -0.14172 0.17984 -0.765393 0.45877 0.0127037 0.627224 -0.134576 -0.768224 0.355934 -0.228966 -0.177559 -0.459827 0.196584 -0.14641 -0.145311
33158 -1.81494 -0.835459 1.27446 1.12477 -0.972224 0.212787 2.5298 -3.29843 -1.78799 0.57921 -0.475185 0.501959 0.409507 0.431204 -0.0359791 0.219217 -0.0785217 -0.33984 -0.173729 -0.731354 0.2855 -0.0605816 0.599175 -0.0479365 -0.571299 0.197717 -0.488851 -0.159202 -0.262215 0.133086 0.193634 -0.438748
31372 -1.35881 -0.694027 1.16142 0.969226 -0.983665 0.319686 2.31564 -3.02465 -1.14047 0.530234 -0.516839 0.599382 0.514589 0.135476 0.0536437 0.0781444 -0.232965 -0.11551 -0.129274 -0.657951 0.128758 0.175167 1.00001 0.0159632 -0.617016 0.261223 -0.345773 -0.365181 -0.568971 0.256891 -0.0302026 -0.211882
34995 -1.39867 -0.562658 1.1407 0.800214 -1.07013 0.214696 2.20018 -2.75053 -1.19634 0.518803 -0.51574 0.666269 0.337505 0.136616 -0.0373435 -0.197933 -0.185688 -0.0993253 0.287721 -0.642695 0.339688 0.26856 1.17587 -0.116235 -0.665432 0.270313 -0.205173 -0.458456 -0.661918 0.231033 -0.141121 -0.227045
33190 -1.59629 -0.659256 1.12636 1.11668 -1.10065 0.1792 2.55596 -3.07211 -1.43594 0.497953 -0.515838 0.603949 0.424501 0.527985 -0.00104928 -0.110431 -0.070974 -0.230833 0.0262747 -0.762282 0.412766 0.123161 0.849146 -0.117831 -0.782456 0.246691 -0.251807 -0.286307 -0.518603 0.358693 -0.0233823 -0.148328
34753 -1.68084 -0.868808 1.32699 1.1468 -1.07446 0.264824 2.41835 -3.40828 -1.57801 0.456128 -0.355531 0.565712 0.424873 -0.038506 -0.152498 0.0931818 -0.0564588 -0.421654 0.234471 -0.695045 -0.0394498 0.342271 0.6569 0.0127253 -0.483329 0.199021 -0.202288 -0.232229 -0.242574 0.0813281 0.0761983 -0.0072791
35449 -1.32988 -0.745406 0.849622 0.88875 -0.99897 0.303636 2.11938 -2.6906 -1.27703 0.515557 -0.616474 0.426357 0.430663 0.0949496 -0.0306047 0.147472 -0.358147 -0.114012 -0.0480415 -0.668228 0.343894 0.167253 0.963563 -0.0133031 -0.660244 0.207182 -0.33158 -0.446669 -0.636946 0.229658 -0.089573 -0.483502
33753 -1.98001 -0.657422 1.15555 0.973134 -1.10745 0.31642 2.21363 -3.61178 -1.72198 0.494271 -0.263758 0.557171 0.449049 -0.246698 0.0825876 0.119888 -0.304405 -0.232668 0.18609 -0.702304 -0.086523 0.191539 0.78664 0.156674 -0.472775 0.233978 -0.162753 -0.208835 -0.52355 0.00541744 0.0850227 -0.109844
35187 -1.69336 -0.892024 0.961717 1.13076 -1.19922 0.102118 2.50246 -3.30037 -1.63746 0.505872 -0.4891 0.340102 0.313465 -0.0277688 0.163502 0.140739 -0.48625 -0.196822 0.00500991 -0.6644 0.526607 0.221744 0.611255 0.209566 -0.450136 0.162157 -0.0911209 -0.286318 -0.619319 0.137533 0.0544954 -0.35032
34441 -1.72014 -0.935782 1.31487 0.921497 -1.21412 0.235522 2.49966 -3.34085 -1.63683 0.610006 -0.332161 0.528235 0.603042 -0.0504357 0.0150381 -0.0010854 -0.373465 -0.10245 0.0174298 -0.561105 0.2442 0.127734 0.753153 -0.0441529 -0.375061 0.29698 0.108878 -0.0997347 -0.390783 -0.0957982 -0.0318659 -0.349933
32576 -1.54598 -0.601086 1.30073 1.186 -1.32822 0.082145 2.49869 -3.06266 -1.44092 0.302066 -0.68381 0.626733 0.514459 0.291759 0.0250909 -0.074078 -0.102928 -0.185408 0.383449 -0.587101 0.117293 0.0136212 0.75495 -0.414333 -0.419943 0.169673 -0.180441 -0.199903 -0.146794 0.236789 0.0951531 -0.191943
33728 -1.71846 -0.868432 1.02173 1.23343 -1.1701 0.330096 2.52585 -3.36843 -1.69913 0.635282 -0.365948 0.590331 0.467043 0.234763 -0.0176914 -0.0706332 -0.0647738 -0.391783 0.323762 -0.650975 0.15245 0.168235 0.672235 0.0269601 -0.620638 0.157776 -0.223328 -0.426035 -0.192265 0.13598 -0.0355215 -0.132467
35419 -1.53681 -0.964301 0.985822 1.34153 -1.5107 0.419872 2.48699 -3.0418 -1.68672 0.548391 -0.606221 0.633479 0.603894 0.168803 0.112013 -0.281437 -0.134155 -0.376696 0.0640924 -0.821594 -0.0697489 0.17907 0.334846 0.174411 -0.620489 0.478558 -0.305876 -0.18124 -0.269918 0.0034993 -0.291487 -0.310668
36334 -1.63522 -0.89191 1.22 1.26434 -1.29366 0.202956 2.57747 -3.46488 -1.78745 0.624388 -0.524925 0.477852 0.273973 0.20683 0.0468319 0.0413233 -0.274652 -0.253726 0.124069 -0.659584 0.237349 0.192445 0.603165 -0.110453 -0.441298 0.224474 -0.212162 -0.274796 -0.407671 0.067413 0.0384508 -0.205312
32555 -1.28493 -0.575275 0.951812 0.894355 -1.05055 0.21171 1.84301 -2.39657 -0.913994 0.14069 -0.739608 0.49064 0.494147 0.239683 0.0199162 0.0101293 -0.206591 -0.216408 0.0397838 -0.817037 0.425356 0.159693 1.09073 -0.193378 -0.732857 0.334639 -0.122437 -0.491935 -0.51178 0.0836595 -0.0230425 -0.414204
35596 -1.77473 -0.8614 1.17084 1.22469 -1.16835 0.366331 2.50295 -3.51778 -1.78981 0.621368 -0.347826 0.497485 0.246561 0.023731 0.0295223 0.104662 -0.0350525 -0.193063 0.126481 -0.813071 0.176849 0.0322231 0.562989 -0.117038 -0.594984 0.232904 -0.16816 -0.46158 -0.158826 0.0452569 -0.0914524 -0.188838
35137 -1.68527 -1.0061 1.26788 0.818955 -1.26753 0.0575906 2.74579 -3.29622 -1.68507 0.819034 -0.442859 0.462332 0.372996 -0.0550157 0.149523 0.134147 -0.159558 -0.100878 -0.00424949 -0.970553 0.23868 0.210931 0.36376 -0.138371 -0.57643 0.217787 0.0905509 -0.538984 -0.430918 -0.162897 0.108688 -0.293774
34429 -1.70477 -0.999853 1.24437 1.179 -1.18294 0.103019 2.80451 -3.20887 -1.78978 0.80205 -0.361321 0.396031 0.465364 0.0970158 0.0813138 0.0352422 -0.318093 -0.140137 -0.143189 -0.74542 0.325688 -0.0275456 0.529051 0.107222 -0.417899 0.163627 -0.25074 -0.344906 -0.275763 0.103706 0.073312 -0.263566
36562 -1.7532 -1.15254 1.08945 1.17597 -1.13757 0.343712 2.53913 -3.32372 -1.59458 0.747488 -0.44868 0.175214 0.613862 0.238259 -0.107156 -0.159069 -0.119812 -0.423514 -0.00431721 -0.934236 0.342297 -0.0360848 0.71896 -0.20674 -0.247008 0.105512 -0.155711 -0.373124 -0.534026 0.221127 0.0131424 -0.227533
36675 -1.62748 -0.939085 1.00592 0.950517 -0.952717 0.177283 2.54066 -3.30975 -1.24445 0.517522 -0.682419 0.339824 0.362775 0.237689 0.352443 0.0590148 -0.239207 -0.327836 0.31497 -0.793713 0.146256 0.101368 0.910716 -0.181806 -0.394713 0.656297 -0.364865 -0.397435 -0.32377 0.144247 -0.466677 -0.0604909
33531 -1.73377 -0.910291 1.22197 0.997014 -1.10723 0.309156 2.53713 -3.54392 -1.70588 0.879285 -0.535857 0.467112 0.174763 0.0298845 0.148608 -0.0171161 -0.171943 -0.397923 -0.0601716 -0.692779 0.281842 -0.0382761 0.511729 -0.10703 -0.509704 0.117612 -0.233881 -0.303296 -0.393934 0.153574 -0.19097 -0.241246
33953 -1.621 -1.03605 1.18774 1.12734 -1.14378 0.197659 2.61495 -3.61192 -1.77094 0.752802 -0.31348 0.437969 0.247073 -0.0321157 0.0488279 -0.038501 -0.318984 -0.0291357 0.0727341 -0.701468 0.123278 0.0300423 0.725515 -0.187275 -0.512362 0.128792 -0.190965 -0.231093 -0.496221 0.156029 0.169641 -0.130146
31866 -1.41736 -0.603007 1.08725 0.878251 -1.03736 0.266999 2.30639 -3.00999 -1.26873 0.6054 -0.497722 0.51234 0.245083 0.44167 -0.0725418 0.242781 -0.180866 0.0624306 0.357859 -0.701512 0.21781 0.315621 0.898831 -0.0725852 -0.47391 0.140998 -0.353363 -0.472083 -0.582294 0.577759 -0.111426 -0.298899
36491 -1.38561 -0.755581 1.0771 0.754343 -1.12527 0.227877 2.39877 -3.22057 -1.40007 0.338834 -0.494633 0.51384 0.565398 0.283002 0.120837 -0.0717322 -0.248766 -0.0574402 0.0822894 -0.875167 0.316284 0.247697 0.73784 -0.041194 -0.638801 0.313877 -0.1305 -0.528257 -0.496015 0.409368 -0.124093 -0.422819
34735 -1.5443 -0.906055 1.23305 1.1295 -1.14522 0.175639 2.60999 -3.37302 -1.60921 0.696905 -0.414682 0.449987 0.457649 0.266499 0.034134 -0.048147 -0.318503 -0.0878264 0.0304965 -0.585635 0.411008 0.229754 0.582911 0.0196723 -0.676482 0.0334056 -0.224933 -0.157869 -0.391005 0.294692 -0.260643 -0.346335
36834 -1.53152 -0.840236 1.03988 1.10739 -1.04072 0.392873 2.56664 -3.22187 -1.45067 0.606769 -0.34701 0.496963 0.278747 0.0870127 -0.0567569 0.0927866 -0.256737 -0.127181 0.0784229 -0.871015 0.449841 0.124097 0.58963 -0.14062 -0.603139 0.16621 -0.0919645 -0.640559 -0.480304 0.0800798 -0.0906165 -0.531945
35559 -1.73396 -0.75916 1.24852 1.08415 -1.14321 0.374661 2.46099 -3.28748 -1.5744 0.496426 -0.512886 0.672955 0.102047 0.323394 0.0773725 0.231137 -0.528261 -0.332123 0.290872 -0.555294 0.0571471 0.02632 0.698067 -0.214172 -0.388513 0.155579 -0.170632 -0.392231 -0.365209 -0.0381654 0.0704554 -0.26081
33111 -1.45289 -0.615159 1.43327 0.987488 -1.01994 0.156484 2.42054 -2.70753 -1.17488 0.451161 -0.844671 0.335919 0.334793 0.0666324 0.0293156 0.186235 -0.303123 -0.288158 0.0814287 -0.732402 0.21175 0.26174 0.784605 0.018075 -0.756205 0.400073 -0.0438872 -0.639774 -0.349075 0.239815 -0.0979563 0.220426
36581 -1.66928 -0.989476 0.932727 1.04953 -0.99314 0.367145 2.47149 -3.43162 -1.50076 0.986448 -0.551075 0.566272 0.382453 0.0703472 0.195804 0.114024 -0.215283 -0.152609 0.3486 -0.707199 0.426662 0.107101 0.626657 0.168179 -0.856049 0.289432 -0.34336 -0.443131 -0.487016 0.0257804 -0.068131 -0.271203
31297 -1.56954 -0.842722 1.25008 1.04779 -1.13184 0.289652 2.39365 -2.95229 -1.24542 0.696545 -0.656606 0.569918 0.342519 0.0956492 -0.0132542 -0.0122389 -0.0388244 0.119824 -0.00786323 -0.906432 0.469404 0.252417 0.917987 0.222009 -0.866134 0.222756 -0.195763 -0.345075 -0.338496 0.178585 0.102563 -0.129937
34395 -1.79104 -0.784035 1.19503 0.985306 -0.973824 0.219234 2.60362 -3.52591 -1.53438 0.752503 -0.300735 0.53321 0.415966 0.112124 0.032391 -0.242615 -0.1535 -0.158847 0.128639 -0.711638 0.148324 0.405868 0.756186 0.179802 -0.713322 0.236358 -0.00370186 -0.163865 -0.435485 0.164087 0.0913063 -0.140317
31221 -1.39018 -0.799768 1.14931 1.14011 -1.27277 0.328373 2.30964 -3.24803 -1.34706 0.529497 -0.748195 0.609856 0.467556 0.275244 0.235853 0.0486263 -0.124921 0.0291461 -0.00625793 -0.690927 0.206898 -0.0467025 0.608081 -0.159366 -0.702462 0.134132 -0.176162 -0.261526 -0.687936 0.0319392 0.0355263 -0.228209
33032 -1.75807 -0.642192 1.24535 0.97785 -1.14637 0.391965 2.61568 -3.26401 -1.67696 0.660334 -0.608874 0.426401 0.140613 0.272226 -0.108098 0.0920046 -0.365116 -0.324533 0.222901 -0.585223 0.254637 -0.189084 0.521303 0.213255 -0.511038 0.17227 -0.367476 -0.454966 -0.192602 -0.0933295 0.0491629 -0.185548
35819 -1.67614 -0.769736 1.25974 1.29818 -1.21426 0.376203 2.61825 -3.38931 -1.73789 0.598828 -0.516879 0.297031 0.299094 0.0554582 -0.0322916 0.0655075 -0.291247 -0.104339 0.355308 -0.759097 0.338536 0.0144137 0.524762 0.00122498 -0.576985 0.250483 -0.239098 -0.267593 -0.232608 0.0475946 -0.0701997 -0.293977
33450 -1.37942 -0.965358 1.13475 0.99335 -1.45052 0.352202 2.15488 -3.4431 -1.49543 0.629057 -0.620533 0.523739 0.306017 0.183292 -0.212272 0.108359 -0.165262 -0.22761 0.046083 -0.705334 0.365247 0.145365 0.605436 -0.0835264 -0.423586 0.0459742 -0.201998 -0.500985 -0.384947 0.0434698 -0.0919614 -0.527942
32663 -1.83232 -0.85137 1.26867 1.18524 -1.06964 0.206747 2.70794 -3.26762 -1.8088 0.603216 -0.588171 0.340645 0.370549 0.191991 0.109072 0.0820135 -0.127424 -0.342577 -0.0288157 -0.707264 0.2028 -0.0689176 0.449192 -0.10663 -0.578022 0.151827 -0.380034 -0.168557 -0.284169 0.0729069 0.0116303 -0.176476
33431 -1.92257 -0.595552 1.21141 1.16298 -0.960454 0.168898 2.64119 -3.25405 -1.7727 0.719035 -0.31378 0.480101 0.470568 0.312781 -0.0114953 0.145822 -0.280445 -0.381765 -0.211842 -0.595061 0.290413 -0.0340611 0.467021 0.00073454 -0.448366 0.101904 -0.272579 -0.42638 -0.22803 0.0998375 -0.0539546 -0.331051
31040 -1.74089 -0.999153 1.06301 1.21493 -1.1417 0.179429 2.54386 -3.38018 -1.79617 0.691362 -0.578093 0.485359 0.427752 0.0694634 0.0619514 -0.0786527 -0.212434 -0.157003 -0.0231985 -0.746935 0.143847 0.11902 0.455924 -0.0222301 -0.682926 0.257138 -0.207924 -0.232693 -0.47072 0.220634 -0.000749459 -0.113015
36271 -1.74591 -0.867963 1.13806 1.06908 -1.17558 0.379424 2.5828 -3.36516 -1.65273 0.6871 -0.40215 0.515538 0.304334 0.0378629 -0.011377 0.0961035 -0.314448 -0.246482 0.177512 -0.571936 0.0561481 0.00835911 0.781025 0.181833 -0.527424 0.273044 -0.0825494 -0.484085 -0.245922 0.089137 0.0572388 -0.17852
32209 -1.67946 -0.747022 1.22702 1.1962 -1.17438 0.198057 2.38886 -3.38803 -1.567 0.68701 -0.485856 0.416524 0.459881 -0.110417 -0.117401 -0.00835859 -0.658114 -0.0800685 0.237578 -0.825489 0.185056 0.0423593 0.458546 -0.145087 -0.466799 0.396452 -0.372718 -0.260856 -0.499657 0.0282768 0.131379 -0.30805
34718 -1.62717 -0.930302 1.09524 1.25862 -1.04395 0.208496 2.63589 -3.24861 -1.57139 0.415451 -0.767673 0.299666 0.286375 0.0907197 0.0277879 -0.0242087 -0.209252 0.0541332 0.362157 -0.869419 0.218457 -0.00489963 0.70151 -0.00982225 -0.524513 0.336015 -0.279328 -0.229273 -0.405603 0.0593464 0.129856 -0.233196
36102 -1.38832 -0.535658 1.33809 0.998857 -0.987436 -0.0660645 2.53632 -3.30466 -1.43221 0.450924 -0.437506 0.502671 0.178782 0.18824 -0.0731499 -0.193111 -0.157435 -0.0020261 0.296319 -0.821979 0.352119 0.0278682 0.908541 -0.16456 -0.773967 0.40194 -0.413087 -0.331399 -0.493071 0.179354 -0.064187 -0.227907
201336 -0.562834 -0.319348 0.27134 0.293402 -0.393253 0.0883909 0.730841 -1.05094 -0.361915 0.124756 -0.318932 0.255701 0.134559 0.0231826 0.0215513 0.0516451 -0.153606 -0.0896248 0.0422949 -0.320298 0.191386 0.0444224 0.43002 -0.0730966 -0.300302 0.144828 -0.164227 -0.233809 -0.263051 0.0782789 0.00864488 -0.165491
33074 -1.67582 -1.07647 1.06524 1.3226 -1.1644 0.27628 2.48384 -3.56446 -1.83595 0.559728 -0.549571 0.477185 0.153948 -0.0968496 0.192799 0.0572163 -0.373986 -0.31898 -0.00944733 -0.624786 0.410078 0.112029 0.566817 0.0294201 -0.745655 0.298546 -0.292497 -0.307184 -0.43984 0.185352 0.23441 -0.237741
31080 -0.659645 -0.387869 0.374767 0.434566 -0.588343 0.0740706 0.999404 -1.32013 -0.455524 0.082489 -0.326204 0.280794 0.12544 0.0737318 0.0774822 0.00401552 -0.133606 -0.133664 0.0344834 -0.353661 0.159108 0.0311442 0.44468 -0.11764 -0.34074 0.232567 -0.124919 -0.274082 -0.315955 0.0666682 -0.0447228 -0.174236
35584 -1.72985 -0.978492 1.21246 1.10979 -1.17346 0.158324 2.62812 -3.64191 -1.70942 0.752854 -0.620706 0.519103 0.229608 0.0877745 0.227527 -0.0319948 -0.253231 -0.308477 0.0649026 -0.706143 0.280141 0.0277333 0.635387 -0.22876 -0.706494 0.397823 -0.164317 -0.262829 -0.311449 0.158091 -0.223485 -0.273588
35499 -1.56746 -0.851761 1.13542 0.914952 -1.21372 0.257577 2.18783 -3.08852 -1.31981 0.549911 -0.623923 0.470206 0.389372 0.0394019 0.162024 0.0274062 -0.461116 -0.150717 0.0544785 -0.765928 0.528733 0.140714 0.938284 -0.088231 -0.540898 0.140179 -0.328426 -0.626553 -0.612643 0.344442 -0.0664123 -0.316892
36549 -1.48606 -0.898477 1.27828 1.09555 -1.26938 0.234704 2.42342 -3.40267 -1.58169 0.762481 -0.479877 0.339028 0.303868 0.152927 0.136944 0.0852067 -0.391524 -0.036938 0.231338 -0.78354 0.258609 0.272879 0.583149 0.12974 -0.657303 0.281413 -0.175373 -0.283327 -0.418846 0.500877 -0.146955 -0.286932
34711 -1.69785 -0.98193 1.10773 1.16305 -0.817516 0.209149 2.66493 -3.56133 -1.63564 0.46134 -0.376679 0.300197 0.492736 0.129163 0.0879444 -0.00340208 -0.122022 -0.195739 0.266948 -0.733211 0.318712 0.124152 0.55225 -0.206979 -0.477975 0.159355 -0.153212 -0.426026 -0.274759 0.228174 0.0822018 -0.0417748
31855 -1.70965 -0.874511 1.1696 0.872628 -1.13833 0.20212 2.69152 -2.95774 -1.36545 0.591173 -0.778485 0.342377 0.452738 -0.0547385 -0.0953674 0.0193079 -0.228222 0.037165 -0.183191 -0.803735 0.30327 0.163355 0.801739 -0.0775177 -0.335173 0.281267 -0.157288 -0.328371 -0.466536 0.0852147 -0.180943 0.0490407
31352 -1.56156 -0.990656 1.19799 1.21955 -1.13398 0.17789 2.61302 -3.46438 -1.71603 0.727684 -0.549322 0.178365 0.414501 0.146966 0.0761383 0.224221 -0.337839 -0.224913 -0.0449496 -0.719236 0.270057 0.179889 0.455322 0.0120126 -0.540565 0.1326 0.0112209 -0.370056 -0.381871 -0.119945 -0.0922288 -0.141945
34373 -1.63568 -0.768274 1.31975 1.1023 -1.07208 0.149891 2.57917 -3.4549 -1.47343 0.801312 -0.296345 0.441641 0.305409 0.201795 0.0215852 -0.220892 -0.160833 -0.136862 0.275709 -0.838278 0.636993 0.177013 0.811668 -0.0466586 -0.696557 0.343904 -0.332848 -0.0958468 -0.592139 0.341882 -0.139868 -0.290406
31559 -1.59814 -0.698369 1.30785 1.16552 -1.10844 0.196879 2.53717 -3.33365 -1.65563 0.31216 -0.632286 0.366041 0.20742 0.142322 -0.0704422 0.0878079 -0.672033 -0.213688 0.12178 -0.605995 0.333006 -0.150924 0.376191 -0.114703 -0.588255 0.58311 -0.0932935 -0.291136 -0.344422 0.158218 0.240598 -0.0146233
33200 -1.68835 -1.05005 1.30337 0.999443 -1.06935 0.0233671 2.65085 -3.25685 -1.68395 0.524367 -0.604792 0.306122 0.368531 0.120118 0.0162879 0.081881 -0.131907 -0.00862043 0.150761 -0.818577 0.299693 -0.0669366 0.711394 0.0128465 -0.559021 0.516562 -0.120389 -0.429835 -0.253293 0.150237 0.0309002 0.0432961
35364 -1.65711 -0.900477 1.21877 1.27274 -1.07784 0.0497298 2.61427 -3.71178 -1.73585 0.67767 -0.503089 0.440996 0.292782 0.010614 0.0540731 -0.172801 -0.319279 -0.337587 0.00769194 -0.776152 0.125696 0.0438497 0.567424 -0.130204 -0.590109 0.239731 -0.311872 -0.425708 -0.437555 0.00127969 -0.123059 -0.144835
31270 -1.74513 -0.818656 0.843386 1.20493 -1.3239 0.386878 2.51023 -3.30532 -1.55979 0.564038 -0.566497 0.541895 0.203504 -0.198538 -0.069984 0.223724 -0.494232 -0.135251 0.056807 -0.788121 0.208104 -0.0139989 0.664952 -0.103663 -0.566025 0.0698409 -0.238881 -0.273466 -0.575126 0.0685788 -0.233115 -0.31813
35659 -1.82678 -0.750106 1.18679 1.02955 -0.957842 0.37238 2.74052 -3.52963 -1.61268 0.978498 -0.124564 0.490284 0.156598 -0.0505507 0.0828645 -0.0965831 -0.155838 -0.220133 0.28176 -0.654095 0.274853 0.180545 0.765332 0.130814 -0.487555 0.0217243 -0.289792 -0.2185 -0.23292 0.264708 0.103382 -0.214098
32381 -1.98734 -0.670242 1.18433 0.733701 -1.27529 -0.101548 2.28569 -3.10911 -1.39992 0.670717 -0.416384 0.425942 0.327348 -0.123534 0.00602121 0.138591 0.0483122 -0.165935 0.0406178 -0.913803 0.134712 0.11178 0.906161 0.175251 -0.352164 0.174203 -0.259815 -0.414777 -0.226523 -0.0807303 0.0845395 -0.219053
35805 -1.70686 -0.89035 1.09349 1.13461 -1.23407 0.0424555 2.5669 -3.49995 -1.6099 0.663312 -0.53447 0.337022 0.431147 -0.0813688 0.134691 0.161086 -0.383889 -0.167831 0.177 -0.625865 0.336911 0.0134345 0.737689 0.0595072 -0.538575 0.213426 -0.0657599 -0.286272 -0.305159 0.180964 0.0339257 -0.277631
36837 -1.63485 -0.858156 1.12854 1.30001 -1.24689 0.143199 2.51824 -3.25061 -1.77984 0.657033 -0.516965 0.500154 0.185415 -0.212406 0.105579 0.0895624 -0.330656 -0.137018 0.189709 -0.768186 0.114842 0.154659 0.528516 -0.0688984 -0.256139 0.239741 -0.0664529 -0.250824 -0.511141 0.297888 -0.0990114 -0.511216
32157 -1.79705 -1.20071 1.03469 1.06408 -1.23094 0.196947 3.15742 -3.71249 -1.70103 0.633452 -0.778054 0.405353 0.509815 -0.496219 0.548919 0.0258986 -0.326348 -0.504196 0.51198 -0.575814 0.632441 -0.035494 0.522457 -0.214698 -0.877711 -0.118791 -0.624269 -0.38406 -0.319443 -0.104675 0.128395 -0.0368137
117922 -0.480297 -0.297449 0.210269 0.252386 -0.348149 0.0236193 0.851684 -1.09484 -0.404904 0.135706 -0.368911 0.256471 0.327043 -0.202492 0.134998 0.0772228 -0.11727 -0.268821 0.0990258 -0.382011 0.336262 0.0582187 0.255062 -0.0631696 -0.278859 0.027194 -0.138415 -0.205596 -0.0450872 -0.0805765 0.0979107 -0.0379498
34404 -1.78193 -1.0045 1.17839 1.04816 -1.11605 0.158847 2.61877 -3.57919 -1.68882 0.765143 -0.544764 0.477595 0.287463 0.0831319 0.142899 -0.0497561 -0.532563 -0.28109 0.167866 -0.698185 0.0638815 -0.073671 0.604579 -0.349518 -0.594801 0.27799 -0.0365594 -0.285079 -0.337544 -0.00401752 -0.00458956 -0.257322
31607 -1.64607 -0.948237 1.0337 1.22618 -1.24474 -0.177243 2.50068 -3.73755 -1.62985 0.958259 -0.638684 0.31057 0.165006 0.1421 -0.0356417 0.296889 -0.302541 -0.428066 -0.0630984 -0.806255 0.142776 -0.088136 0.638022 -0.0644745 -0.772472 0.409291 -0.286683 0.0934283 -0.099286 0.0256564 -0.314321 -0.363187
36473 -1.7436 -0.935861 1.24581 0.939707 -1.38661 0.157036 2.53028 -3.36544 -1.82689 0.752798 -0.507936 0.140794 0.446038 0.155582 0.217024 -0.217163 -0.44231 -0.231967 0.247003 -0.677745 0.154804 0.128041 0.590478 0.00750262 -0.490884 0.260638 -0.000585596 -0.288285 -0.340839 0.279598 0.0456356 -0.33293
32914 -1.48303 -0.798558 1.26466 0.888475 -1.3453 0.233989 2.45302 -3.31039 -1.46159 0.504751 -0.732932 0.441291 0.299917 -0.0184386 -0.164006 0.187606 -0.400082 -0.222923 0.198313 -0.68552 0.236079 0.210343 0.671484 -0.0759746 -0.711651 0.306359 -0.248828 -0.40476 -0.460721 0.206355 -0.0345551 -0.150315
32625 -1.70053 -0.959166 1.22909 0.829675 -1.01585 0.2561 2.50148 -3.45215 -1.57058 0.361118 -0.717389 0.630153 0.230337 -0.207329 -0.244071 0.123735 -0.338389 -0.448881 0.100516 -0.634462 0.320702 -0.237545 0.453458 0.153086 -0.714963 0.397761 -0.138546 -0.233671 -0.565908 0.109575 0.261655 -0.220761
34406 -1.50334 -0.826062 0.741383 0.631817 -1.34316 0.381056 2.19332 -2.9189 -1.12042 0.593339 -0.850237 0.58441 0.489437 0.080691 -0.078982 0.2045 -0.493965 -0.077277 0.173055 -0.624628 0.290645 0.0554622 0.833504 -0.00242766 -0.58948 0.242317 -0.172727 -0.477758 -0.396059 0.473904 -0.01702 -0.531981
33136 -1.64067 -0.951406 1.23188 1.12936 -1.16446 0.230255 2.5381 -3.42656 -1.72322 0.687734 -0.334167 0.521046 0.237502 -0.0071209 0.1499 -0.111568 -0.398149 -0.16523 0.219425 -0.646822 0.235388 0.049231 0.612635 0.1441 -0.468696 0.106272 -0.263856 -0.295594 -0.446867 0.201708 -0.0343765 -0.275027
36202 -1.53882 -0.60574 1.09148 1.20826 -1.50191 -0.170969 2.25026 -3.06794 -1.55852 0.465123 -0.524465 0.445355 0.489576 0.195285 0.0896686 -0.129307 -0.371638 -0.280348 0.363185 -0.614872 0.187165 0.0172457 0.754655 -0.230899 -0.660655 0.179144 -0.200902 -0.314057 -0.284483 0.0294162 0.0420728 -0.118651
34997 -1.70705 -0.795112 1.07545 1.33445 -1.18536 0.337 2.5784 -3.32813 -1.88585 0.537979 -0.412724 0.397366 0.193955 0.0634182 -0.027558 0.229686 -0.0742642 -0.0909361 0.128422 -0.689314 0.0972526 0.0973511 0.511453 -0.19164 -0.603852 0.196719 -0.235012 -0.307556 -0.136396 0.261062 -0.189876 -0.138195
34080 -1.54395 -0.909788 1.36775 1.19478 -1.14036 0.148771 2.60093 -3.34104 -1.54169 0.868633 -0.414533 0.352172 0.33938 0.0204619 0.197385 -0.14202 -0.0941729 -0.173919 -0.0222758 -0.78987 0.278741 0.124544 0.652237 0.0484374 -0.63255 0.0533486 -0.165356 -0.0433643 -0.394091 0.262625 -0.0760057 -0.20803
35620 -1.67951 -0.772769 1.06811 1.15392 -1.20012 0.318652 2.63421 -3.40792 -1.71583 0.821213 -0.400736 0.523371 0.246325 0.0651029 -0.118182 0.0643917 -0.242026 -0.249989 0.191418 -0.752648 0.268945 0.189991 0.578587 -0.0281851 -0.475497 0.238138 -0.124367 -0.476638 -0.359285 0.091839 -0.0207391 -0.375608
35876 -1.67644 -0.871746 1.27367 1.06328 -1.21654 0.21367 2.57925 -3.56323 -1.7085 0.767014 -0.430156 0.448563 0.248361 -0.0446921 0.0060104 0.0146924 -0.28955 -0.378465 0.0585362 -0.756345 0.109461 0.0366538 0.507535 -0.125361 -0.426076 0.229361 -0.126321 -0.193009 -0.327893 0.0480295 -0.161341 -0.269173
35301 -1.42326 -0.950176 0.93312 1.1421 -1.12823 0.337282 2.35404 -3.12998 -1.34205 0.143638 -0.646003 0.492186 0.470166 0.163593 0.0970024 0.112309 0.0552473 -0.133792 0.0854682 -0.790042 0.271326 0.131538 0.872644 -0.241189 -0.718989 0.103411 -0.13378 -0.53596 -0.41065 0.234788 -0.0684008 -0.205321
33662 -1.71787 -0.978107 1.07632 1.3336 -1.10599 0.425447 2.34229 -3.72789 -1.78597 0.452974 -0.517154 0.302983 0.279619 -0.078704 -0.0955844 0.137328 -0.207379 -0.156861 0.00604768 -0.820061 0.325062 -0.0394751 0.619992 0.0226485 -0.570261 0.183566 0.0359822 -0.366777 -0.152838 0.165143 -0.1636 -0.332365
35912 -1.4681 -0.802516 1.23297 1.04912 -1.27936 0.294488 2.46667 -3.19102 -1.35218 0.452464 -0.639915 0.436636 0.439622 0.0933491 -0.111699 -0.0744315 -0.335699 -0.0418803 0.251577 -0.731084 0.384571 0.0590395 0.621365 0.0335407 -0.618784 0.192636 -0.246281 -0.224009 -0.482239 0.134462 -0.0386107 -0.399297
36398 -1.48428 -0.891627 0.909817 1.22491 -1.08345 0.39428 2.44917 -3.13833 -1.28541 0.459485 -0.450363 0.53818 0.376318 -0.0657765 0.111853 0.0451592 -0.479573 -0.359603 0.062963 -0.540319 0.708835 0.408611 0.856209 -0.094387 -0.647546 0.00840497 -0.201696 -0.418422 -0.484241 0.0888528 -0.0350443 -0.544739
35531 -1.56414 -1.01158 1.11887 1.14522 -1.07118 0.278853 2.54824 -3.33964 -1.57074 0.663174 -0.27545 0.713516 -0.0187014 0.263252 0.180961 0.337236 -0.283041 -0.337836 0.218645 -0.621794 0.156443 0.129968 0.788156 -0.241113 -0.268986 0.261819 -0.357124 -0.312453 -0.222818 -0.0378623 -0.108771 -0.32561
36296 -1.48663 -0.681248 1.00126 1.09436 -1.16809 0.378435 2.6632 -3.21727 -1.3567 0.548582 -0.553645 0.40787 0.363427 0.137989 0.0560767 0.0214051 -0.432328 -0.600886 0.102249 -0.633851 0.199106 0.0219411 0.787417 -0.0746008 -0.378163 0.335374 -0.236751 -0.311255 -0.494461 0.035862 -0.141306 -0.141442
31853 -1.79524 -0.696907 1.13042 0.914602 -1.13223 0.477478 2.50664 -3.4051 -1.63668 0.515558 -0.379423 0.404748 0.45574 -0.342286 0.124645 -0.04492 -0.209722 -0.411067 0.00523677 -0.783962 -0.0104949 0.028121 0.786838 -0.0340009 -0.668498 0.299888 -0.193894 -0.427881 -0.122316 0.152156 -0.132815 -0.0150788
32456 -1.43177 -1.08928 1.26459 1.11593 -1.17993 0.174131 2.75935 -3.12412 -1.61621 0.677422 -0.48118 0.492494 0.340555 -0.0628649 -0.0760406 0.241917 -0.233066 -0.0209409 0.190757 -0.86683 0.0835335 0.101832 0.651711 -0.0185062 -0.496614 0.466868 -0.215348 -0.630552 -0.362842 0.136477 -0.118509 -0.159684
33676 -1.66583 -0.904399 1.09757 0.986258 -0.943875 0.140263 2.51658 -3.58195 -1.30359 0.675168 -0.46665 0.432931 0.302779 -0.0535534 0.282943 -0.100195 -0.20363 -0.52879 -0.0238624 -1.02599 0.13387 -0.144795 0.365924 -0.260868 -0.568272 0.444765 -0.324811 -0.451608 -0.337321 0.00919043 -0.320153 -0.0526896
32531 -1.77676 -0.669699 1.15276 0.884035 -1.02919 0.275715 2.34384 -3.37099 -1.30521 0.609993 -0.485831 0.571823 0.272764 0.0435718 0.0920784 -0.26983 -0.205592 -0.404737 0.0463236 -0.729451 0.297656 -0.0343937 0.98268 -0.0360144 -0.72679 0.289949 -0.337875 -0.334857 -0.177825 0.0974355 -0.0601349 -0.201433
36200 -1.70043 -0.967538 1.09251 0.955914 -1.2524 0.0225029 2.49435 -3.35204 -1.68375 0.63091 -0.509618 0.264274 0.602382 0.253658 0.155853 -0.0150166 -0.34824 -0.10561 0.046507 -0.620604 0.404923 0.0823876 0.666911 0.157066 -0.194025 0.380892 -0.0722596 -0.431152 -0.297608 0.130118 -0.0545812 -0.183249
35251 -1.63443 -0.723721 1.32461 1.25397 -0.999441 0.186963 2.6849 -3.20955 -1.72435 0.546094 -0.558513 0.318367 0.475553 0.239576 0.304913 0.0473509 -0.161567 -0.166742 -0.248547 -0.712999 0.213151 0.0049645 0.452459 -0.0736387 -0.592559 0.284762 -0.359813 -0.417548 -0.308114 0.112951 0.13147 -0.202494
31604 -1.6792 -0.97123 1.17423 1.16691 -1.0272 0.343473 2.45131 -3.45497 -1.62517 0.487077 -0.379341 0.495632 0.202922 -0.0959005 0.0385284 0.0810588 -0.0950979 -0.0810595 -0.0896849 -0.994682 0.210988 0.13227 0.579614 -0.273065 -0.428212 0.271406 -0.138604 -0.30695 -0.291003 0.053348 -0.186692 -0.04381
34432 -1.85551 -0.557124 0.819663 1.02632 -1.22818 0.0975466 2.45465 -3.23328 -1.66526 0.662009 -0.444912 0.362001 0.283036 0.166854 0.0362443 0.341587 -0.364112 0.0088111 0.397361 -0.666605 0.230736 0.153482 0.678435 -0.165007 -0.370466 0.201025 -0.0700849 -0.357198 -0.334298 0.43788 -0.168166 -0.154782
32598 -1.71129 -0.889569 1.14795 1.2675 -1.15146 0.456049 2.45743 -3.62745 -1.87809 0.537617 -0.469246 0.389678 0.281682 0.147178 -0.00429273 0.156596 -0.135627 -0.0997263 0.0808624 -0.862276 0.264012 0.0895957 0.525474 -0.0803051 -0.638756 0.228907 -0.204819 -0.443444 -0.268407 -0.00797466 -0.0942379 -0.329959
33666 -1.63033 -0.915375 1.12289 1.14349 -1.24024 0.461646 2.52633 -3.42149 -1.9837 0.417531 -0.389616 0.378313 0.152387 -0.0789797 0.0121505 0.0164911 -0.229442 -0.110875 0.123876 -0.717316 0.165418 -0.0937223 0.66451 0.0592164 -0.547136 0.261196 -0.13269 -0.464158 -0.111377 -0.0215606 -0.0543496 -0.137506
35647 -1.38924 -0.969465 0.872466 1.07323 -1.17997 0.229763 2.52457 -3.45005 -1.42648 0.487198 -0.698392 0.488765 0.209427 0.0617447 0.277123 0.114448 -0.472627 -0.483067 0.151822 -0.60262 0.00983143 0.229823 0.67719 -0.114465 -0.561777 0.174874 -0.0852804 -0.23474 -0.264273 -0.140044 -0.00305054 -0.483346
36269 -1.59427 -0.994166 1.39958 1.19262 -1.05472 0.153461 2.83804 -3.28111 -1.7395 0.638457 -0.551765 0.366903 0.190149 -0.172369 0.120943 0.0639544 -0.123425 -0.0434842 0.197487 -0.758122 0.187396 0.0152895 0.589818 -0.288596 -0.628523 0.318566 -0.0441636 -0.286281 -0.351023 0.157254 -0.0275485 0.0452914
36816 -1.42662 -0.704607 1.26745 1.09502 -0.976949 0.00121595 2.52072 -3.01032 -1.01579 0.672025 -0.575057 0.478222 0.178448 0.118352 -0.040471 -0.119609 -0.291236 -0.226546 0.423103 -0.925437 0.360839 0.149215 0.821946 -0.0482058 -0.514714 0.39546 -0.472243 -0.615809 -0.654539 0.0876111 -0.364934 -0.436515
34345 -1.4783 -0.903251 1.22633 1.03527 -1.0633 0.327695 2.18671 -3.04346 -1.16266 0.649999 -0.768182 0.549752 0.461524 -0.0103008 0.15381 -0.022868 -0.192162 -0.278545 0.0439234 -0.720159 0.368347 0.24902 0.856421 -0.0619599 -0.721891 0.152609 -0.316455 -0.452193 -0.819495 0.0444771 -0.117502 -0.352538
36916 -1.3451 -0.877661 1.10651 1.06185 -1.22259 0.449996 2.31699 -3.16869 -1.31467 0.596482 -0.671972 0.504787 0.42501 0.126463 0.14585 -0.0287952 -0.371772 -0.230947 -0.00403076 -0.772801 0.236855 0.28892 0.749503 0.043767 -0.639396 0.200809 -0.126517 -0.617796 -0.525717 0.287543 -0.0966093 -0.369312
32453 -1.4948 -0.658408 1.13 0.963464 -1.14995 0.195338 2.30371 -3.07182 -1.25315 0.542069 -0.676344 0.489853 0.396837 0.0075927 0.229957 0.0103251 -0.306743 -0.0968247 0.197102 -0.671579 0.181122 0.0642186 0.81681 0.155058 -0.847512 0.269528 -0.272857 -0.321 -0.472267 0.230117 -0.0425401 -0.229133
34927 -1.5795 -0.828764 1.2646 1.0085 -0.932093 0.0654967 2.58218 -3.31782 -1.34371 0.813666 -0.443223 0.430676 0.34473 0.128687 -0.00666081 -0.326825 -0.0825654 -0.325788 0.178098 -0.78026 0.189295 0.21509 0.72389 0.0413527 -0.606658 0.208044 -0.436864 -0.313424 -0.347838 0.181324 -0.151739 0.0134179
33137 -1.49255 -0.870286 1.10997 1.05617 -1.1124 0.364417 2.38989 -3.31415 -1.35954 0.710293 -0.54388 0.545902 0.355991 -0.00601976 0.156537 0.246103 -0.277358 -0.321777 0.160521 -0.719604 0.250042 0.1331 0.574372 0.178959 -0.651392 0.162561 -0.306802 -0.500662 -0.48944 0.335345 0.0159763 -0.269114
35300 -1.87997 -0.637533 1.20834 1.04867 -1.16253 0.286733 2.40807 -3.42619 -1.71754 0.67665 -0.512574 0.474677 0.228662 -0.248808 0.157844 -0.0889332 -0.213376 -0.201686 0.0538887 -0.646307 0.198885 0.0858251 0.661902 0.132089 -0.424081 0.260491 -0.218621 -0.136834 -0.431668 0.0750341 -0.12212 -0.101635
35024 -1.8045 -0.923601 1.13091 1.07116 -1.04702 0.229562 2.60071 -3.35211 -1.84322 0.529973 -0.530713 0.433822 0.0474051 0.0608788 -0.051426 -0.116116 -0.105425 -0.232592 0.0313291 -0.695236 0.32517 0.181525 0.712416 0.036195 -0.441524 0.295845 -0.170941 -0.343696 -0.310864 0.0172164 -0.0333391 -0.138753
33107 -1.62334 -0.684562 1.19957 0.879572 -1.28892 0.139135 2.30674 -3.30378 -1.50426 0.543587 -0.848618 0.54944 0.47244 0.173407 -0.0179215 -0.0411127 -0.117072 -0.0586349 0.12853 -0.691195 0.154305 -0.100965 0.736436 -0.0097111 -0.688166 0.268909 -0.312478 -0.311368 -0.299808 0.107281 0.141913 -0.34813
32622 -1.56964 -0.730005 0.907157 0.851978 -1.30654 0.0266506 2.33655 -3.06761 -1.45516 0.562367 -0.516807 0.602039 0.501796 -0.0419866 0.0469669 0.237278 -0.349003 -0.0387281 0.160394 -0.69196 0.366131 0.177126 0.763289 0.178208 -0.364924 0.44135 0.0513511 -0.376523 -0.599933 0.380289 -0.259241 -0.382257
35376 -1.77088 -0.928531 1.22683 1.11804 -1.01783 0.211603 2.74412 -3.19814 -1.73805 0.7559 -0.239171 0.356504 0.248231 0.195863 0.185376 0.00843027 -0.122364 -0.374532 -0.142176 -0.889491 0.254781 0.109382 0.481255 -0.0464583 -0.329053 0.143062 -0.110712 -0.598335 -0.217682 0.204487 0.16993 -0.33163
35795 -1.5565 -1.0793 1.14296 1.16172 -1.1791 0.243922 2.61945 -3.38584 -1.63606 0.461981 -0.5185 0.401264 0.359244 0.0993543 -0.00917098 -0.0261702 -0.367734 -0.0405805 0.211683 -0.819203 0.209387 0.0915153 0.630675 0.0320791 -0.467925 0.0453756 -0.277854 -0.202635 -0.54991 0.0168894 0.0309276 -0.273837
35927 -1.60754 -0.920276 1.25389 1.0921 -1.00621 -0.0824951 2.63253 -3.42958 -1.49256 0.867799 -0.542774 0.359686 0.382059 -0.0438987 0.0535815 0.0757219 -0.275988 -0.165958 0.15526 -0.812695 0.0931476 -0.00377601 0.662732 -0.15518 -0.549607 0.42041 -0.452024 -0.332295 -0.0755312 -0.0253128 -0.221098 -0.225552
33237 -1.36776 -0.635401 0.964095 1.11904 -0.980979 0.118498 2.5248 -3.10283 -1.08981 0.635387 -0.622105 0.416473 0.281591 0.0292149 0.00995164 -0.102192 -0.329721 -0.0872175 0.287071 -0.949163 0.109075 0.0780381 0.783544 -0.190609 -0.427876 0.548341 -0.449295 -0.539922 -0.745003 0.117159 -0.0710784 -0.423132
35757 -1.28409 -0.68072 0.92391 1.01177 -1.26461 0.301676 2.43901 -3.18987 -1.34956 0.251855 -0.674589 0.519284 0.405075 0.189486 0.24949 0.0149066 -0.135738 -0.225487 0.112688 -0.754133 0.405931 0.158801 0.543653 0.0287253 -0.680774 0.255624 -0.322527 -0.349294 -0.56958 0.16943 -0.192562 -0.511733
33404 -1.53238 -0.851832 1.26988 1.18645 -1.38004 0.34481 2.51457 -3.27852 -1.67957 0.595539 -0.482221 0.505673 0.353047 0.2056 0.061464 0.0533869 -0.263523 -0.324347 0.351059 -0.679269 0.184924 -0.0117475 0.664144 8.42844e-06 -0.348392 0.134244 -0.198966 -0.350438 -0.318438 0.118927 0.00802099 -0.280971
32280 -1.58887 -0.636924 1.36467 1.18025 -1.1358 0.336215 2.5245 -3.27773 -1.66725 0.588265 -0.440119 0.530631 0.420759 0.195579 -0.157913 0.0658305 -0.237923 -0.337847 0.308478 -0.628481 0.339238 -0.0312801 0.607548 -0.0507923 -0.47549 0.250898 -0.156207 -0.078921 -0.394423 0.104556 0.0441155 -0.421449
31643 -1.78567 -0.789297 0.983871 1.08384 -1.36482 0.222637 2.38064 -3.48266 -1.63534 0.795925 -0.57763 0.219344 0.561097 -0.0157456 0.018281 0.025481 -0.500784 0.123963 0.0758189 -0.788856 0.261204 -0.0426123 0.545754 -0.347725 -0.233766 0.366199 -0.0616396 -0.414408 -0.171087 0.317403 0.0800853 -0.156856
31488 -1.58153 -1.17643 0.923578 0.909331 -0.951252 0.461936 2.34862 -3.24749 -1.20788 0.65849 -0.667934 0.519408 0.294768 0.345681 0.236778 0.195906 -0.334016 -0.294084 0.0719029 -0.711923 0.149635 0.131162 0.905155 -0.140978 -0.640564 0.542956 0.0484886 -0.25303 -0.301959 0.0864191 -0.179465 -0.221012
34462 -1.49339 -1.1109 1.13233 1.02423 -1.04048 0.390315 2.60848 -3.43819 -1.4067 0.63487 -0.68653 0.545871 0.29339 0.22764 0.348966 0.0693004 -0.253372 -0.344706 0.183689 -0.675276 0.270236 0.0131161 0.850336 -0.251767 -0.426283 0.316196 -0.294317 -0.314136 -0.294037 -0.111393 -0.238126 -0.216608
34194 -1.57071 -0.815779 1.10396 1.27582 -1.13601 0.287229 2.57419 -3.30582 -1.36232 0.589926 -0.781533 0.55998 0.00550872 0.08087 0.16666 -0.049044 -0.0808084 -0.155399 0.158706 -0.733585 0.390317 0.148758 0.787491 -0.077333 -0.386198 0.445362 -0.189456 -0.366117 -0.286142 0.107527 -0.194701 -0.272734
34453 -1.60358 -0.956244 0.902041 0.989013 -1.14116 0.0923453 2.34935 -3.34304 -1.58877 0.501277 -0.742971 0.467866 0.146169 -0.0749846 0.142617 -0.0126377 -0.276723 -0.144423 0.304062 -0.606695 0.329478 0.337833 0.624814 0.106083 -0.744044 0.134604 -0.164207 -0.421804 -0.523314 0.288444 -0.062127 -0.156432
33658 -1.6785 -0.944339 0.870867 1.0161 -1.04546 0.272457 2.4886 -3.25036 -1.59302 0.561865 -0.429008 0.442049 0.585418 -0.0876798 -0.123048 0.337493 0.0759707 0.0307173 0.252403 -0.724441 0.0671057 0.103107 0.731553 -0.152983 -0.755419 0.146485 -0.176011 -0.230712 -0.234972 0.24289 -0.248951 -0.08791
35783 -1.8428 -0.765288 1.27906 0.961845 -1.15045 0.32196 2.43404 -3.54948 -1.61948 0.518743 -0.355933 0.488423 0.548147 -0.150702 0.0265185 0.0610276 -0.23038 -0.240679 0.0766247 -0.709819 -0.114491 0.125152 0.814379 0.135414 -0.484011 0.267197 -0.224547 -0.103786 -0.259852 0.0102081 0.170709 -0.169428
36388 -1.66738 -0.898943 1.25198 1.19722 -1.07628 0.189001 2.56764 -3.70068 -1.66507 0.72363 -0.550859 0.348909 0.197411 -0.0835387 0.141482 -0.0381788 -0.322143 -0.312244 0.0724607 -0.769512 0.154178 -0.0172633 0.60674 -0.230522 -0.623413 0.302099 -0.183545 -0.22486 -0.254168 0.0423408 -0.0955806 -0.237725
36611 -1.89185 -0.930153 1.07324 1.18093 -1.23664 0.225509 2.54308 -3.30484 -1.79454 0.741579 -0.63873 0.308274 0.113317 0.127851 0.222399 0.103411 -0.426866 -0.104978 0.118981 -0.748514 0.319623 -0.0645279 0.495435 -0.0805395 -0.426226 0.134704 -0.0784038 -0.181043 -0.428276 0.0632658 -0.0663346 -0.336749
32802 -1.3133 -0.648658 0.862473 0.74942 -1.04715 0.388873 2.3741 -2.87045 -1.20454 0.620453 -0.778471 0.562902 0.470556 0.274928 0.0936782 0.013983 -0.196586 -0.0370491 0.358065 -0.567646 0.243682 0.160273 1.05134 0.0800883 -0.649885 0.382144 -0.311994 -0.539594 -0.579369 0.217359 -0.195613 -0.39367
33958 -1.57547 -0.694895 1.15528 1.26361 -1.07827 0.175366 2.54671 -3.49869 -1.48365 0.835825 -0.467383 0.395873 0.329289 0.148984 0.130106 -0.00106046 -0.359149 -0.0950038 0.226956 -0.637475 0.372886 0.223521 0.558199 0.0562405 -0.595963 0.0721362 -0.169689 -0.286853 -0.37988 0.468125 -0.190055 -0.068597
33628 -1.56892 -0.812058 1.15457 1.10603 -1.30261 0.0834953 2.50684 -3.49105 -1.68827 0.522118 -0.227908 0.493099 0.368326 0.0907249 0.0396221 -0.0518712 -0.2531 -0.237366 -0.0159246 -0.789212 0.306552 0.223433 0.599665 -0.00134089 -0.541479 0.0645088 -0.0386377 -0.221534 -0.301599 0.10847 -0.0981688 -0.126938
33405 -1.72728 -0.932381 1.31769 1.08498 -1.13665 0.205578 2.60424 -3.49661 -1.73505 0.612131 -0.426975 0.4465 0.177013 -0.118174 0.095824 -0.132144 -0.335655 -0.13986 0.131342 -0.753893 0.12893 0.175905 0.814687 0.22013 -0.493388 0.148277 -0.211321 -0.268301 -0.511634 0.052828 -0.0595275 -0.164309
35465 -1.49081 -0.864916 1.19019 1.20332 -1.02162 0.353375 2.30991 -3.24879 -1.46961 0.87014 -0.562066 0.372134 0.249063 0.240771 -0.00189747 0.0509665 -0.439605 0.00806245 0.0843324 -0.708397 0.376635 0.273753 0.752936 0.0159641 -0.557518 0.150833 -0.147093 -0.410343 -0.519912 0.327936 -0.11867 -0.313508
36517 -1.48534 -1.14252 1.0038 1.09819 -1.29638 0.172975 2.50159 -3.48239 -1.68195 0.607172 -0.48605 0.461833 0.254739 0.0974624 -0.0968336 0.123153 -0.33558 -0.0963478 0.178339 -0.806086 0.226303 0.256942 0.592667 -0.00784121 -0.622777 0.290612 -0.204501 -0.311229 -0.185372 0.304406 -0.0594663 -0.323203
30926 -1.65622 -0.960969 1.18091 1.04726 -1.28928 -0.0125474 2.64191 -3.27541 -1.73168 0.947616 -0.424024 0.154168 0.425132 -0.00171984 0.00153369 0.157664 -0.00251294 -0.279948 -0.0427505 -0.814477 0.417122 0.264753 0.593056 -0.0515895 -0.256893 0.193013 0.0589933 -0.371334 -0.567525 -0.209588 0.114941 -0.301257
32836 -1.50009 -0.951922 1.3106 0.94189 -1.31386 -0.0603078 2.79451 -3.26773 -1.71824 0.963195 -0.56233 0.354398 0.379803 -0.138302 -0.118121 0.341726 -0.081289 -0.220769 0.171393 -0.76088 0.206046 0.245098 0.430199 -0.135086 -0.568711 0.207905 -0.286072 -0.39508 -0.395728 -0.218341 0.18606 -0.576307
36462 -1.61493 -0.912047 1.31674 1.03339 -1.23665 0.0431533 2.60162 -3.14457 -1.61609 0.800387 -0.524346 0.371546 0.419311 0.00567975 -0.0189466 0.221149 -0.0604049 -0.15305 0.0168003 -0.79427 0.292668 0.269098 0.504176 -0.0901789 -0.536238 0.270827 0.0267128 -0.295939 -0.710446 -0.391474 0.075481 -0.322908
32168 -1.48104 -0.810572 1.16388 1.04809 -1.09738 0.130964 2.48936 -2.95502 -1.30371 0.557457 -0.636964 0.645219 0.446089 0.127191 0.167681 0.222954 -0.183444 -0.174814 -0.17233 -0.838506 0.466159 0.301167 0.624886 -0.0334494 -0.502881 0.398343 0.0315731 -0.5421 -0.404156 -0.146614 0.00343264 -0.387479
34639 -1.611 -0.855487 1.25006 1.13012 -1.13565 0.0916296 2.69857 -3.32845 -1.66837 0.558577 -0.640179 0.425511 0.446355 0.185421 0.0264467 0.0514306 -0.20749 -0.156514 0.0543759 -0.653061 0.364007 -0.0926486 0.507046 0.0562803 -0.612658 0.199161 -0.110565 -0.452766 -0.274163 0.0355789 -0.106978 -0.144739
31472 -1.55742 -0.742609 1.16655 0.954094 -1.13212 0.184899 2.51856 -3.12094 -1.42664 0.772375 -0.565267 0.513283 0.317625 0.283476 0.0253275 0.0253431 -0.233494 -0.00248116 -0.0118251 -0.753965 0.336017 0.203656 0.865688 0.039155 -0.790622 0.295706 -0.241879 -0.407698 -0.480578 0.240391 -0.159454 -0.47117
30988 -1.68815 -0.949237 1.08616 1.13161 -1.16339 0.258226 2.55124 -3.58347 -1.74655 0.711176 -0.441278 0.353349 0.333158 -0.0522208 0.221748 0.0420792 -0.263349 -0.0404087 0.181982 -0.751476 0.322769 0.191887 0.558096 -0.00483766 -0.699985 0.233639 -0.0598928 -0.474592 -0.401906 0.388916 0.0514189 -0.0925561
34334 -1.60031 -0.888442 1.11016 1.16569 -1.27092 0.246266 2.56643 -3.35378 -1.65604 0.718365 -0.579169 0.240563 0.226615 0.124554 -0.0378154 -0.136449 -0.570287 -0.293028 0.22401 -0.617952 0.247876 0.108875 0.615513 0.149819 -0.455958 0.131407 -0.315668 -0.228698 -0.34911 0.0153655 -0.0434927 -0.356038
32985 -1.57884 -0.649686 1.18643 1.00595 -1.24043 0.436048 2.41192 -3.20688 -1.32801 0.852953 -0.700591 0.484889 0.235083 0.210733 -0.123947 -0.0830411 -0.453964 -0.151544 0.182478 -0.834702 0.401092 0.108139 0.545394 0.174008 -0.572235 0.245625 -0.577428 -0.312758 -0.581658 -0.110019 -0.131396 -0.291258
35759 -1.63785 -0.806727 1.31026 1.12445 -1.2305 0.32642 2.54023 -3.49121 -1.75512 0.679391 -0.32422 0.352075 0.309191 -0.0431759 0.0164438 0.0909478 -0.299813 -0.222781 0.0474979 -0.790912 0.119522 -0.026042 0.616695 -0.13457 -0.461267 0.260465 -0.285402 -0.309085 -0.313827 0.112435 -0.0845246 -0.110007
32341 -1.49761 -0.863285 1.25152 0.976119 -1.22594 0.232864 2.71314 -3.18494 -1.78768 0.72679 -0.612134 0.362077 0.156961 0.0526755 0.0847253 0.175445 -0.130523 -0.233025 0.306951 -0.63789 0.183778 -0.00279414 0.481861 -0.156697 -0.687585 0.219655 -0.0575914 -0.344369 -0.478939 0.0501362 0.16146 -0.248804
31645 -1.79165 -0.892443 1.08144 1.12677 -1.06761 0.304573 2.6098 -3.26226 -1.65439 0.50101 -0.3005 0.304022 0.576746 -0.0727684 -0.0944636 0.0983935 -0.411505 -0.252965 0.0442105 -0.826142 0.167176 0.00017628 0.50789 0.0762809 -0.427267 0.0990211 -0.215218 -0.179059 -0.564565 0.13904 -0.024959 -0.223241
32458 -1.67653 -0.803761 1.15972 1.23052 -1.21708 0.286325 2.61687 -3.20902 -1.75155 0.611802 -0.503371 0.415727 0.203024 0.00729323 0.0724395 0.0789365 -0.240633 -0.52087 0.271707 -0.509479 0.160148 0.0936115 0.585159 -0.0448534 -0.287111 0.260069 -0.146271 -0.468208 -0.233105 0.161062 -0.173269 -0.251673
34385 -1.83093 -0.853573 1.15463 1.05385 -1.12556 0.292895 2.39021 -3.58643 -1.73741 0.456915 -0.331165 0.535342 0.304507 -0.303392 0.113533 0.0703645 -0.145341 -0.400744 0.0878331 -0.71784 0.0927997 0.206082 0.668727 0.035983 -0.52222 0.208651 -0.15339 -0.085372 -0.472669 0.157208 0.163507 -0.0542048
35823 -1.69017 -1.09626 1.19886 1.14871 -0.784525 0.164848 2.59364 -3.7121 -1.526 0.635588 -0.669912 0.392338 0.165613 0.0370255 0.304314 0.00195356 -0.302525 -0.392674 0.0891068 -0.751219 0.0775019 -0.0105793 0.665246 -0.101607 -0.488753 0.484762 -0.262049 0.0242211 -0.278814 -0.0883218 -0.294889 -0.444377
36298 -1.35357 -0.710332 1.11833 0.831009 -1.29439 0.150213 2.38896 -2.85855 -1.15668 0.380088 -0.553654 0.442576 0.423684 0.0789751 0.28032 0.113721 -0.283939 -0.271791 -0.0695416 -0.825316 0.318875 0.11981 0.878667 -0.297342 -0.331119 0.491595 -0.102249 -0.302331 -0.565919 0.246595 -0.184146 -0.348238
36554 -1.4666 -1.09161 1.1713 1.06295 -1.30281 0.406988 2.33507 -3.18686 -1.42244 0.650686 -0.473519 0.54727 0.513903 0.0771245 0.283783 0.131295 -0.21605 -0.397387 0.105774 -0.881895 0.323532 0.0630213 0.48216 -0.199126 -0.46249 0.454713 -0.268867 -0.39679 -0.378219 0.0610642 -0.200657 -0.218638
34854 -1.59482 -1.03371 1.2411 0.915571 -0.914092 0.170561 2.5021 -3.65206 -1.38404 0.808048 -0.506796 0.457307 0.227537 0.0168552 -0.000599291 0.0104572 -0.296885 -0.568587 0.114508 -1.02927 0.162079 -0.138548 0.380229 -0.291492 -0.741739 0.479879 -0.235579 -0.198888 -0.257955 0.0587309 -0.646091 -0.222772
31937 -1.689 -0.927623 1.25608 1.01178 -1.13077 0.253016 2.73156 -3.37378 -1.70522 0.62064 -0.56333 0.422012 0.146898 -0.00306711 0.0435219 -0.0246283 -0.190798 -0.217156 0.167306 -0.730513 0.251563 0.0321418 0.490131 -0.161168 -0.505889 0.370061 -0.176995 -0.40487 -0.387985 0.0202252 -0.0926276 -0.059764
34876 -1.65143 -0.697047 1.38157 0.79103 -1.19037 0.335638 2.63431 -3.2759 -1.51818 0.452955 -0.720595 0.5645 0.0919487 0.239053 -0.213382 0.0771107 -0.607207 -0.504488 -0.0642108 -0.547824 0.264552 -0.418675 0.39451 -0.0429811 -0.652807 0.430239 0.186922 -0.466822 -0.383263 0.0657357 0.325951 -0.0989449
35953 -1.7675 -0.777783 0.930122 1.16621 -1.09651 0.122632 2.34017 -3.30979 -1.36715 0.583814 -0.397503 0.410922 0.378049 0.0424902 -0.101304 0.256059 -0.297796 -0.292749 0.0916351 -0.680667 0.289556 0.249663 0.891718 -0.0107047 -0.173047 0.19577 -0.328548 -0.0996338 -0.561861 -0.167989 -0.108493 0.0381548
35292 -1.6429 -1.06285 1.01944 1.16864 -1.13185 0.114134 2.52504 -3.70083 -1.73182 0.820236 -0.578154 0.333196 0.226117 0.220282 0.0164728 0.121194 -0.352661 -0.330977 0.027793 -0.753152 0.151593 -0.0472992 0.524115 -0.0998998 -0.549175 0.351125 -0.196274 -0.172982 -0.33097 0.0789559 -0.279598 -0.227571
31007 -1.5254 -0.674205 1.23055 0.980138 -1.10774 0.0090981 2.40503 -3.35511 -1.34221 0.723826 -0.444023 0.231126 0.250093 -0.374869 -0.229292 -0.0266812 -0.406234 -0.286938 -0.00645691 -1.00231 0.143126 -0.307435 0.721065 -0.157538 -0.676687 0.429893 -0.537116 -0.280846 -0.378542 -0.178367 -0.126209 -0.111159
36314 -1.48254 -0.831326 1.15721 0.971413 -1.19341 0.284973 2.2298 -2.83406 -1.26557 0.317994 -0.664219 0.411909 0.376421 -0.0343582 0.0415499 0.0338753 -0.359961 -0.250773 0.188526 -0.796886 0.34025 0.143022 0.930334 -0.228987 -0.656151 0.45605 -0.333736 -0.551782 -0.606511 0.148868 -0.0974004 -0.275179
35627 -1.70203 -0.923083 1.28852 1.21496 -1.07789 0.142096 2.64955 -3.75908 -1.70286 0.700751 -0.531274 0.498206 0.32923 0.0556024 0.125724 -0.131886 -0.357006 -0.148223 0.0984858 -0.778035 0.277454 0.0984236 0.62371 -0.1795 -0.801307 0.300473 -0.145763 -0.450576 -0.411135 0.0136188 -0.0866666 -0.220162
531949 -0.492027 -0.230155 0.434535 0.403128 -0.442236 0.059054 0.858819 -1.16185 -0.440742 0.136163 -0.27532 0.224259 0.173221 -0.0110362 0.05986 0.0133941 -0.0965091 -0.139062 0.0617331 -0.284735 0.126576 -0.0122577 0.409646 -0.0551897 -0.377649 0.183895 -0.116085 -0.217009 -0.289186 0.0949805 -0.00803621 -0.1378
33129 -1.69053 -0.884256 1.29811 1.25736 -1.20254 0.254838 2.66379 -3.66146 -1.77387 0.690533 -0.551709 0.541684 0.287219 -0.0467251 0.1404 -0.0727632 -0.30505 -0.334164 0.111909 -0.756931 0.301561 0.114649 0.533988 -0.0687077 -0.719608 0.396877 -0.172732 -0.385647 -0.488572 0.145901 -0.0275788 -0.255039
34075 -1.42654 -0.516793 0.866619 0.851984 -1.51636 -0.155018 2.24933 -2.81125 -1.10433 0.173464 -0.702332 0.56228 0.551109 -0.111847 0.239108 -0.0335375 -0.346988 -0.133728 0.0674811 -0.648028 0.608906 0.22343 0.904845 -0.250481 -0.326884 0.508998 -0.080823 -0.470041 -0.171114 0.105034 -0.0156256 -0.695699
36521 -1.34197 -0.976775 1.04129 1.3073 -1.6958 0.316094 2.36874 -3.1457 -1.49588 0.616939 -0.608378 0.7179 0.650303 0.0891559 0.212929 -0.246769 -0.297116 -0.519393 -0.0667132 -0.888694 -0.0233471 -0.0977622 0.348667 0.0924572 -0.725199 0.559237 -0.104291 -0.384946 -0.315233 0.0944985 -0.0801907 -0.198415
34440 -1.49676 -0.961811 1.17852 1.06978 -1.26502 0.18346 2.79911 -3.17483 -1.55868 0.674752 -0.450247 0.425278 0.568337 -0.123453 0.0101136 -0.0153273 -0.491113 -0.30978 0.108762 -0.564575 0.272574 0.248153 0.650373 0.0435183 -0.421804 0.308422 0.0694061 -0.429445 -0.424018 0.212834 -0.155189 -0.290421
32489 -1.57336 -1.04932 1.2905 1.11796 -1.25586 0.402457 2.58342 -3.60146 -1.7431 0.900603 -0.4515 0.650752 0.315572 -0.0576483 0.18921 0.0130904 -0.345475 -0.227097 0.0586041 -0.756971 0.262102 0.0696565 0.557145 -0.137778 -0.655731 0.274873 -0.104305 -0.593202 -0.324413 0.184853 -0.0201597 -0.301439
34359 -1.51699 -0.863194 1.24558 0.95135 -1.25978 0.0776328 2.233 -3.2898 -1.53476 0.651404 -0.709906 0.64399 0.499602 0.0750765 0.0356362 -0.085137 -0.198697 -0.217285 0.0640441 -0.730053 0.2107 0.272842 0.635874 0.0476703 -0.714315 0.247963 -0.00289967 -0.446219 -0.624271 0.0376408 -0.040755 -0.398935
33889 -1.59862 -0.977027 1.08379 1.13259 -1.03424 0.236432 2.11546 -3.14475 -1.21004 0.15767 -0.548656 0.474524 0.504599 -0.0836487 0.00250821 0.0772501 -0.253088 -0.256725 -0.209925 -0.735709 0.377147 0.265928 0.871571 0.147027 -0.43974 0.233106 -0.338162 -0.378907 -0.226776 0.16582 0.10282 -0.348492
33579 -1.67082 -0.958324 1.08912 1.13687 -1.14848 0.396783 2.52703 -3.51132 -1.71175 0.532459 -0.333519 0.319459 0.299539 -0.231695 0.0958746 0.111589 -0.172683 -0.165661 0.108524 -0.852654 0.171218 -0.0532221 0.734073 -0.0691059 -0.378052 0.137653 -0.138648 -0.261302 -0.269229 0.24331 -0.0577669 -0.375862
36857 -1.6013 -0.861854 0.952502 1.1968 -1.38225 0.420434 2.65893 -2.97655 -1.17481 0.813375 -0.429221 0.751297 0.359554 0.191953 0.211617 -0.0956796 -0.424683 -0.503414 0.25276 -0.947849 0.0215465 0.0180915 0.54932 -0.109469 -0.609287 0.36289 -0.222625 -0.59425 -0.422793 0.0179404 -0.113435 -0.125591
34398 -1.57604 -0.851002 1.2506 1.05473 -1.1387 0.224089 2.66321 -3.41596 -1.61681 0.813865 -0.557697 0.333397 0.234597 -0.0459106 0.127276 0.121696 -0.166213 -0.226552 -0.0157251 -0.825965 0.172343 0.161862 0.539744 -0.0382463 -0.471836 0.267118 0.0414068 -0.333507 -0.476988 0.052557 0.205872 -0.408447
33555 -1.62328 -0.843663 1.1655 1.41971 -1.32384 0.387326 2.36975 -3.26566 -1.6267 0.779727 -0.635534 0.618807 0.486075 0.267177 0.050984 -0.268235 -0.183837 -0.239721 0.189829 -0.699574 0.0435067 0.0667687 0.499222 0.100403 -0.64168 0.359685 -0.0766073 -0.465336 -0.253725 -0.0145936 -0.0179003 -0.294764
33773 -1.64469 -0.843666 1.33491 1.13076 -1.2677 0.319436 2.55574 -3.50533 -1.79562 0.70271 -0.551763 0.406389 0.378278 0.209761 0.0319314 -0.0428177 -0.403244 -0.258663 0.242147 -0.630268 0.175089 -0.0508687 0.63594 -0.158659 -0.577032 0.273116 -0.135947 -0.329171 -0.38389 0.0751845 0.0267566 -0.326695
33610 -1.62267 -0.931562 1.22436 1.10018 -1.34825 0.353119 2.50166 -3.32576 -1.74732 0.831306 -0.493837 0.375949 0.158271 0.00316106 0.059514 0.228049 -0.473945 -0.293986 0.0932382 -0.689862 0.326207 -0.0353711 0.515898 -0.270815 -0.267523 0.350161 -0.0845884 -0.292914 -0.275143 0.145036 0.0959342 -0.292306
36601 -1.5756 -1.02149 1.16456 0.958095 -1.2132 0.394189 2.63365 -3.16783 -1.64303 0.755171 -0.439181 0.538577 0.357045 0.114975 0.131958 0.221 -0.539705 -0.577737 0.00503613 -0.613985 0.11031 -0.258338 0.512854 0.0963292 -0.447985 0.469149 0.0825196 -0.316982 -0.374617 0.201369 0.118523 -0.1832
32347 -1.80271 -0.845706 1.01621 1.20619 -0.985923 -0.285134 2.42627 -3.42824 -1.69556 0.477673 -0.697309 0.325414 0.361419 0.0286865 0.130062 0.0214836 -0.138261 -0.351031 0.201365 -0.520053 0.110014 0.0604163 0.78529 0.0427605 -0.214002 0.28709 -0.103482 -0.442042 -0.225138 0.433303 0.163727 -0.445567
33817 -1.77903 -0.839088 1.06119 1.13258 -1.20605 0.292814 2.57166 -3.3842 -1.81152 0.645684 -0.298709 0.427837 0.460133 -0.117736 0.113237 0.0631187 -0.439923 -0.301225 0.079377 -0.473469 0.153258 0.194548 0.61226 0.0941762 -0.50683 0.223268 -0.139615 -0.268627 -0.393269 0.0494528 0.262711 -0.310556
35269 -1.75909 -0.520782 1.21253 0.995223 -1.06064 0.0764868 2.73469 -2.86081 -1.70229 0.481257 -0.558055 0.68089 0.604164 0.0588583 0.112143 0.226938 -0.323906 -0.322413 -0.149956 -0.39035 0.426297 -0.248776 0.83514 -0.220335 -0.480336 0.234736 -0.582156 -0.192226 -0.30993 0.0569208 0.088905 -0.538162
35346 -1.65131 -0.814667 1.24936 1.14055 -1.27684 0.136615 2.56354 -3.37729 -1.74775 0.660261 -0.509437 0.403879 0.542246 0.233961 0.211124 -0.0554631 -0.310738 -0.260956 -0.0209755 -0.544608 0.205751 0.168724 0.586738 -0.158087 -0.554445 0.14993 -0.375342 -0.223113 -0.491859 0.153216 0.218915 -0.244661
33776 -1.6635 -0.755504 1.06269 1.2785 -1.29903 0.332214 2.64259 -3.18786 -1.62097 0.636987 -0.549434 0.64407 0.44852 0.186252 0.0237411 -0.0400299 -0.0428092 -0.36056 0.44323 -0.694559 0.0901341 0.236405 0.568445 -0.0319232 -0.471306 0.376298 -0.0988305 -0.350303 -0.191757 0.087136 -0.19926 -0.207823
33063 -1.5157 -0.863369 1.31059 1.05805 -1.35674 0.186946 2.60451 -3.20078 -1.71444 0.567556 -0.497205 0.376674 0.382807 0.128064 0.0552477 -0.121053 -0.533291 -0.38407 0.0623616 -0.528403 0.311893 0.045946 0.570739 0.128712 -0.527239 0.299461 0.0650084 -0.341408 -0.305041 0.179711 0.170156 -0.286344
34161 -1.59678 -0.923586 1.28035 1.07035 -1.2917 0.156187 2.53634 -3.23266 -1.58957 0.654524 -0.535539 0.480572 0.403741 0.101919 0.0926407 -0.177109 -0.241149 -0.265596 0.110022 -0.633013 0.259869 0.0941052 0.634602 -0.0815595 -0.468246 0.0518336 -0.054057 -0.15595 -0.213386 0.27717 -0.0265302 -0.273596
33951 -1.5119 -0.934379 1.35392 1.06303 -1.17638 0.30075 2.43814 -3.41207 -1.5556 0.600511 -0.59861 0.635429 0.34615 0.232644 -0.0328931 0.134208 -0.375718 -0.238699 0.0992798 -0.503472 0.383393 0.29436 0.652295 0.108572 -0.505848 0.386234 -0.314751 -0.297469 -0.488541 0.134554 -0.0674027 -0.0202333
36639 -1.62914 -1.00189 1.11367 1.22943 -1.15009 -0.0144121 2.65068 -3.42277 -1.6138 0.567576 -0.415079 0.434057 0.186518 0.0390125 0.0443091 0.107056 -0.403778 -0.217776 0.29301 -0.85213 0.183063 -0.000865514 0.703895 0.226873 -0.525322 0.184238 -0.181528 -0.400332 -0.310842 0.154654 -0.0187505 -0.420654
33457 -1.39321 -0.657012 0.95126 0.975739 -0.918556 0.144483 2.41115 -3.20418 -0.934053 0.457039 -0.49135 0.348988 0.478089 -0.130782 0.221105 -0.0890956 -0.430953 -0.243394 0.101521 -0.956501 0.159829 0.0175619 0.760291 -0.325822 -0.511938 0.493954 -0.229549 -0.547411 -0.48966 0.0502234 -0.264934 -0.299054
36019 -1.42375 -0.917058 1.33291 1.02921 -1.08519 0.112972 2.30408 -3.39439 -1.50086 0.628766 -0.492511 0.561247 0.449387 -0.139617 0.0404796 -0.0834879 -0.0120326 -0.198597 0.0303676 -0.677011 0.457091 0.309021 0.685747 -0.122646 -0.584364 0.20279 -0.178956 -0.340321 -0.470147 -0.0895377 0.0335826 -0.324431
35801 -1.64371 -0.771495 0.986524 1.14416 -1.24487 0.022969 2.66654 -3.38321 -1.66847 0.748028 -0.377172 0.295451 0.38847 -0.105487 0.184098 0.0579367 -0.461968 -0.258238 0.139669 -0.622943 0.336078 0.142497 0.532459 -0.085513 -0.620871 -0.00834745 -0.0682433 -0.632784 -0.118925 -0.0140521 0.0160448 -0.467577
34032 -1.62176 -0.837702 1.0888 1.27182 -1.20445 0.299061 2.62244 -3.37178 -1.69931 0.321855 -0.31772 0.237911 0.357721 0.18687 -0.0119546 0.184398 -0.21845 -0.251505 -0.0243488 -0.862573 0.313979 0.275536 0.554744 0.0363921 -0.424542 0.181593 -0.21382 -0.524239 -0.349647 0.0886833 -0.021767 -0.354405
32979 -1.40628 -0.665914 1.12374 0.936627 -1.24813 0.19352 2.24575 -2.91585 -1.3025 0.44083 -0.658422 0.615791 0.315558 0.104138 0.00553721 0.105933 -0.22046 -0.0476558 0.329203 -0.607486 0.244804 -0.0306733 0.889282 -0.111877 -0.568137 0.161279 -0.249427 -0.515143 -0.536692 0.173505 -0.195063 -0.22169
33437 -1.55181 -0.570852 1.29165 1.14165 -1.1161 0.433916 2.39306 -3.32204 -1.33363 0.502157 -0.586537 0.334735 0.346427 0.360793 0.0745947 -0.0146904 -0.177111 0.13644 0.26875 -1.0034 0.200265 -0.0706466 0.620452 -0.162535 -0.393875 0.285579 -0.265393 -0.352413 -0.40944 0.191501 0.137633 -0.262244
32511 -1.6097 -0.944025 1.13377 1.12391 -1.03561 0.161503 2.68284 -3.58896 -1.60312 0.75964 -0.558203 0.494137 0.109217 -0.121041 0.126829 0.0533054 -0.316966 -0.336339 0.164577 -0.792832 0.0728957 -0.016407 0.412081 -0.252991 -0.756027 0.375011 -0.287293 -0.268258 -0.207607 0.130076 -0.260916 -0.128932
33216 -1.35624 -0.96026 1.11096 1.04377 -1.01649 0.0959793 2.56275 -3.46622 -1.1588 0.489859 -0.59785 0.370581 0.272986 0.0412436 0.36825 0.0532474 -0.330597 -0.375811 0.151084 -0.897462 0.045984 -0.00381453 0.792577 -0.223353 -0.269461 0.682715 -0.387562 -0.405745 -0.20595 0.0543493 -0.33739 -0.211772
33333 -1.39509 -1.15918 1.08757 1.13733 -1.0646 0.249291 2.27859 -3.59694 -1.31508 0.719095 -0.57922 0.596103 0.246471 0.379507 0.182093 0.318715 -0.374208 -0.0836235 -0.103577 -0.609786 0.238976 0.0969736 0.928212 -0.206 -0.540247 0.390268 -0.0378963 -0.101203 -0.329513 -0.245866 0.212562 -0.313327
35612 -1.60103 -1.18154 0.964117 0.96437 -1.08275 0.229618 2.24371 -3.13684 -1.34315 0.677781 -0.472593 0.66385 0.419727 0.266941 0.285261 0.368578 -0.495311 -0.39435 0.172742 -0.631548 0.378221 0.0913847 0.923172 0.0528156 -0.381626 0.471674 -0.31688 -0.399155 -0.304643 0.058599 0.00327606 -0.258372
33727 -1.44917 -1.10008 1.11591 0.850588 -1.08895 0.260597 2.33955 -3.47465 -1.38594 0.695367 -0.649744 0.682147 0.187104 0.435704 0.296471 0.230592 -0.257737 -0.217911 0.202062 -0.548033 0.169647 0.167718 0.923604 -0.300384 -0.404632 0.26984 -0.205409 -0.455039 -0.255017 -0.0925802 -0.0315769 -0.168906
31130 -1.61318 -0.851911 1.17779 1.30324 -1.09238 0.170662 2.55356 -3.36227 -1.78449 0.391033 -0.57414 0.513051 0.2708 0.157984 0.140534 -0.0186057 -0.152015 -0.114809 0.163002 -0.753529 0.114779 -0.169062 0.558471 -0.190857 -0.637401 0.2293 -0.185427 -0.261554 -0.437406 0.0314888 -0.113759 -0.203014
32692 -1.70835 -0.952362 1.01214 1.20039 -1.22484 0.454998 2.5618 -3.49002 -1.85617 0.635437 -0.369594 0.42393 0.186474 -0.128745 0.149173 0.320315 -0.182129 -0.0636807 0.069493 -0.78044 0.17231 0.0636833 0.558261 -0.18851 -0.566111 0.0920143 -0.216906 -0.224567 -0.239064 0.236692 -0.0208513 -0.16282
31947 -1.67706 -0.959425 1.23874 0.751846 -1.25478 0.218284 2.49151 -3.22901 -1.58276 0.626809 -0.292301 0.474402 0.527427 -0.0509758 -0.0168028 0.190919 -0.370601 -0.16037 0.387829 -0.756291 0.0837747 -0.00697811 0.805763 -0.00279581 -0.28856 0.255057 -0.129 -0.413663 -0.294038 0.197883 0.204156 -0.559031
31327 -1.57781 -0.836593 1.04905 1.29184 -1.25783 0.109474 2.64157 -3.21461 -1.64662 0.887853 -0.494697 0.49201 0.201824 -0.126714 0.321288 0.0404964 -0.490344 -0.160158 0.205266 -0.610626 0.201511 0.104827 0.549983 0.100247 -0.337466 0.151956 0.120702 -0.49116 -0.198505 0.10886 -0.00958662 -0.48168
32491 -1.60086 -0.903311 1.14876 1.03502 -1.31338 0.34073 2.35276 -3.15382 -1.56664 0.523466 -0.507263 0.24784 0.530895 0.0966211 0.0230868 0.347739 -0.396325 -0.222738 -0.0122812 -0.783122 0.481323 0.19513 0.666262 -0.101189 -0.234782 0.151383 -0.358308 -0.471974 -0.586907 0.141045 -0.0832016 -0.189672
34882 -1.56898 -0.730779 1.09922 1.23911 -1.03523 0.296665 2.46175 -3.48576 -1.37226 0.400386 -0.666123 0.615696 0.474116 -0.276277 -0.0334775 -0.0655511 -0.0155918 -0.380048 0.312195 -0.708586 0.0993863 -0.00978678 0.691411 -0.00241611 -0.546221 0.369083 -0.17296 -0.364156 -0.637781 0.0555578 0.316554 -0.0124595
31959 -1.73737 -0.836312 1.24131 1.04898 -1.13911 0.218618 2.4288 -3.34206 -1.79429 0.299898 -0.530843 0.479628 0.294608 0.224868 0.00997916 0.0765799 -0.324135 0.0741596 0.251906 -0.822398 0.186435 -0.0159293 0.461306 -0.228878 -0.749096 0.181429 -0.2739 -0.363315 -0.320765 0.110274 -0.0551325 -0.359684
32790 -1.54853 -0.65892 1.16332 1.04671 -1.05969 0.234998 2.45627 -3.18402 -1.4794 0.607674 -0.690924 0.722926 0.200977 0.126659 0.145559 0.153175 -0.0959539 -0.164211 0.105749 -0.495669 0.363293 -0.0753865 0.758966 -0.113222 -0.623655 0.215646 -0.274389 -0.366453 -0.569247 0.101735 -0.0545306 -0.135109
34682 -1.54281 -1.19303 1.08728 0.959293 -0.92795 0.335324 2.40315 -3.42987 -1.50635 0.362245 -0.665327 0.254241 0.375955 0.227299 0.33542 0.117801 -0.307281 -0.168023 0.22465 -0.783548 0.198845 0.185541 0.677063 -0.103376 -0.458545 0.509301 0.126715 -0.363607 -0.262256 -0.105764 -0.100973 -0.253732
31160 -1.73123 -1.00326 1.18449 0.884636 -1.18243 0.140236 2.70087 -3.32952 -1.78348 0.826037 -0.558643 0.217089 0.367921 -0.128598 0.162815 -0.014466 -0.36822 -0.152802 0.197068 -0.59962 0.1652 0.0144552 0.544557 -0.144281 -0.462938 0.274753 0.0862542 -0.263836 -0.312834 0.3273 -0.227573 -0.153396
34115 -1.54796 -0.882384 1.16096 0.853121 -1.04082 0.356342 2.42061 -3.06762 -1.25471 0.760407 -0.77733 0.567243 0.374071 0.104661 -0.0577144 0.143283 -0.274142 -0.223303 0.0787377 -0.653825 0.135309 0.258182 0.934423 0.027916 -0.676091 0.267318 -0.120748 -0.471601 -0.357305 0.242353 -0.18536 -0.299076
34143 -1.53221 -0.81662 1.17795 1.126 -0.964004 0.18079 2.48456 -3.02906 -1.40855 0.693501 -0.448709 0.528784 0.482059 0.19116 0.0503492 0.123568 -0.347676 -0.134385 -0.0247477 -0.707329 0.47329 0.333719 0.684628 -0.0890437 -0.536839 0.171241 -0.350648 -0.61142 -0.419008 0.290935 0.0207304 -0.49794
33303 -1.50153 -0.986056 1.15588 1.18948 -1.26641 0.397325 2.46683 -3.15709 -1.78389 0.410612 -0.486249 0.405593 0.331839 0.0414141 -0.0112932 0.148209 -0.211021 -0.0998408 -0.0612775 -0.845589 0.331955 0.0855286 0.655184 0.0782333 -0.621782 0.181359 -0.136831 -0.178228 -0.312699 0.122966 -0.142666 -0.295263
34054 -1.5294 -0.970401 1.08082 1.22716 -0.95153 0.462946 2.6487 -3.28594 -1.47621 0.823165 -0.553208 0.740852 0.322798 0.0608684 0.168801 0.366674 -0.386941 -0.196148 0.167433 -0.661972 -0.0306513 0.175959 0.736706 -0.0766342 -0.54435 0.173773 -0.392244 -0.282562 -0.45028 -0.0143461 -0.117954 -0.431654
35152 -1.5968 -0.930052 1.07089 1.0945 -1.19222 0.345341 2.63185 -3.21513 -1.59499 0.640077 -0.559784 0.453222 0.205478 -0.0784657 -0.0265614 0.191919 -0.520032 -0.124353 0.0775433 -0.762191 0.339483 0.302382 0.579474 -0.221722 -0.424745 0.219089 -0.167028 -0.286549 -0.540541 0.0946019 -0.0393928 -0.222296
32418 -1.58979 -0.788458 1.32792 0.848067 -1.23334 0.229967 2.60061 -3.20378 -1.54959 0.978234 -0.400663 0.408765 0.364847 0.136311 -0.114813 0.298081 -0.143897 -0.234738 -0.0419249 -0.761655 0.0545081 0.1882 0.486289 -0.0557505 -0.482983 0.325869 -0.0266926 -0.312963 -0.556175 -0.0707013 0.116033 -0.378192
36711 -1.6862 -0.845219 1.23242 0.796198 -1.09956 0.368707 2.6786 -3.32167 -1.59068 0.938816 -0.608073 0.389983 0.21273 0.113325 0.0325784 0.221832 0.0785971 -0.227399 0.364985 -0.837286 0.285404 0.0941028 0.367952 -0.0836631 -0.570809 0.10495 0.0428535 -0.484637 -0.500896 -0.0406637 0.0374316 -0.426853
34333 -1.64867 -0.820968 0.941421 1.01398 -1.11282 0.197991 2.45466 -3.04935 -1.32498 0.603892 -0.553915 0.377885 0.528531 0.00678626 0.0701184 -0.0392509 0.0263973 -0.167532 0.0166512 -0.649479 0.433618 0.118972 0.705905 -0.0458677 -0.36487 0.126252 0.0938387 -0.481469 -0.604461 -0.0289194 -0.0294055 -0.324887
31351 -1.85602 -0.819707 1.1151 1.12642 -1.19567 0.393371 2.61672 -3.30267 -1.93121 0.546278 -0.468439 0.472812 0.429519 0.0587246 -0.0952214 -0.285944 -0.241936 -0.176211 0.0984893 -0.616666 0.188277 -0.0368181 0.594072 -0.0353252 -0.528607 0.386203 -0.140076 -0.0663415 -0.299945 -0.152862 0.0110962 -0.08471
34996 -1.76792 -0.903158 0.861294 1.23148 -1.5361 0.429459 2.58311 -3.13196 -1.6806 0.90594 -0.666592 0.515265 0.525405 0.361558 -0.0518629 -0.288004 -0.321671 -0.248423 -0.0300456 -0.848396 0.0243189 0.0349396 0.407566 -0.119692 -0.506307 0.571712 -0.0865259 -0.11492 -0.33572 0.246061 0.0650503 -0.146108
31300 -1.70332 -0.764226 1.17507 1.19405 -1.30135 0.299022 2.5635 -3.31821 -1.83309 0.460316 -0.450625 0.553654 0.402183 -0.139936 0.153292 -0.0429649 -0.127242 -0.10919 0.0140735 -0.708018 0.0108753 0.175945 0.650209 -0.080351 -0.593834 0.459844 -0.0826208 -0.204578 -0.311993 0.0234643 0.153013 0.131051
31154 -1.12015 -0.992249 1.13505 1.03048 -1.05556 0.361953 2.30718 -2.98348 -1.2922 0.511116 -0.867264 0.666158 0.365133 0.143884 0.138049 0.191013 -0.060327 -0.0816669 0.153352 -0.439002 0.228374 0.190323 0.798156 -0.0758754 -0.434312 0.0554784 -0.546296 -0.480506 -0.604764 0.066732 -0.0157538 -0.354798
33706 -1.75622 -0.948351 1.25624 0.976403 -1.13219 0.31393 2.46992 -3.06579 -1.53856 0.457216 -0.81697 0.49219 0.419901 0.0914522 0.0266318 0.0625318 -0.205882 -0.345783 0.0218435 -0.762284 0.107358 0.0339432 0.550823 -0.201105 -0.608626 0.312823 -0.175955 -0.324558 -0.37207 0.513096 0.168001 -0.0944334
36140 -1.60123 -0.906458 1.17513 0.976852 -1.05304 0.346781 2.52675 -3.37642 -1.68348 0.777863 -0.490958 0.6048 0.424249 0.208865 0.116059 -0.121693 -0.378351 -0.0725657 0.145533 -0.563395 0.206147 0.239564 0.752653 -0.0948386 -0.743556 0.280373 -0.29005 -0.588956 -0.336749 0.150292 0.00748949 -0.315565
35738 -1.52463 -1.04125 1.29169 1.07408 -1.16738 0.185468 2.42627 -3.46077 -1.51221 0.692233 -0.564916 0.484723 0.400301 0.0868095 0.105201 -0.0545431 -0.35487 0.174556 0.19035 -0.742359 0.217755 0.0359277 0.627704 -0.14687 -0.488899 0.331868 -0.195804 -0.347317 -0.440713 -0.00493597 0.010598 -0.130387
33335 -1.65128 -0.955366 1.20469 1.21034 -1.10427 0.0719307 2.61515 -3.51398 -1.82651 0.617663 -0.528871 0.308816 0.263896 0.0525247 -0.0523971 0.016396 -0.193687 -0.179707 0.239516 -0.772398 0.267485 0.0708393 0.560342 -0.0843913 -0.566794 0.152029 -0.221245 -0.36188 -0.381975 0.0634026 0.0588942 -0.111429
33898 -1.54864 -0.600263 0.894033 1.12823 -1.1198 0.149884 2.08803 -2.89802 -1.1003 0.254811 -0.612804 0.717891 0.375742 0.00193609 0.0211707 0.12392 -0.266635 -0.27403 0.376557 -0.7289 0.13763 -0.0265285 0.936099 -0.238698 -0.616048 0.165436 0.0853039 -0.556002 -0.747683 -0.0534638 -0.0172528 -0.213206
31111 -1.68421 -0.816297 1.31056 1.22081 -1.20616 0.336353 2.52428 -3.53594 -1.90619 0.655233 -0.504527 0.404723 0.293532 0.152687 0.094447 0.0149991 -0.167286 -0.241439 0.148238 -0.646451 0.290018 0.0618339 0.604817 -0.114271 -0.551301 0.229324 -0.205321 -0.302387 -0.394012 0.0342098 -0.108753 -0.215082
36606 -1.56033 -0.84578 1.44449 1.0994 -1.03071 0.0351242 2.45299 -3.17721 -1.5513 0.198236 -0.53782 0.518895 0.537316 0.223932 0.119927 0.102098 -0.127664 -0.463864 -0.17421 -0.844569 0.225652 -0.0686953 0.55498 -0.222041 -0.68553 0.197965 -0.353222 -0.481505 -0.347901 0.202935 0.180868 -0.109662
32801 -1.71608 -0.89356 1.13699 1.23664 -1.16659 0.0745387 2.71473 -3.27749 -1.69757 0.669686 -0.527958 0.301058 0.438262 -0.0659319 0.0302341 -0.14201 -0.40092 -0.158497 0.213833 -0.49197 0.294525 0.116291 0.749527 0.138381 -0.371848 0.258458 0.165568 -0.268746 -0.217596 0.232198 -0.00885388 -0.236856
34174 -1.3982 -0.812077 1.01953 1.09376 -1.41079 0.486344 2.54342 -3.26351 -1.47645 0.473884 -0.45835 0.302917 0.348119 -0.17831 0.0853822 0.214184 -0.0971601 -0.0953776 -0.233909 -0.88901 0.163399 0.133983 0.72514 -0.16742 -0.495116 -0.0510962 -0.25676 -0.310023 -0.208103 0.322556 -0.347899 0.00897489
32780 -1.63307 -0.931276 0.953504 1.3413 -1.33546 0.358301 2.52415 -3.3861 -1.59528 0.60948 -0.431725 0.276275 0.178364 -0.0784215 0.0196114 0.122214 -0.00860866 -0.187581 0.132099 -0.98085 0.0672905 0.141384 0.736668 -0.263022 -0.431666 0.0475991 -0.110232 -0.30842 -0.253858 0.373799 -0.304439 -0.327484
31182 -1.52125 -0.860814 1.30306 1.27649 -1.02208 0.066671 2.7331 -3.31745 -1.68229 0.581635 -0.544443 0.4171 0.370888 0.00190191 0.142131 0.238917 -0.145984 -0.157097 -0.00114229 -0.736693 0.384505 0.125525 0.513376 -0.00116394 -0.788501 0.363098 -0.209126 -0.493782 -0.374946 -0.0273639 -0.0381067 -0.132887
35946 -1.22212 -0.902293 1.00672 0.984065 -1.01587 0.27144 2.43087 -3.10992 -1.26203 0.292457 -0.746046 0.45728 0.705457 0.0798538 0.171254 0.292513 -0.25735 -0.165989 0.126327 -0.650283 0.480904 0.128333 0.682983 -0.126315 -0.780068 -0.018906 -0.331301 -0.538347 -0.457924 0.253494 0.115722 -0.321889
31808 -1.50371 -0.97774 1.32398 1.14262 -1.24051 0.28921 2.32898 -3.46053 -1.67575 0.709124 -0.582685 0.332467 0.462372 0.0549055 -0.00726575 -0.0191511 -0.420973 0.0250287 0.0672081 -0.664387 0.311664 0.0230159 0.703182 -0.226988 -0.623516 0.065549 -0.244016 -0.24415 -0.621943 0.132392 0.0732502 -0.279528
33044 -1.68869 -0.866277 1.09878 1.21699 -1.1269 0.244986 2.42319 -3.55873 -1.77613 0.592822 -0.501625 0.430311 0.245854 0.0197785 0.0775104 0.12235 -0.325755 -0.262085 0.0978238 -0.647 0.0777994 0.183585 0.654319 -0.0373874 -0.484892 0.129021 -0.181717 -0.21525 -0.54015 0.116729 0.0956335 -0.261601
36551 -1.7069 -0.589806 1.2505 1.09651 -1.04797 0.193996 2.6129 -3.37517 -1.66896 0.634948 -0.537697 0.416581 0.384164 0.0563057 0.115459 0.298541 -0.102596 -0.201576 0.0400256 -0.709899 0.248669 0.310541 0.437421 0.0440656 -0.537512 0.253816 -0.147031 -0.360518 -0.515281 -0.226637 0.0514594 -0.370556
31686 -1.69023 -0.722609 1.23254 1.05386 -1.19416 0.304674 2.36121 -3.23595 -1.61543 0.380557 -0.586289 0.537437 0.403348 -0.0203061 -0.0569924 0.0734408 -0.165104 -0.19644 0.0889153 -0.630442 0.161928 0.13482 0.702498 0.064168 -0.388654 0.282082 -0.306219 -0.3129 -0.474758 -0.00206765 0.0027561 -0.142272
33126 -1.49184 -0.902351 0.951926 1.08207 -1.28194 0.372912 2.23124 -3.0299 -1.28329 0.572556 -0.792545 0.570675 0.401429 0.0693951 0.0156186 0.107962 -0.41974 -0.09674 0.10956 -0.882246 0.220157 0.0363197 0.883936 0.0851095 -0.601553 0.25763 -0.198827 -0.550144 -0.682616 -0.0105885 -0.0216085 -0.391731
34832 -1.63829 -1.00098 1.23899 1.25071 -1.07542 0.240544 2.40973 -3.29719 -1.61825 0.567783 -0.772846 0.451987 0.358266 0.018206 -0.144436 0.055911 -0.376815 -0.113836 -0.0456933 -0.620908 0.174347 0.129309 0.757138 0.0670745 -0.655161 0.225693 -0.216972 -0.207145 -0.622929 -0.0201153 -0.173426 -0.235473
35231 -1.8462 -1.03729 1.30988 1.08524 -0.74434 0.198604 2.55443 -3.13775 -1.53677 0.796706 -0.457316 0.297569 0.688078 0.049481 0.146808 0.118777 0.184818 -0.567085 -0.106045 -0.892317 0.262193 -0.0792291 0.591357 -0.0405206 -0.392482 0.0442833 -0.274123 -0.69629 -0.467111 0.0763577 0.135066 -0.316845
33440 -1.61059 -0.976154 1.31989 1.16104 -1.16693 0.0999602 2.68742 -3.31836 -1.78178 0.699861 -0.437164 0.267633 0.513972 0.13094 0.137359 -0.0289707 -0.250285 -0.282718 -0.0539631 -0.740166 0.235622 0.105416 0.590081 -0.230976 -0.498673 0.0182272 -0.175828 -0.293092 -0.204109 0.0521683 -0.0727432 -0.35696
31480 -1.755 -0.954461 1.30178 1.17233 -1.05754 0.388727 2.65733 -3.48591 -1.70573 0.803937 -0.497502 0.504116 0.223914 0.0614049 0.0920882 -0.0401445 -0.361165 -0.228571 0.15027 -0.822661 0.204536 0.114999 0.645982 -0.0703847 -0.566421 0.178575 -0.251436 -0.573587 -0.337117 0.197107 -0.0536603 -0.26805
34747 -1.65065 -0.911522 1.26714 0.934692 -1.17154 0.20815 2.74131 -3.18718 -1.75569 0.632289 -0.779337 0.119966 0.0183457 0.137381 0.0540573 0.0768106 -0.189888 0.0302143 0.112217 -0.857258 0.176048 -0.1002 0.571153 -0.254181 -0.62405 0.424701 -0.115454 -0.452085 -0.242139 0.241187 -0.0967079 0.12095
36361 -1.72498 -0.946842 1.02558 0.96831 -1.02838 0.330272 2.50689 -3.25124 -1.276 0.877491 -0.643259 0.447624 0.30701 0.31041 0.149064 -0.00954974 -0.214954 -0.422228 0.168786 -0.83453 0.218799 0.0530226 0.574528 -0.248577 -0.343851 0.369097 2.80098e-06 -0.512297 -0.437317 0.28253 -0.294772 -0.0534249
31903 -1.66581 -0.977315 1.32623 1.21877 -1.2107 0.195605 2.61395 -3.74174 -1.78724 0.776032 -0.528338 0.496589 0.210563 0.00450658 0.124643 -0.0426923 -0.269296 -0.346893 0.030572 -0.784765 0.295677 0.0959438 0.565092 -0.132712 -0.675997 0.2759 -0.188855 -0.397044 -0.421092 0.102301 -0.0324626 -0.30489
31383 -1.69702 -0.73509 1.10311 1.00625 -1.31202 0.405757 2.43931 -3.35296 -1.66215 0.384824 -0.324715 0.231468 0.26467 -0.316191 0.133319 0.203923 -0.141417 -0.0606731 -0.0219262 -0.904695 0.151261 0.0838969 0.848591 -0.15252 -0.434591 0.205935 -0.148444 -0.444367 -0.28554 0.194942 -0.163381 -0.142592
35070 -1.85458 -0.796596 1.20405 0.847504 -1.26544 0.437074 2.51797 -3.45411 -1.67674 0.563624 -0.375131 0.410751 0.596797 -0.220176 -0.107047 0.0989268 -0.276083 -0.125801 0.0741507 -0.724985 -0.0132004 0.159867 0.679066 0.223021 -0.314308 0.413162 -0.149275 0.0810362 -0.321919 0.0289007 0.229533 -0.26387
34225 -1.70055 -0.911387 1.05605 1.11588 -1.01782 0.335462 2.76158 -3.13708 -1.60061 0.698388 -0.263724 0.483258 0.257317 -0.00220055 0.130909 -0.023073 -0.104794 -0.306852 0.0127551 -0.804103 0.240878 0.204724 0.76499 -0.00734518 -0.439028 0.349195 -0.163932 -0.141273 -0.611408 0.252066 -0.0826139 -0.123779
32103 -1.65468 -0.972218 1.17003 1.07738 -1.3341 0.239906 2.43382 -3.33543 -1.61377 0.797128 -0.558405 0.376124 0.260277 0.0873916 0.0221378 0.0581694 -0.545598 -0.141827 0.191633 -0.712495 0.175434 0.0683769 0.565084 0.0213561 -0.518476 0.0775371 -0.166567 -0.447325 -0.230131 0.119068 -0.191982 -0.236843
31830 -1.55045 -0.935952 1.15785 1.10919 -1.11577 0.243672 2.33956 -3.16595 -1.27505 0.722616 -0.71121 0.558426 0.522968 0.0978352 0.0886912 -0.196367 -0.2815 -0.0209272 0.269119 -0.790427 0.325632 0.115432 0.738676 -0.0200152 -0.499865 0.159513 -0.276751 -0.632888 -0.489514 0.195612 -0.113799 -0.524258
32578 -1.48832 -0.489241 1.14968 1.16106 -1.05284 0.168293 2.47518 -3.27344 -1.31931 0.756744 -0.554309 0.529381 0.187386 0.109793 0.104902 -0.161718 -0.221487 -0.0151708 0.293573 -0.640403 0.357483 0.116784 0.955709 -0.0461645 -0.735564 0.383753 -0.240101 -0.378523 -0.452771 0.174539 -0.0542971 -0.390098
31905 -1.37368 -0.806917 0.758804 1.06055 -1.30765 0.209899 2.23849 -2.94756 -1.12049 0.152051 -0.448037 0.528807 0.399089 -0.0350025 0.114273 0.133695 -0.372195 -0.352662 0.0233627 -0.990836 0.59348 0.125152 0.869246 -0.298075 -0.709411 0.349205 -0.103567 -0.722811 -0.265514 0.232422 0.0145497 -0.475514
36430 -1.53904 -0.867796 1.03703 0.921931 -1.12361 0.224618 2.41629 -2.99306 -1.19376 0.224978 -0.567821 0.492808 0.550668 -0.000378363 0.211904 0.083642 -0.4421 -0.325534 -0.0376181 -1.02553 0.464686 0.211475 0.987301 -0.218611 -0.77795 0.276871 -0.200132 -0.647588 -0.381584 0.187966 0.00977344 -0.356761
31710 -1.64075 -1.08655 1.30938 1.12766 -1.20582 0.299539 2.48494 -3.34771 -1.73413 0.507094 -0.396577 0.587141 0.188345 0.0603807 0.137626 0.145651 -0.447386 -0.261151 -0.0392767 -0.852873 0.224917 0.026049 0.534576 -0.19921 -0.551724 0.151436 -0.161101 -0.310831 -0.449432 0.234696 -0.0528564 -0.165727
36556 -1.52978 -0.842317 1.12644 0.959147 -1.30527 0.381513 2.31848 -3.03645 -1.29416 0.716554 -0.624806 0.378535 0.336522 -0.213018 0.131425 -0.156824 -0.239557 -0.165619 0.0466428 -0.885786 0.267233 0.0861918 0.927056 -0.00172174 -0.581438 0.206125 -0.33962 -0.466198 -0.566213 -0.0483864 -0.229449 -0.363494
33305 -1.70968 -0.809758 0.935059 1.08213 -1.02659 0.415851 2.39658 -3.47973 -1.53515 0.717374 -0.659051 0.586339 0.202478 -0.165716 0.0319068 -0.170072 0.0619472 0.0125081 0.0838076 -0.650722 0.185342 0.0351603 1.02809 -0.162913 -0.508741 0.161422 -0.418665 -0.373613 -0.357001 -0.0894868 0.0384101 -0.271266
31360 -1.67853 -0.900528 1.20278 1.11093 -1.25849 0.324822 2.43141 -3.41723 -1.87729 0.683211 -0.360386 0.36517 0.23092 -0.100881 0.0613514 -0.00668047 -0.252869 -0.133256 0.094662 -0.682099 0.096369 -0.0020679 0.791008 0.0674196 -0.338332 0.199921 0.0811531 -0.278729 -0.217565 0.0824907 -0.0733129 -0.281658
33301 -1.55311 -1.152 1.03021 0.971541 -1.28298 0.0229105 2.70351 -3.22051 -1.6125 0.725795 -0.43742 0.460058 0.457023 -0.0949954 0.182508 -0.139232 -0.284863 -0.119634 0.215057 -0.686692 0.274342 0.110544 0.650926 0.199472 -0.445118 0.260218 0.00868448 -0.361312 -0.0374663 0.0962552 0.0843217 -0.74975
35250 -1.66054 -0.852644 1.08018 0.89097 -1.34225 -0.0425788 2.59568 -3.22254 -1.56941 0.728733 -0.307917 0.544087 0.553083 0.00948465 0.145026 -0.0861837 -0.535102 -0.202739 0.0844533 -0.651278 0.390711 0.149963 0.710918 0.164848 -0.317465 0.319581 -0.234764 -0.344904 -0.466897 0.195333 -0.107545 -0.168574
34916 -1.71546 -0.83789 1.07716 0.860743 -1.3798 0.360731 2.43381 -3.43616 -1.66415 0.689349 -0.373427 0.572217 0.185708 0.0247728 0.0574776 0.117452 -0.338966 -0.265041 0.0916668 -0.705466 0.231454 0.0691107 0.684543 0.263879 -0.506324 0.424081 -0.188836 -0.455108 -0.222877 0.0428378 -0.0915195 -0.299914
31642 -1.56386 -0.830605 1.44602 0.890764 -1.16732 -0.148193 2.64428 -3.33827 -1.63371 0.836756 -0.507619 0.356743 0.275562 -0.022392 0.086099 0.21385 -0.14876 -0.36687 0.241306 -0.889894 0.143457 0.0453829 0.324657 -0.0489078 -0.582687 0.231981 -0.289773 -0.125738 -0.367943 -0.0837366 -0.117163 -0.422582
32454 -1.67034 -0.771491 1.25443 0.977675 -1.34357 -0.012104 2.69979 -3.26996 -1.68405 0.580999 -0.615959 0.264168 0.405068 0.165873 0.18367 -0.0532959 -0.499601 -0.138517 0.174265 -0.58234 0.27744 0.184844 0.79909 0.039135 -0.337977 0.180022 -0.0571025 -0.459308 -0.177838 0.13102 -0.0409663 -0.443933
31552 -1.49579 -0.982454 1.22653 1.05573 -1.13619 0.211882 2.39909 -3.18323 -1.58743 0.71149 -0.53243 0.441212 0.38025 -0.00426801 0.174995 -0.0365817 -0.239953 -0.0885145 0.0720838 -0.517068 0.380927 -0.00468224 0.775696 -0.176514 -0.591515 0.201218 -0.159434 -0.203941 -0.46424 0.250415 0.0559002 -0.000419759
32117 -1.68458 -0.849521 1.22603 1.15024 -1.12723 0.225929 2.50861 -3.43802 -1.82297 0.673804 -0.637103 0.447351 0.213624 -0.0370169 0.156231 0.0761031 -0.0773747 -0.212975 0.181501 -0.696248 0.219378 -0.109298 0.459667 -0.0275604 -0.703322 0.25323 -0.213536 -0.200836 -0.300736 0.183845 0.0425592 -0.0548686
33169 -1.72659 -0.866021 1.08009 0.823959 -0.91177 0.398379 2.16637 -3.25269 -1.49222 0.708822 -0.731909 0.366875 0.444941 -0.152812 -0.0508735 0.130853 -0.0317982 -0.195413 -0.0724987 -0.690758 0.220456 0.112777 0.658323 -0.0557369 -0.546437 0.32348 -0.147565 -0.445527 -0.434368 0.184617 -0.0668239 -0.178695
