7349 32
33839 -0.22341 -0.257433 2.9615 -0.0332778 -0.217773 -2.36779 1.60661 -1.31182 -0.325701 -0.446665 0.274482 0.0385809 -0.0479115 -0.280188 0.105467 0.0545261 -0.00217205 0.524085 -0.0384525 0.0477225 0.0255491 0.0877154 -0.254965 0.518908 -0.0304006 0.428141 -0.00720828 0.132938 -0.0936095 -0.00468406 -0.466286 -0.0450482
35678 -0.207413 -0.398367 3.07437 -0.0829835 -0.186757 -2.09465 1.34611 -1.12265 -0.518722 -0.244781 0.336517 0.145601 -0.0569494 -0.356997 0.0817626 0.0824016 -0.250575 0.566409 -0.150809 -0.171868 -0.0403422 -0.0196001 -0.316845 0.412618 -0.232112 0.386421 -0.0151976 0.0169287 0.0237786 -0.217994 -0.314136 0.0843494
31930 0.0567601 -0.282924 2.8394 -0.0831524 -0.149154 -2.51408 1.43369 -1.35977 -0.369824 -0.218282 0.359934 0.128173 0.00344228 -0.35365 0.0998938 0.125265 -0.0454534 0.557889 -0.086796 0.0320491 -0.0251262 0.153654 0.0225049 0.683021 0.0823944 0.131401 -0.0927038 0.164703 0.104548 0.0131164 -0.467503 -0.0836194
36793 -0.134256 -0.361013 2.58597 -0.0468831 -0.0897563 -1.85167 0.888867 -0.679773 -0.429765 -0.498324 0.352135 0.231045 -0.0156028 -0.236803 0.00678474 -0.0583649 -0.144534 0.608031 -0.110444 -0.0579469 0.0149594 0.127621 -0.235856 0.753809 -0.0508995 0.456029 -0.117982 0.092179 0.090849 -0.15268 -0.706327 -0.00478012
34455 -0.118256 -0.299604 2.87667 0.0700623 -0.178186 -2.39079 1.58046 -1.36248 -0.277401 -0.223438 0.28458 0.22955 -0.0785437 -0.298524 -0.0233669 0.191094 -0.149844 0.510281 -0.0481056 -0.101491 0.00597096 0.0283231 -0.235924 0.382555 -0.0971883 0.240911 -0.00364377 0.137516 0.0484991 -0.310562 -0.344079 0.0966612
32241 -0.0966654 -0.265946 2.95313 -0.113222 -0.0985225 -2.49661 1.62102 -1.27757 -0.172665 -0.286838 0.262917 0.210821 0.0740158 -0.254038 -0.0188061 -0.0271187 -0.149513 0.499822 -0.0132924 -0.0880074 0.052974 0.239269 -0.0213541 0.478427 -0.0141999 0.182098 -0.196209 0.124143 -0.0253049 -0.0359542 -0.372651 -0.104082
36129 -0.28805 -0.503379 2.90815 0.0839565 -0.139875 -2.49993 1.41378 -1.0913 -0.34807 -0.595336 0.119342 0.35951 0.097109 -0.192089 -0.0525106 -0.256679 0.270318 0.575107 0.0133865 -0.0612675 0.115328 0.0342293 -0.324791 0.631315 0.113344 0.0766181 0.069347 -0.10833 0.111853 -0.116568 -0.29394 0.0408397
31828 -0.390213 -0.0448564 2.87546 0.0803963 -0.246052 -2.33155 1.62479 -1.51762 -0.551307 -0.242041 0.0202433 0.214774 -0.181446 -0.391103 -0.0666183 0.172929 -0.221997 0.565611 -0.0108888 -0.150348 -0.0782851 0.220195 -0.347276 0.443562 0.0694585 0.221037 0.0104387 0.133885 0.0798375 -0.211993 -0.490655 -0.202501
32629 -0.455795 -0.403816 2.99563 -0.310406 -0.122161 -2.4722 1.65886 -1.46861 0.0624932 -0.245221 0.271092 0.00441606 -0.0213474 -0.234214 0.192833 -0.0160661 0.0262164 0.687661 -0.0814139 -5.28046e-05 -0.174732 0.229375 -0.00124724 0.453825 0.0341115 0.289393 0.0926734 0.187738 -0.0286958 0.0762335 -0.30703 -0.0305029
36674 -0.0790265 -0.327537 2.88339 -0.0671387 -0.319532 -2.355 1.35821 -1.35941 -0.347061 -0.48522 0.508216 0.125564 0.0565967 -0.282714 0.0760875 0.062803 -0.194458 0.557772 -0.0865115 0.00999355 -0.0391817 0.0188601 -0.106862 0.431169 0.0910677 0.427828 -0.0893804 0.108012 -0.0539448 -0.0679315 -0.56766 -8.79677e-05
31152 -0.236471 -0.334358 3.06444 -0.257467 0.211675 -2.35016 1.80219 -1.43007 -0.01625 -0.273311 0.275682 0.0366339 0.114803 -0.314255 -0.0559637 0.244512 0.0606366 0.569623 -0.0582614 -0.280837 0.183647 0.173692 -0.023699 0.500893 0.135242 0.10102 -0.00922477 0.280344 0.0976741 -0.0694943 -0.356273 -0.0823517
32210 -0.258594 -0.188713 2.9446 -0.134001 -0.251389 -2.37245 1.62571 -1.35479 -0.23603 -0.269181 0.335245 0.068287 -0.103129 -0.198075 0.0616886 0.072552 -0.288936 0.51994 -0.16489 0.0143404 0.148597 -0.0528525 -0.235136 0.549134 -0.11816 0.327681 -0.0846552 -0.0340978 -0.178649 -0.0891659 -0.0925541 -0.0233788
36854 -0.194536 -0.334217 2.88744 0.0132208 -0.0190092 -1.99545 1.22197 -0.911796 -0.395609 -0.560671 0.434145 0.257888 -0.035139 -0.499276 0.0946145 -0.0277265 -0.130607 0.566398 0.00126854 -0.102043 0.0110392 0.132193 -0.253983 0.731749 -0.237032 0.483502 -0.0530939 -0.0135478 0.0102982 -0.205806 -0.405433 -0.186693
34534 -0.0803967 -0.349989 2.90598 -0.00110656 -0.121617 -2.34808 1.49527 -1.21299 -0.195393 -0.312602 0.236691 0.167119 -0.0434448 -0.385913 0.0722696 0.067367 -0.151619 0.594958 0.0191089 -0.0441176 -0.0273056 0.164804 -0.152393 0.568315 -0.103138 0.400969 0.0691987 -0.0564634 0.0275119 -0.184877 -0.371779 -0.0655646
31067 -0.154168 -0.340521 2.93736 -0.0438113 -0.255597 -2.18621 1.33489 -1.05011 -0.355445 -0.598068 0.313511 0.193843 0.0699328 -0.181753 0.050452 0.144526 -0.221353 0.572921 0.0557804 0.0651731 0.0319319 0.0263286 -0.262281 0.619749 -0.0473407 0.235312 0.0294596 -0.107627 -0.0171973 -0.107947 -0.302063 0.0442978
36695 -0.0140259 -0.286005 2.99144 -0.0737979 -0.0809759 -2.39037 1.58808 -1.4271 -0.239171 -0.424905 0.351772 0.260168 -0.15877 -0.24538 0.0900055 0.101924 -0.0185684 0.456043 -0.098757 -0.125042 0.00533471 0.0967501 -0.200218 0.505692 -0.0406645 0.30578 0.0417086 0.194638 0.0607756 -0.181021 -0.288864 0.0796868
33240 -0.458998 -0.528033 2.82022 0.0481764 -0.1032 -2.60542 1.3284 -1.10469 -0.3074 -0.636775 0.108928 0.298012 0.0867187 0.0181307 0.0229102 -0.222079 0.188232 0.618855 -0.116142 0.0112564 0.0188131 -0.0886101 -0.351294 0.548717 -0.066321 0.224503 0.129983 -0.0940111 0.13651 -0.055964 -0.266785 0.218354
34052 -0.51006 -0.428243 3.04504 -0.134013 -0.0487236 -2.21398 1.10838 -0.986254 -0.193501 -0.732143 0.57696 0.426158 0.0371866 -0.214749 -0.00408233 -0.129461 0.0689502 0.574796 -0.0827003 -0.150073 -0.0189096 -0.0288659 -0.228786 0.674625 0.00623707 0.18404 -0.000269517 -0.0225898 0.158712 0.085796 -0.420751 -0.138635
33611 -0.202577 -0.272554 2.80692 -0.0109017 -0.318669 -2.27309 1.3508 -1.29253 -0.344705 -0.619223 0.358022 0.100422 -0.0925863 -0.367641 0.0590451 0.170305 -0.0967961 0.593813 -0.0746555 -0.115923 0.0219679 0.132934 -0.32914 0.753086 -0.0202424 0.32422 0.14179 0.209122 -0.0858288 -0.0622829 -0.422431 -0.0143639
34456 0.0292453 -0.22704 2.94671 -0.0912017 -0.119518 -2.26496 1.4725 -1.01106 -0.245789 -0.356629 0.485462 0.182737 0.0340104 -0.312263 -0.0655781 -0.00395426 -0.32173 0.452835 0.0715777 -0.00763009 0.135593 0.229059 -0.152117 0.653048 -0.141756 0.372514 -0.090427 -0.00119791 -0.151566 -0.215087 -0.329361 0.00619565
34329 -0.294999 -0.339199 3.12731 -0.0501353 -0.0658934 -2.2632 1.25505 -0.815371 -0.278742 -0.250708 0.417814 0.25196 -0.107336 -0.301898 0.022117 0.0769526 -0.502633 0.618858 -0.0362346 -0.0205235 0.0312434 -0.0446583 -0.335902 0.638577 -0.38183 0.229284 -0.159457 -0.230391 0.091103 -0.0214614 -0.170371 -0.211181
34593 -0.00310648 -0.330962 2.97826 -0.183933 0.167054 -2.41973 1.3971 -0.84239 -0.163043 -0.35784 0.606064 0.326541 -0.130195 -0.272451 -0.0455511 0.00700843 -0.300656 0.417326 0.00534317 0.00782149 0.164668 0.271973 -0.0922551 0.566262 -0.249162 0.517774 -0.165321 -0.171166 -0.10112 -0.269934 -0.187059 0.0423272
35681 -0.261481 -0.193152 2.91448 -0.267985 -0.236946 -2.41241 1.5781 -1.38648 -0.390678 -0.273995 0.257744 0.07227 -0.0213024 -0.189777 0.0293335 0.140983 -0.228172 0.478237 -0.0991017 -0.156768 0.0165876 0.0269744 -0.297714 0.67708 -0.264991 0.261092 -0.0791092 -0.0295332 -0.23949 -0.0820564 -0.117492 0.0623523
32728 -0.235777 -0.325547 3.05501 -0.217384 -0.0118094 -2.31142 1.13945 -0.863683 -0.165716 -0.440691 0.451056 0.251715 0.0765822 -0.127923 0.0320647 -0.0639937 -0.0353486 0.53808 -0.10029 -0.150623 -0.0481185 0.198242 -0.165727 0.753696 0.125223 0.296285 -0.068128 0.130916 0.0507012 0.00217921 -0.487727 -0.00515024
35675 -0.261791 -0.330551 3.08261 0.05424 -0.0702697 -2.3395 1.61916 -1.3635 -0.0365127 -0.410447 0.317409 0.0908178 0.0760774 -0.343101 0.230424 0.0744695 0.196676 0.649381 0.022717 -0.0821967 0.0316363 0.148151 -0.211353 0.547925 -0.0738353 0.50514 -0.0560993 0.148771 -0.147878 -0.0806561 -0.124178 -0.145615
35577 -0.0541301 -0.252572 2.93149 -0.133942 -0.0859597 -2.47747 1.60141 -1.18454 -0.192331 -0.261727 0.0938252 0.0068623 -0.246058 -0.24124 0.137153 0.143861 -0.0367867 0.74946 -0.0275105 0.0708757 -0.0187511 -0.162771 -0.126733 0.507751 -0.195155 0.259638 -0.203192 -0.0106076 0.116482 -0.141933 -0.252978 0.0792681
32323 -0.145166 -0.41134 2.76096 -0.0347882 -0.0221603 -2.0754 1.05567 -0.694117 -0.592812 -0.395716 0.271635 0.387518 -0.0656655 -0.327115 -0.061381 0.0664919 -0.276002 0.607886 -0.081246 -0.0187423 0.0484388 0.00102216 -0.27085 0.612791 -0.335003 0.343675 -0.279596 -0.177094 0.152669 -0.280319 -0.457532 -0.00765001
34424 -0.140945 -0.160197 2.94171 -0.0474116 -0.0225707 -2.39593 1.55497 -1.26264 -0.330768 -0.313693 0.0475274 0.177822 0.00616144 -0.367373 0.0469066 -0.0121575 -0.00106163 0.689261 -0.0198198 -0.185414 0.0526114 0.0884512 -0.31821 0.441691 0.0769151 0.324033 -0.0612398 0.15861 0.038256 -0.206191 -0.325862 -0.0206879
33360 0.151631 -0.300659 2.91617 -0.102387 -0.0744069 -2.43672 1.65932 -1.22507 -0.328427 -0.22585 0.354943 0.10925 0.00397793 -0.0769946 -0.0238934 0.00155214 -0.233678 0.443513 -0.0362762 0.0906365 0.156107 0.281361 -0.13199 0.497257 0.0826271 0.281786 -0.140835 -0.0372283 -0.0142553 -0.21899 -0.248073 0.0642172
33544 -0.135899 -0.398872 2.75596 -0.0922199 -0.0151125 -2.18699 1.11649 -0.80011 -0.665365 -0.380169 0.325108 0.366736 0.140975 -0.238047 -0.133295 -0.0377556 -0.22668 0.599036 -0.244575 -0.137424 0.0744493 0.204027 -0.167262 0.658265 -0.0859564 0.534088 -0.234717 0.043854 0.179136 -0.214907 -0.577167 -0.0144507
35606 -0.179333 -0.316281 3.0091 -0.106087 -0.273429 -2.2844 1.42942 -1.29588 -0.248464 -0.172478 0.300898 0.285985 0.0371864 -0.193205 -0.0726032 0.048326 -0.12944 0.657118 -0.110475 -0.0298029 -0.0467498 0.0062262 -0.0125204 0.454651 -0.0255327 0.365024 -0.14117 0.00407197 0.00010057 -0.175048 -0.359837 0.148595
36630 -0.240289 -0.395048 3.01675 -0.107639 -0.260441 -2.53383 1.23577 -1.13638 -0.371759 -0.175633 0.485943 0.134004 0.115367 -0.230551 0.0297999 -0.12285 -0.198216 0.71326 -0.207625 0.0595085 0.0101444 0.124815 -0.0433038 0.482182 0.133703 0.414793 -0.112633 0.147628 -0.0806621 -0.0994222 -0.431401 0.159534
32779 -0.22685 -0.252465 2.8433 -0.0112814 0.0605596 -2.19643 1.11437 -0.907975 -0.358006 -0.434321 0.41967 0.28334 0.106699 -0.393278 0.111453 0.0191648 0.0218266 0.737498 -0.0413384 -0.022413 0.0328012 0.194521 -0.333814 0.68939 -0.0178855 0.431396 0.0662464 -0.039221 0.0267887 -0.17192 -0.459124 -0.218933
32258 0.0856181 -0.289848 2.88983 -0.0544579 -0.0113058 -2.41211 1.36568 -1.16535 -0.235703 -0.432351 0.17724 0.287348 0.183575 -0.308231 0.0472612 -0.0692034 0.0689919 0.409949 0.0221293 -0.00283676 0.0505679 0.169856 -0.0574872 0.475199 0.191834 0.291557 -0.0608023 0.0251699 -0.041345 -0.150687 -0.308456 -0.0514749
35476 -0.09464 -0.0743654 2.90448 -0.11165 0.0999475 -2.52394 1.57665 -1.16184 -0.295313 -0.505012 0.243002 0.0681467 0.138416 -0.357039 -0.0245939 0.138078 -0.128784 0.5652 0.0435806 -0.0894039 -0.0306518 0.15701 -0.101412 0.532665 0.0301555 0.424689 -0.177551 0.0133641 0.0104802 -0.21931 -0.321582 0.131954
31762 -0.224929 -0.393018 2.67415 0.0565417 -0.0183432 -1.8207 0.937875 -0.751292 -0.406825 -0.590054 0.297422 0.267876 0.002641 -0.285328 0.0148999 0.00122616 0.0599233 0.491487 0.0015065 -0.0500823 0.0383709 0.0464828 -0.216252 0.603034 -0.0640559 0.440909 -0.054613 -0.0180078 0.0554042 -0.138582 -0.540395 -0.0730824
36334 -0.133287 -0.268196 2.95743 0.0100795 -0.122207 -2.42716 1.57217 -1.37173 -0.364927 -0.15399 0.211868 0.208349 0.114243 -0.316502 0.0678235 0.0911775 -0.0414517 0.605782 -0.0592987 -0.137838 -0.0661388 -0.0119502 -0.176408 0.429541 0.024023 0.322184 -0.08083 0.0259424 -0.107219 -0.0521733 -0.450845 0.0511478
34263 -0.137843 -0.302762 2.84483 -0.0275955 -0.18856 -2.01236 1.19364 -1.00545 -0.488195 -0.485013 0.273358 0.18646 -0.0104831 -0.24735 0.0268954 0.0396452 -0.209426 0.779373 -0.0937191 -0.159091 0.00504224 0.152117 -0.293885 0.64731 -0.0916296 0.434739 -0.153198 0.0567958 0.0640631 -0.219142 -0.549926 -0.021776
34520 -0.139766 -0.177746 2.94687 0.101386 -0.154054 -2.38901 1.49229 -1.32067 -0.229205 -0.579691 -0.00689889 0.167262 -0.0760267 -0.311941 0.031844 0.146042 0.035692 0.743119 0.0658322 -0.173372 -0.0286385 0.0969028 -0.388225 0.673332 0.104346 0.121089 -0.0343502 0.17325 -0.0312206 -0.0813499 -0.441785 -0.102244
31442 -0.131925 -0.40629 2.85157 0.102395 -0.0792557 -2.27061 1.25279 -0.999405 -0.532721 -0.554631 0.258283 0.262354 0.0710812 -0.317066 0.019941 0.0323092 0.0745795 0.606368 -0.0502744 -0.118768 0.0134882 0.0431967 -0.261076 0.686443 0.0291637 0.214536 -0.00794261 -0.00433642 0.0897486 -0.135773 -0.365768 -0.122138
35146 -0.092078 -0.258645 2.79421 0.0270787 -0.0880392 -2.50664 1.38582 -1.04798 -0.520601 -0.246817 0.0442114 0.236518 -0.0860548 -0.289353 -0.0473762 0.00720138 -0.0633902 0.642996 -0.0744541 0.0399862 0.0652969 0.0117646 -0.251525 0.454882 -0.00126496 0.24966 -0.204385 -0.0139747 0.0632742 -0.200298 -0.476621 0.0695481
31979 -0.1426 -0.296477 2.89723 -0.102306 -0.329978 -2.28155 1.47783 -1.33262 -0.305309 -0.29774 0.258501 0.00275978 0.0268042 -0.243385 0.123663 0.0648013 0.0127721 0.739635 -0.0204475 -0.0512234 -0.0126524 0.0971946 -0.193581 0.607709 0.0153269 0.350888 -0.0389589 0.245086 -0.0928742 -0.0413394 -0.311906 0.0876303
33816 -0.217022 -0.132813 2.99792 0.111816 -0.271866 -2.41157 1.52445 -1.41701 -0.286771 -0.435168 0.20459 0.100161 0.0228278 -0.371406 0.219148 0.0131717 -0.0638416 0.581934 0.00977488 -0.059299 -0.036509 0.173188 -0.313494 0.615585 -0.174056 0.456945 0.0818059 0.00531977 -0.0655376 -0.0729382 -0.20808 -0.126386
35690 -0.217331 -0.35852 2.80507 -0.00106913 -0.184905 -2.46801 1.57015 -1.19466 -0.330754 -0.366525 0.355822 0.137896 0.04166 -0.227613 -0.00425998 -0.013987 -0.294392 0.428773 -0.076797 -0.0229331 0.0340227 0.141877 -0.146178 0.592476 -0.19864 0.389254 0.0155826 -0.0280321 -0.130913 -0.0673413 -0.159126 -0.226107
34697 -0.330572 -0.576348 2.9959 0.0438599 -0.357261 -2.57821 1.2276 -1.09104 -0.531894 -0.0584164 0.293281 0.0592042 0.260195 -0.190115 0.181739 -0.128784 -0.416327 0.5276 -0.304603 -0.151944 0.0713225 0.0037503 -0.478148 0.33181 -0.20638 0.463459 0.13021 -0.0711546 -0.0735977 -0.138864 -0.0508694 -0.151357
32213 -0.0999463 -0.22952 2.89767 -0.0711947 -0.0731011 -2.47794 1.63183 -1.19659 -0.211628 -0.39911 0.239921 0.209599 0.100699 -0.296553 0.0907522 -0.0209369 0.078321 0.394107 0.138517 0.0529205 -0.0355183 0.014005 -0.00024005 0.556604 -0.0388235 0.244251 0.123381 -0.270743 -0.155154 -0.0639866 -0.169983 -0.0388069
34556 -0.175314 -0.252325 2.81207 -0.132985 -0.16178 -2.38946 1.43332 -1.17955 -0.263246 -0.499002 0.445569 0.0853086 -0.0649226 -0.258764 0.184785 0.0323998 -0.136679 0.559257 -0.0858005 -0.0148208 0.0643735 0.0557799 -0.330695 0.635171 -0.0951245 0.370205 0.128685 -0.0105122 -0.238348 -0.0787402 -0.246124 0.0139619
31919 -0.136139 -0.0371828 2.81805 0.0270842 -0.201095 -2.31522 1.70985 -1.5618 -0.337417 -0.39706 0.178482 -0.043413 -0.0468613 -0.374483 0.0884438 0.1283 -0.0460084 0.58603 -0.0491531 -0.0288007 0.0835573 0.11624 -0.454194 0.599418 0.0932126 0.289489 0.156621 0.0990104 -0.115894 -0.146342 -0.345865 -0.207235
35648 -0.220183 -0.300504 3.10058 -0.0788168 -0.212439 -2.03821 1.26463 -1.18336 -0.309444 -0.627941 0.362407 0.206293 -0.0909349 -0.359741 0.0641139 0.0270675 0.0178341 0.763943 -0.0406675 -0.171526 0.0368838 0.1155 -0.337349 0.796206 0.0251355 0.34124 0.0279518 0.0431625 -0.0347061 -0.0136067 -0.336457 -0.0574798
36399 -0.083747 -0.07679 2.87263 0.0282049 -0.290672 -2.42563 1.44553 -1.22162 -0.42635 -0.504852 0.0988286 0.119615 0.0303713 -0.236396 0.144269 0.151919 -0.112297 0.732737 -0.00607984 -0.0297906 0.0904147 0.104068 -0.263991 0.587357 -0.00851938 0.332746 -0.0184405 0.0614061 -0.105699 -0.0266373 -0.430899 -0.12316
31066 -0.325805 -0.37734 2.98911 0.102719 -0.16335 -2.4035 1.526 -1.37444 -0.0629315 -0.666481 0.323621 0.368545 0.0643844 -0.196814 0.0801638 -0.198484 0.127517 0.567779 -0.06816 -0.0473009 0.0216703 0.0514499 -0.342304 0.543238 -0.0876265 0.390345 0.167281 -0.139004 -0.130129 0.0149888 -0.114254 -0.131656
34129 -0.293308 -0.388143 2.94231 0.0272272 -0.156373 -2.40379 1.60263 -1.23701 -0.127206 -0.49179 0.214083 0.0401314 -0.0896467 -0.160417 0.0596243 -0.0360256 0.00901827 0.732001 -0.03723 -0.151051 0.139901 0.154885 -0.336573 0.60082 0.0205548 0.214984 0.132294 0.0398845 -0.178354 0.0043807 -0.229054 -0.0438553
32546 -0.290234 -0.466348 2.83287 0.040816 0.0920605 -2.31618 1.18314 -0.741291 -0.477952 -0.702424 0.264095 0.448835 -0.0172536 -0.124245 -0.0844698 -0.20493 0.089146 0.604589 -0.0157344 -0.0789549 0.0512607 -0.0956311 -0.188733 0.553576 -0.139756 0.0740683 -0.112386 -0.289065 0.173508 -0.0649784 -0.26749 -0.0716734
34997 -0.0619715 -0.230667 2.83195 -0.0274317 -0.0846647 -2.56622 1.48907 -1.3772 -0.224101 -0.311917 0.206706 0.221901 0.0815118 -0.245163 0.080778 -0.154323 0.0289205 0.420812 -0.0798093 -0.131955 -0.0638573 0.123411 -0.139285 0.589678 0.125158 0.225742 -0.082621 0.00878285 0.0106653 -0.056834 -0.126418 -0.0583358
33551 -0.267396 -0.437991 2.61712 -0.0281272 -0.0267822 -1.83399 0.878903 -0.747564 -0.300651 -0.473006 0.357984 0.232742 -0.0472607 -0.259765 0.0425071 -0.0955284 -0.0174559 0.608051 -0.0509009 -0.112006 0.0156856 0.079907 -0.259855 0.778276 -0.0688288 0.355469 -0.0611772 0.0219727 0.0262985 -0.0950231 -0.461044 -0.073291
36207 -0.18636 -0.218278 2.97879 0.038275 -0.212253 -2.23077 1.21285 -1.1291 -0.347222 -0.702869 0.356074 0.141495 -0.103641 -0.200657 0.154709 0.134671 0.0703904 0.49261 -0.0166249 -0.150105 -0.0419618 -0.022664 -0.310795 0.626806 -0.027095 0.292857 0.0237825 -0.00345638 -0.00176762 -0.0721831 -0.457634 -0.18194
32598 0.0174367 -0.16509 2.92964 -0.0733778 -0.0768531 -2.50949 1.71623 -1.33572 -0.102011 -0.369624 0.248662 0.283576 0.124586 -0.245773 0.0573569 -0.061246 0.070841 0.419435 -0.0393591 -0.165294 -0.00401559 0.0411789 -0.0443565 0.495371 0.039688 0.373902 0.102909 0.0322818 0.0274433 -0.120496 -0.238281 0.137816
31607 -0.470788 -0.444139 3.03231 -0.387455 -0.106523 -2.52272 1.54167 -1.47245 -0.0854067 -0.181636 0.364419 -0.080926 -0.130983 -0.11233 0.152005 0.014655 -0.0666469 0.731401 -0.0855245 -0.0120968 -0.189273 0.177011 -0.0868915 0.410689 0.0981694 0.10625 0.126024 0.177194 0.00411934 0.244222 -0.458903 -0.0218889
32545 -0.292308 -0.307068 2.81349 -0.0209094 -0.1909 -2.34108 1.36692 -1.24143 -0.172495 -0.415778 0.260304 0.171254 -0.0784649 -0.365673 0.082945 -0.134089 -0.0788896 0.613945 -0.103919 -0.0595891 -0.142613 0.0202182 -0.169405 0.652502 0.0924274 0.222231 -0.00853702 0.0458826 0.0351757 -0.0249778 -0.472599 0.0529388
32939 -0.208464 -0.363176 2.95554 -0.00281961 -0.0546182 -1.98944 1.04472 -0.845927 -0.304625 -0.56664 0.305529 0.220906 0.0207963 -0.299561 0.0940546 0.0395841 -0.035655 0.68477 -0.0399568 -0.109816 0.0722488 0.131138 -0.394282 0.878812 -0.0217592 0.385878 -0.0203662 0.0807268 0.015696 -0.135631 -0.352671 -0.0725452
34862 -0.163732 -0.148695 3.04827 -0.0207427 -0.162931 -2.35463 1.5029 -1.39948 -0.423011 -0.509441 0.270854 0.194491 -0.0754704 -0.37024 -0.0371781 0.0634809 0.110482 0.475692 -0.0148015 -0.0127078 0.019303 0.0104554 -0.249951 0.474907 -0.0980145 0.383763 0.0880489 -0.0822093 -0.149487 -0.301877 -0.369825 -0.0703873
34231 -0.25872 -0.39513 2.75975 0.0218534 -0.0844678 -2.07521 1.15977 -0.894421 -0.366378 -0.668364 0.392401 0.276788 -0.0217056 -0.260693 0.0604339 -0.0127057 -0.0340899 0.648271 -0.015627 -0.0224999 0.0426044 0.0092382 -0.286789 0.725819 -0.161809 0.405087 -0.0782272 -0.0915492 0.063762 -0.093891 -0.489067 -0.0429469
32343 -0.124846 -0.327654 2.99039 -0.000645896 -0.013307 -2.37002 1.76302 -1.61271 -0.225369 -0.323735 0.25258 -0.0282201 -0.197993 -0.328193 -0.0118049 -0.0407317 0.1558 0.60092 -0.1584 -0.118156 0.165441 -0.0714517 -0.263287 0.456272 -0.190278 0.43666 0.00898695 0.0686345 0.00877799 -0.0859927 -0.324914 0.181519
36220 -0.152572 -0.275137 2.9911 -0.0598506 -0.163641 -2.40591 1.3136 -1.1858 -0.16869 -0.46631 0.342386 0.10664 -0.045179 -0.177326 0.021706 0.0230693 0.0545525 0.604386 -0.0167466 -0.112855 0.0257208 0.120536 -0.14261 0.477839 0.075439 0.196691 -0.0200835 0.150514 0.0920643 -0.107166 -0.386192 0.025711
32566 -0.259417 -0.44551 3.08577 -0.218249 -0.194403 -2.30724 1.61905 -1.37988 -0.206903 -0.328457 0.278064 0.0242231 -0.0562639 -0.217983 0.0966268 -0.139108 0.214183 0.682736 -0.127369 -0.303965 -0.0383112 0.0851514 -0.369979 0.629669 0.0776639 0.224151 -0.0102841 0.238343 0.0113083 -0.069447 -0.314349 0.134123
36862 -0.223086 -0.393011 2.96251 -0.147369 0.0108052 -2.24698 1.14953 -0.977187 -0.299055 -0.442377 0.582433 0.262816 -0.0799829 -0.125663 -0.0627315 -0.00340357 -0.1976 0.612963 -0.233166 -0.251329 0.097017 0.175534 -0.210831 0.550474 -0.104116 0.463539 -0.0633955 0.0545693 0.0167315 -0.168333 -0.307616 -0.00901464
32672 -0.270136 -0.375244 3.10417 -0.158709 -0.188768 -2.39751 1.32204 -1.12602 -0.545418 -0.101389 0.29584 -0.02777 0.123773 -0.136187 0.0521684 -0.0627049 -0.341202 0.573664 -0.178994 -0.151318 -0.0660302 0.0733721 -0.432925 0.387267 -0.0114795 0.473447 0.0166748 0.168253 -0.0724966 -0.194714 -0.248897 -0.00620507
31527 -0.26021 -0.194155 2.98758 -0.090452 -0.175124 -2.28771 1.3322 -1.17104 -0.313309 -0.33829 0.35412 0.0933973 0.0138119 -0.220914 0.212336 0.195067 -0.136753 0.680942 -0.152098 -0.191636 0.00151992 0.0696746 -0.388397 0.476877 -0.012055 0.322291 -0.00658639 0.11504 0.0725859 -0.213761 -0.567959 -0.141029
34080 -0.161164 -0.105973 2.98515 0.0585771 -0.21324 -2.26482 1.61963 -1.26907 -0.368949 -0.326139 0.0652221 0.113217 -0.0901157 -0.382365 0.03728 0.15618 -0.120961 0.605036 0.0597895 -0.0886678 0.0467485 0.194287 -0.348233 0.533761 -0.0956271 0.196195 0.0896813 0.143455 -0.0621797 -0.0935415 -0.365662 -0.122066
32690 -0.179599 -0.254714 2.9657 -0.0226815 -0.0848998 -2.19625 1.39979 -1.15566 -0.35084 -0.543591 0.369744 0.141598 -0.150441 -0.407433 0.152306 0.0154618 -0.210378 0.589806 -0.0420177 -0.134763 0.0608076 0.0671996 -0.303815 0.666634 -0.138518 0.478417 0.0240394 -0.103794 -0.158553 -0.0508401 -0.403986 -0.117703
36231 -0.310343 -0.415608 2.8125 -0.111379 -0.340739 -2.42883 1.41116 -1.29088 -0.374688 -0.230212 0.298605 0.0682775 0.174383 -0.129874 0.0724672 -0.0379576 -0.313004 0.509659 -0.229239 -0.122136 -0.0289084 0.0704134 -0.441923 0.535919 -0.120083 0.456909 -0.0257862 0.0380223 -0.267396 -0.107945 -0.0523491 -0.148848
32747 -0.266666 -0.340183 2.49594 -0.0173157 -0.0249901 -1.89045 0.994087 -0.766286 -0.347838 -0.617837 0.428193 0.262165 0.0205415 -0.354529 0.0631445 -0.015415 -0.0183333 0.656464 -0.0560386 -0.107713 0.0626027 0.147763 -0.330053 0.81369 -0.116114 0.534445 -0.0179305 -0.023774 0.01964 -0.143206 -0.522998 -0.158168
32847 -0.149048 -0.335123 2.68492 -0.0936788 0.0419082 -1.9571 0.919659 -0.638445 -0.364708 -0.359563 0.406623 0.281208 0.0211746 -0.267711 -0.00650158 0.0076892 -0.201502 0.666134 -0.110323 -0.0936644 0.0612544 0.141235 -0.208058 0.535433 -0.136479 0.469462 -0.159424 -0.0559681 0.0895998 -0.238566 -0.502182 -0.0636743
33960 -0.306105 -0.45132 3.01724 0.0174118 -0.0743096 -2.25544 1.22189 -0.907478 -0.291515 -0.622535 0.362046 0.358857 0.0447757 -0.255692 0.0430051 -0.11506 -0.0504894 0.499891 -0.0156114 -0.182129 0.159364 0.107848 -0.29365 0.654996 -0.0651136 0.28955 0.00607281 -0.182358 -0.08659 -0.0412923 -0.131263 -0.164503
33724 -0.256933 -0.367783 2.91658 -0.0405811 -0.0369279 -2.34993 1.37266 -1.15369 -0.503635 -0.535094 0.337323 0.323248 0.0331267 -0.219731 0.018369 0.0284517 0.0968587 0.479725 0.0421655 0.00481008 0.068363 0.0401425 -0.250105 0.717341 -0.035737 0.340062 0.0378099 -0.0778297 -0.00949785 -0.0301757 -0.181106 0.0279952
31093 -0.184962 -0.249418 2.96435 0.015032 -0.179753 -2.14073 1.19641 -0.961115 -0.326377 -0.530159 0.272132 0.256413 -0.0175595 -0.337599 0.0933256 -0.0186229 -0.0589946 0.608366 -0.0145628 -0.164103 0.0916107 0.154822 -0.338966 0.831901 -0.138932 0.413783 0.0517161 -0.00282475 -0.074279 -0.13029 -0.413339 -0.0741736
33628 -0.316557 -0.363414 2.81123 -0.0616048 -0.128112 -2.40081 1.6453 -1.24513 -0.317076 -0.424151 0.0620643 0.348844 0.0106124 -0.439504 0.114321 -0.0125104 -0.160222 0.388092 0.00249083 -0.0942245 -0.0194598 0.179462 -0.181263 0.507548 -0.0115088 0.254497 0.0728101 -0.031966 0.034902 -0.0813216 -0.423039 -0.0999439
31963 -0.466511 -0.467357 2.80572 0.140436 -0.0384235 -2.5448 1.33264 -0.95771 -0.461828 -0.466416 0.199524 0.272942 0.148912 -0.116146 0.00338933 -0.217442 0.0240105 0.484549 -0.127531 -0.0317894 0.138887 5.52289e-05 -0.350284 0.498451 -0.148288 0.278092 0.000468564 -0.188605 0.0576624 -0.213003 -0.227717 -0.0944848
32000 -0.294044 -0.520759 2.85562 -0.047274 -0.196738 -2.59715 1.32089 -0.977232 -0.460288 -0.360664 0.052717 0.229632 0.105362 -0.0833685 -0.0703295 -0.217705 -0.119878 0.622144 -0.0950662 -0.0732228 0.0676614 -0.0413292 -0.365949 0.498823 -0.057758 0.286399 -0.100092 0.00900376 0.0678172 -0.15668 -0.215203 0.184316
34550 -0.331977 -0.379779 2.8167 0.0143175 -0.0761114 -2.30633 1.29995 -0.880651 -0.391389 -0.784737 0.23264 0.339339 0.00525879 -0.134222 -0.0289999 -0.146784 0.0698927 0.538497 -0.00920359 -0.184426 0.0918265 0.13617 -0.316952 0.604796 -0.0376738 0.254803 0.0533614 -0.188392 -0.0245758 -0.0859879 -0.48859 -0.202937
35742 -0.0187243 -0.0897834 3.03083 0.0324755 -0.205505 -2.30163 1.60808 -1.46045 -0.382097 -0.476565 0.157424 -0.0012669 -0.133494 -0.279947 0.159347 0.0827974 -0.0616399 0.668315 -0.0763596 -0.0227506 0.0379164 0.0390913 -0.384582 0.657336 0.0400361 0.205909 0.0249091 0.143915 -0.0918453 -0.118748 -0.281238 -0.0302951
33832 0.0435682 -0.236864 2.96039 0.0317369 -0.0688438 -2.4006 1.77186 -1.40292 -0.157518 -0.268077 0.141252 0.155306 0.0591075 -0.219003 0.0827117 -0.00126771 -0.0816794 0.57408 -0.0195613 -0.273455 -0.104774 0.0484732 -0.0104282 0.368026 0.0484222 0.44445 -0.162588 0.0493375 0.00798999 -0.0433543 -0.320944 -0.105323
36567 -0.0574989 -0.274198 2.86642 -0.0817809 0.0424321 -2.27379 1.50167 -0.998927 -0.169586 -0.423636 0.17418 0.148768 -0.192171 -0.390675 0.12673 0.0995925 -0.132669 0.713833 0.00775156 -0.0710298 0.0337242 0.0229859 -0.288603 0.710119 -0.265463 0.1039 -0.12713 -0.0631441 0.0659202 -0.01868 -0.402012 -0.00742764
33707 -0.222224 -0.397061 2.68803 -0.0757257 -0.052304 -2.03933 1.02748 -0.830773 -0.336066 -0.582879 0.418126 0.232754 -0.0641377 -0.310795 0.0769214 0.0210882 -0.0466506 0.580359 -0.0459468 -0.0694179 0.0224824 0.0455038 -0.194648 0.606363 -0.170548 0.419434 -0.133498 0.00162269 0.000897357 -0.071146 -0.472787 -0.0434868
31238 -0.271172 -0.215755 2.9858 -0.242433 0.0641421 -2.42643 1.72691 -1.68594 -0.20866 -0.324839 0.167197 -0.0550159 -0.0782672 -0.455276 0.0418209 -0.130174 -0.0092175 0.575306 -0.0630849 -0.259215 -0.0979505 0.127066 -0.229617 0.545504 0.00435721 0.307195 -0.0334473 0.125506 -0.117226 -0.0596643 -0.27667 -0.0267288
35160 -0.219692 -0.272019 2.896 -0.0292431 -0.223182 -2.01862 1.19029 -1.02896 -0.44783 -0.627434 0.232026 0.135363 -0.0243382 -0.354812 0.0411758 0.0338666 -0.118193 0.689071 -0.115095 -0.215644 -0.00480237 0.170694 -0.321798 0.700509 0.0010991 0.333996 0.00317704 0.0913645 -0.0800964 -0.136599 -0.376055 -0.155119
36219 -0.00586568 -0.382535 3.10016 -0.289024 0.229933 -2.16123 1.76739 -1.97425 -0.255795 -0.245629 0.246079 0.0549228 -0.215453 -0.325685 -0.130154 -0.407138 -0.0714424 0.531276 -0.195651 -0.355411 -0.202959 -0.105479 -0.0585095 0.559729 -0.105828 0.274145 0.277278 0.0550801 -0.339635 0.102521 -0.48295 -0.194693
1258665 -0.025222 -0.105403 0.785348 -0.0332692 0.0167276 -0.546434 0.334555 -0.290791 -0.125282 -0.104736 0.0534713 0.044454 0.00448057 -0.080101 -0.0087864 -0.0448917 -0.0705857 0.217145 -0.0848556 -0.120923 0.00158687 0.0567881 -0.05245 0.172879 -0.0296423 0.158257 -0.000888208 -0.0161693 -0.00960352 -0.0460027 -0.15683 -0.0511079
34499 -0.208758 -0.303451 2.88081 -0.0421952 0.0665226 -1.93144 1.11916 -0.925842 -0.22276 -0.543294 0.421069 0.220558 -0.0620702 -0.490829 0.102987 0.0399262 -0.114891 0.740402 -0.046714 -0.0702609 0.00301772 0.166104 -0.231005 0.72496 -0.176962 0.448073 0.0212251 -0.0624152 -0.0971793 -0.236084 -0.582277 -0.155232
34054 -0.214223 -0.411459 3.00241 -0.0182586 -0.34603 -2.37634 1.31022 -1.25405 -0.221142 -0.549157 0.478301 0.070513 -0.126525 -0.261784 0.118023 0.00453523 -0.0232907 0.573361 -0.0260464 -0.033151 0.017019 0.00618204 -0.108255 0.615591 -0.0941811 0.415826 -0.0265722 0.0719856 -0.117958 -0.0773646 -0.378719 0.0838919
33730 -0.200757 -0.450273 2.84858 0.009412 -0.0332833 -2.4908 1.68785 -1.33871 -0.28615 -0.263792 0.17912 0.224637 0.0788894 -0.247567 0.0930827 -0.119888 0.158842 0.536979 -0.0599573 0.0406663 -0.0334178 -0.0222157 -0.190844 0.624492 0.149497 0.279884 0.0786083 0.0148094 0.0893045 -0.0610201 -0.241299 0.0379789
35786 -0.0816227 -0.478664 2.85244 0.0512896 -0.212659 -2.55385 1.39896 -1.05294 -0.600077 -0.350436 0.187528 0.34271 0.299737 0.0651324 -0.0145965 -0.383767 -0.0105115 0.452673 -0.11838 -0.119639 0.0865855 0.106706 -0.276966 0.483244 -0.0168585 0.318093 -0.0964631 -0.106168 0.063344 -0.153237 -0.296181 -0.0708379
36863 -0.115607 -0.468946 2.85894 0.0339556 0.0299697 -2.40281 1.48656 -1.14908 -0.236758 -0.558766 0.168036 0.215186 0.143367 -0.22367 0.0946333 -0.131719 0.179938 0.415274 0.0436606 -0.154034 -0.000915502 0.134347 -0.208429 0.554952 -0.00257951 0.512119 0.0579062 -0.0899599 -0.0391051 -0.12292 -0.336151 -0.0935215
34160 -0.101878 -0.316063 2.86953 -0.0226771 -0.0818954 -2.22953 1.39176 -1.0926 -0.314518 -0.595832 0.343928 0.221832 -0.044345 -0.324507 0.0770226 0.029747 -0.0674095 0.541061 0.0616949 0.0250047 0.0381396 0.0494797 -0.305868 0.627335 -0.0643434 0.447574 -0.0498773 0.0123587 0.0151253 -0.199034 -0.432556 -0.0933459
32195 -0.193697 -0.307691 2.95405 0.0515224 -0.0327942 -2.26605 1.39371 -1.16916 -0.47271 -0.536886 0.0862568 0.167846 -0.0377189 -0.324983 -0.00669762 -0.0526095 0.121427 0.597154 0.0213652 -0.0509392 0.00162614 0.11222 -0.350973 0.55155 0.0989767 0.349016 0.015595 0.0406398 -0.0399012 -0.117866 -0.492955 -0.08736
33618 -0.288591 -0.364511 2.73553 0.0881048 -0.0770472 -2.40175 1.2125 -0.996024 -0.444041 -0.83758 0.124573 0.257977 0.142545 -0.209095 0.0345521 -0.249255 0.1326 0.540465 0.028048 -0.184419 0.079975 0.0642259 -0.392206 0.838943 0.0561232 0.365696 -0.00564839 -0.0861889 0.0389011 -0.142394 -0.456477 -0.166605
30941 -0.181922 -0.427812 2.93851 -0.0753292 -0.0359198 -2.33502 1.51313 -1.13203 -0.23949 -0.691171 0.166751 0.247123 0.0594077 -0.067095 0.0103696 -0.114069 0.108866 0.590938 0.0726519 -0.124186 0.0784221 0.0809139 -0.15003 0.550408 0.0779658 0.275212 -0.0363027 -0.106698 0.0447459 -0.0530162 -0.381601 -0.124565
35040 -0.22613 -0.406748 2.94904 -0.211333 -0.121849 -2.38798 1.53144 -1.17152 -0.10269 -0.419164 0.240768 0.028354 -0.0870856 -0.217959 0.0132519 0.0204777 -0.222394 0.552782 -0.0318995 0.0257235 0.127406 0.092291 -0.184982 0.618289 -0.128278 0.22853 -0.133886 -0.08729 -0.195888 -0.0814192 -0.234224 0.114514
33364 -0.00359187 -0.381734 3.0232 -0.226206 -0.049607 -2.30241 1.55757 -1.10251 -0.441476 -0.273305 0.406453 0.257304 0.0237316 -0.23007 -0.102129 0.0332756 -0.152443 0.543791 -0.0781867 0.0853714 0.082846 0.231926 -0.049928 0.486435 -0.0623098 0.403123 -0.118891 0.082267 -0.163098 -0.156753 -0.23504 0.0231767
34460 -0.299655 -0.49157 2.96271 -0.069474 -0.121201 -2.26269 1.50751 -1.24329 -0.108993 -0.466503 0.370635 0.285459 -0.0611795 -0.291699 0.0193569 -0.0955672 -0.0437856 0.644269 -0.0397967 -0.157947 -0.000167285 0.0662977 -0.113961 0.55277 -0.230063 0.275179 -0.00219348 -0.137145 0.132774 -0.0392511 -0.483944 -0.116001
36877 -0.120854 -0.204465 2.97578 -0.0974646 -0.0498191 -2.39328 1.64925 -1.26598 -0.0963646 -0.289865 0.461481 0.0870911 -0.0473576 -0.354702 0.12391 0.0183793 0.00317813 0.590767 -0.0194212 -0.0537032 0.057757 0.163336 -0.0749885 0.535065 -0.121507 0.345103 0.0435211 0.00859973 -0.136898 -0.227903 -0.417954 -0.0153501
36040 -0.336801 -0.533147 3.1278 -0.226403 -0.183439 -2.24578 1.06119 -0.900145 -0.265282 -0.45393 0.693428 0.210939 0.0326036 -0.139727 0.0450159 -0.0746147 -0.0681689 0.687695 -0.28166 -0.0736087 -0.0259711 0.100823 -0.0471595 0.545311 0.0305539 0.182936 -0.0674213 0.221391 0.0729433 0.0865102 -0.596756 0.115945
31964 -0.29076 -0.461323 2.93951 -0.0148391 -0.368768 -2.35678 1.29118 -1.06733 -0.6332 -0.116299 0.214113 0.0943768 0.134922 -0.226584 0.0476585 0.049602 -0.357599 0.55775 -0.23294 -0.144123 0.0572586 0.101886 -0.370898 0.464887 -0.16435 0.466946 -0.108951 0.0937305 0.0148699 -0.159765 -0.113235 -0.0369884
35119 -0.347256 -0.547814 3.01385 0.0112782 -0.353368 -2.39541 1.16162 -1.00966 -0.695751 -0.125484 0.285516 0.245272 0.317946 -0.222417 0.0859539 -0.282371 -0.186526 0.518131 -0.246159 -0.111227 -0.075543 -0.00885363 -0.380693 0.280514 -0.00859466 0.517346 -0.0514936 0.0441627 -0.0293247 -0.219249 -0.440955 -0.0863502
33728 -0.164534 -0.337122 2.95996 -0.0030615 -0.142942 -2.4027 1.57536 -1.30363 -0.386453 -0.247011 0.215051 0.259301 0.214969 -0.192692 0.0993217 -0.0401628 -0.0454769 0.508719 -0.102185 -0.151915 0.0827872 0.00659267 -0.264662 0.409589 0.0924186 0.303183 -0.0123107 0.127442 0.0204735 -0.0845723 -0.195317 -0.0798522
32568 -0.305299 -0.46354 2.75375 0.0537717 -0.119631 -2.35256 1.14078 -0.875508 -0.528232 -0.691705 0.148123 0.335426 0.188888 -0.0806502 0.00342888 -0.18398 0.0516664 0.595083 -0.0968694 -0.19843 0.117253 0.04513 -0.282794 0.55711 -0.0310414 0.401318 -0.0199652 -0.0612094 0.0536844 -0.162628 -0.482184 -0.0686558
36096 -0.150718 -0.412781 2.91172 -0.101316 -0.162412 -2.49683 1.29391 -0.972221 -0.422311 -0.457397 0.150037 0.315771 0.230061 -0.0627481 0.0505492 -0.0994701 -0.100941 0.614615 -0.0553975 -0.0689723 0.110345 0.110267 -0.320286 0.419924 0.0411872 0.432222 -0.0846268 0.0139326 0.00422352 -0.0681452 -0.23388 -0.107885
32780 -0.210053 -0.35813 2.83041 0.0136459 -0.133148 -2.52237 1.30076 -1.27104 -0.074266 -0.657649 0.242479 0.2511 -0.0230909 -0.267064 0.0291771 -0.247483 -0.0846036 0.487445 0.184589 -0.0841598 -0.0032226 0.0735024 -0.0744041 0.711968 -0.0189456 0.222189 -0.0258457 -0.00042826 -0.126523 -0.0468808 -0.170096 -0.167156
35818 -0.373144 -0.26814 3.10612 -0.407116 0.0722674 -2.29929 1.50588 -1.21352 0.136711 -0.331088 0.453217 -0.0275007 0.0576425 -0.162363 0.102405 0.114701 0.0935445 0.648544 0.0024221 -0.0492914 -0.0723666 0.267953 -0.173743 0.494268 0.129847 0.0237614 0.0383341 0.310577 -0.0189439 0.103622 -0.562789 -0.101452
32119 -0.320182 -0.418922 3.12273 -0.377907 -0.2339 -2.50107 1.55582 -1.45644 0.027293 -0.171826 0.370244 -0.154903 -0.0846888 -0.126073 0.180306 0.0679674 -0.139033 0.76393 -0.154779 -0.0477171 -0.19101 0.159553 -0.0228719 0.433736 0.151977 0.122617 0.114033 0.32956 -0.000672835 0.256335 -0.349653 0.0816736
35947 -0.288166 -0.401176 3.06616 -0.243892 -0.210399 -2.43252 1.28324 -1.07944 -0.263431 -0.341346 0.428021 0.247992 -0.0068033 -0.19767 -0.0311269 -0.0353109 -0.0649982 0.64675 -0.221595 -0.0466432 -0.0844235 0.0664704 -0.0176154 0.573741 0.0527506 0.483363 -0.175156 0.161722 0.0444155 -0.0748232 -0.43735 0.192731
35159 -0.392235 -0.565041 3.07575 -0.104148 -0.213569 -2.34104 1.21302 -1.06157 -0.272151 -0.159964 0.496894 0.170181 0.051713 -0.250761 0.059145 -0.0635165 -0.261714 0.66926 -0.20846 -0.0863765 -0.0666269 0.0508401 -0.139059 0.416126 -0.0892233 0.225571 -0.120023 0.0902387 0.194139 0.0504165 -0.455572 -0.160287
32675 -0.181491 -0.269338 2.89445 -0.19644 0.147727 -2.25401 1.34371 -0.930439 -0.241052 -0.178495 0.339684 0.202801 -0.213896 -0.353329 -0.0171764 0.170002 -0.139152 0.759643 0.041719 0.134161 -0.149792 -0.152549 -0.199042 0.519745 -0.25664 0.193432 -0.22457 -0.132569 0.172754 -0.207871 -0.555173 0.023465
35221 -0.0898689 -0.429683 2.93181 -0.168684 0.038548 -2.38519 1.57506 -1.13001 -0.240836 -0.313116 0.112301 0.0688381 -0.0665686 -0.162352 -0.0150714 0.0726846 -0.0774632 0.782505 0.022384 0.119827 0.197622 0.0786822 -0.132573 0.299543 -0.126309 0.372213 -0.258851 0.127207 -0.223785 -0.0835484 -0.38187 0.134357
35968 -0.306882 -0.3681 2.95303 0.0720576 -0.317904 -2.3828 1.42691 -1.39877 -0.0980791 -0.357425 0.564257 0.125403 -0.122703 -0.179601 0.209769 0.0245769 0.118042 0.713469 -0.03178 0.0673221 0.00909295 -0.00801352 -0.140856 0.519763 0.00436593 0.360945 0.0660575 0.0873068 0.0164115 -0.0776658 -0.343544 0.0587948
30968 0.00364648 -0.185957 3.02474 -0.161751 0.21614 -2.35919 1.71495 -1.02771 -0.185403 -0.245587 0.286936 0.147309 -0.158363 -0.253641 -0.0621845 0.168429 -0.272544 0.542521 0.0360752 -0.0248897 -0.0208163 0.11281 -0.115878 0.573887 -0.265483 0.164372 -0.127676 -0.141602 -0.0140211 -0.0920242 -0.296915 0.103646
36692 -0.213135 -0.273943 3.00108 -0.179542 0.156767 -2.18456 1.49183 -0.94855 -0.214811 -0.529602 0.448112 0.348505 -0.0874424 -0.389087 0.113018 0.0754118 -0.243977 0.576112 -0.0505048 -0.138749 -0.0753456 0.095327 -0.220928 0.606326 -0.210515 0.0853693 -0.149943 -0.121194 0.140898 -0.0921764 -0.559249 -0.191683
36394 -0.215252 -0.389001 2.53456 0.0386649 -0.0580689 -1.85493 0.977213 -0.72277 -0.42493 -0.657745 0.278154 0.292638 0.00910095 -0.375179 0.0593632 -0.0917865 -0.0795925 0.628797 -0.0188782 -0.148028 0.0350834 0.132023 -0.337244 0.817713 -0.140404 0.527559 0.0124961 -0.0910941 -0.0112764 -0.185957 -0.49011 -0.147413
31905 -0.271437 -0.350031 2.90566 -0.093523 0.0237077 -1.92019 1.01194 -0.785926 -0.301885 -0.484707 0.47141 0.28825 0.00937856 -0.403205 0.0562615 -0.0148247 -0.104007 0.487951 -0.0532114 -0.133037 0.00112695 0.161746 -0.241558 0.686264 -0.163039 0.430938 -0.0452512 -0.0189557 0.00209569 -0.124364 -0.500491 -0.197085
31138 0.0808824 -0.456479 2.91354 -0.0292438 -0.0401449 -2.32649 1.57371 -1.33869 -0.24753 -0.291961 0.323931 0.118816 0.0396136 -0.238114 0.134375 0.210589 -0.0445187 0.541317 -0.0492424 0.055652 0.00919336 0.0346697 0.0682507 0.526924 -0.209062 0.320562 -0.329317 0.0403695 0.122335 -0.0871097 -0.487056 0.057251
33340 -0.305076 -0.0942969 2.97 -0.050298 -0.150188 -2.34615 1.60545 -1.42885 -0.187472 -0.351187 0.346222 0.195894 -0.171662 -0.471285 0.0791723 0.0887774 -0.0978215 0.614973 0.0497583 0.0464708 -0.11132 0.0264952 -0.317152 0.486827 0.00690658 0.459803 0.0716404 0.0438871 -0.0453628 -0.156298 -0.366865 -0.0296155
36537 -0.259349 -0.379565 2.98592 -0.12437 -0.0475204 -2.21189 1.35039 -1.03694 -0.252803 -0.654195 0.347307 0.237357 -0.0588632 -0.450866 0.0802252 0.0350037 0.057616 0.638492 0.05658 -0.197032 0.0523343 0.12247 -0.282232 0.746711 -0.11458 0.427443 -0.036482 0.167821 -0.108583 -0.103272 -0.519752 -0.046329
34345 -0.206619 -0.282806 2.89067 -0.0695175 -0.0617528 -2.00457 1.19611 -0.939476 -0.441551 -0.601379 0.482772 0.212811 -0.0412712 -0.368943 0.0551096 -0.0249295 -0.189351 0.754239 -0.0952704 -0.165993 0.0581257 0.145712 -0.313857 0.886272 -0.0745411 0.399859 -0.091567 0.00753686 -0.010056 -0.117003 -0.468571 -0.0951417
31137 -0.236102 -0.432852 3.02976 0.00674671 -0.155649 -2.15698 1.41356 -1.13566 -0.303912 -0.561807 0.337577 0.153544 -0.0467713 -0.329155 0.124062 0.0422197 -0.131766 0.666158 -0.0374623 -0.134728 0.0694891 -0.016879 -0.21406 0.573058 -0.0608476 0.400649 -0.0393486 0.0193338 0.0114942 -0.158488 -0.52909 -0.0783253
35083 -0.195012 -0.333174 2.9567 -0.0313359 -0.226557 -2.45919 1.35854 -1.09344 -0.349254 -0.585562 0.274104 0.170136 0.117462 -0.116083 0.0649409 0.0101797 0.00380652 0.59009 -0.011417 -0.0257166 0.0286 0.00913796 -0.189048 0.583732 -0.0701354 0.169167 0.114235 -0.0482693 -0.0605925 -0.0465292 -0.405497 -0.19898
34908 -0.348601 -0.161326 2.92465 0.00449451 -0.151136 -2.44919 1.54183 -1.33121 -0.146651 -0.382006 0.118198 0.171685 0.0242919 -0.168162 0.0241635 0.178186 -0.274966 0.453162 -0.109841 -0.13173 -0.0197787 0.146507 -0.174914 0.527186 -0.0835294 0.256966 -0.239344 0.0646353 0.114281 -0.0111135 -0.117208 -0.28681
35293 0.0579302 -0.212916 2.9217 -0.0379165 -0.213941 -2.34292 1.69732 -1.27384 -0.268228 -0.279624 0.456048 0.0993815 -0.106423 -0.167344 0.00403683 -0.0750293 -0.3828 0.421922 0.00180305 -0.00278328 0.138342 0.144255 -0.137571 0.523752 -0.00928263 0.41491 -0.0839268 -0.0831436 -0.0285408 -0.232602 -0.212763 0.19041
32870 -0.137255 -0.222747 2.98238 -0.0538051 -0.0610211 -2.21449 1.44811 -1.19657 -0.322732 -0.456097 0.129348 0.117486 -0.0304773 -0.25267 0.041503 0.0877279 -0.0920705 0.732497 0.0286277 -0.0535822 0.00466469 0.10009 -0.285991 0.786318 -0.0977152 0.339146 -0.0817003 -0.017 0.0145027 -0.0832293 -0.447344 -0.0412786
33119 -0.148047 -0.266543 2.8482 -0.0445348 -0.0693073 -2.30675 1.37133 -1.16994 -0.338585 -0.296719 0.433256 0.19988 -0.0558737 -0.146979 -0.0115746 0.0812777 -0.314377 0.614558 -0.0925164 -0.147639 0.0205055 -0.000539241 -0.187238 0.810872 -0.343374 0.207654 -0.111608 -0.0776265 0.127074 -0.0791977 -0.301149 -0.205132
35376 -0.0982505 -0.335451 3.01396 -0.0277352 0.0166234 -2.35813 1.63856 -1.12046 -0.0596106 -0.310531 0.42497 0.209048 -0.144663 -0.325019 0.0461977 0.106033 -0.334147 0.35234 0.111676 -0.119613 0.113502 0.0798853 -0.157174 0.723116 -0.346685 -0.0366916 0.0234771 -0.26998 -0.190985 -0.0429687 -0.139098 -0.0259065
33998 -0.102515 -0.391405 2.85192 -0.0596136 -0.0695762 -2.16961 1.15084 -0.7785 -0.464843 -0.454814 0.40271 0.341721 0.0173382 -0.279459 -0.0561563 -0.0389743 -0.259896 0.522019 -0.031647 -0.12076 0.120404 0.171975 -0.172036 0.664698 -0.130456 0.460427 -0.135263 -0.132445 -0.00702318 -0.218774 -0.37678 -0.0644866
32377 -0.170782 -0.380423 2.55819 -0.027616 -0.0949665 -1.97374 1.01 -0.730157 -0.452174 -0.510001 0.367543 0.289125 0.0413745 -0.325056 0.0331758 -0.0722613 -0.134897 0.527993 -0.101596 -0.15492 0.109412 0.196888 -0.236136 0.654541 -0.146662 0.54179 -0.077859 -0.0881894 -0.0209811 -0.204004 -0.375039 -0.0679216
34168 -0.130096 -0.427595 2.89036 -0.0622471 0.0187856 -2.01525 1.10161 -0.630517 -0.351502 -0.235949 0.492937 0.281461 -0.0537108 -0.364491 -0.00242817 0.0539265 -0.408221 0.492727 -0.0445387 -0.0364696 0.127558 0.228532 -0.224929 0.761275 -0.283354 0.513913 -0.206389 -0.167871 -0.0200638 -0.269717 -0.318989 -0.0429974
33892 -0.139489 -0.361999 2.93211 -0.0418771 -0.0189508 -2.40549 1.22997 -0.976731 -0.445191 -0.273392 0.259772 0.242226 0.0537499 -0.295726 0.0292323 0.0793906 -0.163818 0.624145 -0.0824512 -0.0394251 0.0588112 0.15566 -0.185287 0.441264 -0.0895071 0.289249 -0.110672 0.0139453 0.130162 -0.161494 -0.328716 -0.00122003
36099 -0.270335 -0.268853 2.99864 -0.103653 0.0859055 -2.43004 1.43065 -1.13459 -0.35396 -0.0905486 0.172782 0.366572 0.133454 -0.283701 -0.122847 0.0127407 -0.159515 0.67006 -0.122036 -0.00852162 -0.103283 0.117877 -0.0938098 0.428881 0.0405653 0.18924 -0.0834386 -0.0977104 0.235584 -0.0538467 -0.282986 -0.208856
35079 -0.105555 -0.459211 2.98198 -0.0004459 -0.040378 -2.39108 1.29984 -0.976977 -0.400566 -0.288817 0.257622 0.356284 0.137855 -0.207716 -0.125129 -0.174415 0.0461892 0.642508 -0.148557 -0.048503 -0.0321371 0.0760464 -0.187664 0.554184 0.120567 0.204857 -0.0820983 0.0297573 0.149909 -0.134492 -0.484382 -0.0110467
32219 -0.0857274 -0.26533 3.00883 0.120415 -0.103704 -2.40187 1.53834 -1.36138 -0.213254 -0.239849 0.257192 0.236487 -0.0113261 -0.274751 -0.145831 0.0660877 -0.0746581 0.681212 0.0341588 0.114441 -0.11253 0.0463162 -0.0837876 0.424555 -0.0166333 0.432113 -0.101199 0.0465471 0.0753989 -0.231574 -0.386401 -0.0098174
33830 -0.108846 -0.344429 3.07016 -0.315767 -0.242013 -2.39669 1.66586 -1.29565 0.0534034 -0.304207 0.323179 -0.044007 -0.0217036 -0.182279 0.108332 0.000425428 -0.042268 0.618264 -0.102527 -0.228651 0.0950664 0.132554 -0.263957 0.452229 -0.0795533 0.280807 0.141375 0.0682836 0.000478877 0.08028 -0.220832 -0.0242365
36707 -0.242789 -0.428848 2.54845 0.109647 -0.127259 -2.05974 1.00805 -0.843086 -0.403084 -0.695186 0.253338 0.337882 0.0762356 -0.156636 -0.0129063 -0.136654 0.0445044 0.582331 -0.0633013 -0.127215 0.0723395 0.0420043 -0.295941 0.740645 -0.093623 0.339638 -0.0183402 -0.10637 0.0780546 -0.109495 -0.432638 -0.0994028
35734 -0.23251 -0.297307 2.93129 0.00549684 -0.190713 -2.2305 1.30291 -1.08675 -0.356696 -0.551507 0.364212 0.131393 -0.0842773 -0.388949 0.15741 0.0233392 -0.001026 0.505227 0.0315705 -0.103804 0.00743731 0.0581794 -0.389645 0.825105 -0.0621601 0.413409 -0.00794143 0.0211909 -0.0675942 -0.121382 -0.526085 -0.082647
31982 -0.210256 -0.298455 2.89362 -0.015715 -0.0838215 -2.02502 1.1831 -0.978278 -0.284963 -0.687436 0.334483 0.17482 -0.0590981 -0.369825 0.162736 0.0231404 -0.0644539 0.686485 -0.0920733 -0.224873 0.0209761 0.0782931 -0.349423 0.856567 -0.221797 0.449851 -0.00767237 -0.0729161 0.00101296 -0.115502 -0.589216 -0.179267
31682 -0.332418 -0.375018 3.04025 -0.036483 0.072527 -2.19715 1.31216 -1.05889 -0.357652 -0.493244 0.538256 0.273722 -0.0250529 -0.377342 0.047348 0.0418 -0.150581 0.491674 -0.0945991 -0.0768322 0.116529 0.137985 -0.151562 0.573378 -0.110744 0.394167 0.00833822 -0.0700219 -0.00302647 -0.188163 -0.253264 -0.130737
35688 -0.0802465 -0.307156 2.95662 -0.0984136 0.0246925 -2.4598 1.58245 -1.28406 -0.270847 -0.353845 0.266473 0.358591 0.116736 -0.0831416 0.124275 0.0264664 0.110659 0.531333 0.00929783 -0.126134 0.0347269 0.0913141 -0.0777967 0.493202 0.0712031 0.210561 -0.0844312 -0.0208889 0.170874 -0.0120008 -0.371929 -0.140167
32185 -0.195326 -0.283786 2.85935 -0.0943556 0.0330146 -2.45057 1.33993 -1.21933 -0.0156745 -0.452002 0.467126 0.463049 0.191903 -0.179728 -0.022277 -0.102033 0.014305 0.531008 0.061149 -0.170949 0.0349721 0.10327 -0.112895 0.579485 0.0108425 0.245597 -0.0452457 -0.0449857 -0.0197291 -0.0733377 -0.186207 -0.123707
31037 -0.260921 -0.378382 2.91029 -0.0401483 -0.124003 -2.06183 1.14227 -0.949076 -0.497235 -0.497444 0.293397 0.193881 -0.012418 -0.263669 -0.0187032 0.0561917 -0.0509058 0.695451 -0.0688858 -0.0832306 -0.0235176 0.0732536 -0.355898 0.677204 -0.129414 0.432461 -0.0764381 0.0469343 0.0634394 -0.103827 -0.543639 -0.153908
33149 -0.197523 -0.214955 2.9831 -0.0721042 -0.0452281 -2.29708 1.44321 -1.23911 -0.209276 -0.563531 0.363601 0.144419 -0.0429346 -0.161201 0.132028 0.107473 -0.0217328 0.555223 -0.157135 -0.0228672 0.0920188 -0.0737651 -0.152327 0.547363 -0.049665 0.247801 0.073702 -0.0505354 0.0381067 0.0512295 -0.377809 0.0304755
32508 -0.254678 -0.386909 2.93524 -0.153408 -0.00336636 -1.92952 1.09448 -0.841901 -0.354411 -0.543435 0.425651 0.271354 -0.0993002 -0.353704 0.00243895 0.0767384 -0.155729 0.787736 -0.0228992 -0.135782 0.0776726 0.0983806 -0.331744 0.770296 -0.182983 0.441024 -0.134947 0.0730044 0.0790859 -0.114517 -0.546214 -0.0484417
35747 -0.171922 -0.102285 2.97641 0.101689 -0.111445 -2.3175 1.55345 -1.44751 -0.211163 -0.324157 0.287061 -0.0144146 0.0271355 -0.282426 0.0749975 0.103704 0.102597 0.544526 0.020272 0.0466331 0.0327275 0.141943 -0.191909 0.422909 -0.0453542 0.476884 0.127698 0.0735712 -0.00831356 -0.0915887 -0.113062 -0.0777929
32157 -0.428962 -0.0292649 3.10502 0.118214 0.465412 -2.82182 1.92945 -1.57391 -0.0680612 -0.0813773 0.889652 0.189349 0.0311214 -0.527362 0.158362 0.324487 0.405157 0.634249 0.0887454 0.217799 -0.00992269 0.282446 -0.362009 0.385294 0.0731725 0.588444 0.275263 0.0502147 0.10663 -0.271132 -0.267896 -0.214139
107836 -0.220015 -0.137194 1.59888 0.0183559 0.201793 -1.31929 0.595429 -0.42483 -0.0521672 -0.204169 0.427669 0.24451 -0.0323846 -0.299381 0.0862031 0.0869568 0.0674148 0.446145 -0.0199767 0.124804 -0.0144874 0.13646 -0.275841 0.545841 -0.118128 0.389665 0.0273797 -0.103887 0.111898 -0.167125 -0.452424 -0.18212
33324 -0.259452 -0.151318 2.91358 -0.0808773 -0.070287 -1.99856 1.25858 -1.04921 -0.34648 -0.506594 0.250802 0.169025 -0.0708557 -0.352448 -0.0247748 0.0359338 -0.140631 0.74766 -0.10542 -0.263004 0.00440554 0.21202 -0.362028 0.745651 -0.0348977 0.390936 -0.0301448 0.107932 0.00620261 -0.117571 -0.501629 -0.14016
34374 -0.315684 -0.352253 2.60283 -0.112416 -0.0641304 -1.80253 0.811281 -0.691428 -0.298024 -0.516389 0.393429 0.24408 0.0149737 -0.300292 0.0551099 -0.0793707 0.00109874 0.708193 -0.169534 -0.228033 -0.0140155 0.203523 -0.337201 0.863799 0.00492354 0.535582 -0.0727284 0.11436 0.0674375 -0.106265 -0.51251 -0.0412606
35627 -0.336704 -0.321541 3.09374 -0.207719 0.0726029 -2.37183 1.7321 -1.52881 -0.21056 -0.246962 0.214441 0.118336 -0.0205215 -0.457566 0.0680744 -0.0218098 0.0972051 0.54034 -0.0666468 -0.211817 0.0169485 0.0526419 -0.313989 0.527648 -0.00238735 0.234698 -0.039049 0.239062 0.000962546 -0.0274777 -0.320402 0.0741043
33128 -0.358594 -0.250747 2.97265 -0.287169 -0.0758139 -2.48721 1.56459 -1.49494 -0.126623 -0.281492 0.383901 0.00437468 -0.0674723 -0.173189 0.10095 0.145536 -0.0762279 0.699391 -0.0492778 -0.133307 -0.161602 0.103943 -0.0851903 0.361388 0.0892917 0.358077 0.102639 0.124986 -0.0301135 0.198726 -0.442605 0.148431
35795 -0.0677262 -0.19297 2.91817 -0.0266757 -0.154837 -2.37648 1.54074 -1.14717 -0.298661 -0.529679 0.191659 0.0275034 0.0789103 -0.256877 0.16654 0.213791 -0.0183476 0.602409 -0.144695 0.0108849 0.0188363 0.0245747 -0.24676 0.634931 -0.0275191 0.327602 -0.106778 0.026044 0.168956 -0.0868814 -0.27717 -0.0709322
31622 -0.179098 -0.431338 2.92033 0.020744 -0.128255 -2.29299 1.21832 -0.893655 -0.481119 -0.650267 0.321849 0.315245 0.124862 -0.109086 0.0179692 -0.116129 0.0321474 0.656444 -0.0815593 -0.10943 0.145598 0.0876416 -0.248129 0.729274 -0.0371296 0.257435 -0.0698228 -0.201239 0.0483658 -0.0148856 -0.40633 -0.10926
35511 -0.291158 -0.322784 2.9627 0.0772902 -0.123028 -2.4154 1.69225 -1.4319 -0.012233 -0.32624 0.264252 0.251789 -0.0372348 -0.323152 -0.108341 0.13495 0.0323086 0.563369 -0.0808087 -0.237029 -0.006324 0.159785 -0.212482 0.472741 -0.184968 0.302264 -0.1163 -0.0794252 0.203602 -0.149929 -0.248272 -0.16666
31022 -0.139543 -0.309356 2.31567 -0.0304808 -0.00696819 -1.67508 0.882714 -0.603022 -0.421297 -0.472929 0.361579 0.311164 -0.00588363 -0.326989 -0.0134816 -0.0272343 -0.153139 0.618643 -0.0501254 -0.0940805 0.0455957 0.125313 -0.230407 0.620239 -0.196581 0.464858 -0.167295 -0.0616559 0.0945912 -0.240001 -0.54626 -0.0851962
32117 -0.195383 -0.225476 2.84765 -0.00261573 0.0253899 -2.53355 1.62943 -1.32551 -0.39848 -0.246456 0.175227 0.137967 0.0362262 -0.167618 0.0430817 0.0558874 0.00276028 0.592228 -0.117479 -0.0227201 0.0293528 0.223899 -0.240983 0.410027 0.154874 0.308668 -0.0796364 0.034645 -0.109416 -0.103302 -0.345826 -0.172923
33692 -0.171994 -0.433913 2.78307 0.0221502 -0.170803 -2.54601 1.41128 -1.17894 -0.239414 -0.76715 0.104823 0.292142 0.147941 -0.100637 -0.0506513 -0.137362 0.0435935 0.423475 0.121198 -0.037819 0.0369798 0.147569 -0.148998 0.647644 -0.0481767 0.0756581 0.0185617 -0.106097 -0.0113251 -0.123509 -0.183194 0.00917648
31279 -0.21264 -0.37143 2.88853 0.0417108 -0.069824 -2.2106 1.13925 -0.887679 -0.383102 -0.583466 0.319337 0.372904 -0.0361129 -0.364346 0.0483929 -0.0451256 -0.0875645 0.502493 -0.0526457 -0.123462 -0.0738126 0.0649182 -0.197717 0.573063 -0.245563 0.280217 0.0130689 -0.173015 0.0422129 -0.0880991 -0.31042 -0.207377
36749 -0.0619688 -0.237449 2.99437 -0.17502 -0.0781438 -2.42455 1.54305 -1.10225 -0.222617 -0.327418 0.427472 0.190499 -0.20512 -0.202251 -0.0739008 -0.00298967 -0.37213 0.463495 0.197117 -0.022266 0.0595518 0.0924645 -0.179967 0.597433 -0.193001 0.303438 -0.0144207 -0.117569 -0.268206 -0.265682 -0.217431 -0.0301685
36624 -0.264063 -0.275882 2.95765 -0.109971 0.0888119 -2.34467 1.51877 -1.07601 -0.494659 -0.521428 -0.0717898 0.276822 0.0833292 -0.181614 -0.17477 -0.139635 0.0636657 0.559127 -0.00863582 -0.13086 0.0241351 0.140125 -0.211024 0.452245 0.129031 0.124287 -0.112778 0.103229 0.216997 -0.228863 -0.40873 0.0267798
33584 -0.145214 -0.356583 2.89 -0.152763 0.000212775 -2.27872 1.3117 -1.1406 -0.19802 -0.534397 0.364405 0.0402752 -0.0753045 -0.172282 0.00235697 -0.0754528 -0.0241865 0.772179 -0.147793 0.00285885 0.0279567 0.0441148 -0.170757 0.642281 0.0549392 0.179971 -0.0562225 0.250549 0.00864302 0.0175605 -0.368506 -0.0432557
33843 -0.201065 -0.220614 2.89498 0.00780213 -0.126329 -2.43573 1.8146 -1.45123 -0.0861499 -0.513832 0.394965 0.137812 -0.228619 -0.326158 0.189267 0.0643949 -0.0708084 0.509218 0.0233996 -0.169876 0.0285947 0.147454 -0.271292 0.685043 -0.158452 0.301412 -0.0238679 0.170709 -0.129653 -0.15161 -0.238595 -0.0316428
33031 -0.222693 -0.309283 2.86446 0.0277831 -0.0125424 -2.20681 1.17302 -0.939633 -0.380024 -0.688482 0.340701 0.231883 -0.039344 -0.446535 0.118259 0.0253668 -0.0484554 0.768115 0.0611181 -0.111477 0.0438568 0.0988117 -0.33417 0.842132 -0.0700591 0.386571 -0.00271889 -0.013111 0.0564995 -0.123613 -0.484567 -0.145896
36597 -0.274445 -0.330452 2.83306 -0.0511944 -0.0598231 -2.10956 1.1777 -0.894278 -0.418178 -0.644814 0.356369 0.19755 0.0307305 -0.364989 0.0473146 0.0897814 -0.120248 0.537292 -0.0149546 -0.0526878 0.0169439 0.112981 -0.333708 0.728426 -0.0461552 0.389678 -0.0536007 0.0349535 0.0511497 -0.107269 -0.550672 -0.0781685
36953 -0.143358 -0.301505 2.74342 -0.0482216 -0.110461 -2.05173 1.13055 -0.924323 -0.558405 -0.657623 0.452606 0.313187 0.0450243 -0.306127 0.026356 0.0599668 -0.156629 0.70622 -0.123149 -0.12491 0.0522393 0.155619 -0.248968 0.642255 -0.0825598 0.44265 -0.0898935 0.044668 0.053589 -0.172632 -0.477932 -0.0293486
33336 -0.243665 -0.462061 2.87923 -0.0780744 -0.200931 -2.04988 1.00136 -0.831474 -0.550877 -0.422537 0.364695 0.204988 0.0167098 -0.285765 0.0409093 -0.0593446 -0.219344 0.599444 -0.152714 -0.174397 0.0416353 0.16238 -0.239424 0.532824 -0.0996092 0.609725 -0.12893 0.113978 -0.0211208 -0.178971 -0.518262 -0.0164119
30946 -0.338717 -0.402552 3.03802 -0.189251 -0.209805 -2.41203 1.6379 -1.49113 -0.21088 -0.184624 0.307807 0.0706698 -0.0674715 -0.415611 0.0301382 -0.149429 0.186091 0.672335 -0.111394 -0.344516 0.0416454 0.00164408 -0.338937 0.557493 -0.0439648 0.00660561 -0.0510956 0.174023 0.0715942 0.0107045 -0.269012 -0.0535069
34506 -0.288134 -0.408437 2.57513 -0.077569 -0.00873288 -1.65485 0.86065 -0.653953 -0.365572 -0.272648 0.397078 0.224279 -0.0551856 -0.375166 0.0247076 -0.0160289 -0.243144 0.674374 -0.136586 -0.13318 -0.0342012 0.124118 -0.300174 0.712844 -0.213927 0.446412 -0.15779 0.000137923 0.0755214 -0.206279 -0.522378 -0.0910423
35329 -0.271082 -0.295413 2.97022 0.141534 -0.177014 -2.36514 1.42829 -1.24926 -0.331271 -0.595907 0.297133 0.151213 -0.0925816 -0.261493 0.0905847 0.100696 0.0785745 0.592758 -0.103624 -0.0840218 0.0963144 -0.0321017 -0.20383 0.652814 -0.0998405 0.155617 -0.128718 -0.049569 0.0881277 -0.044314 -0.218052 -0.302934
32461 -0.225846 -0.283887 2.78357 -0.046803 -0.0848635 -1.9508 1.07077 -0.858539 -0.29457 -0.564847 0.311696 0.177097 -0.0504028 -0.354536 0.0694427 0.0667252 -0.0729333 0.756155 -0.000410681 -0.169557 0.0161814 0.0540645 -0.309519 0.828527 -0.0783522 0.378425 -0.0348901 0.0498892 0.00972409 -0.118538 -0.526032 -0.0786769
33958 -0.153541 -0.108378 2.9953 0.0484901 -0.284087 -2.32314 1.48381 -1.31421 -0.223506 -0.515523 0.117819 0.0345531 -0.0617884 -0.327958 0.171872 0.0989304 -0.0549162 0.499864 0.0193978 -0.101657 0.0706605 0.112041 -0.318514 0.586202 0.0211217 0.354612 0.116424 0.123624 -0.0264389 -0.0496794 -0.383558 -0.241821
35194 -0.187989 -0.159792 2.9861 0.033398 -0.474267 -2.19686 1.43508 -1.3826 -0.261504 -0.643505 0.198853 -0.0932788 -0.0592872 -0.275814 0.123853 0.305092 -0.110929 0.714553 -0.0207237 -0.298756 0.0183924 0.152162 -0.347296 0.628623 -0.15947 0.256635 0.0603392 0.160341 -0.0856907 -0.0491276 -0.264995 -0.0901784
31536 -0.298546 -0.29566 2.94005 0.0778057 -0.115528 -2.40654 1.69805 -1.30319 -0.356438 -0.25125 0.0382475 0.128635 0.0690865 -0.243968 -0.00642446 -0.1529 0.0605197 0.617054 -0.124485 -0.0231547 0.00199099 0.0269981 -0.314235 0.360401 -0.0570818 0.286326 -0.00249854 -0.123031 0.0283125 -0.0777001 -0.373954 0.00990611
36723 -0.244435 -0.323363 2.92992 0.00353163 -0.114746 -2.21255 1.43996 -1.18215 -0.227179 -0.381437 0.41275 0.285399 -0.0112129 -0.250845 0.0870414 0.106233 -0.267756 0.588667 -0.0232246 -0.166244 0.0204588 0.105862 -0.399395 0.753924 -0.251461 0.100099 0.102405 0.0118501 0.0253109 -0.0579348 -0.219194 -0.197553
32812 -0.170393 -0.245228 2.94337 0.0524731 -0.0867491 -2.25252 1.28643 -1.13758 -0.327943 -0.643595 0.465832 0.285765 0.0401935 -0.336184 0.224752 0.0745089 -0.00878135 0.555449 0.0606699 -0.0655679 0.0472402 0.163256 -0.199789 0.72748 -0.16807 0.404041 -0.115839 0.0184788 -0.0300384 -0.135174 -0.41238 -0.160256
33594 -0.2041 -0.183135 2.92358 -0.00176692 -0.0713957 -2.25009 1.36391 -1.07319 -0.263331 -0.547879 0.408008 0.17879 -0.00552934 -0.3162 0.125704 0.0647106 -0.113662 0.586694 0.023773 -0.103903 -0.0467902 0.0433318 -0.285689 0.725763 -0.0669109 0.18433 0.0385481 -0.0624306 -0.0245959 -0.035373 -0.315633 -0.0939078
34418 -0.298139 -0.521026 2.82222 -0.00395825 -0.159906 -2.07368 1.21978 -1.00403 -0.317592 -0.56161 0.314077 0.187874 0.00348507 -0.357508 0.088526 -0.0313072 -0.0495251 0.647055 -0.065909 -0.196949 0.0516069 0.112955 -0.369903 0.943636 -0.112095 0.444195 -0.0351287 0.0455583 -0.00331581 -0.0815992 -0.434591 -0.0822667
36241 -0.147338 -0.221673 2.96626 0.0378981 -0.259787 -2.18352 1.57406 -1.34297 -0.276081 -0.440999 0.274259 0.0776423 0.0253549 -0.286263 0.0402797 0.0667274 -0.00120858 0.585781 0.026228 -0.106438 0.0481828 0.0390794 -0.298529 0.658997 0.0163755 0.397341 0.0579829 0.103785 0.0100801 -0.0486706 -0.274789 -0.086081
35843 -0.118083 -0.214561 2.89337 0.0370277 -0.282457 -2.05429 1.32038 -1.19763 -0.494391 -0.660816 0.261317 0.11428 -0.0891287 -0.456415 0.103841 0.0915483 -0.155935 0.74045 -0.0129374 -0.352341 0.0629661 0.221669 -0.478291 0.834739 -0.154958 0.429102 0.0238885 0.0565295 -0.144977 -0.20371 -0.428991 -0.245025
34072 -0.203591 -0.373225 2.82565 0.0135187 -0.019249 -2.12004 1.15376 -0.935237 -0.359964 -0.582428 0.353532 0.296739 -0.0573245 -0.321089 0.0157023 -0.0084339 -0.0833482 0.812739 -0.11503 -0.142959 0.0462446 0.135256 -0.273955 0.764436 -0.111071 0.437396 -0.0452841 -0.0280743 0.035313 -0.183333 -0.466892 -0.0753125
36271 -0.234557 -0.316079 2.85636 0.0243409 -0.23514 -2.52541 1.44706 -1.17979 -0.260993 -0.404848 0.191997 0.244637 0.0974362 -0.117153 -0.0170096 -0.0201845 -0.0486759 0.602515 -0.175749 0.102655 0.13725 0.0706096 -0.351078 0.564564 0.0354256 0.318555 0.0533976 0.0159817 0.0900643 -0.115032 -0.306867 -0.0415605
32548 -0.221568 -0.355095 2.82732 0.0523016 -0.118426 -2.23343 1.24786 -0.882202 -0.335804 -0.791384 0.321572 0.392321 -0.0313796 -0.171445 0.0160372 -0.0416837 0.00751504 0.741837 -0.0447489 -0.182345 0.0771712 0.0751667 -0.34055 0.894055 -0.198582 0.331436 -0.0292562 -0.174825 0.12163 -0.108831 -0.442447 -0.18024
34591 -0.0402748 -0.309679 2.79996 -0.0597243 -0.109294 -2.04969 1.11557 -0.897928 -0.456125 -0.433466 0.293534 0.226352 -0.0231929 -0.35047 0.0547987 -0.0071967 -0.210102 0.66987 -0.00118803 -0.00877618 0.0666127 0.120661 -0.26303 0.721351 -0.143833 0.441315 -0.0876263 0.0530623 -0.0382918 -0.15652 -0.497847 -0.030909
33713 -0.196625 -0.137819 2.9668 -0.115413 -0.16816 -2.18052 1.45458 -1.33584 -0.213803 -0.674521 0.281496 -0.0140156 -0.123495 -0.441069 0.198685 0.118174 0.0267289 0.550907 0.0397195 -0.132538 -0.0712669 -0.103588 -0.365651 0.641261 0.0157655 0.242463 -0.0657659 0.0966367 0.00309826 -0.0550859 -0.456858 -0.0115521
36625 -0.0519133 -0.287685 2.88802 -0.121161 0.23979 -2.44066 1.77194 -1.1164 -0.214472 -0.30681 0.340586 0.174585 -0.124863 -0.168139 0.0345075 0.215206 -0.170526 0.575477 0.0742214 -0.0476873 0.110583 -0.0274345 -0.236939 0.596567 -0.218943 0.0843169 -0.306198 -0.094525 0.0596232 -0.180319 -0.24613 -0.0162138
31182 -0.00247999 -0.36059 3.01495 -0.140659 0.24112 -2.2432 1.74049 -1.17401 -0.126384 -0.413462 0.304743 0.156216 -0.00638501 -0.50415 0.123992 -0.00657853 -0.0714454 0.647095 -0.00285529 -0.109636 -0.00303447 0.211261 -0.034201 0.508253 -0.0594273 0.285223 -0.149241 0.0209925 0.0402285 -0.168065 -0.494446 -0.0407856
35623 -0.200093 -0.179946 2.92163 -0.0248143 -0.200275 -2.12237 1.27129 -1.13004 -0.471969 -0.446668 0.199704 0.194684 -0.110243 -0.329276 0.0274103 0.164193 -0.233077 0.680331 -0.0968836 -0.221078 -0.0203754 0.195137 -0.340009 0.603851 -0.0679134 0.464884 0.00302886 0.086338 0.0819049 -0.184302 -0.539965 -0.0688162
36072 -0.258402 -0.259159 2.96182 0.00975452 -0.197314 -2.13457 1.46063 -1.24852 -0.344399 -0.535758 0.112001 -0.00776865 -0.0549275 -0.369628 0.144201 0.185732 -0.0255835 0.607301 -0.00847164 -0.140365 0.0308507 0.177791 -0.346485 0.589038 -0.00681945 0.450353 0.0714858 0.151465 -0.117085 -0.156068 -0.418907 -0.0960639
31981 -0.142663 -0.211473 2.80983 0.00465298 -0.138919 -2.10624 1.13146 -1.02741 -0.471259 -0.651018 0.167945 0.220104 0.0401997 -0.308383 -0.00658491 0.119041 -0.135235 0.614827 -0.0423728 -0.110982 0.0111523 0.16345 -0.315359 0.693258 0.0251383 0.370571 -0.0252151 0.00581663 0.0120614 -0.176577 -0.479788 -0.148234
31107 -0.121937 -0.254982 2.952 -0.0954072 -0.0841465 -2.42787 1.75073 -1.58869 -0.181602 -0.262232 0.229106 0.0843637 0.107489 -0.28515 -0.128259 -0.0764747 0.0689815 0.499976 -0.168906 -0.0878953 0.00693523 0.0786528 -0.130719 0.408003 -0.0373567 0.354229 -0.166205 0.0983155 0.0333209 -0.158231 -0.290295 0.00337791
34373 -0.184882 0.0193374 3.00072 -0.109815 -0.303224 -2.14394 1.46756 -1.36592 -0.518587 -0.531057 0.226738 0.021814 -0.0709975 -0.48438 0.0739249 0.0872682 -0.18296 0.781971 -0.129335 -0.248682 -0.0147982 0.276444 -0.432992 0.664972 0.126387 0.302181 -0.0362917 0.224291 -0.0727169 -0.0711787 -0.591068 -0.0913411
35799 -0.349934 -0.446083 2.92039 0.149717 -0.0386033 -2.36932 1.17406 -0.953184 -0.328232 -0.633457 0.255535 0.41005 0.0767502 -0.241363 0.0377939 -0.0890409 -0.0374503 0.598311 -0.0714056 -0.182207 0.0244614 0.0677008 -0.347537 0.635654 -0.0561674 0.366496 0.0501585 -0.166235 0.00336736 -0.0765232 -0.37652 -0.153085
33575 -0.190318 -0.264226 2.98812 -0.0840755 0.0445297 -2.28645 1.62418 -1.13913 -0.1751 -0.446007 0.512655 0.350129 0.10769 -0.473363 0.131777 -0.122891 -0.120314 0.339003 0.123133 -0.0938944 0.0204826 0.177689 -0.00598315 0.591081 -0.16579 0.444755 -0.109938 -0.217823 -0.158781 -0.180446 -0.233308 -0.131842
32656 0.151403 -0.312772 2.9252 -0.208959 0.00425463 -2.40095 1.49831 -1.0906 -0.370474 -0.377439 0.174288 0.192707 0.0905462 -0.116419 0.00295955 0.214695 -0.171511 0.537654 -0.261348 -0.0622945 0.115006 0.196812 -0.102695 0.614466 -0.0870731 0.141899 -0.241722 0.063377 0.111599 -0.090557 -0.377645 -0.0385108
36865 -0.0893657 -0.402786 2.84948 -0.192151 -0.0303455 -2.30412 1.57112 -1.03664 -0.386231 -0.544993 0.247983 0.222199 0.0621563 -0.125328 -0.129694 -0.178357 -0.0859249 0.565205 0.129183 0.0460681 0.12744 0.0988224 -0.224844 0.800825 0.0978176 0.178692 -0.00223098 -0.0760442 -0.158724 -0.145485 -0.436966 -0.0564958
31172 -0.253872 -0.40528 2.90891 -0.0623435 0.0420056 -2.47701 1.36909 -1.03198 -0.288691 -0.525631 0.303492 0.244521 0.0477226 -0.171864 0.0676514 -0.0395654 -0.0611529 0.472044 0.0808481 0.0703823 0.0724413 0.0261263 -0.210131 0.717861 -0.104952 0.173332 -0.0519966 -0.239065 -0.104116 -0.087347 -0.128479 -0.0476435
32637 -0.187581 -0.398976 2.86176 0.0159649 0.0618781 -2.32001 1.39118 -1.13224 -0.0371543 -0.74659 0.45389 0.402918 0.141642 -0.37317 0.108393 -0.23818 0.188727 0.398967 0.0727519 -0.138807 -0.015464 0.169561 -0.0556705 0.692161 0.0693948 0.372559 0.00617801 -0.138722 -0.0575668 -0.143064 -0.319082 -0.176862
33176 -0.00607425 -0.229822 3.06664 -0.0901461 0.0428883 -2.277 1.49723 -1.14415 -0.385943 -0.45133 0.0307926 0.305308 0.0188705 -0.304053 -0.0776409 -0.00352835 -0.139422 0.612985 0.0018616 -0.062728 0.106771 0.166027 -0.219363 0.335405 0.0494033 0.31997 -0.240147 0.0300534 -0.0142175 -0.304196 -0.411366 -0.0316674
35897 -0.183545 -0.513955 2.86634 -0.00240169 -0.115015 -2.13126 1.01165 -0.736603 -0.502666 -0.700163 0.23799 0.340228 0.0726827 -0.186051 0.0429522 -0.135292 -0.0564418 0.460631 -0.0248036 -0.059303 0.0716027 0.0244479 -0.253668 0.750603 -0.153631 0.494561 -0.144765 -0.0942376 0.0834576 -0.228972 -0.534872 -0.104703
32536 -0.438292 -0.396039 2.81555 0.084989 -0.109795 -2.53882 1.39977 -1.22761 -0.339289 -0.611119 0.227647 0.39046 0.0727638 -0.154525 -0.00780744 -0.155492 0.263819 0.52988 -0.0363863 -0.0449138 0.0812046 0.00287277 -0.303716 0.572523 0.0781381 0.277509 0.0127713 -0.103121 -0.0760146 0.10846 -0.25233 -0.0754738
34511 -0.327207 -0.481544 2.77581 0.0873173 -0.0442657 -2.44151 1.12592 -0.90648 -0.373115 -0.76892 0.281891 0.332639 0.122525 -0.135878 -0.0205571 -0.185857 0.247449 0.57105 -0.0621801 -0.040552 0.0621691 0.0444848 -0.334784 0.759868 0.00398923 0.308121 0.0749097 -0.14799 0.0597042 -0.0327796 -0.146671 0.00134004
35364 -0.378629 -0.348977 3.08332 -0.168003 0.0649266 -2.27472 1.83213 -1.45985 -0.200626 -0.294628 0.23858 0.0781076 -0.0951956 -0.272236 0.0648623 -0.0851235 0.24795 0.583016 -0.0932725 -0.160897 0.159558 0.0452266 -0.190427 0.466449 0.0783267 0.20974 -0.0383676 0.138614 -0.0859256 -0.197426 -0.252073 -0.102138
31170 -0.21311 -0.28452 2.65884 -0.00777619 0.0470397 -1.9326 0.982791 -0.727828 -0.402583 -0.451158 0.410286 0.296563 0.0048971 -0.432339 0.0544956 0.0401738 -0.0224675 0.636523 -0.0891947 -0.112221 0.0232723 0.172081 -0.346375 0.797135 -0.146642 0.670606 -0.0316632 0.0331463 0.060431 -0.265494 -0.729477 -0.165381
35101 -0.184264 -0.338533 2.90983 -0.19408 -0.0621383 -2.4322 1.50425 -1.47417 -0.189867 -0.10607 0.260311 0.0172796 -0.196483 -0.335533 0.00211058 -0.0823796 -0.0369757 0.762293 0.0164071 0.0525271 -0.101241 -0.041973 -0.0879867 0.527782 -0.0409602 0.184018 -0.0969872 0.0603864 0.0180899 -0.0308921 -0.481542 0.0789727
32462 -0.117013 -0.353241 3.12419 -0.0764893 -0.220288 -2.15212 1.22918 -1.03467 -0.459367 -0.552424 0.348221 0.117243 -0.0599116 -0.349579 0.0745639 0.152422 -0.122939 0.613958 0.032796 -0.0762778 0.0681226 -0.0462551 -0.260463 0.623359 -0.073871 0.29673 -0.0728077 0.13918 -0.0635014 -0.157818 -0.296265 0.00457621
34091 -0.0752618 -0.348081 2.84693 -0.0829186 -0.220155 -2.39833 1.67658 -1.20741 -0.298838 -0.674433 0.0901843 0.135203 -0.152725 -0.129281 0.0494735 0.00476535 0.139308 0.647811 -0.00217454 -0.0586855 0.140479 0.0896193 -0.137984 0.602674 0.0294288 0.144422 0.0490783 0.0204557 -0.0407552 -0.0336854 -0.322496 0.017694
35587 -0.182868 -0.138895 2.99902 -0.134999 -0.303143 -2.26623 1.5432 -1.34942 -0.285537 -0.471364 0.152385 0.0945189 -0.0343664 -0.203774 0.125179 0.100284 -0.0444076 0.701665 -0.208172 -0.104961 -0.0676653 0.080907 -0.303684 0.540057 0.0383995 0.253458 -0.0253716 0.119415 0.153772 -0.110159 -0.463815 -0.0170659
33703 -0.442962 -0.293299 3.06281 -0.215577 -0.0831823 -2.04078 1.0988 -0.977044 -0.217221 -0.633012 0.505692 0.173668 -0.0418246 -0.313618 0.10341 0.0409012 -0.0121363 0.645672 -0.114996 -0.268679 -0.0696851 0.0987586 -0.252125 0.634932 0.0120331 0.332301 0.00403202 0.160488 0.0985561 0.0426024 -0.795361 -0.189963
30971 -0.311114 -0.14503 2.93458 0.0233904 -0.083335 -2.36136 1.57091 -1.37988 -0.167843 -0.287402 0.256095 0.103876 -0.0516712 -0.277781 0.0439477 0.0235407 -0.0302834 0.564282 -0.128465 0.0149626 0.0223673 0.0413126 -0.257694 0.612023 -0.0245679 0.138934 0.0530956 0.0225503 0.096623 -0.0195841 -0.193629 -0.199074
31743 -0.266446 -0.551094 2.92845 0.0121379 -0.068171 -2.41782 1.35208 -1.00973 -0.267558 -0.84399 0.203594 0.336113 0.0737881 -0.0981596 -0.0459647 -0.321624 0.225895 0.475273 0.187664 -0.082663 0.0690431 0.0596107 -0.206727 0.793707 0.122444 0.174842 0.0390192 -0.157013 -0.0369814 -0.0245337 -0.372898 -0.114017
33058 -0.38405 -0.629738 2.86826 0.01183 0.0235404 -2.46707 1.40126 -0.976899 -0.457924 -0.652175 0.138062 0.405487 0.16902 -0.0705172 -0.13122 -0.383163 0.130883 0.582804 -0.0893961 -0.178322 0.0588677 0.112044 -0.215769 0.590385 0.100701 0.357458 0.00702438 -0.133658 0.0682041 -0.104665 -0.353366 0.122468
36331 -0.340695 -0.413139 2.79592 0.0284141 0.0314439 -2.1013 1.00196 -0.875204 -0.391332 -0.859388 0.367618 0.294913 0.153383 -0.221498 0.0295436 -0.206722 0.114564 0.608594 -0.0131888 -0.147391 -0.00129793 0.136847 -0.257993 0.7151 0.126069 0.344399 0.0680208 -0.0503337 0.0488118 -0.0907792 -0.542453 -0.208299
31110 -0.369803 -0.212802 3.01668 0.0503649 -0.214142 -2.23967 1.43538 -1.34903 -0.324417 -0.70826 0.245819 0.0866668 -0.0328525 -0.379961 0.146971 0.0784791 -0.0163729 0.551099 0.0328004 -0.142383 -0.03871 0.0221915 -0.402776 0.647863 0.0202701 0.18244 0.046551 0.0965909 -0.0528009 -0.063285 -0.320558 -0.0900217
31341 -0.327519 -0.356214 2.91652 0.0421774 -0.254688 -2.12268 1.23529 -1.08661 -0.387084 -0.443671 0.332514 0.085769 -0.107253 -0.316168 0.114588 -0.0155166 -0.16895 0.678434 -0.0991921 -0.157696 -0.0188371 0.0312635 -0.440893 0.654045 -0.18956 0.455271 0.058362 -0.0388575 -0.0246043 -0.128895 -0.428775 -0.145465
33022 -0.139814 -0.329154 2.92666 -0.0170915 -0.0959182 -2.09767 1.17033 -0.880087 -0.565146 -0.495728 0.294179 0.265179 0.00337925 -0.296251 -0.00737363 -0.000719314 -0.146167 0.787344 -0.0547649 -0.183703 0.0985899 0.120799 -0.283179 0.672664 -0.138306 0.537665 -0.0785533 -0.0524241 -0.00760967 -0.248439 -0.450484 -0.131353
36614 -0.315802 -0.628752 2.96724 0.0520557 -0.0549801 -2.38613 1.23271 -0.906788 -0.464894 -0.757803 0.171221 0.407846 0.246147 -0.0811165 -0.0417539 -0.36768 0.177953 0.564901 -0.15054 -0.257177 0.0993736 0.0759267 -0.368369 0.777968 0.0985932 0.257897 0.0467399 -0.151247 -0.011023 -0.101263 -0.248868 -0.0117306
31033 -0.140422 -0.161572 2.99037 -0.00756572 -0.199969 -2.39866 1.66596 -1.33257 -0.200375 -0.466011 0.154429 0.0548763 0.141391 -0.314501 0.0437237 0.226314 0.0388071 0.586168 -0.0508014 -0.154186 0.0608255 0.0918986 -0.245137 0.626371 0.136506 0.251452 0.182918 0.143065 0.0365763 -0.0839508 -0.293967 -0.00553431
31465 -0.211375 -0.360686 2.76373 -0.0474928 0.050371 -2.54991 1.3653 -1.05304 -0.343955 -0.382161 0.198136 0.260389 0.158011 -0.170553 -0.0427532 -0.0155095 -0.127991 0.612976 -0.0805357 0.0301459 -0.0286864 0.139743 -0.185232 0.547226 0.0538593 0.0514919 -0.146078 0.0982066 0.239236 -0.0988206 -0.409123 -0.0292026
32983 -0.345686 -0.0684774 3.06095 0.0947378 -0.108488 -2.34023 1.4953 -1.38178 -0.148667 -0.328156 0.347728 0.163871 -0.000555806 -0.325743 0.233815 -0.00140048 -0.202546 0.649681 -0.0509097 -0.130467 -0.0423318 -0.0881304 -0.305774 0.454681 -0.166172 0.178655 0.00494403 -0.00536183 0.00885388 -0.0487712 -0.365843 -0.199251
32674 -0.308443 -0.393065 3.03452 -0.0810993 -0.087837 -2.29701 1.28098 -1.0104 -0.185403 -0.455651 0.709183 0.21075 0.00281152 -0.187054 0.0832856 0.134368 -0.162446 0.54351 -0.156161 -0.0993361 0.0211346 0.155169 -0.149855 0.550778 -0.163473 0.495354 -0.0836016 0.0388141 -0.0796007 -0.135551 -0.39139 -0.105474
35556 -0.302266 -0.152994 3.01843 -0.0342553 -0.30117 -2.14556 1.48708 -1.36232 -0.210054 -0.520827 0.324599 0.0701548 -0.00450786 -0.370227 0.214167 0.0208576 -0.0212283 0.700642 -0.101822 -0.274357 -0.141274 0.111828 -0.326772 0.636289 -0.0184647 0.294874 -0.00731961 -0.0269364 -0.0110583 -0.0205638 -0.283008 -0.0339558
32114 -0.225592 -0.270239 2.93574 -0.0468189 0.0830655 -2.01115 1.07377 -0.835682 -0.376442 -0.594835 0.408083 0.280319 -0.0976779 -0.324614 0.0605235 0.0767447 -0.0997652 0.527619 0.0170952 -0.110935 0.035272 0.0478605 -0.357732 0.852613 -0.235085 0.252425 -0.14427 -0.0397314 0.147062 -0.182128 -0.522423 -0.23355
32041 -0.233863 -0.328838 2.99569 -0.151038 -0.100918 -2.32956 1.73933 -1.31686 -0.324946 -0.219027 0.093862 0.109138 -0.108585 -0.421788 0.217864 0.162028 0.0422624 0.701426 0.0512045 0.0960816 0.00233121 0.114471 -0.417071 0.461959 -0.189504 0.177421 0.0341503 0.0546845 -0.0460968 -0.0734621 -0.223206 -0.139513
36009 -0.11128 -0.311217 2.90116 -0.0526853 -0.285144 -2.31858 1.58222 -1.24298 -0.147071 -0.385598 0.300527 0.213987 0.0138498 -0.300458 0.044071 0.0466341 -0.243291 0.478918 0.130844 -0.0285994 0.0974241 0.156601 -0.0946523 0.654987 -0.143711 0.369255 -0.0788694 -0.0409781 -0.0444736 -0.209715 -0.243253 -0.108924
32458 -0.0946697 -0.282118 2.85515 -0.0384439 -0.117992 -2.37445 1.48611 -1.30558 -0.415197 -0.278848 0.309478 0.250766 0.0919134 -0.103537 0.0408825 0.0226056 -0.0240602 0.478382 -0.261856 -0.102915 -0.0184483 0.0668436 -0.193125 0.485624 -0.138472 0.396843 -0.197696 -0.156969 0.10452 -0.0584638 -0.184923 -0.135664
32048 -0.0602109 -0.157369 2.88907 -0.000291836 -0.0721923 -2.51604 1.6825 -1.32379 -0.203828 -0.469671 0.263405 0.159068 0.0869761 -0.410294 0.131614 -0.298973 0.0102294 0.404412 0.114422 -0.0828156 -0.0418289 0.0165621 -0.0235359 0.525753 0.117991 0.287805 0.0254669 -0.161466 0.019223 0.104525 -0.239157 -0.0404875
33287 -0.152874 -0.211292 2.95949 0.0307305 -0.0577067 -2.26671 1.40013 -1.22914 -0.17167 -0.522143 0.487555 0.348647 0.0939783 -0.463268 0.16403 0.0630988 0.00640287 0.467847 -0.000190149 -0.104007 0.00709278 0.159673 -0.120301 0.535168 -0.1409 0.35596 -0.0102473 -0.0157347 0.0419793 -0.132994 -0.369473 -0.266822
32449 -0.0995075 -0.265733 2.89866 0.0074878 -0.22504 -2.4978 1.66361 -1.4581 -0.0863697 -0.500811 0.409692 0.100612 -0.0779474 -0.263931 0.256928 0.0229507 0.0870647 0.487451 0.166019 -0.258785 0.146645 0.125803 -0.120893 0.591025 -0.0501846 0.268687 -0.144001 0.0584843 0.0201132 -0.128186 -0.240773 -0.131113
36905 -0.132123 -0.362815 2.88346 -0.0964671 0.023563 -2.44565 1.58875 -1.18279 -0.113588 -0.410914 0.180894 0.247327 0.146507 -0.282805 0.0872857 -0.0705437 -0.0628346 0.406337 -0.0094273 -0.20219 -0.0205804 0.111562 0.130301 0.606741 -0.110692 0.157912 -0.196097 -0.146727 0.124211 -0.134925 -0.25344 -0.134555
32868 -0.265198 -0.349608 3.00404 -0.0357865 -0.13176 -2.1896 1.31456 -1.0257 -0.619502 -0.419291 0.307243 0.260121 0.00578237 -0.272003 0.086555 0.0299245 -0.283037 0.697975 -0.172457 -0.167674 -0.0683804 0.13722 -0.380797 0.534384 -0.12483 0.2349 -0.0190156 -0.0738899 0.107034 -0.240391 -0.369181 -0.116456
32344 -0.0990356 -0.273725 2.95524 -0.021882 -0.0170585 -2.27268 1.52933 -1.16771 -0.483234 -0.353933 0.0295113 0.13897 0.0385981 -0.250233 -0.071973 -0.0498645 -0.264435 0.604975 -0.0207678 0.0668367 0.0526306 0.108766 -0.264387 0.492537 0.0553678 0.215835 -0.0936785 0.0541889 -0.033646 -0.213407 -0.407182 0.0415237
36807 -0.232768 -0.387552 2.84964 -0.0645967 -0.0933175 -2.02187 1.03469 -0.850794 -0.509866 -0.501211 0.364641 0.23997 0.0356482 -0.261285 -0.0142761 0.0297588 -0.198645 0.660158 -0.142343 -0.102772 0.0160797 0.134126 -0.251011 0.675766 -0.13273 0.524687 -0.101335 0.0690547 0.0538556 -0.139283 -0.64366 -0.0672672
35451 -0.275637 -0.243734 2.90615 0.000719189 -0.288119 -2.28922 1.86009 -1.42614 -0.297944 -0.2703 0.114309 0.0896398 -0.0183545 -0.00276983 0.0696301 -0.184215 0.0447743 0.473669 -0.0199065 0.0189588 -0.0396293 -0.0465827 -0.373607 0.538451 -0.0288686 0.187216 0.1548 -0.0435553 0.074436 -0.03454 -0.137933 0.0265287
32349 -0.291121 -0.404706 2.78259 0.11223 -0.144029 -2.38986 1.33594 -1.17516 -0.287043 -0.83029 0.200104 0.270359 0.00336556 -0.221234 -0.0548275 -0.198166 0.0724954 0.544537 0.0557803 -0.152075 0.0183744 0.145948 -0.304334 0.658134 0.0282234 0.328746 0.0825786 -0.0108229 -0.0756455 -0.236086 -0.503095 -0.136154
35629 -0.294256 -0.309186 2.95324 -0.147491 -0.28493 -2.28881 1.28455 -1.19105 -0.0276441 -0.369547 0.483575 0.100792 -0.0509722 -0.167147 0.129814 -0.034976 -0.134487 0.78638 -0.181289 -0.150086 -0.0622079 0.110854 -0.107563 0.575275 0.068541 0.244529 0.0338529 0.195555 0.0267027 0.0133418 -0.54934 0.0436404
35912 -0.236107 -0.284898 2.92494 -0.00864328 -0.148708 -2.19187 1.33379 -1.08636 -0.411866 -0.464113 0.161041 0.210156 -0.0508912 -0.385519 0.0588794 0.0519902 -0.150826 0.66944 -0.0177438 -0.0688443 -0.0152521 0.113082 -0.295592 0.664496 -0.0777697 0.385733 -0.0605087 0.0563707 0.0221803 -0.125765 -0.439521 -0.077402
34338 -0.243857 -0.399281 2.76743 0.00828283 -0.147409 -2.00602 1.07609 -0.893598 -0.38049 -0.464563 0.371547 0.231532 -0.0541829 -0.334081 0.0766284 0.0178611 -0.166251 0.64893 -0.123304 -0.124282 0.0270176 0.112671 -0.340878 0.814832 -0.19746 0.497032 -0.112917 -0.0623846 0.0429222 -0.165884 -0.575157 -0.119783
34242 -0.275788 -0.404088 2.8973 -0.163814 0.0198242 -2.08269 1.09751 -0.763648 -0.365368 -0.491395 0.405219 0.245294 -0.0504388 -0.354631 0.0558253 0.0226763 -0.111172 0.677302 -0.074616 -0.117654 -0.0492958 0.0629774 -0.188975 0.631399 -0.178262 0.299412 -0.212692 -0.00518851 0.129912 -0.0430351 -0.565644 -0.0138752
31642 -0.231398 -0.219946 2.8331 -0.0425782 0.204283 -2.54986 1.45536 -1.08142 -0.200813 -0.228781 0.197901 0.0851437 -0.299021 -0.330753 0.0881594 0.0416477 0.0228559 0.875424 0.0242976 0.134563 0.0450515 -0.0110468 -0.32558 0.432215 -0.105211 0.101337 -0.105361 -0.0526295 0.227337 -0.0485468 -0.598662 -0.0912657
34568 -0.172887 -0.254287 2.8943 0.132476 -0.207575 -2.42524 1.56025 -1.3524 -0.406926 -0.0808292 0.305845 0.185647 0.0483744 -0.323685 0.00646537 0.0342087 -0.109067 0.485613 -0.14255 -0.175779 0.015248 0.182167 -0.246904 0.370173 -0.131669 0.303449 -0.0528689 -0.00184336 0.061085 -0.142094 -0.237571 -0.228094
36210 -0.39756 -0.419836 2.81574 -0.0119487 -0.00940831 -2.46466 1.54515 -1.33972 -0.38335 -0.417169 0.167331 0.203048 0.0445933 -0.217681 -0.0302871 0.0315782 0.251876 0.552415 -0.037211 -0.0307199 -0.0284529 0.0392898 -0.215987 0.547695 0.00999629 0.219104 0.133971 -0.0787227 0.154788 -0.00150644 -0.358068 -0.0369617
34005 -0.246643 -0.419474 2.85587 -0.0511852 -0.0624023 -2.20279 1.12791 -0.912059 -0.440135 -0.559619 0.37614 0.26048 0.0309277 -0.355494 0.0453606 -0.0713506 -0.0608102 0.636446 -0.153373 -0.185969 0.00561541 0.214351 -0.268995 0.689637 -0.0101489 0.536244 -0.00998312 0.0456251 -0.0250539 -0.109609 -0.499885 -0.0764248
32682 -0.258447 -0.24518 3.001 -0.0666209 0.0779687 -2.24183 1.716 -1.19877 0.0934667 -0.422108 0.60103 0.360973 -0.037908 -0.514021 0.174567 0.0955933 -0.10699 0.532868 0.118644 -0.00906508 -0.0567396 0.0493898 -0.187775 0.535132 -0.239403 0.207946 0.0214828 -0.0800666 -0.120548 -0.183661 -0.267777 -0.282017
33591 -0.414607 -0.26109 2.91933 0.107653 -0.179014 -2.44961 1.50203 -1.25475 -0.275479 -0.196117 0.303079 0.198957 -0.128753 -0.198637 0.0516383 0.0707798 -0.321763 0.586561 -0.129595 -0.121866 -0.0420619 -0.138718 -0.356234 0.519312 -0.276234 0.273626 0.082293 -0.0217031 0.16699 -0.181703 -0.311637 -0.293015
34967 -0.323926 -0.295852 2.92393 -0.0570979 -0.129004 -2.45481 1.42512 -1.31365 -0.270578 -0.14787 0.330719 0.200797 0.00194507 -0.412021 -0.0320323 0.039929 -0.213114 0.524076 -0.174531 -0.108003 -0.00873987 0.0858653 -0.262965 0.343297 -0.00831228 0.18376 0.0616931 0.040734 0.124778 0.0662585 -0.360058 -0.189621
35614 -0.161413 -0.352043 2.86485 0.0550396 -0.117399 -2.44543 1.25689 -1.02825 -0.538349 -0.129617 0.161001 0.287602 0.0772837 -0.188766 -0.0667608 0.0477117 -0.383826 0.502582 -0.190535 -0.0617787 0.0598194 0.12364 -0.290014 0.472868 -0.116567 0.282931 0.0442456 -0.0744618 0.198017 -0.231955 -0.336786 -0.134174
33136 -0.286036 -0.204883 2.95175 0.143862 -0.198276 -2.25794 1.5533 -1.40091 -0.24235 -0.415056 0.221749 0.0747897 0.0614434 -0.254421 -0.00566045 0.083482 0.0407675 0.600246 -0.0355527 0.00682268 0.0896836 0.212854 -0.382224 0.452015 -0.023808 0.0260793 0.29572 -0.000912853 -0.0160888 -0.0812374 -0.385676 -0.0803375
32977 -0.330915 -0.460647 2.83561 0.0141759 -0.0575608 -2.37627 1.50917 -1.03229 -0.32341 -0.706619 0.0792505 0.194703 -0.0675246 -0.0692097 -0.0151465 -0.119028 0.0804575 0.564668 -0.0510886 -0.112195 -0.0309815 0.0969663 -0.277451 0.564218 0.110303 0.240854 -0.140933 0.0233974 0.0280898 -0.0760489 -0.393836 -0.0880909
34018 -0.247652 -0.308557 3.04595 0.0292149 -0.0832527 -2.31136 1.44634 -1.23638 -0.0873512 -0.477938 0.373517 0.262196 -0.0307381 -0.277685 0.0284267 0.0292877 0.0658715 0.726005 0.130752 -0.134448 0.0419384 0.0126515 -0.233506 0.55336 -0.103834 0.13187 -0.0316886 0.0888129 -0.0624204 -0.0812028 -0.338856 -0.0813372
31689 -0.240393 -0.438611 2.90572 -0.0488599 -0.15278 -2.57148 1.41195 -1.05317 -0.418669 -0.168644 0.114068 0.21144 0.0842949 -0.201232 -0.0893686 -0.148574 -0.172994 0.625565 -0.130322 -0.129069 -0.0224885 0.0115482 -0.302498 0.453277 -0.0666657 0.0729457 -0.0590476 0.0858426 0.052524 -0.176144 -0.435161 0.124411
33481 -0.13895 -0.355404 2.78054 -0.064732 -0.0160632 -2.56912 1.56003 -1.15244 -0.169239 -0.484243 0.37533 0.332857 0.142226 -0.145136 -0.0463815 -0.168551 0.0928001 0.429594 0.113442 -0.044967 0.0247276 0.170888 -0.080836 0.635237 0.0275109 0.24142 -0.190625 -0.161506 -0.0145777 -0.115345 -0.354775 -0.0472755
33166 -0.214903 -0.372803 2.89376 -0.0696514 -0.111339 -2.50915 1.50702 -1.27501 -0.292945 -0.611378 0.203234 0.252042 0.205712 -0.1648 0.0374171 -0.200938 0.138473 0.475779 0.0545044 -0.139907 0.0365761 0.00671666 -0.196978 0.579791 0.0612794 0.276199 -0.0106766 -0.110697 0.0723218 -0.00822685 -0.189707 -0.0647114
35601 -0.279542 -0.522263 2.8378 0.00280664 0.0140796 -2.48407 1.38759 -0.931705 -0.464443 -0.520424 0.089395 0.341083 0.123609 -0.144433 -0.123549 -0.269206 -0.0633112 0.564312 -0.0881021 -0.00168157 0.00854926 -0.00989122 -0.139553 0.507749 -0.104039 0.16755 -0.038613 -0.234933 0.137651 -0.152841 -0.460237 -0.0943544
31499 -0.193047 -0.239287 2.84101 -0.00162754 0.0672707 -2.48293 1.42151 -1.22361 -0.11503 -0.529376 0.352483 0.367498 0.0377514 -0.491965 -0.0339257 -0.0498933 0.147678 0.321087 0.156928 -0.0761413 -0.0230315 0.19159 -0.113319 0.560325 0.0152494 0.352048 0.0313038 -0.0216286 -0.0149956 -0.085027 -0.338318 -0.157023
35676 -0.0671031 -0.220254 2.87355 -0.0723741 -0.0263811 -2.62407 1.55212 -1.23248 -0.152675 -0.271382 0.290441 0.242533 -0.0483998 -0.119137 0.152588 0.0291209 -0.190538 0.487958 0.100306 -0.0672865 0.159263 0.200234 -0.11232 0.536338 -0.0696029 0.224655 -0.193399 -0.181046 0.00712517 -0.112731 -0.130182 -0.173682
35959 -0.233652 -0.162919 2.92405 0.044573 -0.265021 -2.45164 1.46566 -1.38419 -0.178818 -0.364474 0.322719 0.130081 -0.117104 -0.265787 0.147028 -0.0667404 -0.171778 0.490102 -0.10053 -0.0436074 0.0545132 0.095962 -0.289838 0.542137 0.029013 0.10842 0.0487712 0.139498 0.175759 -0.014301 -0.335986 -0.115237
35256 -0.267327 -0.251862 3.06208 -0.0996027 -0.0341303 -2.35274 1.71684 -1.41799 -0.261001 -0.384286 0.190204 0.0761548 -0.105497 -0.331781 0.0243594 -0.0677785 -0.100203 0.484597 -0.102187 -0.203332 0.0106509 -0.00889561 -0.233762 0.45038 -0.117636 0.505465 -0.0363258 0.069684 -0.128667 -0.0483795 -0.390778 -0.11351
36622 -0.0302992 -0.315294 2.90543 0.00952418 -0.133211 -2.48135 1.50609 -1.17958 -0.295002 -0.614421 0.104217 0.235971 0.0926254 -0.0593122 -0.132395 -0.127842 -0.121092 0.431226 -0.0946915 -0.239808 0.0229906 0.0580343 -0.132902 0.510392 0.0450993 0.0353344 -0.0665712 -0.0514353 0.0698421 -0.188362 -0.236219 0.0206507
33127 -0.265546 -0.375072 2.90308 -0.0298224 -0.0282479 -2.39865 1.51177 -1.17193 -0.399575 -0.456243 0.16204 0.0774372 0.00502486 -0.275903 0.0406852 0.0224781 0.0272515 0.619932 0.000728658 0.0660293 -0.0166603 0.0554528 -0.136754 0.600704 -0.0813842 0.36471 0.0264777 -0.186744 -0.0364682 -0.0550971 -0.343442 -0.0917306
31969 -0.211004 -0.336047 2.89518 0.0166236 -0.113284 -2.21853 1.2932 -1.0478 -0.364131 -0.529381 0.281766 0.273783 0.0453993 -0.164511 -0.0434981 0.0691901 0.0152715 0.601507 0.00439137 -0.0330391 0.112626 0.186727 -0.370464 0.75088 -0.0355961 0.365693 0.0216272 0.0578193 -0.0535313 -0.0328649 -0.361067 -0.154626
34916 -0.355289 -0.295375 2.81967 -0.085678 -0.195167 -2.28616 1.66219 -1.28002 -0.174182 -0.451773 0.296954 0.3042 0.150204 0.0484099 0.129787 -0.134603 -0.0913797 0.552864 -0.0206335 -0.0962099 0.0479673 -0.0296567 -0.345032 0.687642 0.00700794 -0.0384794 0.0826307 -0.151956 0.162221 -0.0393224 -0.326644 -0.00246573
32867 -0.298234 -0.327472 3.00335 -0.0718307 -0.300541 -2.38243 1.49338 -1.15645 -0.419047 -0.316617 0.214639 0.104535 0.193129 -0.105154 0.113399 0.174652 -0.328081 0.62978 -0.130755 -0.0380937 -0.10984 -0.0172757 -0.309467 0.390305 -0.00372122 0.262199 0.108221 0.107406 -0.0937931 -0.129933 -0.431458 -0.0167626
36434 -0.137835 -0.395399 2.98555 0.0704206 -0.0428728 -2.35258 1.57541 -1.26242 -0.434362 -0.477604 0.027668 0.21095 0.139639 -0.241457 -0.154129 -0.226323 0.0636963 0.619887 -0.113211 -0.135819 -0.0617174 0.0357911 -0.252279 0.472961 0.172246 0.247304 -0.0721084 0.161449 0.177368 -0.181877 -0.52617 0.0501258
32987 -0.20279 -0.343821 2.58665 -0.0413437 -0.11594 -2.01147 1.03425 -0.885705 -0.362942 -0.557795 0.40165 0.267544 0.0258043 -0.313544 0.0879564 -0.00581103 -0.0190141 0.635547 -0.0508097 -0.0731262 0.0215194 0.140554 -0.275617 0.774204 -0.0840978 0.462018 0.00650919 0.0206734 0.00450613 -0.149536 -0.597436 -0.0745654
36915 -0.190316 -0.290729 2.94672 0.0955161 -0.164275 -2.3876 1.55493 -1.31003 -0.309775 -0.460074 0.294681 0.0875318 -0.117583 -0.392659 0.102546 0.0885457 0.00811744 0.571119 0.0099121 -0.00500348 -0.0263576 -0.115784 -0.243298 0.57013 -0.0280654 0.377968 -0.0104974 0.0259437 0.0342678 -0.0475249 -0.361586 0.000926734
34081 0.00600234 -0.444315 3.01019 -0.178006 0.0201554 -2.39131 1.33689 -0.856629 -0.402041 -0.209974 0.370764 0.318078 0.051263 -0.190892 -0.0539411 -0.026926 -0.389838 0.522903 -0.085831 0.0454328 0.153302 0.199634 -0.120855 0.602745 -0.0317459 0.328755 -0.271868 0.051165 0.0133437 -0.17872 -0.43326 0.211245
31676 -0.427321 -0.264997 2.89865 0.0511409 -0.167857 -2.44081 1.60822 -1.32025 -0.227119 -0.288731 0.282493 0.123289 -0.0461984 -0.178259 -0.048093 0.0566554 -0.158691 0.556566 -0.211574 -0.0949355 0.0435724 0.206515 -0.347779 0.421189 -0.241874 0.186481 0.00130444 0.0212089 0.0237747 -0.116753 -0.331108 -0.100641
34582 -0.28297 -0.246683 3.01702 -0.00632675 -0.123471 -2.14385 1.2515 -1.15125 -0.240532 -0.446754 0.383472 0.174121 -0.00365991 -0.326385 0.0133998 0.0342638 -0.093758 0.659275 -0.0648885 -0.128773 -0.0291312 0.100026 -0.279852 0.649434 -0.0531259 0.190521 0.0916195 0.111714 -0.0561638 0.0435651 -0.307769 -0.066841
36098 -0.237165 -0.406351 2.90685 -0.0164933 -0.0996796 -2.16543 1.18207 -0.976041 -0.434439 -0.62438 0.391394 0.33944 -0.0381954 -0.242772 -0.0104803 -0.0621949 -0.0999702 0.727775 -0.133457 -0.146029 0.00930181 0.148324 -0.252514 0.716404 -0.12108 0.366907 0.0300995 -0.0641526 0.00867652 -0.0541589 -0.473494 0.0367077
35822 -0.194683 -0.082763 2.98604 0.0865442 -0.238349 -2.42695 1.48878 -1.35905 -0.301741 -0.363811 0.000394691 -0.0430718 -0.0993395 -0.211147 -0.0303233 0.046531 -0.147173 0.808707 -0.0124557 -0.086149 0.0133674 -0.0447296 -0.251545 0.587921 0.0452919 0.381555 0.0583619 0.256753 -0.00548989 -0.119001 -0.444646 0.114802
34660 -0.239329 -0.245788 2.72667 -0.031336 -0.115441 -2.05465 1.08459 -0.899618 -0.37914 -0.551781 0.222573 0.165095 0.0129229 -0.277621 0.0319993 -0.00646338 -0.0945242 0.707521 -0.122735 -0.204005 0.0426027 0.163643 -0.347898 0.920832 -0.0365913 0.364435 -0.00632508 0.0526245 0.00988382 -0.105638 -0.571591 -0.128688
36187 -0.247259 -0.297377 2.85384 0.015327 -0.124175 -2.12229 1.30024 -1.03657 -0.443947 -0.767794 0.386471 0.254052 -0.0694747 -0.365662 0.0672918 0.104491 -0.0141391 0.575674 0.0490577 -0.160811 0.00607286 0.0811679 -0.352285 0.718356 -0.0899774 0.34866 0.0077383 0.0384747 -0.0382573 -0.0477799 -0.353656 -0.107989
31580 -0.0636071 -0.286275 3.02162 -0.0240579 -0.195531 -2.26418 1.38895 -1.0811 -0.364171 -0.425258 0.323782 0.118199 -0.0754913 -0.346061 0.0662946 0.0576919 -0.341762 0.459 -0.0348397 -0.053564 0.166294 0.252731 -0.292838 0.733561 -0.10064 0.364813 -0.0757114 -0.0142615 -0.11113 -0.234857 -0.434147 -0.0712676
36676 -0.34968 -0.423423 2.74944 0.00868653 0.106968 -2.2151 1.12751 -0.682468 -0.286929 -0.60503 0.319194 0.397606 -0.0191521 -0.228687 0.0182418 -0.118899 0.0385626 0.503518 0.000924831 -0.0794216 0.0730725 0.022578 -0.402292 0.876397 -0.261234 0.326988 -0.0195677 -0.27471 0.0441759 -0.229018 -0.387072 -0.119697
32496 -0.236532 -0.350031 3.01257 0.0509804 -0.0995325 -2.25284 1.51612 -1.14491 -0.233833 -0.579984 0.28217 0.252837 -0.119994 -0.292846 0.111882 -0.0781048 -0.0743575 0.604137 0.0709692 -0.074844 -0.018919 -0.0506386 -0.277174 0.480792 -0.277468 0.117501 -0.153515 -0.192735 0.148015 -0.0135795 -0.31151 -0.165754
31631 -0.258314 -0.224121 2.88446 -0.00492008 -0.111484 -2.3846 1.76775 -1.40129 -0.0732812 -0.55649 0.212891 0.135169 0.0524174 -0.324283 0.288908 -0.158434 0.0578138 0.364306 0.120173 -0.107292 0.0230142 0.0283508 -0.0780612 0.546475 -0.0655921 0.315141 -0.0774997 0.0286872 -0.0482799 -0.0284429 -0.107688 -0.206599
35069 -0.173499 -0.321631 2.88306 -0.014831 -0.157875 -2.19098 1.53697 -1.35063 -0.240273 -0.58566 0.304616 0.1422 -0.09586 -0.298775 -0.00229388 -0.0762574 0.00212834 0.665993 -0.0355803 -0.154685 -0.0264493 0.157783 -0.257832 0.577753 -0.0174644 0.418266 0.0463447 0.056932 -0.146882 -0.123479 -0.503758 -0.114254
36402 -0.13337 -0.21921 2.85259 0.014265 -0.150104 -2.11665 1.2351 -1.03214 -0.490116 -0.456618 0.251425 0.191943 -0.0406066 -0.384282 0.0756489 0.018654 -0.145515 0.74573 -0.0685632 -0.0372925 -0.0211735 0.115663 -0.303588 0.729968 -0.0559172 0.422858 -0.037807 0.0641408 0.00977189 -0.13779 -0.373993 -0.0921383
35170 -0.125254 -0.236871 2.82676 0.0307736 -0.0974032 -2.45612 1.40772 -1.34289 -0.2668 -0.515406 0.342869 0.105737 0.0520997 -0.244445 0.0457734 0.0396628 0.23774 0.672397 -0.0518303 0.148035 0.104601 0.0774467 -0.154547 0.721031 0.0915116 0.382246 0.109921 -0.00735665 -0.0500662 0.0224329 -0.281327 0.0135576
35464 -0.239466 -0.260697 2.82131 -0.06032 -0.0389121 -2.39021 1.61284 -1.17661 -0.0711462 -0.374407 0.224393 0.165967 -0.162779 -0.269111 0.122682 0.00794572 -0.179116 0.62025 0.0644598 0.0492488 -0.029359 -0.29779 -0.351974 0.702609 -0.333252 -0.00773698 -0.0732505 -0.150815 0.062534 -0.0676652 -0.298999 -0.0364775
34095 -0.15452 -0.411182 2.8624 0.0330538 0.00386378 -2.36523 1.17334 -0.91712 -0.406071 -0.569971 0.299773 0.334535 0.0495531 -0.303239 0.0791938 -0.0129249 -0.0341898 0.434997 0.0335649 -0.0680226 0.067219 0.116113 -0.27657 0.781257 -0.162621 0.284569 0.0345512 -0.131522 -0.00993747 -0.133012 -0.186706 -0.207659
36960 -0.224449 -0.443664 2.65884 -0.047502 -0.138351 -1.92764 1.04392 -0.831867 -0.477596 -0.581946 0.499585 0.326382 -0.0109232 -0.277907 0.0543748 -0.0598471 -0.150405 0.759878 -0.0866794 -0.0790789 0.0669 0.130731 -0.268912 0.708922 -0.172991 0.383802 -0.0857222 0.0249246 0.0915154 -0.155665 -0.463237 -0.0404565
34103 -0.199514 -0.387102 3.01541 0.0212153 -0.156644 -2.28966 1.13783 -0.943288 -0.472655 -0.41273 0.201987 0.207213 -0.0536335 -0.290637 -0.00796451 0.0300609 -0.354925 0.549985 -0.141375 -0.0620118 -0.0451651 0.137528 -0.221302 0.51363 -0.103741 0.225614 0.00479366 -0.105334 0.100157 -0.141044 -0.272964 -0.244863
36274 0.0366567 -0.328986 2.99596 -0.203229 0.0573853 -2.33229 1.59947 -0.963519 -0.288907 -0.367772 0.140534 0.17968 0.0233965 -0.152886 -0.0594105 0.181977 -0.0732419 0.652583 -0.16242 0.00422453 0.0660613 0.22752 -0.0303073 0.579764 0.131674 0.0610775 -0.266943 0.0870326 0.0586914 -0.233644 -0.399323 0.0708567
35540 -0.0635121 -0.285829 2.97021 -0.195727 0.273838 -2.3618 1.62134 -1.3797 -0.11496 -0.471407 0.429573 0.40027 0.0940863 -0.454197 0.0943716 -0.0261228 -0.0401319 0.350065 0.23777 0.013631 -0.0436558 0.148006 0.0757966 0.538529 -0.204491 0.24446 -0.198618 -0.0980088 0.0444217 -0.157302 -0.354903 -0.128215
31965 0.00272111 -0.216356 3.06531 -0.285415 0.105551 -2.36192 1.6378 -1.14949 -0.192113 -0.392874 0.224805 0.301668 0.0964863 -0.114684 -0.0178529 0.135593 -0.062911 0.574078 -0.0952048 0.00894247 0.0940156 0.262327 -0.00681031 0.637456 0.109551 -0.0134608 -0.201658 0.149567 0.105337 -0.109461 -0.177685 -0.0395951
32781 -0.231377 -0.278141 2.81272 -0.231856 -0.0864757 -2.37654 1.42167 -1.08831 -0.203989 -0.417655 0.48563 0.227349 -0.0159451 -0.116475 0.0312022 -0.0747443 -0.0741334 0.711176 -0.0727668 -0.187624 -0.0322206 0.161707 -0.0710973 0.476215 0.0768348 0.360566 -0.186764 0.202254 0.176026 -0.0311664 -0.519278 -0.0563087
36059 -0.155176 -0.30759 2.96128 0.00533838 -0.0339244 -2.31451 1.15907 -0.932576 -0.39546 -0.335181 0.263514 0.354281 -0.0126167 -0.336413 -0.0524714 0.0112773 -0.225786 0.606241 -0.0593707 -0.125425 0.0558325 0.0689245 -0.243732 0.448293 -0.110677 0.280238 -0.106616 -0.0774523 0.129269 -0.181749 -0.331177 -0.165037
33160 0.000284284 -0.414191 2.84705 -0.0352142 -0.0111464 -2.47143 1.38837 -0.954619 -0.375272 -0.291687 0.129385 0.376975 0.0690131 -0.154875 -0.108958 -0.0764706 -0.0788475 0.646207 -0.0649218 -0.132371 0.0997418 0.00554623 -0.126808 0.613778 -0.0081714 0.198815 -0.190769 -0.0780043 0.0348059 -0.197539 -0.433399 0.0377027
33701 -0.164627 -0.443538 2.80133 0.0077082 0.00731451 -2.57526 1.28435 -1.05663 -0.427578 -0.502665 0.201179 0.354348 0.0890449 -0.209623 -0.0328278 -0.156528 0.0876513 0.461531 -0.0025732 -0.0199291 0.0919562 0.0273225 -0.225946 0.748755 0.0542024 0.12357 -0.00319274 -0.0978407 0.13552 0.00787254 -0.23798 0.064221
36005 -0.239676 -0.405216 2.93472 -0.0347202 -0.303395 -2.41334 1.58508 -1.35541 -0.457015 -0.14344 0.201158 0.0128924 0.218394 -0.327593 0.29098 -0.00918585 -0.120227 0.536735 -0.0309159 -0.0720465 -0.0238127 0.0158699 -0.281803 0.452137 -0.0788082 0.383867 0.0161191 0.169909 -0.331187 -0.0399861 -0.28207 -0.0996891
34992 -0.377886 -0.337789 2.99036 -0.079223 -0.20059 -2.19801 1.17683 -1.08686 -0.191016 -0.560098 0.436709 0.0682317 0.0468722 -0.395053 0.166871 0.0219845 0.0243388 0.699606 -0.171559 -0.0958841 -0.036462 0.118345 -0.223434 0.546922 0.0607949 0.345095 0.0426728 0.162288 0.0572004 -0.0400082 -0.641658 -0.0976761
34757 -0.387042 -0.30134 2.9882 -0.125314 -0.00776683 -1.97019 1.0854 -0.916691 -0.333063 -0.677998 0.427218 0.220723 -0.0276831 -0.444166 0.0750439 0.0262818 -0.0255732 0.789486 -0.119454 -0.16982 -0.0237528 0.229928 -0.361146 0.779517 0.0254926 0.398084 0.0529019 0.145536 0.0584129 -0.0861136 -0.699868 -0.139472
34197 -0.228602 -0.253548 2.84731 -0.204014 -0.0504806 -1.95805 1.15426 -0.959139 -0.385925 -0.485915 0.392048 0.179994 -0.0798693 -0.463435 0.0337376 0.0416117 -0.156545 0.763994 -0.133027 -0.190854 -0.036137 0.192358 -0.293023 0.70736 -0.0233175 0.348336 -0.136618 0.149061 0.047561 -0.0979636 -0.616417 -0.0273048
32667 -0.380869 -0.163325 3.0316 -0.147146 -0.0992855 -2.12059 1.40819 -1.23727 -0.188811 -0.525103 0.232171 0.0486722 -0.0107648 -0.430745 0.0688554 -0.00828314 -0.120188 0.734946 -0.0951259 -0.391661 -0.101985 0.237161 -0.307824 0.594192 0.265097 0.0606646 -0.0125402 0.33824 0.037421 -0.0966326 -0.873221 -0.155901
33065 -0.240714 -0.239971 2.7653 0.0561786 -0.0855975 -1.8638 1.00259 -0.820186 -0.537565 -0.616273 0.224646 0.215651 -0.052028 -0.401365 -0.00443109 0.0118176 -0.119457 0.699321 -0.0210349 -0.273251 0.0295733 0.17474 -0.435787 0.778661 -0.0581356 0.458538 -0.0275505 0.0547655 0.0661426 -0.134363 -0.546464 -0.18829
31278 -0.113576 -0.196888 2.9825 0.17036 -0.247232 -2.52232 1.42154 -1.18121 -0.444742 -0.173924 0.0480956 0.207287 0.0138258 -0.306473 -0.101956 -0.00534117 -0.198607 0.62449 -0.13939 -0.131648 -0.025544 0.100655 -0.249078 0.384773 0.0753159 0.183129 -0.113036 -0.0318966 0.36013 -0.190374 -0.363451 -0.185312
34553 0.144732 -0.219238 2.99072 -0.0735829 0.218359 -2.30388 1.50779 -1.11966 -0.226133 -0.449427 0.084665 0.170492 0.10808 -0.244612 -0.0723678 0.0556822 -0.1303 0.688792 -0.0337498 -0.0414337 0.0866991 0.167894 -0.0983899 0.607736 0.100038 0.0546828 -0.144724 0.178994 0.0789045 -0.199658 -0.491283 -0.146216
32835 -0.0724967 -0.244863 2.91199 -0.0575266 0.00233383 -2.48703 1.57334 -1.16106 -0.218394 -0.31482 0.272688 0.18539 0.0526354 -0.273988 0.0223663 0.0883389 -0.205515 0.445413 0.00803491 0.0638035 0.0826314 0.148157 -0.133638 0.419495 -0.0530262 0.187104 -0.0705879 -0.216165 0.0314809 -0.230782 -0.24908 0.0223995
34428 -0.237564 -0.191856 2.95339 -0.0404877 0.0469315 -2.29263 1.51038 -1.07542 -0.252275 -0.289642 0.111339 0.0469561 -0.30719 -0.381416 -0.0075309 0.134113 -0.174399 0.717479 0.0765105 -0.0440836 -0.0748709 -0.0978276 -0.211546 0.631901 -0.490725 0.144329 -0.229477 -0.267396 0.269694 -0.118078 -0.480757 -0.059743
31247 0.0272855 -0.231798 3.06035 -0.10489 0.178937 -2.31859 1.39684 -0.979559 -0.387149 -0.20503 0.336205 0.257187 -0.137887 -0.389765 -0.0796938 0.0335436 -0.0952623 0.640525 0.0706792 0.233688 -0.0471019 -0.0748604 -0.0505198 0.486045 -0.253827 0.320699 -0.202174 -0.151875 0.115814 -0.281992 -0.516818 0.0666202
33404 -0.212404 -0.278243 3.04126 0.00607881 -0.206372 -2.26847 1.39506 -1.33688 -0.460586 -0.245463 0.258195 0.110916 0.0970367 -0.249219 0.0459849 0.11205 -0.141287 0.495056 -0.0961849 -0.0519412 0.0183736 0.0294682 -0.263911 0.570793 -0.0723553 0.273483 0.00351033 0.0637132 0.167065 -0.327564 -0.324808 -0.120822
33925 -0.45494 -0.478791 2.88217 -0.0628317 -0.261201 -2.58929 1.44656 -1.10915 -0.507981 -0.318075 0.0929994 0.219426 0.150906 -0.055244 0.11522 -0.0749973 0.108393 0.608097 -0.230221 -0.0864819 0.0371784 -0.0448033 -0.440406 0.550144 -0.0638585 0.411233 0.0716239 0.0247091 0.208428 -0.0947267 -0.143031 0.121853
34988 -0.351583 -0.604011 2.83531 0.0325581 -0.186634 -2.51485 1.38453 -1.10341 -0.621784 -0.109033 0.129216 0.230207 0.213174 -0.0405922 0.0595977 -0.206315 -0.10428 0.616538 -0.274441 -0.00393043 0.123423 0.119923 -0.511686 0.34902 0.0423426 0.238884 -0.0167312 -0.096409 0.0467246 -0.189039 -0.145834 -0.0627682
32940 -0.356128 -0.236619 3.01712 -0.07713 0.0447648 -2.36505 1.92657 -1.53237 -0.145724 -0.300869 0.165865 0.0710635 -0.156606 -0.203817 0.425215 -0.213125 0.034993 0.634495 -0.0181903 -0.170714 -0.0444655 -0.0179385 -0.234682 0.448374 -0.127803 0.536506 -0.180175 -0.0615312 -0.130214 -0.193572 -0.264428 -0.0671067
36178 -0.243009 -0.304801 2.63493 -0.0100331 0.00183562 -1.83398 0.98748 -0.842664 -0.315236 -0.705494 0.35595 0.264977 -0.00159175 -0.278526 0.036423 -0.0350769 0.0828763 0.620265 -0.0443116 -0.138368 0.0257627 0.150376 -0.322976 0.830857 -0.0356856 0.436927 -0.015596 -0.0364598 0.0511558 -0.151799 -0.585596 -0.166323
33789 -0.19253 -0.347995 2.75299 0.0180012 -0.0681618 -1.90341 1.08834 -0.861321 -0.355841 -0.550982 0.388319 0.177139 -0.0818449 -0.317521 0.137544 0.0361241 -0.127152 0.694104 -0.0900846 -0.143523 -0.00587891 0.0731797 -0.29498 0.683976 -0.24623 0.432946 -0.0526473 -0.0898557 0.0467023 -0.150901 -0.543864 -0.119472
33024 -0.170308 -0.19986 3.04189 -0.0121868 0.0246065 -2.28609 1.41147 -0.892367 -0.300781 -0.572094 0.225291 0.223775 -0.0506441 -0.310662 0.0435574 0.0508434 -0.110357 0.575259 -0.0941088 -0.129759 0.125454 0.181039 -0.28794 0.601046 -0.148083 0.170073 -0.136219 -0.119459 0.0513047 -0.091989 -0.500187 -0.190463
32633 -0.301702 -0.322098 3.06701 -0.130953 -0.0672758 -2.17614 1.35451 -1.08765 -0.299409 -0.569985 0.462925 0.149453 -0.00452694 -0.204029 0.100877 0.00485807 0.0107259 0.544091 -0.026445 -0.0645016 -0.0143272 0.0871736 -0.335703 0.741864 -0.12557 0.178191 0.0184542 0.0703056 0.04867 0.0848702 -0.224962 -0.0796532
33621 -0.212108 -0.399998 2.99538 -0.100047 -0.161824 -2.24238 1.42382 -1.10796 -0.400346 -0.316156 0.324451 0.170323 0.0841252 -0.117557 0.0304535 0.00232936 -0.17018 0.597609 -0.195399 -0.0455527 0.0722207 0.065672 -0.301522 0.55312 0.0522748 0.220632 -0.0720311 0.0576659 0.0300399 -0.106995 -0.221286 -0.0291274
35783 -0.351509 -0.382475 2.84729 -0.00459446 -0.167691 -2.63755 1.40428 -1.11193 -0.477609 -0.34786 0.235467 0.32793 0.0357074 -0.0438446 -0.0841655 -0.272698 0.025134 0.508378 -0.0837733 -0.0823963 0.0646976 -0.0433261 -0.404734 0.603646 -0.0330367 0.0583491 0.186069 -0.197442 -0.0223057 -0.0420922 -0.229096 0.0934728
32493 -0.0268932 -0.279562 2.82881 -0.0871118 -0.154242 -2.57165 1.53865 -1.29048 -0.362674 -0.221525 0.158305 0.260412 0.247851 -0.131585 -0.0462529 -0.171684 0.114059 0.50798 -0.0845195 -0.0602429 0.00789561 0.0602378 -0.181579 0.420593 0.0807936 0.303562 -0.0113233 -0.021958 0.0162743 -0.135782 -0.31681 0.00807915
