7349 32
121692 -0.301575 -1.53147 1.81443 0.48487 -0.130564 0.045723 -1.66892 -0.201867 0.096448 3.82908 0.366909 0.356989 0.0232058 0.485166 0.0877426 -0.175856 -0.802432 0.574919 -0.101922 1.31063 0.444674 -0.0165827 0.0676453 0.133337 0.272739 -0.0501783 -0.0240994 -0.238862 0.200523 0.246375 -0.0810619 -0.0941387
35785 -0.488844 -1.98065 2.56693 0.577885 0.139905 -0.0837891 -2.05954 -0.184675 0.516036 5.86678 0.410977 0.344973 0.469377 0.180818 -0.378455 0.434969 -0.727214 0.431583 -0.152914 1.04966 0.418141 0.0148059 -0.159066 0.317944 -0.0376602 -0.267227 0.241365 0.341694 0.309819 -0.0974132 0.217225 0.0927475
35064 0.036355 -2.0574 2.81549 0.608619 -0.117686 -0.147639 -1.93457 -0.167289 0.578039 6.8212 0.30642 0.0916144 0.000284693 0.185988 0.226452 0.186441 -0.180588 -0.00179241 -0.0637676 0.876022 0.227278 0.0155406 -0.101791 0.0892641 0.229351 -0.17657 0.0199089 0.00183367 0.166866 -0.115962 -0.0904497 0.0437233
33785 0.120285 -2.02682 2.78529 0.521894 -0.296229 -0.218244 -1.87076 -0.277335 0.364522 6.72898 0.274725 -0.0672955 0.118136 0.167342 0.161809 0.124397 -0.176777 0.201319 -0.0721575 0.881821 0.0484458 0.224438 -0.0613089 -0.125069 0.136091 -0.0472384 -0.165016 -0.0956269 -0.00380541 -0.15915 -0.139916 -0.0423883
36388 0.00112078 -2.12474 2.88257 0.78803 -0.251793 -0.243363 -1.99973 -0.0758036 0.5977 7.11635 0.1743 0.142741 0.118429 0.394319 0.0766845 0.202672 -0.414833 0.186266 -0.131416 0.741604 0.0553909 0.0011085 -0.0303776 -0.0824145 -0.0759594 0.0941608 0.173646 -0.0995978 0.0619873 -0.0890885 -0.000326209 -0.14175
34001 0.177892 -1.90324 2.72089 0.608339 -0.25383 0.0466545 -1.91447 0.201354 0.779663 6.47239 0.132186 0.186314 0.00878584 0.264364 0.437554 0.049825 -0.168739 0.173821 0.0479511 0.87864 0.278698 0.27203 -0.0522529 -0.0180212 0.00361704 -0.0439595 0.3234 0.121525 -0.00801493 -0.106292 -0.134376 -0.450447
31133 0.158526 -1.99427 2.89013 0.612105 -0.321855 0.0443487 -1.99976 0.0316379 0.569276 6.83514 0.155752 0.0693546 -0.0529305 0.258096 0.0172674 0.272476 -0.475442 0.319283 -0.15566 0.736232 -0.127453 -0.0910896 0.0780335 0.311493 0.0252066 0.0536389 0.0434021 0.207951 -0.0912958 -0.0699498 -0.0424433 -0.078698
32895 0.0696323 -2.10529 2.90871 0.695398 -0.322883 0.000765348 -1.98976 -0.086072 0.728972 6.92624 0.252231 -0.0161366 0.0826322 0.397593 0.0178338 0.0871688 -0.41517 0.231943 -0.11356 0.779053 0.0760199 -0.0519804 -0.0102896 0.19921 0.0465532 0.00885278 0.0556889 0.0728605 -0.0282868 0.0494742 0.0388671 0.01767
34433 -0.0481016 -2.01693 2.804 0.520963 -0.332048 -0.168559 -1.62507 -0.0912392 0.380818 6.53989 0.247254 0.0234107 0.299732 0.690321 0.102746 0.184548 -0.483427 0.0706244 -0.196754 0.704617 0.10393 -0.0363684 -0.00482651 0.0816154 -0.0171372 0.101314 -0.207468 0.414695 0.167805 0.0708734 0.00680717 0.0738423
31182 -0.156745 -2.08166 2.87879 0.76388 -0.110248 -0.109295 -2.0594 -0.237823 0.48156 6.84655 0.133183 -0.00358801 0.0890457 0.612354 0.0881901 -0.0433504 -0.532 0.232408 -0.0944204 0.84084 0.0925958 0.0563636 -0.104556 0.0748972 0.115801 0.033556 0.0546885 0.0222074 0.059232 0.106746 0.203685 0.0831265
32620 -0.181505 -2.02005 2.85134 0.687638 -0.130385 0.0162363 -1.9023 -0.100405 0.442411 6.75509 -0.00393095 0.0975608 -0.0710433 0.57268 0.0247501 -0.0688722 -0.231412 0.288477 0.13919 0.840417 0.216042 0.0783163 0.122388 0.0010929 0.322918 0.165892 -0.0334457 -0.10854 0.105619 0.0239363 -0.10242 0.0805866
35094 0.134932 -2.04027 2.77793 0.528828 -0.092214 -0.125679 -2.02697 -0.187805 0.450004 6.57721 0.321961 -0.0795844 0.0613961 0.480563 -0.0263743 0.438695 -0.359229 0.193379 -0.0281466 0.896302 0.236479 0.239898 0.0534855 -0.0664964 0.0927414 0.0523848 0.0516614 0.0192798 0.0135496 0.0673023 -0.0442042 0.143963
32851 -0.14969 -2.04352 2.73338 0.679233 -0.284702 -0.00724636 -1.74689 -0.27523 0.781112 6.51396 0.457257 0.111096 -0.328193 0.448933 0.240494 0.292091 -0.114229 0.529148 0.110195 0.810291 0.272942 0.0451251 0.391303 0.158237 -0.116314 -0.03927 -0.0374495 0.197508 0.321161 -0.288364 0.0992112 0.124948
33127 0.0515241 -2.05515 2.78433 0.784223 -0.194674 -0.136169 -1.84481 -0.11532 0.438175 6.87642 0.33048 -0.0725379 -0.0456771 0.18065 0.093708 0.394193 -0.365836 0.317117 0.0967509 0.642623 -0.125653 0.0892543 -0.0218093 0.171116 0.120266 0.055774 0.00674267 0.0682652 0.0117299 0.107218 0.0525361 -0.153584
31645 -0.122896 -2.03569 2.75368 0.669487 -0.236505 -0.122642 -1.92423 -0.244759 0.421761 6.74006 0.271009 0.0680038 -0.0486418 0.252502 0.27804 0.0951707 -0.413901 0.259868 0.0257633 0.790615 -0.0897492 0.139425 -0.079515 0.0972894 -0.0182618 0.0550029 -0.11578 0.0164254 -0.0995184 -0.0734183 0.113633 0.0593302
33728 -0.0356012 -2.08776 2.89862 0.621784 -0.223296 0.0199636 -1.89089 -0.0660397 0.56932 6.89704 0.230798 0.15389 -0.00395824 0.330171 0.109556 0.244154 -0.298122 0.197763 0.0162161 0.773584 0.330121 0.0980104 -0.00559303 -0.0676064 0.00147826 -0.0867504 -0.0856803 0.0522522 0.0515995 -0.0814454 -0.0569384 0.0580704
34334 -0.0433489 -2.04855 2.87214 0.58453 -0.259891 -0.0626291 -1.90839 -0.0741241 0.69248 6.86703 0.27522 0.138088 0.152545 0.241273 0.0618757 0.210466 -0.301107 0.33945 -0.0972568 0.71673 -0.0605241 0.0823306 0.0211503 0.105647 0.0321912 0.162593 -0.0263822 0.126185 0.0552383 0.0811676 -0.0238983 0.0913483
33667 -0.0298269 -2.0701 2.81921 0.736334 -0.120609 0.0124428 -1.96407 0.0644626 0.620621 6.86559 0.172879 -0.0800579 8.87978e-05 0.396407 0.10225 0.101477 -0.371879 0.238448 -0.192007 0.740673 0.0805375 0.0257135 0.0589663 0.166317 0.171347 0.0336765 -0.0548627 0.179776 -0.0913183 -0.0130098 -0.0179416 0.0364871
36951 0.424042 -2.08376 2.61272 0.467614 -0.46607 -0.0540027 -1.76492 0.079771 0.607974 5.95062 0.232426 0.0644457 0.139613 0.760767 0.313216 0.131707 -0.647789 0.382836 -0.42399 0.968017 0.152024 0.0204462 0.270162 0.178815 0.31568 -0.319713 0.0196282 0.496707 0.263962 0.164827 0.0613961 -0.0501759
36318 0.209542 -1.98208 2.6885 0.536153 -0.24242 -0.0404755 -1.87051 -0.135002 0.56673 6.37474 0.187368 -0.0971489 0.125454 0.319564 0.178177 -0.059697 -0.384245 0.0189165 -0.0423966 1.04351 -0.226928 0.0995995 0.00907339 0.108753 0.130887 0.00406031 0.187175 0.13995 0.167693 0.0927058 0.0867119 -0.0489245
34424 -0.0498213 -2.11434 2.83722 0.520835 -0.260142 -0.17695 -1.9675 -0.136347 0.619585 6.84161 0.199161 0.0393503 -0.0290401 0.506149 0.0496441 0.189103 -0.427246 0.0879239 3.99627e-06 0.790524 0.121108 0.00846859 -0.063298 0.0617092 0.14558 -0.0290724 -0.00420436 0.0915698 0.0783708 -0.00239354 0.0498977 -0.00644194
34997 -0.0653537 -1.99521 2.85933 0.57186 -0.293176 0.0154227 -1.98973 -0.191092 0.495052 6.88702 0.140867 0.0202679 0.0682528 0.224373 0.106412 0.210314 -0.411107 0.138263 -0.0395992 0.706471 0.221433 0.0744542 0.0599752 0.00810214 -0.000152216 -0.127958 -0.0291637 -0.0460463 0.0227601 0.0982778 0.0577298 -0.0491568
33692 -0.159948 -1.90882 2.94788 0.336104 -0.153576 -0.0324364 -2.00223 -0.31097 0.445153 6.82292 0.198843 0.0770926 -0.0230152 0.275599 0.159222 0.19426 -0.316883 0.218275 -0.0543259 0.586312 0.0156886 -0.00613526 0.067274 0.148372 -0.128689 -0.286071 0.0245244 -0.0948154 -0.07799 0.250371 -0.0239219 -0.108005
31743 -0.251562 -1.90557 2.91767 0.413123 -0.0630386 -0.183672 -2.02781 -0.185731 0.50164 6.72086 0.304192 0.00470796 0.138355 0.541786 0.35553 0.353734 -0.349401 0.355876 0.0458153 0.535354 -0.04965 -0.148917 0.105262 0.228527 -0.0452497 -0.158708 0.0428033 -0.155402 -0.114535 0.228533 -0.104885 -0.0846733
32897 0.0508661 -1.94889 2.88456 0.631799 -0.158621 -0.03085 -2.02182 -0.0370191 0.473109 6.87903 0.109288 0.219283 0.154752 0.330746 0.237318 0.186436 -0.290595 0.233267 -0.0844335 0.703117 0.0548906 0.196567 0.0524871 0.0617499 -0.0815406 -0.0190989 -0.143011 0.0165922 -0.154225 0.00555507 0.263749 -0.100545
33469 -0.0472023 -1.91349 2.74726 0.424895 0.054587 -0.0181862 -2.00097 0.100986 0.498417 6.35206 0.095128 0.216779 0.183822 0.475881 0.0100645 0.134257 -0.258031 0.188066 -0.0896032 0.980261 0.0566705 0.0254424 0.0204424 0.0414531 0.0862328 -0.0996633 -0.250973 -0.0872392 -0.0188271 -0.196558 -0.141584 -0.0108225
35149 -0.189142 -1.9556 2.60989 0.52903 -0.201051 -0.121051 -1.89827 0.169081 0.291803 6.27961 0.100957 -0.0351912 -0.0711027 0.431338 0.0348797 0.380721 -0.0460092 0.3177 -0.164345 1.00938 0.0263181 0.096029 -0.140825 -0.0952471 0.0487239 0.0828725 -0.151347 0.158297 0.0751246 -0.0811564 -0.131173 -0.420225
35806 -0.026757 -1.99379 2.6777 0.687884 -0.134024 -0.0265777 -1.91538 -0.204878 0.402227 6.43577 0.153429 0.164663 0.198001 0.59117 0.00549611 0.152484 -0.354805 0.038042 0.0791617 0.910473 0.136813 0.100367 -0.189083 0.0525313 0.236889 0.283352 -0.0295426 -0.00619108 -0.0524855 -0.0267631 -0.0421769 -0.186682
31281 -0.130035 -1.92999 2.86248 0.454636 -0.318122 -0.0693834 -2.10656 -0.224603 0.708681 6.56553 0.0977112 0.167392 -0.310817 0.548147 -0.0714058 0.213401 -0.395432 0.0133813 0.10556 0.852079 0.129962 0.0757856 -0.115497 -0.0803547 0.35724 0.0775615 0.128148 0.0561253 0.288909 -0.0701395 0.191726 0.0501796
35435 -0.0228769 -2.02331 2.80847 0.500771 -0.16573 0.0923468 -1.91544 -0.0919182 0.727171 6.63651 0.282844 -0.0257785 -0.00757973 0.6394 0.00058116 0.271495 -0.230633 0.243062 -0.115195 0.758196 0.0483924 0.177717 0.0760283 0.0188506 0.212473 0.137673 0.153176 0.136968 -0.0410754 0.189406 0.0468571 0.0902182
34522 -0.120281 -1.8992 2.78203 0.565106 -0.30849 -0.153002 -2.05758 -0.239742 0.416287 6.38504 0.0852128 0.0871763 0.241704 0.506284 0.186625 0.0224709 -0.414087 0.15574 -0.0190998 0.978584 -0.0331047 0.214451 0.167002 0.122284 -0.00164659 -0.151012 -0.154952 -0.151485 -0.112927 0.134962 0.4223 -0.2034
32559 -0.0861761 -2.00692 2.90796 0.614155 -0.130197 -0.000107672 -2.02733 -0.12912 0.42952 6.78753 0.158233 0.179048 0.277976 0.540025 0.197766 -0.124391 -0.289897 0.237894 -0.0774573 0.895819 0.0995191 0.392831 -0.00229431 0.0832885 0.01418 0.0839577 0.0826992 0.0147714 -0.0651044 0.15056 0.15521 -0.0909182
31400 -0.217185 -1.99793 2.86865 0.762452 -0.229857 -0.0596033 -1.9876 -0.206739 0.542319 6.83447 0.196527 0.00181273 0.187761 0.428391 0.143782 0.201682 -0.251416 0.20901 -0.141554 0.829483 -0.0391982 0.117079 0.0303982 -0.00894584 0.0483182 0.060289 0.0453746 0.170535 0.0604114 0.0525234 0.0530593 0.0304628
31944 0.0847254 -1.81036 2.8161 0.346592 -0.41598 -0.186069 -1.93971 -0.171594 0.422906 6.61855 0.42836 0.0722863 0.0442082 0.114722 0.0604735 0.00718184 -0.290028 0.211746 -0.135525 0.642333 -0.113766 0.0479353 0.00204465 -0.107992 0.0838383 0.0432051 -0.0164035 0.187074 0.277549 0.00288504 -0.0636701 0.107444
34360 0.220746 -1.71593 2.77672 0.577732 -0.283428 -0.299256 -1.79666 0.0452335 0.471432 6.11621 0.29751 -0.0155086 0.0336599 0.509024 0.14926 0.311496 -0.261103 0.305101 -0.179967 0.807089 -0.0551577 0.18445 -0.040571 0.1151 0.220513 -0.0801603 -0.155635 0.298185 0.203104 0.189652 -0.0562334 -0.219226
35745 -0.0386828 -1.88778 2.75625 0.851379 -0.129783 -0.242158 -1.85207 -0.22177 0.411323 6.32845 0.176237 0.0875898 0.0317063 0.536719 0.0818722 0.19868 -0.47952 0.0891998 -0.0121491 0.892805 0.0535429 0.36146 0.0777468 0.136736 -0.0252164 0.0272786 -0.249029 0.0244259 -0.0906774 0.186516 0.0566506 -0.265235
32236 -0.0141957 -2.11168 2.82584 0.667456 -0.18326 -0.00286068 -2.01635 -0.0954124 0.602569 6.98786 0.202818 0.0685271 -0.0185846 0.388899 0.107318 0.151699 -0.353103 0.17437 -0.00961904 0.765609 0.0786118 0.0205871 -0.00559251 0.0762333 0.0320358 0.000975876 0.0196491 -0.0807285 0.179516 0.0853649 -0.0598368 0.0239748
35136 -0.0506444 -2.0977 2.72685 0.472061 -0.0843981 -0.311344 -1.93551 -0.263219 0.610088 6.63041 -0.225282 -0.0926343 -0.149475 0.495958 -0.00224573 0.291498 -0.440842 0.647759 -0.0419096 0.720929 -0.178437 0.0928893 -0.0780741 0.0398054 0.098139 -0.165063 -0.0485342 -0.00445101 -0.0269081 -0.108264 0.159439 -0.11511
33610 0.000269433 -2.01593 2.79146 0.657799 -0.0587052 -0.23759 -1.96416 -0.140983 0.480896 6.80883 0.112536 0.140131 -0.0330584 0.281016 0.0514625 0.197453 -0.388308 0.350258 0.00719306 0.580606 -0.101603 0.00924675 0.118813 0.321236 -0.0473516 0.0847699 0.0283369 0.0564698 -0.00588473 -0.0879884 0.0331924 0.0231342
31977 0.110999 -2.05074 2.66585 0.54502 0.0175859 -0.305351 -2.0054 -0.176668 0.614177 6.56224 -0.0293053 -0.0485855 -0.0296068 0.418122 -0.0920915 0.218103 -0.351565 0.595831 -0.035977 0.737261 0.0859216 0.17674 -0.194557 0.198803 -0.2007 -0.179329 -0.00695909 -0.00659479 0.141384 -0.217893 -0.0632913 -0.0680678
33181 0.0579651 -2.04047 2.87855 0.63735 -0.310598 -0.158557 -1.96789 -0.163833 0.566902 6.84437 0.231163 0.0540251 0.0728259 0.302292 -0.0138232 0.164464 -0.27608 0.32755 -0.0599236 0.839421 0.0158631 0.0147846 0.0357453 0.086476 0.0885084 0.0717397 0.112546 -0.00257143 -0.112528 0.0181504 0.0600428 0.0591212
32870 -0.0938715 -1.98567 2.83069 0.542651 -0.312476 -0.170965 -1.94908 -0.190786 0.49517 6.70243 0.337625 -0.186878 -0.00572122 0.571669 0.0805024 0.171885 -0.374145 0.231422 -0.0441941 0.741114 -0.0281038 -0.183063 -0.0500679 0.075893 0.1562 0.0332781 0.00798301 0.0964055 -0.103987 0.0140237 0.0278836 0.0505982
32522 0.229728 -2.0001 2.90388 0.419748 -0.123737 -0.291096 -1.76974 -0.0612051 0.473232 6.78993 0.169017 0.0368335 -0.0773899 0.171814 0.034446 0.268718 -0.235347 0.214541 -0.118441 0.829291 0.00921273 -0.0283859 -0.0214173 0.220548 0.0749241 -0.0264461 0.000264801 0.176206 -0.0183736 -0.112478 0.0115265 -0.0746827
34080 0.0151353 -1.91372 2.95649 0.591619 -0.136857 -0.32797 -2.04784 -0.200348 0.705246 6.8953 0.266182 -0.056543 -0.111944 0.337676 0.0313682 0.078321 -0.335431 -0.0157989 0.104866 0.709693 -0.0600526 -0.0464707 -0.102463 0.0019871 -0.0141991 0.0821995 0.0266059 0.169156 0.0173885 0.0701908 0.0520639 -0.00396782
34606 -0.05153 -1.86094 2.88606 0.657005 -0.324807 -0.0674851 -2.08158 -0.0173796 0.588192 6.74854 0.246507 0.196807 -0.213881 0.413509 0.0588876 0.327994 -0.420659 0.0451101 -0.151672 0.637258 0.0532881 0.180383 -0.0971279 -0.153042 0.104181 -0.026949 -0.123373 0.299427 -0.160441 -0.0699425 0.0605657 -0.150583
31273 0.172725 -1.8886 2.81563 0.807863 -0.0567472 -0.290723 -2.13408 -0.271826 0.485922 6.62975 0.399116 0.195839 -0.083954 0.239665 0.122275 0.0670293 -0.572534 0.129095 0.0969979 0.76333 0.0236369 0.0227865 -0.142614 -0.336619 0.0765609 0.171064 0.0757837 0.193021 -0.0051431 -0.0758526 0.178322 -0.035921
34326 0.117953 -1.88644 2.75622 0.55632 -0.30098 -0.232723 -1.85927 -0.165165 0.309763 6.53956 0.142547 0.274439 -0.348438 0.312495 0.267873 0.0478887 -0.443967 0.255927 -0.0468957 0.666089 0.16981 0.0972613 0.257936 -0.0529273 0.167976 -0.112125 -0.0780399 0.203424 -0.355515 0.0819807 0.0449498 -0.109141
33730 0.00582655 -2.12171 2.80398 0.795054 -0.095136 -0.0213589 -1.9257 -0.11203 0.539425 6.98 0.296498 0.0101132 0.120689 0.292475 0.240708 0.225977 -0.236691 0.115132 -0.0818413 0.784784 -0.0892499 -0.0513949 -0.00565329 -0.0275569 0.0905568 -0.0358881 0.0776285 -0.00157081 0.13245 -0.051949 0.0797007 -0.0417756
36536 -0.255837 -1.87061 2.58055 0.654948 -0.14981 -0.0706063 -1.86732 -0.17943 0.429851 5.81358 0.193734 0.291806 -0.0420852 0.796227 0.303176 0.192515 -0.179235 0.287097 -0.274511 1.15669 0.0189992 0.0902722 -0.189935 0.184951 -0.000810421 -0.060135 -0.102013 -0.0373562 0.108363 0.0768182 0.155697 -0.0955803
32940 -0.106519 -2.17857 3.06511 0.67679 -0.213602 -0.0918648 -2.07456 -0.131945 0.634563 7.25946 0.284076 0.03966 0.0581653 0.547431 0.0640476 0.128463 -0.321994 0.243405 -0.138505 0.817375 0.0647908 0.0505228 -0.0153504 0.100114 -0.00358797 0.139057 -0.000739498 0.0340606 0.10288 -0.0472807 0.0194041 -0.188804
36436 0.109428 -1.94833 2.66649 0.236286 -0.262581 0.0306427 -1.73668 -0.183112 0.172101 5.88615 0.525259 0.041699 0.100909 0.619273 0.177254 0.125035 -0.377543 0.388593 0.0454984 1.07558 0.273322 0.192125 0.0324834 0.175241 0.0354709 0.0896531 0.0139191 -0.0864154 -0.022567 -0.234966 -0.0490992 -0.0641894
32996 0.0382646 -1.96363 2.94214 0.43505 -0.237651 -0.147043 -1.90878 -0.143638 0.481496 6.91689 0.14431 0.0445352 0.0661851 0.219234 -0.00402873 0.152699 -0.302817 0.216034 -0.182652 0.713025 -0.0459825 -0.0878913 0.0491191 0.171097 0.169232 0.00744816 -0.0283843 0.0707648 0.0109038 -0.0472475 0.0048617 0.0419602
31656 0.099104 -2.07443 2.7435 0.664507 -0.295289 -0.113026 -1.88445 0.061779 0.538854 6.75806 0.116942 0.0942834 -0.0691447 0.284409 0.0596594 0.266213 -0.248684 0.185965 -0.0793445 0.826938 0.0852162 0.0918028 -0.148608 0.278479 0.113049 -0.00256816 -0.071518 0.214383 0.140849 -0.00255427 -0.0662785 -0.00728865
35989 -0.192626 -2.05782 2.79849 0.661064 -0.219872 0.0334197 -2.0618 0.133788 0.350506 6.67097 0.132599 -0.302016 -0.169532 0.405461 0.027628 0.109902 -0.345086 0.291002 -0.32305 1.03139 0.256705 -0.108959 0.0136407 -0.0613046 0.214168 0.148145 0.0679212 0.30551 -0.175752 0.104399 -0.295517 -0.113228
33882 0.341044 -2.01 2.47467 0.686008 -0.268602 -0.208275 -2.05626 -0.0642367 0.679644 5.89494 0.388703 0.089184 0.0163954 0.398415 0.22882 0.0150079 -0.493228 0.567409 0.160957 1.13437 0.0380543 0.000156255 0.180409 0.147519 0.199558 -0.00765058 -0.17955 0.0910458 -0.380048 0.018131 -0.0369273 -0.0341267
34734 -0.0379829 -1.92071 2.76291 0.752768 -0.217959 -0.363075 -1.98886 -0.370242 0.564371 6.64164 0.285156 0.327805 -0.174016 0.283914 0.0559736 -0.130144 -0.574823 0.288884 0.162743 0.793911 -0.000722865 -0.00122337 0.0590648 0.193722 0.163652 0.164353 -0.319546 0.150408 -0.203452 0.110024 -0.0286112 -0.135839
33316 -0.0845415 -2.05209 2.89045 0.806608 -0.234127 -0.227659 -2.02583 -0.159803 0.615308 6.91839 0.322339 -0.0632791 0.0804534 0.47619 0.00970393 0.255299 -0.258064 0.218231 0.107699 0.887724 0.166491 -0.0191196 0.251857 -0.0150298 -0.0538634 -0.00286629 -0.104867 0.0518892 0.199357 -0.226854 0.0274806 0.062041
35215 0.00230385 -1.94967 2.59354 0.462796 -0.13206 -0.240465 -1.89262 -0.247056 0.445287 6.01611 0.0434621 0.228672 0.0720131 0.402688 0.158453 0.225299 -0.243692 0.24597 -0.0238975 1.20484 0.106878 -0.0626402 0.231776 0.11691 0.0884559 0.215587 0.27003 0.173886 0.232654 -0.0259577 -0.077531 -0.0169758
33242 -0.183083 -2.06859 2.81888 0.639124 -0.147581 -0.150869 -1.92771 0.0182914 0.496831 6.77148 0.0258413 0.15564 0.00694434 0.459723 0.386289 -0.260574 -0.133671 0.269378 -0.301102 0.974543 0.113577 0.251105 0.0420431 -0.0967086 0.129144 0.0877377 0.00485528 0.108969 0.0348521 0.0446862 0.0907365 -0.0752271
36668 -0.0887821 -1.9568 2.79257 0.721145 -0.0380018 -0.315042 -1.90365 -0.204599 0.499154 6.73102 0.151257 0.24366 -0.161263 0.234391 0.071243 -0.205537 -0.481447 0.406227 0.241167 0.715687 0.101426 0.208366 0.0960654 0.0840353 0.178135 0.109525 -0.0723373 0.124852 -0.141255 0.18358 0.130298 -0.184401
31386 0.0648228 -1.91543 2.8468 0.637636 -0.0191409 0.135567 -1.99437 -0.13171 0.637455 6.7157 0.311186 -0.0460581 -0.124836 0.308536 0.297272 0.140255 -0.27334 0.131712 0.1286 0.781457 -0.0576994 0.241821 -0.0719092 0.0033033 0.108237 0.139788 0.0985607 0.0381937 0.0227015 -0.12017 -0.0282028 -0.128637
33383 -0.0359567 -2.04866 2.9098 0.38399 -0.184701 -0.198718 -1.95207 -0.149616 0.487757 6.74149 0.0983844 0.154557 -0.0808063 0.46678 0.0370026 0.120581 -0.353616 0.374407 -0.0618272 0.877228 -0.17483 -0.15281 -0.014485 -0.0139308 0.263578 -0.171718 0.141143 -0.0135381 -0.11574 -0.172395 0.199876 0.0496202
34475 0.0153254 -2.01353 2.70065 0.592267 -0.371348 -0.110218 -1.93956 -0.0618251 0.548783 6.36911 0.0239893 0.171525 -0.09072 0.558927 0.0796799 0.232629 -0.442252 0.468985 -0.000863465 0.950073 -0.286199 0.0723498 0.109256 0.146348 0.109193 -0.0687205 -0.0995454 -0.00463412 0.00764811 -0.20637 -0.115077 0.00924149
33843 -0.0575774 -2.09438 3.00703 0.648391 -0.26873 -0.0722255 -2.04499 -0.115421 0.525504 7.17376 0.274598 0.272654 -0.10185 0.4815 0.0290803 0.102633 -0.381612 0.201157 -0.22471 0.717026 0.0137067 0.142598 -0.0540957 0.0153852 0.0660711 0.0812934 -0.0965151 0.134117 -0.0452084 0.0566038 0.0105083 -0.079616
31206 0.067469 -1.93805 2.70117 0.595424 -0.248861 -0.226903 -1.85063 -0.214951 0.574765 6.14795 0.380755 0.222254 -0.0775821 0.536826 0.0902125 0.287179 -0.279553 0.0832308 -0.0787465 1.09219 0.0940399 0.00599469 0.0542408 0.342747 0.0870105 0.0963775 0.0204812 0.0189133 -0.136975 0.124319 -0.255884 0.0659262
35066 -0.216816 -1.89088 2.85837 0.600662 -0.0376397 -0.314191 -2.00686 0.0631265 0.769876 6.62951 0.262901 0.23364 0.0466181 0.506685 0.189129 0.212232 -0.175564 0.176138 -0.117996 0.752973 -0.192168 -0.130805 0.0137773 -0.0754481 0.0885176 -0.0936786 -0.106403 0.0294354 0.027447 -0.0299469 -0.0673997 0.0177505
35120 0.0479182 -2.04693 2.84784 0.429013 -0.065549 -0.0639623 -1.92564 0.056572 0.507029 6.69607 0.259203 0.0734838 -0.105312 0.662716 0.14506 0.246821 -0.469174 0.269771 0.0586404 0.703256 0.0274212 -0.236717 0.0471243 0.122652 0.153205 0.0976901 -0.0179672 -0.178213 -0.167168 -0.0878451 0.01215 -0.0319311
35492 0.161558 -2.07627 2.80642 0.46154 -0.186967 -0.155036 -1.97422 -0.103858 0.445377 6.74 0.205005 0.179926 0.166456 0.0817754 0.0461669 0.262032 -0.441888 0.154629 -0.127579 0.931164 -0.0552047 0.0690341 0.242047 0.163794 0.0689328 -0.0602194 -0.0274588 0.023331 -0.130174 -0.164836 0.170711 -0.0424658
36910 0.0582186 -2.01491 2.76348 0.728114 -0.274056 -0.0805973 -1.91772 -0.20679 0.758215 6.65361 0.0181639 0.0253246 0.000706469 0.323208 0.123972 0.406095 -0.228705 0.276453 -0.116202 0.77852 0.30478 0.121408 -0.0173945 0.0797352 0.0225855 0.0835899 -0.144274 0.201765 -0.0374872 -0.0108204 -0.131993 -0.0684797
34473 -0.0357499 -2.06008 2.82821 0.716668 -0.175237 -0.206378 -1.90895 -0.0396338 0.584 6.90845 0.206712 -0.132857 0.0749149 0.248889 0.0218959 0.167486 -0.337915 0.162205 0.101957 0.870972 0.0283895 0.0672934 0.0473689 0.0967816 0.109859 0.0795014 -0.106927 0.00281687 0.140198 -0.000549304 -0.0919113 0.0531532
33527 -0.0865704 -2.07477 2.85824 0.474873 0.130663 -0.0394632 -1.93714 -0.0114181 0.598175 6.63761 0.233891 0.209445 0.232233 0.469077 -0.12274 0.346884 -0.494755 0.263275 -0.180423 0.639886 0.0117545 -0.0798958 -0.011098 0.0755736 0.0230258 -0.135862 -0.121368 0.104347 0.106646 0.0896811 -0.0583645 0.107781
32100 -0.171483 -2.08445 2.75704 0.593357 0.0368148 -0.0580928 -2.00236 -0.117922 0.571167 6.65398 0.426841 0.0574252 0.0769992 0.168147 -0.263529 0.219164 -0.612454 0.338152 -0.0241822 0.716054 0.0716599 -0.0306665 0.0820553 0.219533 -0.159159 -0.159168 -0.117189 0.180708 0.20687 -0.24744 0.15034 0.160772
33129 -0.00677373 -2.21564 3.01706 0.741537 -0.241492 -0.145985 -2.15353 -0.0821318 0.660625 7.27268 0.287519 -0.0090616 0.0314398 0.516799 -0.00416711 0.213137 -0.410865 0.200046 -0.104846 0.794461 0.0679458 0.0843941 -0.0194002 -0.00423445 0.0673579 0.107816 -0.068176 -0.0428833 0.0991931 -0.099423 0.0223157 -0.0582996
30969 -0.197531 -2.0321 2.74374 0.542679 -0.219432 -0.0160071 -1.86229 0.116562 0.413702 6.29621 0.358926 -0.0401545 0.20207 0.631127 -0.0458991 -0.15434 -0.308218 0.154972 0.150715 1.188 0.0791607 0.248612 -0.0552933 0.0858608 -0.11508 -0.156878 0.112939 0.095502 -0.222841 -0.0082025 0.148484 -0.368826
36030 -0.0182487 -2.09797 2.86827 0.696946 -0.175459 -0.146127 -1.97166 -0.0778169 0.451821 6.90186 0.0762545 -0.111375 0.00843875 0.540793 0.073122 0.0995633 -0.430218 0.374884 -0.267396 0.763703 0.1737 -0.0146348 0.0663546 0.0365612 0.0128581 0.0514599 0.00194417 0.355924 -0.0112949 0.0192734 0.121337 -0.0974033
35907 0.0106378 -2.03444 2.9101 0.484871 -0.214066 -0.0290962 -1.91609 -0.302706 0.43661 6.6967 0.0983836 0.0698223 0.266266 0.403851 0.246757 0.0812188 -0.249373 0.355323 -0.125926 0.940844 0.0604729 0.189297 0.0484606 0.103807 0.106099 0.0598526 -0.0197937 0.00778782 -0.108081 0.0626579 0.111773 -0.0456706
32600 -0.0745096 -2.12107 2.91266 0.664789 -0.0716398 -0.049428 -1.97289 -0.280182 0.66178 6.88949 0.297339 0.300956 0.0949926 0.446767 0.18913 0.0335798 -0.205728 0.407741 -0.272252 0.855148 -0.0531001 0.077078 0.00247342 0.058405 0.0578769 0.23915 0.127616 0.223809 0.100885 0.0279159 0.0774806 -0.0197604
35360 -0.210902 -1.9044 2.70934 0.67513 -0.162589 0.227293 -1.82919 -0.312607 0.449919 5.97866 0.387993 0.362666 0.2624 0.681785 0.211897 0.160568 -0.080333 0.604674 -0.129869 1.1485 -0.085002 0.0863763 -0.0965283 -0.12377 0.180989 0.180245 0.320423 0.347994 0.0840186 0.000656384 -0.216236 0.134817
35951 -0.00440908 -2.01695 2.86914 0.514255 -0.169475 -0.176608 -1.96275 -0.0607217 0.533158 6.86335 0.325097 0.142845 -0.0293464 0.192107 0.231147 0.075332 -0.43177 0.317811 0.0194948 0.682671 -0.129047 0.085026 0.0894386 -0.0491017 -0.0174376 0.150755 0.0553732 0.060832 0.153995 0.0699013 0.0032204 0.139591
35756 0.0778874 -1.92612 2.70984 0.766486 -0.622938 -0.237947 -1.87466 -0.170142 0.25527 6.49757 0.176427 0.0322522 0.0624652 0.377225 0.158793 0.414541 -0.396366 0.356291 0.0145374 0.734973 -0.0902556 0.0252536 -0.125716 -0.0243294 0.271335 -0.173118 0.00785147 0.0528181 -0.00656221 -0.089644 0.163646 0.111857
32891 0.0567787 -2.06491 2.79009 0.702267 -0.33 -0.240659 -1.86273 -0.170317 0.736934 6.8227 0.296476 0.0391002 0.138686 0.302715 -0.0244742 0.1075 -0.262139 0.153654 -0.0104581 0.788899 0.0715784 -0.130326 -0.0475124 0.0724843 -0.132206 0.101531 -0.037677 -0.0377916 -0.100327 -0.0876113 -0.129449 -0.0311014
33246 0.0442769 -2.07446 2.81795 0.704901 -0.165375 -0.0946122 -1.93628 -0.160543 0.640183 6.87665 0.222311 0.178124 -0.00328129 0.286525 0.0364269 0.148464 -0.371376 0.202894 -0.0632603 0.795973 0.1211 0.00288693 0.0989126 0.185456 0.242091 0.0257192 -0.0798745 0.0775709 0.0439044 -0.00576219 -0.0757311 -0.0740086
35849 0.493393 -1.86816 2.69921 0.600648 0.141635 -0.218876 -1.87246 -0.064168 0.179123 6.23786 -0.0705891 0.192111 -0.00386779 0.706321 -0.0287858 0.37572 -0.385179 0.0466081 0.0309379 0.819971 -0.0505804 0.143477 0.289004 0.21939 -0.0275247 -0.0427874 -0.122738 0.13104 0.112603 -0.198241 -0.159443 -0.0184115
32117 0.0179912 -2.03676 2.84508 0.556688 -0.169018 -0.0960931 -1.97154 -0.0110815 0.513669 6.89483 0.170998 0.017232 -0.0342679 0.406219 0.103561 0.187725 -0.390447 0.182714 0.0587451 0.732285 0.113871 -0.0832697 0.0369206 -0.0148564 0.0931754 0.0146347 -0.0240972 -0.0128953 0.13268 -0.00970013 0.0553538 -0.0548959
31349 -0.0458115 -2.01878 2.83712 0.830071 -0.387726 -0.311734 -1.93609 -0.0227078 0.527119 6.8212 0.193355 0.23338 -0.00589573 0.417906 0.10962 0.311969 -0.314312 0.251953 0.0603867 0.708644 0.0962362 0.162217 -0.0150279 -0.0201703 0.178903 -0.0655458 0.0337229 0.064072 -0.0256509 -0.0239485 -0.156527 0.0833618
34908 0.0740081 -2.02159 2.87418 0.511216 -0.219209 -0.218669 -1.92529 -0.317668 0.472886 6.87927 0.142709 0.0759003 0.0948055 0.263545 -0.0139224 0.148636 -0.325112 0.178726 -0.0102933 0.78008 -0.0268332 -0.0665609 -0.0527943 0.0677252 0.0900852 0.0125878 0.00858284 0.0875896 0.0504981 -0.0478892 0.0399153 0.0450729
31148 -0.0111892 -2.07338 2.78382 0.430954 -0.0998161 -0.279743 -2.0591 -0.0693498 0.469879 6.66187 0.089411 0.20657 -0.201143 0.225839 0.0822261 0.224298 -0.555016 0.289238 -0.0689194 0.789586 -0.0351345 0.208506 0.143544 0.12742 -0.160185 0.105931 0.019961 0.183387 -0.0830623 -0.0473719 0.0658054 0.152593
33991 -0.192079 -2.09607 2.85743 0.537235 -0.305875 -0.162407 -1.93105 -0.0632277 0.586681 6.88169 0.0890958 0.0117393 0.0086046 0.380497 0.0454797 0.0718823 -0.411549 0.407751 -0.0725787 0.738296 -0.0471962 -0.0283494 -0.0908421 -0.0145343 0.313875 -0.209074 0.0873175 -0.153513 0.0437596 0.0197457 0.137421 0.0571336
36828 -0.0916075 -2.09626 2.90497 0.539866 -0.0176225 -0.2555 -1.91714 -0.177661 0.551124 6.95573 0.229959 0.0832482 -0.0165383 0.277023 0.200075 0.216648 -0.28733 0.224252 -0.236864 0.731552 0.107367 -0.0328411 0.116877 0.0739101 0.143977 -0.041684 -0.0487044 0.0134804 0.0114618 -0.0524514 0.0170235 -0.124734
31247 -0.238727 -1.94222 2.73951 0.772389 -0.206955 0.0270616 -1.92967 0.0198261 0.38515 6.58578 0.110262 -0.179558 -0.0632819 0.46262 -0.0347278 0.0530826 -0.471092 0.139259 0.000226768 0.746348 0.32175 0.0175305 0.0267061 0.177808 0.279895 0.120057 0.0459157 0.157801 -0.0360465 0.156324 -0.00403145 0.0646221
32305 -0.495432 -1.80958 2.67347 0.253814 -0.406771 -0.300695 -2.08986 -0.365875 0.552858 6.04906 0.322788 0.193723 -0.343981 0.188171 0.168497 0.140963 -0.429936 0.0789414 -0.0081007 0.967608 -0.0127239 0.057932 -0.237147 0.432998 0.106957 0.126406 0.145175 0.000216166 0.0664761 -0.0120905 -0.296968 0.0516193
33047 0.0737618 -1.96918 2.71508 0.586478 -0.125796 -0.0723678 -1.81117 -0.259547 0.283384 6.20319 0.241379 0.312307 0.174681 0.546612 -0.0609368 0.359412 -0.273824 0.259977 -0.1354 0.96808 0.237986 0.0231493 -0.310049 0.0138122 0.0269213 0.152873 -0.0164633 0.188786 0.21755 0.0807905 -0.180958 -0.0823005
31610 0.00927219 -2.01801 2.81028 0.682619 -0.217601 -0.147909 -1.89693 -0.0708035 0.520423 6.86911 -0.0311683 -0.0683817 -0.0389085 0.413494 -0.0342539 0.145273 -0.383942 0.345016 -0.0812128 0.643188 0.0636519 0.0464495 -0.161271 0.150683 0.131634 0.0356747 -0.129881 -0.133758 0.113715 -0.0898142 -0.0718576 0.0376651
34104 0.025604 -1.90583 2.74037 0.458848 -0.198349 -0.311415 -1.88992 -0.02736 0.486804 6.46489 -0.0350511 -0.0262901 0.348231 0.282284 0.205357 0.311742 -0.316056 0.11887 -0.0827994 0.814899 -0.0546317 0.249532 0.239485 0.236638 0.149934 -0.0109913 -0.135827 -0.0163575 0.067987 -0.084502 0.0851471 0.124831
31388 -0.0719704 -2.01439 2.83834 0.506388 -0.0718994 -0.187662 -1.85455 -0.0796691 0.644214 6.62401 0.288293 0.0443763 0.150181 0.510192 -0.00974699 0.193773 -0.111984 0.440074 0.159683 0.803227 0.319016 0.0263948 0.245005 0.0465526 -0.196955 -0.239616 -0.0778831 0.206965 0.257169 -0.269105 -0.0976728 -0.0303402
35594 -0.0639242 -2.05217 2.86011 0.783704 -0.0697542 0.0101871 -1.89961 -0.1818 0.552338 6.73613 0.278406 0.130934 -0.144918 0.523034 0.0218895 0.173848 -0.420272 0.356746 0.0636535 0.705596 0.314328 0.112658 0.0767459 -0.0700042 -0.073606 0.00260957 -0.224662 0.0685097 0.0782964 -0.0280108 -0.115261 0.0301876
34520 0.140298 -2.07683 2.87135 0.486134 -0.23052 0.00635164 -2.04118 -0.156278 0.551029 6.92828 0.439443 -0.138381 0.0878912 0.396829 0.0566741 0.149562 -0.299342 0.292208 -0.130979 0.737146 0.0456822 0.0430086 0.0262441 -0.09647 0.132031 0.126457 0.0535154 -0.0314415 0.106275 0.0808443 -0.0294552 0.102372
32306 -0.0580792 -2.22312 2.55892 0.436142 0.0149831 0.0968972 -1.85885 -0.435682 0.287568 6.0112 0.625952 0.252912 -0.259756 0.690942 0.10225 -0.0775919 -0.57326 0.128538 -0.345411 1.31572 0.175187 0.259251 -0.0149986 -0.139981 -0.130088 0.334881 0.18764 -0.0611663 0.0454993 -0.135823 -0.0925288 0.061662
121276 -0.161126 -2.04996 1.76382 0.525279 -0.117327 -0.115913 -2.12423 -0.536742 0.153723 4.13498 0.451417 0.372473 -0.295353 0.53511 0.265244 0.363244 -1.05358 0.336187 -0.437147 1.66356 0.0999507 0.340071 -0.0594993 0.0259542 0.0330802 -0.482749 0.105481 0.453811 0.150294 -0.34036 0.373787 0.21718
31557 -0.288775 -2.47278 2.72695 0.652061 -0.16867 -0.11996 -2.3301 -0.219743 0.464121 7.02415 0.459288 0.344228 -0.255905 0.333252 0.144773 0.0472838 -0.858943 0.0626608 -0.284546 1.04143 0.011547 0.132466 -0.00401418 0.0659533 -0.143952 -0.135434 0.154901 0.186177 0.288549 -0.127877 0.108181 0.0645671
113177 -0.271516 -2.13237 2.40089 0.803209 -0.097387 -0.127009 -1.90675 -0.16333 0.140447 5.95211 0.598883 0.108666 -0.190517 0.346926 -0.0367033 0.0314231 -0.554729 0.30724 -0.261352 1.2535 0.220314 -0.109751 -0.168656 0.0269123 -0.0417249 -0.0751995 0.100995 -0.144727 0.228321 0.229718 0.0166046 -0.0493462
34622 -0.230929 -1.84108 2.65478 0.681693 -0.244054 -0.0988437 -1.89778 -0.102422 0.165013 5.9575 0.499543 0.10485 0.359743 0.548874 0.0423111 0.0222357 -0.341638 0.489478 -0.323886 0.987393 0.0799703 0.0872118 -0.288925 0.0850219 0.160431 0.14061 -0.010733 0.184686 0.0656651 -0.03438 -0.0964533 0.142265
35488 -0.115341 -2.07904 2.73567 0.678933 -0.10858 -0.293644 -1.89002 -0.153665 0.662784 6.63288 0.0066951 0.0355316 0.0194745 0.510541 -0.0565369 0.113517 -0.53388 0.373184 -0.155491 0.700472 0.0859574 0.287831 -0.26349 0.166407 0.0285441 0.0159746 -0.0191495 -0.0640608 0.0190423 0.0750489 -0.0589837 -0.129627
34364 -0.0606553 -1.99631 2.86689 0.339784 -0.20664 -0.102748 -1.9247 -0.0321274 0.624394 6.64173 -0.0513103 0.0661623 -0.0671198 0.501079 0.101302 0.144251 -0.483261 0.354723 0.0970438 0.74131 -0.00691394 -0.067839 -0.145283 -0.114494 0.408721 -0.293243 0.152467 -0.013355 0.0198415 -0.0408856 0.334509 0.0147619
34102 -0.146097 -1.98987 2.81832 0.541805 -0.232951 -0.312422 -1.95444 0.023035 0.80778 6.51766 0.33147 0.146775 0.0548293 0.363781 0.117945 0.071808 -0.75802 0.358872 0.00133701 0.65085 0.139152 0.0769354 -0.125532 0.0432119 -0.0119243 0.195269 0.328739 0.0501937 0.135276 -0.0476115 0.152726 -0.120029
35445 -0.0677768 -1.97546 2.90219 0.645914 0.086862 -0.168436 -2.08792 -0.136943 0.686923 6.87742 0.223868 0.145531 -0.0906749 0.582736 0.124174 0.202023 -0.409472 0.12454 0.0516769 0.569249 0.0961478 -0.0228833 -0.00626404 -0.138145 -0.0270656 0.176351 0.0119286 0.214874 -0.00951312 0.0536669 0.00558959 0.0411447
33737 -0.149859 -1.85992 2.91509 0.554188 -0.140647 -0.393349 -1.92944 -0.0378562 0.459065 6.59971 0.398533 0.164384 -0.30524 0.498077 0.106499 0.351302 -0.361248 0.136297 -0.0313561 0.5878 0.136745 0.119461 -0.173439 -0.0579255 0.0713211 0.141394 0.0224789 0.293832 0.0250332 0.123241 0.0696792 -0.018536
35511 0.0160582 -2.11692 2.93521 0.545602 -0.140363 -0.125513 -1.99733 -0.127357 0.576333 7.01325 0.244134 0.202971 0.0375888 0.389498 0.0225503 0.209693 -0.275548 0.243748 -0.173179 0.78208 0.200765 0.00242926 -0.0235707 0.0582792 0.068643 0.144038 0.0546661 0.0947961 8.55259e-05 -0.00464228 0.0827769 -0.100293
36139 -0.0693662 -1.89102 2.74279 0.421189 -0.173393 -0.037608 -1.69929 -0.0459484 0.405004 6.27726 0.182168 0.352881 -0.316221 0.462658 -0.0529497 0.285395 -0.287509 0.119015 0.0533703 0.836562 0.131388 0.233593 0.0790802 -0.00424474 0.428653 0.191611 0.108189 0.192725 0.0584576 0.151325 0.172528 0.0395538
34252 0.0820484 -2.02277 2.82771 0.618315 -0.116079 -0.21195 -1.94559 -0.10656 0.533955 6.71178 0.0387457 0.0181427 0.0809883 0.446708 -0.0124685 0.206171 -0.227111 0.277197 0.0727061 0.884139 0.192165 -0.0706492 -0.0712239 0.24273 0.0393328 0.113355 0.0338113 0.025517 0.193689 -0.124308 0.0389968 0.0571796
35102 -0.0251668 -2.03215 2.88446 0.579757 -0.169387 -0.254585 -1.91939 -0.0665728 0.517871 6.76448 0.126896 0.152095 0.124646 0.474729 0.0282585 0.0325559 -0.41653 0.227219 -0.0336017 0.81286 0.0810126 0.134297 -0.0215716 -0.0698975 0.0761904 -0.000828356 -0.0816103 -0.0988661 -0.0841039 -0.0127156 0.227936 0.0746712
36586 -0.0903592 -2.04352 2.72305 0.622434 -0.309105 -0.0979508 -1.67995 -0.142322 0.40564 6.57309 0.162198 0.0763997 0.0246713 0.484143 0.193975 -0.142958 -0.375733 0.417634 0.0480132 0.792076 0.118136 0.234231 -0.0555882 -0.207569 0.00878045 0.328498 -0.0284143 -0.0376382 -0.129742 0.139954 0.0114636 -0.0883316
32026 -0.0314062 -2.07286 2.85439 0.637086 -0.302488 -0.0575894 -1.8946 -0.184374 0.701177 6.91274 0.188859 -0.0272439 0.0505265 0.42773 -0.00915784 0.0119164 -0.246169 0.256028 0.175558 0.833882 0.119877 -0.11107 0.161464 0.104171 -0.083366 -0.0841287 -0.0168145 0.00965316 0.276712 -0.10826 0.0113833 0.0337752
34524 0.0526103 -1.91045 2.66826 0.636417 -0.144889 -0.351375 -1.64773 0.000661308 0.412022 5.89009 0.118641 0.133197 0.225582 0.65458 0.145037 0.435987 -0.466738 0.257737 0.0311256 1.14487 0.0250607 0.00740108 0.132095 0.132097 0.0583507 0.0281042 -0.0797979 0.299071 0.19256 0.165478 0.106344 -0.247204
33087 -0.118822 -1.9923 2.88334 0.664826 -0.116901 -0.0261305 -2.02035 -0.0787664 0.432186 6.9866 0.20845 0.0161515 0.02422 0.31882 0.169417 0.242167 -0.401141 0.26478 -0.071545 0.636176 0.0180269 -0.0232594 0.0946973 -0.0400989 0.0884115 0.0239499 -0.0544812 -0.0789133 0.0539915 0.069448 0.104487 -0.18954
34114 0.216342 -1.86658 2.88726 0.242406 -0.0671933 -0.31232 -1.99403 -0.110081 0.363981 6.4721 0.0703718 0.130904 -0.0184224 0.478467 -0.128129 0.153063 -0.33772 0.128917 -0.000955741 0.857284 0.103512 -0.156932 1.62087e-05 0.327696 0.0405415 -0.069104 -0.0637334 0.163068 -0.106053 -0.226367 -0.0049634 -0.0368417
34400 0.00362628 -2.09636 2.95104 0.498565 -0.147295 -0.159418 -1.97951 -0.159313 0.478233 7.0254 0.150076 0.187476 0.112754 0.373363 0.0559662 0.0885684 -0.233553 0.212915 -0.113008 0.81678 -0.0304262 0.0247324 -0.0284903 0.0308543 0.0840051 0.0530313 0.0372278 0.19608 0.0418543 -0.0296597 0.0938137 -0.119121
36926 -0.319626 -1.92456 2.87184 0.706863 -0.174342 -0.127083 -2.06594 0.114354 0.263801 6.76552 0.106287 -0.492532 -0.127166 0.353127 0.0948742 -0.073963 -0.256541 0.378664 -0.321388 0.937824 0.219875 -0.0382932 0.17344 -0.0270809 0.0432557 0.19129 0.0803746 0.260853 -0.08018 0.0115671 -0.133249 -0.0733959
36043 0.178106 -1.9738 2.81978 0.266653 -0.175984 -0.1838 -2.00633 -0.295206 0.455577 6.56104 0.218251 0.117396 0.0460707 0.307094 -0.00417252 0.0745984 -0.32809 0.304814 0.139622 0.875879 0.10321 -0.00727218 -0.028125 0.0490107 0.102172 -0.0115161 0.184886 0.309551 -0.0956801 -0.161656 0.000471342 -0.140342
35835 0.225714 -2.06261 2.82723 0.561954 -0.203951 -0.0645824 -1.96713 -0.0846921 0.653022 6.87183 0.177843 0.149349 -0.0153435 0.294777 -0.0287033 0.243264 -0.304529 0.354701 -0.129581 0.762889 0.0882574 -0.0388097 0.0415283 0.151908 0.0148659 0.17958 -0.0780451 0.185786 -0.180528 -0.026494 -0.0288054 -0.0525336
32357 0.0308494 -1.84111 2.78615 0.394825 -0.415843 -0.258641 -1.70149 0.0871763 0.504944 6.21715 0.202504 0.0396965 0.0735433 0.358182 0.122732 0.388009 -0.378978 0.257091 0.0463859 0.863458 0.0239498 0.00774205 0.101035 0.0901524 -0.0321731 0.232638 -0.0574334 0.0193194 0.10565 0.0224981 -0.0201457 -0.225087
34268 -0.0938952 -2.01512 2.80334 0.64773 -0.244629 -0.127852 -1.89136 -0.0847239 0.708161 6.73537 0.0458441 0.146476 -0.099131 0.384927 0.194348 0.283388 -0.374022 0.322186 0.142678 0.721604 0.0370334 0.194736 -0.117605 0.0244336 0.00724506 -0.00761937 -0.0534809 0.104026 0.0520446 -0.0259811 -0.0474311 -0.0827657
32106 -0.068528 -2.06641 2.79484 0.75252 -0.224689 -0.0948758 -2.00669 -0.0707262 0.56789 6.86636 0.142053 -0.0637601 -0.0577378 0.398526 0.119641 0.0206807 -0.390609 0.257501 -0.0463936 0.826731 0.0697208 0.042139 0.00620537 0.135958 0.0462357 -0.0464231 -0.060585 0.0397438 -0.033164 0.0836137 -0.0513815 0.0594366
36353 0.000550964 -2.07081 2.86375 0.647107 -0.104429 -0.15332 -1.94034 -0.10012 0.512736 6.85239 0.235193 -0.0852368 0.038927 0.338409 0.230127 0.177213 -0.298312 0.156246 -0.0576178 0.799584 0.235518 0.144304 -0.0406193 0.0773346 0.0508509 0.0411277 -0.0980985 -0.147628 0.248116 -0.260325 -0.0271995 0.0462548
33726 -0.171904 -2.06455 2.85651 0.559779 -0.107288 -0.0715012 -2.06155 -0.195438 0.748852 6.92543 0.259046 0.0203672 0.139348 0.447811 0.170329 0.246828 -0.365508 0.371806 -0.0939908 0.581462 0.111447 -0.0380258 -0.0421783 0.0600698 0.0744657 -0.140298 0.0345038 -0.0797197 -0.0126216 0.115709 -0.150427 -0.0956861
36512 -0.238523 -1.85397 2.67238 0.355911 -0.135407 -0.268745 -1.91787 -0.424329 0.457954 6.24761 0.415614 0.102884 0.230863 0.283827 0.129819 0.312069 -0.347655 -0.107083 -0.0676749 0.886203 0.397902 -0.0755451 0.0682953 0.17894 0.200135 -0.19557 -0.150517 0.019429 -0.054922 -0.0381274 -0.33458 -0.195838
33226 -0.11866 -2.03319 2.9339 0.50453 -0.0789379 -0.239636 -1.94203 -0.100304 0.546893 6.94051 0.242162 0.0421322 0.013881 0.254336 0.256215 0.182362 -0.214541 0.230187 -0.216918 0.780324 0.015288 -0.0629909 0.100554 0.0541819 0.137654 -0.0547635 -0.0193851 0.047435 -0.0339171 -0.0852178 0.00842867 -0.0763692
32166 -0.0261455 -1.98817 2.88863 0.617639 -0.0750721 -0.179174 -1.97706 -0.138969 0.421418 6.83294 0.340069 0.0338543 0.0376813 0.173583 0.244953 0.235597 -0.319612 0.15946 -0.169922 0.738702 0.208305 0.0871898 -0.125122 0.0534149 0.234083 -0.0705574 -0.145886 0.0112647 0.0783128 -0.16834 -0.205439 -0.205517
36214 -0.0152908 -2.18982 2.85861 0.548595 -0.225909 0.114808 -1.95802 0.0312818 0.456857 6.98235 0.392619 0.0277291 -0.0407381 0.491284 0.203993 0.197927 -0.407508 0.426582 -0.105965 0.5783 0.175299 0.10016 -0.143552 -0.00803624 0.0698145 0.137497 -0.0685658 0.0256048 -0.0319849 -0.115549 -0.032078 -0.208091
34736 -0.156785 -2.07086 2.83719 0.671262 -0.155527 -0.240173 -1.85877 -0.0820205 0.423443 6.67675 0.408375 0.0532096 -0.0950862 0.580727 0.0172349 0.110784 -0.351487 0.17336 -0.262736 0.858701 -0.0354393 0.0607997 -0.216922 0.0947739 -0.123147 0.0780122 -0.1112 0.0306839 -0.112627 0.0207129 0.0709839 -0.052748
36184 -0.221985 -1.83987 2.77695 0.4971 -0.151416 -0.158007 -1.85793 -0.0574134 0.508233 6.30308 0.097154 0.147307 -0.11172 0.396986 0.031247 0.05729 -0.358054 0.339571 -0.305845 0.845255 -0.058132 0.14288 -0.0575991 0.0200346 0.198844 -0.0168138 -0.261381 0.0759066 -0.0487435 0.181035 -0.31181 0.0878419
33639 -0.0247991 -2.0512 2.89446 0.624258 -0.191217 -0.236992 -1.99267 -0.146787 0.483905 6.89084 0.19878 -0.0840706 -0.095827 0.252059 0.0283065 0.082595 -0.326157 0.342527 -0.269839 0.867857 -0.0125139 -0.0013737 0.128724 0.19058 0.140458 0.0346939 0.087355 0.149147 0.0243151 -0.0218827 0.0480727 -0.103779
36242 0.243776 -2.07183 2.85673 0.675987 -0.156055 -0.00639584 -2.00878 -0.0300921 0.631438 6.86008 0.179237 -0.00489945 -0.0246066 0.309524 0.0140002 0.195825 -0.386158 0.398523 -0.0723874 0.819654 -0.0416584 -0.145856 0.105238 0.192791 -0.0220527 0.105156 -0.0520286 0.154935 -0.185623 0.0335956 -0.0650213 -0.00243844
35957 0.108402 -2.00207 2.90091 0.523848 -0.125098 -0.149765 -1.87122 -0.0283658 0.702707 6.84413 0.144648 0.03054 0.064615 0.206326 -0.0272639 0.177216 -0.15279 0.297224 0.0507221 0.769317 0.151376 0.115603 -0.100171 0.151025 0.0494189 0.0355678 -0.0439486 -0.0124884 0.119992 0.0604595 0.00989515 0.121965
35603 0.219843 -2.07095 2.89084 0.516283 -0.177983 -0.0073276 -1.88572 -0.157544 0.643094 6.81824 0.283817 0.0773989 -0.0198862 0.426769 0.0137058 0.141965 -0.179955 0.394553 -0.0602913 0.768065 0.250647 0.061763 0.0331505 0.0235137 -0.0125655 0.0845683 0.0909318 0.0606878 -0.0921336 -0.0261957 0.0145471 0.105907
30987 -8.66869e-05 -2.02731 2.76587 0.673318 -0.129606 0.0226058 -1.95895 -0.181781 0.308942 6.64808 0.16486 0.280363 0.263707 0.519823 0.105312 -0.0293798 -0.259306 0.328753 -0.127384 0.752639 -0.0177909 -0.0537084 -0.021228 -0.0111933 0.120392 0.269984 -0.0706472 0.144235 0.138167 -0.05437 -0.0141236 0.142673
31688 0.0660083 -1.99716 2.72994 0.638103 -0.368357 -0.156942 -1.99233 -0.166306 0.437791 6.54826 0.196062 -0.037399 0.183795 0.582814 -0.140623 0.205149 -0.474963 0.23931 0.0141256 0.69777 0.245324 0.00948772 -0.161175 0.135447 -0.0862294 0.0775466 -0.12922 -0.116109 -0.0999912 -0.0227308 0.153441 -0.344344
36187 0.14842 -1.92487 2.66095 0.598073 -0.0566248 0.158765 -2.11026 0.0401252 0.421919 6.22625 0.421045 0.304194 -0.0806939 0.558242 0.07198 0.151476 -0.267557 0.385375 -0.104788 0.901964 0.129934 0.122431 -0.118557 -0.0637798 0.0763443 -0.0342934 -0.158251 0.01788 -0.269994 0.0230585 0.0512806 0.100736
30988 0.0847671 -2.07284 2.98145 0.469619 -0.260867 0.0105678 -2.01996 -0.101523 0.449217 7.06153 0.281872 -0.0117091 0.0807226 0.390418 0.0104933 0.142823 -0.406919 0.26228 -0.0594831 0.656072 0.0187829 0.0815344 -0.0355678 -0.0085313 0.040235 0.0427964 -0.0524242 -0.0551705 -0.0794103 -0.0333939 0.135936 -0.122213
300694 -0.0670389 -1.89001 2.7106 0.641597 -0.175411 -0.173523 -1.68215 0.0026629 0.714792 6.2687 0.39066 -0.0629341 0.0319176 0.528202 0.0369845 0.212721 -0.0318599 0.157532 0.143132 0.910564 -0.138901 -0.0197407 -0.047561 0.160447 0.167348 -0.05079 -0.120303 0.155337 -0.171826 0.0345637 -0.0469363 -0.0624137
32218 0.210882 -1.99754 2.73012 0.620374 -0.331412 0.00735947 -1.86012 -0.236008 0.800307 6.60507 0.160349 0.0282604 0.100276 0.26696 0.0190655 0.164305 -0.445731 0.267584 -0.143301 0.710726 0.398531 -0.0893586 0.0264359 0.347806 0.081024 0.156289 0.0288096 0.110198 -0.0724246 0.139632 -0.0782859 0.165356
35251 -0.0820227 -2.08473 2.77664 0.67653 -0.171364 -0.170814 -1.94523 -0.123817 0.552433 6.74429 0.273443 0.0854629 -0.06757 0.333038 -0.0297447 -0.125222 -0.430606 0.36498 -0.00942936 0.799262 0.179849 -0.0271946 0.0230186 0.0281826 0.240621 -0.0637824 -0.184726 -0.19768 0.0585984 0.201464 0.0680439 0.0191505
32815 -0.0860149 -1.96864 2.76937 0.549653 -0.147966 -0.323308 -2.0996 -0.043853 0.331858 6.449 0.37674 0.130565 0.0878861 0.461467 0.104282 0.245474 -0.533895 0.237295 -0.0602412 0.868593 -0.0219997 -0.157094 -0.142618 -0.125617 -0.0310894 0.061513 -0.263119 0.0325455 -0.000396298 -0.181462 -0.231299 -0.181979
34467 -0.0881056 -2.01738 2.78687 0.793595 -0.171253 -0.00270351 -1.79302 -0.113455 0.37658 6.72586 0.355105 -0.0760447 0.122372 0.203501 0.122426 0.484633 -0.299177 0.353393 0.0222464 0.732411 -0.00525023 0.0125182 0.00436812 0.194348 0.144234 -0.0282519 0.0480098 0.0616273 0.0323394 -0.0119242 -0.0640863 -0.27324
31061 -0.101847 -1.8182 2.8297 0.33621 -0.217018 -0.0868958 -2.01592 -0.285439 0.455604 6.06093 0.241077 0.165388 0.0183066 0.590721 0.186258 0.250135 -0.437424 0.245969 0.0628191 1.12782 0.103091 -0.155824 0.113069 0.13495 -0.00534202 -0.0605092 -0.0648 -0.0466522 -0.0647431 -0.0121504 -0.217378 -0.333435
33214 -0.00579283 -2.0096 2.55282 0.565906 -0.326244 -0.122817 -2.0457 -0.0118704 0.526292 5.84833 0.376599 0.224723 0.0729283 0.619707 0.0335519 0.188182 -0.42912 0.179099 -0.169178 1.23571 -0.0154876 0.201866 0.0883973 0.218997 0.314536 -0.000814403 -0.271067 0.111978 0.240697 -0.127579 -0.00997293 -0.182703
34840 0.0713685 -1.97423 2.59549 0.757284 -0.160234 -0.123917 -1.96174 0.0202759 0.519634 6.0316 0.554551 0.158213 -0.0902493 0.612108 0.0733966 0.111302 -0.410733 0.210717 -0.214041 1.14993 0.107398 0.148964 -0.0415095 0.101031 0.351177 -0.0145097 -0.266944 0.122304 0.0548516 -0.0818431 -0.107078 -0.157869
31907 -0.0128567 -2.07098 2.9196 0.715713 -0.230929 -0.196416 -2.05052 -0.0728622 0.582371 7.00569 0.251571 -0.0188865 0.0514184 0.37301 -0.0359221 0.23367 -0.470071 0.236124 -0.279347 0.757177 0.137196 -0.0362894 -0.0348308 0.0247818 0.00312283 0.118688 0.107531 0.108931 0.0582895 -0.0903093 0.0371741 -0.233928
31224 0.081636 -2.03918 2.74626 0.523533 -0.0336128 -0.0372281 -1.99407 0.0949256 0.541609 6.4687 0.362735 -0.075436 0.190112 0.876974 0.112989 0.280559 -0.486147 0.229722 0.0167202 0.622143 -0.0377663 -0.185234 0.356408 0.261012 0.173177 -0.010643 -0.21951 -0.0436217 -0.0654381 0.0741041 -0.0277037 -0.196156
36457 -0.00887899 -1.99738 2.58757 0.526909 0.0627474 -0.237846 -2.11291 -0.0390031 0.533471 6.19682 0.298596 0.133819 -0.234728 0.753969 0.189944 0.482595 -0.562911 0.343552 -0.116163 0.685208 0.194057 -0.450831 0.535115 -0.0285186 0.32313 0.265157 -0.0855959 -0.168062 -0.102951 -0.00685982 -0.201126 -0.333054
34068 0.118838 -2.00258 2.73674 0.573497 0.175754 -0.348105 -2.15552 -0.035884 0.702901 6.48515 0.143612 0.00646915 -0.0850093 0.774715 0.212737 0.232106 -0.583428 0.325131 0.161693 0.689467 -0.0744376 -0.321817 0.255867 -0.0649935 0.122399 -0.048526 -0.251481 -0.115264 -0.0607613 -0.0505221 0.0301672 -0.119579
34602 -0.0892928 -2.00326 2.91309 0.685888 -0.103716 -0.285462 -1.94684 -0.0446434 0.540488 6.8617 0.275708 0.0838496 0.203371 0.403549 -0.0987407 0.0830208 -0.709671 0.194232 -0.212345 0.593922 0.218398 -0.148748 -0.103637 0.0226696 -0.0375727 0.0222569 0.31119 -0.105562 0.120437 -0.0970323 0.0535825 -0.109776
36736 0.0787972 -1.9662 2.74562 0.866222 -0.356708 -0.270726 -1.90408 -0.0632622 0.379283 6.74185 0.344916 0.257834 -0.0904108 0.475403 -0.0104005 0.272012 -0.247079 0.224661 -0.02165 0.593858 0.0514658 0.198185 -0.190941 0.344032 -0.093441 -0.121524 0.245672 0.00814505 -0.123573 0.116126 -0.13043 0.112172
31584 -0.0767358 -2.11106 2.86561 0.744991 -0.221438 -0.206772 -1.97511 -0.056848 0.484868 7.07706 0.179344 -0.00386796 -0.0281693 0.36477 0.0594922 0.0750216 -0.426552 0.261517 -0.233729 0.754109 0.00554249 0.056835 0.076582 0.0371082 0.0735303 0.0775842 0.191289 -0.00654224 0.0187585 -0.0183865 0.0379852 -0.0756523
32341 -0.0586509 -1.96232 2.86052 0.584293 -0.1618 -0.129462 -1.90705 0.115197 0.498976 6.78507 -0.00909024 -0.144505 -0.0643845 0.350981 0.0464237 0.171587 -0.173357 0.1237 -0.0508692 0.840209 0.0959174 0.0644333 -0.135858 0.139205 9.69815e-05 0.0216079 0.0116617 0.0604464 0.138593 0.0348414 -0.0387005 -0.00758332
34238 -0.00190317 -2.02816 2.77904 0.627361 -0.263494 -0.0310187 -1.84779 -0.0160341 0.477066 6.67763 0.297433 0.0173994 -0.019493 0.284551 0.0322777 0.259668 -0.447706 0.137161 -0.0423832 0.819801 -0.153368 0.0597254 -0.243127 0.0752369 0.0294339 0.0726125 0.159764 0.137278 -0.0428976 -0.195889 0.0230023 -0.0649721
35189 -0.0935627 -2.03955 2.70861 0.709833 -0.198563 -0.114361 -1.66863 0.202832 0.715568 6.42388 0.430292 -0.00661354 0.16477 0.481605 -0.257213 0.638771 -0.297016 0.186527 -0.158116 0.773707 -0.0860785 0.279432 -0.145747 0.33532 0.0803936 0.0265738 -0.112072 0.287076 0.038635 0.0410841 -0.0770873 -0.306
36193 -0.038624 -2.11161 2.84648 0.802418 -0.394829 -0.115003 -1.91714 -0.115339 0.489747 6.88418 0.390342 0.095276 -0.0249091 0.535383 0.00177979 0.190878 -0.348812 0.197176 0.0850014 0.812344 0.140346 -0.0259221 0.0139161 0.092143 0.0472399 -0.161128 0.0968546 0.118215 -0.0382667 0.0351475 -0.0405725 0.0775223
35080 0.0326064 -2.01072 2.84263 0.513865 0.0315469 -0.198805 -1.98988 -0.156949 0.638932 6.74743 0.180351 0.0419927 -0.0328079 0.551401 0.199392 0.283173 -0.336261 0.352844 -0.0875434 0.674943 -0.041874 -0.145211 0.0170293 -0.0133471 -0.0717043 -0.0584417 -0.00554653 -0.0365938 -0.073523 0.0699643 -0.0224716 0.0531987
32726 0.0193427 -1.85072 2.87198 0.47521 -0.305336 -0.057975 -1.98116 -0.0638386 0.43643 6.72083 0.13961 0.0859785 0.188843 0.288149 0.344911 0.149147 -0.284357 0.0892192 0.00831391 0.796511 -0.0430925 0.0234285 0.202529 0.0768815 -0.180139 -0.158842 0.0545435 -0.238097 -0.100515 0.200574 0.054653 -0.227986
31788 0.0294189 -2.00291 2.89608 0.510167 -0.160419 -0.0838704 -1.91075 -0.166097 0.351762 6.88113 0.257184 0.0355711 -0.0400145 0.239308 0.161895 0.27082 -0.326514 0.25451 -0.102437 0.685267 -0.028538 0.0480267 0.093378 0.148926 0.0644265 -0.0482343 0.113322 -0.0220775 0.0270311 0.0804134 -0.0161508 -0.184625
33753 -0.0855447 -2.08991 2.79715 0.660488 -0.0278997 -0.0538459 -1.99298 -0.175638 0.448145 6.81758 0.431119 0.0297724 0.0177077 0.191024 0.368912 0.352259 -0.327034 0.205687 0.000983695 0.823259 0.158187 0.0019473 -0.0838914 0.0659314 0.136267 -0.0466299 0.0974065 0.0245521 0.0265954 -0.135694 -0.213556 -0.225393
31527 0.0792316 -2.04564 2.91887 0.459648 -0.420658 -0.289524 -1.81787 -0.0556124 0.600124 6.7274 0.295862 -0.025592 0.0416831 0.567101 0.122138 0.0503722 -0.446401 0.379114 0.0529858 0.75138 0.322533 0.130859 0.0834 -0.0333918 0.0399405 -0.0710903 -0.0456112 0.37166 0.0404182 -0.0768591 -0.032271 -0.0116971
31923 0.07565 -1.96172 2.88193 0.562075 -0.229709 -0.064299 -1.75496 0.117974 0.551249 6.60183 0.199325 -0.0160699 0.0771514 0.47191 0.19534 0.20819 -0.486445 0.201243 -0.0504299 0.711965 0.0482512 0.119632 0.258152 0.421471 0.0847269 0.148367 -0.0338529 0.272171 0.109099 0.116219 -0.00399333 -0.00373667
36540 0.00467947 -2.0683 2.88639 0.672422 -0.207342 -0.0765783 -1.95916 -0.00404255 0.502897 6.96549 0.107129 0.0887128 0.0707342 0.370526 0.0688126 0.19141 -0.393586 0.114922 0.0082736 0.87862 0.0665604 0.0751552 0.0658788 0.252819 -0.0659391 0.0410461 -0.0151777 -0.045731 0.173137 0.107688 0.134442 0.00715942
35005 -0.193925 -1.77521 2.49937 0.643553 -0.0102704 -0.132776 -1.48038 -0.361632 0.636243 5.58071 0.234517 0.356313 0.0553261 0.467953 0.0257014 0.450954 -0.393259 0.258942 0.0771537 1.03597 0.272214 -0.242794 0.00156136 0.112131 -0.211461 0.0124798 0.151536 0.271703 0.0631436 0.213526 -0.138655 0.0050775
34301 -0.16134 -1.98126 2.80175 0.360482 -0.159625 -0.0320081 -2.02567 -0.451891 0.533822 6.58818 0.195685 -0.173176 0.0575626 0.362711 0.0509517 0.197631 -0.647066 0.0645468 -0.0566763 0.695423 0.0346389 -0.00950302 0.16546 0.132917 -0.0167095 -0.378448 0.144783 -0.050926 0.0278538 0.239476 -0.0839751 0.147491
35392 -0.230121 -1.89768 2.8267 0.298633 -0.137989 -0.183519 -2.03053 -0.343269 0.630103 6.46366 0.272378 0.0265244 0.201393 0.44394 0.214391 0.177252 -0.365809 0.498122 0.169776 0.727602 0.0870625 -0.0504381 0.0183876 0.138464 0.0330233 -0.364495 0.175203 -0.0704816 0.00401285 0.20196 -0.165372 -0.229655
36785 -0.0188245 -2.02736 2.79118 0.567206 -0.182753 -0.218182 -1.98502 -0.15364 0.534022 6.62786 0.188759 0.169664 0.0302241 0.477764 -0.0174907 0.192547 -0.446017 0.113695 -0.00830317 0.909755 0.00438648 -0.13647 -0.117057 0.0576602 -0.0638645 0.0216763 0.0171675 0.0819976 0.0158157 0.10988 -0.0662192 -0.0571999
34076 0.0187883 -2.19555 2.65962 0.674397 -0.0527919 -0.355915 -1.99267 -0.215389 0.55149 6.61904 -0.149448 0.0209673 -0.0734884 0.488075 -0.00586685 0.428339 -0.340738 0.380437 -0.195654 0.872166 0.134191 0.232602 -0.00802355 0.164805 0.0013648 -0.0698804 -0.089562 0.0100802 -0.00620501 0.0144614 0.000740809 -0.0596732
36302 -0.109272 -2.09365 2.7977 0.58283 -0.190529 -0.24345 -1.93001 -0.0433471 0.377088 6.88649 0.0643111 -0.0297016 -0.16763 0.328423 -0.0143786 -0.0270834 -0.369734 0.295234 -0.160522 0.825288 0.0491698 -0.0433222 0.0298694 0.0714006 0.215948 0.107845 -0.0415577 0.0416973 -0.0682154 0.0956784 -0.0327347 -0.12352
32082 0.238957 -2.023 2.77502 0.471354 -0.300237 -0.0175724 -2.3497 -0.245735 0.525504 6.29028 0.60045 -0.0593938 -0.0268896 0.627094 -0.00134893 -0.028341 -0.592033 0.495299 -0.14921 1.03409 0.134042 0.0421617 0.0299367 -0.089192 0.163529 -0.123593 0.0513665 -0.164047 0.00888924 -0.00566753 -0.111176 0.138531
33816 0.103392 -2.11172 2.95862 0.585218 -0.135644 -0.0489606 -1.96789 -0.191968 0.454382 7.0205 0.457666 0.0275051 0.00333667 0.493888 0.0467418 0.076515 -0.304401 0.213154 -0.137097 0.786057 -0.0564869 0.0790878 -0.0577418 0.0466865 -0.0122941 0.222405 -0.00530932 -0.0879557 -0.00342529 -0.0781334 -0.0123396 0.114856
32756 -0.0600255 -2.10108 2.94479 0.685701 -0.354879 -0.15456 -1.84446 -0.0159454 0.673409 6.85638 0.332253 -0.000832222 -0.0762047 0.566771 0.173893 0.179706 -0.343072 0.335404 0.00946218 0.79825 0.0950471 -0.0160038 0.122298 0.0658883 -0.132456 0.0179985 -0.0740331 0.212667 0.380335 -0.184385 0.19082 0.0734155
33645 0.081729 -1.88512 2.76888 0.377658 -0.303767 -0.401317 -1.78975 0.0622298 0.39521 6.36925 0.180821 0.231897 0.330321 0.378027 0.13992 0.125514 -0.554198 0.33785 0.118682 0.623662 0.341357 0.105675 -0.233732 0.103544 0.134923 -0.177122 0.0930486 0.151675 0.00415969 0.0883739 0.113371 -0.0583088
34687 -0.00290429 -1.90527 2.81784 0.640857 -0.375011 -0.197639 -1.9543 0.0510267 0.492283 6.51746 0.416043 0.196671 0.0392709 0.354324 0.0803186 0.148345 -0.400315 0.36242 -0.084399 0.821043 -0.0794787 0.0975575 -0.2152 0.0738229 0.226649 0.180599 -0.0062384 -0.0319857 -0.162608 -0.160599 -0.108282 0.123582
34854 0.0124469 -2.01745 2.83777 0.843765 -0.56649 -0.47736 -1.81481 0.0480291 0.981473 6.85856 0.158599 0.146944 0.0165978 0.448263 0.182657 0.167203 -0.272773 0.080752 -0.171143 0.817127 0.0284638 0.143455 0.0162171 -0.151717 -0.0612423 0.060145 0.117537 -0.026362 -0.114481 -0.111824 -0.149332 -0.162525
35482 0.0896421 -1.73844 2.83871 0.54484 -0.171766 -0.300364 -1.93215 -0.161139 0.664189 6.35105 0.318576 -0.0754543 -0.000712147 0.555675 0.0346384 0.0751688 -0.328148 0.00716627 -0.0576044 0.834056 0.0137862 0.146441 -0.046613 0.0212206 -0.043848 -0.147897 -0.00764216 0.207845 0.00882343 -0.104497 -0.0661667 0.018005
34858 -0.0158391 -1.97964 2.86831 0.883575 -0.571532 -0.339851 -1.91879 -0.11073 0.641117 6.89783 0.254277 0.0811824 0.0128647 0.408094 0.151553 0.232482 -0.230327 0.181444 -0.141854 0.754733 -0.0531176 0.133174 -0.0102444 -0.0144798 0.12227 -0.0709517 0.202934 -0.0546778 -0.0806066 -0.0099674 -0.179882 0.0684765
35824 -0.0361473 -1.97773 2.80704 0.994648 -0.287787 0.021795 -1.99943 -0.0782174 0.480881 6.83815 0.0923828 0.321898 0.009252 0.489938 -0.0227196 0.237652 -0.330929 0.261469 -0.0409397 0.736977 -0.126993 0.165531 0.173754 -0.200416 0.0526794 0.000986119 -0.0354667 -0.0126642 0.0657016 -0.163399 -0.367709 0.0549243
31456 0.0775886 -2.03691 2.88581 0.607854 -0.130271 0.00976059 -2.08255 -0.0597322 0.457465 6.85416 -0.0177517 0.0386361 0.0876466 0.456163 0.058985 0.109755 -0.408027 0.222505 0.0440311 0.861168 0.0161575 -0.0124484 -0.063845 0.179606 0.162777 -0.0790735 0.117752 -0.112027 0.305466 -0.0559716 -0.100556 -0.0351689
34649 -0.0374549 -2.0263 2.89084 0.566699 -0.201862 -0.0733343 -1.95453 -0.0412885 0.53604 6.93107 0.0246228 0.0280665 -0.0508994 0.303405 -0.00627248 0.0488535 -0.366644 0.32547 -0.0422155 0.740828 0.082229 0.0540409 -0.0824702 0.0366391 0.217395 -0.0733268 0.0695052 -0.113275 0.0840586 -0.0182661 0.0844823 0.0759412
33224 -0.15454 -2.05415 2.8188 0.607672 -0.146155 0.0315695 -2.0324 -0.153352 0.615269 6.91787 0.134913 -0.0863007 0.181829 0.392359 0.181698 0.29452 -0.400327 0.198071 -0.0185488 0.667019 0.0468738 0.0309185 0.0338166 0.0703955 0.0922656 -0.145557 0.0651437 -0.00598956 0.0434921 0.19143 0.0720745 0.0702258
31232 -0.170576 -1.89825 2.89469 0.473118 -0.310946 -0.0670522 -1.96898 -0.0936753 0.575271 6.56541 0.036879 0.131843 0.321412 0.456781 0.130366 0.063483 -0.213237 0.0402255 -0.0667235 0.99651 0.112524 0.0625571 0.126105 0.212244 -0.251756 -0.0969048 0.0424308 -0.160642 -0.0436145 0.31077 0.325544 -0.0956529
31226 -0.117603 -2.18907 2.8663 0.556042 -0.31182 -0.340986 -1.95103 -0.0238279 0.645297 6.91497 0.201114 0.0462982 0.136425 0.415505 0.14046 0.13619 -0.636357 0.187329 -0.16681 0.785531 0.20705 -0.0429585 -0.109101 -0.0802243 -0.034676 0.0747112 0.130344 -0.19663 0.0568529 -0.201442 0.0466804 -0.173477
34665 -0.0762655 -2.08027 2.9382 0.863643 -0.330872 -0.157701 -1.99307 -0.172398 0.66661 7.11116 0.197981 0.116163 0.0595217 0.449416 0.066602 0.1284 -0.391026 0.177183 -0.124115 0.714991 0.0359168 0.09351 0.00632615 -0.00518818 -0.0390405 0.115606 0.0916336 -0.00413501 0.0953141 -0.0316865 0.0268263 -0.0886267
32602 0.130625 -1.86192 2.72248 0.545425 -0.395726 0.121591 -1.88201 -0.294664 0.443631 6.26711 0.439321 -0.099417 -0.205957 0.440915 0.172114 0.0869759 -0.592171 0.0928433 -0.0643218 0.754313 0.16527 0.0428881 -0.143705 0.173648 0.0201591 0.0424723 0.0937363 0.116838 -0.0488215 -0.221982 0.0588738 -0.169677
35737 0.299579 -2.08117 2.79044 0.54886 -0.280454 0.0476431 -1.97424 -0.269909 0.455584 6.46872 0.373646 0.192375 -0.36113 0.44658 0.0966531 0.232073 -0.489351 0.3221 -0.198859 0.964595 0.12432 0.0700461 0.0887079 0.115957 0.0109099 0.00184552 0.0338665 0.00852431 0.167683 0.0311227 0.0709665 -0.267153
31159 -0.156052 -2.04863 2.85535 0.566514 -0.266648 -0.0736174 -1.90091 0.0514633 0.597461 6.72258 0.239175 0.314248 0.0705326 0.237374 -0.0786024 0.138944 -0.469886 0.385483 -0.0837327 0.738293 -0.0620988 0.0755647 0.0466057 0.0595224 0.0644963 -0.0252725 0.0132551 0.0209064 0.169283 -0.0712267 -0.00184438 -0.13265
36717 0.0508855 -1.95822 2.78414 0.684817 -0.12997 0.00983528 -1.96814 -0.0488995 0.515713 6.6319 0.11865 0.207857 -0.0807132 0.263725 0.281466 0.368331 -0.480167 0.258053 0.0152319 0.704006 0.0980554 0.137924 -0.120273 0.128594 0.0412619 0.0666547 0.0559928 0.186195 -0.0442039 -0.0707907 0.0500202 -0.0511588
33836 0.288499 -1.82083 2.66268 0.684771 -0.32698 -0.119944 -1.99342 -0.217887 0.719497 6.23505 0.476715 -0.114072 0.0207244 0.391533 0.00565052 0.315081 -0.529642 0.0367659 -0.215053 0.645374 0.106331 0.232731 0.000714207 0.0676923 0.0838436 -0.057088 -0.204506 0.303008 0.18429 0.00808511 0.307743 0.0375599
34371 -0.0531413 -1.91378 2.66292 0.833487 -0.212952 -0.0869599 -1.79223 0.125204 0.615674 6.32563 0.533142 0.0631369 0.0507121 0.39835 0.0813423 0.192934 -0.122988 0.127598 -0.0658949 0.895149 -0.08919 0.158129 -0.228322 -0.0688834 0.149812 -0.0188372 -0.116441 0.233124 -0.0139376 0.105869 -0.0118189 0.0995025
36050 0.0678331 -2.01451 2.81812 0.838345 -0.416082 -0.327977 -1.87261 0.00621927 0.459626 6.85195 0.338255 0.217764 -0.00533437 0.597311 0.136227 0.207965 -0.19564 0.267883 -0.134398 0.605672 0.0649767 0.182441 -0.0498474 0.107552 0.0554383 -0.242066 0.168286 0.0196379 -0.0657581 0.112294 -0.139717 0.15373
33205 0.190508 -2.06205 2.87025 0.621575 -0.250896 -0.306376 -1.96646 -0.165443 0.569883 6.86837 0.254218 0.0728288 0.108003 0.266008 0.0758226 0.107938 -0.24095 0.30325 -0.196442 0.933595 -0.0989663 -0.121545 0.120344 0.143739 0.0313265 0.0136491 -0.0155533 0.167318 0.166803 0.026126 0.052358 -0.042955
31327 0.201114 -2.00828 2.82302 0.635428 -0.125513 -0.139301 -1.89944 -0.0344831 0.472082 6.72793 0.202194 0.175275 0.0997106 0.306349 0.050714 0.272606 -0.386888 0.39022 -0.281926 0.675609 0.0865537 0.0243768 0.157733 0.152201 0.139448 0.10455 -0.0615233 0.346171 -0.0467821 -0.0807796 0.189768 0.0133751
33268 0.0337887 -2.11234 2.65176 0.61825 -0.408406 -0.209952 -1.96929 -0.12965 0.284208 6.6607 0.27484 0.215707 0.372143 0.292118 -0.0207098 0.262918 -0.462447 0.211393 -0.139341 0.837961 -0.0700861 -0.0263053 0.0245251 -0.0437753 0.176264 -0.0581622 -0.151276 0.0447067 0.0475569 0.000945359 -0.0998566 0.0711305
34596 -0.0894179 -2.16063 2.97931 0.698965 -0.245424 -0.255506 -2.15083 -0.0343002 0.738605 7.22435 0.232129 0.128217 0.114708 0.517861 0.144257 0.304845 -0.49805 0.169031 -0.202457 0.703 0.0112292 -0.0710939 0.0520636 -0.0366557 7.30547e-05 0.0571982 -0.000523524 -0.13422 0.0649379 -0.00176264 -0.11391 -0.0794528
36796 -0.0441313 -2.01683 2.59484 0.578757 -0.261687 -0.116799 -1.96232 0.178265 0.517456 6.37482 0.467858 0.0589874 0.126062 0.327848 -0.0136038 0.202221 -0.427133 0.356023 -0.170093 0.751004 -0.243429 0.0835385 0.099912 -0.0105054 -0.0251261 0.209593 -0.122133 -0.147767 0.194198 -0.0890719 -0.064081 0.0772573
34528 0.0635857 -1.96777 2.87677 0.689706 -0.159214 0.0349611 -1.93421 -0.101293 0.374641 6.80613 0.231985 0.0237668 -0.0794648 0.233995 0.220043 0.396491 -0.396482 0.313552 0.0623121 0.641964 0.0630331 -0.0506212 0.0865568 0.203349 0.0799656 0.0884671 0.0490469 -0.00511716 0.0281068 -0.0373473 -0.0605781 -0.15801
33238 0.0982676 -2.04757 2.9635 0.597586 -0.11899 -0.159943 -2.02685 -0.00698168 0.623516 7.03773 0.308515 0.0706371 -0.0217475 0.460325 0.121442 0.192254 -0.403821 0.325371 -0.130876 0.570311 0.0611769 0.129404 0.0752154 0.0267038 0.0733258 0.0926018 -0.0185222 -0.0167452 0.0892011 -0.0424475 0.06465 -0.0963118
32517 -0.263546 -1.95394 2.79056 0.466959 -0.339676 -0.0344227 -1.98735 0.11571 0.504648 6.60149 0.3596 0.195438 -0.0440315 0.192208 -0.00535606 0.239772 -0.377595 0.299213 -0.020282 0.728631 -0.083179 0.0583097 0.127953 0.299561 0.0507293 0.208523 -0.00515127 -0.0899593 0.150993 -0.123448 0.0211894 -0.0189785
33997 0.041503 -2.04245 2.86899 0.676891 -0.0381005 -0.198767 -1.96039 -0.138245 0.54722 6.97305 0.0968121 0.113021 0.0866363 0.309086 0.124925 0.0758335 -0.25804 0.318739 -0.115513 0.738853 -0.00975419 -0.0384914 0.00487898 0.0160998 0.0518056 0.0550173 0.00398807 0.118124 0.0626776 -0.0528218 -0.0169421 -0.0361129
32040 0.183147 -2.00404 2.86715 0.727777 -0.171555 -0.197212 -2.08847 -0.0477717 0.352163 6.85482 0.212399 0.158153 -0.0851544 0.582007 0.00753351 -0.0147607 -0.300034 0.20711 0.0141308 0.772729 0.027508 -0.0522273 0.152659 0.121081 -0.149979 -0.194726 0.14362 -0.0353995 0.0967393 -0.184069 -0.155497 0.0921584
35559 -0.0188721 -2.02162 2.79227 0.661493 -0.00239093 -0.130441 -1.91279 -0.0464953 0.447955 6.67289 0.0932876 0.193738 -0.138861 0.31584 -0.0147714 0.426717 -0.432707 0.313552 0.0470278 0.752174 0.0269954 0.2288 -0.152956 0.296387 -0.0868145 -0.0169696 0.0161262 0.0239692 0.110034 0.0333958 -0.19473 0.101694
34600 -0.0817499 -1.89643 2.97397 0.707606 -0.024766 -0.223946 -2.06994 -0.153082 0.629123 6.9619 0.216213 0.182767 -0.0983639 0.521915 0.0366032 0.346639 -0.3032 0.10525 0.0517488 0.626421 0.148151 -0.115032 -0.0397597 -0.180892 0.0609212 0.219373 0.0685147 0.163989 -0.00788865 0.0170794 -0.0928672 0.018444
34085 -0.100673 -2.09983 2.90678 0.788324 -0.155291 -0.0436942 -1.99242 -0.156849 0.394045 7.02308 0.204529 0.0127896 0.0992816 0.392861 0.107891 0.213607 -0.323231 0.250338 -0.0261957 0.780329 -0.0517195 0.0752663 -0.0195131 0.0759616 -0.0418286 0.071625 -0.0293346 0.0296631 -0.0376441 0.132103 0.144463 -0.0973777
33794 -0.201462 -1.99648 2.83849 0.551621 -0.241437 -0.268709 -1.98149 0.0386604 0.281541 6.82107 0.132745 -0.175065 -0.174446 0.244141 0.0286641 0.0723128 -0.287638 0.24531 -0.204571 0.863196 0.135802 -0.00446545 0.0919616 0.11047 0.0838232 0.0695333 0.0717152 0.169534 -0.105084 0.0968795 -0.0219144 -0.161739
32489 -0.0336911 -2.10356 2.99485 0.658372 -0.216552 -0.215328 -2.06434 -0.0678378 0.572515 7.13836 0.283948 0.0941409 -0.0364149 0.504248 0.0189768 0.203194 -0.305179 0.314184 -0.181839 0.743762 0.0700155 0.068598 -0.0197902 0.0574071 -0.0974409 0.00970529 -0.0680597 0.0540357 0.0366516 -0.0817036 -0.00706615 -0.201664
32018 -0.209225 -1.96538 2.8541 0.327313 -0.272439 -0.400409 -1.9597 -0.10712 0.300968 6.71915 0.284702 0.237119 -0.467392 0.276575 0.0246533 -0.0596904 -0.152961 0.216185 0.0047436 0.840582 0.193998 0.0161107 0.230044 -0.00931116 0.075602 -0.0123617 0.309463 0.0741878 -0.0133232 -0.0878423 0.103384 -0.283676
33432 -0.279203 -2.1068 2.75328 0.544297 -0.166875 -0.415689 -1.87967 0.0984666 0.18449 6.47909 0.289858 -0.0490127 -0.111126 0.544896 0.0283384 0.200204 -0.365759 0.377184 -0.019903 0.976113 0.428742 -0.0361328 0.0140559 0.0849695 0.0789643 0.186915 0.0801918 0.138295 -0.0663127 0.0615619 0.0474924 0.0558969
35108 -0.0604355 -1.73897 2.62958 0.318738 -0.238546 -0.20089 -1.7603 0.0838846 0.204677 5.76453 0.102661 0.237579 0.309983 0.442692 0.104602 0.333454 -0.177768 0.217128 0.0124657 1.09007 0.330408 -0.287313 -0.085431 -0.226559 -0.014959 0.222592 0.242193 0.269344 -0.0127319 0.044115 0.172049 0.203511
33282 -0.0462999 -1.86075 2.83242 0.384534 -0.185471 -0.269791 -1.90725 -0.000376215 0.577902 6.51535 0.274687 0.165387 0.0921318 0.456428 0.0691533 0.101688 -0.445023 0.131532 0.284712 0.790175 0.0435228 -0.210701 -0.112063 -0.0340433 0.224635 -0.062724 0.0319827 0.0371238 0.0865718 0.0828741 0.0798072 -0.0463627
36319 -0.135729 -2.07941 2.79719 0.800812 -0.333833 -0.275448 -1.80448 -0.0946382 0.703709 6.84182 0.387144 0.13013 0.0744605 0.4773 -0.0171984 0.139611 -0.277626 0.387923 0.0855182 0.731346 0.212186 -0.0125419 0.0413663 -0.188477 -0.423233 0.103054 -0.0546032 -0.063567 0.0581125 -0.227681 -0.0421817 -0.102176
34763 0.0694437 -1.96323 2.7654 0.755635 -0.0909872 -0.10539 -2.01034 0.0167186 0.683307 6.38249 0.317206 0.182156 -0.170716 0.534052 0.0876176 0.226465 -0.440059 0.266932 -0.152425 0.873257 0.036097 0.149624 -0.0436248 0.0756789 0.0469272 -0.0686812 -0.17347 0.18375 0.154279 0.0840589 -0.0816673 -0.239425
33660 0.129836 -2.0661 2.75032 0.616036 0.023633 0.0683365 -2.09526 0.064043 0.709432 6.59836 0.172295 0.142994 0.0794777 0.448742 0.0394333 0.249888 -0.476396 0.220685 0.0235454 0.904627 0.166522 0.0123445 -0.00390274 0.0833147 0.10793 -0.0233883 -0.0849289 0.0577445 0.0393021 0.188282 -0.0776027 0.0638142
36324 -0.147198 -1.89744 2.42606 0.821018 -0.0866975 0.0694559 -1.95176 0.188024 0.672051 5.47729 0.263658 0.175321 0.0294077 0.669298 0.105634 0.454364 -0.37599 0.438734 0.0871274 1.08514 0.313901 0.24509 -0.0288599 0.186936 0.00924874 -0.00441032 -0.0237429 0.184516 0.0515835 0.171749 -0.00882969 -0.0706693
34640 0.0920953 -2.06092 2.84727 0.634434 -0.128792 -0.138035 -1.8998 0.046669 0.646496 6.8939 0.0720275 -0.0658737 0.112973 0.372636 0.100114 0.0930917 -0.346399 0.1126 0.001775 0.791033 0.113684 0.0345761 -0.150472 0.149131 0.0594755 0.0697859 -0.0933359 0.0802932 0.280654 -0.0452676 -0.0575672 0.0707882
35981 0.0733119 -1.97269 2.94742 0.663164 -0.083968 -0.0501772 -1.90549 -0.076879 0.633431 6.74983 0.234206 0.30896 0.100296 0.572492 0.0101185 0.0205254 -0.170131 0.215416 -0.0522257 0.908079 0.078606 -0.150925 -0.199451 0.00877468 -0.0884696 0.45982 -0.0123582 -0.021795 -0.0339044 -0.0999658 0.114552 -0.0308146
32200 -0.155515 -1.98949 2.85041 0.601601 -0.305297 0.0613449 -1.88704 -0.146157 0.529927 6.8107 0.171604 0.189689 0.179268 0.301247 0.15826 -0.0268565 -0.23365 0.13851 -0.225926 0.788524 0.115283 0.0289122 -0.0114339 0.0566405 0.0830927 0.0349586 -0.0637298 0.0899348 -0.110185 0.0765098 0.153318 -0.0995115
36767 -0.089748 -1.65816 2.79632 0.691433 -0.361178 -0.090226 -2.01137 -0.124684 0.247589 6.10138 0.152804 0.232807 -0.259235 0.447151 0.219048 0.0433243 -0.314424 0.288574 -0.0718243 1.01506 0.217187 0.209413 -0.0175713 -0.0928325 -0.163554 -0.0669991 -0.0439 0.0122474 -0.0626715 0.0768292 0.173593 -0.114679
32044 -0.0197021 -2.05754 2.89455 0.629834 -0.255142 -0.142965 -1.95058 -0.134659 0.519893 6.99529 0.0363827 0.0806467 -0.0896309 0.416838 -0.05709 0.0804153 -0.414624 0.265671 0.0725253 0.777117 0.0902392 -0.0612285 0.0504869 0.0335756 0.257493 0.063369 -0.0395027 -0.0390766 0.145448 0.0343173 0.0496963 0.037455
33504 -0.163394 -2.00163 2.84249 0.287762 -0.257177 -0.00679526 -1.94755 0.00654475 0.60868 6.48445 0.00401413 0.279951 -0.151213 0.62374 -0.0716968 0.167011 -0.439146 0.566098 -0.0801145 0.845674 -0.0988307 -0.0553005 -0.125405 -0.127087 0.578986 -0.366451 0.183439 0.00421328 -0.0556134 -0.203103 0.258175 -0.0370052
34456 -0.0420702 -1.94363 2.72078 0.882062 -0.187368 -0.192945 -1.88924 -0.265654 0.511389 6.62912 0.269949 -0.0126013 0.0708435 0.251439 -0.0100993 0.00355322 -0.545797 0.28226 0.0433673 0.713799 -0.0775056 0.1931 0.0509618 -0.0205116 0.070831 -0.01567 -0.185353 0.0251302 -0.0570447 0.158271 0.128634 -0.0114326
34084 -0.0676168 -2.07083 2.9185 0.685281 -0.258922 -0.0884265 -1.98747 -0.0869458 0.718171 7.03756 0.175604 0.0880879 -0.0413321 0.365112 0.0328309 0.0521716 -0.557266 0.295523 -0.211007 0.625606 0.0847525 -0.00458162 -0.169079 0.0624777 0.120001 0.0394276 0.00584215 0.0145866 0.0378399 0.0522496 -0.0369365 -0.222335
33519 0.0687744 -2.08432 2.85441 0.7463 -0.221376 -0.15054 -1.94591 -0.258461 0.60801 6.89256 0.324988 0.016137 0.0672586 0.234953 -0.152187 0.0420509 -0.502727 0.297614 -0.116702 0.691123 0.0472448 -0.22065 -0.00911171 0.143349 0.0957246 0.0476012 -0.105812 0.193865 0.104945 0.0364938 -0.104356 -0.178404
34820 0.492238 -1.91454 2.59216 0.412935 -0.308894 0.0860094 -1.86416 -0.13592 0.616474 5.87191 0.258429 -0.0587316 -0.0661602 0.413626 -0.0691986 0.28014 -0.329975 0.541406 -0.320834 1.02423 0.333895 0.0305561 0.120898 -0.114328 -0.106737 -0.113012 -0.115569 -0.110055 -0.102889 0.259794 -0.499779 0.0843501
33531 0.0508897 -2.08777 2.84127 0.74593 -0.190426 -0.139004 -2.0654 -0.10754 0.568009 6.91282 0.19734 0.125244 -0.00320414 0.507696 0.0494823 0.204199 -0.387124 0.251849 -0.153026 0.722334 -0.0147958 0.0788699 -0.0656403 0.00901959 0.00852142 0.161662 -0.172729 -0.00090041 -0.0592149 -0.000810067 -0.167383 -0.135911
33790 0.180186 -1.79954 2.77963 0.498133 -0.274604 -0.130584 -1.88142 -0.184819 0.499378 6.39623 0.498777 0.128455 -0.236324 0.276832 -0.0721795 0.0804945 -0.268118 0.276288 -0.0334154 0.845485 -0.0177998 0.12638 -0.281755 -0.110683 0.0927724 0.056659 -0.130722 -0.074752 0.104299 -0.0604135 -0.169868 -0.173782
33321 -0.260901 -1.88548 2.53453 0.765445 -0.198231 -0.239969 -1.96141 0.0192407 0.179621 6.09716 0.54067 0.25818 0.0652227 0.246859 -0.36859 0.449785 -0.582011 0.225754 -0.0252121 0.842252 -0.430268 0.0354097 0.068719 0.333091 -0.0968492 0.114029 -0.0417664 0.0830035 0.278919 0.0697994 -0.228576 -0.103773
36674 0.0381288 -1.97297 2.8353 0.637487 -0.160315 -0.0446725 -1.92074 0.119184 0.472106 6.74246 0.245767 0.224693 -0.138243 0.496683 0.120482 0.253041 -0.387527 0.309385 0.0663293 0.635082 0.0963906 0.195011 0.0508214 0.19226 -0.0443089 -0.0979199 -0.0471872 0.126238 0.0157709 -0.0484164 -0.0347922 0.109792
34501 0.116818 -1.84044 2.72317 0.555228 -0.264263 -0.0754372 -1.87804 0.0895876 0.608497 6.15953 0.104995 0.170517 -0.0667302 0.361613 0.154199 0.20463 -0.160532 0.181317 -0.0875792 1.07941 0.150494 0.277564 -0.0726144 -0.153104 0.11026 -0.0645863 -0.157573 0.159383 0.018589 0.0626854 -0.207255 -0.318513
35254 -0.176245 -2.04588 2.80982 0.658151 -0.215939 -0.259367 -1.91707 -0.144187 0.379504 6.92291 0.0477688 -0.0174946 -0.125174 0.271936 0.0260121 -0.0883259 -0.325695 0.333445 -0.123015 0.7538 0.0743939 -0.0672116 0.148665 0.0243482 0.326462 0.141025 -0.0205639 0.0956121 -0.112758 0.0396712 -0.00726081 -0.062907
115396 0.139421 -1.25814 1.57593 0.318754 -0.290076 -0.111236 -1.40607 -0.0358069 0.186569 3.00145 0.481034 0.078814 -0.0316657 0.623128 0.138674 0.293306 -0.501119 0.255798 -0.0950254 1.16319 0.0483232 0.141608 0.0400038 0.100301 0.105244 0.0307415 0.016633 0.167943 -0.0202012 0.0204363 0.0101406 0.0787602
36572 0.0148392 -2.07037 2.2325 0.623996 -0.467478 -0.144784 -1.80906 -0.0278546 0.662338 5.52437 0.400319 0.159495 0.0679111 0.649149 0.0390712 0.405309 -0.377953 0.265914 0.0466273 1.10989 -0.151182 0.0442562 -0.173957 -0.0118929 0.166586 0.0751203 -0.130772 0.0316042 -0.148559 0.157102 0.0670953 0.0326933
32958 -0.05417 -1.90557 2.79498 0.422664 -0.288981 -0.323266 -1.93079 0.137864 0.753283 6.53459 0.402292 0.00803368 0.323103 0.405626 -0.0382467 0.107572 -0.314752 0.411905 0.273655 0.640548 -0.0582336 0.295149 -0.197822 0.191112 0.110031 -0.075904 0.148989 0.153393 0.0145333 -0.0545742 -0.0505752 -0.144639
33457 -0.10534 -1.8331 2.57013 0.582834 -0.48468 -0.537461 -1.89759 0.26584 0.479371 6.2441 0.450742 0.198123 0.182125 0.349901 0.159766 0.231785 -0.300581 0.554967 0.0518043 0.515252 0.24073 -0.00741075 -0.17487 0.00315978 0.138523 0.293626 0.115836 -0.0718959 0.00825077 -0.165311 0.0520134 -0.00947665
35627 -0.076936 -2.20017 3.01548 0.720812 -0.292489 -0.195391 -2.0793 -0.0208581 0.591699 7.24012 0.249753 0.103161 0.085484 0.443606 0.0734712 0.188387 -0.453676 0.167538 -0.152667 0.77804 0.0407756 0.1003 -0.027452 -0.0283474 0.0408412 0.163315 0.0317124 0.0479813 0.0794924 -0.0467143 0.0114578 -0.030628
34641 -0.032856 -1.8067 2.79394 0.524078 -0.28635 -0.272507 -1.95896 -0.162584 0.299687 6.12513 0.237333 0.128738 0.231165 0.101282 0.40599 0.10976 -0.469679 0.0558371 -0.172799 1.1529 -0.0407365 0.152642 0.197881 0.245006 0.0642828 0.00129512 -0.0473799 0.114615 0.0530583 -0.115315 0.0758915 0.0915778
36271 0.00674903 -2.0554 2.89728 0.595756 -0.0261822 -0.20143 -1.87157 -0.163402 0.523802 6.82828 0.24998 0.162605 -0.110289 0.336838 0.219776 0.269533 -0.329805 0.143198 -0.251232 0.746491 0.169193 0.105247 0.0199537 0.195053 0.05769 -0.153107 0.0164074 0.0956848 0.0581125 0.0240996 -0.0795795 0.00205543
32159 0.0194921 -2.13282 2.7298 0.720668 -0.424578 -0.487815 -1.85885 -0.156007 0.410085 6.94595 0.126796 0.00256817 0.0113696 0.560155 -0.0956701 0.28903 -0.250855 0.0892388 -0.0670853 0.645154 -0.183888 0.148456 -0.1227 0.196329 0.152557 -0.140497 -0.0250466 -0.0107401 -0.0687424 -0.0182754 -0.197965 -0.0179523
32194 -0.202729 -2.03761 2.6969 0.692145 -0.293434 -0.411253 -1.89405 0.0102277 0.40188 6.69428 0.0870392 0.0749357 -0.06882 0.349048 0.0409222 0.267462 -0.616094 0.0244723 -0.379169 0.705604 0.0148338 0.100839 0.0299635 0.0860384 -0.22932 0.0659154 0.213666 -0.0778886 0.106907 -0.0564226 0.032464 -0.124405
35082 -0.177436 -1.96701 2.89842 0.524013 -0.0272412 -0.320108 -2.10055 0.274141 0.772185 6.70088 0.284188 0.167506 0.0765795 0.53249 0.145127 0.169046 -0.549798 0.221659 -0.0661607 0.722889 0.0184733 -0.173472 -0.0350853 0.016165 -0.10856 0.179589 -0.185922 -0.14461 -0.08424 0.0221881 -0.0512751 0.00846266
33481 -0.152863 -1.98256 2.83067 0.607702 -0.289387 -0.0901905 -1.92127 -0.11131 0.406644 6.89127 0.121729 0.0919091 0.115748 0.222626 0.240623 0.180028 -0.282198 0.185532 0.0574429 0.685404 0.0189284 0.176541 0.114747 -0.0348911 0.0509761 -0.0273348 -0.075714 -0.109594 -0.0849105 0.0850796 0.0971985 -0.162005
36600 -0.133995 -2.06332 2.82704 0.581717 -0.141535 -0.164671 -1.89488 -0.100885 0.432955 6.8153 -0.00957536 0.0205276 -0.0696635 0.306108 0.0328998 0.0631765 -0.376082 0.291719 0.0543045 0.876494 0.122662 0.0940925 0.017748 0.079194 0.214967 -0.024461 -0.0204079 -0.0149896 0.0371758 0.112637 -0.0499835 0.00652911
32219 0.0651976 -2.09524 2.88581 0.753255 -0.158803 -0.0623459 -1.97431 -0.00532015 0.582658 6.87901 0.190794 0.0678831 0.0558446 0.423643 0.11355 0.0946911 -0.413999 0.251443 0.030848 0.876795 0.108028 -0.011557 0.0714149 0.143879 0.0911844 0.00839505 -0.000946088 0.0447317 0.00850538 0.159865 0.00857847 -0.0108785
34683 0.0788523 -1.91347 2.7393 0.882466 0.0841366 -0.229751 -2.03039 -0.13518 0.26769 6.38386 -0.0936574 0.183782 -0.0638419 0.414292 -0.143664 0.43987 -0.5162 0.442012 0.0821287 0.880297 0.0832232 0.0507728 -0.0380414 0.18121 0.122629 0.0153213 0.16826 0.0288059 0.208108 0.130154 0.0199077 -0.0600231
31918 0.0174466 -2.04529 2.7457 0.592485 -0.280663 -0.202309 -1.92212 0.0951867 0.462714 6.79632 0.194751 0.111362 0.185103 0.285079 0.0712014 -0.0412961 -0.441482 0.183802 0.199048 0.715876 0.192409 0.0229866 -0.104599 0.182499 0.119902 -0.0797133 0.0810265 0.00416925 -0.0573178 0.0953656 0.095659 -0.0359626
35357 0.0335483 -2.08185 2.83755 0.594028 -0.252871 -0.0849689 -1.92476 -0.297839 0.626799 6.76473 0.159291 0.0426844 0.0481031 0.331032 0.0689613 0.108233 -0.404085 0.356566 -0.197719 0.783467 0.182634 -0.111107 0.0250904 0.185447 0.00352678 0.198186 0.195635 0.0954623 -0.150194 0.0033259 0.0328813 -0.0440274
33603 -0.327398 -1.9327 2.80027 0.615768 -0.279667 -0.20625 -1.98856 -0.292204 0.389988 6.18823 0.0621657 0.178716 0.3097 0.722928 0.50333 0.146167 -0.298677 0.333752 -0.24996 1.13736 0.236307 0.294624 0.0191943 0.186257 0.0554434 0.352293 0.03154 0.0112854 -0.0435019 -0.00545132 0.219208 0.152854
34744 -0.0457096 -2.02903 2.9331 0.692865 -0.2561 -0.0893607 -2.0232 0.040312 0.659762 6.9816 0.265855 0.104866 0.0666651 0.438731 0.0274197 0.210893 -0.271233 0.266999 -0.0781567 0.743303 -0.121184 -0.00638481 0.0648971 0.0738351 0.106357 0.0662711 -0.0543225 0.092897 0.046286 0.0209662 0.0443817 -0.0744727
31958 -0.0718801 -1.87032 2.94496 0.324849 -0.26826 -0.0269595 -1.99542 -0.261639 0.631838 6.5893 0.337822 0.0377802 -0.123517 0.321697 -0.146129 0.134855 -0.275776 0.0880034 0.137247 0.84753 0.00673921 0.0511893 0.0353401 -0.0161843 0.0862818 0.0639549 0.182979 -0.0182401 0.151779 0.0260124 0.130192 -0.135758
32304 0.0868506 -1.91335 2.82158 0.65926 -0.146965 -0.324026 -1.94659 -0.2518 0.62807 6.61584 0.184341 0.169023 -0.236537 0.2394 -0.0123337 -0.297561 -0.538449 0.483698 0.0762053 0.722113 0.0692595 0.0528083 -0.00246419 0.121657 0.294219 0.0621005 -0.262255 0.086758 0.0395977 0.298448 -0.18644 -0.247691
33729 -0.143251 -1.99285 2.82995 0.843845 -0.151043 -0.268109 -1.97167 -0.23227 0.628155 6.80998 0.232888 0.0655412 -0.125227 0.263919 0.132734 -0.257674 -0.486228 0.381969 -0.00272253 0.767761 0.140337 0.131678 -0.0198989 0.128824 0.213261 0.171837 -0.222261 -0.0541217 -0.0454843 0.167056 -0.117491 -0.144268
33278 0.132547 -1.85976 2.86445 0.587102 -0.0850456 -0.111619 -2.08674 -0.195026 0.454241 6.58845 0.459831 -0.0442422 0.0383358 0.471436 -0.0223094 0.281125 -0.518662 0.238667 -0.0390116 0.585795 0.0207194 0.161071 -0.0259131 -0.147773 0.279286 0.0172455 -0.114724 0.242827 -0.0143329 -0.0121173 -0.0149764 -0.0129219
33926 0.12692 -1.96738 2.79388 0.6541 -0.0286681 -0.16078 -1.99993 -0.167898 0.562872 6.5382 0.0521174 -0.0458062 0.188659 0.485715 -0.0761409 0.450285 -0.688461 0.170412 0.195372 0.76492 0.285488 0.0723501 -0.0323579 -0.00883987 0.217381 0.0837237 0.0495472 0.0344381 0.184171 -0.0059745 0.0814189 0.149459
35842 -0.0483387 -2.08779 2.97756 0.535966 -0.237487 -0.229242 -2.13272 -0.174396 0.770838 7.16343 0.305208 -0.0220032 -0.0347932 0.406265 -0.0737728 0.29287 -0.465969 -0.00470202 -0.0346882 0.664555 0.037294 0.233754 -0.0248836 -0.082103 0.154253 0.155948 0.11752 0.0811792 0.121335 0.0691777 0.0909566 -0.0331215
31384 -0.0277659 -1.99663 2.94577 0.576075 -0.1684 -0.143657 -1.95384 -0.0809076 0.552902 6.98862 0.176577 0.0725109 0.220602 0.345635 0.136265 0.0559483 -0.250097 0.289686 -0.23154 0.745069 0.0611778 0.0620989 0.00601575 0.00347867 -0.0380655 0.249168 0.116917 -0.0809415 0.142631 -0.0385386 0.0498749 -0.0513431
31926 -0.0792193 -1.89103 2.79595 0.657061 -0.111698 -0.225696 -2.06615 -0.054489 0.567779 6.40422 0.252923 0.102659 0.0401478 0.339988 0.238228 0.171775 -0.263284 0.233226 -0.233403 1.06079 -0.035985 0.0997279 -0.0465975 0.326289 -0.148176 0.0840509 0.000942376 0.0206711 0.0752475 0.0540575 0.101058 -0.0852008
31439 0.238202 -1.97683 2.75121 0.74518 -0.239777 -0.103724 -2.05202 -0.0422737 0.718795 6.49481 0.137916 -0.0392605 -0.0902024 0.295867 0.23862 0.187468 -0.426217 -0.0898402 -0.163837 1.07307 0.237214 0.131969 -0.202236 -0.0172008 -0.157563 -0.141532 0.0417018 0.0137232 0.0887244 -0.128062 0.210997 -0.302824
35796 -0.0463243 -2.06483 2.86286 0.781394 -0.265948 -0.0101805 -2.08037 -0.219517 0.60649 6.94911 0.166465 0.0645104 0.137247 0.379586 -0.125409 0.100238 -0.611901 0.235022 -0.365666 0.763775 0.152604 -0.136275 -0.0113105 0.187338 0.0446201 0.0301583 0.203742 0.219033 0.0609464 -0.106639 0.136856 -0.209624
108123 -0.00111892 -1.66841 1.93697 0.888002 -0.215644 0.440268 -2.10074 -0.449071 0.402087 4.07548 0.377859 0.226787 0.268257 0.638201 -0.0485698 0.125047 -1.03474 0.393309 -0.406199 1.51751 0.559499 -0.341593 -0.626888 0.0946517 -0.0292937 -0.30906 0.40108 0.557597 -0.143206 -0.348468 0.3736 -0.449717
31066 -0.0324925 -2.02508 2.85611 0.74278 -0.147423 -0.0492532 -1.98138 -0.0376926 0.475857 6.93008 0.36125 0.207244 -0.0824922 0.342146 0.165903 0.347879 -0.340239 0.253803 -0.211189 0.600992 0.188078 0.132032 -0.0699375 -0.0302037 0.0367854 0.0180583 -0.174555 0.118752 -0.00454683 -0.151317 -0.0725951 -0.227245
32830 -0.142903 -1.61307 2.83438 0.562009 0.00975038 -0.170653 -2.09788 -0.0851521 0.29962 6.18497 0.353406 0.227255 -0.0225064 0.533767 0.134562 0.19876 -0.258236 0.292559 0.331444 0.61762 -0.078067 -0.0283967 -0.178712 0.183043 -0.0790933 0.0951857 0.135158 0.31622 -0.158103 -0.119186 0.147496 -0.124037
33049 0.0325976 -2.04212 2.88385 0.695703 -0.164016 -0.156402 -2.00073 -0.140068 0.568079 6.8128 0.215367 -0.0378132 0.145746 0.452101 -0.024338 0.0543865 -0.319741 0.338347 -0.2441 0.82179 0.16071 -0.0947586 -0.178848 0.129558 0.066341 -0.0506715 0.164477 0.0587385 0.0191266 -0.140572 0.0445649 -0.119606
36924 0.196172 -1.93142 2.70468 0.391168 -0.129454 -0.470118 -1.82065 -0.00451549 0.587478 6.64175 0.110774 -0.236067 -0.185331 0.108642 0.0592701 0.0329457 -0.106714 0.476414 -0.218779 0.635663 0.163172 -0.0496272 0.0684569 0.182523 -0.0227076 -0.00780911 0.131735 0.103106 -0.057907 0.0702202 0.119736 -0.07032
35635 0.142791 -1.9547 2.84869 0.560005 -0.0852564 -0.216507 -1.985 -0.18996 0.559889 6.65646 0.231273 0.220143 0.0464206 0.362843 0.137496 0.184087 -0.117945 0.441402 -0.391434 0.801651 0.0248344 -0.0223353 0.0625266 0.108659 0.0461402 0.0258386 0.0104405 0.205977 -0.164526 -0.0664166 0.059849 0.078805
34656 -0.0354522 -2.00128 2.70029 0.997119 -0.173594 -0.0716472 -1.98932 -0.326291 0.415759 6.49462 0.493631 0.204319 0.0294241 0.659349 0.112239 0.238037 -0.26928 0.214029 -0.0936922 0.847716 -0.0983345 -0.0472101 -0.11963 0.226834 0.0247984 0.20259 0.308145 0.0349971 -0.196222 -0.0697709 -0.0121386 0.24543
35769 -0.0698085 -1.53159 2.28602 1.08945 -0.500379 -0.291422 -1.66232 -0.0100988 0.181751 4.4999 0.656361 0.348369 0.352652 0.669684 0.345945 0.457461 -0.753933 0.812258 -0.308305 1.13185 0.0217933 -0.103219 -0.863258 0.402272 0.701694 -0.0458288 0.147712 -0.0924006 -0.34336 -0.252261 -0.163177 0.442855
35823 0.0581855 -2.05236 2.88016 0.983573 -0.555383 -0.264493 -1.97047 0.0367071 0.577955 7.03055 0.337771 0.236795 -0.0511881 0.479009 0.129198 0.213781 -0.402525 0.0379065 -0.213879 0.643653 0.133252 0.013632 -0.0154283 0.0505947 0.100283 0.0306832 0.208481 -0.0501635 -0.00264466 -0.113689 -0.204155 0.0871508
32995 -0.00676999 -2.09396 2.92146 0.466501 -0.0370817 -0.273285 -1.8826 0.175758 0.441703 6.76956 0.384295 0.181608 0.168355 0.533211 0.0799643 0.105468 -0.507896 0.247581 -0.0993909 0.7541 0.155648 0.164875 -0.102431 0.137025 0.0771189 -0.079661 0.0110847 0.0280975 0.0461064 -0.091168 0.0225881 0.0565288
36901 0.00781656 -2.0622 2.87746 0.710746 -0.295795 -0.219413 -1.93668 -0.148681 0.589737 7.04186 0.246305 0.107578 0.0670828 0.354601 0.117485 0.157055 -0.307875 0.257528 -0.202223 0.659471 0.15025 0.0594101 -0.00746563 -0.0196169 -0.0181797 0.09131 0.0360232 9.24844e-05 -0.0287338 -0.108836 -0.0935465 0.0175143
34230 0.0097818 -2.00166 2.78628 0.529137 -0.194127 -0.0340122 -1.95834 -0.0962123 0.426864 6.6328 0.297023 0.227278 0.0783435 0.154004 0.154369 0.0406355 -0.241893 0.379475 -0.117174 0.94234 -0.134785 0.0645435 0.112721 -0.03511 0.0593965 0.216672 0.0684148 0.0694486 0.131835 0.112926 -0.0988171 0.191257
35383 0.0464164 -2.05591 2.89536 0.441709 -0.269749 -0.102679 -2.00066 -0.102997 0.471513 6.87585 0.465448 -0.0602193 -0.0247572 0.455021 -0.00591983 0.0428768 -0.349906 0.276616 0.0731238 0.7741 0.0179189 0.148747 -0.176807 0.00854791 0.080304 0.168584 0.142302 -0.0910655 -0.0539392 -0.0972124 -0.0455053 0.119416
32898 -0.00204989 -2.004 2.82922 0.428161 -0.0573681 -0.0602655 -1.94525 -0.138228 0.495268 6.61773 0.313422 0.133373 -0.183138 0.528332 0.153335 0.30793 -0.294417 0.428353 -0.0927162 0.676605 0.0481743 -0.0355266 -0.0542549 -0.0967913 -0.000252268 -0.125433 0.00646161 0.0536178 -0.0753554 0.0964546 -0.0360787 0.00969597
33784 0.0134545 -1.91452 2.72458 0.778726 -0.2138 -0.296183 -1.69356 -0.214628 0.535879 6.24765 0.336173 -0.0558614 0.0388359 0.489268 0.14673 0.297271 -0.302771 0.0873504 0.0439287 0.947833 0.0851359 -0.164757 0.217528 0.318004 0.144152 -0.079977 0.0322268 -0.16065 0.254539 0.11006 0.0961994 -0.129986
33315 -0.0455586 -1.94101 2.82813 0.326912 -0.238922 -0.261732 -1.91179 -0.246202 0.36353 6.59941 0.118175 0.011959 -0.226484 0.194977 0.160436 0.134803 -0.377511 0.200098 0.173512 0.852315 -0.0495921 0.205399 0.0140259 0.0518964 -0.0972651 -0.0984525 0.158748 0.179831 -0.039938 -0.120715 -0.223239 -0.130986
31303 0.00729748 -1.96543 2.7504 0.84146 -0.441804 -0.205438 -1.95306 -0.0221219 0.489588 6.60097 0.206547 0.259983 0.0053254 0.41826 0.0910351 0.324344 -0.259278 0.405663 0.0702333 0.767342 0.247057 0.133456 -0.0818978 0.0357471 0.180706 -0.160255 0.13757 0.129214 -0.109879 0.0678102 -0.226548 0.133107
33919 -0.0231051 -1.99128 2.90116 0.742495 -0.362544 -0.103765 -1.9172 -0.0686418 0.667122 6.90646 0.139978 0.251768 -0.0129612 0.437915 0.0284482 0.111397 -0.256236 0.276198 -0.268986 0.630044 0.0689898 0.184885 0.0516395 -0.057762 0.0631697 0.0177705 -0.0961725 0.0408613 -0.0685377 -0.135059 -0.131521 -0.151475
33079 -0.0849436 -1.98596 2.88283 0.609223 -0.214779 -0.217244 -1.92326 -0.301082 0.53619 6.76573 0.352831 0.0696695 -0.0320127 0.281889 -0.118981 0.142736 -0.247689 0.420469 0.0640461 0.813016 0.0994406 0.0459114 0.118273 0.0686242 -0.152743 -0.139429 -0.276936 0.0773714 0.0675377 -0.362097 -0.0422623 0.0362088
35998 -0.0940775 -2.04429 2.72206 0.738848 -0.351082 -0.0845113 -1.96188 -0.0234086 0.66412 6.56604 0.321882 0.00682248 0.0669653 0.498777 -0.0748176 0.25329 -0.347799 0.180657 -0.00227357 0.915193 -0.0410215 -0.0513133 -0.0662597 0.132819 -0.0229639 0.0502183 -0.221732 0.196062 -0.130204 -0.0522583 -0.0665375 -0.0543708
32689 -0.0657214 -1.96261 2.53535 0.747097 -0.44852 -0.0685822 -1.72389 -0.181899 0.440952 6.23366 0.14342 0.233472 0.120637 0.357757 0.0516178 0.438357 -0.470358 0.322374 0.197629 0.813726 0.124107 -0.085364 -0.0884217 0.0524243 0.188739 0.0471784 0.0633743 0.0450211 0.106727 0.205059 -0.0191688 -0.0855722
35476 0.0402215 -2.06233 2.88551 0.632316 -0.203925 -0.00528079 -1.92657 0.0183086 0.548431 6.92562 0.119766 -0.027147 -0.0189641 0.368492 0.187275 0.209603 -0.329893 0.227765 0.0311988 0.763955 0.0258547 0.0499572 -0.0890217 0.00735843 0.18322 0.0422203 0.016925 -0.0232955 0.0415577 0.00630445 0.0534593 0.0574013
35170 0.0902474 -2.03807 2.83383 0.879195 -0.228111 -0.0537593 -1.90032 -0.0917756 0.41206 6.866 0.355884 -0.0591211 -0.098608 0.334343 0.285441 0.359467 -0.501743 0.207959 0.0831518 0.636886 -0.075419 0.122025 -0.0802174 0.0657578 0.0736661 0.101213 0.0525855 0.0308551 0.0197512 -0.132894 0.0732282 -0.182714
36561 -0.141855 -2.01703 2.61997 0.679053 -0.232067 -0.44805 -1.65442 -0.0182173 0.525877 5.97752 0.397549 0.377028 -0.277381 0.601174 0.431173 0.194751 -0.599854 0.460009 -0.0298621 0.873418 0.381898 0.0790945 0.197916 0.156116 0.15911 0.32212 0.0425883 -0.102925 0.543138 0.057729 -0.0496242 0.0726824
34332 0.0528243 -2.10989 2.78822 0.887901 -0.204926 -0.183313 -1.83713 -0.222008 0.671902 6.82115 0.292585 0.195711 -0.141511 0.333663 -0.0442721 0.135302 -0.264784 0.332645 0.0120784 0.890665 0.0434565 0.0472155 0.0343406 0.108014 0.287359 -0.0392278 -0.0627573 -0.270896 0.282236 0.202049 0.176527 -0.197151
35293 0.11719 -1.9804 2.82307 0.847903 -0.0962441 -0.169 -1.92149 -0.0673126 0.748913 6.83534 0.118581 0.0908028 -0.0867843 0.252866 0.07056 0.0174735 -0.344312 0.358372 -0.0763438 0.662572 -0.0300413 0.127733 -0.0134137 0.221668 0.0763885 0.04213 -0.262078 -0.133563 0.199519 0.172379 -0.0353725 -0.0813293
34372 -0.0564796 -2.05854 2.5673 0.790449 -0.0117717 0.0700208 -1.83478 -0.301629 0.535349 6.10955 0.547599 0.288911 0.269925 0.462747 0.0623044 0.129664 -0.244196 0.595003 0.0898829 0.927614 -0.143804 0.281223 -0.0392485 0.186918 0.307579 0.20181 0.00883446 0.11277 -0.00827799 0.120454 0.0234621 -0.0953045
35371 -0.0848385 -2.08961 2.86907 0.553845 -0.0972647 0.0215183 -2.02781 -0.134555 0.667844 6.7863 0.413411 0.117862 0.0548333 0.629985 -0.164247 0.219889 -0.31675 0.279237 0.0217136 0.728064 0.149901 0.374148 -0.0546352 -0.0308815 0.190844 -0.0505105 0.0301466 0.090043 -0.00965569 0.0288845 -0.024994 -0.216444
34752 -0.0733749 -2.09594 2.91899 0.7062 -0.245993 -0.219852 -1.95852 -0.0935701 0.767207 7.13094 0.0744719 0.123302 0.158187 0.357889 -0.0179635 0.0625449 -0.439558 0.0500939 -0.188504 0.764484 0.00149963 0.208904 0.250641 -0.0711287 -0.125895 0.047222 0.371513 -0.0389871 0.0497784 -0.0987387 -0.157441 -0.233254
32215 0.341952 -1.9518 2.8527 0.604393 -0.0923192 -0.0680389 -2.04306 -0.0429778 0.640588 6.67675 0.00180777 0.0509108 0.050374 0.422196 0.221607 0.0980186 -0.34054 0.011621 0.114829 0.906589 0.319521 0.0537181 -0.0922658 0.159673 -0.166913 -0.0353424 0.142007 0.208435 0.0853601 -0.156803 0.139819 -0.271973
32942 0.174568 -2.03493 2.91884 0.847785 -0.210827 -0.147313 -2.06779 -0.0263606 0.334647 6.97728 -0.00081527 0.20556 0.0610892 0.585356 0.0280206 0.00351271 -0.382488 0.216963 -0.166062 0.784564 0.0237017 0.0956764 0.0235378 0.0521516 0.0343553 -0.0610731 0.112885 -0.202974 0.221424 -0.0730939 -0.405298 0.0170288
1258646 0.232053 -1.40889 2.68977 0.872066 -0.26143 0.273557 -2.31305 -0.267836 0.393586 5.63717 -0.0599176 0.427735 0.444405 0.43391 -0.13293 0.0433557 -0.897546 0.17707 -0.409287 0.764538 0.278915 -0.0867875 0.496954 0.140207 0.146103 0.0351325 0.113721 0.0276886 0.3076 -0.379055 -0.429895 -0.192319
35531 0.0646446 -1.95577 2.82142 0.681826 -0.155346 -0.0305468 -2.03808 0.0788359 0.529289 6.70781 0.00687769 0.301565 -0.060059 0.444504 0.0380544 0.197926 -0.303278 0.423297 -0.148822 0.692313 0.0812728 0.12947 0.0613662 0.194485 0.00322905 -0.123121 0.0934537 0.00283921 0.129403 0.0692259 -0.271489 -0.00671921
32122 -0.102094 -2.04559 2.65848 0.587077 -0.128774 0.0325726 -1.91531 -0.0733056 0.590569 6.47646 0.142624 0.0268176 -0.0391697 0.308343 0.262299 0.167698 -0.398369 0.283879 0.11072 0.908209 -0.23939 0.130859 -0.0958547 0.152321 -0.16103 0.142671 0.0892785 0.181987 -0.100671 0.0328812 -0.0232482 0.0675465
35591 0.00468126 -2.00942 2.8577 0.541426 -0.181053 -0.0860121 -1.9791 0.0146664 0.56025 6.9048 0.162386 0.314683 -0.0147011 0.278538 0.00356577 0.123753 -0.294106 0.42001 -0.172025 0.608661 0.0156847 0.131724 0.0964962 0.0720317 -0.0440114 -0.114146 0.000629704 0.126707 -0.0537577 -0.000322395 -0.0416929 -0.115431
33363 -0.158788 -1.99447 2.74947 0.670743 -0.30606 -0.229075 -2.04965 0.00110996 0.517945 6.56137 0.233928 0.195681 0.275966 0.304951 0.0353116 0.156829 -0.358681 0.489157 0.201619 0.845279 -0.143959 0.327205 0.0581435 -0.168174 0.188248 -0.165402 -0.0270702 0.0151312 -0.012672 -0.0717921 -0.187726 0.0592401
36219 -0.0918392 -2.11901 3.07894 0.755152 -0.293547 -0.0180627 -2.24088 -0.125092 0.625932 7.23012 0.23236 0.0808409 0.179236 0.62677 -0.0213883 0.253023 -0.521829 0.138577 -0.269529 0.754951 0.0529655 0.124999 0.282086 0.0222962 0.150213 0.213495 0.055811 -0.124792 0.0968603 -0.181326 0.150431 0.0424934
36386 0.306791 -1.71753 2.69723 0.896499 0.0436192 -0.0868918 -2.15749 -0.121737 0.714937 5.78912 0.307845 -0.0246802 0.439662 0.424245 0.321606 0.189521 -0.292624 0.612778 -0.304314 1.12309 0.136829 0.102715 0.307196 -0.140355 -0.0546972 0.283288 0.0887967 -0.0152701 0.289259 -0.0531949 -0.0457011 0.302902
32277 -0.077101 -1.99943 2.85134 0.801098 -0.13406 -0.125127 -2.00931 -0.0836091 0.546224 6.85568 0.207841 0.0686588 0.0777208 0.302307 -0.142458 0.136893 -0.459578 0.382097 -0.19111 0.694368 0.13023 -0.0820532 -0.0273319 0.10333 0.251845 0.0497001 0.0480647 0.108415 0.0221098 -0.0665096 2.67048e-05 -0.15713
32179 0.113708 -1.96987 2.82278 0.642359 -0.110676 -0.16883 -1.86921 -0.341065 0.674745 6.87334 0.182916 0.0417543 0.0984423 0.361128 0.150719 0.0726691 -0.278922 0.161394 -0.0525991 0.731624 -0.121155 0.0153249 0.0349325 -0.122124 0.230508 0.0388321 -0.00410135 0.102913 0.0678952 0.107994 0.0325075 0.0257952
31985 0.109508 -1.93625 2.82975 0.301082 -0.195595 -0.317218 -1.94299 -0.300876 0.442732 6.57669 0.00881816 0.0686871 0.0135547 0.240904 0.117286 0.239451 -0.135482 0.215416 0.108834 1.00858 -0.145759 0.0722491 -0.149432 0.0918974 0.117809 -0.00917062 -0.0296189 0.0204636 0.048934 -0.0935032 -0.0537682 -0.0966636
35256 -0.0562749 -2.09578 3.04534 0.600403 -0.292516 -0.280452 -2.06303 -0.137823 0.580511 7.09377 0.214477 0.0922535 -0.0458537 0.517541 0.114928 0.142566 -0.313661 0.256216 0.0208575 0.870847 0.011905 0.113117 0.0762625 0.0730289 -0.00678327 0.00533667 -0.0175308 0.0805767 0.138425 0.00437123 -0.0740324 -0.0904272
34739 -0.0101747 -1.90272 2.96932 0.393351 -0.228084 0.0279804 -2.02304 -0.362408 0.630957 6.7088 0.297345 0.096615 -0.0820415 0.402686 -0.106556 0.0773389 -0.556057 0.118945 0.082248 0.760936 -0.127337 0.153179 0.115482 0.0523181 0.0493227 0.0164598 0.169839 0.156991 0.045399 0.001044 -0.00606814 -0.255201
32365 0.280927 -1.87415 2.72214 0.52094 -0.190727 -0.280633 -1.87557 -0.599665 0.142183 6.20524 0.457197 0.0560705 -0.199326 0.640078 0.0528102 0.180948 -0.325145 -0.030815 -0.25516 0.78041 0.0623882 0.191988 0.0497559 0.362511 -0.0620644 -0.0743225 0.17231 -0.107687 -0.0880508 0.0302664 -0.127244 0.153704
35250 0.33941 -2.02861 2.84737 0.508586 -0.165194 -0.0907642 -2.01862 -0.331459 0.539678 6.67042 0.299455 -0.00866798 0.0318259 0.310239 0.0728221 0.0746056 -0.382351 0.392553 -0.0512485 0.854878 0.0749035 0.00965243 -0.0928702 0.146753 0.118735 0.0496301 0.0965146 0.180558 -0.148874 -0.139171 -0.160486 -0.0733537
33925 -0.0503093 -2.07233 2.86648 0.581202 -0.107814 -0.0970177 -1.8687 -0.122164 0.601274 6.88632 0.406469 -0.0131681 0.118553 0.329763 0.190984 0.177301 -0.271097 0.168169 -0.122835 0.76579 0.312107 0.0537172 -0.0446423 0.137163 0.173167 -0.158665 -0.0690407 0.076007 0.221923 -0.246502 -0.0777857 -0.0199459
31249 -0.0537641 -2.06475 2.84695 0.615513 -0.169859 -0.246087 -1.99829 -0.0043179 0.442933 6.83015 0.119105 -0.0313524 0.0198916 0.272467 0.0800241 0.0936577 -0.316853 0.314786 -0.22157 0.916156 0.0153016 0.0204405 0.0830704 -0.00375096 0.0886843 0.0517764 -0.0197965 0.180637 -0.0366861 -0.0198983 0.00434483 -0.0803338
33656 0.121631 -2.11229 2.89027 0.490396 -0.24285 -0.0366892 -2.0806 -0.0740885 0.570712 6.93306 0.342288 0.00205498 -0.116251 0.299582 0.15418 0.139833 -0.503927 0.265875 -0.0902802 0.792382 0.00281028 0.0639054 0.0590029 -0.00731084 0.0118068 0.234693 0.0543986 -0.0533875 0.0691376 0.051983 -0.115584 -0.0122205
32792 0.165134 -2.05211 2.80086 0.630952 -0.0243852 -0.11305 -2.00734 -0.103246 0.268238 6.43533 0.339072 0.155376 0.132382 0.487606 0.241954 0.321588 -0.496579 0.352319 0.0850072 0.941064 0.127675 0.0470992 -0.118175 0.0314387 0.0786328 -0.0613834 -0.00453162 -0.0880384 -0.118845 0.0603394 -0.0102018 -0.0788957
34403 -0.063633 -2.08974 2.83896 0.630141 -0.0361779 -0.0540046 -1.90961 -0.176056 0.621647 6.86611 0.178957 0.0511121 0.0862653 0.393256 0.215471 0.229859 -0.410356 0.338025 -0.037809 0.678431 -0.186697 -0.0164005 -0.0713013 0.15321 0.175131 -0.00763337 -0.0471446 0.00243817 -0.0661603 0.0670217 -0.0411325 0.106782
36133 0.103629 -2.04939 2.7961 0.466239 -0.359145 -0.235938 -1.91282 -0.241621 0.56598 6.6537 0.216023 0.0944262 -0.0952862 0.283678 0.0199158 0.121115 -0.304177 0.143979 -0.0985507 0.919629 -0.00239797 0.0541315 0.144816 0.210061 0.0611592 -0.0830198 0.0223034 0.0754717 -0.11098 -0.0281363 0.0464319 0.0354849
31306 -0.0424259 -2.05541 2.76363 0.79972 -0.220997 -0.286259 -1.97056 0.0548348 0.480295 6.74403 0.235776 -0.217516 -0.140218 0.319188 0.0614223 0.144341 -0.178744 0.447555 -0.162326 1.00792 0.140276 -0.0403503 0.0503201 0.0443988 0.104303 0.15394 0.0910258 0.0860891 0.0596191 0.150853 0.0187208 -0.191218
34604 -0.174483 -2.04352 2.81685 0.348855 -0.201448 -0.405234 -1.93895 0.0625988 0.342341 6.62803 0.230278 0.131014 -0.449054 0.298301 0.154445 0.106971 -0.225025 0.227583 -0.0842806 0.958515 0.0563358 0.0320942 0.318201 -0.0524898 0.0249506 0.232621 0.13435 0.00305462 0.127963 -0.0546626 0.037452 -0.269491
32486 -0.288846 -1.95794 2.36938 0.313811 -0.442722 -0.207853 -2.14411 -0.0920645 0.376717 5.66121 0.468081 0.248377 -0.0493362 0.714839 0.209263 0.128317 -0.659648 -0.049028 -0.161882 0.918098 0.209166 -0.118718 0.129077 0.06339 0.0916285 0.179462 -0.333913 0.287606 0.248131 -0.256834 -0.26365 -0.00142787
31728 -0.0749414 -1.85948 2.23893 0.52005 -0.0950894 -0.0316083 -1.86701 -0.332876 0.280793 5.51084 0.187988 -0.0262599 0.120249 0.418079 0.0894707 -0.125737 -0.642013 -0.0461495 -0.0949692 1.00094 0.0459652 0.11028 -0.382999 0.155973 -0.031528 0.331221 -0.107588 -0.0850801 0.250821 -0.175511 -0.458713 -0.288371
36758 0.014269 -1.89669 2.64028 0.668185 -0.280482 -0.114738 -1.78814 0.0926058 0.109253 5.9211 0.272955 0.274843 -0.114471 0.742147 0.269155 0.355541 -0.273257 0.332858 -0.500994 0.974165 0.229844 0.325737 -0.156857 0.0759464 -0.0524903 -0.0345439 -0.120889 0.400797 0.0415474 -0.0878244 -0.071661 0.128031
35319 0.025267 -1.94624 2.84475 0.60849 -0.36447 -0.129141 -1.96541 -0.0512734 0.440172 6.74593 0.281911 0.155842 0.0905769 0.354062 0.137241 0.000573331 -0.234633 0.367537 0.1206 0.79989 -0.075459 0.220963 0.172036 -0.145737 0.137466 -0.0229484 -0.0542644 -0.0197623 0.00290022 -0.102288 -0.318465 0.070637
31509 -0.146413 -1.9718 2.91988 0.530639 -0.0720562 -0.194953 -1.96277 -0.208798 0.581561 6.87025 0.30071 0.150014 0.0216109 0.298364 0.219593 0.269294 -0.240876 0.177321 -0.0276381 0.636075 -0.00518699 -0.0572038 0.10428 0.00591708 -0.136041 -0.0774642 -0.0371371 0.0223261 0.0559642 0.103842 0.00753642 -0.0284861
34392 -0.0142357 -2.03958 2.86733 0.67564 -0.00303688 -0.331691 -2.0395 -0.206504 0.503956 6.8951 0.270434 0.14462 -0.0339507 0.314017 0.0446459 0.107249 -0.353876 0.33788 -0.165919 0.66316 0.15292 -0.0162467 0.0775883 0.145605 -0.00472985 -0.00056905 0.035993 0.297682 -0.187242 -0.161944 -0.0769428 -0.128525
32376 -0.0228447 -2.01016 2.83444 0.786109 -0.0579033 -0.0333346 -1.96199 -0.17797 0.503457 6.81908 0.279239 0.0414518 0.0867243 0.156305 0.354695 0.399643 -0.33592 0.117227 -0.0576924 0.77431 0.213834 0.0708995 -0.0517102 0.000620021 0.152839 0.0170693 0.0619302 -0.0148768 0.0943765 -0.157756 -0.00925211 -0.374433
