7349 32
34215 -0.211826 -0.143805 0.107099 0.8635 0.0738549 -0.176256 -2.02992 6.6044 0.271889 0.320609 0.0611794 0.36884 0.0612216 0.32067 -0.585151 0.209942 -0.390317 0.232166 -0.145007 0.16032 -0.287245 -0.0305473 -0.265814 0.267037 -0.0444241 -0.0424929 0.0398135 0.208604 0.182808 0.514174 -0.249945 0.212403
31647 -0.0132041 -0.0115284 -0.0766845 0.547372 -0.416122 -0.201831 -2.19783 6.6192 0.1803 0.167957 -0.0807959 0.270002 0.163562 0.246882 -0.581529 0.398735 -0.403769 0.065089 -0.328492 0.187919 0.0621982 0.0458131 -0.323693 0.295236 0.00313332 -0.242858 0.323681 -0.136542 -0.296471 0.423758 -0.267117 0.302891
31607 -0.298133 0.0397987 0.203775 0.708722 -0.44593 -0.281571 -2.51603 7.09226 -0.176986 0.0737504 -0.130975 0.179524 0.0350153 0.129321 -0.446624 0.399403 -0.654099 0.168253 -0.0976022 -0.0668388 -0.0737014 -0.0690799 -0.497052 0.386798 0.013849 -0.0706009 0.151824 -0.16161 0.174603 0.389656 0.135643 0.0637925
35211 0.0699011 -0.152261 0.306396 0.517804 -0.305125 0.232475 -2.21816 6.86606 -0.163626 0.0300334 -0.107161 0.218806 -0.073322 0.144454 -0.539799 0.319304 -0.487973 0.041672 -0.0361005 0.00433445 -0.0398393 0.0321325 -0.257943 0.263098 -0.06021 -0.0971635 0.199524 -0.101903 0.0629903 0.298955 -0.204859 0.252948
35441 0.128968 0.00899084 0.155612 0.545534 -0.509126 0.0536202 -2.3853 6.88409 -0.101013 0.156765 -0.146525 0.195631 0.0528078 0.258349 -0.432947 0.284628 -0.544937 0.0780575 -0.0698172 0.09967 0.00602997 0.117365 -0.377794 0.212132 0.0594661 -0.0689253 0.177398 -0.136352 -0.143105 -0.00285464 0.0990309 0.437772
36934 -0.203984 -0.199387 0.116809 0.860256 -0.368455 0.00543755 -1.98204 5.57448 -0.00482522 0.465803 0.105119 0.262646 0.277297 0.0898894 -0.624086 0.106725 -0.670725 -0.0166385 0.0132334 -0.297289 -0.10972 0.440648 -0.381988 0.22355 -0.119442 0.00140403 0.197868 -0.131643 0.224042 0.174118 -0.258671 0.452214
32473 0.021011 0.146202 -0.182214 0.724669 -0.487322 0.00888937 -2.50787 6.84033 -0.0217889 0.209714 0.0020209 0.0489892 -0.0977358 0.110503 -0.631563 0.277383 -0.594515 0.064328 0.100768 0.0212156 -0.182191 0.109477 -0.331585 0.277507 0.00201637 -0.105598 0.074391 0.152591 -0.0359565 0.0309942 -0.167337 0.402216
36815 -0.0272623 0.316021 0.0401507 0.910315 -0.513312 -0.0832262 -2.14534 6.37119 0.105121 0.387553 0.0423283 0.327634 0.212294 0.249595 -0.521382 0.140348 -0.808272 0.515146 -0.086581 0.13147 0.0680493 0.343851 -0.171096 0.412918 0.0443059 -0.265478 0.283017 -0.0508221 0.0631499 0.158265 -0.34664 0.437207
33830 -0.203737 -0.0584433 0.0293694 0.579388 -0.434003 -0.0725059 -2.4539 7.12019 -0.0281387 0.0764528 -0.106793 0.287006 0.131419 0.094255 -0.507033 0.279688 -0.458385 0.280633 0.0587225 -0.0824265 -0.147098 0.120741 -0.279351 0.18521 -0.0246725 -0.104361 0.0878275 -0.0533042 0.117967 0.186785 -0.0762482 0.283071
33959 -0.165119 0.247061 -0.0260118 0.575097 -0.319936 -0.329373 -2.29394 6.70131 -0.172064 0.344948 0.0438415 0.407602 -0.0122402 0.261818 -0.381422 0.250524 -0.416349 0.193301 -0.163232 -0.0893425 0.0544733 0.24296 -0.37027 0.140633 0.000855151 -0.257942 -0.0851203 0.0154022 -0.172982 0.177582 -0.0694004 -0.016014
34212 -0.314437 0.144578 0.0550256 0.566063 -0.29675 -0.365869 -2.35095 7.04593 -0.0630793 0.0658145 -0.0218477 0.351034 0.0220876 -0.0188929 -0.565108 0.298509 -0.468462 0.27553 -0.00993605 0.0872593 -0.0601973 0.285094 -0.457357 0.243123 0.0590838 -0.222016 0.0223666 -0.0401332 0.0688751 0.120047 0.011166 0.216995
35517 -0.0985688 0.302778 0.116863 0.633721 -0.335142 0.16289 -2.35428 6.68258 0.0611517 0.17091 0.170702 0.223422 -0.183761 0.134263 -0.539174 0.253893 -0.680043 0.0235408 -0.109232 -0.0846056 -0.091805 0.121405 -0.190335 0.514084 -0.180811 -0.101276 0.0600522 -0.0585727 -0.11563 -0.025772 0.0384544 0.423102
32058 -0.0255811 0.274259 0.234139 0.664094 -0.113582 -0.192137 -2.12638 6.79851 -0.0706412 0.0934667 -0.0341193 0.214133 0.0592044 -0.038133 -0.50496 0.156016 -0.554808 0.261181 -0.0859813 0.252667 -0.117106 -0.0899417 -0.333804 0.294991 -0.0547966 0.00680582 0.0797655 -0.0121614 0.0298935 0.167077 -0.0296324 0.318385
34535 0.0715182 0.0829881 0.535095 0.521946 -0.439566 -0.0451225 -2.45497 6.88494 0.0412722 0.092892 -0.0335839 0.127504 0.21593 0.276671 -0.40622 -0.0228309 -0.638873 0.255813 0.00935077 0.117732 -0.00664067 0.224142 -0.188703 0.371791 0.129954 -0.218725 0.0640809 -0.134825 -0.179068 0.0671015 -0.0418446 0.148976
34432 0.287 0.131348 0.281046 0.34882 -0.392117 -0.0295335 -2.47259 6.5556 0.0543811 0.270217 0.0888232 0.346725 -0.100312 -0.0401865 -0.483621 0.16931 -0.439501 0.262711 0.0250859 0.341508 0.00451853 0.166209 -0.301044 0.136549 0.0946682 -0.286389 -0.0659076 0.000625396 0.0143367 0.135526 0.0661245 0.391233
33495 -0.0394713 0.217495 0.349658 0.440942 -0.481024 0.14608 -2.42074 6.36313 -0.00889698 0.479195 0.352965 0.224058 0.227445 0.0749088 -0.547627 0.459926 -0.295657 0.454988 -0.00048083 0.409992 0.089607 0.0171524 -0.385867 0.268772 -0.121516 -0.270232 0.124201 -0.00131934 0.243777 0.323405 -0.0284093 0.444477
34361 0.00122134 0.231223 -0.0845891 0.505498 -0.205424 -0.453978 -2.16842 7.0159 -0.0907811 0.184235 -0.222954 0.292423 0.162814 -6.92396e-05 -0.361776 0.205022 -0.521788 0.179917 -0.0685577 0.17575 -0.132648 0.0762861 -0.294398 0.310758 -0.03857 -0.259828 0.00287655 -0.123557 -0.0719661 0.104524 -0.034926 0.101448
33279 -0.0684752 0.29413 0.0688498 0.554122 -0.418545 -0.311533 -2.14171 6.40949 -0.100663 0.365978 0.110903 0.315745 0.00502378 0.201466 -0.56259 0.229511 -0.503916 0.26067 -0.095137 0.213814 -0.150369 0.364347 -0.59866 -0.0127074 0.0107691 -0.295817 -0.146536 0.0902035 -0.177355 0.351353 -0.0643298 0.270819
33919 -0.191566 0.0784191 0.152396 0.584027 -0.325537 -0.0926286 -2.39017 6.94401 -0.0458418 0.162801 0.0354626 0.217772 0.187505 0.140143 -0.510885 0.251598 -0.437795 0.191742 -0.135596 -0.153219 -0.25508 0.165892 -0.297358 0.311695 0.16624 -0.281886 0.115496 -0.0466183 -0.0175343 0.255824 -0.13565 0.110864
33834 0.0808194 -0.0746644 -0.277451 0.744768 -0.0568658 -0.000694633 -2.31653 6.24086 -0.311505 0.411148 0.190498 0.0709824 0.152427 0.312087 -0.54578 0.394299 -0.391761 0.115576 -0.00648522 0.037414 -0.0959119 -0.0237069 -0.0623048 0.305557 0.161439 -0.0391854 0.119877 -0.547662 0.0257098 0.555235 0.0843211 0.263513
32629 -0.239537 0.0926327 0.0954922 0.576014 -0.389068 -0.204851 -2.47492 7.15703 -0.0978272 0.0513277 -0.0945627 0.225269 0.119915 0.13215 -0.435669 0.346617 -0.604896 0.107573 0.000411139 0.0513188 -0.0780605 -0.0269622 -0.35569 0.385256 -0.0474141 -0.141245 0.10342 -0.0651343 0.125563 0.37167 0.0224917 0.134546
31667 0.060792 0.0235502 0.133354 0.538416 -0.581657 0.0303172 -2.20945 6.77712 -0.0300756 0.165687 0.00103731 0.269388 -0.0474218 0.0614725 -0.544016 0.283845 -0.463181 0.0740813 -0.101307 0.18846 -0.0625884 0.117818 -0.133429 0.217966 -0.0279744 -0.0693615 -0.0492529 -0.0569017 0.0719186 0.348745 -0.218336 0.27555
34248 -0.310999 0.0270516 0.109664 0.636133 -0.552583 -0.216237 -2.44196 7.11472 -0.185744 0.0691365 -0.108615 0.228836 -0.0438128 0.14038 -0.489932 0.420992 -0.611723 0.212155 -0.119345 -0.0986814 -0.133454 -0.0150232 -0.502759 0.348645 -0.107599 -0.0203631 0.157964 -0.082353 0.184145 0.352824 0.0845311 0.122737
34489 -0.285904 0.170653 -0.0339556 0.600413 -0.474946 -0.115424 -2.28519 6.93158 -0.22242 0.215694 -0.177351 0.321853 0.0494121 0.294232 -0.445535 0.564047 -0.600679 0.245178 -0.104003 -0.387223 -0.146272 -0.0798086 -0.432727 0.145289 0.0370396 -0.134842 0.0910198 -0.0434248 0.107704 0.484229 -0.125583 0.262047
30946 -0.127469 0.160289 0.0111877 0.646791 -0.473005 -0.217981 -2.50817 7.16012 -0.0463471 0.116849 -0.0756061 0.232794 0.0750153 0.323011 -0.519828 0.283541 -0.525218 0.274903 0.0102604 0.0634149 -0.0407006 0.136589 -0.35188 0.166624 0.0622 -0.260486 0.22406 -0.154663 -0.100716 0.142788 -0.142289 0.345816
36728 0.108819 0.165682 0.121175 0.55262 -0.492244 0.0958207 -2.45156 6.9162 0.233509 0.126629 -0.000652879 0.207214 0.228549 0.198187 -0.394143 0.235751 -0.632848 0.156788 -0.13966 0.108076 -0.0333655 0.241902 -0.219013 0.360194 0.0432226 -0.202781 0.0538846 0.0300919 -0.15722 0.192667 0.00478624 0.284923
36138 0.0832316 0.239722 0.0991055 0.44423 -0.354324 -0.0557441 -2.23312 6.47445 -0.0571751 0.3436 -0.175896 0.260931 0.0871722 0.0722458 -0.562215 0.137274 -0.578712 -0.0774654 0.00459849 0.211073 -0.310161 0.0403169 -0.362653 0.229872 0.0197837 0.00546073 0.122262 -0.273383 0.0881979 0.233537 -0.0149442 0.415461
34091 0.0257553 0.029988 0.0338472 0.477092 -0.374894 -0.120449 -2.62243 6.94659 0.205658 0.110121 -0.0109116 0.204006 0.0157974 0.0977239 -0.538532 0.267453 -0.452129 0.0380275 0.0678465 0.213895 -0.123621 0.158491 -0.273745 0.161439 -0.18194 -0.230928 -0.0248119 -0.0850035 0.0467578 0.0851588 -0.0539621 0.363419
35847 -0.30914 0.031401 0.116828 0.744418 -0.51679 0.227541 -2.21025 6.30508 -0.280456 0.350508 -0.272795 0.30823 0.193272 0.503329 -0.642575 0.1339 -0.346853 0.160729 -0.140365 0.220751 0.157251 0.0483013 -0.304793 0.109755 0.0399968 -0.223634 0.0839681 -0.0157195 0.274568 0.0677547 -0.225924 0.428481
36421 -0.117314 0.0237656 -0.0777204 0.891796 -0.708678 -0.0554697 -2.46404 6.60275 -0.275146 0.214047 -0.463651 0.49116 0.126578 0.226424 -0.544118 0.457025 -0.895557 -0.0266014 -0.129875 0.367405 0.20793 0.0540442 -0.212855 0.403991 0.18244 -0.52912 0.0832655 -0.0157796 0.404568 0.434307 -0.112273 0.297855
34287 -0.106307 0.157724 0.355545 0.661811 -0.401363 -0.0784107 -2.08041 6.54724 -0.153652 0.152468 -0.267714 0.123682 0.297201 -0.116027 -0.650729 0.1868 -0.699013 -0.162496 0.0494987 0.0597537 -0.0846526 0.108924 -0.356396 0.430604 -0.167725 -0.2068 0.0355204 -0.254761 -0.0675735 0.395454 -0.173167 0.273424
35647 -0.0626598 0.169448 0.260805 0.486362 -0.352241 -0.240705 -2.31455 6.68788 -0.206327 0.18106 -0.0814337 0.108919 0.199933 0.0501902 -0.381059 0.33451 -0.415502 0.424012 0.0236262 0.218466 -0.0151121 0.390747 -0.338678 0.56198 -0.170547 -0.0210685 -0.205217 -0.0875705 -0.0925846 0.0553678 -0.163953 0.193992
31466 -0.1241 0.183504 0.0181038 0.489519 -0.425113 -0.277065 -2.18248 6.7674 -0.155445 0.283152 0.0158532 0.382723 0.0464795 0.0213918 -0.457246 0.144505 -0.532298 0.183079 -0.1658 0.156457 0.0426457 0.332287 -0.272859 0.364858 0.121254 -0.147594 -0.113172 0.1008 -0.0907212 0.309134 -0.0713525 0.186246
33153 -0.173453 0.0774 0.113183 0.578188 -0.357606 -0.0374767 -2.37402 6.72229 0.123088 0.0237526 0.0591345 0.329721 0.216816 0.0101902 -0.325259 0.469835 -0.547758 0.0541541 0.113156 0.0707423 -0.129163 0.327368 -0.255287 0.264005 0.0552919 0.0531879 -0.0490339 -0.238453 0.161467 0.0790311 -0.0900695 0.259844
31107 0.0256984 0.141229 0.0336146 0.596601 -0.323556 -0.0647879 -2.60625 7.25095 -0.0587512 0.075142 -0.0641878 0.210755 0.156645 0.170749 -0.553546 0.274189 -0.54073 0.0574929 0.0727172 0.00727971 0.155838 0.201028 -0.286912 0.264359 -0.0282459 -0.176649 0.0665078 -0.136006 -0.0145808 0.236828 -0.10815 0.325189
32241 0.015556 0.158787 -0.00452272 0.564548 -0.362405 -0.129842 -2.37643 6.97952 0.0738452 0.0866956 0.0706246 0.163798 0.103429 0.105642 -0.56227 0.188885 -0.563532 0.142208 0.0731184 0.0188734 0.101194 0.201564 -0.284835 0.310688 0.0477765 -0.186664 0.124092 -0.0363361 -0.019026 0.230882 0.0613926 0.287383
34500 -0.0809383 0.303136 -0.0758189 0.70297 -0.266132 -0.048567 -2.3348 6.78732 -0.0660286 0.150205 -0.0134331 0.111138 0.0125181 0.0911645 -0.523342 0.213131 -0.667691 0.0543855 0.161606 0.0513791 -0.00251612 0.26317 -0.482097 0.232639 -0.0729921 -0.00669264 -0.0852515 -0.0328424 -0.00924208 0.0401303 0.0427104 0.407767
31987 -0.0306592 -0.034162 0.199589 0.474561 -0.569085 -0.0947379 -2.36829 6.99736 -0.0818036 0.0306406 -0.0600462 0.1882 0.0620144 0.236131 -0.47136 0.180112 -0.640172 0.138018 0.0140527 0.0216641 -0.00282157 0.077416 -0.332523 0.204033 0.129504 -0.18514 0.141225 -0.1384 -0.174798 0.122579 -0.155935 0.37526
31512 0.19258 0.0325306 0.282318 0.546686 -0.389779 -0.233904 -2.12706 6.03436 0.0364514 0.307921 0.107505 0.618771 0.182284 0.0671973 -0.729652 0.184115 -0.592847 0.170418 0.208983 0.0176854 0.167991 0.344275 -0.0484229 0.177936 0.321436 -0.540649 0.333336 0.0856667 0.238554 0.454765 -0.205204 0.55817
32137 -0.0123866 0.166795 0.024229 0.539458 -0.261608 0.00694405 -2.27483 6.85628 -0.163498 -0.0693632 0.00122385 0.17875 -0.0658737 0.125537 -0.651533 0.173711 -0.422941 0.0653781 0.071789 0.0408912 0.185886 0.232313 -0.210798 0.20803 0.121337 -0.209905 -0.0868915 -0.161805 -0.0825309 0.102131 0.0191722 0.460626
34701 0.0987859 0.20032 -0.116778 0.453521 -0.577058 0.0144129 -2.04388 6.31338 -0.22935 0.374068 -0.0396643 0.354168 0.15494 0.058136 -0.70343 0.201712 -0.518851 -0.126139 -0.0339968 0.102924 -0.124654 0.13482 -0.481196 0.326838 0.227605 -0.206429 -0.19226 -0.250795 0.0814258 0.346696 -0.066659 0.329615
36861 0.0122331 0.0879433 0.0707711 0.471244 -0.55029 -0.201694 -2.28277 6.95222 -0.0399352 0.0453864 0.0252039 0.157678 0.205677 0.311945 -0.477428 0.0431527 -0.541801 0.111763 0.051543 0.0771025 -0.155095 0.204999 -0.254705 0.271146 0.0516009 -0.0936081 -0.0700993 -0.268884 -0.132732 0.077505 -0.0371898 0.25407
35222 0.160693 -0.0942905 -0.072751 0.482423 -0.692616 -0.0263884 -2.11339 6.83112 0.10091 0.14988 0.0766554 0.105374 0.0195724 0.380799 -0.397896 0.132813 -0.719491 0.194381 -0.0335701 0.168472 -0.00255142 0.0164806 -0.116613 0.383307 -0.0008829 -0.110909 -0.207561 -0.354243 0.0908324 0.147144 -0.0638513 0.282858
35137 0.0336267 -0.0378731 0.0740606 0.46798 -0.691087 -0.217853 -2.33401 6.98126 -0.102116 0.0207569 0.0744009 0.172684 0.182401 0.322529 -0.451178 0.140489 -0.708394 0.00708262 -0.0864032 0.14241 -0.0883048 0.202853 -0.375802 0.40102 -0.107484 -0.0894909 -0.0299342 -0.303062 -0.000855503 -0.0707395 -0.00687092 0.407292
32225 -0.1188 0.0321445 0.0127678 0.610529 -0.32567 -0.161803 -2.36807 7.02013 -0.0179706 0.0604931 -0.0311016 0.169109 0.212688 0.141139 -0.476149 0.28214 -0.615787 0.236216 -0.029501 -0.0149333 0.047359 0.0959457 -0.249449 0.269222 -0.0446177 0.0143808 0.239765 -0.0181139 -0.0204789 0.202831 -0.104645 0.387513
36611 0.00469994 0.180594 0.226883 0.604005 -0.22193 -0.149011 -2.27003 7.05175 -0.0686491 0.159483 -0.073286 0.0938079 0.074941 -0.00657032 -0.624858 0.142164 -0.406999 0.255696 0.0297008 -0.0257965 0.0401961 0.132045 -0.286658 0.267017 0.0569168 -0.0119155 -0.13395 -0.116376 -0.11527 0.168474 -0.0994575 0.326453
31547 -0.150597 0.196389 0.0745811 0.697572 -0.486706 -0.0264542 -2.49138 6.62665 -0.12512 0.317882 -0.0870304 0.340545 0.330267 0.316703 -0.576689 0.204207 -0.613156 -0.0130513 -0.124581 0.145048 -0.00538181 0.166801 -0.324346 0.00849756 0.023235 -0.00317263 -0.267775 -0.258664 -0.0500863 0.284082 -0.431896 0.386334
34531 -0.141719 0.103659 0.208526 0.462929 -0.57294 -0.0739456 -2.29218 6.8101 -0.250761 0.222986 0.0197743 0.0714041 0.0585553 0.201272 -0.515554 0.448467 -0.585848 0.0918364 0.102499 0.162117 -0.00890717 0.1386 -0.108523 0.157195 -0.0079643 -0.238095 0.000419963 -0.0809184 -0.000942506 0.451376 -0.122754 0.48189
34031 -0.0825817 0.0662098 0.194892 0.699583 -0.884005 -0.212129 -2.30409 6.07928 0.219629 0.262996 -0.250393 0.186488 0.271089 0.13228 -0.418865 0.279587 -0.750514 0.375814 0.314804 0.293599 0.159393 0.476281 -0.0982213 0.366746 -0.0176261 -0.248858 0.0682768 -0.106456 -0.00404385 0.537149 -0.135216 0.386248
32296 0.0402746 0.0841352 -0.0275392 0.588452 -0.437226 -0.00131934 -2.44759 6.97325 -0.0681482 0.19123 -0.160248 0.0948573 0.08333 -0.0314673 -0.559331 0.0709899 -0.576936 0.198754 0.0517142 0.0901648 0.0300455 0.185187 -0.332919 0.227783 -0.0177261 -0.239748 0.0123944 -0.128673 -0.0723882 0.125851 -0.0476398 0.340874
30960 0.223916 0.379769 0.254243 0.543145 -0.614455 -0.181572 -2.16547 6.50203 0.107865 0.112281 -0.109954 0.236467 0.280589 -0.0780641 -0.412583 0.142027 -0.85429 0.0443876 0.0833714 0.237945 0.031319 0.0763137 -0.194266 0.348607 -0.275616 -0.224609 0.100015 -0.333871 0.019125 0.418606 0.0639906 0.138573
31008 -0.275739 0.318055 0.170736 0.737294 -0.577208 -0.0807799 -1.96671 6.08224 0.187195 0.103245 0.142013 0.241605 -0.101208 0.0404269 -0.808218 0.151916 -0.483141 0.166628 0.12126 0.0714888 -0.12669 0.297447 -0.263696 0.311804 -0.00723723 -0.220036 -0.067421 -0.0918482 -0.215745 0.191844 -0.272636 0.354824
34400 0.138604 0.0851647 0.261056 0.484163 -0.326967 0.0167933 -2.47744 7.08903 -0.0436354 0.107785 -0.130634 0.174892 0.176424 0.233702 -0.481945 0.195276 -0.534361 0.0631581 0.0297622 0.0241956 0.0114693 0.128651 -0.297012 0.259568 -0.0649685 -0.145747 0.0984884 -0.167265 -0.0883069 0.213002 -0.0334176 0.308294
32682 -0.00312752 0.0724108 0.402947 0.578133 -0.547394 0.0304025 -2.2485 6.90176 0.0159047 0.0567276 -0.116125 0.0528311 0.22398 0.104741 -0.470194 0.0716026 -0.67689 0.0415909 -0.0556309 0.0279399 -0.112914 0.307939 -0.206302 0.22661 -0.275178 -0.0708347 0.125365 -0.217964 -0.0498776 0.329741 -0.14321 0.122357
31579 -0.1721 0.123361 0.182148 0.67776 -0.297839 0.0459396 -2.47914 7.00026 0.089756 0.0417575 -0.0216171 0.295691 0.224334 0.232992 -0.553687 0.0977532 -0.611678 -0.0552326 0.0669893 0.0703653 -0.0149463 0.277447 -0.320559 0.173126 -0.0251947 -0.196439 -0.0491965 -0.0252042 0.0707812 0.198358 -0.080308 0.319432
36151 0.18692 0.608476 -0.0262554 0.795627 -0.345134 -0.0831775 -2.10478 6.05405 0.0581564 0.446717 0.0913425 0.592031 0.317607 0.207744 -0.524065 0.34355 -0.637859 0.0885149 0.00490191 0.0764666 -0.105044 -0.0308476 -0.52372 0.115082 -0.0534934 0.356753 0.00617454 -0.395987 -0.101135 0.210834 -0.186095 0.392527
34083 -0.0970278 0.0873369 0.0882631 0.927263 -0.270867 0.00585984 -2.25212 6.30317 -0.0244147 0.257309 -0.0933607 0.237666 0.421418 0.153703 -0.650409 0.146063 -0.618979 -0.0654604 0.50832 0.0466171 -0.00757751 0.0616264 -0.225312 0.237989 0.284632 -0.236093 -0.258065 -0.166417 0.26852 0.563977 -0.118592 -0.0671009
31640 -0.173664 0.102718 -0.134651 0.690309 -0.251916 0.356741 -2.28262 6.49385 0.500991 0.140421 -0.0273805 0.301937 0.229961 0.446413 -0.210618 0.18773 -0.771695 0.356875 0.00647008 0.453071 -0.181936 0.152049 -0.384633 0.26201 0.313889 -0.0184984 -0.227639 -0.0464161 0.0978142 0.415328 0.0366896 0.236898
35251 -0.143167 0.126756 -0.00660271 0.512205 -0.414978 0.0335318 -2.28644 6.87134 0.25451 -0.103209 0.0547166 0.218535 0.074076 0.35872 -0.405427 0.114945 -0.591064 0.0903111 0.0550903 0.143908 -0.0800303 0.105703 -0.220899 0.115611 0.211472 -0.0938712 -0.0631802 -0.0115174 0.0385535 0.42554 -0.044797 0.251814
31800 0.00271178 0.0736862 0.16219 0.82587 -0.358623 -0.0493274 -2.25376 6.71266 0.183326 0.143111 -0.280215 0.226272 0.252862 0.38228 -0.632545 0.184409 -0.579244 -0.249614 0.0764942 0.0382632 -0.168733 0.354 -0.383844 0.162017 -0.0333305 -0.131908 -0.178243 -0.052668 0.0270784 0.322848 -0.0668675 0.268804
32338 -0.0636272 0.0837081 0.167458 0.954694 -0.409295 0.0213755 -2.2124 6.28749 0.21912 -0.265738 -0.0617333 0.24674 0.138462 0.465959 -0.759173 0.0564278 -0.515374 -0.00848761 0.258911 -0.192481 -0.339902 -0.0374589 -0.262562 0.172297 -0.0291709 0.142595 -0.217266 -0.233023 0.111865 0.315893 0.205384 0.193468
33331 0.0437341 0.154177 0.174499 0.605238 -0.370578 -0.0647907 -2.46266 6.56656 0.164976 0.116728 -0.239967 0.295901 0.107038 0.345179 -0.548025 0.146431 -0.606917 -0.150824 0.165359 0.0347651 -0.262747 0.234257 -0.389068 0.155652 0.032363 -0.138851 -0.168566 0.210593 -0.0561245 0.314366 -0.232773 0.387027
36838 -0.0694304 0.191098 0.160008 0.60557 -0.295463 -0.0308093 -2.56262 6.94121 0.00912514 0.045196 -0.0461763 0.198987 0.140796 0.199777 -0.492391 0.106473 -0.623023 -0.0779595 0.12447 0.00290407 0.0906168 0.245162 -0.319442 0.113407 -0.0680845 -0.00729566 -0.136309 0.0877619 0.0973789 0.239513 -0.0819725 0.368688
33892 0.080229 -0.0226766 0.143559 0.808583 -0.39757 -0.106477 -2.34541 6.65132 0.0631181 0.140522 0.0475823 0.285843 0.100641 0.278777 -0.399933 0.210135 -0.767521 0.10214 0.140578 -0.0750097 0.156733 0.0260104 -0.332871 0.158183 -0.0287097 -0.017673 0.078971 0.0372846 0.0261079 0.296554 -0.0650626 0.312968
34109 -0.117114 0.147872 -0.0444777 0.727588 -0.534885 0.0355799 -2.05178 6.61189 0.0941358 0.0184817 0.12586 0.376663 -0.0329275 0.357357 -0.480401 0.0885187 -0.734418 0.10672 -0.154607 0.0433278 0.169394 0.294286 -0.191253 0.249916 -0.0416064 -0.0197125 0.0136737 -0.206992 0.345067 0.228184 -0.00179339 0.355914
33318 0.0222743 -0.087957 0.0252114 0.823626 -0.631013 -0.208424 -1.94712 6.19719 -0.384668 0.0983146 -0.238594 0.393069 -0.0303082 0.430032 -0.501277 0.253921 -0.602415 -0.240255 0.0105641 0.094091 0.460562 0.400597 -0.0562983 0.17695 0.203163 -0.170606 -0.0576821 0.233599 0.580258 0.228906 0.029776 0.310917
36490 -0.107101 0.151939 0.124817 0.592518 -0.450706 0.0295021 -2.35804 7.06379 -0.164331 -0.0921395 -0.137307 0.272 0.0946956 0.237153 -0.575686 0.171908 -0.499632 0.126228 0.188195 0.000163394 -0.00392663 0.1356 -0.387834 0.0602161 0.0529408 -0.112455 0.14099 -0.111634 0.220346 0.195357 -0.161203 0.290241
31174 -0.0312971 0.161843 0.20472 0.314414 -0.825428 -0.133911 -2.50386 6.38765 0.264857 0.340045 0.0400682 0.364396 0.307354 -0.0145469 -0.458576 0.343205 -0.548158 -0.0494694 0.106651 0.0540061 0.199064 0.277793 -0.354294 0.197036 -0.244945 -0.0507167 -0.138168 -0.0760751 -0.166929 0.262993 -0.357197 0.285844
34862 -0.14028 0.174825 0.0730222 0.571306 -0.425111 0.112011 -2.59591 6.93057 -0.104172 0.151435 0.0985801 0.310547 0.289415 0.0647445 -0.44429 0.238275 -0.557387 0.027311 0.029403 0.0979751 0.0254857 0.241276 -0.300217 0.0726473 -0.0806462 -0.115769 -0.012569 -0.258348 -0.124954 0.165949 -0.322061 0.27159
34658 0.0152046 0.338219 -0.109831 0.665162 -0.516644 0.131788 -2.21515 6.75156 0.0923174 0.134535 0.122242 0.371458 0.397888 0.204359 -0.376412 0.247111 -0.590696 0.145319 -0.0565347 -0.11082 -0.147216 0.195246 -0.417983 0.244732 0.0907671 -0.114135 -0.0879449 -0.00125464 -0.166988 0.225058 0.0103111 0.318473
36737 0.0701695 0.344272 -0.240791 0.613881 -0.72326 0.279131 -1.95846 6.28074 0.478273 0.00831267 0.255485 0.253729 0.228231 0.321594 -0.231461 0.320105 -0.647345 0.253244 -0.272587 0.225254 -0.000648693 0.308634 -0.333007 0.355039 0.0903266 -0.000327808 -0.131238 0.203423 -0.117924 0.514202 0.133356 0.224882
35049 0.00565256 0.219861 0.081853 0.559458 -0.365563 0.155617 -2.33594 6.95768 0.128391 0.0988063 -0.0455089 0.109567 0.277519 0.262776 -0.418449 0.242629 -0.634499 0.204027 0.00620587 0.095866 -0.0572582 0.242673 -0.341526 0.436883 0.090403 -0.194796 0.0195144 0.00356457 -0.0564114 0.128066 0.123071 0.311677
34044 0.0125795 0.170268 -0.0337068 0.652571 -0.137151 -0.0144847 -2.14971 6.80702 0.119766 0.000873619 -0.0554308 0.313413 0.073522 0.225564 -0.379647 0.125447 -0.538465 0.168589 0.113373 0.330485 -0.00920057 0.139768 -0.315966 0.293581 -0.00326949 0.0742367 -0.168207 0.0383191 0.142147 0.326452 -0.0367957 0.204273
35524 0.0280365 0.0802188 0.13578 0.470451 -0.347 0.137789 -2.48428 6.83529 -0.135261 0.250617 0.225954 0.312076 0.190187 0.227012 -0.531703 0.28928 -0.355647 0.156382 -0.154991 0.149172 0.113103 0.0389643 -0.288844 0.111354 0.0141063 -0.355416 0.0800017 -0.00690835 0.177367 0.278143 -0.198359 0.354908
36863 -0.0932113 0.0896256 -0.130383 0.555513 -0.45846 0.241656 -2.34774 6.73915 -0.0591868 0.0568131 -0.126886 0.351262 -0.0289776 0.131884 -0.666669 0.0498184 -0.573612 0.397621 0.058925 -0.211983 -0.0663726 0.265703 -0.369964 0.272735 -0.20975 -0.158715 0.0900653 0.015486 -0.00912977 0.257219 -0.169466 0.410569
33034 -0.090664 0.141862 0.0567467 0.573876 -0.280055 0.166621 -2.3395 6.55942 -0.277669 0.275179 -0.191934 0.0158942 -0.104735 0.138489 -0.375122 -0.0408563 -0.710572 0.157963 0.173056 0.0613323 -0.0701044 0.134387 -0.131649 0.390372 0.113556 -0.173606 0.232499 0.104623 0.0629623 -0.0542216 -0.143758 0.293142
33579 -0.0300839 0.0487578 -0.0107442 0.579841 -0.365811 0.101226 -2.49941 6.94412 -0.0872568 0.146943 -0.00718428 0.0722445 0.0149722 0.089551 -0.573963 0.112083 -0.548581 0.0149911 0.0895504 0.00785959 -0.0957571 0.147532 -0.271242 0.337955 -0.0250919 -0.233216 -0.087977 -0.0206437 -0.185282 0.0788294 0.00310555 0.331158
33257 -0.136637 0.371114 0.0116165 1.03781 -0.392131 0.192791 -2.2944 6.22112 0.0583932 -0.0137959 -0.0226923 0.293096 0.0168149 0.177275 -0.670915 0.173804 -0.743815 0.281292 0.106595 -0.252028 -0.198307 0.0202826 -0.438061 0.207422 -0.23491 -0.183454 0.0180791 -0.265654 -0.0822659 0.237627 0.00534204 0.316802
247382 -0.359177 -0.0119904 -0.126746 0.579457 -0.440592 -0.286333 -0.976121 3.65718 0.0542413 0.075148 0.130486 0.0340517 0.117455 0.359765 -0.573206 -0.305066 -0.586121 0.224198 -0.0059789 0.377121 -0.125648 0.269848 -0.461591 0.282174 -0.010692 0.216545 -0.103877 -0.192895 -0.200843 0.0489623 -0.288632 0.0818664
31995 -0.309583 0.134594 -0.0361141 0.523071 -0.718247 -0.143731 -2.18076 6.69235 -0.126563 0.00916482 0.0935051 0.250917 0.0898667 0.301824 -0.568654 -0.179988 -0.560408 0.162281 0.0012356 0.291844 -0.103859 0.16547 -0.376502 0.384504 0.00465203 0.117633 -0.0597423 -0.151564 -0.0621893 0.0515509 -0.113472 0.18495
36288 0.160649 0.0318622 -0.0467731 0.582219 -0.545002 0.05462 -2.18798 6.8161 0.0460739 0.041274 0.0115816 0.164817 0.113372 0.198765 -0.34426 0.273739 -0.699841 0.131225 -0.175764 0.0272912 -0.084745 0.269824 -0.0651322 0.239866 -0.136963 -0.258713 -0.2636 -0.253399 0.00823249 0.0311964 -0.301702 0.384698
31138 -0.0978712 0.120976 0.0546556 0.561219 -0.349121 -0.127436 -2.16321 6.92467 0.00961333 0.0767768 0.00614035 0.438997 0.156267 -0.00647337 -0.584127 0.142906 -0.689517 0.142711 -0.0648891 -0.0744291 0.0213836 0.205552 -0.348345 0.218581 0.0535684 -0.156293 -0.0536561 -0.128511 0.145208 0.255634 -0.260971 0.427362
35756 0.0845926 0.229991 -0.0521953 0.378752 -0.38166 -0.311439 -2.29677 6.55395 0.0735677 0.12521 -0.0299302 0.452272 0.112798 0.220554 -0.562223 0.326735 -0.487282 -0.0112113 -0.175059 -0.13565 -0.084324 0.270867 -0.429104 0.177237 -0.0616984 -0.124084 -0.0196004 -0.0929743 -0.17875 0.303174 0.00252595 0.553945
36009 0.130542 0.22257 -0.0553661 0.620204 -0.32911 0.131319 -2.45617 6.96642 0.127862 0.0399164 -0.0247103 0.306472 0.194182 0.311611 -0.503843 0.197527 -0.504609 0.0940359 -0.106084 0.0809542 -0.0890648 0.183747 -0.331608 0.195364 0.016277 -0.233503 -0.158626 -0.0909451 -0.123011 0.303134 0.0538887 0.274728
35134 -0.0639532 0.173275 0.0978411 0.705097 -0.520927 -0.047716 -2.22285 6.13001 -0.143236 0.24113 0.0510907 0.247739 0.42383 0.0151683 -0.477576 0.481402 -0.66573 0.309392 -0.0565888 0.0638477 -0.141216 0.203743 -0.284735 0.322898 0.0364598 -0.0968109 -0.204002 0.180137 -0.0695314 0.136107 -0.302299 0.710256
34051 0.100948 0.073522 -0.0608388 0.604364 -0.473129 -0.213946 -2.22777 6.73574 -0.0781146 0.216811 -0.0987936 0.000294929 0.157749 0.0371315 -0.465074 0.29802 -0.597557 0.181723 -0.010646 0.0871741 -0.0756045 0.210012 -0.25904 0.187502 -0.108715 -0.0631726 0.174307 0.0059456 -0.137626 0.307292 0.0596136 0.34128
35332 0.0555541 0.442034 0.164376 0.448332 -0.673057 0.230874 -2.12354 6.21138 0.0219363 0.455012 0.00516467 0.482135 0.191519 0.284801 -0.435233 0.658854 -0.511562 0.23726 -0.0128985 0.150109 -0.0362585 0.112603 -0.501672 0.237594 -0.174213 0.0510751 0.121159 -0.242762 0.108788 0.252842 -0.241829 0.522045
31238 -0.0945189 0.178695 0.110139 0.690837 -0.454179 -0.055159 -2.55424 7.37849 -0.184066 0.00630328 -0.179187 0.231577 0.230055 0.288015 -0.536217 0.366751 -0.56016 0.0850167 0.0089216 0.0960571 0.0340218 0.124731 -0.338527 0.246608 -0.103288 -0.200085 0.0684815 -0.105547 0.0379378 0.202156 -0.144734 0.357857
33573 -0.323796 0.0197978 0.212232 0.588753 -0.498542 -0.181965 -2.43409 7.11582 -0.152851 0.0786373 -0.127446 0.119217 0.024741 0.163096 -0.541283 0.286683 -0.569018 0.236099 -0.0916519 -0.0575721 -0.037586 -0.092774 -0.463104 0.341154 -0.0733367 -0.0409771 0.119605 -0.0314452 0.0832281 0.363487 0.109765 0.126377
34711 -0.0885753 0.172939 0.202951 0.47124 -0.340137 0.00783674 -2.44482 6.94437 0.0294019 0.0336087 -0.0537553 0.452772 0.191349 0.204462 -0.371129 0.273129 -0.629024 -0.0479102 0.0828165 -0.224605 0.0555513 0.211102 -0.25483 0.225916 -0.101659 -0.17775 -0.0276338 -0.0116489 -0.0405683 0.278391 -0.0741517 0.351545
31148 0.00717662 0.160056 0.199778 0.648994 -0.398322 0.0408588 -2.13084 6.83972 -0.202842 0.203413 -0.0040006 0.252227 0.245569 -0.0578756 -0.41081 0.326007 -0.677647 0.362863 0.0395661 0.17747 0.0237719 0.159448 -0.0420839 0.352999 0.0690765 -0.174316 0.0734231 -0.0276651 -0.0900287 0.0942391 -0.0443669 0.548809
33181 0.0398217 0.176563 0.235807 0.534372 -0.489159 -0.174749 -2.31576 6.96292 -0.0516198 0.166397 -0.0792212 0.268162 0.0596615 0.0765312 -0.484687 0.220346 -0.57849 0.187052 -0.0108782 0.0921786 -0.0494989 0.235139 -0.368648 0.123241 0.109451 -0.110284 0.0289978 -0.144483 0.0450597 0.173465 0.0649486 0.431376
33726 -0.065748 0.0480196 0.0481401 0.614123 -0.437354 -0.0512694 -2.49682 6.99079 0.101939 0.255563 0.00363862 -0.00226866 -0.0737376 0.281446 -0.587521 0.338025 -0.46101 -0.0139308 0.126717 -0.0215408 -0.0470383 0.334667 -0.173088 0.406268 -0.0480269 -0.0900406 0.184007 -0.091085 0.0201677 0.126091 -0.113915 0.243936
31480 -0.144731 0.189644 0.133059 0.540404 -0.396546 -0.0100857 -2.46472 7.21278 -0.0132292 0.201881 0.0496353 0.201068 0.30885 0.206453 -0.492744 0.112174 -0.57052 0.202673 -0.0577322 0.0352477 -0.052026 0.20309 -0.245722 0.23044 0.0689113 -0.196987 0.151379 -0.0859943 -0.0539092 0.202375 -0.0574918 0.325717
34265 -0.146338 0.359009 -0.0975408 0.35884 -0.780685 -0.290405 -1.54539 5.69303 0.0701021 0.379893 -0.0060179 0.446081 -0.0560619 0.0152148 -0.739986 0.209031 -0.799537 0.073754 -0.0953605 0.320984 -0.255286 0.0762385 -0.582132 0.514856 0.226286 -0.112362 0.170375 -0.622012 0.122242 0.486419 -0.176498 0.71476
33906 0.126916 0.281319 0.181299 0.626592 -0.280658 -0.0163533 -2.19196 6.15525 -0.0803986 0.353317 0.0506703 0.577624 0.0892924 0.390703 -0.612318 0.194072 -0.531729 0.0519283 -0.0792475 0.201306 0.298821 0.651633 -0.234969 0.234812 0.0657273 -0.176253 0.069197 -0.188115 0.36623 0.145599 -0.269511 0.476348
32106 0.0781547 0.162458 -0.0561483 0.713734 -0.32476 -0.0936075 -2.3235 6.97438 0.046162 0.0597881 0.104583 0.276832 0.0704016 0.0945383 -0.489641 0.167283 -0.618913 0.265639 0.069303 0.117929 -0.0505739 0.229332 -0.281852 0.335042 0.0127594 -0.0545108 0.00447968 -0.181598 0.103539 0.209727 -0.0705901 0.276894
31218 -0.109992 0.106344 -0.0164437 0.710589 -0.152927 -0.144488 -2.24006 6.57833 -0.141178 0.199279 0.00323254 0.20284 0.313044 0.00563413 -0.44518 0.269972 -0.600016 0.107906 0.0676512 0.0101979 -0.134734 0.223617 -0.463504 -0.0668162 -0.052934 -0.0757769 0.082154 -0.292131 -0.06586 0.0862826 -0.21123 0.357074
33822 -0.155478 0.16518 0.0625323 0.638679 -0.246643 -0.0427474 -2.57114 7.09653 0.0437037 0.0931812 -0.0284516 0.275716 0.226445 0.0984308 -0.525124 0.149965 -0.616826 0.0427804 0.128969 0.0619424 0.0341906 0.207785 -0.278335 0.239721 0.098576 -0.266612 0.162355 -0.207088 0.0876785 0.181071 0.0138353 0.367847
32031 0.396775 0.332377 0.0548672 1.00533 -0.286305 -0.348708 -1.54665 5.4465 0.133749 0.299422 -0.280425 0.259124 0.262009 0.139313 -0.982265 0.322508 -1.02834 0.169552 -0.0532793 -0.0243808 0.0528922 0.397587 -0.637373 0.55216 0.551016 -0.484304 0.061006 -0.464655 -0.0453361 0.53565 -0.238103 0.708322
32061 -0.015789 0.176502 0.411483 0.87876 -0.284645 0.0447242 -2.09904 6.00876 0.107093 0.361709 -0.264135 0.291889 -0.1378 -0.0727596 -0.791789 0.310479 -0.419979 0.44034 0.299016 0.00216395 -0.253573 0.357829 -0.255412 0.219227 0.58028 -0.112856 0.201208 -0.21197 0.0690131 0.551337 0.00780455 0.223439
35447 0.0815633 0.215879 0.0364014 0.77324 -0.241389 -0.294249 -2.05137 6.86393 -0.0747526 0.298368 -0.111811 0.234081 0.228757 0.0535442 -0.589597 0.173364 -0.435232 0.150588 -0.0156928 0.168384 -0.101739 0.117907 -0.348571 0.276611 0.170687 -0.0738196 -0.0565581 0.00892831 -0.105388 0.200063 0.0527748 0.172866
31469 0.00249497 0.0500753 0.00274278 0.57021 -0.441813 0.127558 -2.41566 6.96066 0.209825 0.0890706 -0.0593083 0.243467 0.181643 0.153447 -0.348181 0.227449 -0.662669 0.245369 0.00891512 0.160222 -0.0461488 0.10542 -0.16191 0.345067 0.0765652 -0.136844 -0.00506064 -0.0649382 -0.0966847 0.188264 0.041165 0.234717
32641 -0.155571 0.0994328 0.113725 0.540314 -0.565367 -0.0485504 -2.36609 6.79647 0.228166 0.223291 -0.0571482 0.11674 0.288978 0.174328 -0.409418 0.186912 -0.637873 0.274112 -0.115148 0.121297 0.0416175 0.269258 -0.43111 0.246426 0.171412 -0.143794 -0.0354414 -0.0911846 0.0669219 0.137122 -0.0611418 0.213509
34440 0.254057 0.138632 0.203243 0.656334 -0.448306 -0.161566 -2.45508 6.75517 -0.0159538 0.0573397 0.107544 0.244469 0.0655902 0.194017 -0.541088 0.248969 -0.53431 0.182059 -0.123525 0.128849 -0.220276 0.15134 -0.304146 0.0300083 -0.0145287 -0.0670936 0.102625 -0.257587 -0.0331172 0.117817 -0.0583801 0.36884
35835 0.214412 0.0680726 0.312285 0.614232 -0.355542 0.0384073 -2.38292 6.92839 -0.201854 0.105857 0.0186849 0.0946077 0.116711 0.149541 -0.508034 0.275513 -0.456928 0.310244 0.0768601 0.0283054 -0.0650731 0.314069 -0.312278 0.226842 0.220925 -0.126965 0.0088366 -0.167089 -0.011679 0.066471 -0.0291983 0.318433
32940 -0.00853293 0.135096 0.119829 0.679051 -0.507746 -0.0550435 -2.62839 7.35397 -0.0503763 0.0188811 -0.101017 0.197895 0.169365 0.170506 -0.625117 0.188011 -0.579984 0.0880369 0.048733 0.0602934 -0.0257701 0.248726 -0.174486 0.372352 -0.0310474 -0.248321 -0.0775136 -0.228313 -0.0338693 0.296489 -0.19886 0.320629
31536 0.0708256 0.178483 0.0554469 0.619157 -0.497496 -0.072857 -2.47061 7.13846 -0.0579485 -0.0179275 -0.0216578 0.210774 0.124315 0.130234 -0.520784 0.318652 -0.590719 0.113993 0.0649265 -0.00804839 0.104179 0.0632395 -0.277712 0.316014 0.00546343 -0.133766 0.178168 -0.0449924 0.0418949 0.185176 -0.29796 0.254206
35714 -0.0496444 0.12609 0.0302478 0.505202 -0.283349 -0.113401 -2.00951 6.58052 -0.0504075 0.23147 -0.123892 0.176673 0.120014 0.263257 -0.533938 0.140984 -0.420056 -0.0325499 0.0631058 0.223456 -0.0854205 0.244201 -0.372023 0.0932626 -0.108628 -0.124576 0.0061286 -0.0348843 -0.17627 0.159908 -0.266867 0.424566
37046 -0.134247 -0.0944441 0.258243 0.592958 -0.228536 0.0718547 -1.85447 5.92568 0.0376158 0.216138 0.437765 0.454153 0.227864 0.304257 -0.572642 0.113464 -0.479945 0.197255 -0.0108579 0.110149 -0.244229 0.457886 -0.232753 0.475568 -0.0698334 -0.163601 -0.00333522 0.0627152 0.133022 0.192826 -0.440927 0.353693
34520 0.0991959 0.105463 0.129855 0.477158 -0.476404 -0.104991 -2.36456 7.0339 -0.074492 0.17349 0.028585 0.294881 0.0758379 0.290638 -0.717249 0.177695 -0.37964 0.100819 0.148776 0.159562 -0.0544396 0.0621419 -0.27854 0.129378 -0.139003 -0.231215 0.21953 -0.108132 0.217116 0.251685 -0.10241 0.352189
36915 -0.119229 0.15505 -0.026867 0.613201 -0.359109 -0.154783 -2.50931 6.88345 -0.0908168 0.15674 -0.0674372 0.167783 0.236375 0.245677 -0.563148 0.145569 -0.611553 0.122248 -6.92601e-05 0.25753 -0.0162424 0.011236 -0.308188 0.283332 0.00150423 -0.0674186 0.0175144 -0.312138 0.0400418 0.227078 -0.143742 0.357571
36630 -0.0566792 -0.0253176 -0.0494744 0.511879 -0.226594 -0.0318146 -2.1744 6.91645 -0.0329374 0.0894002 -0.158085 0.168949 0.0135219 0.167559 -0.459333 0.276584 -0.341802 0.166812 0.0453679 0.230953 0.20812 0.176633 -0.336527 0.554589 -0.364179 0.16381 -0.0692064 0.0712146 -0.0152433 0.101734 -0.146503 0.305532
32351 0.0500356 0.00543125 0.16937 0.866188 -0.187863 -0.204013 -2.22403 6.49989 -0.0853435 0.30745 -0.0212876 0.387807 0.0211351 0.249269 -0.551905 0.369446 -0.470787 0.0974816 0.0444745 0.568873 0.156234 0.419731 -0.382585 0.658935 -0.291575 0.051493 0.0205661 0.084589 -0.0132664 0.284072 -0.179914 0.167608
35540 -0.0919452 0.101406 0.222622 0.535464 -0.565343 -0.038868 -2.36846 6.98769 0.0610657 0.09407 -0.133859 0.279076 0.214112 0.108827 -0.49842 0.0196036 -0.725944 0.0821465 -0.0872657 -0.0992896 0.0766832 0.243929 -0.316865 0.336178 -0.0647399 -0.246857 -0.00733208 -0.129643 -0.0355217 0.0826167 0.0663677 0.330054
36548 -0.0559413 0.105255 -0.00160232 0.579251 -0.441283 -0.00731402 -2.14117 6.2938 0.344907 0.068474 -0.175611 0.59198 0.206938 0.0760302 -0.532021 -0.0934454 -0.741592 0.250659 -0.0254931 0.0907779 0.0157232 0.208912 -0.0697512 0.466129 -0.480833 -0.337255 0.170424 -0.282545 -0.282655 0.452441 0.0415478 0.433406
36828 -0.0246416 0.113515 0.0686189 0.464273 -0.501619 -0.0691136 -2.46768 7.02169 0.0218373 0.0976613 -0.0508286 0.0431725 0.0513208 0.167209 -0.463897 0.194003 -0.571218 0.0930391 0.0232704 -0.0183238 -0.05599 0.131764 -0.120415 0.381382 0.031606 -0.127259 0.170752 -0.094944 -0.0663309 0.0983335 -0.25427 0.250278
35461 0.19045 0.152649 0.0071546 0.531464 -0.49711 -0.0626466 -2.37936 6.77417 -0.041279 0.211617 0.00217669 0.45104 0.222035 0.311668 -0.5242 0.299317 -0.394989 0.0060757 0.127236 0.329311 -0.0279397 0.0704291 -0.296584 0.0178774 -0.134433 -0.154852 0.219928 -0.103426 0.271526 0.346973 0.00333334 0.441315
34753 0.0377054 0.0462082 -0.0546235 0.670728 -0.467258 0.0385243 -2.46576 6.79158 -0.129593 0.200374 0.175105 0.254597 0.231717 0.023385 -0.440538 0.186658 -0.672769 -0.0606306 0.134689 0.0876369 -0.047438 0.181809 -0.36536 0.156672 -0.0830156 0.0640815 0.107828 0.0246117 -0.0633016 0.292425 -0.170471 0.263113
31119 -0.0993398 0.251384 0.132826 0.617078 -0.462719 0.305633 -2.36103 6.13292 -0.11722 0.225965 -0.18035 0.368567 0.282982 0.272115 -0.504029 0.387389 -0.514413 -0.0158177 0.258292 0.104212 -0.27012 0.167209 -0.454243 0.55786 0.102645 -0.0947051 0.0624923 -0.0826739 -0.0496707 0.300476 -0.171182 0.290666
34665 -0.17468 0.0984654 0.0162761 0.594366 -0.382159 -0.100024 -2.49437 7.14894 -0.128408 0.0267513 -0.146016 0.240389 0.132914 0.22419 -0.499467 0.311103 -0.550168 0.214961 -0.0159945 -0.0539823 -0.0849961 0.131331 -0.273499 0.339562 -0.0804137 -0.142936 0.00101804 -0.108309 0.0550861 0.329499 -0.0188009 0.31985
31597 -0.0301167 0.151901 0.0552218 0.838755 -0.106036 -0.0137525 -1.97627 6.1187 0.0646619 0.19969 0.0490939 0.435245 0.158018 0.299834 -0.43626 0.46186 -0.473106 0.341695 -0.100079 -0.134413 -0.20255 0.359749 -0.361217 0.0359701 -0.0440654 -0.332473 0.124504 0.047021 -0.123626 0.251256 -0.127999 0.433866
33439 0.141931 -0.130149 -0.128696 0.381559 -0.191166 -0.0211716 -2.35745 6.44941 -0.0520871 0.230903 0.0865764 0.211518 0.113049 0.281755 -0.427211 0.040444 -0.535739 0.312059 0.056211 0.0569986 0.0911137 0.102487 -0.352644 -0.0524864 -0.0694769 -0.265174 0.297733 0.0101092 -0.125832 0.406771 -0.00817029 0.541048
33593 -0.0535716 0.0766975 0.147562 0.51673 -0.312877 -0.0508508 -2.49988 6.82595 -0.119963 0.135941 0.210682 0.0918071 0.289837 0.0253443 -0.581878 0.284966 -0.310613 0.229392 0.0507464 0.238619 0.0197527 0.234928 -0.315382 0.207222 -0.0243344 -0.30157 0.206852 -0.0615245 0.200235 0.0917504 -0.0606539 0.317967
32126 0.0768583 0.0751155 0.167748 0.393681 -0.604295 -0.0961552 -2.47916 6.69933 -0.108333 0.16173 0.0062843 0.270032 0.0772955 0.0377412 -0.57263 0.233631 -0.388697 0.185374 0.0113628 0.300641 -0.0860431 0.190951 -0.295371 0.0818978 -0.118334 -0.249594 0.228097 -0.121192 0.0229227 0.15464 -0.00651909 0.355676
36334 -0.117558 0.0592102 0.0756691 0.594178 -0.374194 -0.00195641 -2.43471 7.1485 -0.107207 0.0339172 -0.0654397 0.245147 0.102163 0.147231 -0.56885 0.257435 -0.486412 0.0184753 0.119815 0.0684255 0.0732479 0.107417 -0.326633 0.250076 0.0302206 -0.102279 -0.0120538 -0.106126 0.00109038 0.187852 -0.221083 0.237171
35922 0.241137 0.169733 -0.109429 0.684438 -0.508396 0.298188 -2.12905 6.80555 0.298701 0.0837592 0.0365146 0.184936 0.228804 0.296969 -0.415511 0.303256 -0.591944 0.171631 -0.0982424 0.0765017 -0.0503888 0.269714 -0.387867 0.274713 0.172576 -0.108937 -0.194851 0.0405836 -0.0901746 0.435417 0.102807 0.133926
32454 0.17145 0.00966761 0.36616 0.518202 -0.553098 0.122759 -2.36823 6.78835 -0.0650193 0.160722 -0.133751 0.202009 0.0571594 0.147632 -0.429386 0.239467 -0.600108 0.300808 0.0555431 0.135473 -0.0100399 0.208111 -0.420761 0.190878 0.184654 -0.0885195 0.0164191 -0.153316 -0.0556661 0.0864007 -0.112762 0.353966
32859 -0.0940887 0.103189 0.0819226 0.594725 -0.421973 -0.0493228 -2.49837 7.2042 0.00677066 -0.000583407 -0.149467 0.283174 0.156777 0.148448 -0.531948 0.146606 -0.615225 0.215724 0.0515663 0.00658022 0.0604452 0.148087 -0.32909 0.182521 -0.0743877 -0.203117 -0.0207263 -0.17468 -0.088152 0.297946 -0.137253 0.251877
31369 0.0415258 0.0926349 0.289668 0.594127 -0.450857 0.0262243 -2.35014 6.64764 -0.178339 0.128592 -0.0245039 0.219849 0.085094 0.0726976 -0.623557 0.120774 -0.547896 -0.0438473 -0.167331 0.0239426 0.00835504 0.349914 -0.0272615 0.283384 -0.284427 -0.1328 -0.0282254 0.0669169 0.0900396 0.396945 -0.120615 0.213259
34946 0.181408 -0.0259418 0.0488804 0.586407 -0.44541 -0.0300521 -2.19661 6.49161 -0.129552 0.253406 0.0125151 0.0818835 0.0999778 0.0343008 -0.460672 0.24515 -0.642318 0.105803 0.150789 0.0950063 -0.182598 0.132141 -0.321049 0.250475 -0.0905588 -0.0469029 0.0267713 0.201347 -0.0606199 0.394932 -0.262172 0.517266
31529 -0.00316184 0.0403061 0.130362 0.517773 -0.467401 -0.017282 -2.56055 6.9675 -0.0891906 0.123275 -0.11893 -0.0176069 0.16776 0.209981 -0.434131 0.188831 -0.634812 0.0294702 0.065162 -0.0108974 -0.126828 0.118409 -0.30286 0.346965 0.0678912 -0.108313 0.134817 0.0749943 -0.107969 0.136702 -0.134004 0.277018
32661 -0.084788 0.0889773 -0.000431198 0.679758 -0.598055 -0.00693134 -2.10905 6.16668 0.0274052 0.0556604 -0.0963213 0.154623 0.258624 0.172254 -0.660921 0.362395 -0.487234 0.0676699 0.0741377 -0.000427463 -0.0907425 0.074535 -0.72981 0.0956971 0.0903999 -0.128582 -0.0334867 -0.205598 -0.176467 0.192013 -0.0634275 0.449746
35586 0.00599897 -0.148606 0.198562 0.847923 -0.6196 0.171911 -2.08693 6.13976 -0.0998242 0.191003 -0.166308 0.12322 0.365784 0.338804 -0.509232 0.117082 -0.523246 0.307973 0.104828 0.0926326 -0.151569 0.150889 -0.468442 0.473881 0.112804 0.210387 0.270094 -0.332735 -0.223732 0.130716 0.136975 0.202553
117003 -0.109734 -0.264521 0.274974 0.563022 -0.259824 0.036291 -1.78176 5.39393 -0.172554 0.21505 0.093287 0.446413 0.090058 0.100949 -0.440184 0.463454 -0.47775 0.0107775 -0.15735 -0.0122142 -0.387767 0.352546 -0.491875 0.38712 0.135276 0.226789 0.328272 0.209105 0.119022 0.257509 -0.0829478 0.502804
32122 -0.0101294 0.147347 0.308423 0.528091 -0.282508 0.0562057 -2.16058 6.70178 0.0225558 0.281365 0.00548307 0.0865849 0.0932337 -0.187851 -0.644473 0.276224 -0.438759 0.0644534 -0.0242876 0.0739331 -0.170189 0.148924 -0.269215 0.149055 -0.00204023 0.0586723 -0.16855 -0.231598 -0.0636843 0.458292 -0.181993 0.402037
35951 -0.151804 0.294024 0.199102 0.565671 -0.469256 -0.00815943 -2.28801 6.92862 -0.0860806 0.333134 0.029683 -0.018945 0.243198 0.210502 -0.475269 0.335668 -0.547679 0.192487 -0.0536159 0.172285 0.0710617 0.0623649 -0.218877 0.15794 -0.135028 0.0417175 -0.00327943 -0.0911893 0.0504597 0.267748 0.0604139 0.457073
34023 0.118677 0.354579 0.288389 0.565512 -0.336938 -0.0176364 -2.22887 6.68201 -0.000433294 0.191334 -0.0519591 0.438454 0.0903525 -0.101817 -0.470174 0.340396 -0.62531 0.164436 0.114656 -0.10693 0.0238663 -0.0648155 -0.122753 0.289268 0.060149 -0.214948 -0.0862915 0.0791414 -0.243604 0.278622 -0.00630152 0.497171
33660 -0.043532 0.20089 0.167392 0.73539 -0.125104 -0.0213604 -2.31164 6.6731 -0.00667098 -0.0481333 0.262122 0.30214 0.0495327 0.129774 -0.551308 0.183453 -0.60672 -0.0712865 0.187042 0.213289 -0.0237453 0.25015 -0.186414 0.197912 0.1011 -0.134389 0.122976 -0.109941 0.0281429 0.280499 -0.167756 0.309182
33519 0.125722 0.189061 0.0919327 0.631164 -0.434831 0.0439672 -2.49486 6.91824 -0.0762996 -0.0511812 -0.0542889 0.184665 0.0412058 0.223847 -0.487909 0.334416 -0.4953 0.163904 0.167891 0.170741 -0.13706 0.1369 -0.336804 0.34832 0.212325 -0.0587351 -0.192973 -0.293591 -0.0372967 0.308012 0.0151128 0.147194
33646 0.214189 0.187615 0.312087 0.759272 -0.394687 -0.0914966 -2.32239 6.49696 -0.0275555 0.129495 -0.142545 0.269416 0.277927 0.289691 -0.708755 0.0730785 -0.393905 -0.146891 0.125617 -0.0290319 -0.171801 0.28475 -0.238151 0.308995 -0.0516571 0.0716797 -0.145945 0.0878102 0.148533 0.382397 0.00654554 0.28227
36702 -0.0905296 0.132761 -0.0680732 0.677723 -0.428132 -0.0331485 -2.4864 6.7991 -0.0206627 0.193076 0.046236 0.149676 0.101698 0.127036 -0.505573 0.090595 -0.625322 0.189685 0.0429099 0.138539 0.0439977 0.235989 -0.435597 0.0972068 -0.0791721 -0.0748248 0.0482874 0.0641633 0.222018 0.142122 -0.257199 0.287903
36827 0.0952848 0.263876 0.180676 0.711758 -0.136676 0.0415873 -2.36807 6.71246 0.0972765 0.307619 0.0833234 0.51871 -0.159128 0.286321 -0.436211 0.281111 -0.576042 0.429932 -0.0579501 0.268595 0.165666 0.16262 -0.269425 0.62145 -0.240458 -0.0580856 -0.00224454 -0.13984 0.0612627 0.299713 -0.208721 0.210921
35676 0.0470653 0.154209 0.00462795 0.572876 -0.355053 0.0500738 -2.3163 6.97893 0.137315 0.0894297 -0.0595022 0.232958 0.197153 0.14635 -0.433176 0.220673 -0.612144 0.239153 -0.0295092 0.104434 -0.0585635 0.163172 -0.271263 0.32621 0.0617387 -0.0520515 -0.00757336 -0.0504231 -0.0230595 0.202929 0.0485576 0.324889
34661 -0.0638155 0.243057 -0.00442092 0.654727 -0.331037 -0.199837 -2.06824 6.77179 -0.241773 0.143394 0.00041331 0.395844 -0.0639723 0.165518 -0.418488 0.14897 -0.566076 0.289123 -0.0334624 0.183972 -0.0853928 0.461363 -0.478441 0.270713 0.0549391 -0.323676 0.0151131 0.0644066 -0.156685 0.199455 -0.0730711 0.105926
35806 0.15532 0.107444 0.104403 0.661054 -0.557022 -0.0403313 -2.03327 6.40485 0.0347851 0.284066 -0.231498 0.432861 0.147619 0.312498 -0.645586 0.204968 -0.557792 0.0890943 0.117079 -0.138612 0.354875 0.299588 -0.455727 0.328906 -0.161039 -0.156356 0.0678104 -0.056028 0.0708878 0.274383 -0.117066 0.38751
31903 -0.0868786 0.144563 0.0310751 0.682592 -0.366444 -0.110739 -2.58314 7.43033 -0.0904946 0.0340738 -0.0723121 0.181544 0.204777 0.291546 -0.541482 0.218388 -0.541925 0.135931 0.0849394 0.112615 -0.0356777 0.136835 -0.279733 0.281775 -0.0633483 -0.204248 0.0679659 -0.127411 0.00453131 0.210744 -0.129177 0.27042
34246 0.00118905 -0.0604425 -0.0391543 0.739571 -0.517389 -0.202071 -2.4588 6.45808 0.0847389 0.23606 -0.0841175 0.325172 0.235535 0.146667 -0.701657 0.34471 -0.461007 0.321375 0.0730412 -0.00443465 -0.10056 -0.117167 -0.499883 0.170705 -0.0586528 -0.309015 0.0413789 0.152679 0.0519682 0.0864229 -0.300571 0.425214
35955 -0.146433 0.133423 0.393506 0.876836 -0.463862 -0.100007 -2.12004 6.20575 0.0767245 0.264333 -0.253596 0.0975911 0.324263 0.354778 -0.722222 0.169071 -0.649158 0.204209 -0.00963035 0.155221 -0.259598 0.288939 -0.431128 0.100656 0.0355519 -0.183204 0.199991 -0.112038 0.00711593 0.262646 -0.352872 0.408182
32650 0.012325 0.136795 0.177882 0.501879 -0.625556 0.10364 -2.53983 6.7194 0.0310983 0.271506 -0.0746335 0.189146 0.0614666 0.0629497 -0.545212 0.292979 -0.362391 0.130722 0.103846 -0.107884 -0.0101896 0.15096 -0.286735 0.374747 -0.246283 -0.30238 -0.0252105 0.0477389 -0.0860388 0.127295 -0.0891304 0.182826
33971 -0.00981001 0.136218 0.321773 0.728939 -0.429543 -0.084173 -2.33168 6.83742 -0.124948 0.166641 -0.215494 0.177301 0.318586 0.220037 -0.73089 0.141942 -0.401546 0.104865 -0.0458912 -0.196422 -0.126818 0.340355 -0.191853 0.125554 -0.127277 -0.163779 -0.0437421 -0.188288 0.072646 0.285217 -0.342537 0.244825
31848 -0.0421479 -0.0355542 0.318482 0.822023 -0.743685 -0.195911 -2.22625 5.6208 -0.231319 0.205665 0.0465061 0.125082 0.0413982 0.353736 -0.385213 0.817211 -0.724129 0.0983423 0.386104 0.346525 0.151289 0.253018 -0.266704 0.486894 -0.23502 -0.578769 0.0209253 -0.11423 0.174308 0.224371 0.120051 0.549752
35532 -0.00203938 0.171689 0.271586 0.465651 -0.666516 0.00487909 -2.30279 6.99801 0.0635558 0.128201 -0.0434805 0.187127 0.105762 0.143939 -0.540226 0.139959 -0.567217 0.115609 0.0212696 0.231232 0.0908968 0.274744 -0.308083 0.334316 -0.168253 -0.230118 0.0802112 0.028698 -0.018962 0.155488 -0.092425 0.210482
33304 -0.188316 0.199281 0.0385906 0.699883 -0.397617 0.178871 -2.13108 6.4299 0.0532876 0.260392 -0.115712 0.370442 0.318436 0.276251 -0.748594 0.0209162 -0.409338 0.113429 -0.0585152 -0.0403759 0.0178831 0.245346 -0.421453 0.332357 0.0184742 -0.202831 -0.332707 0.0930955 0.0808758 0.321181 -0.0393128 0.379476
33101 0.0417975 -0.0922339 0.0400802 0.676367 -0.461263 0.0819957 -2.24674 6.65186 -0.126291 0.371351 -0.11457 -0.0202113 0.382609 0.309846 -0.575929 0.446288 -0.504173 0.0355569 -0.0115225 -0.0397749 0.438316 0.166148 -0.177816 0.557498 0.250641 -0.313216 -0.092206 -0.0996876 0.0830287 0.274295 -0.179723 0.592358
36167 0.166445 0.187398 -0.10199 0.488838 -0.571583 -0.197119 -2.34306 6.62304 -0.0898688 0.0875069 0.12716 0.0964657 0.0815317 0.330756 -0.386091 0.161687 -0.647369 -0.147639 0.23816 0.108561 0.0452199 0.157381 -0.392717 0.121132 -0.0414102 -0.156392 0.249712 0.11569 0.0992156 0.21227 -0.21481 0.0689825
31229 -0.11705 -0.021168 -0.0836956 0.500678 -0.474382 -0.126354 -2.42383 6.96619 -0.141372 0.123003 -0.10624 0.172125 0.0322365 0.373006 -0.58547 0.306266 -0.38815 0.164591 0.228386 -0.132148 0.10562 0.442349 -0.272395 0.266371 -0.035515 -0.32141 0.0696052 -0.0907562 0.0283224 0.30468 -0.194225 0.314589
35923 -0.157169 0.1788 0.0672541 0.600309 -0.468906 -0.122739 -2.58905 7.29529 -0.0628469 0.128202 -0.0798882 0.142691 0.119111 0.228331 -0.572173 0.230726 -0.56439 0.249403 0.144089 -0.0241677 -0.0294696 0.165932 -0.287886 0.255707 -0.0788826 -0.198131 0.104908 -0.0722707 0.0193376 0.295623 -0.0584308 0.308651
32800 0.167614 -0.035971 -0.0907073 0.532324 -0.814684 -0.192771 -1.8981 6.1941 -0.294246 -0.101465 0.204435 0.34558 0.137842 0.265418 -0.492971 0.329025 -0.505244 -0.0254263 0.241193 0.17752 -0.0276182 0.202944 -0.275815 0.478779 0.0285027 -0.190012 -0.257947 -0.315007 -0.248769 0.0748449 -0.196704 0.393344
33953 0.0288153 0.265489 0.149524 0.45173 -0.291733 -0.0651399 -2.51871 7.13546 0.00809586 0.023317 -0.0793133 0.181081 0.156599 0.180424 -0.440385 0.266998 -0.550474 0.126956 0.0931448 0.00764279 -0.0776876 0.00551717 -0.189681 0.359281 -0.18686 -0.0784566 0.133366 -0.0273022 0.0551848 0.203062 -0.198341 0.357161
32982 0.152304 -0.0728939 -0.0291078 0.578038 -0.375664 -0.00363789 -2.54278 6.50768 -0.0824736 0.206654 -0.0847476 0.140154 0.166969 0.0124408 -0.346182 0.278249 -0.740708 0.197468 0.0295023 0.188978 -0.22516 0.12553 -0.25536 0.187934 -0.072147 -0.0891775 0.0165271 0.22036 -0.0513584 0.188775 -0.244338 0.466677
33606 0.134037 0.145498 0.00327905 0.667422 -0.445621 -0.0911851 -2.43233 6.80719 -0.0365011 0.246728 -0.172234 0.294836 0.126878 0.09291 -0.356842 0.351704 -0.676506 0.161557 0.0705167 0.077405 -0.169539 0.0497551 -0.462025 0.135582 -0.0536063 -0.109087 -0.115796 0.22982 0.0669956 0.147569 -0.238959 0.412313
36856 0.100428 0.0642548 0.20838 0.550446 -0.519581 0.0523842 -2.21962 6.89261 -0.0247867 0.118366 -0.0690972 0.0259474 -0.00689646 0.0102416 -0.507414 0.240202 -0.705648 0.179734 -0.0249839 0.0372671 -0.0591376 0.125573 -0.322167 0.270451 -0.020013 -0.177843 0.0961005 -0.149455 -0.150292 0.0987217 -0.152079 0.24809
33832 -0.150513 0.140645 0.0249333 0.543939 -0.383073 -0.0681791 -2.33707 7.1851 -0.0164733 0.109062 -0.0327693 0.255886 0.163905 0.128085 -0.543582 0.149799 -0.530923 0.0699722 0.101229 0.0100089 0.147421 0.147856 -0.239079 0.186623 -0.0282086 -0.0807705 0.00513757 -0.0703487 0.069291 0.168838 -0.183822 0.322666
34433 -0.00204081 0.239878 0.0383142 0.506074 -0.357586 0.023136 -2.32287 6.43676 -0.00497046 0.147219 -0.0891618 0.442052 0.168648 0.109574 -0.46912 0.196595 -0.578185 0.160689 0.219517 0.0562958 0.15415 0.279312 -0.242879 0.41721 0.0388704 -0.281434 0.216914 -0.484051 -0.0392543 0.114343 -0.240344 0.213931
31956 -0.105547 0.103154 0.300171 0.613124 -0.113491 0.000613938 -2.12997 6.47783 0.0840352 0.0992906 0.178977 0.202948 0.0851948 0.114399 -0.688111 -0.0264691 -0.509791 0.317814 0.177433 0.0926435 -0.203535 0.187604 -0.250225 0.177827 0.0652741 -0.219488 0.217577 -0.181521 -0.272455 0.31837 0.00493452 0.446574
33102 0.101929 0.110801 0.138017 0.596943 -0.332356 -7.06981e-05 -2.29282 7.00553 -0.132572 0.112435 -0.0799225 0.208759 0.0601001 0.207989 -0.565522 0.255769 -0.487711 0.321468 -0.010644 0.0551889 -0.0984467 0.158603 -0.183628 0.182567 0.0950254 -0.273483 -0.125985 -0.141248 -0.137834 0.182327 -0.236129 0.380722
33246 0.0869705 0.115087 0.0410577 0.58991 -0.345905 -0.164191 -2.42739 6.98949 -0.00536668 0.0317951 0.0141829 0.314681 0.14155 0.160393 -0.36964 0.231787 -0.694025 0.183341 0.0960011 0.0436543 -0.0642025 0.0824298 -0.307047 0.231517 0.193204 -0.139512 0.0634704 -0.0594527 -0.0499391 0.184377 -0.115238 0.327199
32415 0.196305 -0.0286159 0.185523 0.439035 -0.551497 -0.0509184 -2.44579 6.86735 0.0374265 0.117639 -0.118569 0.124551 0.118956 0.3641 -0.330953 0.152859 -0.579939 0.272463 -0.0544071 0.0859797 -0.132284 0.219723 -0.374022 0.333505 0.0396388 -0.180616 0.0308921 -0.107741 -0.193483 -0.00362129 -0.0854267 0.298788
33775 0.137099 0.115136 0.0401913 0.789488 -0.369013 -0.236163 -2.06539 6.23252 0.0601199 -0.0819352 -0.441273 0.474857 0.171441 0.360424 -0.516058 0.187086 -0.537103 -0.327183 0.149349 0.155968 -0.0632585 0.324703 -0.307729 0.46535 0.28948 -0.189688 -0.211726 0.0575037 0.108526 0.115902 -0.0463646 0.400778
31780 -0.0220339 0.268016 0.207166 0.855541 -0.35521 0.152865 -2.44369 6.52313 0.385564 -0.0520801 -0.155817 0.517016 0.320757 0.536541 -0.474853 0.214413 -0.477735 -0.0326603 0.240454 -0.00852948 -0.149619 0.448243 -0.287964 0.243744 -0.0259413 -0.309321 -0.409403 0.131227 -0.255552 0.426572 0.095338 0.177602
31450 -0.283836 0.286492 0.204314 0.833292 -0.576884 -0.356252 -2.31 5.50419 -0.104347 0.332804 0.00128965 0.549136 0.287818 0.496469 -0.773355 0.223561 -0.618265 0.130639 0.223979 -0.057637 -0.373496 0.336935 -0.408403 0.32899 0.171018 0.110898 0.00996588 -0.439819 -0.177659 0.313313 -0.0377108 0.778199
33232 -0.146405 0.0840244 0.0280734 0.64178 -0.20394 -0.257408 -2.39779 7.06745 -0.124511 0.000321703 -0.206372 0.234338 0.059522 0.173098 -0.511843 0.356124 -0.469557 0.222858 0.0493229 -0.00130528 -0.0983145 0.199038 -0.292032 0.304745 -0.053141 -0.0942205 0.0384381 -0.0883844 -0.0496645 0.143027 -0.0309532 0.344626
32052 0.1409 0.0834626 0.240922 0.683556 -0.3121 -0.133978 -2.47769 6.99132 -0.0928951 0.169128 -0.0202236 0.0458922 0.122592 0.123021 -0.677087 0.224461 -0.455411 0.193434 -0.00936821 0.178769 0.00329825 0.0535249 -0.32796 0.329826 0.109143 -0.168862 -0.123459 -0.185822 -0.115675 0.0905627 -0.113225 0.300624
32956 -0.006879 0.203065 -0.0274681 0.490755 -0.353726 0.155869 -2.4542 6.58254 -0.130766 0.158751 -0.0629208 0.257092 0.040006 -0.0797503 -0.574955 -0.0172152 -0.619817 0.0207988 -0.0121317 0.0483331 0.0447149 0.336962 -0.242106 0.332396 -0.266116 -0.131904 0.18339 -0.0734946 -0.0912417 0.124607 -0.0260555 0.363886
32109 -0.155496 0.356003 0.314491 0.692476 -0.500685 -0.0981114 -1.87046 6.11351 -0.129434 0.493129 -0.291781 0.212278 0.206459 0.190516 -0.662981 0.261349 -0.603543 -0.177737 0.259997 0.234183 -0.0639139 0.528152 -0.28086 0.341057 0.196665 -0.142205 -0.109946 -0.146264 0.222694 0.356064 -0.104889 0.433947
35852 0.0314285 0.212985 0.127801 0.87684 -0.242971 0.244884 -2.34142 6.12672 -0.0623241 0.251666 0.330992 0.56087 0.147493 0.251971 -0.585788 0.168298 -0.638236 0.188072 -0.0797678 0.43447 -0.233145 0.104968 -0.396201 0.328683 -0.0651397 -0.0223709 0.297224 -0.0310806 0.198927 0.190734 -0.00932156 0.576802
31879 -0.00384893 0.173641 -0.0348084 0.651876 -0.317055 -0.026076 -2.58188 7.04352 0.0226574 0.252429 -0.0552292 0.157407 0.0838593 0.129982 -0.598818 0.276944 -0.480564 0.0637413 0.119089 0.0485886 -0.141683 0.201044 -0.259418 0.323751 -0.0301172 -0.118 0.211897 -0.201411 0.034446 0.0375727 -0.0446122 0.335533
34926 0.0111922 0.262611 0.41098 0.773664 -0.161284 -0.0819739 -2.25628 6.28078 -0.129318 0.017305 -0.246462 0.183198 0.174496 0.539343 -0.545794 0.00373153 -0.657919 -0.123696 -0.0666871 -0.049167 -0.140034 0.14835 0.00781338 0.0612795 -0.044393 -0.0797293 -0.0482625 -0.351602 -0.10536 0.20882 -0.0563398 0.396716
33238 -0.0914809 0.190513 0.149923 0.519207 -0.452964 -0.118948 -2.61256 7.09684 0.0263669 0.080934 0.02797 0.104387 0.216539 0.235901 -0.555337 0.249676 -0.461955 0.216637 0.010383 0.128187 -0.00798545 0.13617 -0.112767 0.256526 -0.139261 -0.248068 0.221074 -0.0632128 -0.0918844 0.147754 -0.122505 0.309212
32828 -0.0191497 0.0128018 0.0584603 0.463168 -0.519916 -0.209956 -2.5522 6.63176 -0.0880157 0.279694 -0.00436575 0.0893794 -0.0661724 0.541401 -0.451665 0.278194 -0.614307 0.184887 0.0263566 0.0465546 -0.0263155 0.230285 -0.0473706 0.510017 -0.0830731 -0.238997 0.159294 0.139063 -0.0354091 0.335834 -0.0900036 0.469297
35739 -0.0734629 0.114052 0.165655 0.621151 -0.436636 0.119442 -2.59017 6.76008 0.172953 0.222707 -0.192211 0.298132 0.175289 0.255962 -0.584084 0.117383 -0.481524 0.105329 0.0792298 -0.0293985 -0.0524111 0.125162 -0.0541766 0.466953 -0.0138264 -0.211022 -0.259425 0.0217277 -0.00293857 0.184754 0.219772 0.380797
32329 0.0516283 0.206471 0.133626 0.581605 -0.22131 0.0441478 -2.57618 6.97622 -0.0255502 0.184836 0.013688 0.162621 0.0959236 0.148448 -0.655411 0.159052 -0.461127 0.0857787 0.0199705 0.246826 0.0583169 0.0192515 -0.440057 0.143452 -0.103602 -0.258874 0.159014 -0.119597 -0.0512969 0.155221 0.164649 0.449117
32732 0.0465749 0.419925 0.0615273 0.334004 -0.40643 0.00912831 -2.06515 6.39152 0.0536363 0.202685 -0.309957 0.310336 0.0847232 0.116586 -0.553081 0.230886 -0.482116 -0.077311 -0.0887852 0.185366 0.0946559 0.0702464 -0.471857 0.491512 -0.084204 -0.336951 0.114205 -0.187231 -0.0525117 0.0598734 0.220657 0.384144
32867 -0.0115579 0.0749349 0.186526 0.479134 -0.347633 -0.097889 -2.44613 6.93132 -0.162574 0.0595054 -0.0520115 0.242225 0.184188 0.0843997 -0.380308 0.403693 -0.434778 -0.0407574 0.0902351 0.379393 0.111532 0.0898584 -0.307527 0.245264 0.0507212 0.0491994 0.19735 -0.0134014 -0.131716 0.182823 -0.0577724 0.296117
36624 -0.0993566 0.264091 -0.000535756 0.385774 -0.371599 -0.165126 -2.34702 6.77516 0.0239492 0.0905393 0.0495042 0.261565 -0.105556 0.2398 -0.409812 0.26039 -0.631163 -0.087824 0.130229 0.0595296 0.154888 0.270933 -0.341933 0.187482 0.0701324 -0.102359 0.107797 -0.0564811 -0.0195452 0.134025 -0.0995896 0.416772
31551 -0.0448682 0.310084 -0.0603598 0.929605 -0.572418 0.0137529 -1.96849 5.91864 -0.0974015 0.0678986 -0.0512936 0.463403 -0.0774811 -0.0928134 -0.647659 0.321299 -0.97782 -0.0235565 0.258095 -0.03062 0.233889 0.109036 -0.36807 0.291326 0.100133 -0.154599 0.0637659 -0.13205 -0.083307 0.369871 -0.093844 0.491651
35761 -0.375741 0.107012 0.113002 0.679104 -0.379059 -0.0397523 -2.34904 6.76403 -0.154913 0.192153 0.0140718 0.173689 0.23879 -0.131752 -0.475937 0.333641 -0.612437 0.0491393 0.0693533 0.331096 0.087636 0.0201875 -0.10173 0.3282 0.0529896 0.203124 -0.0729631 -0.135402 -0.0684998 0.30994 -0.119343 0.27864
34615 -0.041168 0.114649 -0.00827999 0.522913 -0.51849 -0.0683797 -2.42496 6.82724 -0.00737411 0.386543 -0.0791038 -0.0158796 0.337455 0.0891111 -0.490948 0.474814 -0.394329 0.313741 0.114753 0.0961218 0.152863 -0.0253033 -0.251997 0.205419 0.0376902 0.0455118 0.0118293 -0.265817 0.0801023 0.241053 -0.176252 0.390602
35931 -0.137593 0.163 0.10241 0.519944 -0.441334 -0.019231 -2.627 6.76983 0.0307704 0.3319 0.103755 0.226456 0.102497 0.285207 -0.453077 0.408064 -0.432286 0.0542479 -0.179301 -0.116152 0.176527 0.445428 -0.103489 0.234188 -0.0151457 -0.0383059 0.105146 -0.307167 0.0622141 0.194749 -0.317373 0.300893
31111 -0.0563534 0.211032 0.0345438 0.658358 -0.34437 -0.0167412 -2.49166 7.19908 -0.0669716 0.0600156 -0.0109048 0.228292 0.169923 0.123498 -0.510112 0.256062 -0.558421 0.0379322 0.0522906 0.167998 0.109901 0.138813 -0.335994 0.256087 -0.035188 -0.122577 0.0262075 -0.15902 0.0943807 0.173184 -0.147142 0.279924
32549 -0.0847949 0.207857 0.00923446 0.416744 -0.376381 -0.0994205 -2.33763 6.75512 0.106088 -0.0534038 0.0225724 0.253221 -0.0847816 0.0654087 -0.491362 0.217045 -0.68628 -0.125052 0.0822616 -0.053608 0.000509455 0.333701 -0.329036 0.0970159 0.199249 -0.0770082 0.167449 -0.174408 0.0268581 0.321771 -0.212462 0.206411
35958 -0.182525 0.235793 -0.265787 0.649393 -0.363279 0.143982 -2.24158 6.67978 -0.14762 0.296861 -0.0703033 -0.0370032 -0.263829 0.110125 -0.591708 0.212283 -0.648089 -0.0196505 0.10937 0.237631 -0.263068 0.360289 -0.230495 0.409211 0.0596691 -0.134366 0.0671461 -0.0935705 -0.0349178 0.0726351 -0.256696 0.398828
33305 -0.248172 0.382667 0.017843 0.466466 -0.179829 0.0892468 -2.50996 6.81375 -0.094298 0.13291 -0.0262522 0.126978 -0.0770533 0.548482 -0.48349 0.0229395 -0.699652 0.0917555 0.0781116 0.0582619 -0.140871 0.0647785 -0.158857 0.34074 -0.0398464 -0.0225099 0.170442 -0.0423257 -0.0500306 0.221418 -0.397437 0.467961
32027 -0.0858105 0.21349 -0.0205702 0.669392 -0.433137 0.11025 -2.73648 6.706 0.0440889 0.237904 0.102897 0.21911 0.0194581 0.138127 -0.620821 0.135808 -0.686937 0.178125 0.129676 0.0374097 0.193008 0.171498 -0.263757 0.356806 0.0171352 -0.0709317 0.0310622 -0.255994 -0.0484165 0.298714 0.313554 0.409357
31061 0.110223 0.348549 0.0199484 0.825521 -0.481812 0.0154441 -2.07443 6.06395 -0.197158 0.200544 -0.155941 0.179262 -0.0887958 0.160272 -0.697717 0.275601 -0.821213 0.0277383 0.126384 0.157615 -0.289839 0.206562 -0.694566 0.386248 -0.0149886 -0.0288751 0.0519259 -0.1268 -0.21087 0.290566 0.0348738 0.789296
32871 0.0394629 0.171837 -0.0791463 0.646457 -0.275239 -0.0477024 -2.54207 6.94203 0.127316 0.0665626 -0.0612072 0.0652105 0.0261004 0.0617038 -0.504915 0.30131 -0.621363 0.0281047 -0.074374 0.012417 -0.097375 0.296511 -0.276066 0.205916 0.0515367 -0.0987266 0.130828 -0.101967 -0.000761911 -0.0411543 -0.0239267 0.413868
34344 -0.136542 0.072622 0.173741 0.641364 -0.283358 -0.0562843 -2.13427 6.18478 -0.141932 0.382217 0.252489 0.335807 0.133711 -0.0269621 -0.773369 0.139444 -0.544263 0.188585 0.122343 -0.134629 -0.293932 0.118716 -0.413189 0.279884 0.079746 -0.0356024 0.13511 -0.354121 0.157488 0.1878 -0.221139 0.458079
34596 -0.274098 0.24203 -0.0704088 0.710909 -0.347852 -0.181898 -2.60735 7.28668 0.00642028 0.104096 -0.00384943 0.0762296 -0.00112207 0.305845 -0.527009 0.394293 -0.62425 0.24336 0.112014 -0.0816359 -0.110972 0.171764 -0.263181 0.195902 0.0134233 -0.264145 0.163648 -0.122231 -0.0124186 0.252795 -0.0995118 0.335383
31390 0.0190679 0.125508 -0.314673 0.498923 -0.241661 0.245514 -2.00435 5.9024 -0.0257185 0.411216 -0.191775 0.574641 0.0153301 0.26898 -0.480243 0.196533 -0.588558 0.193408 0.119138 0.0453986 0.042964 0.142468 -0.422312 0.129295 -0.004885 -0.274991 0.124042 -0.481854 -0.242822 0.44956 -0.0120002 0.411879
33807 0.256487 0.234812 -0.143886 0.426676 -0.36343 0.00545159 -2.33733 6.93999 0.157771 0.114095 -0.196715 0.229841 0.180371 0.397889 -0.252981 0.131034 -0.659025 0.105064 0.0878727 0.205737 0.0709019 0.0634998 -0.339975 0.221262 -0.0966448 -0.211761 0.0309917 -0.367239 -0.184977 0.383113 -0.0694774 0.0763435
32498 0.322998 0.0419611 0.392572 0.78224 -0.259984 0.0446415 -2.23922 6.71524 -0.105519 0.121663 0.0216254 0.236869 -0.0164513 0.144251 -0.426403 0.253983 -0.643876 0.506776 -0.0916016 -0.154593 -0.17402 0.290803 -0.192348 0.298067 0.209135 -0.180092 -0.0112336 -0.158677 0.0722944 -0.0127245 -0.354458 0.305763
34353 0.236108 -0.0150975 0.529072 0.714867 -0.512283 -0.0187905 -2.38021 6.56531 -0.368913 0.00240049 -0.391113 0.261775 -0.285279 0.219657 -0.513404 0.239338 -0.498163 0.350094 -0.0130217 0.0334094 -0.0336159 0.391722 -0.358913 -0.0616829 0.141425 -0.14584 0.124589 -0.250404 -0.089062 0.159248 0.0637481 0.265774
32269 0.226157 0.228861 0.373213 0.520141 -0.571268 -0.117846 -2.3335 6.35614 -0.277453 0.00659099 0.0912622 0.285767 -0.106454 -0.0318101 -0.631511 0.168546 -0.548689 0.225922 0.151792 -0.0698527 -0.222096 0.561636 -0.383071 0.0361259 -0.0243331 -0.137872 -0.0041835 -0.0976866 0.0628492 0.32781 -0.0114724 0.361434
35368 -0.0719093 0.13227 0.00265003 0.649023 -0.382261 -0.109638 -2.56214 7.2903 -0.106589 0.0830254 0.0114513 0.222416 0.227042 0.236104 -0.533086 0.158069 -0.580584 0.135165 0.0829262 0.0785011 0.0101498 0.246561 -0.294114 0.254335 0.0205889 -0.193414 0.0111993 -0.208585 0.0785918 0.160089 -0.204654 0.305985
32230 -0.27983 0.0632808 0.0182747 0.600563 -0.672073 -0.0370988 -1.94338 6.57434 0.242503 0.0767575 0.0330466 0.391314 0.326735 0.324086 -0.538165 0.0676595 -0.652053 0.172552 -0.132159 -0.240302 0.0556299 0.517743 -0.339418 0.209164 0.0841017 -0.18385 0.169888 -0.285914 0.151688 -0.111791 -0.122197 0.403242
34097 0.0644607 0.0325577 0.0944364 0.443324 -0.460188 -0.317235 -2.3536 6.20455 0.211206 0.357052 -0.185697 0.381458 0.145431 0.186847 -0.64966 0.139494 -0.409908 0.149619 0.0202458 -0.0481668 -0.0407956 0.163549 -0.265173 0.489491 0.341258 -0.34424 -0.0531912 0.047242 0.31581 0.221827 -0.352598 0.498419
34617 -0.0188361 0.103278 0.355285 1.00631 -0.0255805 -0.340347 -2.36573 6.18002 0.25041 0.0874847 -0.151122 0.710296 0.0991042 0.278515 -0.847314 0.232239 -0.498495 -0.00289833 0.418926 0.358141 -0.0480861 -0.132593 -0.43166 0.490798 0.0580716 -0.318078 -0.342919 0.33205 0.20234 0.0614128 -0.00938978 0.775007
33504 -0.197933 -0.0040296 0.201743 0.371638 -0.411808 -0.370869 -2.56906 6.47437 0.273976 0.233803 -0.0158484 0.315174 0.156864 0.353943 -0.389266 0.296763 -0.654451 -0.250396 -0.39718 0.0789654 0.163536 0.345294 -0.279016 0.110168 0.197168 -0.102447 0.214808 -0.220711 -0.0558071 0.123364 0.092515 0.61733
33383 -0.0678037 0.0954383 0.229465 0.39413 -0.447448 -0.293406 -2.36333 6.87083 0.066613 0.173998 -0.229562 0.212014 0.160142 0.16674 -0.421303 0.33051 -0.601447 -0.0551985 -0.198089 0.0501523 0.00704828 0.195922 -0.259028 0.101081 0.0539911 -0.0883125 0.055688 -0.237394 -0.178167 -0.0263642 -0.0857936 0.646925
36600 0.00838966 -0.0447235 -0.0313589 0.601384 -0.516044 -0.0271133 -2.19435 6.9027 0.144944 0.112942 -0.0282679 0.344235 0.109024 0.225235 -0.528602 0.172951 -0.631101 0.0589778 -0.0566707 0.0405879 0.0502942 0.283011 -0.226505 0.20057 0.0568993 -0.0567622 0.0560009 -0.163695 0.0792889 0.12788 -0.164148 0.418346
33632 -0.038561 0.0547985 0.0786076 0.547208 -0.414774 0.0533415 -2.28526 7.08821 -0.0423794 0.0658444 -0.00375237 0.166865 0.113774 0.148861 -0.457611 0.362832 -0.48999 0.223898 0.0100727 -0.0274753 -0.130019 0.0961419 -0.304878 0.295955 -0.00684211 0.00896282 0.0896429 -0.123328 -0.0290491 0.262573 -0.126332 0.282783
32886 0.490289 0.330443 -0.476404 0.819216 -0.580011 -0.0586898 -2.39679 6.15393 -0.0471977 0.0552172 0.256906 0.326431 0.483765 0.216941 -0.575764 0.210972 -0.430565 0.0445659 -0.453355 0.22222 0.126773 0.120769 -0.101736 0.476454 0.129208 0.368821 0.145509 0.0315016 -0.00454206 0.304748 0.134906 0.361415
31290 0.423282 0.183194 -0.130758 0.803577 -0.490713 0.0854309 -2.33915 6.27865 -0.19338 -0.122657 0.196707 0.388996 0.442186 0.109296 -0.391291 0.299738 -0.501344 0.200454 -0.0285601 0.175322 -0.0335496 0.231147 0.0688204 0.451319 -0.0332535 0.333326 0.399644 -0.201403 -0.175812 0.470176 0.055402 0.371004
33186 -0.0626382 0.164227 -0.0559292 0.687394 -0.45569 0.0728883 -2.3723 6.72361 0.00877094 0.0956902 0.0459278 0.230045 0.229233 0.0470638 -0.436907 0.132381 -0.666344 0.117207 0.108666 0.188294 -0.00694048 0.341097 -0.344747 0.276421 0.13272 -0.0233394 -0.0588142 -0.00665571 0.0915952 0.13898 -0.0488588 0.278376
34385 0.167389 0.180543 -0.0563559 0.559462 -0.481155 -0.140328 -2.48843 6.91978 -0.0714889 0.21997 -0.106652 0.189401 0.0590827 0.200706 -0.532803 0.253128 -0.611087 -0.0305983 0.241969 -0.0164845 -0.103483 0.166545 -0.36382 0.291351 -0.166228 -0.0888948 0.0287345 0.174635 -0.0103545 0.140414 -0.206687 0.320766
31736 0.0587533 0.227021 0.0435965 0.670213 -0.535552 -0.10009 -2.44529 5.95018 -0.17912 0.194547 -0.112228 0.286822 0.324205 0.360526 -0.248917 0.383194 -0.770607 0.286727 0.229538 -0.203211 -0.0471712 0.220363 -0.607832 0.128873 -0.395161 -0.247587 0.172079 0.220364 -0.401145 0.244627 -0.258068 0.400902
34133 0.0964158 0.150436 0.0950762 0.48981 -0.453068 -0.105208 -2.63754 6.88003 -0.0590207 0.171823 -0.0175122 -0.0854274 0.0279592 0.328132 -0.339069 0.365153 -0.532844 -0.0502728 0.13905 0.00351696 -0.148575 0.275576 -0.180954 0.38126 -0.0660655 -0.160112 -0.107618 0.135455 -0.0481152 0.166085 -0.249901 0.274276
35763 0.416266 0.410987 0.481753 0.541557 -0.657799 -0.35455 -2.24625 5.82608 -0.325169 0.142206 0.327744 0.19049 -0.183013 0.408425 -0.216499 0.578425 -0.621938 0.414304 -0.0148174 0.0144658 -0.0755299 0.49166 -0.539721 0.0768228 0.0250361 -0.144914 -0.118469 -0.00516249 -0.385858 -0.0318129 -0.012302 0.656147
36837 0.218821 0.129897 0.197449 0.640215 -0.372303 0.00185271 -2.44161 6.78989 -0.0981572 0.293753 0.0327929 0.122599 0.0525897 0.0967042 -0.544526 0.317047 -0.462038 0.242443 -0.0160635 0.109306 -0.0912325 0.134139 -0.301253 0.240371 0.187207 -0.145261 -0.0643769 -0.215872 -0.0677113 0.0641354 -0.150925 0.301579
36685 0.265722 0.322899 0.450526 0.701703 -0.324768 -0.303774 -2.03363 5.86879 -0.20047 -0.0929996 0.223888 0.238602 0.0338798 0.530391 -0.303891 0.225296 -0.878311 0.420096 -0.106186 0.456492 -0.00781618 0.0408049 -0.349315 0.205248 0.119343 -0.502661 -0.153721 -0.160256 -0.597759 -0.0358071 -0.12419 0.534783
32131 0.0386123 -0.105517 0.111256 0.537929 -0.668271 -0.327199 -2.31166 6.77914 0.0604393 0.236332 0.18802 0.289076 0.215239 0.466473 -0.617785 0.0373827 -0.593394 0.0652148 0.0222305 0.186921 -0.0454711 -0.0225849 -0.220326 0.50288 0.04228 -0.119243 -0.0957333 -0.261604 0.0202825 -0.0904934 -0.108323 0.555417
35629 -0.370165 -0.169065 0.32701 0.667862 -0.187986 -0.046684 -2.30298 6.73916 0.148694 0.201221 0.181442 0.134553 0.0612187 0.267256 -0.710008 0.245545 -0.381463 0.153934 -0.101554 0.045473 0.0514509 0.0492187 -0.225653 0.289319 -0.0136256 -0.11066 0.153437 0.0411048 -0.0545552 0.487691 -0.252125 0.0894996
34635 0.0626821 0.0463206 0.127742 0.584147 -0.427499 -0.141936 -2.52485 7.01597 -0.0108333 0.0981412 -0.0787419 0.188852 0.0969114 0.235579 -0.392783 0.210853 -0.676506 0.150492 0.085556 0.0333608 -0.0053423 0.110936 -0.300397 0.303243 0.0775746 -0.158471 -0.0566906 -0.0800807 0.0269482 0.155606 -0.0698528 0.285848
35607 -0.1924 0.323496 0.197148 1.25559 -0.273903 0.164264 -2.03002 5.7938 -0.14427 0.117716 -0.0512957 -0.0279961 0.0361659 0.602977 -0.623378 0.361011 -0.908626 0.529603 0.124546 0.000342596 -0.198544 0.36465 -0.529458 0.197963 -0.379637 -0.0942924 0.0362444 -0.095606 0.0242038 0.246289 -0.117551 0.775614
35255 0.0330022 0.272947 0.0190048 0.400037 -0.327964 -0.00365868 -2.41819 6.65456 -0.158121 0.184352 -0.152525 0.241455 0.0672826 0.347473 -0.372076 0.0335533 -0.795673 0.085741 0.0195764 -0.127671 -0.00068343 0.291179 -0.396094 0.447365 -0.222067 -0.180273 0.123085 0.13993 -0.0440655 0.165553 -0.150305 0.392226
35876 -0.049171 0.111471 0.124627 0.457451 -0.398892 -0.160944 -2.50336 7.10645 -0.0769581 0.0840885 -0.0252956 0.0695504 0.0712685 0.201618 -0.462657 0.28707 -0.490639 0.179895 0.00521707 -0.0339345 -0.0915867 0.0723364 -0.254771 0.292755 -0.000793063 -0.0403883 0.108941 -0.016699 0.0457431 0.222179 -0.122208 0.282292
36917 0.110399 0.0357507 0.137898 0.571969 -0.544716 -0.013084 -2.30938 6.75739 -0.0795283 0.0994164 0.186012 0.279349 0.0166868 0.112534 -0.40022 0.320163 -0.666909 0.279072 -0.0330211 0.0943493 -0.185043 -0.0191752 -0.327525 0.144379 0.194704 -0.0707649 -0.0779166 -0.107169 -0.0924834 0.242631 -0.140924 0.395763
32804 -0.0396783 -0.0830626 -0.0258363 0.503703 -0.71359 -0.160053 -2.17952 6.7386 -0.132211 0.0432588 0.290349 0.276954 0.186275 0.41051 -0.592144 0.0438234 -0.594346 -0.0504145 0.020303 0.123589 -0.0504273 0.185882 -0.328062 0.421497 -0.0386111 -0.0818114 -0.153993 -0.373769 -0.0496772 -0.00983103 -0.296078 0.402929
35954 0.226285 0.0809212 0.273745 0.793575 -0.370176 -0.315149 -2.00885 5.79859 -0.222858 0.474514 0.100338 0.639973 -0.0920503 0.374814 -0.829416 -0.0734327 -0.636625 -0.0339185 -0.0129898 -0.0368069 -0.0944646 0.262857 -0.442623 -0.0912683 -0.126776 -0.145371 0.211598 -0.304862 0.444081 0.362109 -0.166888 0.392877
36807 0.218666 0.286705 0.176297 0.729656 -0.569751 -0.228857 -1.81919 6.1981 -0.133823 0.364139 0.0485837 0.150666 0.108271 0.199151 -0.54078 0.470035 -0.549275 0.225471 0.261676 0.240515 0.201426 0.290466 -0.147738 0.347063 -0.0724627 0.136855 0.0171703 -0.0413596 0.177695 0.435801 -0.218552 0.636705
35038 0.000404983 0.229215 0.171011 0.667073 -0.245822 -0.103313 -2.42261 6.81629 0.0659691 -0.0285744 -0.0308301 0.0974905 0.0152259 0.296323 -0.666015 0.360279 -0.482726 0.0127617 -0.137717 -0.0321819 0.029895 0.24218 -0.136868 0.0987157 0.0824432 -0.026575 -0.0324945 -0.00523051 0.131762 0.250787 -0.296812 0.461372
31139 -0.192814 -0.0911607 -0.0365863 0.683427 -0.471351 0.0867692 -2.25258 6.89445 0.319364 0.144074 0.0179954 0.258812 0.0626495 0.335358 -0.490173 0.22126 -0.627991 0.106336 -0.0466385 0.172039 0.0344325 0.125398 -0.232742 0.337568 0.126936 -0.0928307 -0.050528 -0.120333 0.293296 0.310887 -0.193237 0.162316
32870 0.119272 0.223594 -0.0241083 0.592489 -0.43793 -0.324716 -2.39942 6.73845 0.0288193 0.138794 -0.0248511 0.311738 0.124465 0.176522 -0.660786 0.229786 -0.416278 0.137094 0.0658454 -0.0221766 -0.132253 0.103394 -0.232678 0.287655 0.0646174 -0.209014 0.0970327 -0.29309 0.167689 0.131242 -0.0955102 0.373721
33483 0.0261266 0.335263 0.101812 0.339793 -0.305535 0.0535215 -2.40145 7.02774 -0.143343 -0.00303926 -0.0287605 0.192974 0.16593 0.250836 -0.38746 0.342726 -0.425822 -0.0482813 0.0033916 -0.0243345 -0.0339597 0.0987051 -0.233169 0.182004 -0.108565 -0.253753 0.193634 -0.28328 0.0659415 0.126011 -0.0778244 0.175184
32039 -0.0505521 0.226814 -0.125684 0.568077 -0.258081 -0.0405055 -2.49287 6.88107 -0.070697 0.0396786 0.0180133 0.23253 0.0571531 0.352924 -0.517873 0.195512 -0.447164 0.0865134 0.101028 -0.0458251 0.114732 0.169091 -0.256618 0.154352 0.0599563 -0.156268 0.0657045 -0.159202 -0.120989 0.065132 -0.2148 0.402518
33348 0.0209074 0.0975193 0.126655 0.539359 -0.382628 -0.147828 -2.49474 7.07759 0.0422491 0.185767 -0.0886283 0.0200916 0.146034 0.130351 -0.452725 0.20159 -0.550261 0.251431 0.0605534 0.102946 -0.128866 0.23803 -0.307838 0.268553 -0.0196292 -0.16028 0.0778759 -0.000657917 0.0866766 0.179332 -0.115025 0.232286
37085 0.0415434 0.0774354 -0.0321112 0.61483 -0.546226 -0.144189 -2.48584 6.88766 -0.0481227 0.235568 0.103499 0.197743 0.208437 0.129135 -0.482837 0.113257 -0.61106 0.109545 0.0725862 0.0821652 -0.0103844 0.285153 -0.394456 0.21604 -0.0673951 0.0208529 0.144933 0.0827386 0.164016 0.186496 -0.0933973 0.360019
32561 -0.199859 -0.0665834 0.00878167 0.491709 -0.491978 -0.126633 -2.35126 7.06784 -0.0579642 -0.0990804 0.112735 0.204189 0.162047 0.154509 -0.509292 0.144818 -0.543836 0.160019 0.0630951 0.111938 -0.069363 0.138696 -0.384415 0.246146 -0.0831894 0.0426119 -0.037859 -0.158223 0.00814527 0.202441 -0.034298 0.300944
33295 -0.0321292 0.258956 0.158585 0.673099 -0.299703 -0.225887 -2.40583 6.51032 0.0495508 0.085749 0.311837 0.481086 0.0506621 0.105545 -0.616475 0.207325 -0.621269 0.106989 -0.080211 0.136187 0.0710293 0.247549 -0.23076 0.417175 0.135541 -0.112735 0.075515 -0.163098 0.396879 0.0553976 -0.10891 0.534551
36291 0.0974815 0.270526 -0.0095573 0.603021 -0.278116 -0.152396 -2.22656 6.48922 -0.13505 0.176186 -0.217491 0.220911 0.179758 0.195171 -0.429135 0.248117 -0.634514 -0.0260645 0.0870624 0.18879 0.0343173 0.0579462 -0.210918 0.169789 0.0511151 -0.191486 -0.0953475 -0.24907 0.028237 0.268415 -0.0141529 0.421759
35723 0.0580504 0.462228 0.136054 0.559586 -0.32069 0.0262725 -2.28699 6.51602 -0.246447 0.129428 0.0723927 0.360999 0.310465 0.0830838 -0.458478 0.483757 -0.389719 0.0295837 0.111466 0.148619 -0.216174 0.281512 -0.253685 0.286453 0.0372965 -0.237498 0.0667482 -0.305538 0.0594441 0.146668 -0.0860406 0.341215
33907 -0.256465 0.257981 0.0693057 0.617761 -0.164401 -0.0407517 -1.87409 6.1376 -0.182776 0.0996041 -0.37912 0.0700548 0.144481 0.291051 -0.743404 0.128582 -0.492229 -0.175637 0.0853802 0.214313 -0.318831 0.455836 -0.0312811 0.468903 0.146499 -0.109627 -0.21423 -0.164313 0.010175 0.224277 -0.452352 0.717265
31950 -0.0578572 0.242364 0.125247 0.634147 -0.44289 -0.0462079 -1.98461 6.2518 -0.00849444 0.0792211 -0.0563386 0.382681 0.434324 0.211431 -0.542445 0.377944 -0.628637 -0.0110348 -0.102353 0.0897894 -0.100953 0.00959989 -0.250522 0.395724 0.0912898 -0.314833 0.173985 0.0270491 -0.0989677 0.228429 0.0445734 0.466773
32735 0.00273403 0.052417 0.139865 0.677341 -0.417719 -0.116735 -2.35912 6.79619 -0.0902567 0.0187853 -0.12791 0.142491 0.215749 0.169978 -0.506858 0.340343 -0.540377 0.161461 -0.0119071 0.202267 0.00191299 0.151918 -0.31874 0.27418 -0.0257002 -0.125077 -0.0779185 -0.0218162 -0.117739 0.0516558 -0.0989157 0.453907
35445 -0.0612468 0.557845 0.119274 0.481092 -0.377913 0.037272 -2.27935 6.9433 -0.095937 -0.0211708 0.100343 0.108082 0.145808 0.173917 -0.359708 0.434321 -0.565204 0.0713886 0.0643574 0.289559 -0.102956 0.204306 -0.0991185 0.481727 2.16308e-05 -0.150815 0.113046 -0.0360787 0.213221 0.1384 -0.037452 0.277355
33916 -0.0843526 0.279449 0.0798769 0.806893 -0.3597 -0.0384384 -2.20465 6.39881 0.129049 0.212912 -0.447704 0.189612 -0.0546471 0.388317 -0.441936 0.354948 -0.695469 -0.00466222 -0.0370416 0.203216 -0.0449414 0.29315 -0.157582 0.0560639 0.0143916 -0.185233 0.077425 -0.208936 0.170895 -0.12867 -0.540503 0.401691
35442 -0.0343141 0.325147 -0.0199252 0.643374 -0.472311 -0.129659 -2.22756 6.4234 0.235383 0.201893 -0.268174 0.127385 -0.247353 0.435044 -0.572222 0.374256 -0.481948 0.108311 -0.0275262 0.247803 -0.260497 0.236573 -0.217404 0.171675 -0.0524902 -0.0593928 0.248808 -0.229815 -0.0281641 -0.00368186 -0.240574 0.559981
31638 -0.111784 0.186578 0.0503152 0.662787 -0.241205 -0.120374 -2.4693 7.0707 0.092003 0.0616412 -0.036607 0.114093 0.104334 0.10885 -0.484005 0.435237 -0.518182 0.00327836 0.144859 0.00613295 -0.0519799 0.226452 -0.250849 0.211953 -0.080284 -0.160705 0.159007 -0.125636 0.0392953 -0.0124274 -0.0789769 0.328965
37033 0.285912 0.518524 -0.0220554 0.594659 -0.45093 -0.143104 -2.07117 5.92343 0.112068 0.16219 0.0914555 0.661152 -0.100742 0.204002 -0.338701 0.592624 -0.753651 0.24366 0.064509 0.102147 0.354399 0.355476 -0.415393 0.321968 0.212946 0.0898395 -0.0596311 0.150094 0.292419 0.212229 -0.229097 0.587332
33675 0.246036 0.102322 0.128711 0.592663 -0.335259 -0.186508 -2.41605 6.93611 -0.0167233 0.0212168 -0.019317 0.113217 0.0366157 0.223384 -0.396815 0.177542 -0.638499 0.0795912 0.106314 0.109004 0.000708883 0.172438 -0.331109 0.173117 0.13319 -0.179261 -0.0783371 -0.0354608 -0.0508225 0.146545 -0.0193111 0.305566
36918 -0.0619524 -0.00136131 0.0804981 0.705604 -0.293079 -0.0495958 -2.51934 6.88676 -0.0584723 0.198768 0.0133175 0.354059 0.117585 0.270547 -0.359327 0.363015 -0.604467 0.232523 -0.0817277 -0.041401 0.0644292 0.165499 -0.222945 0.30914 -0.0145692 0.0136717 0.19984 -0.131672 -0.0290598 0.137454 -0.255249 0.226284
34186 -0.182156 0.210515 0.0623214 0.412053 -0.518543 0.188559 -2.18776 6.62929 -0.228627 0.0475939 0.0333477 0.377903 0.1846 -0.0736659 -0.629921 0.248829 -0.429696 -0.149211 0.0164262 0.157116 0.138204 0.0485785 -0.233179 0.100848 -0.12135 -0.448086 -0.0494972 -0.0581789 -0.158519 0.192122 -0.143362 0.400554
31499 -0.0711024 0.280361 0.0991552 0.654725 -0.288007 0.20759 -2.4681 6.78506 0.0153169 -0.0476241 0.139933 0.216529 0.16364 0.139755 -0.413969 0.197154 -0.804875 0.0886034 0.0321644 -0.166742 0.143553 0.0559289 -0.358309 0.213241 -0.305763 -0.254877 -0.072659 -0.062323 -0.180708 0.227016 -0.019977 0.325075
32739 -0.295738 0.300904 0.0975381 0.474471 -0.451277 0.236824 -2.06479 6.55062 -0.0212115 0.141677 0.00236318 0.321265 0.0152392 -0.0202236 -0.481773 0.116055 -0.677412 0.040186 0.0605873 -0.0754345 0.264566 0.277735 -0.0740482 0.340768 -0.211389 -0.0895848 -0.0306697 0.115335 -0.155828 0.0663796 -0.0607969 0.568312
31130 -0.121548 0.358215 0.157428 0.514757 -0.283275 -0.0445324 -2.24629 6.95574 -0.13051 0.277199 -0.123741 0.249632 -0.0817696 0.261052 -0.453739 0.137648 -0.743556 0.0452909 0.13055 -0.0249401 0.221838 0.116229 -0.313125 0.300793 -0.0167541 0.0502918 0.0517472 -0.262582 0.123911 0.251425 -0.229019 0.322233
34492 0.02012 0.345488 0.142693 0.497918 -0.421523 0.00515661 -2.12099 6.46485 -0.0589496 0.267511 0.043003 0.432356 0.210988 0.302238 -0.557962 0.119831 -0.611506 0.0198184 0.18395 0.203946 0.00569195 0.1611 -0.370234 0.367647 -0.0455758 -0.224162 -0.2609 -0.186829 -0.438324 0.297037 -0.0713265 0.473749
35189 -0.0250746 0.277151 0.0115669 0.775884 -0.305501 -0.197237 -2.15896 6.43684 -0.362744 0.253468 -0.175941 0.252448 0.308314 0.374557 -0.638096 -0.0924 -0.849668 -0.0734568 0.0800856 0.144604 -0.00935103 0.129078 -0.309947 0.149613 0.374461 -0.151433 -0.196003 -0.0681206 0.0916144 0.499312 -0.278387 0.366618
36916 -0.0289024 0.319955 0.12579 0.541289 -0.301743 -0.0997144 -2.19534 6.3861 -0.29343 0.225788 -0.242476 0.266231 0.383201 0.0148673 -0.571666 0.17949 -0.644756 0.129096 -0.20033 0.237965 -0.0679835 0.109868 -0.146386 0.451359 0.115481 -0.262041 0.13819 -0.156844 0.00543882 0.191213 -0.141569 0.644775
36254 -0.0927055 0.222838 0.0394201 0.672022 -0.411625 -0.120758 -2.19365 6.61061 -0.169675 0.0349448 -0.180491 0.362514 0.224598 0.277409 -0.453157 0.000904709 -0.684334 0.062863 0.284286 0.23872 -0.0566029 0.249967 -0.214422 0.316123 0.0539041 -0.135283 0.0390479 -0.2799 0.141413 0.311319 -0.269887 0.186096
33224 -0.0294502 0.132074 -0.0293499 0.70674 -0.24575 -0.0271464 -2.48348 6.93828 0.0285963 0.0408279 0.0528719 0.157282 -0.0402464 0.0225245 -0.537352 0.333655 -0.626892 -0.0497417 0.126302 0.0341306 0.0322949 0.153104 -0.308295 0.177492 -0.0853738 -0.132299 0.108743 -0.098428 0.071894 0.110064 -0.0994038 0.290026
33666 0.00383248 0.14635 -0.00413418 0.642516 -0.250623 -0.0145802 -2.51244 6.80336 0.0647697 0.152484 -0.0592834 0.00444485 0.0378629 0.0375853 -0.44185 0.187466 -0.684133 -0.159116 -0.114232 0.0693116 -0.117105 0.215484 -0.379824 0.143074 -0.0619407 -0.0072639 0.147037 -0.0759399 -0.00626844 0.06224 -0.0988618 0.320072
35254 0.185283 -0.0293314 0.038642 0.441315 -0.541857 -0.12573 -2.11121 6.97909 0.182417 0.0334666 0.0376592 0.195541 0.129715 0.356263 -0.328846 0.224232 -0.664809 0.0953733 -0.163836 0.111615 -0.0766452 0.157787 -0.161808 0.28829 0.0765515 -0.246042 -0.122287 -0.234994 0.127056 0.114398 -0.101045 0.363069
34326 0.0425654 -0.0337343 0.0629332 0.449914 -0.384271 0.189665 -2.2545 6.45582 0.183667 0.34984 0.0238366 0.261669 0.189323 0.314608 -0.296466 0.193205 -0.568198 0.22118 -0.253656 0.0274037 -0.093102 0.0608166 -0.262248 0.503764 0.14341 -0.221406 -0.060178 0.072341 -0.0581942 0.0549744 -0.05647 0.343563
30968 0.189943 -0.0218037 0.0912843 0.450165 -0.423542 -0.0997232 -2.27331 6.94095 0.238452 0.0118958 0.11196 0.268884 0.0438798 0.200679 -0.375186 0.165823 -0.635584 0.123417 -0.163621 0.125373 -0.0283936 0.0994455 -0.163929 0.337856 -0.102852 -0.139856 -0.112545 -0.18959 0.0798075 0.153964 -0.131359 0.402128
32781 -0.104222 -0.0336585 0.181011 0.666936 -0.326021 -0.0377722 -2.30477 6.68543 -0.0239582 0.379561 -0.00439155 0.268349 -0.0575677 0.389349 -0.455959 0.167258 -0.538763 0.0892039 0.0514354 0.109191 0.174456 0.211308 -0.184205 0.411952 0.0197391 -0.00894976 0.0407088 -0.017954 -0.00548303 0.348499 0.0181779 0.343853
34858 -0.149461 0.116807 -0.0869301 0.390856 -0.406947 -0.318086 -2.36913 6.86595 -0.242721 0.124985 -0.0561802 0.373869 0.0238175 0.202916 -0.436041 0.338006 -0.330051 0.180991 -0.162126 -0.0807921 -0.302133 0.214127 -0.350823 0.158146 0.0296489 -0.162879 0.0836855 -0.096981 0.0799923 0.250102 -0.0527421 0.290382
35650 -0.0253534 0.0463261 0.172028 0.763461 -0.183343 -0.293739 -2.204 6.50156 -0.407115 0.122643 0.00913161 0.467534 0.0454373 0.0315662 -0.472554 0.12545 -0.523485 -0.152757 0.183024 0.270722 -0.134266 0.550394 -0.108914 0.361801 -0.0068475 -0.0980705 -0.41501 0.0596594 0.207253 0.39379 0.00931726 0.273126
36221 0.033685 0.248312 0.036834 0.582527 -0.414874 -0.0765857 -2.27589 6.64065 -0.132203 0.0438258 -0.137512 0.393344 0.0913981 0.0924747 -0.596281 0.276655 -0.485582 0.126713 0.107319 0.054386 -0.0119372 0.0825971 -0.311079 0.19332 -0.000533899 -0.080561 0.0183599 -0.0443442 -0.0279717 0.126434 -0.0184681 0.381712
34700 -0.132211 -0.0279343 0.140891 0.748013 -0.0958815 -0.123299 -2.34936 6.5397 0.0356957 0.27487 0.203836 0.298422 0.210203 0.357245 -0.510787 0.294672 -0.494037 0.20656 -0.0356758 0.0562924 -0.190589 0.295886 -0.437632 0.195006 0.111112 -0.361762 0.0374575 -0.0699723 -0.230746 0.175562 -0.271825 0.336237
32941 0.0105242 0.0575625 0.0845308 0.655111 -0.317126 -0.235246 -2.01397 6.329 0.265563 0.297659 -0.0231374 0.214085 0.325198 0.0885375 -0.694218 0.297932 -0.57456 0.101509 0.0225336 0.0662491 -0.322126 -0.0306011 -0.523596 0.43479 -0.0238038 -0.0592869 0.0185416 -0.105728 0.0370644 0.575266 -0.223296 0.326562
36678 0.101512 -0.0339873 0.0258719 0.703478 -0.463761 -0.148611 -2.61165 6.64847 -0.0765585 0.141696 0.0941232 0.173033 0.0163342 0.119464 -0.485789 0.206589 -0.70276 0.168108 0.154241 0.17821 0.0267851 0.277035 -0.394491 0.168384 0.00399448 -0.134913 0.173867 0.0871783 0.0641275 0.292279 -0.127569 0.376351
33053 0.136628 -0.0742374 -0.310144 0.665578 -0.189342 0.144014 -2.40831 6.65431 -0.180083 0.180167 -0.0104235 0.167287 -0.0545822 0.35424 -0.574077 0.182446 -0.548086 0.0634248 0.207426 -0.126774 -0.259481 0.253349 -0.503542 0.183216 -0.185316 -0.219959 0.141846 -0.00609179 -0.0363346 0.0896864 -0.229167 0.381793
32320 -0.0418813 0.108611 0.296448 0.425623 -0.566649 -0.159852 -2.20926 6.54905 -0.00939143 0.0473855 -0.0463015 0.294681 0.253099 0.0563153 -0.610214 0.0317128 -0.615571 -0.0451118 0.201705 -0.0997195 0.0778948 0.276645 -0.287643 0.341125 -0.258568 -0.381421 0.173617 0.18493 -0.224345 0.237365 -0.542948 0.166423
35083 0.173651 0.0878044 0.191134 0.671701 -0.289918 -0.0709453 -2.25131 6.8476 -0.0764633 0.322617 -0.0472785 0.00811279 0.21402 -0.0877398 -0.499046 0.401251 -0.547093 0.156312 -0.0504721 -0.00704243 0.00747336 0.110046 -0.130389 0.299876 -0.0274835 -0.130731 -0.0501424 -0.0440531 0.00955796 0.148027 -0.236132 0.364802
32336 -0.205868 0.100742 0.440655 0.604924 -0.410218 -0.0064334 -2.41794 6.5449 0.0391091 0.187194 0.0997415 0.193784 0.187053 -0.0541639 -0.52985 0.335323 -0.53945 0.243781 -0.0765025 0.0113599 0.0894185 0.080515 0.0280237 0.391251 -0.0366289 -0.0224564 -0.0181145 -0.122709 -0.21953 0.299491 -0.163238 0.30671
33866 0.0564214 0.275338 0.36472 0.506962 -0.56297 -0.275264 -1.94106 5.9403 -0.0197878 0.157368 -0.207948 0.697165 0.0991403 -0.00812788 -0.419705 0.218944 -0.792894 0.288786 -0.0793857 -0.0555863 0.0723199 0.139229 -0.342823 0.423901 -0.289578 -0.10651 0.0632829 0.133146 0.0864189 -0.0453202 -0.318966 0.406105
34547 -0.0835652 0.166968 0.276257 0.589294 -0.571954 -0.105624 -2.29864 6.92076 -0.0906452 0.0741775 -0.191559 0.287201 -0.0721124 0.300386 -0.547572 0.27285 -0.640081 0.075998 0.0873356 0.0227816 0.17439 0.148912 -0.279896 0.150939 0.0881501 0.0601766 0.0543871 -0.0369158 0.00223916 0.243164 -0.0212314 0.450115
32522 0.0898541 0.0682997 0.276273 0.446231 -0.515297 -0.0131788 -2.32222 6.82591 -0.0266531 0.229501 -0.104639 0.142532 0.0840624 0.194876 -0.499238 0.201508 -0.576301 0.189704 0.0431094 0.0833526 0.04044 0.151877 -0.471021 0.194653 0.245962 -0.108469 0.0540523 -0.168333 -0.292737 0.143426 -0.182739 0.274576
36292 -0.0273394 -0.040412 0.153234 0.682494 -0.43795 -0.099966 -2.27803 5.94861 -0.0149876 0.156839 -0.0430897 0.334425 -0.00753464 0.519174 -0.601188 0.181529 -0.683492 0.117256 0.0917421 0.108771 0.156465 0.10429 -0.25928 0.175591 0.0335264 -0.0909765 0.0840754 -0.0396472 -0.047225 0.185095 -0.360814 0.627539
32357 -0.150912 0.335682 0.123815 0.444676 -0.694122 0.0855852 -2.04046 6.08581 -0.0753608 0.404384 0.0855789 0.367089 0.0561408 0.102498 -0.583219 0.27273 -0.561337 0.220546 0.217419 0.071375 -0.0618742 0.133857 -0.555638 0.25892 -0.0100252 -0.0992412 -0.152972 -0.0548951 -0.142987 0.286977 -0.0959006 0.444712
32171 -0.153232 0.140409 0.254615 0.663128 -0.54388 0.0619652 -2.36285 6.49606 -0.026408 0.182634 0.0661565 0.318694 0.324012 0.225962 -0.662155 0.296455 -0.470217 0.071848 -0.0756121 0.190693 -0.0900259 0.308721 -0.320951 0.227526 0.110673 -0.471641 0.167687 -0.196712 -0.0104191 0.186812 -0.182633 0.287861
36461 -0.047113 0.0688069 0.0864537 0.599393 -0.446977 -0.00971294 -2.49587 7.09774 -0.0451864 0.142521 -0.126887 0.0903941 0.0573211 -0.0390422 -0.628659 0.166641 -0.596665 0.0179157 0.0496137 0.00169215 0.0287767 0.229855 -0.236733 0.233384 -0.160745 -0.246865 -0.00518123 -0.132034 -0.0538085 0.155979 -0.0508224 0.357936
34405 0.0683851 0.297347 -0.108185 0.496415 -0.41275 0.0523075 -2.35624 6.82429 -0.0155569 0.19417 -0.0872245 0.059909 -0.0740296 0.0204125 -0.462012 0.388062 -0.685962 -0.150201 -0.0308234 0.111549 -0.185528 0.257521 -0.205532 0.359152 -0.0411032 -0.205575 0.125898 -0.0692242 0.0718994 -0.0223026 -0.108837 0.379578
33041 -0.147093 0.178291 -0.119533 0.645057 -0.684237 0.17424 -2.13531 6.68739 0.249498 0.229829 0.114312 0.327373 0.361763 0.225861 -0.445094 0.316354 -0.586184 0.226923 -0.222387 -0.0197882 -0.197157 0.318822 -0.36361 0.111057 -0.0786458 -0.169612 -0.158245 -0.0304557 0.117565 0.414448 -0.0112783 0.37922
34501 -0.0948174 0.0799596 0.00539626 0.657967 -0.47308 -0.0731691 -2.01731 6.12751 -0.222283 0.301258 -0.0203779 0.377624 0.393738 0.344744 -0.667632 0.0275156 -0.676866 -0.0539996 -0.0404857 0.113278 -0.186248 0.32754 -0.435231 0.160586 0.0315194 -0.207126 0.184641 -0.205017 -0.124325 0.261839 -0.224519 0.452642
31590 -0.245991 0.188116 -0.0555654 0.764238 -0.518351 -0.107955 -1.90241 6.02699 -0.30928 0.492434 0.0623165 0.191553 0.0666986 0.515891 -0.442816 0.184119 -0.627864 -0.0563431 -0.00887493 0.317598 -0.0438608 0.437043 -0.1683 0.356709 0.130003 -0.27955 -0.206247 -0.0479917 -0.0100965 0.438551 -0.3471 0.123799
34280 -0.296002 0.0709667 0.165821 0.578613 -0.395699 -0.21561 -2.48043 7.12891 -0.179541 0.0767193 -0.147898 0.145407 0.0243052 0.236696 -0.484685 0.320227 -0.636547 0.110129 -0.09217 -0.0510082 -0.110273 0.0419521 -0.453047 0.353485 -0.0139571 -0.00648573 0.112306 -0.145351 0.160002 0.424125 0.0435805 0.103736
34028 0.0191418 0.274543 -0.00167586 0.396874 -0.271939 0.217386 -2.04218 6.46613 -0.19132 0.304905 0.0963587 0.116686 0.142745 0.295644 -0.401894 0.568438 -0.493505 0.250947 0.0465345 0.105595 0.115724 0.191912 -0.166466 0.56017 0.0074743 -0.28014 0.00689882 -0.127135 0.345513 0.295504 -0.153703 0.60488
36193 0.0188962 0.277037 -0.0147496 0.566391 -0.369292 -0.208433 -2.4443 6.94599 -0.22966 0.118158 -0.0310269 0.363186 0.157981 0.122091 -0.499998 0.159729 -0.511569 0.117574 -0.0193314 0.201881 -0.0512437 0.35719 -0.328759 0.399177 0.100143 0.024341 -0.0255303 0.00825653 -0.03709 0.244618 0.0369917 0.295475
31700 -0.284571 0.0486101 0.165331 0.645884 -0.391467 -0.244659 -2.50714 7.07811 -0.144439 0.174194 -0.0925952 0.225872 -0.0676809 0.0287684 -0.44777 0.397464 -0.646715 0.206812 -0.0568771 -0.00569662 -0.113033 0.0157761 -0.438179 0.320031 -0.0130887 0.023009 0.105337 -0.131902 0.134577 0.335895 0.0517976 0.132082
33414 -0.193485 0.0635074 0.0514723 0.618403 -0.445408 -0.197607 -2.45106 6.95319 -0.130136 0.0291366 -0.16758 0.234733 0.0534459 0.256469 -0.442372 0.327286 -0.599255 0.335271 -0.0423287 0.01048 0.068382 0.108471 -0.0847217 0.353412 -0.0630199 -0.173666 0.314411 -0.0989978 0.0425206 0.335825 -0.00350875 0.321741
33605 0.129352 0.222408 0.0848833 0.884264 -0.467328 -0.215116 -2.17442 6.11351 -0.163675 0.2432 -0.117987 0.196214 0.36878 0.116706 -0.610655 0.219933 -0.40496 0.147197 0.0369792 0.190217 -0.228032 0.250533 -0.0696008 0.283934 -0.0661702 -0.179564 -0.0668294 0.11144 0.0951581 0.239581 -0.0226575 0.393009
36857 -0.0240527 -0.00219245 0.247464 0.842073 -0.377594 0.0388282 -2.53564 6.36543 -0.0379802 0.135739 0.102108 0.333328 0.325848 0.147404 -0.444329 0.550935 -0.476486 0.300355 -0.204608 -0.0326666 -0.063072 0.140558 -0.104569 0.309597 -0.058537 0.217845 0.339611 -0.0853221 -0.176353 0.304759 -0.248692 0.469272
32227 -0.0113872 -0.0107348 0.204944 0.558247 -0.499924 -0.247155 -2.49182 6.72155 0.0353974 0.141984 0.0331754 0.304401 -0.0891668 0.400332 -0.560177 0.229943 -0.413985 0.193169 -0.0515692 0.171793 -0.139829 0.300159 -0.174927 0.4126 0.0606549 -0.0503721 -0.00314989 -0.132038 -0.139154 0.248649 -0.0342063 0.300321
35554 0.202618 0.338528 0.627371 0.815481 -0.770455 -0.344395 -1.64802 5.52429 0.105672 0.0755264 0.105711 0.651351 0.264414 -0.0304473 -1.04068 -0.124911 -0.758449 -0.0844222 0.0851876 0.198741 0.0278962 0.942524 -0.582775 0.669686 -0.448227 -0.40526 0.352773 -0.306314 -0.153516 0.40676 -0.340018 0.149879
33074 0.0213502 0.252668 0.221111 0.683985 -0.560997 -0.124673 -2.63071 7.06121 0.0856244 0.136947 -0.155717 0.178098 0.295005 0.0993483 -0.691148 0.250757 -0.355601 0.102322 0.197594 0.0788731 0.0731539 0.329786 -0.270799 0.362246 -0.238727 -0.0484623 -0.0604538 -0.17155 -0.0451582 0.212876 -0.233496 0.0996112
33967 0.157421 0.14569 0.110747 0.587334 -0.402748 -0.291363 -2.29683 6.76151 -0.0547056 0.2355 -0.135171 0.298604 0.228705 -0.117767 -0.548436 0.272095 -0.448813 0.139885 0.0702484 0.0972778 -0.0487237 0.267017 -0.156227 0.384092 -0.191225 -0.0769763 0.281328 -0.319972 0.145068 0.173184 -0.166279 0.265238
35407 -0.0792835 0.150819 0.0406597 0.607114 -0.293328 -0.268376 -2.22792 6.98113 -0.120333 0.211093 -0.116678 0.410063 0.00978151 0.207376 -0.489528 0.206942 -0.378556 0.317377 -0.0474617 0.209982 0.0340102 0.333174 -0.366799 0.438953 -0.238847 -0.0103795 -0.107549 0.0336385 0.00182321 0.155483 -0.0939326 0.120378
33128 -0.340182 0.158377 0.0761864 0.569555 -0.445383 -0.136994 -2.48181 7.11757 -0.123639 0.148296 -0.0477016 0.276126 0.10276 0.154281 -0.394591 0.323987 -0.655947 0.191856 -0.011984 0.00866741 0.0148837 0.0575277 -0.360474 0.332451 -0.0483112 -0.0284894 0.0984274 -0.111903 0.177283 0.381313 0.0246118 0.155012
34915 0.219858 0.411118 0.21379 0.634736 -0.660065 0.0293753 -1.95323 6.37256 -0.0544581 0.467858 -0.163509 0.299858 0.120742 0.308446 -0.625252 0.568465 -0.369273 0.0834065 0.110809 0.186355 0.103183 0.186358 -0.504984 0.375104 -0.0430468 -0.160625 0.347078 -0.260343 0.107276 0.110087 0.137589 0.298119
36477 -0.0518174 0.312122 0.0551127 0.456174 -0.344628 0.0685543 -2.31792 6.59387 0.0146511 0.153515 0.237479 0.431411 0.039783 0.241118 -0.545219 0.424658 -0.419904 0.19065 0.123188 0.260098 -0.257047 -0.0124181 -0.30362 0.29638 -0.0749593 -0.184146 0.30244 -0.13562 0.0316564 0.301423 -0.334922 0.284822
32810 -0.292235 0.314996 -0.0905028 0.695082 -0.369811 -0.1907 -2.55168 6.87857 0.077818 0.111074 -0.0636554 0.0617274 -0.153483 0.5617 -0.488141 0.44722 -0.557032 0.0496112 0.0848263 -0.0200882 -0.12473 0.205481 -0.119387 0.333451 0.0652528 -0.129258 0.227308 -0.115077 -0.0434731 0.089398 -0.15023 0.431497
31210 -0.20893 -0.0282437 0.00976472 0.495123 -0.529062 -0.137918 -2.3469 6.85816 0.286825 -0.0310617 -0.0853045 0.318878 0.176204 0.194653 -0.510128 0.26052 -0.564136 0.015129 -0.113599 0.0985588 0.0761835 0.146588 -0.479573 0.0682589 -0.0143863 -0.0154262 0.109418 -0.192439 -0.136095 0.069032 -0.129038 0.474342
32456 -0.290859 0.0780462 0.0859709 0.44977 -0.470423 -0.196234 -2.66511 6.77359 0.18839 0.221838 0.0760545 0.178986 0.0090513 0.131041 -0.537475 0.22227 -0.525994 -0.0567266 -0.10989 0.12116 0.162771 0.282853 -0.239421 0.118448 0.109891 -0.188317 -0.019944 -0.240294 -0.185252 0.199497 -0.0128842 0.412215
35927 -0.205451 0.111007 0.112954 0.475089 -0.494649 -0.144753 -2.58344 6.90508 -0.123843 0.102049 0.0459594 0.164311 0.00974583 0.3961 -0.439933 0.315782 -0.52391 0.268054 -0.117893 -0.0404073 -0.0251082 0.161919 -0.269526 0.249678 0.124089 -0.0860187 -0.0508887 -0.0571321 0.00303584 0.327142 0.0444991 0.381094
31214 0.226245 0.1484 0.00765523 0.564867 -0.563023 -0.347939 -2.56158 6.67624 0.00975876 0.137869 0.0811442 0.243598 0.0827085 0.0754476 -0.416771 0.329585 -0.672575 -0.00919537 0.182891 0.181014 -0.148501 0.0734284 -0.396288 0.210556 -0.101517 -0.177623 -0.074753 0.194395 0.100139 0.286688 -0.176455 0.37025
31391 0.135409 0.0202732 0.0943983 0.501104 -0.464578 -0.0610417 -2.55069 6.8154 0.0505981 0.355234 -0.0487018 0.312881 0.0855781 0.128463 -0.528409 0.175803 -0.520068 0.238738 0.0404613 0.141125 -0.0280563 0.0828606 -0.415718 0.224926 0.0751268 -0.310215 -0.0749978 0.0427632 0.0627401 0.107056 -0.126361 0.483579
35076 -0.0763178 0.0974739 0.303426 0.781394 -0.527172 -0.0686124 -2.07117 6.41139 -0.111641 0.127648 0.16187 0.294035 0.301564 0.512331 -0.750378 0.456548 -0.454609 0.124456 0.133288 0.445544 0.0717872 0.0591477 -0.630259 -0.0678056 -0.266294 -0.484735 0.362265 0.146756 0.0155781 0.01995 -0.084692 0.725738
33343 0.385205 0.0655255 0.220888 0.54445 -0.493406 0.00120912 -2.26983 6.33587 -0.172599 0.420381 0.0563127 0.381141 0.23604 0.0412348 -0.609058 0.441083 -0.265793 -0.00620971 0.0950185 0.309661 -0.10833 -0.0396205 -0.371682 -0.0884175 -0.355092 -0.144065 0.177344 0.078551 0.100222 0.450329 -0.0926742 0.399068
33737 0.0409098 0.346838 0.312812 0.695858 -0.429431 0.0370935 -2.12772 6.63633 -0.183085 0.339648 0.206513 0.267792 0.229638 0.469118 -0.390191 0.377478 -0.729375 -0.0788676 -0.0393046 0.176436 -0.189655 0.103603 -0.119827 0.347545 -0.10772 -0.257489 0.0429585 -0.159291 0.266961 0.193898 -0.13493 0.337039
35577 -0.00855387 -0.075838 0.0525865 0.627365 -0.417821 -0.114941 -2.39787 6.9885 -0.0721896 0.0421398 0.337311 0.301691 0.171175 0.121616 -0.400141 0.303787 -0.646188 0.132878 0.0252746 0.0906593 -0.0631249 0.145976 -0.229269 0.312788 0.0415047 -0.238646 -0.0802715 -0.209401 0.0335118 0.0373724 -0.172309 0.326264
34021 0.161028 -0.066737 -0.00175287 0.545536 -0.575253 -0.0290489 -2.32866 6.9826 0.00480386 0.103306 0.0873937 0.218193 0.118868 0.205411 -0.480322 0.177361 -0.646381 0.0889895 -0.130055 0.126991 -0.0472276 0.0744162 -0.224596 0.334512 -0.138132 -0.171724 -0.0982281 -0.252481 -0.0333616 0.0390425 -0.183257 0.369373
37044 0.222949 0.197162 0.0510878 0.630061 -0.40136 -0.225746 -2.09312 6.4534 -0.0732009 -0.079832 0.0843287 0.265724 -0.141859 0.139158 -0.539609 0.224352 -0.57963 -0.141103 0.0355773 -0.0680365 0.467028 0.446616 -0.302827 0.260998 0.0697687 0.182059 0.0137929 0.0360359 0.524002 -0.0820477 0.138599 0.373139
31838 -0.0504605 0.223206 0.126452 0.581968 -0.124372 -0.301726 -2.26341 6.83922 -0.291943 0.0332869 -0.0702676 0.477613 -0.0119735 0.159432 -0.555114 0.13178 -0.471227 0.136675 -0.14296 0.191277 0.123105 0.0286293 -0.326642 0.295649 -0.00221836 -0.0800383 -0.0863761 0.0714379 -0.291685 0.241736 -0.140183 0.19571
36506 0.0538524 0.212366 0.202934 0.341312 -0.239533 0.0203994 -2.14589 6.41251 -0.0791286 0.315253 0.106631 0.660826 -0.0528261 0.251391 -0.160915 0.449388 -0.653555 -0.0215486 -0.241264 0.344556 0.105944 0.0521095 -0.244591 0.530732 0.0611703 -0.533852 0.16218 0.13808 -0.00783981 0.112387 -0.199624 0.117477
33755 -0.0531286 0.0766844 -0.267783 0.689253 -0.220363 -0.0111206 -2.39108 6.60112 0.0356662 0.227322 -0.0308173 0.040444 -0.21434 0.192411 -0.527507 0.181386 -0.672686 -0.096126 0.160586 0.160136 0.0366907 0.30544 -0.120876 0.376522 0.0729128 -0.254921 0.133477 -0.0862382 0.0148547 0.0123333 -0.0456002 0.332903
31984 -0.0463917 0.154084 -0.0558145 0.639165 -0.397226 -0.18991 -2.51706 7.15523 -0.16697 0.159962 -0.207505 0.191269 0.101522 0.131327 -0.489427 0.26803 -0.601085 0.149902 -0.0155201 0.0331874 -0.05618 0.0874116 -0.328954 0.247654 -0.0923502 -0.142488 -0.00831956 -0.0718351 0.100819 0.157503 -0.0425273 0.331762
32509 -0.197904 0.240426 0.195382 0.578952 -0.203432 -0.00513196 -2.16137 6.53951 -0.113133 0.113854 0.0238675 0.0547951 0.183746 0.171124 -0.577373 0.240025 -0.516243 0.0749548 0.0334017 0.135954 0.0577208 0.323365 -0.368588 0.0326169 0.0243841 -0.0345288 -0.0636079 -0.178014 -0.0198826 0.0972963 -0.252813 0.439841
