7349 32
34840 -0.0280338 -0.194109 1.62924 -0.254135 2.67214 -2.2709 -2.75277 -0.674543 -0.0535992 -1.21428 0.082192 0.326758 0.220854 0.180597 -0.915046 -0.119848 1.40547 -0.522149 -0.265784 -0.46113 0.254295 0.197469 -0.722697 0.783152 0.663865 -0.1906 0.0731717 -0.325139 -0.297781 -0.857412 -0.283986 0.335405
33205 -0.0094973 -0.0769804 1.43962 -0.203688 2.51198 -2.67256 -3.90628 -0.596716 -0.113364 -0.50438 0.282723 0.414111 -0.0281343 -0.086376 -0.49291 -0.232783 1.31666 -0.407278 -0.271366 -0.148145 0.196077 0.0938299 -0.481703 0.549591 0.344372 -0.0824993 -0.0614477 -0.120704 -0.0573324 -0.362286 0.0348823 0.12974
31579 0.181572 0.128162 1.45095 -0.0626044 2.73342 -2.45577 -3.96381 -0.514355 0.0563152 -0.562419 0.0577172 0.365552 0.167982 0.00274021 -0.725046 -0.299712 1.07727 -0.436236 -0.0509443 -0.318351 -0.0877626 0.0451702 -0.633673 0.396665 0.296744 -0.131657 0.059244 -0.0792584 -0.161469 -0.348071 -0.0142173 0.247935
32179 -0.0100303 0.0644874 1.48233 -0.130593 2.61865 -2.3707 -4.00401 -0.643427 -0.0120893 -0.424818 0.124761 0.220867 -0.0407415 0.0866495 -0.494074 -0.405188 1.197 -0.200193 -0.163399 -0.351614 -0.108675 -0.0771567 -0.558292 0.416148 0.282156 0.0390325 0.0313619 -0.245963 -0.22617 -0.10022 0.134343 0.143267
31107 -0.0877172 0.00543473 1.491 -0.0960113 2.73107 -2.56641 -4.13797 -0.445182 0.0162578 -0.529882 0.0158644 0.317978 0.0206873 0.0964897 -0.653876 -0.272467 1.19921 -0.396777 -0.086009 -0.213235 -0.0157059 0.134564 -0.662593 0.351838 0.192538 -0.0488763 0.0129111 -0.156392 -0.158966 -0.436077 -0.0601977 0.2393
36175 0.0726027 0.18542 1.66742 0.114789 2.31628 -2.48752 -3.46233 -0.112119 -0.0888713 -0.712769 0.140042 0.626537 -0.392381 -0.280314 -0.786183 -0.486812 1.29737 -0.131603 0.165126 -0.175809 -0.025718 0.262579 -0.870701 0.319298 0.579458 0.0728382 -0.0694424 -0.15697 -0.0475418 -0.525206 0.043915 0.102843
31711 0.077684 -0.15757 1.57665 -0.266776 2.437 -2.23547 -3.29778 -0.289249 -0.0743346 -0.729922 0.0838415 0.376377 0.0129559 -0.157032 -0.873656 0.097939 1.28581 -0.333415 -0.142905 -0.10958 -0.474531 0.284577 -0.606618 0.680714 0.503153 -0.143054 0.0278034 -0.221298 -0.226002 -0.411607 -0.194129 -0.0563998
33797 -0.0217841 0.0190877 1.5468 -0.306526 2.77969 -2.70905 -3.99254 -0.470568 0.125755 -0.567714 -0.0971438 0.37351 0.234565 0.064188 -0.80086 -0.386151 1.17247 -0.399769 -0.27922 -0.353341 -0.0974377 0.0604305 -0.728312 0.117919 0.363812 -0.00368096 -0.00320493 -0.240141 -0.302022 -0.479939 0.113075 0.209162
36121 -0.0895944 0.0871021 2.1662 -0.101886 2.06597 -2.61296 -2.52974 -0.403962 -0.199524 -0.898897 0.131861 0.682292 0.124152 -0.0216769 -1.09446 -0.141961 1.4758 -0.46266 -0.207597 -0.528623 -0.311343 0.131928 -0.753744 0.526628 0.595618 -0.314378 0.236676 -0.337338 -0.375754 -0.688633 0.203608 0.232468
36075 -0.0668563 0.118672 1.43338 -0.199533 2.67681 -2.52226 -3.98555 -0.564908 0.0961048 -0.48177 0.0833447 0.246847 0.0759823 0.159359 -0.745272 -0.313006 1.117 -0.210285 0.0169189 -0.213663 -0.0876167 -0.0499851 -0.625697 0.405246 0.264366 -0.0344651 0.0737747 -0.457148 -0.0351677 -0.238824 0.0723972 0.166991
33115 -0.28452 -0.091111 1.38232 -0.188017 2.60754 -2.49391 -4.03446 -0.569157 -0.137444 -0.232499 0.0501181 0.305642 0.134927 0.0760964 -0.679518 -0.308993 1.11956 -0.453535 0.219278 -0.311278 -0.104959 0.173881 -0.568797 0.318427 0.291914 -0.0195438 -0.0629202 -0.371032 -0.203113 -0.339672 -0.0224503 0.156667
36541 0.272737 -0.140672 1.30188 -0.182761 2.38011 -2.63387 -3.49136 -0.226901 -0.108705 -0.348396 0.0707188 0.568733 -0.286022 0.26777 -0.904172 -0.3707 1.00306 -0.485669 0.223755 -0.441881 0.275588 -0.052334 -0.506977 0.543851 0.122759 0.0569363 -0.0182985 -0.321533 -0.248378 -0.696929 -0.0659972 0.235527
36869 0.0686866 -0.0469786 1.53339 -0.23888 2.76051 -2.5374 -3.99069 -0.672029 0.0177116 -0.493304 -0.0155189 0.437446 -0.108455 0.1267 -0.753158 -0.31273 1.10005 -0.417887 -0.165191 -0.295068 -0.0446488 0.214282 -0.633815 0.33817 0.253939 -0.0998853 0.0917128 -0.25787 -0.119612 -0.399394 -0.139809 0.0870993
31160 -0.162002 -0.167028 1.64277 -0.392019 2.4216 -2.44945 -4.0282 -0.704086 0.0871066 -0.43422 0.271642 0.292078 -0.247138 0.105728 -0.421759 -0.204388 1.2915 -0.345323 -0.118234 -0.16195 0.0202378 0.0899761 -0.706357 0.278183 -0.0223932 -0.0569854 0.135067 -0.224275 0.0998117 -0.332106 -0.00769889 0.141916
36508 0.167519 -0.192985 1.61251 0.182627 2.63054 -2.18754 -3.45187 -0.618887 -0.255224 -0.618918 0.0421483 0.493149 -0.0693725 0.0342104 -0.752311 -0.252941 1.23498 -0.195312 -0.228769 -0.220731 -0.232854 0.10259 -0.490811 0.488302 0.167925 -0.249068 0.0157182 -0.398054 -0.477092 -0.29413 -0.0545603 0.314962
34057 -0.481745 0.108051 1.42479 -0.228664 2.61489 -2.65915 -3.76038 -0.612735 -0.0835723 -0.345956 0.101709 0.186306 0.173107 -0.0583512 -0.605474 -0.525931 1.28988 -0.201851 -0.223474 -0.215665 -0.0540301 0.106295 -0.358659 0.815571 0.0255325 -0.0949535 -0.26462 -0.330431 -0.268943 -0.486059 -0.141781 0.164467
31290 -0.353142 0.127565 1.54441 -0.441791 2.69511 -2.51423 -3.23914 -0.572285 0.230175 -0.573123 0.500234 0.333154 -0.0987785 0.0660267 -0.728921 -0.657074 1.35554 -0.188055 -0.2528 -0.058016 -0.132687 0.628389 -0.213317 0.908988 0.331109 -0.512461 -0.122406 -0.421236 -0.316326 -0.479276 -0.436893 0.177797
35829 -0.0767643 -0.0406126 1.54622 -0.0706617 2.6499 -2.41734 -3.83841 -0.466759 0.0515377 -0.37206 0.146597 0.381743 0.171453 -0.0988125 -0.839265 -0.341623 1.05268 -0.441817 -0.135925 0.0168699 0.017557 0.120333 -0.495963 0.609474 0.186628 0.0464432 0.00587325 -0.141966 -0.267622 -0.220108 0.0587314 0.245593
36621 -0.0670637 0.00097948 1.57968 -0.129447 2.47837 -2.33489 -3.58025 -0.565906 -0.0537538 -0.459297 -0.162339 0.639749 0.185716 -0.266611 -0.622992 -0.0346356 1.30077 -0.554313 0.143897 -0.130104 0.155593 -0.0459712 -0.485619 0.629777 -0.246426 -0.231884 0.226579 0.121721 -0.147712 -0.737965 0.0336827 0.24663
36172 0.00741553 0.151078 1.81314 -0.099032 2.3749 -2.53747 -2.72642 -0.382892 0.0583786 -0.65491 0.0353324 0.78886 0.323924 -0.424008 -0.665816 -0.421344 1.57137 -0.46137 -0.10406 0.0531662 0.00555849 0.304593 -0.567609 0.44823 0.14318 0.0497602 0.295252 -0.277133 -0.440126 -0.636741 -0.028448 0.495904
35441 -0.215868 -0.0649355 1.57042 -0.293538 2.48645 -2.49962 -3.86893 -0.534635 -0.113982 -0.505841 0.225953 0.252952 -0.0424157 -0.0283281 -0.584198 -0.261586 1.32901 -0.369914 -0.108165 -0.105136 -0.178124 0.061028 -0.446319 0.557441 0.0910546 0.0187006 0.0700637 -0.043639 -0.332521 -0.461067 0.0843594 0.209957
33000 -0.021995 0.264267 1.501 -0.316581 2.72469 -2.29757 -3.49867 -0.533371 0.089119 -0.515924 0.537031 0.251567 -0.0967671 0.195307 -0.681629 -0.347612 1.26315 -0.101047 0.202723 -0.348711 -0.249812 -0.0264175 -0.695084 0.688283 0.31639 -0.0233042 0.0972327 0.0375926 -0.0675788 -0.166629 -0.124572 0.351827
36429 0.101277 -0.0242449 1.27217 -0.322735 2.62619 -2.49977 -3.73791 -0.658782 -0.0245868 -0.502493 -0.0114508 0.295522 0.0489898 0.25415 -0.604977 -0.437122 1.19786 -0.251568 0.110283 -0.289148 0.0331256 -0.0836575 -0.594844 0.519063 -0.023133 0.199467 0.301486 -0.185236 -0.405073 -0.462992 -0.109623 0.113911
32345 -0.0168295 0.0991523 1.51183 -0.0876371 2.68221 -2.52074 -4.02226 -0.569249 0.0309538 -0.496336 0.194049 0.418877 0.0764037 0.0348156 -0.691055 -0.398557 1.06546 -0.412147 -0.0704764 -0.303062 -0.0302549 0.0917895 -0.609783 0.412299 0.164388 -0.248426 0.0653448 -0.230629 -0.162042 -0.371684 -0.0184532 0.0809022
32504 -0.0430816 -0.0352348 1.49478 0.0429551 2.55498 -2.63247 -3.62421 -0.356609 -0.348219 -0.5212 0.203331 0.486743 0.244818 0.266297 -0.685598 -0.591067 1.22806 -0.12002 -0.352462 -0.16164 -0.127515 -0.153712 -0.825943 0.290233 0.140006 0.232892 0.0128778 -0.452033 0.0417097 -0.381397 -0.311756 0.260206
36091 -0.127219 0.173726 1.50104 -0.00974628 2.65108 -2.66044 -4.07675 -0.555858 0.201667 -0.294595 0.147962 0.203109 -0.0698891 0.0961736 -0.70541 -0.281732 1.25749 -0.275038 -0.262388 -0.179257 -0.0488242 0.0154526 -0.584412 0.255696 0.208002 0.274803 0.0555537 -0.218105 0.0714585 -0.534724 -0.0646465 0.270085
35153 -0.181018 0.291698 1.54048 -0.351153 2.3789 -2.4798 -3.80505 -0.535881 0.0699909 -0.508962 0.10013 0.195995 0.056309 0.186858 -0.619153 -0.457793 1.11234 -0.193882 -0.0939892 -0.425092 -0.0586183 0.15677 -0.6471 0.547283 0.161232 0.0592964 -0.0437374 -0.238714 -0.0394865 -0.331552 -0.236875 0.151067
32598 -0.0913839 0.172899 1.48214 -0.0364212 2.7261 -2.48206 -4.06658 -0.51533 0.0423849 -0.431157 0.0328398 0.380976 0.163526 0.265219 -0.669802 -0.361797 1.11751 -0.339368 -0.0260803 -0.27641 -0.044412 0.118537 -0.641707 0.382411 0.21091 -0.112108 0.122266 -0.106765 -0.103784 -0.342938 -0.0675902 0.237686
33974 -0.0667709 -0.0687904 1.64817 -0.338715 2.66318 -2.22158 -2.6247 -0.504873 0.0380862 -0.878904 0.167085 0.445956 0.188254 0.294096 -0.696422 -0.0821211 1.38426 -0.299827 -0.138582 -0.649384 -0.0839636 0.343174 -0.737159 0.764772 0.0583586 -0.303688 0.182191 -0.231475 0.0205323 -0.546512 -0.113109 0.218917
32990 -0.0803255 -0.0829485 1.70671 -0.0794998 2.44027 -2.40872 -3.60813 -0.685681 0.143511 -0.616072 0.243435 0.546464 0.167478 0.178773 -0.429734 -0.278723 1.29658 -0.327489 -0.185234 -0.559944 0.0959351 0.170801 -0.874112 0.547221 0.261199 -0.0470529 0.105555 -0.190144 -0.0357921 -0.490148 -0.182232 0.126697
34833 0.200486 0.277948 1.59781 -0.121562 2.61174 -2.37057 -3.56761 -0.0577087 0.32602 -0.680661 0.297379 0.360607 -0.192105 0.06213 -0.502476 -0.422763 1.35766 -0.742421 -0.0939164 -0.283562 0.0472162 -0.16457 -0.845033 0.40933 0.1722 -0.268098 0.0253667 -0.240645 -0.317036 -0.609056 -0.145751 0.0823395
35540 0.107141 0.291172 1.6842 -0.180684 2.69382 -2.3901 -3.98892 -0.452256 0.0451224 -0.336516 0.213446 0.391708 0.0157393 -0.00959398 -0.672831 -0.119604 1.26706 -0.380244 -0.123012 -0.254068 -0.226645 0.00369013 -0.62111 0.487095 0.190232 -0.217218 0.0921902 -0.0204651 -0.181343 -0.30902 -0.147076 0.108006
33242 0.0398306 0.434923 1.60125 -0.190966 2.68633 -2.41724 -3.78728 -0.63516 -0.0722071 -0.519976 0.378965 0.419629 -0.0695617 0.0159979 -0.758357 -0.188978 1.19643 -0.0316014 -0.0482962 -0.189064 -0.179231 -0.00707731 -0.651706 0.473491 0.371843 -0.298421 0.0736446 -0.0158415 -0.0219667 -0.236981 -0.131165 0.127717
31352 0.065092 0.142222 1.46088 -0.111498 2.60264 -2.55808 -3.95968 -0.614724 -0.0261737 -0.557811 0.225102 0.306304 -0.115485 0.142332 -0.680271 -0.283757 1.1744 -0.134173 -0.174367 -0.184426 -0.0340429 0.0490402 -0.630951 0.507158 0.251911 0.0111196 -0.0749493 -0.0827919 -0.0702397 -0.25274 -0.0773513 0.259369
30972 -0.110886 0.15002 1.66146 -0.2733 2.65857 -2.46689 -2.84373 -0.443033 0.05097 -0.876094 0.0179938 0.665884 0.162629 0.291404 -0.786488 -0.342551 1.46322 -0.314024 -0.133755 -0.522337 0.0150557 0.306092 -0.883385 0.420709 0.485352 0.227857 -0.0076293 -0.621215 -0.228448 -0.608847 0.187476 0.13999
32336 -0.339446 0.0835796 1.65446 -0.0135103 2.67547 -2.33836 -3.6527 -0.427402 0.111079 -0.352501 0.654525 0.551719 -0.15003 0.0533101 -0.698013 -0.483899 1.10866 -0.279501 -0.192836 -0.377734 0.114576 0.0802812 -0.705069 0.573452 0.116173 -0.229107 0.065288 -0.181934 -0.0554791 -0.391395 -0.020557 -0.0760718
34337 -0.0722651 -0.0771145 1.57386 -0.161599 2.44489 -2.4844 -3.85212 -0.384938 0.0173968 -0.389596 0.106174 0.2904 0.0298197 0.0595259 -0.630759 -0.403139 1.16245 -0.288702 -0.0366238 -0.211595 0.218909 0.179574 -0.537645 0.712908 0.119148 -0.0605169 0.149965 -0.419968 -0.172394 -0.179885 0.0190573 0.0599046
34616 -0.0539444 0.127888 1.50258 -0.202184 2.53098 -2.33471 -3.19963 -0.236186 -0.0116877 -0.603506 0.182941 0.451738 -0.0833518 0.00918496 -0.990115 -0.256724 1.20816 -0.087528 -0.0641181 -0.382186 0.0332435 0.278321 -0.712202 0.597457 0.632179 -0.0058189 0.37364 -0.34829 -0.338265 -0.403432 0.0859475 0.320001
35014 0.0394925 0.0818272 1.40393 -0.196806 2.63662 -2.59321 -3.94327 -0.445343 0.121227 -0.605664 0.0149014 0.335162 -0.127385 0.094026 -0.714354 -0.344873 1.06945 -0.282688 -0.18595 -0.427934 0.111707 0.211648 -0.668066 0.516569 0.198483 -0.0313759 0.0486386 -0.148073 -0.187344 -0.335407 -0.0719319 0.14827
32318 0.133958 -0.185689 1.64442 -0.248543 2.43186 -2.38409 -2.49125 -0.452568 0.147544 -1.09313 0.43322 0.496095 0.0566395 0.441367 -0.889061 -0.218764 1.38534 -0.379589 -0.245447 -0.755508 -0.0337957 0.15612 -0.821408 0.72878 0.353784 -0.124799 0.137962 0.00410036 -0.219151 -0.727458 -0.10219 0.366878
34572 -0.0690937 -0.0347079 1.81382 -0.208372 2.40883 -2.42166 -3.03665 -0.318163 0.116017 -0.783171 0.489098 0.216459 -0.0550176 0.0572293 -0.770816 -0.413117 1.30301 -0.398743 -0.28886 -0.619902 0.0425613 0.390575 -0.879063 0.75221 0.281508 -0.300286 0.333987 -0.548748 -0.20578 -0.218069 -0.0865375 0.0332513
32976 -0.101904 -0.0692379 1.57122 -0.219983 2.62553 -2.55115 -3.77903 -0.593325 0.356371 -0.444985 0.19796 0.213118 -0.0559895 0.202487 -0.791642 -0.347166 1.14171 -0.25309 -0.106051 -0.671867 -0.104634 0.119686 -0.641664 0.313328 0.302053 -0.113078 0.0712872 -0.0451835 -0.196686 -0.272089 -0.0128896 0.448675
36186 -0.218021 0.0624506 1.81388 -0.0249924 2.43246 -2.30541 -2.83814 -0.149455 0.173252 -0.561378 0.275733 0.646225 -0.10391 -0.0609931 -0.654652 -0.376298 1.41204 -0.384797 -0.300704 -0.556058 0.0647699 -0.109678 -0.654702 0.460617 0.309961 0.0984214 -0.222351 -0.111403 -0.521843 -0.703883 -0.178295 0.194512
32692 -0.0160575 0.224278 1.34675 -0.0649123 2.59273 -2.63163 -4.03494 -0.3731 0.0559173 -0.417628 0.0971484 0.272371 0.00652235 0.181974 -0.573643 -0.201554 1.15831 -0.421084 0.0424073 -0.277066 0.10703 0.120315 -0.579536 0.449211 0.0953546 -0.0929935 0.109146 -0.168704 -0.205512 -0.375851 -0.0334955 0.176622
35569 0.0207299 0.368707 1.44478 -0.0897251 2.84942 -2.42025 -3.92187 -0.156663 0.121855 -0.501446 0.129609 0.203655 0.121858 0.226843 -0.63451 -0.245127 1.28894 -0.679726 0.125287 -0.378466 -0.138235 -0.115247 -0.673624 0.398327 0.167313 -0.222397 0.120019 -0.169449 -0.0851472 -0.509038 0.0179771 0.273717
34853 -0.05956 0.187633 1.85875 -0.254635 2.44565 -2.32502 -2.84957 -0.215445 -0.0421473 -0.833742 0.119171 0.462861 0.0774615 0.0675257 -0.755071 -0.196972 1.54494 -0.365038 0.018908 -0.554025 -0.248141 0.239236 -0.876657 0.70383 0.313733 -0.315549 0.133371 -0.233579 -0.144095 -0.870196 -0.0610973 0.341605
34133 -0.012972 0.0907007 1.37562 -0.0164843 2.49043 -2.76578 -4.00434 -0.630907 -0.361119 -0.368873 0.0528926 0.211517 -0.14703 0.0868105 -0.867989 -0.428329 0.993323 -0.321957 0.15029 -0.452735 -0.0188287 0.110869 -0.630615 0.201328 0.393423 0.0062602 -0.0550346 -0.0808614 -0.171247 -0.463123 0.209651 0.0960004
36856 -0.00213493 0.205288 1.55975 -0.0660906 2.50113 -2.52326 -4.00537 -0.473655 -0.0975891 -0.361793 0.174502 0.263643 0.0683282 -0.0905761 -0.603526 -0.224512 1.24874 -0.391445 0.0902399 -0.17723 0.00436911 -0.0717397 -0.523713 0.595337 0.196443 -0.157618 0.167159 -0.0533948 -0.0288924 -0.183239 0.0345215 0.111676
31717 -0.107408 -0.0477672 1.49408 0.0664996 2.58111 -2.43457 -3.99866 -0.472462 -0.0207375 -0.347692 0.0824738 0.350046 0.0416542 0.436555 -0.471423 -0.431316 1.22771 -0.219413 0.0724493 -0.258733 -0.125428 0.310339 -0.57618 0.336477 0.113241 -0.15319 0.124085 -0.155298 -0.158815 -0.24525 -0.0586646 0.438763
32437 -0.0750297 -0.0536189 1.39775 -0.203475 2.57207 -2.62519 -4.01435 -0.53588 0.213883 -0.460813 0.155976 0.287557 0.123654 -0.0281733 -0.674294 -0.429262 1.1547 -0.285563 -0.151125 -0.0743778 0.144284 -0.0358897 -0.365294 0.610559 0.221635 -0.174413 0.108417 -0.248535 -0.104844 -0.266322 0.0357058 0.163567
35313 -0.0449183 -0.0671702 1.64072 -0.0356642 2.32268 -2.39071 -2.991 -0.468167 -0.073119 -0.973086 -0.105638 0.680917 -0.146448 0.136842 -0.515678 -0.417233 1.40092 -0.621548 -0.177537 -0.380346 -0.223507 0.170357 -0.790147 0.657952 0.114412 -0.251896 -0.125478 -0.624955 -0.114593 -0.552182 -0.16531 0.372263
33149 -0.0931897 -0.11727 1.3816 -0.292991 2.59841 -2.44607 -3.84791 -0.652194 0.00170092 -0.356061 0.422624 0.646586 0.0475947 0.254954 -0.920108 -0.332926 0.973027 -0.224451 0.138312 -0.305874 -0.117242 0.0314877 -0.489912 0.518204 0.170073 0.0624045 0.320379 -0.149338 -0.0952449 -0.649734 0.157338 0.150021
34743 -0.171478 -0.0477715 1.48329 -0.17115 2.77369 -2.44089 -3.94259 -0.526868 -0.127364 -0.656688 0.211074 0.240287 -0.0341905 0.0330376 -0.395118 -0.345239 1.29697 -0.368965 -0.413877 -0.189553 0.119392 0.161076 -0.624381 0.392666 0.281382 -0.022915 0.170494 -0.334709 -0.228074 -0.280312 0.0815492 0.000103608
31901 -0.0901682 -0.294037 1.25193 -0.140834 2.73737 -2.51099 -3.8602 -0.411945 0.231771 -0.58681 0.262398 0.459366 0.0693388 0.0337358 -0.658272 -0.0688427 1.21514 -0.0397301 -0.0663161 -0.392746 -0.0804942 0.174204 -0.71565 0.431621 0.285137 -0.26356 -0.0101731 -0.145332 -0.224457 -0.225647 -0.0513166 0.0534444
33381 -0.169082 -0.15595 1.43967 -0.0121587 2.8506 -2.21758 -3.52209 -0.41811 0.360858 -0.368569 0.0441732 0.819053 -0.0314998 0.09058 -0.399159 -0.347388 1.36226 -0.0923098 -0.470589 -0.572755 0.176699 -0.019182 -0.613567 0.684489 0.359929 0.131054 -0.0989842 -0.0876128 -0.0750945 -0.382074 0.0892294 0.268156
31919 -0.065306 0.0788623 1.63366 -0.234338 2.73273 -2.44779 -3.91287 -0.438922 0.0263356 -0.525525 -0.0232335 0.146236 -0.0158331 -0.135144 -0.670988 -0.372554 1.25095 -0.201273 -0.298322 -0.428653 0.0437827 -0.0199479 -0.59435 0.468695 0.353642 -0.0712623 0.0672251 -0.122768 -0.35001 -0.377049 0.0906004 0.201406
31093 -0.0193454 0.0988492 1.76079 -0.257233 2.61499 -2.42336 -3.26452 -0.385246 0.0829958 -0.756888 0.249562 0.19984 0.0789176 0.273382 -0.827147 0.0677054 1.44822 -0.374922 -0.224869 -0.497008 -0.0562287 0.282907 -0.715955 0.425913 0.468405 -0.213751 0.160062 -0.370604 -0.49618 -0.420531 -0.364808 0.28769
35756 0.0191411 -0.193704 1.51927 -0.530273 2.72589 -2.41462 -3.33818 -0.417523 0.000593122 -0.639411 0.0805579 0.215473 -0.312247 0.2018 -0.661775 -0.272705 1.40869 -0.417298 0.0380294 -0.172391 0.193865 0.196221 -0.792227 0.345585 -0.0441672 -0.0176099 0.0486223 -0.523472 0.0333936 -0.338823 -0.0116034 0.242359
35197 0.10552 -0.417599 1.5885 -0.335365 2.52764 -2.34336 -3.54673 -0.349233 -0.398411 -0.547707 0.465029 0.322331 0.121742 0.404534 -0.600656 -0.264273 1.32114 -0.371419 -0.282321 -0.0523834 0.169797 0.138254 -0.555855 0.549063 0.393558 -0.0089701 0.0498832 -0.360821 0.0857305 -0.511492 -0.0906191 0.128644
36531 -0.410882 -0.165307 1.51291 0.037837 2.68103 -2.32146 -3.96675 -0.786294 -0.0482379 -0.446583 0.044188 0.364233 0.0817344 0.257984 -0.567424 -0.372945 1.15777 -0.260034 -0.0261977 -0.356403 0.10897 0.0368192 -0.589493 0.209124 0.157639 -0.329895 -0.0660198 -0.0535197 -0.197848 -0.50835 -0.0986612 0.224984
31550 -0.0533934 -0.0303228 1.77744 0.0210069 2.85669 -2.17821 -2.96564 -0.455498 -0.101747 -1.02629 0.0926248 0.314721 0.0908103 0.476732 -0.634745 -0.019045 1.50589 -0.653156 -0.331195 -0.396921 -0.0929728 0.267056 -0.402726 0.769982 0.534674 0.0695572 0.149684 -0.372208 0.0973612 -0.750138 0.0300217 0.192415
31117 -0.150285 0.231789 1.31932 -0.148861 2.57082 -2.44332 -3.82393 -0.568781 -0.0432558 -0.449991 0.329769 0.696097 0.136002 0.0599815 -0.457884 -0.197359 1.23363 -0.557493 -0.141939 -0.184122 -0.21501 0.0853589 -0.596056 0.514303 0.428464 -0.00541536 -0.00147917 -0.189103 -0.015428 -0.0656867 -0.176065 0.393334
33230 -0.0551221 -0.0920871 1.26993 -0.246049 2.50383 -2.64396 -3.59942 -0.823018 0.068343 -0.557771 0.0612334 0.429504 -0.00806371 -0.0788482 -0.60285 -0.210809 1.23552 -0.476249 0.0645549 -0.261037 -0.0704657 -0.113238 -0.504524 0.635229 0.270879 0.068101 0.0819797 -0.313049 -0.0688854 -0.16266 -0.00705101 0.334867
37095 -0.353382 -0.0705873 1.20233 -0.159056 2.60064 -2.4364 -3.7213 -0.867521 0.293165 -0.689251 0.231127 0.363241 0.152231 0.251613 -0.638078 -0.21085 1.00251 -0.111674 -0.176276 -0.312204 -0.0685978 0.180173 -0.60678 0.443077 -0.0963329 -0.180649 0.339132 -0.174343 -0.24769 -0.168457 -0.285998 0.351928
32870 -0.0580716 0.00902996 1.62687 -0.273732 2.34421 -2.55802 -3.73775 -0.653119 -0.0350561 -0.870207 0.123392 0.29645 0.0865395 0.410667 -0.744004 -0.138214 1.18419 -0.277884 -0.317522 -0.271329 -0.0198035 0.180856 -0.628147 0.575734 0.326737 0.0400492 0.0374717 -0.217359 -0.328077 -0.355937 0.107005 0.194023
34115 -0.0839258 -0.422955 1.59199 -0.340954 2.52032 -2.408 -3.31529 -0.54365 0.222008 -0.892616 0.286384 0.407076 -0.152313 0.0479488 -0.662945 -0.329484 1.235 -0.0529527 0.0706545 -0.810889 0.00790499 0.278008 -0.76696 0.540032 0.00715034 -0.115181 0.0866611 -0.25652 -0.0720001 -0.544678 -0.309937 0.251743
33092 -0.411925 -0.385923 1.66677 -0.066917 2.20203 -2.62007 -2.93969 -0.394459 -0.178156 -0.595728 0.478324 0.351825 0.0951925 0.250274 -1.07425 -0.610349 1.17833 -0.228716 0.046481 -0.587445 -0.0713567 0.233784 -0.861366 0.815961 0.440121 0.108106 0.347444 -0.0106799 -0.327237 -0.633967 -0.141705 0.389747
33675 -0.0132963 -0.0733898 1.56366 -0.136479 2.5173 -2.46454 -4.06181 -0.531191 -0.135216 -0.360709 -0.0453588 0.43527 -0.152876 -0.0680785 -0.668291 -0.324998 1.06605 -0.416145 0.100358 -0.291692 0.0268448 -0.0439264 -0.484308 0.395688 0.290486 0.051655 -0.0702616 -0.0163183 -0.00560374 -0.231406 0.0913352 0.366217
31724 0.0524783 0.114887 1.55282 -0.103702 2.69681 -2.33416 -3.97974 -0.417192 -0.0855387 -0.623516 -0.100942 0.28568 0.0868514 0.0961576 -0.615581 -0.316195 1.10612 -0.602152 -0.0815318 -0.202637 -0.122577 0.148139 -0.659823 0.352523 0.203285 -0.158897 0.0654147 -0.111885 0.0749414 -0.481764 -0.0669466 0.322589
33807 0.473919 0.0261321 1.59652 0.0345941 2.6828 -2.29514 -3.93854 -0.380047 -0.252216 -0.631516 0.208011 0.148016 0.226307 0.103882 -0.49309 -0.363366 1.25862 -0.416943 -0.17398 0.00264346 9.73414e-05 0.038375 -0.360277 0.381952 0.495685 -0.349114 -0.170901 -0.43595 -0.101661 -0.241004 0.0837427 0.20598
36733 -0.192431 0.0279368 1.36353 -0.0246825 2.71304 -2.43796 -3.94461 -0.49745 -0.14334 -0.384153 0.207501 0.330258 0.121561 0.14943 -0.809153 -0.238592 1.09282 -0.157203 0.0336143 -0.273441 0.0410984 0.525344 -0.506793 0.376371 0.228345 -0.245768 0.0723559 -0.108196 -0.137211 -0.355528 -0.277926 0.513682
32104 -0.231148 -0.196266 1.44452 -0.158774 2.65463 -2.50447 -3.35472 -0.343743 0.0148586 -0.761731 -0.0329608 0.51403 -0.205908 0.121764 -0.831749 -0.285696 1.23067 -0.484563 0.162949 -0.291249 -0.244012 0.195876 -0.865315 0.371381 0.0336753 0.0178697 -0.149705 -0.709464 0.0665123 -0.498069 0.132087 0.265779
35810 -0.117213 0.078082 1.58452 -0.205337 2.57687 -2.7508 -3.93035 -0.559192 0.270479 -0.472509 0.0833426 0.441397 0.102547 0.167267 -0.745589 -0.386817 1.1618 -0.452261 -0.284722 -0.314309 -0.124899 0.108141 -0.532265 0.40152 0.373283 -0.039917 -0.01112 -0.252139 -0.305953 -0.580002 -0.110714 0.175194
32446 -0.245027 0.0399759 1.41734 -0.290894 2.65051 -2.54764 -3.53926 -0.47341 0.163757 -0.69532 0.443929 0.0519395 -0.118891 0.311199 -0.75531 -0.246862 1.25241 -0.254165 -0.00310993 -0.277712 0.213965 0.208363 -0.658002 0.354014 0.256416 -0.114556 -0.118376 -0.429329 -0.153258 -0.560009 0.134063 0.340485
33727 0.0567809 -0.059852 1.59045 0.0274009 2.59625 -2.46188 -3.49373 -0.670456 -0.357433 -0.587359 0.4269 0.252769 0.157812 0.117257 -0.718347 -0.270139 1.15204 -0.327563 -0.294585 -0.375548 -0.313241 0.0164469 -0.675633 0.376418 -0.0274753 0.00586772 0.0657991 -0.40397 0.0430673 -0.491059 -0.217592 0.164337
36210 0.0194617 0.0383173 1.49143 -0.137951 2.55651 -2.56831 -3.96772 -0.461967 -0.141369 -0.619708 0.0486666 0.246101 -0.0510501 0.131299 -0.756815 -0.288463 1.07264 -0.539056 -0.0847995 -0.263552 -0.00487332 0.159255 -0.652939 0.471757 0.205307 -0.0402644 0.19166 -0.216769 -0.215476 -0.38158 0.0579692 -0.0411134
34440 0.112676 -0.054954 1.52556 -0.352977 2.44941 -2.66272 -3.6864 -0.72466 0.0236145 -0.613012 0.259697 0.473039 -0.240657 0.0851205 -0.634861 -0.412976 1.18393 -0.350622 -0.191968 -0.214255 -0.0140027 0.134685 -0.484708 0.531275 0.234661 -0.154755 -0.0157888 -0.14414 -0.119285 -0.438374 -0.0241166 0.330355
36625 0.0405725 -0.0362598 1.46425 -0.186777 2.46376 -2.53812 -4.01584 -0.528615 -0.028629 -0.473249 0.0593865 0.463644 -0.0630697 0.0755312 -0.585317 -0.267461 1.2348 -0.0683864 0.0757025 -0.0188057 -0.224041 -0.115484 -0.579054 0.482145 0.300961 0.00547278 -0.100512 -0.00428013 -0.0625579 -0.198367 -0.0926725 0.251566
34102 -0.0100253 0.148227 1.62233 -0.0731977 2.68471 -2.51212 -3.4787 -0.318808 0.0792087 -0.43988 0.455191 0.535672 0.217355 -0.055263 -1.02371 -0.291887 1.14404 -0.504204 0.0174218 -0.247771 -0.17786 0.16425 -0.683425 0.0791394 0.532833 0.141467 -0.068041 -0.455326 -0.358739 -0.529412 0.465093 0.166997
32754 0.177857 0.116287 2.04082 -0.350772 2.53685 -2.14435 -2.63506 -0.521898 -0.108903 -0.975627 0.463287 0.641032 -0.0107436 0.214994 -0.770789 -0.215175 1.40503 -0.506089 -0.222009 -0.795109 -0.00594698 0.412125 -0.772006 0.718807 0.398064 -0.209686 0.218167 -0.368931 -0.170687 -0.664843 0.0492184 0.215292
35020 0.0120536 -0.14175 1.72349 -0.0782449 2.72491 -2.23917 -3.07075 -0.533793 -0.117812 -0.745023 0.271233 0.499061 0.0832073 0.202494 -0.97783 -0.159124 1.42432 -0.328963 -0.0900132 -0.489675 0.0248352 0.0463434 -0.733019 0.445663 0.911212 -0.0561629 0.00588301 -0.368335 -0.431121 -0.499731 0.100489 0.407441
36439 0.302706 -0.125759 1.40532 -0.12642 2.62593 -2.54875 -3.702 -0.490829 -0.206996 -0.431529 0.0339082 0.509938 -0.18563 0.0906665 -0.769284 -0.474324 1.12394 -0.529804 0.243077 -0.315339 -0.0105991 0.167259 -0.635106 0.452948 0.328454 0.0644165 0.331053 -0.344592 -0.053633 -0.254511 0.0430124 0.284593
35269 -0.0102475 -0.0877482 1.7029 0.110375 2.38239 -2.44648 -3.5627 -0.504792 0.0739745 -0.790859 0.33586 0.325737 -0.0379863 -0.0651159 -0.666612 -0.701206 1.11827 -0.544561 0.168516 -0.210833 0.0277482 -0.0329654 -0.666381 0.414686 0.496585 -0.174148 -0.256551 -0.401407 -0.0432728 -0.214323 -0.18867 0.450799
34635 -0.106441 -0.00379426 1.45693 -0.0866734 2.57703 -2.5027 -4.07948 -0.544745 -0.11205 -0.466413 0.187799 0.311199 -0.0296621 0.0751863 -0.713779 -0.202221 1.14892 -0.349865 0.0480579 -0.133445 -0.0596798 -0.0400945 -0.523903 0.417797 0.420429 -0.0288897 -0.0652556 -0.00232492 -0.114433 -0.376111 -0.0343574 0.143538
34333 -0.0574664 0.0901512 1.65259 -0.103204 2.44985 -2.41609 -3.36193 -0.339533 0.20313 -0.716649 0.184508 0.438112 -0.0617675 0.168454 -0.64923 0.0295532 1.42445 -0.359956 0.15651 -0.331081 0.0317912 -0.0140953 -0.44462 0.77985 0.240517 -0.0540428 0.0877356 -0.126952 -0.20472 -0.381327 -0.100965 0.316711
33591 -0.22903 -0.00600736 1.53791 -0.229702 2.43319 -2.63303 -3.83416 -0.743391 -0.0807915 -0.55126 0.15217 0.362722 -0.158383 -0.251629 -0.600558 -0.375612 1.20876 -0.362311 -0.135955 -0.394311 -0.0768073 -0.11049 -0.487585 0.620429 0.253048 -0.0374211 -0.0280416 -0.277808 -0.14801 -0.2902 -0.0922497 0.110637
34321 -0.0575497 0.0369562 1.497 -0.284183 2.60865 -2.53408 -3.96631 -0.553478 0.0407948 -0.532005 0.151798 0.349001 -0.0449852 0.00717332 -0.66399 -0.367331 1.19041 -0.204904 -0.170138 -0.329923 0.0442958 -0.0113716 -0.687537 0.309903 0.23387 -0.216004 0.109726 -0.198436 -0.221708 -0.230303 0.0753164 0.267739
35115 -0.125187 -0.0495263 1.47354 -0.16495 2.67031 -2.40203 -3.09227 -0.305647 0.167326 -0.976568 0.22993 0.35188 0.00221338 -0.0497324 -0.790159 -0.198442 1.29379 -0.335832 -0.0755003 -0.532477 0.0636331 0.223798 -0.747896 0.738029 0.332685 0.271161 0.461954 -0.0962559 -0.171933 -0.535836 0.111024 0.478869
34212 0.129709 0.0161795 1.58231 -0.145656 2.56431 -2.61686 -3.98949 -0.687412 0.0929274 -0.407543 -0.107253 0.140547 -0.0729691 0.215415 -0.923267 -0.0603032 1.09259 -0.191546 -0.183841 -0.194436 0.0338616 0.0318027 -0.693644 0.224158 -0.0339889 0.206867 0.100194 -0.180933 0.0699123 -0.476581 -0.291111 0.318712
36311 0.153843 -0.101928 1.65464 0.264208 2.60902 -2.43197 -3.26235 -0.635896 -0.15361 -0.681502 0.182643 0.273364 0.169889 0.115942 -1.01051 -0.129331 1.19994 -0.130267 -0.162936 -0.317265 0.11329 -0.145611 -0.755509 0.57991 0.103845 0.0697036 0.356266 -0.370229 0.0967667 -0.392851 -0.228811 0.239051
35068 0.0498204 0.00860627 1.56801 -0.111311 2.63699 -2.57601 -3.42367 -0.60704 0.146617 -0.70972 -0.034011 0.21971 -0.0959569 -0.0570886 -0.946759 -0.318728 1.15712 -0.405247 0.049987 -0.2698 -0.244856 0.190528 -0.761403 0.309398 -0.089787 -0.0434874 -0.0792177 -0.750957 -0.044204 -0.494006 -0.0855181 0.164113
36882 -0.123172 -0.196677 1.29671 -0.121296 2.54806 -2.45493 -3.8947 -0.469719 -0.367682 -0.351032 0.0450536 0.253057 0.115643 0.284243 -0.734286 -0.231524 0.980876 -0.707804 0.137941 -0.172822 0.0110911 -0.0509858 -0.444274 0.347825 0.0517662 -0.0602934 0.330347 -0.287001 -0.206062 -0.328034 0.0352701 0.4575
35701 0.087427 0.155245 1.74489 0.0766632 2.53761 -2.34181 -3.10634 -0.482477 0.053671 -0.742802 0.103288 0.300953 0.143558 -0.153574 -0.660203 -0.401804 1.48523 -0.357188 0.210015 -0.403565 -0.19555 -0.0885853 -0.749452 0.550033 0.340321 -0.0486103 -0.197334 -0.308324 -0.184689 -0.326417 -0.265286 0.309123
34185 0.298022 0.230599 1.60754 -0.244498 2.78583 -2.27411 -3.86767 -0.415955 0.106859 -0.629636 0.199201 0.0804457 -0.0269574 0.0283126 -0.802308 -0.532202 1.18002 -0.323678 0.196258 -0.280592 -0.145893 -0.209996 -0.426121 0.39823 0.397586 -0.282085 0.11898 -0.508095 -0.190629 -0.38146 -0.277633 0.50597
31913 -0.105354 0.187992 1.50405 -0.0706115 2.54032 -2.45615 -3.94101 -0.372583 -0.142083 -0.573025 0.111586 0.222999 0.336978 0.433429 -0.630586 -0.560885 1.12782 -0.221818 -0.157054 -0.0963645 -0.0825075 -0.117556 -0.710731 0.332229 0.122288 0.22953 -0.0841158 -0.364173 -0.0600209 -0.219778 -0.245657 0.39018
32842 0.042584 -0.0723897 1.63103 -0.0546365 2.4829 -2.56263 -3.90479 -0.360684 -0.0835605 -0.44109 -0.196504 0.155541 -0.0615104 0.075082 -0.890604 -0.256733 1.16055 -0.239389 -0.267194 -0.287611 -0.05578 -0.088778 -0.529505 0.409769 0.0656069 0.156977 0.12232 -0.281769 -0.000390937 -0.492929 -0.22952 0.512454
34405 -0.0643922 0.0920592 1.59459 -0.00643556 2.53572 -2.59093 -3.74912 -0.430634 -0.0798202 -0.391516 -0.0469704 0.148565 -0.117142 0.371308 -0.488062 -0.406051 1.38737 -0.196141 0.116265 -0.416044 -0.0525569 0.155512 -0.685057 0.581483 0.0623677 -0.028374 0.0854182 -0.0856278 -0.339192 -0.291751 -0.0613497 0.102113
31916 -0.0932169 -0.107914 1.3899 0.0642623 2.68883 -2.54727 -3.85374 -0.579749 -0.155421 -0.362883 -0.0520039 0.285381 -0.0687275 0.0341397 -0.728716 -0.351655 1.1585 -0.300358 0.229741 -0.298395 0.00754569 0.112588 -0.620874 0.440491 0.161444 0.0405893 -0.0623436 -0.340365 -0.223569 -0.359888 -0.105532 0.16597
34830 0.090966 -0.192643 1.67434 -0.191829 2.59483 -2.47483 -2.84133 -0.380137 -0.129679 -0.920828 -0.0485978 0.292278 0.0561001 0.203804 -0.663121 -0.388679 1.60718 -0.264942 -0.355777 -0.517906 -0.0615896 0.170421 -1.02506 0.636686 0.615695 0.116007 0.0401211 -0.280143 -0.384277 -0.374569 -0.0251919 0.386961
36710 -0.275234 -0.0335429 1.55935 -0.21452 2.62696 -2.36504 -3.31885 -0.481869 -0.0176917 -0.685725 0.0181861 0.592854 0.0640704 -0.178035 -0.753789 -0.493269 1.04722 -0.21012 -0.0971067 -0.483284 -0.0561331 0.190713 -0.67279 0.742299 0.0301523 -0.205913 0.110112 0.0590818 -0.115378 -0.328444 -0.027137 0.132741
34697 -0.323009 0.0313337 1.45498 -0.313276 2.60144 -2.53561 -3.65709 -0.564112 0.0663506 -0.296494 -0.010597 0.170117 0.0158719 -0.208047 -0.71028 -0.551022 1.21617 -0.482013 -0.166767 -0.178745 0.076095 0.274897 -0.150009 0.859709 0.311153 -0.261341 -0.335297 -0.379661 -0.275315 -0.503265 -0.307983 0.150518
32218 -0.00898708 -0.12558 1.37162 -0.182216 2.62675 -2.44451 -3.62396 -0.846889 0.0635941 -0.77792 -0.158653 0.53956 0.033453 -0.250693 -0.600532 -0.15038 1.15957 -0.599994 0.0328243 -0.248456 -0.0882532 0.164031 -0.500101 0.596196 0.220502 -0.0184424 -0.241574 -0.162017 -0.0712865 -0.219147 -0.0423457 0.482509
32343 -0.0629736 -0.0489954 1.51686 -0.167585 2.75931 -2.64238 -4.06495 -0.66146 0.119811 -0.599538 0.0701042 0.342837 0.11831 0.104137 -0.736402 -0.235891 1.19571 -0.275381 -0.224741 -0.32953 0.0310382 0.128598 -0.697674 0.428014 0.280254 -0.219952 -0.0244241 -0.163505 -0.223705 -0.373965 -0.137068 0.16143
34232 -0.0882226 -0.0515099 1.69638 -0.233505 2.29532 -2.61075 -2.94267 -0.14573 0.270441 -0.616101 0.367405 0.497605 -0.0921694 0.0442601 -0.654306 0.0823054 1.65569 -0.377673 0.00311403 -0.254124 -0.416074 0.0535282 -0.895967 0.637881 0.517735 0.0455302 -0.24113 0.128466 -0.265173 -0.377549 0.0159287 0.132027
32859 -0.0186782 0.0976711 1.58749 -0.0864216 2.70769 -2.58411 -4.04376 -0.623845 0.110488 -0.518431 0.13533 0.260808 0.108114 0.0986396 -0.780424 -0.197259 1.09117 -0.501448 -0.103197 -0.220819 -0.104837 0.0634491 -0.578528 0.476169 0.244711 -0.120186 0.0901825 -0.257269 -0.0419 -0.262869 -0.0830466 0.242826
31493 -0.218358 -0.151261 1.85696 -0.287894 2.27417 -2.53082 -2.84122 -0.188727 0.0228582 -0.659926 0.765218 0.538766 0.176093 -0.212263 -0.781392 -0.369914 1.47666 -0.65866 0.0893902 0.0230304 -0.00249519 -0.0537994 -0.607275 0.634585 0.168016 -0.20904 0.21268 0.000770204 0.0601982 -0.722317 -0.0311775 0.0684657
33806 -0.382665 -0.253534 1.72865 -0.408628 2.15931 -2.67606 -3.05774 -0.37458 0.156394 -0.930111 0.497156 0.45624 0.319787 -0.00986223 -0.856627 -0.279362 1.20718 -0.77461 -0.0278951 -0.134681 -0.0748345 0.270437 -0.949913 0.663604 0.488204 -0.00837682 -0.0348441 -0.267505 0.0512849 -0.609699 -0.0428736 -0.0629815
35364 -0.0878031 0.197585 1.58736 -0.157743 2.67383 -2.59619 -4.13055 -0.519034 0.098781 -0.483529 0.144898 0.342222 0.09572 0.0963091 -0.813972 -0.161241 1.18696 -0.326612 -0.0773159 -0.263863 0.12418 0.142437 -0.628849 0.294029 0.308155 0.0551495 1.72969e-06 -0.364103 -0.21242 -0.339779 0.0226536 0.220187
31839 -0.179927 -0.0447096 1.27845 -0.0662477 2.75852 -2.47621 -3.92318 -0.720038 0.0877087 -0.677924 0.0912205 0.497654 0.155452 0.264861 -0.783701 -0.332964 0.957374 -0.387733 -0.0924681 -0.117889 -0.0996649 -0.0620906 -0.62909 0.457714 0.263243 0.129241 0.1957 -0.185503 -0.150853 -0.40071 -0.103953 0.106614
33131 -0.136166 0.065122 1.34107 -0.00733494 2.65658 -2.52566 -4.01942 -0.605735 -0.039305 -0.249352 -0.0724589 -0.00222942 0.112322 0.0253834 -0.721678 -0.274048 1.12556 -0.333607 -0.153268 -0.266832 -0.038726 0.126278 -0.26391 0.698366 0.0347618 -0.0475274 -0.209901 -0.527178 -0.0372122 -0.331935 -0.18802 0.310234
35128 -0.188153 -0.0768734 1.50805 -0.15622 2.33413 -2.60413 -3.99892 -0.779122 -0.0586786 -0.516507 0.13712 0.259027 -0.0202653 -0.108576 -0.516468 -0.469435 1.22575 -0.417531 0.045174 -0.0464084 0.0199118 -0.0766044 -0.373571 0.533737 0.32089 -0.0928021 -0.017192 -0.140798 -0.195236 -0.301207 -0.0629814 0.252731
31658 -0.12872 -0.114565 1.63318 -0.133571 2.50216 -2.51919 -3.6215 -0.611995 0.0717719 -0.668704 0.0990087 0.236415 0.0239672 -0.244191 -0.788174 -0.386961 1.18802 -0.508349 0.187415 -0.30751 -0.0516314 -0.160012 -0.664195 0.353832 0.283017 -0.224427 -0.181936 -0.300216 -0.218916 -0.357625 -0.18417 0.17696
32341 -0.291844 -0.17628 1.44612 -0.0903097 2.70908 -2.38846 -3.84006 -0.355193 0.0375185 -0.689525 0.0763648 0.278064 0.0551264 0.185852 -0.745206 -0.16922 1.19615 -0.244994 -0.0182363 -0.0374124 -0.0949836 -0.00487118 -0.681945 0.459218 0.347201 -0.0576638 0.271353 -0.0673253 -0.0150876 -0.336111 -0.099266 0.152764
31987 -0.220996 -0.00441971 1.51943 -0.293625 2.61061 -2.48134 -3.96838 -0.531512 -0.0446081 -0.441299 0.170196 0.363978 -0.126185 -0.112182 -0.761014 -0.160212 1.17563 -0.301268 0.0356197 -0.163063 -0.221126 -0.0945455 -0.540248 0.558398 0.274008 -0.0361522 0.15314 -0.189053 -0.0852112 -0.314251 0.100572 0.161764
31882 -0.206374 0.208671 1.54489 0.0357614 2.55691 -2.63063 -4.11711 -0.632376 0.0759781 -0.536062 0.177362 0.168074 0.109893 0.0442486 -0.783221 -0.182107 1.1036 -0.287948 -0.0748649 -0.272714 0.0404614 0.110544 -0.646106 0.294596 0.26798 -0.0414672 -0.0408601 -0.302998 -0.136269 -0.393911 0.0659107 -0.0160219
33827 -0.0947519 0.0661086 1.56026 -0.268153 2.53544 -2.41649 -3.55796 -0.545164 -0.0934056 -0.688516 -0.0480258 0.189667 0.228974 0.110297 -0.783036 -0.277314 1.22174 -0.231009 -0.0213315 -0.193872 0.00765528 0.174886 -0.608279 0.654901 0.254082 -0.0990534 -0.0360339 -0.403458 -0.165325 -0.348873 0.128714 0.302409
34046 -0.1272 0.07595 1.46509 -0.407922 2.62569 -2.48034 -3.71774 -0.391437 -0.0587777 -0.695319 -0.000584242 0.146029 0.0865093 -0.102919 -0.606411 -0.202332 1.23303 -0.205049 -0.378544 -0.280163 0.222121 0.169708 -0.451886 0.536625 0.30232 0.134448 0.210448 -0.258713 -0.179316 -0.227175 0.218114 0.475736
33595 0.00197747 0.274713 1.67763 -0.198653 2.42434 -2.57843 -4.02124 -0.929322 0.0303155 -0.552787 0.264411 0.396486 -0.104499 0.157248 -0.681544 -0.250647 1.0798 -0.497154 -0.403372 -0.261178 0.173141 -0.00972432 -0.640096 0.452144 0.21489 -0.246021 0.0649098 -0.382164 -0.253745 -0.233197 -0.260324 0.0982532
32768 -0.410503 0.0711204 1.3388 -0.372669 2.62953 -2.48473 -3.54437 -0.334709 0.291673 -0.70193 0.0841119 0.113297 0.110663 0.074398 -0.836655 -0.178362 1.18275 -0.37108 -0.180341 -0.217265 -0.0565337 0.369742 -0.356748 0.633269 0.319853 -0.358326 -0.177125 -0.232253 -0.354464 -0.659826 -0.185669 0.202019
34996 -0.309794 -0.0151634 1.45335 -0.427967 2.65329 -2.5954 -3.69645 -0.657979 0.0744259 -0.441136 0.157834 0.3064 0.121559 0.0267345 -0.667505 -0.614394 1.3718 -0.131512 -0.11313 -0.0779433 0.0402427 0.301235 -0.323969 0.804894 0.163169 -0.134723 -0.114979 -0.456262 -0.121129 -0.451138 -0.200729 0.271649
32522 -0.270027 -0.126437 1.66031 -0.20905 2.51193 -2.41405 -3.83572 -0.59975 0.0157103 -0.46756 0.364151 0.423852 -0.138668 -0.107478 -0.559553 -0.264408 1.26792 -0.382437 0.00121517 -0.155111 0.0560827 0.0603746 -0.523394 0.583315 0.271966 -0.0688179 0.216684 -0.113514 -0.0748159 -0.324165 -0.0806896 -0.0260085
34559 -0.270372 -0.0530533 1.81809 -0.487128 2.4353 -2.28413 -2.79577 -0.422568 -0.0687944 -0.891343 0.286644 0.492076 0.0368531 0.106829 -0.97707 -0.273002 1.36604 -0.185756 -0.147738 -0.437262 -0.00738324 0.162744 -0.961899 0.584481 0.433951 0.0428049 0.250505 -0.300996 -0.310724 -0.330258 -0.15945 0.210988
35658 -0.193121 0.0447497 1.45365 -0.0651056 2.63002 -2.45758 -3.82992 -0.596175 0.166997 -0.626042 0.271565 0.40545 -0.107048 0.136212 -0.752786 -0.373673 1.09024 -0.188469 -0.019249 -0.296716 -0.0445334 0.219172 -0.65652 0.356881 0.210174 -0.125867 -0.00447734 -0.113108 -0.156923 -0.261037 -0.102905 0.408199
34985 0.199492 -0.346695 1.82873 0.042444 2.91812 -2.06079 -3.14032 -0.515826 -0.0146994 -0.678776 0.353739 0.373342 -0.124431 0.267143 -0.673302 -0.338782 1.4638 -0.284107 -0.249998 -0.357533 -0.178792 0.187161 -0.669369 0.394239 0.601659 -0.0308609 0.0601705 -0.0891037 -0.298657 -0.50306 -0.0562176 0.104518
30988 -0.0154502 0.0762669 1.44861 -0.245942 2.70557 -2.53875 -4.08462 -0.37813 0.0406994 -0.561632 0.163399 0.326641 -0.0821445 0.113913 -0.638209 -0.283608 1.13738 -0.328444 -0.097355 -0.406745 0.0141647 0.0942393 -0.622152 0.422958 0.189795 -0.0925078 0.0549994 -0.206789 -0.14424 -0.388304 0.119062 0.261664
35040 -0.0041952 0.199727 1.45266 0.00365073 2.62372 -2.55374 -3.77419 -0.616868 0.179458 -0.611628 0.320896 0.467834 0.0582697 0.236989 -0.654839 -0.415904 1.23441 -0.264244 -0.00868589 -0.0188096 0.0337857 -0.0456952 -0.634457 0.603913 0.143143 0.142388 0.267927 -0.144658 -0.208743 -0.341524 -0.124228 0.171778
32284 -0.267671 0.403908 1.57022 -0.192777 2.58682 -2.44317 -3.5238 -0.576339 -0.200189 -0.587705 0.116296 0.362796 0.131919 0.344687 -0.803624 -0.188257 1.38763 -0.131844 0.160969 -0.260619 -0.154277 -0.10701 -0.775721 0.298826 0.350509 0.224347 0.153427 -0.515328 -0.562177 -0.624071 0.0684286 -0.0569299
36673 0.147936 0.0886052 1.50797 -0.0680354 2.20174 -2.76976 -3.06395 -0.624528 -0.0717193 -1.07292 0.294129 0.511797 -0.291789 -0.110847 -0.840937 -0.16901 1.32213 -0.389059 -0.126738 0.00401937 -0.019627 -0.133879 -0.549235 0.61371 0.401935 -0.0438375 -0.240024 -0.0599488 -0.351376 -0.607937 0.332966 0.345502
35408 -0.183155 0.0411576 1.68561 -0.251998 2.62138 -2.43082 -3.54247 -0.630573 -0.217461 -0.523138 0.225978 0.123585 -0.000127837 0.0159462 -0.733272 -0.325391 1.42501 0.0966457 -0.045251 -0.312893 0.184612 0.249114 -0.814757 0.355486 0.0935967 -0.206343 -0.161722 -0.529288 0.10738 -0.214749 -0.225402 0.355842
33105 -0.0680362 -0.0878954 1.52252 -0.154347 2.57309 -2.59855 -3.48901 -0.597685 0.0131263 -0.645924 -0.11076 0.263666 -0.113416 -0.0233182 -0.71917 -0.139701 1.25539 -0.284259 0.0450189 -0.284604 0.031128 0.12184 -0.769003 0.280746 0.00460244 0.0354194 -0.039222 -0.674984 0.144757 -0.418943 0.0918279 0.123814
31984 0.0460801 0.0270649 1.46997 -0.108275 2.63368 -2.621 -4.15707 -0.559667 0.141513 -0.307223 0.0387259 0.275813 -0.0101202 0.131942 -0.712098 -0.211171 1.11709 -0.383822 -0.183663 -0.360265 -0.0655364 0.0468879 -0.562356 0.404271 0.215672 0.0288243 0.102456 -0.216298 -0.0750145 -0.363918 -0.122876 0.0831762
31656 -0.229102 -0.198509 1.47171 -0.12771 2.7086 -2.31404 -3.71499 -0.58836 -0.0870842 -0.599707 0.116336 0.30019 -0.0602808 0.0661763 -0.764432 -0.311144 1.14105 -0.398273 0.00703872 -0.20979 0.0229879 -0.00724278 -0.592236 0.431986 0.409232 0.0965907 0.193159 -0.167005 0.0788284 -0.383566 -0.194855 0.329644
31792 -0.214911 -0.111777 1.5846 -0.326602 2.50636 -2.4122 -3.89736 -0.651833 -0.0536786 -0.499004 0.160947 0.412676 -0.0847165 -0.108658 -0.494224 -0.272679 1.29813 -0.37277 -0.0559407 -0.166164 0.02343 -0.0915555 -0.556526 0.565534 0.131728 0.0658206 0.175981 -0.143274 -0.121215 -0.273909 0.0280515 0.0731321
34611 -0.0591254 0.01936 1.19996 -0.0956987 2.74576 -2.55528 -3.90279 -0.436688 -0.127194 -0.268835 0.044607 0.289958 0.0461218 0.103538 -0.48046 -0.232913 1.23288 -0.389222 0.31007 -0.444704 0.0685646 0.262985 -0.467667 0.578956 0.199554 -0.0914052 0.0736052 -0.233475 -0.125843 -0.151208 -0.027208 0.199498
33121 -0.171339 -0.185626 1.31207 0.0782757 2.60521 -2.54328 -3.98792 -0.448821 0.198576 -0.544453 0.0598819 0.398722 0.17183 -0.0623203 -0.718759 -0.318802 0.998815 -0.478054 -0.108246 -0.0966642 -0.0201709 -0.0612406 -0.773073 0.381455 0.143945 -0.166289 0.140835 -0.170275 -0.208674 -0.1786 -0.0815707 0.249274
32801 -0.201331 -0.043423 1.53936 -0.127895 2.42866 -2.511 -3.91996 -0.544016 -0.117222 -0.520824 0.249358 0.372252 -0.0806915 -0.0433481 -0.556835 -0.321196 1.19392 -0.429065 -0.188399 -0.113598 0.118213 -0.137654 -0.513205 0.605715 0.0436355 0.0471647 0.14541 -0.0555612 -0.330724 -0.387569 0.0497521 0.156921
36262 -0.500217 0.0887251 1.37625 -0.19778 2.80166 -2.43563 -3.59788 -0.622538 -0.0158671 -0.373017 0.110449 0.367595 -0.143034 0.00495049 -0.733106 -0.417511 1.19885 -0.461719 -0.0623014 -0.221819 -0.138121 0.549204 -0.25935 0.797978 0.193786 -0.241109 -0.0915717 -0.269629 -0.372574 -0.425462 -0.25675 0.177259
31562 -0.192939 0.0258117 1.45091 -0.147508 2.68649 -2.45348 -4.00437 -0.541208 -0.0451925 -0.384968 -0.0291904 0.178443 0.0591193 0.0727425 -0.798497 -0.42834 1.05046 -0.294948 -0.117527 -0.260619 -0.0338682 0.143867 -0.41713 0.533224 0.184359 -0.0526266 -0.103669 -0.243167 -0.228196 -0.385529 -0.139193 0.324913
34518 -0.275006 -0.256923 1.51828 -0.227846 2.41474 -2.65612 -3.7691 -0.587989 0.0102248 -0.562778 0.205453 0.268167 -0.00819709 0.0214611 -0.539119 -0.388162 1.26855 -0.507829 0.0355438 -0.204261 0.134568 -0.106434 -0.517747 0.483123 0.188774 -0.0628917 0.0754729 -0.267943 -0.159756 -0.291893 0.139787 0.138342
33008 0.184467 -0.0529357 1.93325 0.091461 2.23383 -2.56874 -3.13607 -0.733571 -0.0139538 -0.696271 -0.0459043 0.791088 -0.0658064 0.230263 -0.749654 -0.377752 1.38337 -0.323168 0.00332304 -0.549677 0.0898119 0.250483 -0.807554 0.671495 0.0641066 -0.30877 0.0886 -0.560874 -0.432984 -0.306323 0.0113672 0.283657
35413 -0.28533 0.0370611 1.42336 -0.0580893 2.71733 -2.47344 -3.92437 -0.500799 0.0907234 -0.474219 0.111262 0.39826 0.117709 0.156059 -0.731007 -0.350049 1.04743 -0.504831 0.0251009 -0.194965 -0.0400042 0.047752 -0.638642 0.44617 0.101549 0.0758152 0.137041 -0.256493 -0.220061 -0.278449 -0.0282461 0.219076
35644 -0.277347 0.108048 1.48173 -0.124446 2.7492 -2.6013 -3.57633 -0.662037 0.0859884 -0.634382 0.0901928 0.676041 0.175078 0.300832 -0.80228 -0.296711 1.25602 -0.535609 -0.160761 -0.159642 -0.0901312 -0.297592 -0.626752 0.610165 0.223771 -0.00243599 -0.103184 -0.406056 -0.0825464 -0.429481 -0.147079 0.163461
132114 -0.0881666 0.102899 0.833109 -0.0548908 1.36203 -1.12712 -1.14559 -0.326682 0.234236 -0.215274 0.00584559 0.343212 0.0505334 0.156024 -0.539848 -0.123176 0.838025 -0.404206 -0.166093 -0.0595671 0.155338 -0.322753 -0.511871 0.346412 0.151618 -0.0777605 -0.161405 -0.0866102 -0.00809345 -0.286602 0.0128717 0.127291
36840 0.0533981 -0.198075 1.72617 -0.259246 2.66741 -2.19198 -3.84494 -0.649802 -0.0457244 -0.412106 -0.00159603 0.379199 0.0221484 0.242779 -0.56748 -0.380443 1.2211 -0.363187 -0.154147 0.0140709 -0.182035 0.10481 -0.806629 0.330316 -0.0317454 -0.00624277 0.106986 -0.14323 -0.0544758 -0.250908 0.0837565 0.186763
35703 0.0539043 0.0141429 1.53998 0.00938591 2.61191 -2.50607 -3.53028 -0.586233 -0.0965626 -0.598637 0.30353 0.256283 0.213158 -0.0339405 -0.826537 -0.237099 1.25615 -0.21808 -0.0983639 -0.0420026 -0.0824201 0.174972 -0.673906 0.445451 0.0661751 0.277578 0.125065 -0.418562 -0.521912 -0.462753 -0.156518 0.111597
36399 -0.132327 -0.120735 1.33001 -0.210613 2.65255 -2.59539 -3.75631 -0.254519 0.355965 -0.583439 -0.0775073 0.536529 -0.125629 0.279036 -0.612833 -0.475572 1.1451 -0.0876898 -0.214343 -0.373825 0.182173 0.0732847 -0.548454 0.500745 0.285578 0.203531 -0.0583625 -0.194174 -0.272324 -0.256313 0.0768816 0.170049
33692 -0.00589314 0.0642977 1.34323 -0.0204429 2.51459 -2.62284 -3.91109 -0.312644 0.00324784 -0.360613 0.224335 0.345295 -0.000281547 0.259368 -0.48346 -0.340808 1.21089 -0.220705 0.226456 -0.487253 -0.092689 0.249802 -0.643502 0.619595 0.0208248 -0.0335667 0.283328 -0.0778563 -0.263291 -0.162584 0.0235449 0.0671687
34400 -0.145822 0.0489154 1.6099 -0.209683 2.51021 -2.53325 -4.0827 -0.537377 -0.0584568 -0.452948 0.192569 0.267272 -0.00299898 0.0124412 -0.587405 -0.267272 1.2225 -0.301264 -0.13223 -0.267844 -0.0203457 -0.0354355 -0.520563 0.449766 0.243481 -0.0221733 0.033849 -0.14017 -0.209807 -0.389753 -0.00107719 0.0953227
33027 -0.0122017 -0.0232618 1.55733 -0.0282333 2.58192 -2.47046 -3.85982 -0.508458 0.135492 -0.528147 0.25864 0.314369 -0.176995 0.248249 -0.732266 -0.350366 1.10236 -0.31162 -0.179563 -0.302599 0.171929 -0.0275106 -0.524057 0.643143 0.148774 0.0246743 -0.0490836 -0.132746 -0.138919 -0.388959 0.185363 0.109762
34179 -0.0319292 0.208103 1.53211 -0.165097 2.54402 -2.56621 -3.88726 -0.345127 0.129051 -0.472047 0.350522 0.391631 0.0514089 0.0218812 -0.779521 -0.237363 1.05035 -0.491167 -0.0760317 -0.349252 -0.164988 -0.130795 -0.626691 0.510312 0.0436099 -0.11808 0.0621785 -0.291773 0.00677104 -0.236927 0.0156379 0.0730265
31330 -0.0855605 0.0485694 1.66404 -0.218235 2.48984 -2.42039 -3.82471 -0.814052 0.0506285 -0.549595 0.23811 0.421343 0.0050922 -0.489315 -0.601552 -0.152688 1.28456 -0.444235 -0.0326791 -0.159057 0.052622 -0.0376866 -0.511596 0.458248 0.24597 0.0257721 0.0166128 0.0618433 -0.22052 -0.330332 0.131175 0.0840181
33176 -0.251752 -0.0221474 1.55442 -0.00717249 2.55752 -2.29606 -3.9033 -0.554994 0.0989291 -0.587035 -0.128494 0.244437 0.119222 0.245393 -0.70385 -0.296318 1.10232 -0.420364 0.064188 -0.21033 -0.0805629 0.0228115 -0.746262 0.442614 0.083422 -0.0431683 -0.185288 -0.281284 -0.142839 -0.037804 0.079615 0.405542
32977 0.0200179 -0.0373367 1.73838 -0.0619669 2.15692 -2.50133 -3.90818 -0.808736 0.00686143 -0.498051 -0.290438 0.384068 0.122472 0.362746 -0.635956 -0.489593 1.07679 -0.245648 0.0201328 -0.399006 -0.21479 0.155997 -0.549065 0.47626 0.291486 0.0656876 -0.0589316 -0.141174 -0.322958 -0.398804 0.149907 0.283183
31632 0.00313942 0.0273777 1.73924 -0.0455454 2.47721 -2.62063 -3.98856 -0.60891 -0.177373 -0.523808 -0.0333383 0.274946 -0.00717831 0.19203 -0.834819 -0.425672 1.15189 -0.166179 -0.045729 -0.327997 -0.0575181 0.26249 -0.614861 0.397081 0.419866 -0.0233325 0.187412 -0.238455 -0.344378 -0.383982 0.272027 -0.000719724
30980 0.0490399 0.0825224 1.5601 -0.239978 2.77218 -2.31819 -3.9229 -0.444783 0.0576873 -0.574885 0.0615035 0.391385 0.306599 -0.0166875 -0.681861 -0.185792 1.13937 -0.484819 -0.00949691 -0.280836 -0.141002 0.194107 -0.729846 0.441648 0.200804 -0.239395 0.188765 -0.0788564 0.164372 -0.403153 -0.0678568 0.176121
36247 -0.25524 0.0546736 1.92663 -0.283389 2.5853 -2.18369 -3.56131 -0.280252 -0.308486 -0.598985 0.213153 0.561787 -0.0777129 0.0216054 -0.73818 -0.198034 1.2282 -0.305668 -0.0968517 -0.513282 0.228782 0.312246 -0.637151 0.64517 0.145951 0.137937 -0.238 -0.377775 -0.15066 -0.24134 0.292155 0.115343
33747 0.112689 -0.00339451 1.37932 0.150373 2.81461 -2.51327 -3.62332 -0.520947 -0.510707 -0.615771 0.302309 0.41094 0.135894 0.163091 -0.656405 -0.230113 1.27226 -0.181998 -0.388083 -0.223993 -0.0496912 0.0403239 -0.574744 0.441644 -0.0669254 0.179389 -0.0098881 -0.240033 -0.155444 -0.597313 -0.200747 0.239926
35407 0.0410656 0.10191 1.63813 -0.0190383 2.56732 -2.55907 -3.98119 -0.498802 -0.165028 -0.400603 0.230151 0.306872 0.0792291 0.175154 -0.837872 -0.287884 1.09438 -0.188269 -0.30665 -0.205312 0.113316 -0.0482348 -0.696981 0.247113 0.0408744 0.29288 -0.159312 -0.368172 -0.00891498 -0.405167 -0.350251 0.329764
30967 -0.143282 0.00735455 1.43626 -0.205488 2.66792 -2.4437 -3.83357 -0.502511 0.124375 -0.557207 -0.115309 0.436488 0.0480319 0.0397153 -0.818373 -0.16796 1.10341 -0.20874 -0.14198 -0.301969 -0.00551396 0.182609 -0.698254 0.291073 0.182881 0.0808253 0.0319005 -0.101084 -0.243544 -0.310669 -0.168593 0.316326
31229 -0.277888 0.237287 1.51794 -0.253019 2.57091 -2.60228 -3.82792 -0.573431 0.0699306 -0.678651 -0.0499454 0.353117 0.0805912 0.24711 -0.9669 -0.294626 1.02546 -0.323949 -0.156 -0.369503 -0.150117 -0.0141644 -0.731936 0.250031 0.334326 0.00225897 -0.0632835 -0.436911 -0.187885 -0.5069 0.128554 0.165078
36553 0.0249476 0.0849183 1.85676 -0.237731 2.68441 -2.34167 -3.11431 -0.43233 -0.0948804 -0.726646 0.324391 0.46637 0.226606 0.0286508 -0.888806 -0.461641 1.27506 -0.347178 -0.234874 -0.268989 -0.141799 0.0592923 -0.855334 0.371754 0.423259 -0.373796 0.150724 -0.156866 -0.240678 -0.262489 0.0240939 0.288288
33076 -0.0123642 0.0584021 1.67812 -0.164498 2.69515 -2.66591 -4.10904 -0.589648 0.111101 -0.503922 0.0656797 0.38337 0.1961 0.0357253 -0.863561 -0.212682 1.14691 -0.340166 -0.234086 -0.3165 -0.00621767 0.163633 -0.627269 0.462249 0.238059 -0.0917568 -0.00583232 -0.166935 -0.151039 -0.42521 -0.0474119 0.240158
34543 0.0242149 -0.0376934 1.47611 -0.111429 2.73148 -2.47172 -3.89789 -0.518277 -0.0488745 -0.567208 0.0519148 0.192519 0.156799 -0.020299 -0.698773 -0.427319 1.23047 -0.108059 -0.209915 -0.296102 -0.067046 -0.0234758 -0.725168 0.360344 0.27581 -0.300918 0.0138937 -0.153499 -0.386956 -0.294771 0.11902 0.125368
31065 -0.0226318 -0.123309 1.52273 -0.253042 2.63254 -2.46226 -3.7619 -0.514392 -0.0778626 -0.388594 0.118896 0.570389 -0.017645 0.0373998 -0.917016 -0.467926 0.882865 -0.330994 0.1121 -0.306535 0.138379 0.230903 -0.679199 0.212874 0.245794 -0.170741 -0.111199 -0.284453 -0.0136457 -0.287568 -0.0751516 -0.000585209
36867 -0.0672526 0.196243 1.57872 -0.364485 2.57356 -2.58826 -3.36943 -0.513388 -0.068175 -0.514446 0.103612 0.403875 -0.0583113 -0.029374 -0.844449 -0.207442 1.20975 -0.33229 -0.192815 -0.441962 -0.001165 -0.173703 -0.656662 0.492266 0.382685 -0.129729 0.323242 -0.478272 -0.154733 -0.125644 -0.0548183 0.0650261
33074 -0.0534068 0.0906076 1.67733 -0.134045 2.57713 -2.61519 -4.08329 -0.748721 0.0123901 -0.440979 0.177624 0.25558 0.0576619 0.244441 -0.72122 -0.390376 1.0752 -0.553551 -0.308762 -0.302965 0.161395 -0.00963423 -0.749464 0.292596 0.363757 -0.216107 0.0317439 -0.297977 -0.176269 -0.239024 -0.376193 0.00632873
30968 0.174109 0.0732361 1.55792 -0.0565265 2.45531 -2.5318 -3.94853 -0.556371 0.0812921 -0.486261 0.207489 0.527623 -0.0965862 0.196232 -0.580109 -0.230496 1.27828 -0.0962619 -0.019919 -0.062259 -0.204091 -0.045262 -0.554258 0.610567 0.339713 -0.0934086 -0.181585 -0.120277 -0.100381 -0.215772 -0.0929773 0.260783
36567 0.133201 -0.108745 1.65645 -0.528273 2.54588 -2.40663 -3.47339 -0.457002 0.155718 -0.591651 0.0382089 0.246517 0.0224341 0.339157 -0.82752 -0.173489 1.25862 -0.261848 0.123982 -0.287694 -0.271328 0.0509227 -0.715914 0.588943 0.371448 -0.114678 -0.129461 -0.122425 -0.0985069 -0.312529 -0.0430219 0.165906
32502 0.0571435 0.0505692 1.52982 -0.178716 2.63427 -2.51648 -3.34133 -0.661482 -0.142667 -0.612394 0.146546 0.260726 -0.0398819 0.133344 -0.7775 -0.377689 1.32739 0.0541348 -0.213024 -0.336733 0.241382 0.230256 -0.851062 0.387753 0.144242 -0.120899 0.00781478 -0.342974 0.0194025 -0.417174 -0.0876425 0.234853
33647 0.0394544 0.0770003 1.52643 -0.0107022 2.63869 -2.6695 -4.16892 -0.72541 -0.011532 -0.3149 0.210151 0.066636 0.218496 0.0717651 -0.724968 -0.0423221 1.22415 -0.165283 -0.249755 -0.16067 0.0813637 0.246462 -0.753842 -0.00178561 0.0485608 0.296473 -0.139312 -0.136334 -0.0391918 -0.50658 -0.138517 0.264261
33128 -0.0751713 0.0380998 1.41976 0.153368 2.76929 -2.62772 -4.06595 -0.701721 0.109955 -0.253647 0.235948 0.296544 -0.0286308 -0.0193093 -0.644834 -0.211521 1.28957 -0.240806 -0.272886 -0.230477 -0.208504 0.124855 -0.57864 0.135708 0.261169 0.0684889 -0.0963508 -0.244442 0.0628354 -0.504917 -0.0979058 0.202663
34724 -0.141275 -0.0120222 1.46911 -0.223118 2.45949 -2.59708 -3.77044 -0.408844 -0.150501 -0.521842 0.133725 0.536933 0.168713 0.098332 -0.812214 -0.444506 1.09485 -0.259572 -0.0878432 -0.194146 0.0392043 0.118484 -0.647222 0.46304 0.204403 0.0636186 -0.134621 -0.319601 -0.0661927 -0.365856 -0.173672 0.178473
32024 -0.107844 -0.176789 1.5062 -0.32996 2.68454 -2.62386 -3.92072 -0.587662 0.194578 -0.555522 0.156378 0.315639 0.0125125 -0.036876 -0.623405 -0.261556 1.21788 -0.364423 -0.260497 -0.505534 0.00764545 0.154543 -0.656818 0.45291 0.246961 -0.0444446 0.00926885 -0.140231 -0.176843 -0.282043 0.0539035 0.216845
34084 0.0307651 0.0211379 1.54269 -0.080788 2.72229 -2.48459 -4.00699 -0.651589 0.235286 -0.511394 0.342569 0.174645 0.0351366 0.121014 -0.719139 -0.337284 1.1315 -0.379909 -0.032845 -0.372989 -0.141282 0.160284 -0.724607 0.407069 0.368162 0.0831803 -0.135409 -0.0125215 -0.224829 -0.336662 -0.027343 0.1495
36331 -0.561662 0.2451 1.71265 0.0151577 2.37626 -2.73197 -2.92485 -0.209303 0.185479 -0.816705 0.201027 0.152587 0.144482 0.494677 -0.918633 -0.132433 1.39044 -0.439274 0.365331 -0.684185 -0.226918 0.492041 -0.931062 0.361303 0.328307 0.131769 0.207523 -0.272948 -0.264976 -0.521916 0.298275 0.298277
35149 -0.06103 -0.291343 1.62507 -0.337102 2.47711 -2.41652 -2.89281 -0.303808 -0.0270597 -0.812497 0.260399 0.567829 -0.238698 0.203408 -0.902021 -0.0574317 1.34061 -0.233586 -0.101395 -0.431815 0.0138281 0.167351 -0.816291 0.638026 0.596222 -0.119418 0.2214 -0.189415 -0.0426039 -0.500945 -0.277232 -0.102688
32809 -0.289808 -0.0579812 1.43331 -0.158615 2.83429 -2.53125 -3.53254 -0.950475 0.26124 -0.555596 0.209461 0.356574 -0.205609 -0.0430867 -0.708556 -0.336613 1.24379 -0.169244 -0.205955 -0.463683 0.0312736 0.287088 -0.871415 0.435118 0.252164 0.170684 -0.0181946 -0.308467 0.108479 -0.299188 0.134819 0.301216
35752 -0.013534 -0.0911334 1.44179 -0.254213 2.63176 -2.56272 -3.85665 -0.505512 0.126149 -0.532114 0.1165 0.501391 0.0821748 -0.0066666 -0.710097 -0.430516 1.00523 -0.087687 -0.241854 -0.353228 -0.0023383 0.0206072 -0.683335 0.336849 0.19017 0.0701475 0.155887 -0.423723 -0.116085 -0.255562 0.406894 0.133722
32641 0.0927692 0.0556703 1.58778 -0.112318 2.49923 -2.38119 -3.86144 -0.634483 0.230998 -0.602324 0.262278 0.44927 -0.0222751 0.0555709 -0.637493 -0.351436 1.21252 -0.134518 0.190667 -0.24478 0.0834027 0.0233338 -0.711676 0.273981 0.210862 -0.142443 -0.0372764 -0.190068 -0.0542722 -0.302519 -0.201367 0.23046
31138 0.0482776 0.104556 1.53643 -0.152816 2.71178 -2.3362 -3.97467 -0.579367 -0.0405982 -0.506067 0.00632708 0.523276 0.0454072 0.148299 -0.81808 -0.222555 1.00823 -0.288665 -0.144658 -0.156616 -0.145372 0.0364686 -0.661601 0.561049 0.227062 -0.00294863 0.0998188 -0.0601973 0.132975 -0.178695 -0.228465 0.285636
32750 -0.00187537 0.0981717 1.56206 -0.264133 2.5739 -2.53314 -3.62152 -0.648652 -0.0756268 -0.59071 0.213541 0.20583 0.109434 0.0873292 -0.51222 -0.466951 1.41604 0.0132249 -0.242983 -0.30871 0.114144 0.247373 -0.815478 0.411878 0.0601917 -0.0437735 -0.0908752 -0.489257 0.207174 -0.153695 -0.0395872 0.324211
33875 -0.385197 -0.189478 1.43295 -0.0852362 2.67504 -2.50548 -3.17837 -0.425009 -0.147174 -0.654607 0.429686 0.346379 -0.204671 0.337534 -0.530705 -0.425172 1.33794 -0.460665 -0.238718 -0.406927 -0.0527935 -0.23932 -0.61763 0.449543 0.481782 0.110432 -0.12858 -0.279321 -0.0162457 -0.354631 -0.273537 0.238676
31062 0.0830151 -0.0879614 1.53694 -0.0942178 2.66757 -2.51704 -3.63884 -0.538076 -0.100285 -0.794969 -0.126544 0.372056 0.0525769 0.252505 -0.581626 -0.283049 1.28774 -0.418195 -0.332423 -0.492517 0.0980792 0.212013 -0.576231 0.59004 0.452047 0.0783072 -0.0909358 -0.359105 -0.0125104 -0.554344 0.0338851 0.237367
32877 0.163227 0.0657326 1.64382 -0.239075 2.82547 -2.38331 -3.2178 -0.393222 -0.0266916 -0.693986 0.162399 0.216966 -0.0169123 -0.0179912 -0.849219 -0.775765 1.21879 -0.260003 -0.0542018 -0.356792 -0.0711071 -0.0684865 -0.678848 0.398544 0.371541 -0.0782679 0.123878 -0.048008 -0.450464 -0.446034 0.146892 0.00916648
33833 -0.0768066 -0.116029 1.50597 -0.211513 2.65748 -2.4747 -3.66403 -0.2214 -0.0310661 -0.730655 0.039767 0.31195 0.245039 0.0963595 -0.770759 -0.399166 1.19964 -0.215162 -0.19001 -0.259185 0.0546789 0.0146989 -0.800884 0.173509 0.427884 0.0592514 -0.277396 -0.503508 -0.242844 -0.505646 0.148299 -0.0809785
31818 -0.291358 -0.0977553 1.78677 0.102266 2.25025 -2.08656 -1.88075 -0.284853 0.0695754 -1.05446 0.300578 0.577539 0.203488 -0.0822961 -0.874113 -0.437614 1.40543 -0.254244 -0.0752077 -0.451766 -0.0626379 0.22821 -0.888144 0.742144 0.610631 -0.200721 0.149617 -0.477617 -0.366784 -0.396224 -0.197422 0.340315
32044 0.0809183 0.023864 1.60458 -0.229153 2.62053 -2.413 -4.11888 -0.543524 -0.0521991 -0.507025 0.107718 0.340754 0.0361495 0.226189 -0.631273 -0.361626 1.12459 -0.350449 -0.132404 0.00863867 -0.0526409 0.0982757 -0.51296 0.319393 0.308603 0.0716813 -0.0561096 -0.177916 -0.158335 -0.218351 -0.147776 0.415403
34011 -0.250553 0.0151784 1.4059 0.0156349 2.62354 -2.48821 -3.26881 -0.554537 -0.101537 -0.44845 0.0747652 0.408035 0.0794579 0.178697 -0.713959 -0.191215 1.29557 -0.287284 -0.108249 -0.181573 -0.0333714 0.310524 -0.554262 0.479134 0.131998 0.0054583 0.0023612 -0.205158 0.0826151 -0.311089 -0.226504 0.289742
32388 -0.315141 0.00408179 1.48821 0.104253 2.56425 -2.56146 -4.00179 -0.60259 -0.149811 -0.378405 0.0358223 0.300552 0.0847049 0.297758 -0.594856 -0.438508 1.19038 -0.253806 0.00939048 -0.211454 -0.0980747 0.205779 -0.708604 0.352781 0.277003 -0.0553573 0.130994 -0.0626025 -0.132367 -0.222874 -0.0296002 0.343439
35783 0.106592 -0.0660888 1.35738 -0.102425 2.54164 -2.67721 -3.92529 -0.684226 -0.23021 -0.237991 0.025257 0.369481 -0.030768 0.0763346 -0.642947 -0.291203 1.22378 -0.428836 0.289479 -0.402161 0.0994748 0.0711203 -0.509568 0.542131 0.406008 0.0774515 0.0272432 -0.333789 -0.28098 -0.18928 -0.0900454 0.0744987
33953 0.026767 -0.0499101 1.49127 -0.137619 2.68079 -2.55362 -4.08911 -0.502042 -0.165756 -0.41481 0.0865046 0.210727 0.0995422 0.100426 -0.684804 -0.39312 1.15252 -0.410387 -0.122601 -0.208676 0.151344 0.0365524 -0.615843 0.315017 0.31639 -0.0649178 0.132242 -0.101659 -0.111324 -0.33446 0.0473335 0.0350015
35146 -0.31333 -0.233659 1.39293 -0.10115 2.69114 -2.32589 -3.89252 -0.474549 -0.0607111 -0.512863 0.11901 0.439643 0.0401132 0.268199 -0.654232 -0.327665 1.12354 -0.38171 0.0869366 -0.178044 -0.222185 0.0740326 -0.651933 0.437276 0.316201 -0.193004 0.121855 -0.280297 -0.142368 -0.183127 -0.0973436 0.1941
33053 0.150846 -0.0663771 1.30137 -0.0895097 2.45605 -2.83646 -3.6277 -0.419615 0.0139995 -0.474497 0.243887 0.0286445 -0.0388843 0.11377 -0.659821 -0.293836 1.26605 -0.487795 0.248462 -0.439221 -0.178366 0.434015 -0.654077 0.53044 0.161758 -0.224761 0.229904 -0.40996 -0.216659 -0.35732 -0.0229002 0.0409506
33682 0.06656 0.0403634 1.6815 0.20429 2.30145 -2.58862 -2.69762 -0.508646 0.145016 -0.937309 0.348983 0.574801 0.0196417 0.299817 -0.807279 -0.296471 1.38891 -0.299317 0.0943651 -0.475761 0.078285 0.427867 -0.820006 0.568724 0.770393 0.104674 0.100245 -0.19271 -0.131684 -0.424607 -0.175532 0.392454
34310 -0.124921 -0.15351 1.33973 -0.437741 2.44997 -2.43865 -2.72265 -0.665188 0.202397 -0.829424 0.329327 0.556199 -0.0595554 0.117553 -0.620146 -0.426453 1.40078 -0.251407 -0.0718209 -0.762144 0.134081 0.30465 -1.06318 0.534552 0.133847 -0.00412409 0.161946 -0.628003 -0.43804 -0.453001 -0.0636867 0.678198
35696 0.0790899 0.0874262 1.76041 -0.215851 2.6561 -2.68946 -3.78288 -0.595737 0.0850994 -0.751175 -0.0394991 0.180987 0.359035 0.110876 -0.802412 -0.310421 1.32758 -0.250469 -0.299929 -0.439306 -0.132676 0.200066 -0.754325 0.0867437 0.409315 -0.156817 0.118758 -0.302818 -0.523322 -0.462737 0.311885 0.275478
33836 0.106893 -0.166072 1.55288 -0.25304 2.79789 -2.37066 -2.73925 -0.423873 0.169018 -0.885755 0.301529 0.355967 0.199134 -0.182621 -0.739821 -0.315316 1.58717 -0.436077 -0.0845996 -0.425737 -0.109075 0.0715099 -0.589263 0.436986 0.462182 -0.311695 0.355115 -0.326871 -0.310741 -0.611792 0.0838916 0.584324
34928 0.277257 0.085006 1.41192 -0.281576 2.61598 -2.54415 -3.03469 -0.311828 0.219729 -1.05918 -0.0463702 0.330569 -0.222796 0.193132 -0.767159 -0.338382 1.42564 -0.295235 -0.0211327 -0.37079 -0.0134282 0.117149 -0.83618 0.665706 0.354179 0.0389662 -0.162667 -0.424087 -0.240909 -0.64876 -0.113459 0.433054
36388 -0.0317966 0.179801 1.51304 -0.114293 2.67399 -2.62266 -4.10534 -0.59863 0.0598451 -0.418532 0.0268875 0.274655 0.0184434 0.0777538 -0.798116 -0.26018 1.14395 -0.341902 -0.204396 -0.165619 0.0450365 0.138675 -0.644295 0.282909 0.274167 0.133609 -0.0344743 -0.243938 -0.11876 -0.453207 0.0637888 0.0955111
32736 -0.244303 0.00129883 1.71618 -0.225751 2.74442 -2.38339 -3.75385 -0.498242 -0.310748 -0.639071 0.201485 0.45184 0.275689 0.0402641 -1.04241 -0.203973 1.10611 -0.084899 -0.199106 -0.367459 -0.0377035 0.377751 -0.695724 0.449417 0.615606 -0.226602 0.131283 -0.295993 -0.0177048 -0.406708 0.272417 0.12748
35698 -0.156101 -0.194533 1.90929 -0.110017 2.50819 -2.49904 -3.12572 -0.527343 0.565368 -0.842384 0.270388 0.422799 0.167291 0.24588 -0.848312 -0.420535 1.35848 -0.291145 -0.114193 -0.645812 0.0565233 0.281591 -0.68577 0.783383 0.663574 0.213449 0.136177 -0.192372 -0.223125 -0.398286 -0.018451 0.253614
35499 -0.0203761 0.0298413 1.89396 -0.344451 2.37156 -2.37594 -3.16985 -0.550254 0.0147032 -0.813739 0.039968 0.438565 -0.083989 0.0124021 -0.702782 -0.30927 1.36959 -0.250141 -0.237642 -0.725993 0.0555712 0.389035 -0.68282 0.696875 0.334794 0.120365 0.0968177 -0.184774 -0.05057 -0.19689 0.00567509 0.486817
32788 0.0689358 0.0365778 1.60529 -0.0805193 2.63785 -2.62045 -3.64668 -0.572644 -0.0508062 -0.410916 0.187158 0.339117 0.000923176 -0.0825745 -0.61457 -0.391962 1.29306 -0.101145 -0.174451 -0.481101 -0.294889 0.0380084 -0.56999 0.347728 0.191758 -0.0261159 -0.0618676 -0.488122 -0.0736699 -0.373829 0.326111 0.109915
31012 0.041491 -0.121532 1.47567 -0.314464 2.50792 -2.71935 -3.85385 -0.577717 0.141515 -0.504194 0.119239 0.343441 0.155189 0.0319436 -0.726776 -0.202149 1.1268 -0.374163 -0.280723 -0.389464 -0.115394 -0.0228413 -0.702338 0.396368 0.25185 -0.182962 0.162076 -0.162519 -0.209081 -0.350751 0.00246005 -0.0604586
32793 -0.13421 -0.0928971 1.33282 0.00771112 2.53366 -2.53076 -3.78698 -0.447004 -0.0280096 -0.788685 0.262435 0.577298 -0.0435228 0.155254 -0.596834 -0.0985823 1.22888 -0.139985 0.0237756 -0.132875 -0.436768 -0.141149 -0.737223 0.472084 0.221399 -0.128929 -0.150421 -0.320543 -0.0257492 -0.332345 -0.0779742 0.0884863
33825 -0.0223113 -0.270882 1.36374 -0.219587 2.57182 -2.48217 -3.79627 -0.384603 0.0884895 -0.646756 0.167809 0.404778 0.119616 0.368814 -0.727538 -0.354213 1.08038 -0.214725 0.0146813 -0.22559 -0.370877 -0.0567851 -0.592561 0.471531 0.321759 -0.0510722 -0.243897 -0.289507 -0.0477478 -0.367603 -0.0310578 0.0622523
36337 0.170391 -0.144046 1.61852 -0.384241 2.31877 -2.65188 -3.71485 -0.23533 -0.0435803 -0.470431 0.147622 0.540462 -0.050663 0.0787254 -0.769914 -0.0842213 1.36269 0.0434551 -0.0362715 -0.141802 -0.356141 -0.211837 -0.767341 0.561985 0.311871 -0.261933 -0.0861013 -0.355552 0.122484 -0.319446 -0.170789 0.0121678
36891 0.247132 -0.265935 1.53378 -0.269016 2.46292 -2.58135 -3.34092 -0.357676 0.0844249 -0.596612 0.160973 0.733465 -0.184427 -0.106979 -0.919718 -0.150855 1.2983 -0.223704 -0.154032 -0.20926 -0.402182 0.0269992 -0.703524 0.652767 0.646713 -0.135653 -0.0809042 -0.23021 -0.0836754 -0.56781 -0.081136 0.139584
34020 -0.019004 -0.523228 1.4981 -0.56789 2.47251 -2.65763 -3.24138 -0.420078 0.13827 -0.705686 0.286611 0.689483 0.0903396 0.461196 -1.02011 -0.0194795 1.17464 -0.300304 -0.203827 -0.394767 -0.397233 -0.0195081 -0.721833 0.730507 0.752056 -0.365041 -0.0664719 -0.511342 -0.172039 -0.371743 -0.183882 -0.0275281
36156 -0.0713259 -0.133588 1.46711 -0.410079 2.61223 -2.374 -3.10246 -0.5316 -0.187936 -0.88683 0.279944 0.482954 -0.0873844 0.268414 -0.681408 -0.0423933 1.37529 -0.412347 -0.176176 -0.510446 0.0307779 0.115259 -0.441735 0.552037 0.532216 0.0247396 -0.024351 -0.449891 -0.291397 -0.665916 -0.212444 0.729833
34903 -0.109855 -0.220964 1.90852 -0.00919484 2.21042 -2.32705 -2.45477 -0.151982 -0.188516 -1.30272 -0.331424 0.683076 -0.089912 -0.0238208 -0.788491 -0.62093 1.4576 -0.349985 -0.199165 -0.22465 -0.390548 0.0526326 -0.84241 0.586796 0.474958 0.0556307 0.0799673 -0.590672 -0.19916 -0.384838 -0.240943 0.568619
31745 -0.0132673 -0.0136797 1.64932 -0.225448 2.69706 -2.76521 -4.07476 -0.516533 0.0995635 -0.605336 0.156597 0.417819 0.154679 0.107866 -0.775795 -0.3541 1.23156 -0.459505 -0.251533 -0.371006 -0.000391346 0.0497368 -0.699999 0.388019 0.449662 -0.10774 0.0340222 -0.221765 -0.251827 -0.419277 -0.140281 0.231643
34480 0.0428449 0.105667 1.81368 0.0748647 2.47203 -2.43265 -2.60464 -0.381774 0.0184595 -0.714204 0.486399 0.643314 0.0956622 0.167473 -0.595567 -0.500077 1.58331 -0.355971 0.00482354 -0.51465 0.261253 0.138623 -0.660357 0.440166 0.372306 -0.166152 0.0450517 -0.655465 0.0667253 -0.65612 0.155409 0.294456
32940 -0.107839 0.018612 1.63152 -0.177128 2.59733 -2.78769 -4.09157 -0.49013 0.191044 -0.623518 0.194403 0.334239 0.00492925 0.192548 -0.748643 -0.351971 1.13859 -0.470647 -0.168577 -0.43687 -0.0348636 -0.0189837 -0.731951 0.491857 0.349649 -0.0848137 -0.0378011 -0.233078 -0.261943 -0.339363 -0.128054 0.058649
34754 -0.176242 0.164447 1.63387 -0.351944 2.39797 -2.72657 -2.53297 -0.330835 0.147788 -0.988288 0.151806 0.479038 0.0462802 0.0413268 -0.799421 -0.406077 1.28856 -0.382184 -0.318731 -0.777981 -0.00894461 -0.0462955 -0.922334 0.811404 0.254181 0.376023 0.240719 -0.473943 -0.279475 -0.28034 -0.0466078 0.414064
35132 -0.0485345 0.0856767 1.49259 -0.287934 2.36836 -2.62937 -3.23475 -0.400128 0.166693 -0.641238 0.262931 0.440958 -0.124041 0.0564409 -0.754189 -0.252818 1.43776 -0.370093 0.0430537 -0.418259 -0.0901789 0.336565 -0.746141 0.505772 0.441647 0.110921 0.354873 -0.59562 -0.292645 -0.361995 0.0938825 0.315384
36687 0.19051 -0.0499978 1.29859 -0.133369 2.49593 -2.76248 -3.70028 -0.491293 -0.132133 -0.0177021 0.0990689 0.385429 -0.0598464 0.269226 -0.775463 -0.304093 1.09058 -0.405687 0.292507 -0.74275 -0.146618 0.262775 -0.601937 0.54091 0.181009 -0.278297 0.220341 -0.202063 -0.297759 -0.374096 -0.00181376 0.162236
35029 -0.148098 0.098822 1.75545 0.0642924 2.22455 -2.70466 -3.33788 -0.576732 -0.120775 -0.592642 -0.0746522 0.356941 0.233652 0.282886 -0.891335 -0.389442 1.25716 -0.215517 -0.0171637 -0.525966 -0.277432 0.384533 -0.758215 0.568519 0.546731 -0.336733 0.188293 -0.169863 -0.427459 -0.59032 0.0580532 0.0463416
35619 -0.0679162 0.0144443 1.991 0.0433277 2.29034 -2.33838 -2.56103 -0.476363 -0.182454 -0.866444 0.249558 0.842437 0.0556156 0.156366 -0.823033 -0.533991 1.32875 -0.394429 -0.188215 -0.665655 -0.0335295 0.0202147 -1.07917 0.574123 0.510622 -0.323463 -0.00453816 -0.0820376 -0.396575 -0.434403 -0.368668 0.297784
33511 0.14068 -0.0874701 1.629 0.0200892 2.55725 -2.51622 -3.72725 -0.377349 -0.151605 -0.678705 0.035954 0.3608 0.127838 0.197 -0.65331 -0.294193 1.30497 -0.286784 -0.330102 -0.151844 -0.0410187 0.248507 -0.485844 0.492807 0.54123 -0.0906661 0.199329 -0.298415 -0.183352 -0.494269 0.195987 0.00744183
31128 -0.111369 -0.109684 1.48221 -0.0851247 2.83006 -2.45526 -3.79754 -0.471365 0.059562 -0.542611 0.146528 0.45602 0.0912167 -0.0813795 -0.792078 -0.388042 1.13264 -0.136368 -0.0859722 -0.464587 0.114078 0.117135 -0.542045 0.486281 0.371917 -0.180125 -0.0320572 -0.242229 -0.0549956 -0.430429 0.255642 0.217474
32062 -0.232724 -0.103741 1.68039 -0.132933 2.54766 -2.42797 -3.23549 -0.595836 -0.00499394 -0.917756 0.0253199 0.371927 0.129575 0.207677 -0.783269 -0.311544 1.2844 -0.355665 -0.370865 -0.73621 -0.0842552 0.295168 -0.977206 0.53724 0.660755 -0.0890804 -0.150384 -0.0325638 -0.00475336 -0.732072 -0.14542 0.0696046
36323 -0.496239 0.116035 1.62949 0.197836 2.29076 -2.48421 -3.00601 -0.828007 0.0771786 -0.962103 0.0857598 0.589357 0.334631 0.408211 -0.791347 -0.433351 1.10415 -0.478037 0.108716 -0.638871 -0.191719 0.450672 -0.998152 0.714626 0.594503 -0.118137 0.118204 -0.225704 -0.162073 -0.745346 0.173333 0.121694
33191 -0.199864 0.103026 1.60491 -0.145004 2.58045 -2.3376 -3.24194 -0.620274 -0.00993733 -1.00881 0.0586618 0.449735 0.0996253 0.133388 -0.802792 -0.388822 1.19767 -0.525036 -0.206194 -0.50655 -0.0084753 0.210488 -0.875164 0.483964 0.347964 -0.144247 0.0518126 -0.167719 -0.160262 -0.438424 -0.091478 0.242932
33408 0.303129 0.23375 1.40132 -0.521838 2.84551 -2.34314 -3.08395 -0.58121 0.0817074 -0.826187 0.357592 0.504988 -0.296956 -0.151475 -0.704223 -0.578711 1.24277 -0.228152 -0.148322 -0.744232 -0.0236987 0.0801266 -0.926326 0.55006 0.171802 -0.19218 0.15718 -0.199885 -0.110229 -0.38356 -0.148624 0.221505
34927 0.0151545 0.0658929 1.39899 -0.21131 2.80668 -2.338 -3.70435 -0.595845 0.239515 -0.557521 0.0820087 0.0788611 -0.0777794 0.0180427 -0.744317 -0.273803 1.23897 -0.274383 -0.0860955 -0.289403 -0.00575577 0.106237 -0.626602 0.266037 0.417293 -0.0948819 0.0263189 -0.494702 -0.253945 -0.266414 0.256303 0.348736
35121 -0.0512615 -0.00591119 1.65702 -0.440548 2.33291 -2.31497 -3.14936 -0.404575 0.000731461 -0.625099 -0.0376241 0.145861 -0.0768705 0.0265331 -0.552345 -0.44501 1.41337 -0.304282 -0.213407 -0.397328 -0.123481 0.376619 -0.480574 0.887917 0.285887 0.0176644 -0.376068 -0.353222 -0.184755 -0.525579 -0.229673 0.164512
32052 -0.0305296 -0.13728 1.4705 -0.225246 2.47703 -2.62753 -4.06391 -0.423189 -0.114927 -0.458453 0.233633 0.381532 0.0448299 0.0903468 -0.644684 -0.227107 1.11257 -0.351388 -0.235949 -0.324532 0.046545 0.0318114 -0.5285 0.564444 0.189307 0.0251471 -0.00289292 0.0619749 -0.07919 -0.281849 0.0067024 0.232752
31640 0.351599 -0.0763418 1.6829 0.104024 2.53614 -2.22673 -3.69476 -0.460082 0.0835957 -0.9623 0.413123 0.305667 0.240211 0.0329469 -0.44181 -0.723107 1.28122 -0.211479 0.436096 -0.260309 -0.0202832 -0.117092 -0.50176 0.437081 0.618267 -0.0919555 -0.356014 -0.388344 -0.0421356 -0.300176 -0.146806 0.515247
36222 0.200805 -0.113975 1.45918 -0.00684111 2.6493 -2.40478 -3.60128 -0.383099 0.0926871 -0.710199 0.426168 0.294584 0.236999 -0.00736939 -0.517581 -0.826411 1.16967 -0.23234 0.202706 -0.327373 -0.024275 0.00272301 -0.527303 0.639206 0.449446 -0.135315 -0.361171 -0.352518 -0.112335 -0.254445 -0.120795 0.358928
31623 0.24722 0.684546 1.68756 -0.179877 2.51997 -2.6345 -3.33123 -0.234073 -0.323102 -0.584496 0.465012 0.657801 0.22526 0.164284 -0.83675 -0.35942 1.17814 -0.587958 -0.181702 -0.449399 0.0449462 0.31583 -0.717417 0.695929 0.0978232 -0.157263 -0.113692 -0.148599 -0.229986 -0.289043 -0.0202072 0.47269
31584 0.139393 0.0752941 1.53826 -0.168519 2.61454 -2.56603 -4.14967 -0.553254 0.0369924 -0.414836 0.105801 0.36431 0.0834285 0.0375041 -0.774427 -0.0994278 1.17689 -0.23429 -0.181673 -0.107812 0.0109232 -0.0200354 -0.636586 0.304878 0.37011 0.0212979 -0.087938 -0.149069 -0.0176011 -0.401134 -0.0377439 0.110683
36220 0.0287004 0.136284 1.43083 -0.240091 2.59736 -2.6142 -3.77716 -0.385674 -0.0749564 -0.648249 0.0279802 0.0767449 0.0932853 0.0723312 -0.721931 -0.161653 1.26303 -0.315901 -0.0329351 -0.321001 0.0429129 -0.0727292 -0.505094 0.484487 0.152342 0.0553742 0.0755042 -0.545259 -0.0292096 -0.412565 0.0601234 0.284203
32479 0.0720475 0.251652 1.42813 -0.328083 2.61127 -2.52145 -3.22218 -0.14805 0.151695 -0.666478 0.256636 0.178937 -0.0281335 0.25334 -0.760272 -0.220873 1.29763 -0.424344 -0.140274 -0.609585 0.0293363 0.333308 -0.760612 0.702747 0.269869 -0.0476321 0.0811549 0.0116073 -0.264472 -0.46435 -0.140395 0.331429
32178 -0.0286023 0.283651 1.68838 -0.167517 2.4315 -2.49719 -3.34297 -0.329823 -0.202735 -0.821375 0.451477 0.287585 0.0457915 0.121191 -0.594019 -0.241581 1.2467 -0.637167 -0.175931 -0.430228 -0.0492962 -0.0496242 -0.86414 0.573832 0.317086 -0.160506 0.12593 -0.234917 -0.114418 -0.286487 -0.0146443 0.227108
36877 0.0287136 0.0657352 1.63449 -0.233985 2.71932 -2.46976 -3.98788 -0.580218 0.142707 -0.508585 0.14219 0.210387 0.104533 0.046782 -0.900681 -0.213603 1.13988 -0.290254 -0.0410707 -0.292492 -0.0405646 -0.166741 -0.709765 0.450923 0.169466 -0.0624692 0.0695423 -0.236947 -0.0348698 -0.31316 -0.0975207 0.154416
31152 -0.0991208 0.110034 1.69755 -0.214951 2.78846 -2.29285 -4.09376 -0.616013 0.000711255 -0.380248 0.0997006 0.350662 0.0850396 0.18819 -0.848991 -0.134853 1.17967 -0.373791 -0.0460035 -0.0743029 0.109466 0.146662 -0.735396 0.212895 0.262863 0.0169243 -0.00336327 -0.203631 -0.155182 -0.405179 0.0865288 0.198213
36914 -0.153765 0.000349787 1.34684 0.0632083 2.56725 -2.56544 -3.6563 -0.500554 0.0379772 -0.667194 0.216125 0.356136 -0.18627 0.0523122 -0.761571 -0.211028 1.13839 -0.395116 -0.0483799 -0.042227 -0.0765339 -0.0770322 -0.547191 0.563049 0.349175 0.0947226 -0.0378939 -0.0353409 -0.211532 -0.507269 -0.0863295 0.0766503
36096 -0.409179 -0.0137995 1.39549 -0.126588 2.68983 -2.37778 -3.68375 -0.618765 -0.0467384 -0.30925 -0.0204427 0.194071 -0.094875 0.404232 -0.761444 -0.416616 1.1152 -0.30403 0.0284027 -0.210424 -0.0629066 0.1345 -0.519457 0.513424 0.162369 -0.115805 -0.0741162 -0.0700811 -0.350905 -0.439536 -0.0557351 0.0685444
31571 -0.0149865 -0.366908 1.6771 -0.336309 2.51094 -2.10063 -3.32026 -0.475569 -0.174768 -0.843199 0.251508 0.299036 -0.197341 0.119274 -0.732722 -0.226553 1.18867 -0.492774 -0.245646 -0.351669 -0.0434531 0.278435 -0.647591 0.418398 0.383635 0.0531608 0.0655436 -0.319046 -0.138305 -0.515087 -0.188579 0.0713081
36125 -0.197755 -0.0172192 1.59808 -0.257594 2.52041 -2.47329 -4.02717 -0.423822 -0.029661 -0.447332 0.10015 0.315298 -0.0117729 -0.0182085 -0.526035 -0.307373 1.254 -0.300849 -0.0792073 -0.186283 -0.0221084 -0.195127 -0.503526 0.574902 0.246822 0.0296705 0.0559528 -0.114051 -0.0748473 -0.381309 -0.0173518 0.0422656
36668 0.346276 0.272466 1.51065 -0.0866442 2.5611 -2.43387 -3.75132 -0.611053 0.0751429 -0.604607 0.372192 0.423385 0.0558578 -0.032107 -0.540544 -0.578384 1.27609 -0.228053 0.249452 -0.161636 -0.270367 -0.256861 -0.625344 0.320957 0.250543 -0.150683 -0.117391 -0.390772 -0.233867 -0.250488 -0.140279 0.374662
35620 -0.182421 -0.131358 1.50832 -0.140306 2.68007 -2.61737 -3.91718 -0.611086 0.079272 -0.603404 0.207383 0.331169 -0.00443702 -0.101231 -0.643704 -0.239139 1.22216 -0.267204 -0.0442379 -0.475539 0.0516512 0.0415793 -0.61364 0.509714 0.168684 -0.15883 0.0436952 -0.0775488 -0.087006 -0.372899 -0.0799604 0.131787
34594 0.064105 -0.089485 1.52512 -0.171177 2.62233 -2.48991 -3.95279 -0.413773 0.11199 -0.395205 0.275317 0.528797 -0.00659057 0.154508 -0.646043 -0.484528 1.0607 -0.338817 -0.19543 -0.249937 0.0842363 0.185862 -0.506307 0.511876 0.334009 0.139304 0.166107 -0.359265 -0.149325 -0.384914 -0.00897338 -0.0467524
35856 0.178185 -0.0681344 1.74263 -0.259269 2.59119 -2.31616 -3.49428 -0.688684 -0.0454933 -0.398201 0.0748404 0.422044 -0.300498 0.117031 -0.694895 -0.524523 1.1952 -0.274716 0.136039 -0.420393 -0.172519 0.129702 -0.793078 0.593754 0.282397 0.0860615 0.0888909 -0.121229 -0.227049 -0.201092 -0.063189 -0.146572
31222 -0.0196425 0.121414 1.38376 0.0415467 2.69179 -2.47784 -4.05272 -0.711976 -0.0418459 -0.475688 0.120213 0.276658 0.00599215 0.235355 -0.581271 -0.269412 1.11471 -0.240374 -0.0682052 -0.353719 0.0685882 0.276604 -0.671256 0.501726 0.0335852 -0.0807192 -0.0357345 -0.0837708 -0.420299 -0.251028 -0.182486 0.0343024
32392 0.0576285 0.102015 1.44113 -0.272735 2.50835 -2.58838 -3.7884 -0.415503 0.0739564 -0.320097 0.200945 0.367433 0.0521599 0.276866 -0.646935 -0.203647 1.23419 -0.360157 0.0437914 -0.0703328 0.0582177 0.101172 -0.58166 0.542293 0.226507 0.25065 0.229984 -0.0833868 -0.112704 -0.206384 -0.0936399 0.162627
34556 -0.071007 -0.0588472 1.39935 0.0291813 2.62058 -2.41454 -3.75379 -0.711633 0.0397102 -0.594963 0.507354 0.310102 0.365039 0.128327 -0.863162 -0.354269 1.08782 -0.22872 -0.0437196 -0.215211 0.0852666 0.0803268 -0.475141 0.3773 0.42798 -0.140194 0.259092 -0.102042 -0.256728 -0.592695 -0.042887 0.0844178
31166 -0.0319072 0.154169 1.63715 -0.446382 2.42053 -2.61645 -3.76495 -0.791482 0.0420832 -0.696097 0.289727 0.523778 -0.178817 0.242844 -0.874802 -0.37348 1.05324 -0.405363 -0.336095 -0.239222 0.0610351 0.34762 -0.762219 0.22758 0.440285 -0.0985572 0.232762 -0.360962 -0.204476 -0.283672 -0.242323 0.360718
34487 0.0733904 0.0315514 1.32872 -0.173723 2.54842 -2.68795 -3.99768 -0.475536 -0.12015 -0.379087 0.0652479 0.505593 -0.127661 0.127315 -0.695998 -0.219994 1.09875 -0.340411 0.0108682 -0.274001 0.179608 0.081859 -0.578795 0.410114 0.334092 0.0104724 0.248488 -0.122646 -0.151229 -0.424307 -0.127108 0.120617
35102 0.0012091 0.338471 1.55885 -0.0885897 2.76609 -2.22154 -3.95121 -0.510419 0.136039 -0.421089 0.16505 0.390719 0.0608794 -0.0156275 -0.652347 -0.242721 1.11839 -0.381965 -0.0448336 -0.22399 -0.113802 -0.0764209 -0.626347 0.428933 0.178443 -0.065421 0.0331074 -0.204445 -0.228987 -0.23976 -0.0899675 0.104542
35204 0.0398049 0.372106 1.65745 -0.131703 2.56379 -2.51421 -3.94455 -0.49971 -0.0372352 -0.494955 0.132768 0.138006 0.167869 0.170209 -0.6536 -0.316637 1.24273 -0.468349 -0.15311 -0.348847 -0.104294 0.0623119 -0.624931 0.387988 0.234045 -0.391395 0.122531 -0.115766 -0.438547 -0.407791 0.089848 0.377226
35082 -0.100983 0.0179171 1.71644 -0.149686 2.4993 -2.50041 -3.60532 -0.67121 0.140208 -0.694443 0.106794 0.308238 0.206682 0.23766 -0.932457 -0.246502 1.10533 -0.250433 0.0034017 -0.51841 -0.0507288 0.254134 -0.657215 0.507012 0.518256 -0.0847194 -0.0589063 -0.31726 -0.219326 -0.346407 0.280789 0.0872712
36467 -0.117996 -0.153422 1.37973 -0.190208 2.674 -2.4225 -3.96118 -0.665987 0.0188139 -0.59208 0.0277991 0.401283 0.015524 0.207594 -0.696546 -0.37098 1.07729 -0.188165 0.0668641 -0.123622 -0.0601736 0.136176 -0.603113 0.457351 0.128107 -0.00450615 0.0670739 -0.163258 -0.201562 -0.249575 0.0079533 0.26984
35596 -0.142008 0.014307 1.46161 -0.0015147 2.66844 -2.51601 -4.00385 -0.513431 0.0168653 -0.552324 0.018172 0.293309 0.0649794 0.117616 -0.72049 -0.291294 1.08925 -0.378239 0.0654877 -0.349245 -0.0444532 0.150922 -0.676533 0.456151 0.117203 -0.179603 -0.0145244 -0.187037 -0.189167 -0.506788 -0.0884579 0.162681
31040 0.000737689 0.118431 1.3505 -0.29435 2.59738 -2.48224 -4.16043 -0.500083 0.101594 -0.446966 8.66649e-05 0.237263 0.058725 0.0936426 -0.585737 -0.391532 1.06028 -0.255521 -0.149139 -0.134218 0.0611505 0.14999 -0.375061 0.575335 0.252702 -0.0574554 0.0768987 -0.281577 -0.105634 -0.306965 -0.0789864 0.189625
33581 0.22196 -0.123605 1.47106 -0.129377 2.92511 -2.37044 -3.30746 -0.292333 0.182993 -0.595877 -0.060591 0.66075 -0.035903 -0.271335 -0.760307 -0.306012 1.39776 -0.10043 -0.358795 -0.313302 0.0826369 -0.00892383 -0.627833 0.293658 0.111411 -0.0378394 0.268484 -0.334713 -0.573052 -0.301529 0.163571 0.511538
34364 0.174705 0.0231255 1.72824 -0.312994 2.72346 -2.09802 -3.70891 -0.535398 -0.0324088 -0.416368 0.174519 0.435473 -0.0272008 0.15418 -0.598348 -0.388793 1.26545 -0.391677 0.0977075 -0.0474617 -0.47206 0.24836 -0.675852 0.293158 0.044496 0.129604 0.0297155 -0.184057 -0.378393 -0.341823 0.125739 0.162664
33153 0.109588 -0.128741 1.44239 0.0469772 2.66064 -2.43732 -3.59176 -0.559435 0.218868 -0.699534 0.264837 0.42779 0.20979 0.207587 -0.692851 -0.48961 1.16664 -0.372462 -0.0174404 -0.0733121 -0.0537109 -0.0877232 -0.744856 0.359487 0.255047 -0.0161947 0.121044 -0.0773652 -0.176994 -0.437913 -0.128153 0.130201
36201 -0.0135199 -0.0226554 1.59538 -0.15308 2.63151 -2.5821 -4.0522 -0.511011 0.0557142 -0.48647 0.093023 0.132992 0.110921 -0.00549935 -0.726697 -0.501775 1.16337 -0.272887 -0.192573 -0.174377 -0.0724112 -0.0189135 -0.626719 0.25748 0.231071 -0.210118 0.134051 -0.268657 -0.335609 -0.306932 0.232148 0.220125
31153 -0.262071 -0.0615785 1.3169 -0.427947 2.70095 -2.38438 -3.87153 -0.624701 -0.0897657 -0.371443 0.0139362 0.26888 0.0725214 -0.0571909 -0.757015 -0.452745 1.03943 -0.306241 -0.100552 -0.182077 -0.0465136 0.17574 -0.425068 0.538978 0.225431 -0.226791 -0.04264 -0.208024 -0.0619375 -0.345351 -0.301574 0.19311
33770 -0.251745 0.0146068 1.47534 -0.321995 2.65086 -2.18886 -3.56565 -0.743994 -0.097417 -0.610644 0.105132 0.304382 -0.164875 0.0875882 -0.456112 -0.575306 1.36612 0.010284 -0.0616484 -0.17612 0.199908 0.0801146 -0.58839 0.433762 -0.158204 -0.159088 0.0571728 -0.588485 0.0145963 -0.477262 -0.035201 0.387753
31233 -0.0995956 0.119827 1.51341 -0.265204 2.49597 -2.48251 -3.64212 -0.536836 0.0413609 -0.387347 0.410007 0.33702 -0.0579633 0.0886582 -0.705716 -0.257164 1.21012 -0.213197 -0.0642077 -0.430159 0.204072 0.0634163 -0.569128 0.368863 0.211306 -0.0572505 0.159506 -0.164928 -0.073186 -0.311219 -0.22825 0.187387
32296 0.0520601 0.131505 1.44224 -0.140332 2.56073 -2.65288 -3.99976 -0.511845 -0.104917 -0.398427 0.167106 0.276047 0.0519775 0.0609728 -0.474035 -0.29856 1.20164 -0.440084 -0.0417514 -0.305232 0.184624 0.215436 -0.72694 0.435946 0.078931 -0.0518103 0.0474021 -0.0873323 -0.021373 -0.186492 -0.0216495 0.146171
34605 0.0422577 -0.151601 1.51144 -0.0656666 2.6026 -2.54705 -3.73056 -0.618684 0.0603826 -0.660699 0.189483 0.483709 0.127491 -0.120851 -0.84813 -0.335941 0.989737 -0.413136 -0.111007 -0.306886 0.0539409 0.247395 -0.528116 0.584504 -0.0383285 -0.105165 -0.0209587 -0.272927 -0.414764 -0.327865 -0.0728367 0.0626857
32576 -0.270209 -0.0383482 1.51349 -0.00675615 2.60572 -2.37438 -3.4832 -0.367237 -0.135132 -0.654223 -0.0157883 0.283827 0.135271 -0.209814 -0.676704 -0.57491 1.14121 -0.586245 -0.192903 0.036977 0.0365689 0.17055 -0.450414 0.59901 0.0682599 -0.0364075 -0.0193191 -0.428087 -0.38683 -0.229503 -0.216921 0.146312
36267 -0.323338 0.112777 1.28503 -0.18268 2.63682 -2.54762 -3.85899 -0.514693 0.29378 -0.24221 0.406682 0.36824 0.0952526 0.0845779 -0.781959 -0.562995 1.08204 -0.144209 -0.0142171 -0.0559181 0.0582614 0.198008 -0.116924 0.694837 0.195433 -0.269104 -0.153166 -0.221077 -0.280459 -0.723 -0.18491 0.141668
33364 -0.00912253 0.104616 1.39798 -0.114638 2.74193 -2.40971 -3.78 -0.618086 0.204619 -0.53871 0.169763 0.374005 0.303249 0.0734028 -0.744208 -0.460305 1.16029 -0.355873 0.0771345 0.0456394 -0.0960724 0.0652857 -0.710394 0.495312 0.118019 -0.0300038 0.26734 -0.282558 -0.0948681 -0.309376 -0.161176 0.202761
31682 -0.0153911 0.337621 1.58287 -0.197854 2.48215 -2.55645 -3.57568 -0.536722 0.0265391 -0.664335 0.119193 0.45897 0.306105 -0.194302 -0.591871 -0.577726 1.20481 -0.43819 -0.0774737 -0.338895 0.271434 -0.0574547 -0.72258 0.367593 0.348668 -0.110804 0.0041914 -0.254135 -0.165215 -0.417412 -0.34756 0.00230784
34900 0.104248 0.183822 1.46176 -0.0802156 2.45432 -2.6481 -2.6716 -0.258419 0.274764 -1.11465 -0.029622 0.425069 0.144672 0.0321537 -0.865707 -0.293158 1.28343 -0.547302 -0.108104 -0.619501 0.129887 0.179407 -0.901292 0.800672 0.310843 0.0138157 0.108066 -0.333538 -0.188476 -0.66125 -0.290677 0.233407
35223 0.151208 -0.0232391 1.72552 0.139354 2.53816 -2.49332 -3.84692 -0.540924 -0.213282 -0.413447 0.0187615 0.244866 0.0628491 0.165108 -1.08142 -0.0782058 1.02784 -0.337827 -0.244548 -0.242067 0.134281 -0.12364 -0.487422 0.518107 0.135878 0.0228008 -0.0259747 -0.431245 -0.0697308 -0.425793 -0.283669 0.244852
34213 -0.419393 0.0166656 1.50296 -0.190185 2.5141 -2.58961 -3.91789 -0.612032 0.132347 -0.590369 0.268837 0.29342 0.131457 0.383454 -0.743517 -0.351426 1.16561 -0.149593 0.046541 -0.062186 -0.0463179 -0.235032 -0.620623 0.525596 0.337857 0.0219592 0.205599 -0.194398 -0.08775 -0.282376 -0.114226 0.119922
31621 0.0455358 -0.155547 1.30082 -0.0457523 2.53956 -2.621 -3.83347 -0.344721 -0.0367058 -0.205393 0.180441 0.297651 -0.127309 0.0727906 -0.636922 -0.403928 1.11798 -0.410544 0.251821 -0.435505 0.158641 0.232292 -0.567028 0.510748 0.372536 1.54617e-05 0.20118 -0.395214 -0.110943 -0.197418 -0.0985186 0.103294
32394 -0.192147 -0.0783738 1.45632 -0.320981 2.64007 -2.67079 -3.23542 -0.221835 0.177964 -0.583845 0.0450159 0.643447 0.183154 0.0831797 -0.768468 -0.420306 1.27176 -0.358958 -0.18911 -0.683216 -0.22532 -0.0972834 -0.924877 0.233416 0.26836 -0.00559831 -0.0930927 -0.290791 -0.311875 -0.576471 -0.264977 0.277421
32845 0.0673587 -0.271262 1.68519 -0.0759782 2.52765 -2.82653 -2.54954 -0.246551 0.145773 -0.931561 0.0711365 0.800996 0.334616 0.255351 -0.818589 -0.516915 1.55826 -0.345566 -0.00604169 -0.580351 -0.358756 -0.21901 -0.851623 0.19073 0.445644 -0.112635 -0.0627698 -0.47492 -0.417362 -0.727518 -0.22286 0.352599
31808 0.28715 -0.0938664 1.5279 0.0118346 2.6001 -2.50783 -3.93462 -0.607575 0.0892572 -0.565117 0.138791 0.328947 0.327195 0.145682 -0.676769 -0.349443 1.13024 -0.387265 -0.29141 -0.175621 -0.107097 0.224406 -0.430097 0.600557 0.398161 -0.1308 0.12323 -0.337243 -0.111206 -0.458483 0.187947 -0.00568868
31954 -0.191628 -0.0314218 1.49309 -0.253724 2.66704 -2.61305 -3.83888 -0.627625 -0.142318 -0.694153 0.109924 0.305722 0.036813 -0.00947249 -0.759533 -0.233464 1.05252 -0.575677 -0.13839 -0.158441 0.0686151 0.228534 -0.57262 0.394743 0.270366 -0.0497058 0.0870198 -0.149401 -0.124413 -0.21975 -0.0197499 0.341328
34131 0.11559 -0.0176799 1.33242 -0.279391 2.54904 -2.50826 -3.52195 -0.429407 0.129518 -0.633277 0.116749 0.543879 -0.0682896 -0.0316529 -0.612928 -0.618854 1.19632 -0.205862 0.173579 -0.211574 0.0528407 0.210363 -0.904171 0.142915 0.118267 -0.180822 0.366401 -0.230934 -0.17463 -0.39957 -0.196266 -0.0855428
35136 0.045573 0.0371716 1.45585 -0.301111 2.52594 -2.50411 -3.71792 -0.644096 0.351231 -0.418383 0.309607 0.471054 0.101923 0.45937 -0.631719 -0.583609 1.21001 -0.26527 0.147036 0.163807 0.0146066 -0.0184713 -0.550597 0.386341 0.0451231 -0.0838248 0.035591 -0.214632 -0.286547 -0.536245 0.0587869 -0.0720244
34762 0.264482 -0.204294 1.39738 -0.0154992 2.79777 -2.36783 -2.95718 -0.458425 -0.156531 -1.02711 0.235014 0.349771 0.13346 0.280122 -0.98391 -0.519025 1.20025 -0.348956 -0.144441 -0.319343 0.0927314 0.0271545 -0.711168 0.614585 0.664282 0.0711176 0.331833 -0.327847 -0.210388 -0.606597 -0.153099 0.152061
36639 -0.162229 0.0037055 1.53905 -0.105237 2.53745 -2.60384 -3.98587 -0.535137 -0.0163212 -0.416564 0.219458 0.51828 -0.148147 -0.0225632 -0.704561 -0.435533 1.13646 -0.199894 -0.121572 -0.282733 0.0769813 0.0708965 -0.783468 0.274271 0.182542 -0.209667 0.0564955 -0.155994 0.0215442 -0.307222 -0.0979614 0.20932
35268 -0.00956604 0.0471541 1.33842 -0.0569677 2.5499 -2.58433 -3.88571 -0.387714 -0.272132 -0.396636 0.048137 0.451169 0.125941 0.208486 -0.789396 -0.413311 1.0918 -0.212031 -0.0427163 -0.0980607 -0.0901594 0.123244 -0.616244 0.396707 0.171348 0.20896 -0.201185 -0.224834 -0.0652769 -0.300658 -0.191435 0.37161
34944 -0.0907221 -0.112933 1.41971 -0.129653 2.77096 -2.36903 -3.98959 -0.444399 0.0382259 -0.529533 -0.117942 0.333584 -0.113545 0.0653394 -0.723924 -0.344892 1.00233 -0.29284 -0.105918 -0.17483 0.0117341 0.103561 -0.610986 0.377444 0.150284 -0.0125046 0.0363418 -0.169022 -0.0801723 -0.325817 -0.097241 0.223608
35359 -0.00965533 -0.041357 1.69308 -0.0713698 2.43533 -2.52369 -2.62551 -0.319321 -0.245614 -0.698609 -0.000763958 0.64681 -0.257169 -0.164676 -0.851913 -0.534043 1.45439 -0.566976 -0.220035 -0.177392 -0.1768 -0.0201269 -1.17674 0.73575 0.434433 -0.199447 0.286886 -0.433038 -0.01063 -0.506429 -0.489563 0.502619
35092 -0.187795 0.0845792 1.54925 -0.240322 2.38383 -2.58645 -3.89403 -0.483086 -0.170529 -0.454236 0.457884 0.341588 -0.115189 -0.0732488 -0.645132 -0.359324 1.14682 -0.226622 -0.255107 -0.437587 -0.209714 -0.132044 -0.693546 0.423206 0.219266 -0.156923 0.0475858 -0.133342 -0.0437173 -0.442741 -0.144349 0.102209
36865 0.178041 0.128294 1.65772 -0.17673 2.45194 -2.46124 -3.69757 -0.659274 0.115307 -0.569243 0.0902268 0.270798 0.0523392 0.426315 -0.682343 -0.290339 1.341 -0.202769 0.18996 -0.137323 -0.0444457 0.150504 -0.668799 0.361504 0.258396 -0.209136 0.202634 -0.456196 -0.366171 -0.331691 0.0426936 0.00483292
34154 0.0673848 0.143934 1.62804 -0.00475126 2.62821 -2.43589 -3.52621 -0.204796 0.284838 -0.587356 0.229443 0.170049 0.139266 0.230276 -0.968488 -0.508255 1.08505 -0.489564 -0.189977 -0.21514 -0.218797 0.194822 -0.373998 0.790454 0.39927 -0.284576 -0.00545831 -0.462065 -0.272148 -0.372113 -0.25504 0.131518
36495 -0.588849 0.0435651 1.81155 -0.214427 2.56825 -2.18785 -2.51321 -0.594584 -0.0328159 -0.99859 0.0700092 0.764256 0.211802 0.139255 -1.21048 -0.312734 1.26159 -0.253706 -0.0901565 -0.410839 -0.0344505 0.335122 -0.974283 0.519798 0.788301 0.0849361 0.130191 -0.51336 -0.208019 -0.461183 0.176434 0.400565
35819 -0.138103 -0.051249 1.41808 -0.265125 2.76957 -2.36235 -4.01777 -0.431095 -0.00423545 -0.432926 -0.0443754 0.462189 -0.0433172 0.0715143 -0.586711 -0.354201 1.07914 -0.430426 -0.116649 -0.371079 0.0413953 0.0483783 -0.644929 0.394222 0.32235 0.140755 0.0928251 -0.0836008 -0.152192 -0.299634 -0.0250362 0.24143
34441 -0.00518088 -0.141034 1.47343 -0.131574 2.31841 -2.79571 -3.81344 -0.683482 -0.0189883 -0.446786 0.198529 0.446952 0.150483 -0.0276754 -0.663584 -0.29424 1.19944 -0.405479 -0.0536957 -0.163994 0.173314 -0.0700806 -0.586682 0.488836 0.325801 0.0639712 0.135246 -0.468657 -0.120517 -0.155055 -0.0549211 0.107886
31843 -0.114549 0.171841 1.56802 -0.0526044 2.45175 -2.52299 -3.64555 -0.411979 0.276393 -0.404722 -0.156611 0.281495 0.0220457 0.231097 -0.771239 -0.242068 1.09866 -0.454965 0.162646 -0.65206 -0.0210161 0.28817 -0.662288 0.584035 0.108841 -0.218549 0.285721 -0.0913292 0.206572 -0.377013 -0.222695 0.3462
32956 -0.135837 0.230055 1.44881 -0.10055 2.60697 -2.43436 -3.74458 -0.228852 0.0349996 -0.505142 0.0692414 0.172158 -0.0306075 0.299212 -0.5376 -0.261688 1.21247 -0.399854 0.116679 -0.543772 -0.0729939 0.254926 -0.653937 0.603491 -0.0491042 -0.346908 0.235646 -0.160989 -0.0342286 -0.221723 -0.0730419 0.240399
31331 -0.0598164 -0.0846672 1.55291 -0.0671791 2.5627 -2.67137 -4.02912 -0.536564 -0.134396 -0.50493 -0.113569 0.282967 0.0943081 0.0664073 -0.790449 -0.308652 1.12896 -0.306987 -0.178614 -0.325357 0.0646485 0.0232658 -0.582789 0.496944 0.215352 -0.124816 0.0728448 -0.182384 -0.169543 -0.279488 0.101408 0.195392
33568 -0.0830958 -0.030085 1.71799 -0.176378 2.16767 -2.54523 -3.10778 -0.654855 -0.035434 -0.721551 -0.0932139 0.56775 0.0454637 0.394587 -0.831842 -0.342608 1.27815 0.0341374 -0.114489 -0.37394 -0.25207 0.526188 -0.730336 0.665332 0.44083 0.137785 0.181194 -0.0829232 -0.338901 -0.644152 0.179145 0.166007
31783 -0.311532 -0.167744 1.6687 -0.0967283 2.7149 -2.42853 -3.10027 -0.290416 0.166247 -0.515477 0.115159 0.835517 -0.357165 -0.0488376 -1.028 -0.45823 1.14806 -0.601123 -0.0368043 -0.236919 0.132991 0.297979 -0.612448 0.302301 0.676564 0.0735716 0.0582353 -0.523489 -0.406517 -0.341361 0.242095 0.405536
33823 -0.0390685 0.154812 1.57372 -0.266834 2.59394 -2.52115 -3.85939 -0.581581 -0.0870568 -0.459277 0.039078 0.41984 -0.00799304 0.0472071 -0.755841 -0.339624 1.16585 -0.252728 -0.188994 -0.447677 0.118578 -0.0674548 -0.776818 0.387 0.21074 -0.284879 -0.144274 0.0135712 -0.114296 -0.453969 0.162582 0.326144
34023 0.0424526 0.0856394 1.3846 -0.279871 2.57992 -2.49135 -3.73662 -0.532112 -0.178344 -0.43008 -0.0183295 0.672787 0.15783 -0.0606025 -0.533542 -0.229778 1.28402 -0.524915 0.0203533 -0.136848 0.133765 -0.0689368 -0.500141 0.583239 -0.00520609 -0.0555301 0.277298 -0.144786 -0.0663453 -0.478116 0.173442 0.2647
33822 0.00697746 -0.0705983 1.63302 -0.192372 2.69442 -2.47037 -3.93636 -0.538825 0.0283007 -0.6486 0.0872205 0.360133 0.0953552 0.139468 -0.755329 -0.196171 1.16507 -0.355708 -0.108019 -0.298531 0.0169021 0.189038 -0.715437 0.458314 0.188346 -0.06685 0.0537178 -0.151657 -0.191616 -0.481131 -0.0137242 0.32007
33200 0.129247 -0.094795 1.62138 -0.28759 2.62962 -2.35486 -3.97611 -0.507506 -0.00754892 -0.384785 -0.0675733 0.411826 0.00459121 0.218927 -0.7526 -0.314295 1.1627 -0.358501 0.0400295 -0.130007 -0.154076 0.0463668 -0.708339 0.422821 0.142371 0.0780755 -0.0701931 -0.204335 -0.0630622 -0.312972 0.010129 0.185124
34886 -0.0706031 0.301574 1.30339 -0.165721 2.41903 -2.61999 -3.61858 -0.179486 -0.0571093 -0.450481 0.211144 0.522158 -0.0880253 0.161574 -0.596235 -0.434459 1.12926 -0.290885 -0.175228 -0.572759 -0.362087 0.0147428 -0.756446 0.415172 0.0777259 -0.130813 0.0497259 -0.429196 -0.170918 -0.579766 0.00454958 0.0802579
35676 0.0894765 0.0593014 1.39847 -0.0671383 2.59697 -2.40642 -4.13483 -0.454328 0.0389917 -0.491184 0.188554 0.306193 -0.0878955 0.0850899 -0.567914 -0.381602 1.13362 -0.387601 0.0436705 -0.0797126 0.0743228 -0.0281725 -0.474066 0.442127 0.28697 -0.0996734 -0.160863 -0.0917278 -0.0741791 -0.353059 -0.029611 0.316123
32949 -0.139821 -0.0243798 1.37028 -0.131978 2.67268 -2.50676 -3.968 -0.569213 -0.278224 -0.294991 -0.0637437 0.152179 -0.0545995 0.0652966 -0.722065 -0.392558 1.12973 -0.475996 0.272237 -0.349628 -0.124594 -0.0126274 -0.458219 0.519303 0.438952 0.0380908 0.0298589 -0.217272 -0.192626 -0.295402 -0.0808717 0.0675525
33459 -0.182154 -0.14574 1.32496 -0.0122868 2.46671 -2.62453 -3.35697 -0.41366 -0.0699855 -0.497982 0.287347 0.548908 -0.044054 0.224387 -0.703722 -0.476781 1.14022 -0.239787 0.222243 -0.536169 0.0596763 0.185747 -0.569419 0.620752 0.363309 0.254084 0.0748588 0.0660152 -0.231851 -0.536961 -0.0810584 0.321075
31788 -0.0347308 -0.0440945 1.5225 -0.121477 2.43754 -2.52857 -3.99601 -0.27006 -0.0172974 -0.357372 0.160951 0.433864 -0.0671783 0.167836 -0.489817 -0.354702 1.29172 -0.228326 0.0812472 -0.34461 0.0203663 0.165182 -0.619967 0.350357 0.268881 -0.117377 0.109184 -0.103548 -0.0830606 -0.380035 -0.0266336 0.191119
35603 -0.128882 0.0292096 1.53359 -0.22701 2.59449 -2.50288 -3.8646 -0.700455 0.0322879 -0.563172 0.152237 0.480313 -0.114673 -0.189767 -0.587467 -0.259377 1.25108 -0.211807 -0.244245 -0.324704 -0.0630573 0.0747855 -0.523645 0.453122 0.0212214 -0.251395 -0.00404441 -0.154998 -0.268091 -0.28482 -0.0687318 0.214628
33790 -0.0570389 -0.199479 1.61928 -0.354149 2.47603 -2.52476 -3.25771 -0.324241 0.280162 -0.790262 0.194012 0.557015 -0.0144906 0.196715 -0.690377 -0.363271 1.38503 -0.108397 -0.141718 -0.540528 0.0999146 0.0954895 -0.650802 0.238333 0.532085 -0.126949 0.15998 -0.431471 -0.221495 -0.577545 -0.00476212 0.37339
35844 0.0940481 0.19173 1.70979 -0.0981694 2.36151 -2.37211 -3.43248 -0.772419 0.0706854 -0.744231 0.300086 0.569804 0.0460945 0.206996 -0.72285 -0.350948 1.24317 -0.275944 -0.193584 -0.381721 -0.0648645 0.309875 -0.739152 0.621709 0.446456 -0.0681656 0.196402 -0.466117 -0.476166 -0.29416 0.234674 0.0632307
32810 -0.087645 0.0796205 1.76422 0.058 2.43364 -2.74216 -3.83572 -0.876494 -0.14234 -0.526804 -0.0482867 0.196083 0.0620444 0.333514 -0.696103 -0.171862 1.39345 -0.150556 0.0466548 -0.380657 -0.291079 0.336863 -0.757084 0.327719 0.234557 -0.0192342 0.0372643 -0.175047 -0.265593 -0.49824 0.315276 0.0525568
33767 -0.174509 0.0571485 1.79585 0.031816 2.30498 -2.66931 -3.3129 -0.910446 -0.0389428 -0.582685 0.0618762 0.315281 0.355953 0.456169 -0.56141 -0.209883 1.49112 -0.30281 -0.0978312 -0.58557 -0.32736 0.597672 -0.745001 0.479663 0.271648 -0.180916 0.0540033 -0.181604 -0.273913 -0.520316 -0.0173161 0.188985
31903 -0.0542709 0.0103444 1.6454 -0.157212 2.72127 -2.67589 -4.16293 -0.575357 0.0820496 -0.518124 0.127013 0.339186 0.183911 0.129754 -0.752255 -0.356221 1.24473 -0.362363 -0.215858 -0.329598 -0.00569628 0.145499 -0.660033 0.379216 0.316541 -0.0687661 0.0199969 -0.204668 -0.11375 -0.408198 -0.0549849 0.231812
32740 -0.0711067 -0.054463 1.56835 -0.164555 2.46051 -2.59645 -3.33268 -0.105044 0.0178657 -0.753597 0.0711009 0.583912 0.000492266 -0.0617029 -0.958123 -0.313474 1.27968 -0.27008 -0.247409 -0.337634 -0.530892 -0.0770294 -0.863393 0.0923669 0.232756 -0.215049 0.257097 -0.688807 -0.208015 -0.704449 0.026907 0.410421
34449 -0.0768306 -0.137783 1.40586 0.0039975 2.6098 -2.61284 -3.94085 -0.622916 0.0398265 -0.584423 0.154615 0.254946 0.0503621 0.104048 -0.876097 -0.417534 0.933311 -0.383315 -0.0949589 -0.321207 -0.0116091 2.34867e-05 -0.572596 0.476934 0.266283 0.0191377 0.00626542 -0.16831 -0.12621 -0.493177 -0.0314461 0.111372
36129 0.092503 -0.106682 1.39288 0.0167736 2.49658 -2.70946 -3.83379 -0.379587 -0.259344 -0.396317 0.0496566 0.186048 -0.158355 0.213138 -0.767246 -0.401328 1.14278 -0.452074 0.191791 -0.405637 0.0811156 -0.0228161 -0.571205 0.306324 0.356917 -0.0861155 0.256747 -0.303682 -0.214212 -0.333431 0.0477109 0.317451
35651 0.00153323 -0.120814 1.48431 -0.0199286 2.81205 -2.40816 -4.07812 -0.567322 0.0326717 -0.413299 0.0269255 0.313833 0.112952 0.156665 -0.670101 -0.266009 1.12081 -0.325682 -0.0316549 -0.4067 -0.025247 0.147337 -0.684294 0.379436 0.144834 -0.249989 -0.00114067 -0.0251375 -0.217043 -0.383548 -0.119548 0.0135069
35345 -0.143992 -0.172329 1.56176 -0.390729 2.29772 -2.56259 -3.68063 -0.209818 0.0327913 -0.829638 0.0143753 -0.0237955 0.127868 0.138264 -0.727912 -0.144899 1.30995 -0.0889828 -0.0303401 -0.333375 -0.265454 0.218627 -0.693765 0.502797 0.477889 -0.238256 -0.150712 -0.327282 -0.0998159 -0.542454 0.113775 0.09401
34625 -0.145123 -0.168477 1.49826 -0.0428355 2.64241 -2.50269 -3.77124 -0.418082 0.112017 -0.680256 -0.184976 0.0394292 0.119491 -0.0107529 -0.747235 -0.297167 1.18593 -0.437434 -0.0802135 -0.207601 -0.0955919 -0.00714807 -0.557495 0.341302 0.322546 0.0621273 0.0241062 -0.0635575 -0.243364 -0.427087 0.00496159 0.350471
33868 0.0532419 0.0813477 1.62954 -0.173044 2.58853 -2.27455 -3.66339 -0.498242 0.262578 -0.781382 0.0196014 0.0490244 0.187129 -0.136839 -0.660503 -0.773806 1.13764 -0.317166 0.192898 -0.371747 -0.162396 -0.092025 -0.742928 0.358076 0.466897 -0.109135 -0.00295628 -0.130822 0.0674952 -0.402296 -0.353879 0.446297
35093 0.118512 0.145381 1.65805 0.00661678 2.3988 -2.57914 -3.6383 -0.46164 0.0188506 -0.520448 0.211121 0.468462 0.134003 0.31462 -0.897591 -0.23683 1.12262 -0.380227 -0.191287 -0.326219 -0.0560311 0.0955678 -0.649295 0.380325 0.273332 0.0739413 0.0410368 -0.249916 -0.3077 -0.545502 -0.177305 0.436518
31685 0.181677 0.199118 1.40852 -0.139353 2.64985 -2.46374 -4.10087 -0.205952 0.125723 -0.39176 0.197045 0.411349 -0.0483488 0.146745 -0.717832 -0.296228 0.940489 -0.437919 -0.0842465 -0.413497 -0.0678769 0.260794 -0.586337 0.438379 0.125505 -0.387787 0.128666 0.0842453 -0.0414237 -0.4481 -0.0476173 0.209708
35161 -0.00500927 0.0550814 1.58786 -0.0826456 2.46464 -2.52189 -4.00337 -0.562682 -0.145911 -0.397042 0.0425842 0.394828 -0.144605 0.119669 -0.761815 -0.200523 1.06465 -0.222772 -0.19176 -0.171704 0.0384632 0.240581 -0.543428 0.483906 0.201711 -0.0707036 0.127178 -0.22065 -0.310417 -0.243623 0.225451 0.0722845
