7349 32
31481 0.0876331 0.324519 1.08489 -0.631035 -1.21062 1.81906 4.3911 -0.939235 -0.701838 0.19315 0.243535 0.413108 -0.34905 0.78709 -1.32365 -0.682682 0.842695 -0.406924 0.204699 0.148278 -0.0419758 0.333976 -0.881992 -0.0920057 -0.705863 0.155536 0.324538 0.218241 0.440239 -0.18003 -0.098407 0.827737
33656 0.251505 0.245022 0.81488 -0.759294 -0.880468 1.87272 5.95947 -1.43288 -0.312559 0.0371928 0.212726 0.126777 -0.361767 0.331318 -0.933447 -0.720438 0.481764 -0.0823271 -0.118517 0.0843208 -0.132519 0.246906 -0.557563 0.0642719 -0.275211 0.199229 -0.0616831 -0.0524548 0.212408 0.0504141 0.100861 0.36564
36295 0.210526 0.330551 1.04653 -0.224659 -0.865205 1.93645 5.1547 -1.30538 -0.242368 -0.298408 0.132927 -0.238282 -0.56283 0.279681 -1.06981 -0.817346 0.389695 -0.121521 -0.233289 -0.235786 -0.241801 0.0633998 -0.41756 0.0204386 -0.282565 0.310828 0.176348 0.115319 0.240883 0.000838756 0.247068 0.536791
32345 0.312544 0.287319 0.814548 -0.367052 -0.841532 2.04251 5.85825 -1.67547 -0.316264 -0.109728 0.286985 0.144834 -0.264166 0.298839 -0.920131 -0.789598 0.306844 -0.169263 -0.0289476 -0.0182109 -0.047407 0.164589 -0.40268 -0.0475793 -0.289004 0.0125514 0.0377777 0.0555182 0.22831 -0.136091 0.170424 0.386252
34957 0.185029 0.356844 0.862576 -0.571161 -0.854818 1.92478 5.60681 -1.61704 -0.449037 -0.204495 0.0929504 0.0338923 -0.495571 0.0467507 -1.03175 -0.821062 0.351214 0.00694476 0.151443 -0.108584 0.0130187 0.250384 -0.366011 -0.0274307 -0.425851 0.0365189 -0.102036 0.0791303 0.334504 -0.0503423 -0.0691484 0.476635
31270 0.26949 0.312711 0.821468 -0.362011 -0.866012 2.02199 5.76917 -1.52334 -0.166385 -0.115287 0.0916111 0.0137648 -0.332782 0.410225 -1.06405 -0.543554 0.528647 0.0666144 -0.0875105 -0.0275898 0.0410232 0.134838 -0.547522 0.0527629 -0.149761 0.177912 -0.0671526 0.0910535 0.227321 -0.0918596 0.0554631 0.243985
31543 0.232814 0.312407 0.78283 -0.24775 -0.99107 1.90415 5.96314 -1.68143 -0.182326 -0.126256 0.183659 0.297538 -0.341852 0.175765 -0.752374 -0.795265 0.373769 -0.0909015 0.258572 0.144888 -0.100269 0.230772 -0.273411 -0.0104585 -0.243249 0.0392144 0.081147 0.00342631 0.206278 -0.0224754 0.0744131 0.293769
34611 0.228575 0.188903 0.70796 -0.465194 -0.918393 1.91392 5.82657 -1.60744 -0.186345 -0.198089 0.03431 0.0628157 -0.180655 0.14948 -0.820694 -0.641534 0.555841 -0.0815754 0.0446671 0.158371 0.107055 0.265817 -0.280591 -0.121897 -0.0709499 -0.0520331 0.0891094 0.267905 0.13977 -0.0509354 0.00102077 0.512003
33121 0.311882 0.252265 0.910311 -0.473172 -0.771503 1.77712 5.81848 -1.68189 -0.113939 -0.000885771 0.327432 -0.0184612 -0.17838 0.119752 -0.947381 -0.672911 0.350288 -0.243304 0.205436 0.0987438 0.0390346 0.129928 -0.387715 -0.063669 -0.165654 -0.0532558 -0.0863432 -0.0274094 0.316722 -0.187672 0.0855988 0.194841
35002 0.286839 0.381042 0.609167 -0.718808 -0.899184 1.72668 5.90871 -1.82299 -0.194681 -0.186071 0.222283 0.083847 -0.310834 0.234453 -0.898311 -0.612805 0.206804 -0.246118 0.115113 0.0361881 -0.0377342 0.17856 -0.422153 0.163637 -0.307455 -0.0151767 0.217208 0.0556083 0.335485 -0.00894161 0.0287021 0.117671
32476 0.445351 0.235293 0.768371 -0.848984 -0.812449 2.09444 5.12486 -1.4644 -0.202412 -0.532287 -0.0603825 -0.00835709 -0.363303 0.177228 -1.20898 -0.702902 0.419863 -0.22616 0.216547 -0.350817 -0.326021 0.336721 -0.176218 -0.231839 -0.542846 0.0183841 0.315676 -0.190379 0.438599 -0.185246 0.00573623 0.288074
35842 0.40109 0.286806 0.788218 -0.580046 -0.73995 2.08264 6.02171 -1.73989 -0.289767 0.133783 -0.0187345 0.145344 -0.293823 0.175713 -0.838371 -0.986135 0.477998 -0.316601 0.152065 -0.0313901 -0.106362 0.0723964 -0.551661 -0.000610772 -0.242593 0.345969 0.00205901 0.0134616 0.42511 0.0375057 0.0936453 0.130903
32166 0.151185 0.213868 0.788938 -0.657035 -0.896338 1.81677 5.7421 -1.77713 -0.182658 -0.0014294 -0.0554718 0.0544062 -0.320804 0.161155 -0.800061 -0.805392 0.392011 -0.0666997 -0.00871822 0.270834 -0.00549527 0.33949 -0.338515 -0.123378 0.0101324 -0.0891017 0.0191775 0.274064 0.311429 -0.0156045 0.030615 0.48557
36129 0.28633 0.149942 0.690488 -0.564868 -0.966482 1.90463 5.74842 -1.7825 -0.157174 -0.127102 -0.0751617 0.096741 -0.351016 0.297687 -0.876413 -0.674681 0.431323 -0.216598 -0.110719 0.300718 0.0154239 0.360969 -0.241212 -0.213941 -0.000171198 0.0509355 0.0619933 0.147819 0.316812 -0.0955133 0.090208 0.372957
35416 0.463998 0.238566 0.69688 -0.670571 -0.993543 2.13996 5.23171 -1.61146 -0.185763 0.11404 -0.0237326 0.0620354 -0.302532 0.59013 -1.01554 -0.604215 0.702422 -0.198378 -0.0774425 0.0989764 0.149934 0.505942 -0.198497 -0.108808 -0.148658 -0.0400534 0.173492 0.0674387 0.536006 -0.294657 0.282349 0.394134
31229 0.216266 0.385215 0.910058 -0.492587 -0.429819 2.11045 5.80989 -1.79246 -0.453819 -0.161262 0.148634 0.168951 -0.227133 0.342221 -0.829563 -0.748894 0.601623 -0.0881531 0.0861993 0.0561996 -0.178473 0.280858 -0.342911 0.169997 -0.180486 0.0127803 0.0693392 -0.0528965 0.451404 -0.0111476 0.0840195 0.19179
34269 0.354214 -0.149013 1.1413 -0.751894 -0.334754 1.69231 5.43295 -1.97249 -0.279629 -0.19958 0.363676 0.355025 -0.206019 0.185163 -0.925473 -0.751328 0.304041 -0.258121 -0.0220655 -0.302751 0.216889 0.249896 -0.0620236 0.364325 -0.00322788 -0.0323481 -0.0453917 -0.16949 0.345045 0.315154 0.482804 0.674887
34313 0.224633 0.287865 0.731275 -0.529506 -0.800438 1.76263 5.21826 -1.52138 -0.276847 -0.0892163 0.449468 0.273419 -0.12849 0.314433 -0.903849 -0.727259 0.527043 0.0699272 0.142563 -0.232604 -0.205054 0.16941 -0.328737 0.146945 -0.309539 0.169653 -0.214326 0.0793095 0.564258 0.0704342 -0.0715891 0.498172
33874 0.268483 0.199865 0.546393 -0.402426 -0.946209 2.01597 5.97682 -1.7296 -0.215029 -0.127986 0.00801117 0.148153 -0.122963 0.233559 -0.831702 -0.72271 0.462296 -0.0654731 -0.108896 0.0530742 -0.0422989 0.238894 -0.328266 -0.170712 -0.0831539 0.168213 0.0543905 -0.0323894 0.27616 -0.106409 0.114929 0.251277
33786 0.152543 0.0967872 0.781004 -0.493633 -0.690337 1.88356 5.66391 -1.62236 -0.168504 -0.128245 -0.0807965 0.0286263 -0.297893 0.24725 -0.97236 -0.4762 0.311585 -0.206783 -0.121592 0.396663 -0.210733 0.458742 -0.273485 -0.0612236 -0.115265 0.0781108 -0.0286036 -0.0543956 0.0813615 -0.0331273 0.00218377 0.489868
32517 0.202505 0.354681 0.912445 -0.316059 -0.959076 1.83966 5.56072 -1.45092 -0.263913 0.0379721 0.190611 0.121296 -0.0576196 0.603677 -1.02737 -0.652159 0.438787 -0.258983 -0.16239 -0.145013 -0.0517585 0.271163 -0.494208 0.134589 -0.293751 0.258874 0.0513113 0.168002 0.17185 -0.196105 0.281083 0.307967
35014 0.222685 0.243764 0.700076 -0.522621 -0.959914 2.00817 5.78775 -1.62834 -0.239823 0.0338483 0.328195 0.159206 -0.216837 0.464597 -0.885071 -0.807385 0.488877 -0.13025 0.11809 -0.14857 -0.0155953 0.293985 -0.383972 -0.0212103 -0.306582 0.19326 0.119655 0.0241524 0.184359 -0.0290302 0.195044 0.341171
34729 0.429621 0.259283 0.763697 -0.269936 -0.72748 1.9488 5.62517 -1.86507 -0.394397 -0.182906 0.253189 0.253506 -0.157283 0.459726 -1.03434 -0.680663 0.115349 -0.230432 0.185748 -0.313886 -0.20535 0.362466 -0.565893 0.149981 -0.107832 -0.178548 -0.0312205 0.195784 0.452719 0.140453 -0.0320592 0.489665
32179 0.346613 0.156068 0.546051 -0.447499 -0.923618 1.93267 5.81164 -1.80561 -0.271154 -0.0260623 0.158555 -0.0171239 -0.170272 0.197766 -1.01103 -0.701416 0.197983 -0.0956962 0.0214454 -0.000632606 -0.0171963 0.172154 -0.482523 0.0545977 -0.113852 0.189066 0.0496382 -0.178922 0.228074 0.0817799 0.111559 0.377422
34029 0.112003 0.485149 0.753716 -0.389772 -0.951345 1.92812 5.23062 -1.79598 -0.560835 -0.112826 0.306173 0.292971 0.054994 0.175778 -0.964174 -0.890792 0.703798 -0.377443 0.16513 0.0274662 -0.0598755 0.310554 -0.373424 0.00940263 -0.462756 0.114932 -0.288548 -0.124339 0.434599 -0.099908 0.244238 0.481039
30956 0.544171 0.303191 0.748239 -0.706193 -0.681957 2.04105 5.18357 -1.59196 -0.386672 -0.352745 0.269131 0.25051 -0.0710362 0.237439 -1.03099 -0.862905 0.723733 -0.200275 -0.0929537 -0.388171 0.114618 0.548761 -0.424925 -0.20821 -0.542611 0.03107 0.0330877 0.224087 0.513964 -0.101146 0.125409 0.473511
34041 0.360857 0.365531 0.980301 -0.664654 -0.737514 2.01491 5.24111 -1.96484 -0.509877 -0.0647817 0.244431 0.224659 -0.0279172 0.6079 -1.01069 -1.15085 0.308383 -0.0731531 -0.348243 0.0912868 0.285393 0.32572 -0.272804 -0.0403197 -0.826638 0.188975 -0.137552 -0.0405348 0.49954 -0.188382 -0.159293 0.540729
32790 0.158055 0.4212 0.802251 -0.517745 -0.709941 1.92897 5.45481 -1.60249 -0.577406 -0.0520644 0.303093 -0.0672344 -0.281604 0.0377648 -1.0171 -0.713335 0.629262 -0.280714 0.0531461 0.305558 -0.226278 0.341971 -0.302456 -0.0381342 -0.483564 0.267004 -0.049305 -0.112885 0.317312 -0.34785 0.232804 0.452997
31999 -0.182523 0.303357 0.729736 -0.776748 -0.824104 1.81855 5.60852 -1.33366 -0.544515 0.223945 0.147725 0.415523 -0.145365 0.0798314 -1.08206 -0.632242 0.202462 -0.220504 -0.061042 0.255297 0.246456 0.0590089 -0.326527 0.0349298 -0.132722 -0.0609745 0.288918 0.0380923 0.29207 -0.234891 0.237445 0.56475
35796 0.22077 0.365511 0.861976 -0.641662 -0.680263 1.73493 6.00524 -1.76758 -0.112161 -0.270571 0.212493 0.514508 -0.164968 0.344639 -0.898717 -0.798558 0.257448 -0.15222 -0.144329 0.0870041 0.0793998 -0.0285016 -0.584777 -0.0598832 -0.128605 0.0105588 0.125399 0.105678 0.384837 -0.0588412 0.28705 0.27191
35448 0.0893144 0.288649 0.832967 -0.158486 -0.536484 1.82228 5.47263 -1.79647 -0.264257 -0.456996 0.521006 -0.0831489 -0.327784 -0.272568 -1.04378 -0.757508 0.280921 -0.2835 -0.370182 0.322049 0.0242187 0.348555 -0.390993 -0.100728 -0.405315 0.0375143 0.108934 0.0291855 0.602088 -0.191637 0.505897 0.390149
33830 0.149026 0.235374 0.83676 -0.636188 -0.912932 1.83112 5.94049 -1.75394 -0.134721 -0.11935 0.0774317 0.166531 -0.295786 0.335733 -0.976885 -0.65404 0.435158 -0.0165822 0.0584877 -0.0068319 -0.0339742 0.205118 -0.339031 0.0523919 -0.373882 0.0313896 0.0496536 -0.064434 0.382994 0.0240324 0.107323 0.185287
34955 0.305077 0.420655 0.700149 -0.636285 -0.71695 1.81978 5.73703 -1.77226 -0.313039 -0.0400617 0.200766 0.214069 -0.337906 0.129956 -0.994297 -0.58684 0.295455 -0.0593485 -0.206498 0.360358 -0.184913 0.103133 -0.505453 -0.132605 -0.202361 -0.0788 0.180928 0.118306 0.366923 -0.0506245 0.0714743 0.214897
32970 0.0512388 0.45497 1.05012 -0.718049 -0.784767 1.81964 5.28363 -1.46048 -0.397967 0.217579 0.0682139 0.478066 -0.307515 0.147464 -1.11559 -0.910144 0.341507 -0.0796496 -0.0789799 0.076949 -0.130187 0.0472796 -0.530263 -0.136312 -0.205039 -0.206523 0.239429 -0.0142773 0.636379 -0.327146 0.185279 0.504197
30958 -0.0226781 0.142028 1.07419 -0.547946 -1.15481 1.80627 5.03427 -1.66797 -0.287559 0.173136 0.00877509 0.383544 -0.567544 0.142841 -0.945996 -0.941011 0.500775 -0.220017 -0.0277228 -0.143274 0.0421825 0.393262 -0.634096 -0.215479 -0.252966 0.227843 0.136136 0.0158282 0.310772 -0.281662 0.25604 0.3038
33468 0.375716 0.505496 0.73048 -0.573034 -0.852357 1.92529 5.31304 -1.54181 -0.20381 -0.0320176 -0.150019 0.418965 -0.620462 0.359792 -0.878274 -1.16813 0.360481 -0.327425 0.0966137 -0.188171 0.0147834 -0.0353431 -0.666327 0.108064 -0.356587 0.375913 -0.0855529 -0.0305465 0.339089 -0.0577999 0.257898 0.521183
35101 0.262841 0.579403 0.675436 -0.731206 -0.711957 1.80451 5.94888 -1.87235 -0.0536311 -0.0777545 0.15428 0.37168 -0.200628 0.204419 -0.951125 -0.591546 0.336378 -0.311256 -0.0368745 0.0203555 0.0240524 0.118081 -0.359263 -0.0316173 -0.220595 0.101926 0.0595651 -0.101117 0.196539 -0.0172109 0.174052 0.305619
31307 0.158534 0.505347 0.943507 -0.325691 -0.572995 1.76816 5.65612 -1.76478 -0.107689 -0.119963 0.505488 0.119288 -0.0828306 0.0888011 -0.813362 -0.745297 0.51895 -0.388784 -0.336474 0.169876 0.0871931 -0.0146645 -0.172732 0.25274 -0.155823 0.0664152 -0.04946 -0.0596369 0.307961 -0.0946391 0.0548707 0.559206
36102 0.603687 0.504136 0.676232 -0.720936 -0.464511 2.01994 5.40619 -1.40353 -0.526575 -0.179725 0.138255 0.0749034 -0.0722492 0.0606401 -1.13569 -0.726215 0.483599 -0.487794 0.426349 0.147264 -0.00936189 0.270151 -0.481792 0.00842942 -0.386102 0.391202 -0.186547 -0.0348049 0.498617 -0.0351018 0.284569 0.36758
36840 0.0690824 0.195894 0.721916 -0.565831 -0.860462 1.84676 5.69424 -1.87393 -0.215951 -0.105858 0.246737 -0.0947927 0.157885 0.221698 -0.973205 -0.574126 0.602583 -0.15989 0.371379 -0.0579602 -0.0467979 -0.0222416 -0.374641 -0.113373 -0.247497 0.147594 0.1174 -0.0715158 0.1061 0.0253335 0.136375 0.424498
34336 0.394081 0.365792 0.773011 -0.384042 -0.726492 2.12041 4.98613 -1.62515 -0.361918 -0.210464 0.176718 -0.050687 0.108626 0.217118 -1.07409 -0.889964 0.333368 0.0477373 -0.0613377 -0.0737352 -0.337877 0.480706 -0.475055 0.0587364 -0.188772 0.344539 -0.10947 -0.154497 0.540072 -0.0927056 0.272804 0.394014
34369 0.32077 0.30415 0.728503 -0.424768 -1.17874 1.74307 5.20227 -1.6217 -0.285471 -0.073429 0.239251 0.118127 -0.364294 0.359174 -1.00359 -0.655057 0.566122 -0.0914692 0.14032 0.178337 0.0135388 0.283204 -0.491038 0.0349513 -0.043071 0.107107 0.209595 -0.0211596 0.457327 0.293362 0.126025 0.520573
31502 0.0231225 0.343909 0.835327 -0.623542 -1.04259 1.88193 5.8589 -1.46273 -0.196987 -0.175973 0.219688 0.240799 -0.187476 0.26062 -0.886599 -0.953431 0.407859 -0.0697356 -0.0618852 -0.0835794 -0.190356 0.0787345 -0.340886 0.0398119 -0.276854 0.138084 -0.0324738 0.0672082 0.27489 0.0245945 0.132157 0.506709
32615 0.0970421 0.632844 0.875148 -0.496859 -0.961328 1.82842 5.54102 -1.51226 -0.159582 0.0346709 0.174592 0.262642 -0.0856272 0.232021 -1.0181 -0.622325 0.372524 -0.22443 -0.106675 0.212892 0.0109683 0.463237 -0.55443 -0.0708117 -0.248093 0.274989 0.0127368 0.246541 0.176646 -0.177682 -0.101072 0.306292
35083 0.258456 0.234586 0.817748 -0.47975 -0.971437 1.72683 5.7335 -1.63795 -0.245183 -0.0882501 0.0895171 0.161293 -0.369985 0.406238 -0.94052 -0.621251 0.474849 -0.0521294 -0.0658552 -0.0830432 -0.0986208 -0.00151929 -0.432198 -0.0682473 -0.245813 0.131567 -0.124624 0.109204 0.0140017 -0.0766717 0.0845902 0.438898
36620 0.141783 0.435513 0.897184 -0.359292 -0.926119 1.78599 5.71668 -1.50002 -0.464253 -0.28767 0.309637 0.226128 -0.362168 0.554781 -0.86132 -0.663182 0.548688 -0.212182 0.0498652 -0.0450699 -0.117645 0.139347 -0.49401 -0.0944372 -0.422275 0.0714039 0.0022483 0.206091 0.221257 -0.156053 0.0170811 0.440979
34188 0.139633 0.344489 0.773612 -0.552484 -0.976922 2.02045 5.41816 -1.75016 -0.281315 0.152304 -0.0257825 0.109191 -0.0524721 0.431578 -1.05821 -0.673658 0.628935 -0.13082 0.084135 -0.000946287 -0.161116 -0.0308526 -0.28676 0.135441 -0.476674 -0.0302221 0.00120276 -0.0863332 0.199323 0.0812461 0.10833 0.463355
33250 0.185552 0.146429 0.872246 -0.249295 -0.926475 1.86937 5.70005 -1.77679 -0.153165 -0.180701 0.0932175 0.209286 -0.0533512 0.293415 -0.886475 -0.618995 0.566961 -0.21966 0.345209 0.138525 0.113436 0.0706801 -0.473071 -0.0911914 -0.267015 0.0989977 0.175402 -0.116944 0.0682714 -0.0475676 0.1977 0.451866
36611 0.288009 0.16864 0.806559 -0.492327 -0.997427 1.74017 5.84376 -1.77859 -0.0760796 -0.0171621 0.210059 0.167977 -0.235382 0.339394 -0.988222 -0.477285 0.474465 -0.100625 -0.125808 -0.0130337 -0.0883385 0.117435 -0.356711 -0.0927978 -0.270251 0.0694894 -0.00121391 -0.0132644 0.119117 -0.0739268 0.190187 0.337016
32040 0.365669 0.489095 0.732947 -0.457544 -0.970599 1.92572 5.70901 -1.93431 -0.172914 -0.0253228 0.239927 0.28698 -0.155502 0.144509 -1.03609 -0.589957 0.504576 0.0499981 -0.00819789 0.0671738 -0.20618 0.102401 -0.322746 0.0788704 -0.452704 -0.104437 0.0438567 0.106938 0.0500929 0.0009027 0.279734 0.164243
35268 0.292444 0.707915 0.736975 -0.539229 -0.849561 1.86947 5.72476 -1.78098 -0.163269 -0.059573 0.130089 0.0560057 -0.0624075 0.0899411 -0.970482 -0.694214 0.558037 -0.157727 -0.0345142 0.10963 -0.111644 0.163108 -0.417266 -0.0385685 -0.295041 -0.0580731 0.105019 -0.00313555 -0.0677988 -0.197327 0.0712193 0.382089
32505 0.187954 0.461562 0.66215 -0.792194 -0.862459 1.82473 6.05872 -1.86551 -0.403026 0.0275 0.135699 0.198777 -0.216555 0.278777 -0.825745 -0.754939 0.459554 -0.148948 -7.22813e-05 0.271345 0.0671416 0.0997146 -0.319961 0.324807 -0.531643 -0.0659506 0.0144771 0.0790505 0.256692 0.137457 0.18206 0.215918
33216 0.408692 0.162391 0.99127 -0.837104 -0.574716 1.99767 5.55601 -1.81007 -0.265877 -0.260232 0.320892 0.182632 -0.36963 0.377056 -0.978865 -0.571271 0.62664 -0.323673 -0.00153477 0.0503833 -0.329954 0.277224 0.0814413 0.334711 -0.539012 0.0633585 0.26929 0.151936 0.318335 0.074501 0.244598 0.208171
33346 0.405869 0.493699 0.617569 -0.666886 -0.565441 1.93194 5.79479 -1.96281 0.128635 -0.0678816 0.221986 0.177386 -0.193594 0.282745 -1.01228 -0.53967 0.387487 -0.05884 0.0406486 0.0535101 -0.180976 0.0762952 -0.0433236 -0.233964 -0.404146 -0.0517729 0.146774 0.086692 0.345357 0.196757 0.259779 0.25382
32030 0.392832 0.379065 0.634212 -0.519656 -0.783961 2.06708 5.30225 -1.65717 -0.337494 0.112439 0.569679 0.207837 -0.303311 0.313216 -1.1697 -0.581717 0.330613 0.128121 -0.0242864 -0.0886261 0.149901 0.108309 -0.289176 -0.251246 -0.338809 0.207897 0.17927 0.304704 0.3535 0.142766 0.196392 0.330319
31965 0.00490236 0.305369 0.690094 -0.578726 -0.940583 1.9108 5.84787 -1.76467 -0.284736 -0.118968 0.210112 0.0666465 0.0509959 0.235485 -0.920013 -0.736423 0.357136 -0.102604 0.116674 -0.164196 0.0180101 0.0336989 -0.322784 0.0569329 -0.163638 0.0576704 0.156412 -0.107928 0.177239 0.0517709 0.137122 0.389436
34839 0.307561 0.151941 0.69463 -0.66531 -0.911032 2.07976 5.4668 -1.68473 -0.180413 0.173494 0.110935 0.210097 -0.348054 0.248205 -1.27536 -0.723375 0.0845726 0.138671 -0.0266536 -0.0275712 0.0287095 0.258568 -0.270285 -0.129968 -0.313748 0.0492747 0.050344 -0.160806 0.0819986 -0.156831 0.150013 0.711603
31138 0.0155422 0.372009 0.754512 -0.599336 -0.990369 1.78844 5.839 -1.75945 -0.231966 -0.170483 0.199457 0.103542 -0.0646725 0.337721 -1.0053 -0.627006 0.364997 -0.105554 0.0533662 -0.107274 0.015153 0.0581241 -0.40384 -0.143299 -0.316026 0.0406126 -0.121879 -0.158385 0.225777 -0.112145 0.143822 0.319834
35375 0.138424 0.325181 0.749968 -0.531551 -0.793159 1.96396 5.84018 -1.71853 -0.123304 -0.129369 0.00871424 0.0131608 -0.155586 0.323514 -0.915287 -0.777915 0.343692 -0.17702 0.102277 0.172644 0.0633595 0.203445 -0.456982 -0.137554 -0.188068 -0.076367 -0.0730775 0.0136314 0.140169 0.0181019 0.141387 0.537708
31182 0.228997 0.481679 0.681672 -0.584282 -0.633506 1.96803 5.81415 -1.71658 -0.485887 -0.102262 0.306321 0.171779 -0.157417 0.206117 -1.05068 -0.665956 0.279913 -0.0722854 0.0961296 -0.0959681 0.117554 0.229576 -0.448371 -0.0837119 -0.243922 -0.0151845 0.0506414 -0.0836436 0.299032 -0.179009 0.0258831 0.329565
32001 0.588335 0.277397 0.559981 -0.696716 -1.08412 1.80411 4.96222 -1.27661 -0.55613 -0.0994356 0.247017 0.322654 0.175726 0.572307 -1.04712 -0.999279 0.0350785 -0.368346 0.00246842 0.281459 -0.172375 0.259147 -0.541325 -0.334371 -0.602945 -0.25514 -0.143463 -0.733103 0.119715 -0.174731 0.493193 0.393103
35223 0.398564 0.53683 0.535458 -0.451643 -0.608139 1.95051 5.75563 -2.0251 -0.0403694 -0.020852 0.262404 0.215208 -0.210602 0.300547 -0.969969 -0.549569 0.419155 -0.0343992 -0.0857956 0.147545 -0.179808 0.0423283 -0.0445394 -0.301043 -0.439126 -0.0153863 0.133483 0.0311052 0.366886 0.153273 0.189542 0.27277
33519 0.186872 0.413242 0.888447 -0.401943 -0.774447 1.86751 5.81237 -1.83055 -0.0753776 -0.0833319 0.363297 0.421143 -0.210143 0.0945335 -0.990221 -0.61386 0.388466 -0.277347 -0.126498 0.184388 -0.00430282 0.182198 -0.575484 0.142024 0.0414944 0.00416022 0.122493 -0.168937 0.248479 0.0438387 0.196896 0.357895
34518 0.250967 0.125733 0.928434 -0.502099 -0.725885 1.73099 5.73772 -1.74224 -0.241802 0.117987 0.231109 0.112158 -0.127048 0.19213 -0.916711 -0.587525 0.322741 -0.21361 0.102679 0.195843 -0.226873 0.0410988 -0.378836 -0.0623567 0.0069277 -0.0449632 0.0507604 0.15708 0.329067 -0.113705 0.139307 0.288648
35064 0.308667 0.239501 0.883634 -0.651407 -0.877326 1.72673 5.76242 -1.7378 -0.238662 -0.0544481 0.0692677 -0.0584158 -0.214767 0.109249 -0.870752 -0.814699 0.490323 -0.336913 0.152777 0.310082 0.0506009 0.194271 -0.345522 -0.178191 -0.11898 -0.078788 -0.0692283 0.149469 0.35504 0.0097199 0.107806 0.494198
31918 0.215626 0.162196 0.87353 -0.442309 -0.651998 1.94311 5.73423 -1.80682 -0.310791 -0.232583 0.204962 0.00852897 -0.0105689 0.186891 -0.920412 -0.496102 0.507091 -0.3186 -0.148395 0.134349 0.103113 0.279627 -0.227203 0.0113435 -0.410093 0.00699273 0.0593618 -0.185042 0.167252 -0.110145 -0.00916715 0.245344
31050 -0.0610129 0.490078 0.833488 -0.176412 -0.536993 1.9689 5.50887 -1.53914 0.0711131 -0.148094 0.349207 -0.0675765 -0.192924 0.288114 -0.836107 -0.851803 0.313285 0.155721 -0.13163 0.35239 -0.0525612 0.404446 -0.50964 0.0390189 -0.209533 0.169531 -0.134374 0.0153446 0.467415 -0.0452754 0.111207 0.167564
36581 0.159726 0.409786 0.649584 -0.303035 -0.856123 2.01781 5.57608 -1.73791 -0.399123 -0.0282165 0.17841 0.196662 -0.36107 0.170101 -0.866782 -0.983422 0.329666 -0.182697 -0.159892 -0.0841794 -0.0502357 -0.0245545 -0.343936 -0.0610122 -0.412715 0.229044 -0.0446421 0.0779389 0.365817 0.0947572 0.120936 0.633841
34894 0.432214 0.261314 0.939731 -0.422 -0.723223 1.91479 5.60046 -1.53452 -0.222207 0.313583 0.0544866 0.134116 -0.099837 0.384056 -1.07082 -0.673725 0.517049 -0.110484 0.171758 -0.000310334 -0.147611 0.137814 -0.495384 -0.0391761 -0.307146 0.209822 0.0744031 -0.00743931 0.279916 -0.044724 -0.143674 0.451589
31339 0.203043 0.354914 0.693858 -0.566406 -0.945623 1.81479 5.90575 -1.781 -0.28304 -0.0552834 0.205324 0.0459077 -0.220128 0.409844 -0.846762 -0.684849 0.423201 0.000938634 0.0698497 -0.0122564 -0.187205 0.153781 -0.410832 0.0761227 -0.0138353 0.0167051 0.0214666 -0.11238 0.256273 0.206533 0.25947 0.308248
35823 0.192501 0.375708 0.703423 -0.790508 -0.735301 1.84307 5.98947 -1.94138 0.0260822 -0.178981 0.07118 0.180082 -0.471813 0.103395 -0.874011 -0.661078 0.356037 -0.0467074 -0.0406765 0.101225 -0.134843 0.112093 -0.136409 -0.153531 -0.422022 0.163477 0.137656 -0.014168 0.369046 0.189444 0.30646 0.0817269
33445 0.298703 0.202982 0.867041 -0.429336 -0.565851 1.91692 5.67065 -1.68651 -0.536954 0.0279501 0.0147332 0.0671827 -0.0738903 0.224616 -0.996521 -0.541308 0.555308 -0.0432049 -0.0861058 -0.0168324 0.00363525 0.2449 -0.19597 0.180904 -0.318701 0.214602 0.260591 -0.0465611 0.208674 0.0657145 0.147294 0.318932
31315 0.227178 0.206194 0.682348 -0.442138 -0.918205 1.78691 5.96443 -1.8622 -0.266997 -0.0949764 0.100576 0.178563 -0.235739 0.275373 -0.745334 -0.734954 0.423939 0.0330285 0.0946606 0.169067 -0.0570321 0.227252 -0.288165 0.0275377 -0.0108624 0.0101797 0.0571729 0.122173 0.23353 -0.0212777 0.1166 0.387279
36281 0.347204 0.348824 0.901488 -0.590929 -0.937446 2.19272 4.72954 -1.62096 -0.611947 0.239815 0.308848 0.486643 -0.207883 0.248298 -1.10562 -0.908573 0.784185 -0.350477 0.0250641 0.144473 -0.080441 0.582039 -0.549835 -0.00231281 -0.227125 0.105129 0.0487376 -0.0373659 0.553574 0.159121 0.138469 0.540924
35568 0.253139 0.100227 0.460012 -0.568968 -0.741459 1.87222 5.6972 -1.90764 -0.445044 -0.247984 0.193434 0.124116 -0.293804 0.266404 -0.724273 -0.690978 0.347317 -0.195951 4.01827e-05 -0.0760315 -0.0367152 0.134005 -0.180545 -0.265755 -0.141431 -0.17963 -0.124651 0.0972732 0.262955 -0.0369727 0.236963 0.399727
36263 0.273867 0.0147332 0.607794 -0.26547 -0.793772 2.13238 5.25153 -1.60893 -0.401164 -0.238336 0.0127553 0.147008 -0.16076 0.39672 -1.02896 -0.498959 0.692555 -0.175192 -0.0784944 0.262166 0.261318 0.152258 -0.42131 -0.207217 -0.27491 0.0220427 0.0686879 0.016682 0.398954 -0.0618621 0.226177 0.390205
32674 0.344769 0.407681 0.947853 -0.366503 -1.04903 1.81647 5.53951 -1.66119 -0.555553 -0.152816 0.20617 0.351152 0.0265654 0.110272 -0.980911 -0.852505 0.329362 0.145973 -0.353226 0.0426985 0.0514002 0.332929 -0.303781 -0.0799698 -0.477827 -0.0477805 0.208008 0.190658 0.159143 0.153976 -0.0874151 0.457085
34922 0.435343 0.430456 0.710665 -0.683339 -0.678407 2.00552 5.59923 -1.72272 -0.297803 0.0428004 0.126181 0.361173 -0.0424154 0.349154 -0.825121 -1.0243 0.112486 -0.374772 -0.00557495 0.2253 0.195882 0.101356 -0.380966 0.0165952 -0.195244 0.183946 0.0232139 -0.098701 0.381559 -0.148418 0.0160988 0.237913
34939 0.396303 0.438275 1.07019 -0.307999 -0.812164 2.24757 5.11753 -1.4733 -0.312939 -0.111741 0.28057 0.243694 -0.189267 0.192791 -1.25904 -0.919887 0.541041 -0.271813 0.166855 -0.159911 -0.144409 0.130661 -0.414073 0.0786474 -0.206738 0.431525 0.350701 0.26997 0.42529 0.0894077 0.311357 0.653232
36667 0.259242 0.258316 0.857764 -0.387229 -0.729858 1.885 5.44976 -1.29107 -0.564022 0.0275698 0.0346283 0.160136 -0.0240899 0.435038 -0.962951 -0.596869 0.693075 -0.171442 -0.145574 -0.089431 -0.352257 -0.152358 -0.302257 -0.0760091 -0.373878 0.164239 -0.326209 0.150896 0.129164 -0.284916 -0.0589798 0.569736
32269 0.403833 -0.016872 1.03315 -0.693468 -0.475678 1.77693 5.44409 -1.69921 -0.295408 -0.26073 0.387699 0.24124 -0.356328 0.159607 -0.966396 -0.631606 0.310148 -0.0699379 -0.139467 0.210178 -0.0281264 0.0168708 -0.286635 -0.0247977 -0.110504 0.194069 -0.153829 0.0116532 0.482759 -0.0592844 -0.0626191 0.505265
31569 0.475991 0.161231 0.925227 -0.41831 -0.504404 2.03812 5.73302 -1.37113 -0.536207 -0.0527996 -0.0504823 0.0882103 -0.27055 0.184577 -0.976367 -0.646023 0.532875 -0.258398 -0.0667582 0.0692395 -0.314298 0.133509 -0.329448 0.21942 -0.292269 0.259163 0.128865 0.0117766 0.396345 -0.0916289 0.232524 0.251935
35540 0.155986 0.194411 0.704104 -0.58137 -0.707005 2.04251 5.83514 -1.69783 -0.433239 -0.195124 0.301186 0.181942 0.0163074 0.320691 -1.03295 -0.699501 0.271558 0.010111 0.000407981 -0.169022 0.120189 0.163858 -0.310783 -0.0832701 -0.263115 -0.0743894 -0.0171137 0.104995 0.34984 -0.0415171 0.0335083 0.440809
36907 0.239679 0.229478 0.775416 -0.478039 -0.885532 1.79146 6.00629 -1.7811 -0.259629 -0.0160571 0.102544 0.0483755 -0.16692 0.274421 -0.811082 -0.756759 0.446158 -0.103867 0.0777789 0.0658021 0.013522 0.12209 -0.35137 -0.153577 -0.153192 0.075082 -0.0927439 0.0259733 0.192972 -0.041835 0.0668471 0.420568
36237 0.265074 0.248529 0.736281 -0.480013 -0.906633 1.89443 5.47935 -1.41884 -0.17116 0.0747702 0.235825 0.154937 -0.371636 0.130737 -1.11653 -0.569912 0.373476 -0.0442028 -0.0200925 0.024182 -0.0411488 0.20168 -0.403439 0.160237 -0.227879 -0.108184 0.0310243 0.045694 0.376018 -0.124324 0.210682 0.496035
31901 0.15635 0.462199 0.70926 -0.498834 -0.826214 2.03438 5.84843 -1.30415 -0.20573 -0.00216392 0.240946 0.321785 -0.324854 -0.0230753 -0.995282 -0.766492 0.479138 -0.119316 -0.0314311 -0.121661 -0.102685 0.214084 -0.306927 -0.0481358 -0.328327 -0.0427082 0.0547942 -0.0646852 0.340202 -0.156559 0.188769 0.483371
33516 0.578972 0.403797 0.840768 -0.734221 -0.976641 2.28426 4.74218 -1.34088 -0.372984 -0.216369 0.287875 0.352333 -0.361129 0.310148 -1.25807 -1.04648 0.481804 -0.0950835 -0.0789764 -0.0889824 -0.216769 0.332162 -0.77869 0.0348159 -0.143935 -0.00645216 -0.0648079 0.0102027 0.447882 0.0870665 0.246312 0.526193
33816 0.302934 0.304504 0.718776 -0.516853 -0.763891 1.95033 5.90484 -1.70805 -0.271708 0.0381215 0.34603 0.176736 -0.195136 0.277127 -1.01391 -0.717666 0.343533 0.0586535 0.019785 0.0880517 -0.0653944 0.255592 -0.477507 -0.0530646 -0.20924 0.166618 -0.054392 0.0513429 0.225711 0.146195 0.0267091 0.420993
33633 0.143949 0.334293 0.788261 -0.466429 -0.905414 1.78904 5.69608 -1.5829 -0.311775 -0.316412 -0.0819376 0.198306 -0.156123 0.181206 -0.755407 -0.771661 0.576292 -0.123605 -0.260897 0.210079 0.094891 0.19133 -0.361985 -0.0686279 -0.0632025 -0.0155641 -0.120302 0.102777 0.167372 -0.0469558 0.0459853 0.520108
31038 0.202563 0.376627 0.730946 -0.626209 -0.805831 1.78397 5.34968 -1.59964 -0.378131 0.00901606 0.262497 -0.0118743 -0.342447 0.396582 -1.05013 -0.763435 0.461688 -0.0622174 0.0972102 0.0782933 -0.00539807 0.430688 -0.61774 0.0853322 -0.376164 0.00834278 -0.0558866 -0.0613233 0.510879 0.083439 0.254812 0.448505
34140 0.224365 0.363786 0.884382 -0.450023 -0.774246 1.78551 5.60565 -1.77806 -0.0840021 -0.0155524 0.384745 0.224679 -0.124724 0.191163 -0.759011 -0.910317 0.427592 -0.254942 0.0896139 0.0465698 0.131732 0.0646268 -0.512366 0.0825306 -0.000836212 0.0902999 -0.0176499 -0.0906887 0.367731 -0.154603 0.218697 0.333199
33151 0.226739 0.303827 0.859971 -0.372829 -0.810217 2.06202 5.59144 -1.6304 -0.39896 -0.113567 0.244543 -0.0910404 -0.243054 0.236615 -0.988351 -0.843183 0.35873 -0.414807 -0.000506487 0.0657504 0.0361973 0.152333 -0.361418 -0.172517 -0.319551 0.0130595 -0.0883813 -0.0695772 0.333221 0.122098 0.396914 0.456689
32648 0.221519 0.247343 0.789794 -0.513952 -0.772512 1.96779 5.59693 -1.76222 -0.126582 -0.129611 -0.0396972 -0.019814 -0.218459 0.187719 -0.969499 -0.827439 0.358354 -0.173998 0.192826 0.33912 0.175764 0.12233 -0.405801 -0.132693 -0.169201 -0.0658204 -0.0793787 0.162451 0.166002 0.297466 0.153035 0.634997
31107 0.286672 0.246394 0.786573 -0.533738 -0.788461 1.94935 6.07627 -1.74993 -0.260791 -0.104667 0.156555 0.13657 -0.0878082 0.35137 -0.886315 -0.73925 0.466363 -0.218137 0.0357565 0.0528185 0.0137403 0.260439 -0.45038 -0.0602224 -0.24889 0.0716416 -0.0134534 -0.047399 0.189551 -0.0266322 0.168725 0.335376
33200 0.100358 0.358428 0.661626 -0.631837 -0.793255 1.90957 5.87236 -1.87927 -0.260366 -0.12316 0.211475 -0.0583627 0.158963 0.255887 -0.969769 -0.656205 0.447753 -0.299167 0.227621 -0.0864076 -0.0477927 0.0917082 -0.313283 0.0136598 -0.165995 0.121447 0.172576 -0.0804586 0.28215 0.0433323 0.212726 0.404405
33991 -0.147306 0.366725 0.748258 -0.555381 -0.858385 1.88227 5.8839 -1.81561 -0.305467 -0.150886 0.12918 0.00879491 0.0438941 0.230621 -0.877303 -0.612172 0.461072 -0.212475 0.0598552 -0.0576559 -0.0089981 -0.0136603 -0.253413 0.035846 -0.122109 0.155001 0.228074 -0.107149 0.222576 0.00305406 0.0296666 0.339133
31755 0.307573 0.133925 0.967719 -0.316535 -0.875994 1.79744 5.76745 -1.76614 -0.257126 -0.110636 0.169044 0.354038 -0.183305 0.0423228 -0.964402 -0.532277 0.550792 -0.357583 0.05522 0.258899 0.0756727 0.177095 -0.337047 0.147078 0.0223999 -0.0106845 0.155848 -0.0180715 0.154361 0.0573886 0.0827073 0.42835
32624 0.148784 0.197185 0.871952 -0.367647 -0.94099 1.76101 5.72216 -1.71421 -0.386023 0.0318887 0.0341611 0.0140333 0.0678844 0.145845 -1.01263 -0.662767 0.477191 0.0929206 0.246498 -0.0568375 -0.281069 0.204521 -0.427257 -0.0776297 -0.421976 -0.16035 0.0338644 -0.0766879 0.295732 -0.0421801 0.0801711 0.305237
33742 0.409437 0.371875 0.778402 -0.390256 -1.0211 1.753 5.44231 -1.51982 -0.353922 -0.225111 0.120532 0.203534 -0.276897 -0.0253521 -1.20915 -0.495159 0.386858 -0.443766 -0.0289827 -0.0443846 -0.0794038 0.297536 -0.535265 0.138117 -0.186249 -0.156311 0.216529 -0.193947 0.355415 -0.0595584 -0.300359 0.467822
31981 0.308605 0.453759 0.85433 -0.467084 -0.967026 1.78134 5.31902 -1.47949 -0.360395 -0.053599 0.409308 0.335917 -0.246088 0.157725 -1.00904 -0.512332 0.6718 -0.4046 0.132876 0.151666 0.21893 0.134753 -0.516963 -0.0610419 -0.0120239 0.412211 0.0453278 0.111319 0.296317 0.246829 -0.0636544 0.379377
36670 0.474934 0.207179 0.63198 -0.561148 -0.90873 1.95012 5.61844 -1.54603 -0.31197 -0.142487 0.259241 0.249944 -0.365177 0.164456 -0.857759 -0.892652 0.351927 -0.188918 0.123407 -0.0157307 -0.0941026 0.224362 -0.362846 -0.212565 -0.314633 0.137671 -0.140104 0.0517981 0.291243 0.0488439 0.0337046 0.48371
36201 0.350073 0.127892 0.592713 -0.329441 -0.837108 2.13566 5.95918 -1.76236 -0.348378 -0.0361307 0.0765336 0.233825 -0.176547 0.116113 -0.850683 -0.709167 0.403287 -0.167641 0.0131488 0.169821 -0.261773 0.0805623 -0.431191 -0.0313561 -0.0651734 0.23924 0.0846806 -0.0560491 0.312778 -0.0804206 0.128825 0.150307
35090 0.217686 0.147473 1.10188 -0.501516 -0.765376 1.75273 5.65148 -1.6613 -0.0130013 -0.352266 0.113618 0.311748 -0.269279 0.196497 -0.929644 -0.796683 0.42596 -0.176253 0.0245061 -0.354835 0.209633 0.216788 -0.322874 -0.0195181 -0.258705 0.00787585 -0.198663 -0.23556 0.0539354 -0.0394651 0.167451 0.571985
36562 0.277856 0.0389323 0.76707 -0.296234 -1.03083 1.91537 5.79708 -1.81578 -0.320686 -0.173492 0.0228768 0.383371 -0.116293 0.100598 -0.906968 -0.60989 0.346304 -0.160857 -0.0417838 -0.0941583 0.0394926 0.471958 -0.274971 -0.109126 -0.338784 0.165041 0.175633 -0.138194 0.0998824 -0.014424 -0.0611422 0.314536
32862 0.593835 0.182462 0.987933 -0.464076 -1.15567 1.87389 5.06826 -1.37812 -0.212818 -0.1614 0.152039 0.0109948 -0.213884 0.254233 -0.983683 -0.963131 0.785683 0.294575 -0.071508 -0.0215201 -0.0412592 0.357465 -0.543896 0.36615 -0.226671 -0.0741482 0.0348762 0.0142151 0.379083 -0.403204 -0.0223203 0.524385
35728 0.034022 0.349384 0.811559 -0.602117 -1.02574 2.02453 5.42293 -1.49988 -0.215044 -0.103599 0.102346 0.139033 -0.425266 0.304892 -1.193 -0.557073 0.506684 0.00096153 0.12356 0.158651 -0.443813 0.265766 -0.466119 0.0612743 -0.430319 0.202579 0.318209 -0.110537 0.186314 0.0382182 0.216321 0.27298
36026 0.152074 0.252472 0.816592 -0.17151 -1.0724 1.98844 5.76276 -1.74838 -0.270675 -0.0371001 0.191757 0.357553 -0.107493 0.252445 -0.971797 -0.690148 0.332548 -0.142444 0.257809 0.239575 0.01528 0.12814 -0.405577 0.0391296 -0.266851 0.0804956 0.230283 0.131657 0.0579468 -0.148914 0.210822 0.336348
35776 0.366752 0.572173 0.747951 -0.432794 -0.800709 1.96535 5.24009 -1.47173 -0.65869 0.0758971 0.1428 0.126818 -0.13386 0.148094 -0.781837 -1.13937 0.414537 -0.2058 0.285938 0.325112 -0.0393975 0.198278 -0.429041 0.016928 -0.0923321 -0.169312 0.147394 0.134856 0.0771526 -0.323187 0.45908 0.599087
33586 0.444927 0.335028 0.592292 -0.471031 -0.829313 1.96929 5.72318 -1.59673 -0.0250271 -0.125764 0.0108849 0.115476 -0.225978 0.502461 -0.877142 -0.602427 0.616576 -0.193656 0.355331 0.244453 0.0356991 0.234191 -0.4307 -0.112456 -0.216314 -0.031542 0.260934 0.010682 0.148176 -0.114124 0.173632 0.265264
32286 0.45696 0.429613 0.964528 -0.200416 -1.03108 1.82173 5.19297 -1.48652 -0.428515 -0.170693 0.0837273 0.211495 -0.106405 0.245944 -0.965451 -0.934548 0.468258 -0.180052 0.574189 0.476532 0.238505 0.139647 -0.43513 -0.0859627 -0.612737 -0.276406 0.160741 0.345018 0.285768 -0.25866 0.477638 0.398954
36473 0.226195 0.0374623 1.08823 -0.531976 -0.74925 1.75294 5.89748 -1.74075 -0.126124 -0.0418902 0.179761 0.221566 -0.201255 0.202804 -0.933836 -0.709293 0.492856 -0.0376868 0.109591 -0.0218966 0.00677125 0.195585 -0.431976 0.0582012 -0.152128 0.00799786 -0.0363929 -0.138567 0.253799 0.0969655 0.120415 0.452292
33116 0.184296 0.318296 0.802775 -0.43053 -0.839366 1.88178 5.93151 -1.62516 -0.281734 -0.032884 0.208121 0.233561 -0.178949 0.212554 -0.875254 -0.658325 0.508224 -0.0988041 -0.0742061 -0.140393 0.0915413 0.250404 -0.496578 -0.117058 -0.265214 -0.0192981 0.0123274 -0.128607 0.297341 0.140053 0.260872 0.226356
35053 0.244292 0.198169 0.83211 -0.793191 -1.10096 1.94515 5.4398 -1.4042 -0.549907 -0.261531 0.372716 0.371334 -0.355449 0.29891 -0.951825 -0.9368 0.621872 -0.0310023 -0.0016598 -0.0728735 -0.0701444 0.177478 -0.432436 -0.0983768 -0.450564 -0.226733 0.117249 -0.0498615 0.641568 0.0611804 0.094619 0.50683
33785 0.00610066 0.0672216 0.821844 -0.654903 -0.862731 1.77485 5.75284 -1.70146 -0.200282 0.0270955 0.0822448 0.210579 -0.0978915 0.229668 -0.768126 -0.65136 0.573207 -0.056256 -0.00473401 0.267761 -0.00897746 0.252723 -0.478469 -0.0401351 -0.121551 -0.178983 -0.171325 0.225051 0.215682 0.152101 -0.311367 0.406104
35580 0.383414 0.343221 0.913273 -0.595623 -0.980822 1.77332 5.00393 -1.50031 -0.355885 -0.281044 0.362589 0.124089 -0.233379 0.36727 -0.820664 -0.974646 0.828999 -0.21254 -0.0572062 -0.0929996 -0.138115 0.41816 -0.399982 0.305559 -0.232762 0.021947 -0.2622 0.108139 0.383199 -0.0641285 0.0764231 0.644335
36476 0.165322 0.301298 1.01943 -0.649458 -1.00485 1.90472 4.86392 -1.3823 -0.397337 -0.112043 0.0133902 0.286787 -0.489797 0.387643 -1.21026 -0.764232 0.458752 -0.0486492 -0.144301 0.140122 0.252452 0.264565 -0.678232 -0.0630813 -0.503689 0.07774 0.0796385 -0.193247 0.329636 -0.0304611 0.0723954 0.426211
30981 0.182469 0.442627 0.713862 -0.267363 -1.00157 2.00578 5.59494 -1.63997 -0.39157 0.00708311 0.148639 0.13069 -0.096492 0.0806389 -0.788741 -1.18406 0.248857 -0.0851339 -0.0690074 -0.325092 0.0352652 0.200522 -0.367281 0.0987216 -0.243948 0.198855 0.199987 -0.0051742 0.448356 -0.0565303 0.104449 0.359697
109165 0.137456 0.256985 0.727688 -0.575406 -0.531074 1.58715 2.65753 -0.78347 -0.763712 -0.362982 0.243836 0.255526 -0.257198 0.187611 -1.33125 -0.527857 0.213585 0.161412 -0.16129 0.143191 -0.0129334 0.524818 -0.261103 0.182492 -0.466065 0.318721 0.037179 0.0249085 0.266364 -0.141047 0.197364 0.52356
35923 0.186285 0.247617 0.799214 -0.589053 -0.765495 1.99519 6.14668 -1.78464 -0.436883 -0.231074 0.0900951 0.214346 -0.240041 0.272149 -0.886544 -0.72677 0.471119 -0.0255803 -0.0727238 0.0356983 -0.0305828 0.277921 -0.439284 0.0570185 -0.30517 0.141694 -0.0328198 -0.0240173 0.20685 0.0377604 0.149598 0.248693
36449 0.170017 0.198095 0.926642 -0.586483 -0.573161 1.81119 5.65676 -1.6681 -0.392138 -0.0928486 0.167469 -0.130508 -0.161507 0.222325 -0.755728 -0.744926 0.683711 -0.339644 -0.0992517 -0.00116028 -0.0786008 0.180963 -0.465265 -0.0917403 -0.548961 0.29723 0.169309 0.101934 -0.00713678 -0.138018 -0.00701626 0.378989
1258646 0.596561 0.737525 0.850215 -0.959101 -0.999045 1.95793 3.96419 -1.89309 -0.152106 -0.303476 0.184811 0.427291 -0.1878 0.388165 -1.24693 -0.95876 0.75783 -0.25631 -0.0134482 0.253633 -0.0389363 0.0278845 -0.865704 0.354278 -0.664687 0.00968736 -0.261987 0.348321 0.363863 -0.661915 0.315035 0.446242
32942 0.335862 0.581949 0.739559 -0.69819 -0.817404 1.98117 5.72759 -1.98284 -0.0274745 -0.0791808 0.196925 0.0171549 -0.132879 -0.00312348 -1.09177 -0.733346 0.67475 0.127208 -0.0436689 -0.132438 -0.160544 0.146424 -0.465585 0.0285369 -0.59401 -0.121232 0.0157727 -0.00374128 0.0967552 -0.00684745 0.107877 0.28703
31745 0.294547 0.34254 0.845606 -0.484755 -0.848105 2.09473 6.09734 -1.80475 -0.360592 -0.0371807 0.234927 0.303457 -0.150997 0.312948 -1.02057 -0.880243 0.366303 -0.202759 -0.00558526 0.0541323 -0.0590032 0.304689 -0.519878 -0.0475246 -0.271606 0.0945434 -0.0187928 -0.0189731 0.4198 -0.0431757 0.183971 0.371876
33386 0.437012 0.36558 0.854783 -0.466497 -0.765762 1.85183 5.69391 -1.63963 -0.283568 -0.0769791 0.263645 -0.0748069 -0.239727 0.172682 -1.00795 -0.679127 0.388518 -0.387727 0.0892294 0.0308845 -0.0985523 0.194868 -0.570723 0.0435374 -0.169247 -0.119648 0.126688 -0.3317 0.463682 -0.0408334 -0.0528821 0.243732
31345 0.424148 0.238171 1.11347 -0.68726 -0.679444 1.85755 5.75309 -1.83183 -0.180347 -0.151153 0.258567 0.206158 -0.0659921 0.349807 -0.985618 -0.82528 0.37222 -0.126895 0.13181 0.199721 0.134232 0.304424 -0.421399 0.0562644 -0.223087 0.0991757 -0.227585 -0.345274 0.336003 -0.0643337 0.175095 0.341749
33349 0.399175 0.205137 0.802319 -0.641855 -0.928869 1.73482 5.86199 -1.60124 -0.260344 -0.209677 0.0141968 0.0171038 -0.403277 0.315865 -0.880464 -0.824864 0.417349 0.148074 -0.11921 -0.0333155 -0.117327 0.336386 -0.307234 0.129048 -0.18337 0.0444295 0.0024404 0.0975829 0.186474 -0.164372 0.0581509 0.548568
34859 -0.185426 0.656892 0.892061 -0.58652 -0.737274 2.19087 5.25526 -1.12482 -0.297423 0.425112 0.429391 0.465664 -0.219828 0.332998 -1.1803 -0.851152 0.507042 -0.116601 -0.165164 0.271984 -0.076734 0.415607 -0.463901 0.133535 -0.280627 -0.231068 0.187336 -0.215997 0.363992 -0.121071 0.0461594 0.730879
35492 0.170984 0.0118964 0.983717 -0.632648 -0.937908 1.74336 5.6485 -1.62897 -0.186978 -0.245893 0.150637 0.163832 0.0579054 0.25221 -0.922255 -0.665656 0.414011 -0.191729 -0.146311 0.0730284 0.0848009 0.0677093 -0.439591 0.00576584 -0.231154 -0.0166497 -0.240508 0.27461 0.0290272 0.00567511 0.171043 0.372838
36621 0.235911 -0.174314 0.996539 -0.833412 -0.841285 1.77755 5.51833 -1.48924 -0.223175 -0.273268 0.251587 0.197147 0.0393588 0.0287611 -0.923846 -0.779783 0.469824 -0.0822698 -0.120243 -0.0282674 0.0755196 0.0381437 -0.298437 -0.0993888 -0.440494 -0.420231 -0.375917 0.209832 0.17988 0.0301684 0.162932 0.507126
32437 0.2128 0.180104 0.933688 -0.298471 -0.845943 1.87272 5.92102 -1.66621 -0.136932 -0.0150436 0.0777433 0.324065 -0.141144 0.166539 -0.903233 -0.759587 0.372828 -0.0717071 -0.0461164 0.0256628 -0.0414597 0.0834771 -0.490068 0.0330658 -0.237554 0.0055404 0.116373 -0.103542 0.0917029 0.0286576 0.0587073 0.38969
37024 0.175116 0.467622 0.8618 -0.435515 -0.787528 1.85404 5.35112 -1.55266 -0.245594 -0.26441 0.375135 0.224847 -0.277007 0.0144174 -0.893643 -1.06618 0.712711 -0.0272838 -0.0323243 0.267362 -0.00772716 0.343115 -0.387569 -0.174813 -0.416607 -0.00236539 -0.0326236 -0.0236732 0.627456 0.0297475 0.213111 0.707023
36388 0.282383 0.261741 0.700067 -0.717014 -0.887849 1.86124 6.07677 -1.76128 -0.436939 -0.168303 0.0674432 0.124304 -0.223719 0.350286 -0.899193 -0.698732 0.391497 -0.179466 0.0349764 0.058267 -0.13502 0.207992 -0.467376 0.0528574 -0.385234 0.063351 0.0860763 0.0574472 0.221692 0.0383643 0.20955 0.15355
35633 0.163312 0.24976 0.662609 -0.474804 -0.748596 1.96197 5.55537 -1.6009 -0.332342 0.0869651 0.177121 0.677046 -0.338187 0.121821 -1.02437 -0.688569 0.227433 0.122188 -0.0358443 0.0597184 0.0169553 -0.145796 -0.22753 0.0234618 -0.125737 0.169697 0.0424036 -0.00820252 0.345921 -0.473729 0.11777 0.630528
34307 0.164406 0.210588 0.842861 -0.632693 -0.722051 1.91714 5.88366 -1.66317 -0.188562 0.048976 0.271517 0.282752 -0.278146 0.222764 -0.826343 -0.870199 0.39628 -0.209776 -0.0949271 0.031204 -0.0696217 0.203356 -0.519469 -0.117198 -0.168532 0.26488 0.0390971 -0.0979638 0.363199 0.0865174 -0.0414572 0.318007
32361 0.428834 0.31427 1.08757 -0.621306 -0.781197 1.82248 5.36739 -1.64715 -0.217956 -0.293111 0.45751 0.294882 -0.509654 0.150453 -1.06546 -0.819792 0.28285 -0.10048 0.256917 -0.0445976 0.0251089 0.421692 -0.100025 0.297375 -0.196509 0.115618 -0.388982 -0.465087 0.381222 0.0455803 0.337388 0.587241
32199 0.208477 0.133907 0.958497 -0.479569 -0.688378 1.82858 5.89742 -1.84369 -0.154554 -0.0714629 0.202044 0.179476 -0.264397 0.213481 -0.936933 -0.590624 0.406053 -0.265549 -0.0146695 -0.0467022 0.0566218 0.152248 -0.261295 0.0774287 -0.189007 0.0703796 -0.040058 -0.245094 0.15255 -0.0445385 0.259104 0.368561
33897 0.449176 0.261386 0.845811 -0.549306 -0.820222 1.79609 5.76837 -1.71668 -0.415297 0.0198185 0.247396 0.0172157 -0.0388784 0.159223 -1.03369 -0.508187 0.416374 -0.343927 0.141514 0.14552 0.0635744 0.127246 -0.368919 -0.267116 -0.134691 -0.0514858 0.0877253 0.0471401 0.299105 0.0162603 0.0340148 0.195666
35405 0.363293 0.311771 0.934864 -0.73979 -0.578618 1.84037 5.38861 -1.7854 -0.0209731 -0.154461 0.484076 0.0713255 -0.246344 0.271543 -0.908498 -0.816156 0.452255 -0.30785 0.140953 -0.119088 0.00303189 0.308804 -0.33457 0.136933 0.0179063 0.0833428 -0.0262921 -0.08804 0.26982 -0.144727 0.237999 0.509771
35046 0.111662 0.166078 0.686363 -0.614595 -0.858971 1.91134 5.92597 -1.69089 -0.0697886 0.084376 0.0990299 0.0826726 -0.169672 0.340571 -0.789795 -0.671698 0.395289 -0.146856 0.0137171 0.104268 -0.0942564 0.337807 -0.341833 0.00654556 -0.103234 0.14948 -0.00497525 0.137806 0.139352 -0.177042 -0.0168317 0.383369
33184 0.212897 0.322476 0.870244 -0.486703 -1.12845 1.82956 5.03711 -1.13045 -0.638368 0.0222759 0.264604 0.178816 0.0892578 0.439951 -1.13139 -0.657168 0.504828 -0.117928 0.150284 0.220666 -0.158326 0.198905 -0.570382 -0.0827068 -0.529978 -0.113999 -0.219683 -0.183496 0.511898 -0.26862 0.230158 0.249273
31238 0.268314 0.336759 0.781257 -0.521781 -0.825742 2.10336 6.07875 -1.80232 -0.347125 -0.0464748 0.160162 0.255438 -0.222505 0.296677 -0.985389 -0.882623 0.405394 -0.256698 0.027479 0.00752157 -0.0239382 0.161996 -0.479166 0.0402949 -0.296546 0.161887 0.0712496 0.0558082 0.408677 0.0211331 0.248574 0.269386
32044 0.186212 0.425628 0.662994 -0.434656 -0.845492 1.9485 5.91456 -1.81968 -0.230965 -0.153491 0.217476 0.0229921 -0.0782421 0.163212 -1.04314 -0.528789 0.353997 -0.242492 0.0930647 -0.0275439 -0.0848673 0.00593593 -0.429835 -0.0249706 -0.222953 0.0292192 -0.0186273 -0.217954 0.158077 -0.0181402 0.0369137 0.353057
34044 0.45117 0.503689 0.754683 -0.511226 -0.842568 1.73251 5.57167 -1.68514 -0.0407994 -0.185407 0.146304 -0.101775 -0.223903 0.129881 -1.1556 -0.452097 0.527056 -0.410925 0.102524 0.0981091 -0.142376 0.216837 -0.582071 -0.094484 -0.336041 -0.113056 0.26549 -0.0134994 0.255013 -0.126038 -0.0522448 0.431129
33674 0.335358 0.293579 0.755539 -0.796557 -0.987537 2.06102 4.87943 -1.49326 -0.527942 0.0247302 -0.0859753 0.159467 -0.438045 0.228088 -1.16206 -0.821685 0.603831 -0.488337 0.329238 0.241969 0.0676759 0.241791 -0.374685 0.13943 -0.426308 -0.0157281 -0.480623 0.0795737 0.341791 -0.147297 0.0215509 0.756348
33419 0.126065 0.208831 0.817559 -0.482116 -0.834903 1.73341 5.95264 -1.5734 -0.233131 -0.115324 0.104537 0.0995849 -0.372209 0.409367 -0.675799 -0.818784 0.296229 -0.0239134 -0.137946 -0.0894849 -0.0863079 0.0911405 -0.332041 0.0622247 -0.126184 0.266761 -0.0722823 0.0585449 0.117694 -0.00358354 0.218842 0.486172
35487 0.266867 0.231679 0.724796 -0.467383 -0.799959 1.91698 5.92761 -1.64174 -0.266089 -0.0465632 0.00881653 0.0458035 -0.227116 0.417314 -0.926487 -0.595285 0.558351 -0.113677 -0.0985787 0.0658998 0.0496059 0.210573 -0.372668 -0.0709081 -0.0793688 0.00882819 -0.0368554 0.103051 0.324085 -0.0954767 0.217051 0.299841
35854 0.579644 0.241977 0.585114 -0.559229 -1.02149 2.0675 5.29537 -1.68453 -0.226599 -0.0635493 0.275198 -0.113914 -0.23981 0.452818 -1.07668 -0.679639 0.925981 0.217086 0.137661 0.253475 0.102197 0.231615 -0.66077 0.0564046 -0.006036 -0.0816652 0.100525 0.0409998 0.614137 -0.223621 0.299309 0.500765
34496 0.193117 0.00245937 1.29564 -0.554784 -0.64391 1.78313 5.26204 -1.82079 -0.662243 0.0227817 -0.419838 0.0803301 -0.10195 0.225835 -1.02075 -0.857954 0.33967 0.115248 0.257577 -0.0664672 -0.350936 0.442567 -0.639147 0.131237 -0.651176 -0.218553 -0.129686 -0.192453 0.440397 -0.474326 -0.0159095 0.11406
32027 0.0871382 0.12882 0.868443 -0.5472 -0.676975 2.07267 5.80846 -1.57186 -0.32903 -0.496324 0.51472 0.0413658 -0.12345 0.218414 -0.780076 -0.808109 0.544138 -0.155068 -0.0994793 0.242503 0.171199 0.253395 -0.426571 -0.0775376 -0.192462 0.0232939 0.241272 -0.127904 0.260664 -0.0641936 0.0457055 0.247456
36639 0.376117 0.28419 0.759761 -0.558877 -0.869845 1.89123 5.80826 -1.69128 -0.306416 -0.0422371 0.216513 0.0888214 -0.301965 0.324208 -1.10147 -0.707269 0.305045 0.0263809 0.0357107 0.0166678 -0.0325206 0.0481555 -0.376786 0.0226522 -0.256783 0.223151 -0.0249983 0.000584818 0.177599 -0.085953 0.245925 0.539788
33383 0.0627086 0.246715 0.721218 -0.629374 -0.902073 1.78738 5.73014 -1.72265 -0.413731 0.0297997 0.24095 0.144921 0.270649 0.298836 -1.06429 -0.609045 0.455961 -0.01733 0.0721596 0.0518582 -0.186539 0.0472982 -0.260794 0.04193 -0.146097 0.228066 0.118276 0.0429808 0.217513 0.0364373 0.23923 0.608181
32823 0.135379 0.325204 0.856138 -0.487835 -0.784974 1.88947 5.30137 -1.6913 -0.453083 -0.0948937 0.269239 -0.116445 -0.186131 0.0507539 -0.914098 -0.863618 0.499406 -0.294527 0.00616743 0.0694128 -0.0367561 0.1156 -0.378311 0.00561059 -0.419087 0.171031 0.274677 -0.0590392 0.335287 -0.129271 0.202591 0.394373
36632 -0.0440541 0.117397 0.593131 -0.300837 -0.81089 1.94444 5.70539 -1.96803 -0.166907 -0.0534862 0.372356 -0.0436381 -0.245248 -0.218714 -0.968438 -0.566837 0.530772 -0.173715 -0.100074 0.189925 -0.0537105 0.20795 -0.54531 -0.118661 -0.311102 0.372313 -0.0556139 0.00801164 0.197436 -0.00706377 0.234741 0.208471
32275 0.131371 0.383733 0.953237 -0.808997 -1.1015 1.70655 4.12046 -1.36601 -0.563777 -0.128068 0.498124 0.35154 -0.29072 0.333695 -1.14006 -1.00443 1.13839 0.0881491 -0.125454 0.257032 -0.0913869 0.659209 -0.658519 -0.0182626 -0.712475 0.282579 0.0598899 -0.239405 0.58174 -0.187239 0.0580999 0.836428
36017 0.210749 0.572681 0.795608 -0.572706 -0.453116 2.11101 5.23602 -1.39481 -0.403915 -0.107328 0.306598 0.293616 -0.257641 0.602488 -1.14972 -0.776192 0.317514 -0.160424 -0.151929 0.574929 -0.541288 0.499469 -0.400573 -0.333788 -0.540064 -0.0739677 -0.362696 -0.174359 0.568027 0.0952653 0.171336 0.594806
32601 0.028438 0.401329 0.752686 -0.714557 -0.754763 2.07507 5.55618 -1.62725 -0.39891 -0.277311 0.0301649 -0.0356245 -0.164794 0.266037 -0.993202 -0.978306 0.230886 -0.1239 -0.0153752 0.381253 0.0597335 0.380212 -0.490799 -0.0606609 -0.190719 -0.293832 -0.147038 0.330785 0.360786 0.227828 0.0624757 0.793518
34916 0.21926 0.362958 0.745843 -0.386924 -0.954286 1.89145 5.74988 -1.61508 -0.364763 -0.0980991 0.140174 0.111483 -0.278545 0.389845 -0.826678 -0.884158 0.426199 -0.0372004 0.04029 0.164987 -0.0758307 0.179316 -0.257231 0.195089 -0.136544 -0.0292068 0.011482 0.137271 0.320151 -0.015188 0.180026 0.488053
35070 0.179033 0.125954 0.787471 -0.578762 -0.876204 1.8638 5.70319 -1.94268 -0.231355 -0.049215 -0.0942249 -0.0595311 -0.274479 0.159866 -0.880167 -0.685722 0.432538 -0.169041 -0.0281123 0.261518 0.0708506 0.270635 -0.214736 -0.0364078 0.0248044 -0.0381208 0.0513774 0.176756 0.26332 0.0918935 -0.0288594 0.633312
32458 0.336344 0.140981 0.913345 -0.38238 -0.972845 1.75424 5.69754 -1.78742 -0.12818 -0.163969 0.239612 0.175353 -0.109092 0.206302 -0.829969 -0.865383 0.358794 -0.164182 0.0837748 -0.0603353 -0.011491 0.209556 -0.134646 -0.0392688 -0.181719 0.11435 0.0246793 -0.101074 0.212303 -0.171283 0.242014 0.464016
35676 0.193486 0.143438 0.702442 -0.397141 -0.913327 1.8151 5.87671 -1.73444 -0.223374 -0.278443 0.184501 0.315288 -0.14459 0.167974 -0.88563 -0.578054 0.422827 -0.276155 0.021607 0.0799926 -0.194899 0.263762 -0.398978 -0.00148997 -0.171693 -0.0533681 0.116464 -0.03554 0.122738 -0.0779228 0.0305971 0.347386
33431 0.377032 0.388254 0.743126 -0.273409 -0.973482 1.66747 5.829 -1.59137 -0.183765 -0.311327 0.202131 0.133075 -0.256866 0.178449 -0.958489 -0.559219 0.200981 -0.372214 -0.00384691 0.0373313 -0.152693 0.251038 -0.499474 -0.0613511 -0.234435 -0.0450318 0.062504 -0.130156 0.208675 -0.238509 0.00341219 0.315152
33793 0.229271 0.370268 1.03993 -0.459777 -0.722129 1.65149 5.66074 -1.90151 -0.1372 0.237222 -0.0752854 -0.0417225 0.14336 0.311221 -0.890296 -0.651759 0.493695 -0.143219 0.182391 -0.0392111 -0.25941 0.389139 -0.55057 0.0242191 -0.291668 -0.0343692 -0.00547113 -0.312697 0.167669 -0.147897 -0.089868 0.186597
32071 0.193575 0.417831 0.584724 -0.519401 -0.627481 1.9207 5.82656 -1.69958 -0.0219414 -0.0396428 0.184711 -0.126213 -0.0719066 0.281252 -0.88531 -0.632005 0.435628 -0.229947 0.0398509 -0.0376018 -0.296901 0.060618 -0.635457 -0.13013 -0.319852 -0.100976 0.0152515 -0.088608 -0.0610827 -0.168891 0.120445 0.325158
31166 0.231594 0.347836 0.763909 -0.456038 -0.793498 1.94193 5.76207 -1.71316 -0.410272 -0.0300405 0.386455 0.310331 -0.330746 0.38221 -0.909315 -0.790812 0.242529 0.140682 0.187085 0.0155812 -0.241323 0.202448 -0.470547 -0.16998 -0.235119 0.18619 -0.0792561 0.0090689 0.272332 0.0417621 0.150383 0.311501
36888 0.327835 -0.108942 1.01954 -0.596264 -0.840885 1.8211 5.57044 -1.60923 -0.355836 0.141551 0.488373 0.0778022 -0.100404 0.0517392 -0.91878 -0.801419 0.36529 -0.0942673 0.00667907 0.0435655 -0.0961551 0.0488022 -0.445341 -0.152128 -0.160465 -0.0595848 -0.10019 0.215645 0.302124 0.0629025 0.237274 0.401146
35451 0.274065 0.244604 0.68405 -0.436108 -0.909105 1.89493 5.96784 -1.75056 -0.182298 -0.0358958 0.0536337 0.148752 -0.265412 0.179098 -0.884267 -0.665671 0.510625 -0.0115855 0.0764604 0.10793 -0.000375562 0.161951 -0.424327 0.00404195 -0.0881132 0.0235601 -0.0262701 0.0509859 0.195498 0.0813516 0.237153 0.329142
31017 0.365309 0.312089 0.757724 -0.418217 -0.817032 1.84891 5.99194 -1.67758 -0.523165 0.0620389 0.0731226 0.0510734 -0.109002 0.195467 -0.915872 -0.610895 0.600347 -0.217015 -0.122714 -0.0253984 -0.0379217 0.44782 -0.434805 0.0376827 -0.181827 0.366482 0.00459112 -0.0724986 0.175601 -0.133352 0.285917 0.31934
36545 0.374229 0.32441 0.871091 -0.658983 -0.954575 1.9025 4.99058 -1.52653 -0.45248 -0.0300774 0.549649 0.0409019 -0.303209 0.436541 -1.06387 -1.09401 0.416168 0.0214742 -0.26814 -0.152931 0.0764286 0.690786 -0.6777 -0.294027 -0.460329 0.230119 0.222003 -0.268939 0.300954 0.0853494 0.469891 0.668586
31191 0.358239 0.251872 0.750501 -0.657647 -0.894483 1.77381 5.60233 -1.84432 -0.213845 -0.241221 0.267783 0.23111 -0.386809 0.25549 -1.01292 -0.69591 0.388463 0.0267808 0.0194092 -0.0976613 -0.0277615 0.165764 -0.36375 0.0662771 -0.437398 0.260812 0.0272891 0.0399043 0.353603 0.0224847 0.108238 0.293332
33172 0.310399 0.403838 0.892939 -0.592727 -0.936215 1.95784 5.48202 -1.78037 -0.171217 -0.0928621 0.00908986 0.316409 0.0191827 0.186293 -1.17415 -0.695586 0.525955 0.0595555 -0.0779321 0.221305 -0.342678 0.287215 -0.325503 -0.0209697 -0.643647 0.0542448 -0.00425198 -0.0587279 0.180368 -0.034993 0.0611771 0.368131
33825 0.0787099 0.53584 0.713637 -0.481684 -0.678233 1.87818 5.75952 -1.64605 -0.284225 -0.0805529 0.0614001 0.0171444 -0.191502 0.0400301 -0.90654 -0.725717 0.437507 -0.20382 -0.228502 -0.060991 0.0650982 0.223593 -0.444199 0.0428871 -0.249818 -0.0475048 0.331072 -0.253481 0.110705 -0.17501 0.0361488 0.474442
31290 0.129629 0.249907 0.810122 0.237391 -0.931711 2.04099 5.43971 -1.62596 -0.324164 -0.00865117 0.188314 0.269677 -0.112018 -0.0186398 -1.09574 -0.744123 0.267973 0.0404321 0.413105 0.469524 0.305383 0.286265 -0.431735 0.0671095 -0.588179 0.112144 0.200226 -0.0431553 -0.10981 -0.165173 0.270167 0.488617
33776 0.308523 0.299592 0.917272 -0.277924 -0.959 1.89589 5.72135 -1.75326 -0.216734 -0.138294 0.179046 0.182376 -0.175545 0.274578 -0.825798 -0.799133 0.575399 -0.231891 0.331377 0.0173794 -0.0970748 0.137519 -0.34148 -0.154076 -0.253571 0.0999757 -0.00730078 0.0975956 0.13908 -0.0678785 0.275295 0.448805
31065 0.0212095 0.203568 0.932333 -0.457957 -0.780889 1.92952 5.67049 -1.5301 -0.0974238 -0.189371 0.243464 -0.0510459 -0.285833 0.506743 -0.964771 -0.710415 0.326307 -0.193048 0.0249835 0.10702 -0.27145 0.0930889 -0.192445 -0.0264541 -0.307578 0.113492 0.160706 -0.0276547 0.313715 -0.0863526 0.257298 0.408674
34489 0.23835 0.118649 0.690389 -0.650194 -0.831973 1.95113 5.78407 -1.79426 -0.507362 -0.131644 -0.0420791 0.213399 -0.516162 0.391643 -0.853491 -0.59648 0.594953 -0.325173 0.107065 0.108712 -0.0969042 0.109409 -0.370206 0.218356 -0.550597 -0.064709 0.164971 0.0809801 0.327704 0.153605 0.202248 0.0863939
31520 0.806999 0.23119 0.802884 -0.799303 -0.95019 2.05843 4.9664 -1.37003 -0.745022 -0.0163495 0.108331 0.489306 -0.251168 0.341105 -1.03917 -1.04508 0.437833 -0.61013 -0.0955309 0.311997 -0.424566 0.199177 -0.528866 -0.205489 -0.318607 0.145415 -0.198891 -0.303625 0.742619 0.100073 0.278292 0.398031
33403 0.308869 0.311552 0.733133 -0.446381 -0.636571 1.85283 5.73122 -1.6925 -0.59689 -0.117081 0.105371 -0.042904 -0.187504 0.0234134 -0.993895 -0.657004 0.313777 -0.0541813 -0.0615631 0.192239 -0.166951 0.41778 -0.20823 0.317518 -0.324718 0.421569 0.203221 0.113804 0.124139 0.0654246 0.10135 0.516909
32809 0.321593 0.148588 0.804735 -0.70364 -1.03765 1.83684 5.73641 -1.58669 -0.327643 -0.0950437 0.105529 0.244046 -0.573189 0.284189 -0.860548 -0.774593 0.58243 -0.203579 0.00704454 -0.10364 -0.093545 0.188582 -0.395522 0.119695 -0.52208 0.0610707 0.0610423 -0.0110489 0.251433 0.160274 0.205009 0.19436
32879 0.140229 0.320241 0.728452 -0.594531 -1.17868 1.95606 5.61981 -1.69073 -0.174749 0.138926 0.0817526 0.119506 -0.337313 0.281283 -1.02313 -0.633193 0.45147 -0.151837 0.0151854 -0.0343742 -0.0321685 0.217218 -0.524172 0.0700916 -0.286797 0.0718531 0.0988456 -0.101757 0.0648195 0.207985 0.139917 0.244275
33892 0.251816 0.163206 0.794309 -0.698112 -0.934699 1.91918 5.57731 -1.75089 -0.231931 -0.302567 0.140195 0.246231 -0.305777 0.271904 -0.922828 -0.562536 0.240472 -0.434054 0.0056363 0.0525562 0.000324617 0.179849 -0.585099 -0.169149 -0.144754 -0.0303973 0.186046 0.116949 0.0964233 -0.236343 0.0132774 0.189458
33864 0.403501 0.423236 0.808633 -0.521946 -0.938907 2.21273 4.35617 -1.6499 -0.791171 -0.122783 0.440037 0.211234 0.0892939 0.209694 -1.45822 -0.658274 0.627913 -0.555252 0.248139 0.071906 0.451195 0.30211 -0.419825 -0.00550652 -0.242794 0.192206 -0.146653 0.0642143 0.431718 -0.00402007 0.299403 0.823037
37085 0.197644 0.451231 0.758981 -0.640871 -0.927294 1.90664 5.73007 -1.60838 -0.361407 -0.11587 0.0710798 0.104426 -0.44475 0.403287 -0.868572 -0.83987 0.309557 -0.337366 0.164446 0.0196906 -0.000969135 0.420393 -0.213781 -0.0195417 -0.24287 -0.00417313 -0.115633 0.0283885 0.177457 -0.0945504 0.20489 0.487805
34440 0.152135 0.25302 0.909798 -0.481515 -0.793627 1.85458 5.66325 -1.72754 -0.207105 0.081476 0.239286 0.307929 -0.0613267 0.205566 -1.16562 -0.594356 0.323284 -0.112053 0.0505835 0.0575795 -0.0737141 0.101267 -0.348422 0.177248 -0.206085 0.180634 -0.11313 -0.0431778 0.242077 -0.0514877 0.187741 0.585246
32191 0.338299 0.301831 0.682094 -0.483399 -0.970219 1.78682 5.90827 -1.74681 -0.304542 -0.139245 0.00881571 0.11419 -0.21595 0.184882 -0.749548 -0.808051 0.321656 -0.0337684 0.038091 0.327669 -0.0403065 0.358209 -0.172139 0.0373394 0.0641789 0.0549085 0.0511747 0.178617 0.237952 -0.091018 0.205581 0.51712
36729 0.249689 0.18564 0.558667 -0.443673 -0.896858 2.06355 5.8712 -1.62035 -0.121483 -0.274285 0.0789957 -0.135616 -0.237009 0.246068 -0.716 -0.846123 0.560047 -0.0161489 -0.229404 0.00910359 0.10383 0.217022 -0.223101 -0.040156 -0.0532432 0.0583852 0.0558741 0.0548448 0.228759 -0.211887 0.266764 0.3334
35112 0.477987 0.325232 0.551108 -0.407503 -0.746852 2.08936 5.36066 -1.63783 -0.35589 -0.0371793 0.247985 -0.0306712 0.112147 0.451575 -0.791333 -0.790292 0.861065 0.0575592 -0.0591084 0.0658699 -0.090212 0.407724 -0.334286 0.277444 0.148169 -0.038869 0.326998 0.0632977 0.622091 0.00627632 0.188942 0.491407
33917 0.30289 0.442187 0.741979 -0.672703 -1.05527 1.9671 5.31835 -1.57332 -0.354439 -0.0831822 0.423175 0.267824 -0.101247 0.381176 -1.07605 -0.892609 0.637228 -0.174053 0.130792 0.0235478 -0.129101 0.277748 -0.338461 0.0535732 -0.353728 0.169257 -0.053266 -0.149223 0.466499 0.0487081 -0.0830381 0.670925
35579 0.16008 0.122653 0.886734 -0.515722 -1.12788 1.69029 5.256 -1.49056 -0.28547 -0.140718 0.30198 0.0207489 -0.183741 -0.0154519 -0.794872 -0.999077 0.795312 -0.112147 -0.0907852 -0.193914 -0.248363 0.255493 -0.291476 -0.00902696 -0.349267 0.0681157 0.0157713 -0.012811 0.260766 -0.326148 0.346253 0.552459
31033 0.33763 0.363554 0.845336 -0.521113 -0.928216 1.89259 5.95741 -1.5168 -0.441671 0.0170244 0.171233 0.0853407 -0.262755 0.289184 -0.962444 -0.630625 0.596537 -0.262328 -0.140858 -0.0229636 -0.0414378 0.154389 -0.508759 -0.184113 -0.223036 0.0644783 0.0354598 0.214222 0.242384 0.0168031 0.0874662 0.343778
31556 0.086904 0.17682 0.903973 -0.628992 -0.796313 1.88256 5.59244 -1.61169 -0.111717 -0.0203734 0.233591 0.0534696 -0.166612 0.209046 -0.802805 -0.847206 0.465449 -0.142782 0.15124 0.0836279 -0.044965 0.161487 -0.612065 -0.045797 -0.125562 0.199655 0.127109 -0.175536 0.29244 0.143964 -0.0536829 0.183775
32449 0.11684 0.160878 0.588656 -0.480044 -0.771443 2.09151 6.02974 -1.72661 -0.270485 -0.167518 0.261618 0.150979 -0.212244 0.2283 -0.851306 -0.638853 0.462043 -0.125806 -0.126581 0.0307319 -0.0860317 0.323711 -0.359038 0.0164263 -0.174515 0.0544848 0.057621 -0.00300549 0.083662 0.0664075 0.100011 0.307727
35186 0.164474 0.220693 0.705699 -0.521292 -0.864414 1.92212 5.6026 -1.69573 -0.349608 0.0430392 0.0270543 0.0291252 -0.123776 0.327924 -0.875082 -0.65516 0.555266 -0.115373 0.0838224 0.00948453 -0.28363 0.304927 -0.278433 -0.0498828 0.130288 0.268403 0.206278 0.129674 0.18586 0.000916208 0.0967772 0.529289
32259 0.614992 0.344715 0.938219 -0.618009 -1.09298 2.07039 4.90566 -1.21175 -0.403206 -0.00938081 0.286816 0.108135 -0.156228 0.172272 -1.22804 -1.01164 0.609958 -0.0945116 -0.0499952 -0.238622 0.0506384 0.255592 -0.56102 -0.0768285 -0.491716 0.0753497 -0.117048 0.185943 0.522424 -0.0479767 0.0640456 0.601357
35953 0.240817 0.373176 0.909728 -0.599901 -0.643298 1.93444 5.38341 -1.86926 -0.205774 0.0185005 0.0919745 0.144645 -0.260157 0.397939 -0.951057 -0.586021 0.709801 -0.357638 -0.250976 0.116041 0.0434734 0.404415 -0.117286 -0.154956 -0.426612 0.122897 -0.0404019 0.278637 0.133467 -0.059749 -0.0115573 0.551783
33928 0.330009 0.371087 0.808779 -0.490371 -0.94476 1.75559 5.36022 -1.60464 -0.335611 -0.282654 0.377707 0.130715 -0.55893 0.233796 -0.95524 -0.540642 0.330855 -0.211551 -0.019271 0.0885943 -0.167538 0.313944 -0.337835 -0.210598 -0.25212 0.170171 0.120428 -0.00125104 0.338406 -0.214646 -0.158455 0.338794
33735 0.0333938 0.0573636 0.877676 -0.829112 -1.03286 1.84343 5.35088 -1.81247 -0.324902 0.132623 0.0188133 -0.0638275 -0.280338 0.533206 -0.989549 -0.873789 0.221844 -0.0810941 0.112484 0.162427 -0.296191 0.656259 -0.215151 -0.0585257 -0.136381 0.224461 -0.0163048 -0.0703285 0.280692 -0.206732 0.0308905 0.661772
34520 0.232528 0.127958 0.771024 -0.69618 -0.723012 1.94535 5.91512 -1.64684 -0.227466 0.219902 0.28782 0.178766 -0.194046 0.155237 -0.923255 -0.721155 0.410764 -0.221247 0.124434 0.119096 -0.0421873 0.302823 -0.444115 -0.13575 -0.178794 0.311987 -0.0659207 -0.00610673 0.147869 0.0986018 0.0900379 0.313869
32266 0.272809 0.0268933 0.791956 -0.5154 -0.790705 1.89976 5.70976 -1.83105 -0.231388 -0.164271 0.377386 -0.041529 -0.0947424 0.0136203 -0.906388 -0.620942 0.555638 -0.135833 0.00768648 -0.062541 -0.0540745 0.237779 -0.35593 -0.0745183 -0.267859 -0.0612912 0.162291 -0.111464 0.0347815 -0.11406 -0.062779 0.392673
36273 0.245048 0.426808 0.794623 -0.501067 -0.964507 1.83377 5.75284 -1.6718 -0.336487 0.0616867 0.456084 0.105063 -0.233653 0.24588 -0.706953 -0.922296 0.423254 -0.16958 0.198293 -0.00195156 -0.125055 0.106953 -0.390133 -0.0538428 -0.22462 -0.091607 -0.155046 -0.148605 0.183614 -0.0496252 0.097253 0.317774
32210 0.206211 0.30152 0.915555 -0.393304 -0.930987 1.80495 5.86516 -1.799 -0.266533 0.0942463 0.0848564 0.144715 -0.105495 0.276284 -1.0139 -0.564919 0.459695 -0.0791176 0.0207381 0.00979876 -0.124883 0.247962 -0.480668 0.0631371 -0.320971 -0.126456 0.0527776 0.0462253 0.28901 -0.0488724 0.122989 0.272261
33639 0.167821 0.213996 0.883293 -0.497167 -0.669532 1.93534 5.85952 -1.77504 -0.290313 0.0873125 0.216418 0.227923 -0.130156 0.183249 -1.05591 -0.646063 0.281226 -0.0901749 -0.101168 -0.0622455 -0.0647753 0.170409 -0.39508 0.0480452 -0.118752 -0.107036 0.210215 -0.0269371 0.314033 -0.256976 0.164467 0.527804
34400 0.2684 0.197399 0.767854 -0.405415 -0.797897 1.9649 5.92638 -1.80529 -0.327144 0.067494 0.302126 0.18762 -0.0858185 0.261236 -0.946806 -0.626065 0.41909 -0.123705 0.00905496 -0.0334293 -0.0482913 0.112603 -0.395996 0.0898762 -0.184309 -0.0101974 -0.0545857 0.136744 0.184432 0.0497818 0.249525 0.416484
36123 0.375027 0.289695 0.678432 -0.524714 -0.872519 1.93457 5.83431 -1.73221 -0.121968 0.0714186 0.12742 0.217997 -0.152218 0.279144 -0.908179 -0.683934 0.56394 -0.149871 0.111385 -0.034785 -0.045169 0.304716 -0.40732 0.0898865 -0.277137 0.164808 0.0340854 0.122465 0.18989 -0.0163181 0.161002 0.400947
30973 0.176657 0.353939 0.573704 -0.511969 -0.856949 1.86371 5.80705 -1.53765 -0.225882 -0.0541833 0.195555 0.192834 -0.13786 0.370771 -0.89598 -0.703466 0.287427 -0.268225 -0.0298088 -0.0691382 -0.284538 0.227003 -0.282202 0.176853 -0.18248 0.00392052 -0.290705 0.0826675 0.222507 -0.116426 0.311359 0.41979
35751 -0.00501091 0.391785 0.82841 -0.605305 -0.875882 2.0078 5.60032 -1.57873 -0.37632 0.347431 0.289244 0.384084 -0.142924 0.246749 -1.01485 -0.768097 0.468565 -0.0859591 -0.0478993 -0.00920672 -0.0123463 0.438047 -0.305233 -0.00652797 -0.176267 -0.0746409 0.269474 -0.117018 0.596183 -0.250399 0.276185 0.400767
34192 0.0418588 0.397052 0.725676 -0.508734 -0.906257 1.97266 5.18636 -1.43519 -0.196115 -0.0623775 0.571847 0.110071 -0.168124 -0.00684705 -1.11484 -0.653593 0.668599 -0.507264 0.110482 0.241 0.100658 0.354395 -0.333143 -0.103719 -0.367758 0.0273605 0.186161 0.00543682 0.666637 -0.21642 0.253713 0.451551
32041 0.0534028 0.33246 0.760305 -0.465403 -0.867027 1.90337 5.96032 -1.69492 -0.302055 0.0332126 0.223669 0.250474 -0.137851 0.156517 -0.923716 -0.730819 0.371803 -0.140146 -0.0143183 0.106716 -0.0282836 0.232598 -0.458771 -0.00078894 -0.16561 -0.0402779 0.154007 0.0726317 0.397341 -0.0817753 0.149657 0.308275
1258591 -0.0423818 0.297244 0.847489 -0.503061 -0.886561 1.95311 5.84454 -1.59684 -0.212771 -0.0198917 0.150742 0.412472 -0.292337 0.156274 -0.827424 -0.862135 0.513421 -0.00541747 -0.0512467 -0.110651 -0.098822 0.0844596 -0.298823 -0.133909 -0.293871 0.165914 0.00478577 0.122367 0.235102 -0.0302571 0.293197 0.439486
33706 -0.0341674 0.431657 0.687224 -0.106628 -0.820498 1.97251 5.51358 -1.60275 -0.167438 -0.128599 0.111033 -0.0154566 0.1323 0.709078 -1.21724 -0.511719 0.285151 -0.395369 0.271364 0.0198584 -0.463816 0.114635 -0.511351 0.0315109 -0.237736 -0.00276268 -0.0620444 0.14166 0.427216 0.140971 0.336811 0.520131
34214 0.345316 0.533668 0.674281 -0.254308 -1.01382 1.72731 5.57762 -1.45931 -0.188879 -0.0882767 0.0039979 -0.196438 -0.235703 0.4168 -1.11434 -0.510107 0.209028 -0.541017 0.143158 0.0174788 -0.199825 0.25882 -0.422883 0.0188568 -0.369222 -0.0569093 -0.0498524 0.0221477 0.422926 -0.233289 0.185754 0.280459
32219 0.252439 0.431824 0.811577 -0.628449 -0.859535 1.84107 5.82916 -1.81984 -0.298349 -0.060421 0.344278 0.0940839 -0.121323 0.104527 -1.00389 -0.68192 0.437758 -0.201232 -0.0635564 -0.00750677 0.0948824 0.327159 -0.395127 -0.085235 -0.22031 0.126152 -0.06886 -0.173429 0.196443 -0.139235 0.0654018 0.354957
33678 0.0940227 0.35522 0.844611 -0.279827 -1.00364 1.75633 5.20837 -1.62458 -0.494288 -0.0999767 0.170953 0.20606 -0.321019 0.304419 -0.992341 -0.780401 0.580515 -0.134223 -0.0164965 0.0465937 -0.0992421 0.519684 -0.451586 -0.0225729 -0.367847 0.119983 0.0147263 -0.102234 0.558125 0.077038 0.247541 0.523094
33210 0.55696 0.489307 1.01014 -0.70245 -0.877791 1.70175 5.15338 -1.26128 -0.710332 -0.269549 0.0429192 0.207612 -0.182282 0.478566 -1.31402 -0.711211 0.696907 -0.0933849 0.0820283 0.315117 -0.173861 0.125564 -1.02558 0.077013 -0.449473 0.196748 0.057671 0.0307393 0.44629 -0.0918286 0.347706 0.590394
33801 0.433685 0.259577 0.614883 -0.56968 -0.877252 2.02431 5.34457 -1.47414 -0.413119 0.0167017 0.301416 -0.00204746 -0.212599 0.269123 -1.00778 -0.918454 0.360122 -0.111278 0.341068 0.210244 -0.295118 0.138049 -0.77446 0.378079 -0.450918 0.369906 -0.186939 0.0786607 0.228846 -0.299807 0.201047 0.28185
32647 0.117616 0.145311 0.814702 -0.561964 -0.983181 1.94282 5.49408 -1.63545 -0.221586 -0.222205 0.188289 0.207994 -0.386355 0.262492 -0.999683 -0.576387 0.563592 -0.234579 0.109685 -0.0432692 -0.0823563 0.170084 -0.508313 0.150542 -0.320077 0.0772111 -0.0203149 -0.00254063 0.11798 -0.260063 0.149456 0.341294
33817 0.403375 0.229517 0.702774 -0.524142 -0.99308 1.7969 5.7417 -1.79724 -0.149798 -0.0967416 0.0942885 0.140957 -0.460918 0.246048 -1.04961 -0.637925 0.232301 -0.153164 -0.0636575 0.100732 0.0389422 0.270289 -0.409243 -0.0364543 -0.129001 -0.0313403 -0.0280626 0.0912178 0.260902 -0.0178707 0.052954 0.540375
33044 0.0769658 0.302026 0.717348 -0.512554 -0.940467 1.82767 5.90242 -1.88451 -0.112665 -0.107242 0.146793 -0.000455655 -0.174694 0.205193 -0.981573 -0.651134 0.277209 -0.120226 -0.157844 0.137877 -0.0489026 0.356901 -0.337092 -0.213214 -0.20018 0.208709 -0.0972949 0.0652261 0.271569 0.084041 0.14266 0.321542
35205 0.468948 0.295403 0.912211 -0.349368 -0.804524 1.82984 5.61744 -1.80836 -0.124096 -0.111744 0.259629 0.078601 -0.081017 0.230091 -0.820001 -0.97192 0.395069 -0.329141 -0.110133 0.0445131 0.143294 0.0602937 -0.283466 0.20707 -0.133174 0.0566841 0.154658 -0.268871 0.33194 0.0371764 0.0992672 0.497632
33821 0.372124 0.0843007 0.900705 -0.509211 -0.852722 1.92253 5.52772 -1.57377 -0.195616 -0.514823 0.443969 0.253097 -0.056234 -0.0388449 -0.90261 -0.636973 0.813327 -0.189565 0.0449742 0.194976 -0.0353779 0.213541 -0.393956 -0.00922418 -0.293558 0.188928 0.412179 -0.0381979 0.20724 -0.392633 -0.275769 0.34256
31237 0.136879 0.469247 0.69281 -0.444354 -1.0898 1.97401 5.44242 -1.5298 -0.16784 -0.125419 -0.0220046 -0.0183758 0.0189098 0.0825409 -1.05862 -0.7002 0.446842 -0.00498583 0.0733391 0.0777696 -0.061209 0.182333 -0.410397 0.113831 -0.0399796 0.123393 -0.0396657 -0.181105 0.295671 -0.0571424 0.276686 0.294174
32035 0.186326 0.100974 0.675671 -0.552587 -0.982537 1.87693 5.87636 -1.66977 -0.286614 -0.0549356 0.140335 0.202051 -0.019845 0.281805 -1.08436 -0.561552 0.381691 -0.0493877 0.0183863 -0.0148923 -0.227781 0.109368 -0.399746 0.143088 -0.128639 0.0165297 0.107581 -0.140902 0.309586 0.0165389 0.218354 0.443209
34962 0.198151 0.23822 0.587952 -0.688307 -0.802977 1.96618 5.58672 -1.56709 -0.278192 -0.0282602 0.0235061 -0.0331013 -0.0535217 0.160954 -0.981937 -0.718532 0.596757 0.111547 0.0817321 0.0275452 -0.272364 0.326374 -0.478989 0.158488 -0.00994538 0.134449 -0.0566823 -0.270136 0.44314 -0.000456998 0.223361 0.50259
35658 0.306539 0.415263 0.731167 -0.467423 -1.0056 1.91666 5.82251 -1.55741 -0.344436 -0.0849533 0.276351 0.112631 -0.325639 0.194815 -0.900328 -0.663718 0.43429 -0.166741 0.193436 -0.101194 -0.076871 0.172811 -0.314989 0.0997267 -0.253498 -0.0512 -0.226438 -0.110886 0.351268 -0.0644491 -0.026331 0.269443
34032 0.28415 0.250714 0.774132 -0.535921 -0.837348 1.87584 5.78801 -1.65465 -0.275722 -0.161025 0.250459 0.223826 -0.137237 0.260966 -1.0545 -0.590776 0.257894 -0.0400797 0.00793679 -0.0626671 0.282698 0.18833 -0.313955 -0.104151 -0.205309 0.0188391 -0.0607851 0.128889 0.348332 -0.309471 -0.1386 0.293252
32074 0.100082 0.47539 0.982213 -0.621495 -0.749876 2.12336 4.87502 -1.39179 -0.95456 -0.390461 0.625993 -0.0283716 -0.14586 0.494733 -1.4174 -0.822205 0.257956 -0.10459 0.0673153 0.228473 -0.117342 0.3806 -0.630989 0.132909 -0.577713 0.214692 0.123961 0.180365 0.363229 -0.302548 0.490651 0.635254
113164 0.109616 0.241058 0.691987 -0.827497 -0.808993 1.87676 6.10094 -1.61141 -0.627495 -0.275708 -0.0311827 0.0651512 -0.32719 0.310376 -0.880955 -0.65134 0.462094 -0.202425 0.129028 0.16565 -0.035 0.145254 -0.474838 0.164059 -0.336751 0.238418 0.206437 0.00459355 0.160069 0.209803 0.276859 0.139138
32485 -0.382808 0.226321 1.00572 -0.719196 -0.77466 1.84364 5.26712 -1.50413 -0.618616 -0.305445 0.345475 -0.0121556 0.17934 0.188139 -0.946859 -0.855347 0.40886 -0.199782 0.234342 0.0437353 0.0425677 0.1053 -0.247553 0.134187 -0.251253 0.176175 0.715253 -0.110793 0.434275 0.205314 0.104155 0.445513
34596 0.376773 0.24447 0.771822 -0.704027 -0.939909 2.05596 6.07973 -1.74058 -0.383809 -0.178905 0.0362584 0.100446 -0.263372 0.302646 -1.00115 -0.766911 0.590753 -0.0593491 0.0203393 -0.0220989 -0.0777742 0.341494 -0.518769 0.128345 -0.231813 0.191982 0.133456 -0.0669897 0.3319 0.0552478 0.354298 0.257237
32255 0.184441 0.413371 0.881612 -0.335151 -0.779816 2.09383 5.09216 -1.49738 -0.416854 0.0386273 0.170037 0.164462 -0.17237 0.251595 -0.914216 -0.995021 0.621305 -0.135556 0.0223634 0.0256533 -0.166503 0.296779 -0.54506 0.100512 -0.0190469 0.0640468 0.00381004 0.161455 0.550219 -0.0135723 0.259945 0.53637
32365 0.672672 0.38934 0.786501 -0.703511 -0.825007 2.04957 5.17689 -1.50951 -0.0811759 0.0318996 0.304761 0.412207 -0.0795947 0.146796 -1.21776 -0.920713 0.334402 -0.14766 -0.0918796 0.177548 -0.261455 0.203073 -0.297538 -0.277433 -0.471457 0.0694493 -0.221036 0.196708 0.533735 0.204272 0.280076 0.503937
36815 0.283064 0.439022 0.80413 -0.569311 -1.08717 2.01458 5.25957 -1.43868 -0.223426 -0.183861 0.330051 0.121691 -0.6008 0.00750411 -1.03971 -0.724094 0.615531 -0.34514 -0.0595251 0.0126939 -0.0679136 0.327086 -0.41559 -0.0660819 -0.180798 0.0596437 0.101286 0.224128 0.373823 -0.211952 0.288652 0.295458
34599 0.183383 0.399084 0.795488 -0.545487 -0.867872 1.86473 5.77901 -1.82199 -0.32008 -0.0917286 0.174028 0.0875293 -0.206896 0.37015 -0.820194 -0.798694 0.41084 -0.215266 0.00232426 0.0840593 -0.00505592 0.143329 -0.410797 0.0340012 -0.341897 0.0306881 -0.000561321 -0.00396705 -0.0141415 -0.118856 0.235289 0.335442
31348 0.337154 0.471892 0.589073 -0.682412 -0.681026 1.91056 5.61529 -1.95793 -0.0347379 0.0501036 0.137703 0.164795 0.121655 0.210651 -0.900446 -0.646233 0.270593 -0.27829 0.203905 0.257143 0.0669502 0.139434 -0.112727 -0.0730096 -0.366136 0.0546904 -0.0921477 -0.133508 0.308513 0.0151666 0.265253 0.0799539
34007 0.232702 0.61934 0.90567 -0.661499 -1.05466 2.18167 4.15945 -1.1054 -0.486915 -0.119988 0.27679 0.287049 -0.0547343 0.641255 -1.49821 -0.835376 0.601997 -0.587592 0.221276 0.347695 -0.281236 0.309507 -0.694254 0.0155722 -0.535986 0.33839 -0.345925 -0.338522 0.274976 -0.0927425 0.400399 0.805965
33843 0.310999 0.201078 0.704589 -0.468486 -1.01844 2.00534 6.03005 -1.68589 -0.303846 -0.107529 0.312209 0.313409 -0.314732 0.225544 -0.929346 -0.792793 0.350829 -0.085405 0.00605598 -0.0805627 -0.170682 0.316816 -0.408594 -0.0480359 -0.309243 0.0910973 0.0763362 0.0167594 0.396666 0.0353409 0.106135 0.297344
32295 0.4305 0.222884 0.986956 -0.38989 -0.735258 2.00698 5.77148 -1.35618 -0.352324 -0.0719617 0.242153 0.127328 -0.0935324 0.417952 -0.898286 -0.786103 0.540299 -0.0722098 -0.342337 0.199825 -0.386139 0.0958717 -0.541611 -0.178976 -0.229977 0.154837 -0.0769316 -0.108073 0.302644 0.153006 -0.0164486 0.197037
35325 0.227016 0.332258 0.530912 -0.423114 -0.939937 1.96898 5.76439 -1.63329 -0.190127 -0.251087 0.200293 -0.0755631 -0.038374 0.138879 -0.682947 -0.88365 0.5594 0.0318893 -0.0883179 0.0402178 0.0865274 0.562525 -0.345682 0.118366 -0.0893298 0.126223 0.203399 -0.00123627 0.303397 -0.243216 0.320845 0.239282
31772 0.671128 0.255902 0.392578 -0.646425 -0.996925 2.07447 5.60954 -1.55342 -0.32749 -0.0465173 -0.109883 0.222222 -0.316347 0.365452 -0.886514 -0.636898 0.957329 -0.0880823 -0.154117 0.120271 0.0561005 0.20631 -0.421333 0.0331418 0.10833 0.0529833 0.317192 0.197362 0.302267 -0.23937 0.147474 0.508871
32343 0.263181 0.373621 0.82511 -0.489834 -0.92322 1.94679 6.0982 -1.66783 -0.275678 -0.0618149 0.285768 0.219472 -0.280659 0.218947 -0.938514 -0.819059 0.476126 -0.1246 0.0634174 0.0133366 -0.0626096 0.222694 -0.449224 -0.118387 -0.280947 0.0753165 -0.00283099 -0.0668084 0.37245 -0.036327 0.158077 0.339678
35331 0.269723 0.766981 0.590668 -0.625484 -0.502495 2.05238 5.05545 -1.47294 -0.356318 0.186696 -0.0177592 0.595076 -0.190435 0.0891929 -1.30597 -0.830751 0.336983 -0.0262654 0.066848 0.332521 0.25575 0.382124 -0.504423 -0.278627 -0.402029 0.248698 0.290545 -0.255338 0.660023 -0.277566 0.0925132 0.849252
34418 0.284552 0.355211 0.906684 -0.680212 -1.15975 1.87258 5.11431 -1.54862 -0.0912502 -0.164495 0.409735 0.373097 -0.456969 0.54575 -1.03773 -0.976784 0.461994 -0.213264 -0.067957 -0.00212327 -0.0974295 0.509239 -0.550125 -0.169469 -0.31664 0.0913537 0.119477 -0.0986801 0.635487 -0.0243786 0.176309 0.391793
34832 0.115156 0.440543 0.952946 -0.425901 -0.937709 1.9247 5.67008 -1.72167 -0.350434 -0.0736362 0.316127 0.218383 -0.118358 0.212499 -0.997207 -0.749404 0.483708 -0.11103 -0.131546 0.123221 0.0782665 0.402149 -0.426572 -0.205924 -0.243779 0.147486 -0.0604663 -0.194617 0.449105 0.0447387 0.228558 0.341422
33650 0.187403 0.345981 0.55423 -0.494139 -0.845304 1.90601 5.69987 -1.87356 -0.455327 -0.0459714 0.266657 0.268466 -0.326804 0.202853 -1.01095 -0.525645 0.362486 -0.0474855 -0.0470018 -0.125439 -0.0418532 0.170358 -0.528883 -0.146167 -0.147968 0.141668 -0.0596177 -0.0739566 0.406028 0.128314 0.172793 0.324631
34445 0.438154 0.75702 0.721331 -0.523558 -1.17912 1.87335 4.73318 -1.38829 -0.461312 -0.146585 0.156615 0.695925 -0.13352 0.517518 -1.02079 -0.957641 0.863704 -0.133446 -0.377375 0.00202455 0.084284 0.417829 -0.592869 0.309312 -0.328122 0.282392 -0.322883 -0.0115855 0.601231 -0.0133839 0.337925 0.75252
32283 0.255465 0.440976 0.733766 -0.341051 -0.735441 2.01069 5.54943 -1.36774 -0.444326 -0.205567 0.346426 0.180303 -0.402514 -0.0366966 -0.95245 -0.862685 0.621856 -0.319173 -0.032098 0.135092 0.139845 0.0259488 -0.50604 -0.100051 -0.41678 0.163898 -0.127633 0.133488 0.520753 -0.044831 0.404278 0.48357
32583 0.212766 0.27115 0.782711 -0.304144 -1.11941 1.75939 5.06726 -1.70584 -0.583785 0.11588 0.4036 0.310047 -0.295496 0.477529 -0.897337 -0.681818 0.714315 -0.170427 -0.119323 0.115055 0.23561 0.655245 -0.649357 0.138004 -0.495553 0.113212 -0.0181515 -0.312381 0.635728 0.00275795 -0.00106118 0.137031
33925 0.249306 0.357968 0.904334 -0.28796 -0.768599 1.86852 5.82741 -1.91325 -0.237161 -0.116278 0.0336738 -0.0394958 -0.289821 0.279938 -0.784462 -0.905382 0.307737 -0.108251 0.112934 0.246687 0.15554 0.188393 -0.377936 -0.10788 -0.141644 -0.0194592 0.0460445 0.0399906 0.145658 -0.0107538 0.13587 0.486511
34636 0.180164 0.38059 1.04437 -0.249372 -0.860671 1.93452 4.98794 -1.83779 -0.469623 -0.26086 0.021294 -0.0689454 -0.134571 0.254998 -1.13924 -0.824332 0.690556 0.216355 -0.0860261 0.210571 -0.00907172 0.0885864 -0.718199 0.0289695 0.0597321 0.337847 0.178815 -0.244667 0.461093 0.308656 0.161074 0.608923
31030 0.361472 0.372688 0.809473 -0.211547 -0.901814 1.82951 5.44975 -1.64972 -0.489671 -0.0505501 0.115197 0.251037 -0.0578409 0.336887 -1.09392 -0.548533 0.644369 -0.211043 -0.0289647 -0.115645 0.0729176 0.397531 -0.528471 -0.0224863 -0.23441 0.122313 0.0645753 0.031867 0.577235 0.380242 0.142004 0.434088
31509 0.262847 0.169888 0.612356 -0.4103 -0.945729 2.03729 5.84494 -1.70706 -0.280133 0.0270819 0.00984681 0.053354 -0.109444 0.221939 -0.803133 -0.690853 0.564652 -0.0569697 0.0255221 0.170036 0.0763484 0.19762 -0.269247 -0.0101309 -0.0848415 0.0733861 0.0373633 0.17142 0.165374 -0.0597894 0.16877 0.370028
34956 -0.0233636 0.0413132 0.838344 -0.498961 -0.770485 2.15751 5.5573 -1.71273 -0.363541 -0.399694 0.282284 0.279818 0.085089 0.257881 -0.726897 -0.81056 0.632889 -0.095791 -0.162439 -0.124002 -0.0523627 0.772072 -0.301022 0.0414298 -0.390689 0.0101671 -0.228535 0.0832871 0.0841889 -0.176513 -0.0658157 0.356486
34161 0.322801 0.0311482 0.798195 -0.495307 -0.884266 1.75397 5.65708 -1.66649 -0.354315 0.245991 0.297386 0.031526 -0.0821661 0.151531 -0.87401 -0.572661 0.493348 -0.152504 0.102694 0.125161 -0.097451 0.115224 -0.501896 -0.0313194 -0.195757 0.024119 0.00196792 -0.00443178 0.177879 -0.134927 -0.0793032 0.290935
33160 0.179379 0.461454 0.788503 -0.531391 -0.867117 1.838 5.44551 -1.56466 -0.370108 -0.0855419 0.212528 -0.0904415 -0.235248 0.210916 -1.02713 -0.565265 0.55659 -0.19265 0.0446054 0.341794 0.041671 0.13265 -0.489772 0.051365 -0.233653 -0.0421097 -0.148226 -0.0884139 0.194902 -0.183715 -0.0685779 0.553117
35078 0.359257 0.342145 0.966036 -0.344439 -0.804401 1.83307 5.62988 -1.78015 -0.220988 -0.111717 0.218299 0.295967 0.0449095 0.174793 -0.768642 -0.772673 0.507712 -0.208532 0.0322166 0.087869 0.103346 0.143003 -0.330241 0.0545073 -0.0690152 -0.0489849 -0.0440259 -0.244618 0.0563964 -0.0740829 0.181809 0.459585
32537 0.366123 0.110085 1.00882 -0.255281 -0.828793 1.8188 5.79027 -1.68203 -0.252929 -0.0803579 0.200716 0.13223 -0.203817 0.160098 -1.01219 -0.539221 0.351719 -0.250001 0.193016 0.163846 -0.00214719 0.187852 -0.32367 0.216112 -0.0443647 -0.192384 -0.0856733 0.0171815 0.193197 -0.00744412 0.0959474 0.54285
33189 0.224427 0.210112 0.756563 -0.626243 -0.776923 1.89993 5.78775 -1.48933 -0.510877 0.0442266 0.201141 0.3149 0.0634324 0.173979 -1.15563 -0.752281 0.210518 -0.10486 -0.0252033 -0.0212518 -0.154096 0.16295 -0.33282 0.0575479 -0.228272 -0.105211 0.231813 0.189651 0.532482 0.011121 0.362463 0.692647
36803 0.15008 0.267042 0.850223 -0.336058 -0.750979 1.91396 6.05318 -1.3556 -0.179339 0.109645 0.123965 -0.0602431 -0.439097 0.272496 -0.86551 -0.612766 0.480262 -0.2909 -0.0478575 0.0554494 -0.0563497 0.0088531 -0.368454 0.0332377 -0.279335 0.0555209 -0.0475699 -0.0799555 0.18899 0.172174 0.0888519 0.337879
34139 0.0813907 0.309507 0.879727 -0.558039 -0.97381 1.70189 5.72561 -1.71553 -0.36478 0.126994 0.0550651 0.222739 -0.340906 0.569227 -0.811916 -0.622721 0.603689 -0.0418075 -0.059126 -0.0179523 0.0366575 0.180822 -0.342261 -0.0830862 -0.260699 0.20877 -0.00680838 -0.106765 0.0651264 -0.11776 0.0541793 0.517607
32864 0.29634 0.178588 0.74359 -0.645159 -0.912262 1.88719 5.73636 -1.7905 -0.187442 -0.0766044 -0.0107072 -0.0629934 -0.315799 0.314174 -0.885079 -0.627222 0.434947 -0.131752 -0.115358 0.228565 -0.11427 0.423022 -0.167464 -0.105586 0.0155244 0.113628 0.046234 0.169583 0.173502 0.01736 0.0316956 0.515076
31879 0.141948 0.278094 0.6743 -0.380556 -1.07188 2.03509 5.90998 -1.6537 -0.213389 -0.115958 0.269359 0.0835668 -0.108973 0.354742 -0.816283 -0.738359 0.566624 -0.0779323 -0.0766094 0.161566 -0.0943959 0.259284 -0.43669 -0.00029319 -0.0812036 0.192869 0.0737368 0.120543 0.348017 -0.176782 0.130931 0.208169
31195 0.315495 0.299445 0.901069 -0.487196 -0.71414 1.81876 5.70302 -1.80873 -0.157823 0.0256082 0.294024 0.187526 -0.142951 0.160533 -0.788253 -0.890391 0.367476 -0.244539 -0.130226 0.0127529 0.0637636 0.0282755 -0.392339 0.218239 -0.0669323 -0.0719338 0.126102 -0.207555 0.112337 -0.0555109 0.145351 0.547967
30971 0.175641 0.209222 0.858569 -0.632839 -0.888869 1.84664 5.8411 -1.80888 -0.357122 -0.0457411 0.231602 0.229885 -0.189871 0.314423 -0.96666 -0.59052 0.49593 -0.13333 -0.0774914 -0.0739773 -0.0468098 0.109234 -0.467853 0.0533136 -0.073997 0.105265 0.00228564 -0.0165067 0.208564 0.142157 0.212943 0.351706
34628 0.181301 0.301763 0.854481 -0.610335 -0.938719 1.96235 5.72501 -1.59653 -0.275609 0.0269594 0.245343 0.0833339 -0.155396 0.359466 -1.02398 -0.771812 0.458018 -0.166175 -0.0570874 0.137496 -0.0933698 0.261006 -0.379892 -0.225523 -0.267874 -0.00323295 0.0596806 -0.207473 0.312813 -0.0322436 0.212363 0.414967
34487 0.197698 0.200862 0.794378 -0.605939 -0.761775 1.83529 5.86986 -1.6586 -0.174968 -0.0027818 0.112989 0.125369 -0.244202 0.385831 -0.936938 -0.662329 0.368727 -0.17994 -0.108031 0.224834 -0.250321 0.435722 -0.308884 -0.0937791 -0.201295 0.0138944 -0.136788 0.227644 0.221962 -0.0608531 0.139767 0.465506
33309 0.164216 0.203733 0.849954 -0.327242 -0.818583 1.962 5.66336 -1.82457 -0.287437 -0.248537 0.257741 0.220938 -0.426142 0.0795584 -0.950637 -0.762231 0.485053 -0.184913 0.0139523 0.0275043 0.193083 0.283547 -0.295281 0.00286079 -0.298938 0.196467 -0.141442 -0.0513671 0.484231 0.0611593 0.355713 0.298554
34584 0.20645 0.286318 0.89807 -0.632756 -0.951813 1.71363 5.60686 -1.79043 -0.11441 0.0818711 0.238663 0.0485183 -0.398724 0.0227636 -1.09253 -0.617115 0.35152 -0.154467 -0.245772 0.150964 0.0188872 0.0753647 -0.537875 0.0610613 -0.134298 0.0119011 -0.107732 -0.0166909 0.107281 -0.0572465 0.325642 0.562521
36030 -0.00228079 0.334664 0.682604 -0.391081 -0.818352 1.93511 5.88999 -1.73581 -0.40847 -0.0956053 0.189726 0.440663 -0.24221 0.0818161 -1.00909 -0.623306 0.290997 -0.128338 -0.0656751 0.0467756 0.0665584 0.168904 -0.344302 -0.0311936 -0.243947 -0.0712699 -0.0096078 -0.164579 0.3003 -0.279784 0.297081 0.411547
33449 0.177941 0.272279 0.591922 -0.403091 -0.963695 2.11272 5.49774 -1.49085 -0.157413 -0.07868 0.173891 -0.0954257 -0.0289465 0.417382 -0.909176 -0.737651 0.775495 -0.0098501 -0.0854113 0.0492732 0.310969 0.170258 -0.335101 0.0222495 -0.167832 -0.0275694 0.105594 0.00197786 0.274313 -0.236589 0.0966753 0.517091
32924 0.286499 0.405311 0.614339 -0.531402 -1.03442 2.10993 5.56645 -1.61837 -0.132303 -0.0424828 0.0556125 0.0927148 -0.193356 0.596002 -0.97312 -0.622401 0.693623 0.0844287 -0.0258325 0.362737 0.276021 0.174283 -0.18408 -0.0329669 0.102538 0.0917394 0.203008 0.0524391 0.576879 -0.270385 0.178185 0.445904
31475 0.400859 0.457637 0.588453 -0.455831 -1.0091 1.85739 5.33355 -1.74402 -0.314306 -0.00631597 0.0870554 -0.0146849 -0.166405 0.658861 -0.943372 -0.609672 0.716029 0.0614875 0.0199754 0.133066 -0.0979736 0.273092 -0.399513 0.0899828 0.241737 0.130938 0.187477 -0.207064 0.667731 -0.0968732 0.345053 0.490895
32940 0.264465 0.372671 0.837919 -0.424355 -0.840718 2.0446 6.07805 -1.84548 -0.378639 -0.0795135 0.21462 0.312035 -0.243138 0.42436 -1.00381 -0.775835 0.411751 -0.152305 -0.0140152 0.00754545 -0.0577184 0.281931 -0.487481 -0.0649344 -0.2408 0.0498695 0.0242006 0.0669692 0.423573 -0.0615812 0.178761 0.384844
33604 0.277307 0.749854 1.04161 -0.860973 -0.964531 1.86682 4.72718 -1.0776 -0.790145 -0.0712515 0.407207 0.367284 -0.447692 0.885939 -1.45314 -0.726601 0.434501 -0.232663 0.0278857 0.11265 -0.213053 0.592096 -0.48624 0.284894 -0.386619 0.253063 0.22247 0.237796 0.714077 -0.00314604 0.399399 0.72348
35755 0.271311 0.257408 0.51552 -0.362245 -0.769447 1.94045 5.64397 -1.60753 -0.386247 0.107554 0.358029 0.28406 -0.131839 0.327998 -1.16 -0.389017 0.0827021 0.131439 -0.0563416 0.0559078 0.106569 -0.0407112 -0.146828 0.00860125 -0.308525 0.0512353 -0.16505 -0.0654763 0.26562 -0.189307 -0.132236 0.457327
33492 0.387171 0.180346 0.867666 -0.421401 -0.420736 1.95974 5.93039 -1.56818 -0.54031 -0.185035 0.221827 -0.0102443 -0.304259 0.170636 -0.962796 -0.548602 0.412987 -0.0521984 -0.0626673 0.118463 -0.00462677 0.280101 -0.215426 0.160241 -0.449585 0.411097 0.137454 0.0493122 0.163213 -0.0468938 0.202681 0.23801
35145 0.279796 0.490365 0.597119 -0.833794 -0.994274 1.81356 5.94462 -1.90246 -0.428393 0.0238017 0.090056 0.304805 -0.192939 0.32343 -0.811004 -0.775027 0.453292 -0.205554 -0.056349 0.153657 0.12414 0.0606055 -0.380941 0.224883 -0.52012 -0.12578 0.081882 0.098623 0.149716 0.187184 0.205511 0.251625
34649 0.14597 0.319586 0.766679 -0.531991 -0.827427 1.82207 5.81345 -1.66921 -0.286173 -0.0932959 0.202621 0.0015612 0.0926152 0.233294 -0.957152 -0.704692 0.415532 -0.210469 0.15179 -0.0506577 -0.0630984 0.0739927 -0.347769 -0.0802608 -0.2277 0.110645 0.141816 -0.0767803 0.29032 -0.00854036 -0.051759 0.467242
35412 -0.196785 0.203782 0.993137 -0.664415 -0.826635 1.77917 5.31887 -1.63977 -0.294671 0.310427 0.27741 0.546964 -0.281041 -0.175158 -0.915731 -0.699826 0.541386 0.0124173 0.202211 0.102948 0.102602 0.293345 -0.283999 0.031911 -0.172376 0.0431716 0.0404335 0.028492 0.295195 -0.265593 0.20961 0.438308
31676 0.261983 0.15356 0.882787 -0.46856 -0.796471 1.86384 5.8777 -1.79389 -0.297205 0.132607 0.225452 0.210636 -0.14455 0.223449 -0.90391 -0.648751 0.3615 -0.137327 0.126694 0.0681665 -0.0987707 0.138859 -0.405278 -0.0150869 -0.15183 -0.0670051 0.136419 0.097864 0.203182 0.00941104 0.208513 0.277645
32077 0.21135 0.273474 0.618514 -0.500123 -0.730045 1.84776 5.68857 -1.85502 -0.385681 -0.14445 0.0549397 0.0563831 -0.311806 0.196287 -0.749914 -0.675255 0.49998 0.0507125 -0.0412634 0.08114 -0.321393 0.415322 -0.210227 -0.097489 0.0892978 -0.0145391 -0.0248894 0.453486 0.271213 0.0544641 0.147893 0.512162
31245 0.260582 0.178434 0.672002 -0.458268 -0.895759 1.95807 5.94617 -1.83545 -0.415384 -0.0967289 0.00362458 0.202865 -0.314139 0.128198 -0.767512 -0.719717 0.471236 -0.0791499 -0.077391 0.0973179 -0.0900751 0.168224 -0.393553 -0.0715905 0.00989419 0.163559 -0.0164619 -0.0191132 0.402446 -0.011674 0.170426 0.125785
32101 0.260501 0.417442 0.76423 -0.398877 -0.620053 2.03096 5.49505 -1.79458 -0.367543 -0.202816 0.294378 -0.0608995 -0.179386 -0.0813987 -1.18163 -0.57413 0.737229 -0.398183 -0.240916 0.151015 0.196831 0.142374 -0.613323 -0.202638 -0.248511 0.0842082 -0.128139 -0.0182801 0.27475 0.272908 0.616233 0.490375
35146 0.169789 0.37588 0.823044 -0.481835 -0.703766 1.87885 5.7324 -1.6886 -0.366583 0.059991 0.264399 0.0414578 -0.0804787 0.0976104 -0.722522 -0.905873 0.485096 -0.195715 0.0534424 0.17935 -0.0652584 0.355036 -0.282051 -0.132872 -0.13269 -0.156346 0.0304277 -0.141267 0.192788 -0.244634 0.160718 0.46344
32620 0.323348 0.709232 0.602472 -0.461473 -0.749607 1.86892 5.71295 -1.7287 -0.244718 -0.0529871 0.204653 -0.0409089 -0.0276424 0.188194 -1.09836 -0.664492 0.278467 -0.125006 0.214667 -0.215868 0.0645736 0.11738 -0.398648 0.0125466 -0.295574 -0.0453958 -0.064536 -0.171723 0.0927403 -0.115951 0.0913208 0.438502
34517 0.107427 0.129003 0.69076 -0.643677 -0.720917 2.0019 5.88822 -1.79829 -0.189862 -0.258165 0.145629 0.215603 -0.101352 0.235828 -0.84279 -0.682982 0.465477 -0.306078 0.10868 -0.145155 0.0620282 0.298368 -0.320975 -0.152842 -0.172243 0.0808337 -0.114018 -0.0246645 0.186123 -0.0360386 0.0990682 0.354897
36838 0.18323 0.366736 0.609737 -0.373054 -0.733271 1.98315 5.90065 -1.83278 -0.180862 -0.19893 0.231564 -0.0254657 -0.0818042 0.335034 -0.797462 -0.693601 0.447665 -0.371287 0.0602491 -0.105798 0.0239531 0.238291 -0.399371 -0.0805394 -0.128018 0.0363978 0.0562576 0.0661479 0.218453 -0.0851696 0.109086 0.276399
33424 0.388843 0.362554 0.932024 -0.382992 -0.761236 1.87943 5.68006 -1.79432 -0.221743 0.0257026 -0.0164573 -0.0148282 -0.230381 0.217644 -0.821752 -0.80077 0.581583 -0.166761 0.137044 0.0631804 -0.00806876 0.294726 -0.425788 -0.243155 -0.178002 -0.0758126 -0.00299256 0.19583 0.256351 -0.147567 0.160284 0.433422
34753 0.185099 0.272534 0.865012 -0.442835 -0.849154 1.98275 5.64241 -1.78446 -0.276843 -0.0508804 0.138019 -0.0124125 -0.240293 0.433275 -0.794593 -0.868661 0.445613 -0.406503 0.153187 -0.0501909 0.122752 0.42818 -0.236003 -0.217929 -0.334656 0.0534812 0.00341318 0.284826 0.176895 -0.149458 0.0841272 0.484315
33839 0.114242 0.261059 0.661634 -0.413979 -0.885689 1.92197 5.87766 -1.86374 -0.357212 0.000429083 0.35724 0.168802 -0.160263 0.185415 -0.891033 -0.766094 0.35076 -0.123168 -0.0776147 0.0490846 0.0571308 0.270866 -0.391088 -0.0799672 -0.295495 0.0511029 0.100137 -0.115489 0.15872 0.105236 0.189646 0.351204
36784 0.187875 0.392721 0.891344 -0.601911 -0.643737 1.77752 4.98918 -1.49579 -0.334055 -0.161559 0.349967 0.223683 -0.146196 0.337961 -0.786154 -0.931338 0.538308 -0.413335 -0.102424 -0.0458395 -0.0406672 0.436049 -0.339175 -0.132982 -0.599583 -0.34294 -0.0649426 -0.0679182 0.418341 -0.123975 0.172352 0.494024
35045 0.451531 0.167643 0.981243 -0.565566 -0.729137 1.74421 5.75224 -1.87948 -0.0896213 -0.137204 0.242371 0.235659 -0.297855 0.0381457 -0.919346 -0.777647 0.323711 -0.339809 -0.0265532 -0.153485 -0.0280964 0.167281 -0.350821 0.0822315 -0.0666067 0.0325431 -0.122696 -0.25339 0.154737 -0.027534 0.300925 0.528688
32342 0.269495 0.0916157 0.947914 -0.545437 -0.984135 1.80516 5.67982 -1.77042 -0.358516 0.13372 0.112139 0.0657024 -0.133932 0.042199 -1.0675 -0.591051 0.361293 -0.212775 0.0511981 0.147528 -0.0504587 0.265426 -0.424986 -0.0130182 -0.270274 -0.241357 -0.0183719 -0.0345231 0.27758 -0.0920558 0.0992001 0.179268
30954 0.239173 0.274299 0.755611 -0.0903532 -0.900601 1.93743 5.6476 -1.75798 -0.273396 -0.264022 0.239255 0.316236 -0.0131223 0.29232 -1.15291 -0.423839 0.246291 -0.397801 0.0338393 -0.179767 -0.0897731 0.325861 -0.410207 -0.0643457 -0.252907 -0.108743 0.333134 0.0881277 0.341171 0.10091 -0.212852 0.408384
32257 0.294958 0.163293 0.79014 -0.423348 -0.950547 1.8597 5.88821 -1.69158 -0.370044 0.066435 0.248387 0.180788 -0.203537 0.187433 -0.904143 -0.639974 0.32949 -0.111875 -0.0833658 -0.0241001 -0.0853252 0.160292 -0.476907 -0.0226663 -0.13778 -0.0628636 0.125649 0.0991343 0.131324 -0.112275 0.0385772 0.326335
31387 0.270356 0.202182 0.734632 -0.584761 -0.792329 1.84257 5.75964 -1.9331 -0.192598 -0.02571 0.156488 -0.0954555 -0.247196 0.0898707 -0.771392 -0.717065 0.400936 -0.346256 0.0351784 -0.0262203 -0.134277 0.210713 -0.465205 -0.195575 -0.198121 -0.0432906 -0.154672 -0.0794399 0.131171 -0.147677 -0.0083066 0.222851
32794 -0.0280181 0.381458 0.801561 -0.552707 -0.765129 1.86857 5.85172 -1.4933 -0.240948 -0.00558515 0.334434 0.246211 -0.258074 -0.116532 -0.947315 -0.822718 0.386056 -0.197465 -0.0632931 -0.0167365 0.0810756 0.248001 -0.264094 -0.0951924 -0.265687 0.0310811 0.0967272 0.0953801 0.429463 -0.11719 0.40068 0.521731
31064 -0.131501 0.426886 0.991295 -0.634473 -0.731258 2.15314 5.09105 -1.23665 -0.39857 0.146438 0.325204 0.315805 -0.315234 0.240075 -1.0413 -0.874127 0.575521 -0.217243 -0.247227 0.248535 -0.0875297 0.309716 -0.436623 -0.0471754 -0.34878 -0.20382 0.203481 -0.152922 0.495132 -0.313097 0.203444 0.42232
34586 0.139193 0.252445 0.785759 -0.519617 -0.683534 1.84935 5.60873 -1.5928 -0.185436 0.112956 0.145752 0.406926 -0.0124439 0.241404 -0.905759 -0.574664 0.427127 -0.22 0.000496184 0.00014727 -0.11438 0.233724 -0.375318 0.0114858 0.0298373 -0.394715 0.365176 -0.128712 0.336792 0.0218457 0.0388339 0.394492
32192 0.0439018 0.270771 1.06214 -0.379459 -0.54182 1.90735 5.54877 -1.72078 -0.305522 0.219279 0.0117611 0.373931 -0.00369289 0.136961 -0.867263 -0.954688 0.312359 0.141881 -0.00425444 0.193205 0.0715496 0.308659 -0.375347 0.426492 -0.460094 -0.296979 0.144782 -0.101566 0.321933 -0.424888 0.223572 0.351463
31998 0.176803 0.50937 0.764874 -0.35218 -0.737752 1.7732 5.51147 -1.91602 -0.271065 -0.0170985 0.120202 0.0575813 -0.265535 -0.0337652 -0.855087 -0.786067 0.413781 0.0617251 -0.0555676 0.243491 0.0439671 0.121576 -0.207862 0.114085 -0.541602 -0.031206 -0.025422 -0.0364219 0.0954665 0.00393073 0.47708 0.357859
31786 0.245179 0.315564 0.938388 -0.54784 -0.672939 1.95992 6.00838 -1.82542 -0.458465 -0.040696 0.0471071 0.167521 -0.246646 0.290856 -0.850155 -0.687737 0.525963 -0.0617182 -0.00946719 -0.0296357 -0.138067 0.293221 -0.397803 0.0971247 -0.181553 0.154478 0.153103 0.0723206 0.351058 -0.0589732 0.172829 0.141764
31544 0.464343 0.654195 0.857594 -0.607453 -0.763718 1.86519 5.67972 -1.87989 -0.0350765 0.0172939 0.368813 -0.0535945 -0.154299 0.341846 -1.05966 -0.69152 0.478335 0.124712 -0.146614 0.114858 -0.298096 0.00383351 -0.335922 -0.200114 -0.424843 0.0424174 -0.037776 -0.143369 0.296951 -0.00545264 0.199172 0.268964
36501 0.355928 0.578506 0.92299 -0.662495 -0.732972 1.83054 5.49539 -1.91036 -0.135122 -0.126461 0.2026 0.141248 0.123328 0.313282 -0.9939 -0.807835 0.489398 -0.0551963 0.115145 -0.170376 -0.166308 0.103821 -0.463232 -0.0297358 -0.294501 0.0190841 -0.115564 0.0954885 0.0337714 -0.109238 0.0478224 0.406684
35726 0.192239 0.0591845 0.766942 -0.462026 -0.81461 1.95597 5.84331 -1.73485 -0.32771 0.0563677 0.221117 0.14941 -0.0561397 0.0957494 -1.00514 -0.634388 0.420768 -0.197096 0.0572194 0.0574371 -0.0422021 0.123244 -0.339282 0.0294101 -0.209631 -0.0333132 -0.0467966 0.15393 0.300214 0.0445591 0.122181 0.455792
31681 0.51657 0.429723 0.717447 -0.490982 -0.714877 1.86141 5.61061 -1.63361 -0.430501 -0.0178334 0.33054 0.0224095 -0.384291 0.300338 -1.0676 -0.688923 0.108259 0.0161134 -0.0867918 -0.146276 0.0979456 0.236994 -0.389142 -0.0869576 -0.30836 0.0625032 0.0764512 0.00871862 0.207282 0.0474754 0.223306 0.419153
33261 0.579779 0.28329 0.836759 -0.547978 -0.922271 2.06348 4.80619 -1.15805 -0.558216 0.0725521 0.0302799 0.111559 -0.0966735 0.144229 -1.38741 -0.694658 0.678373 -0.287005 -0.0242705 0.23243 0.0948793 0.302956 -0.429514 0.111063 -0.413546 0.239953 0.162154 0.0743658 0.391321 -0.31073 0.397907 0.596423
35364 0.124276 0.334246 0.867205 -0.646876 -0.84862 1.94839 6.05247 -1.74823 -0.424393 -0.205465 0.167691 0.161162 -0.247292 0.309099 -0.950421 -0.711955 0.422442 -0.0926055 -0.00430797 0.0859662 0.0355312 0.350914 -0.443959 0.113076 -0.247075 0.189929 0.0231303 -0.0512568 0.182296 0.0670402 0.191262 0.246659
33290 0.407172 0.367789 1.40429 -0.428738 -1.13098 1.87101 4.69657 -1.12171 -0.818844 -0.0738691 0.406426 -0.032626 -0.470877 0.338705 -1.22653 -0.838467 0.49297 -0.0883464 -0.0732855 -0.269771 -0.12475 0.715558 -0.625773 -0.185105 -0.389474 0.132458 0.471599 0.00848809 0.245065 -0.102574 0.0537239 0.490922
35141 0.0757533 0.352272 0.774719 -0.624942 -0.758874 2.01871 5.80024 -1.57834 -0.421984 0.0211746 0.0516302 0.259519 -0.146873 0.191081 -0.975797 -0.768065 0.468642 -0.111014 -0.142154 0.0986129 -0.0318944 0.121604 -0.338928 0.0730607 -0.222702 0.122623 0.0577573 -0.0536138 0.303163 -0.10591 0.105548 0.474783
31689 0.169766 0.436998 0.867446 -0.585167 -0.777602 1.90344 5.64265 -1.82498 -0.282919 0.112118 0.0758186 0.0493367 -0.252252 0.163322 -0.87115 -0.780648 0.540558 -0.221315 0.0742251 0.097724 0.0625741 0.13083 -0.442155 -0.141141 -0.0967262 -0.203313 0.216844 0.13271 0.289247 -0.19676 0.195729 0.334787
33481 0.100433 0.0905622 0.51987 -0.577251 -0.902984 1.96472 5.80148 -1.78008 -0.182328 -0.191668 0.102304 0.113932 -0.0723071 0.306415 -0.831825 -0.5664 0.403519 -0.121585 -0.0159351 -0.0452723 0.0980501 0.346195 -0.21954 -0.203239 -0.160727 0.106186 0.143278 0.103392 0.172112 -0.179329 0.0927463 0.273169
33129 0.283988 0.385059 0.891457 -0.602267 -0.873256 2.06448 6.08627 -1.78725 -0.358217 -0.0379588 0.159964 0.275453 -0.213417 0.315682 -1.02525 -0.866508 0.444242 -0.194379 0.0438379 0.0225483 -0.0957308 0.362903 -0.565315 0.0117184 -0.313888 0.131798 0.00621391 -0.0409897 0.304466 -0.0177469 0.27241 0.346859
33940 0.0309746 0.200548 0.930989 -0.532252 -0.478103 2.25465 5.3445 -1.86998 -0.468009 -0.307785 0.141915 0.131366 -0.460711 0.213086 -0.897163 -0.714688 0.759106 -0.0337332 0.00233693 0.0726422 -0.179725 0.163579 -0.269749 0.439614 -0.4181 0.142367 0.299371 -0.0629065 0.285868 -0.080759 0.0668761 0.406403
35674 0.0436427 0.35884 0.808033 -0.77037 -1.03147 2.14524 5.13969 -1.53913 -0.571155 -0.0689169 0.484862 0.0686842 -0.0205499 0.435885 -0.899118 -1.10132 0.207724 0.084693 0.142422 0.227013 0.112362 -0.110169 -0.598628 -0.0138716 -0.103225 -0.00266728 0.182742 -0.107099 0.431993 0.117397 0.0391991 0.268241
34547 0.313711 0.191027 0.929033 -0.5941 -0.792584 1.83999 5.66948 -1.87413 -0.391534 -0.087333 0.390318 0.00626661 0.0319181 0.25109 -0.955494 -0.710566 0.427521 -0.237991 0.0338082 0.214559 -0.0325675 -0.0191431 -0.445783 0.116481 -0.193792 0.12338 0.0533502 -0.0549816 0.205591 -0.127117 0.187862 0.358251
31384 0.345321 0.13777 0.87604 -0.546208 -0.646945 1.92046 5.91531 -1.70177 -0.386334 -0.0163706 0.136151 0.088659 -0.258835 0.329263 -0.946869 -0.647059 0.478615 0.0277511 0.0335247 -0.0294374 0.100407 0.118 -0.531892 0.121294 -0.225459 0.12216 0.0159648 0.0892427 0.289447 -0.154177 0.0240791 0.270043
33227 0.508221 0.331044 0.764867 -0.461781 -0.778896 1.98834 5.72795 -1.75379 -0.305849 0.177295 0.141508 0.0433912 -0.258194 0.182428 -1.01009 -0.619919 0.497184 -0.0685514 -0.221933 0.0872082 -0.166511 0.0376403 -0.344801 0.0371388 -0.139936 -0.133405 0.14472 -0.12402 0.195931 -0.113869 0.0331619 0.412939
31469 0.236464 0.065227 0.729587 -0.400563 -1.07954 1.86087 5.83686 -1.64042 -0.27601 -0.231377 0.184116 0.303852 -0.0546044 0.0961578 -0.945979 -0.626023 0.263093 -0.190678 -0.0418936 0.0495888 -0.0344457 0.36663 -0.344227 0.0887415 -0.295441 -0.126492 0.129582 -0.0234869 0.069349 -0.0489341 -0.00555371 0.3764
34284 0.290118 0.384498 0.843081 -0.288771 -0.788264 1.81272 5.79557 -1.5448 -0.2967 -0.113802 0.23914 0.20125 -0.130097 0.368486 -0.996469 -0.528562 0.500126 0.000142965 -0.169418 0.175679 -0.12708 0.188044 -0.525941 -0.158043 -0.25633 0.110732 -0.0783601 -0.0107154 0.445133 0.0818038 0.0702218 0.225054
34058 0.439426 0.47837 0.782236 -0.289525 -0.824607 1.94614 5.70649 -1.64162 -0.383671 -0.14394 0.237664 0.208935 -0.0286166 0.436065 -0.896176 -0.741077 0.647046 -0.108094 0.0752921 -0.0732881 -0.161241 0.275148 -0.433094 0.0629734 -0.06272 -0.0655001 -0.103077 -0.000122895 0.292848 0.133568 0.192355 0.478098
34404 0.304855 0.354355 0.954076 -0.496773 -0.812157 1.82044 5.99357 -1.72912 -0.358109 0.0718142 0.196894 0.219778 -0.125711 0.107021 -0.997926 -0.557808 0.508899 -0.0503186 0.0368829 -0.0413778 -0.207483 0.198687 -0.415782 0.0706907 -0.295453 -0.0290722 -0.0376098 0.144827 0.111741 -0.00126036 0.219455 0.211971
36869 0.238903 0.359286 0.777517 -0.588504 -0.755675 1.98616 5.95799 -1.73981 -0.33606 -0.14063 0.332697 0.156331 -0.126962 0.439462 -0.902555 -0.796148 0.440618 -0.201303 0.0355806 0.145373 -0.114841 0.191157 -0.396957 -0.0867061 -0.231651 0.155621 -0.0300377 -0.0937166 0.215426 -0.0397139 0.214542 0.415988
32098 0.28615 0.305909 0.54981 -0.402561 -0.973123 2.08063 5.61031 -1.66758 -0.454825 -0.0029253 0.0551422 0.167021 -0.372421 0.465197 -1.00358 -0.780012 0.213812 0.0174954 -0.0480224 -0.0447612 0.0923184 0.0154011 -0.45739 0.0534193 -0.225899 0.00200984 -0.22122 0.00713889 0.310693 -0.133712 0.30042 0.441058
33728 0.277156 0.259371 0.747003 -0.385892 -0.945204 1.88363 5.89622 -1.75998 -0.152755 -0.147606 0.190924 0.137533 -0.192981 0.283764 -0.731608 -0.864685 0.391284 -0.191668 0.208733 0.071008 0.0442457 0.130766 -0.209383 -0.0684417 -0.254585 -0.054837 -0.0484207 0.0110022 0.118193 0.0950055 0.172836 0.459685
